~o
<STREAMINFO> 1 39
<VECSIZE> 39<NULLD><MFCC_D_A_0><DIAGC>
~s "silst"
<MEAN> 39
 -5.375899e+00 -1.282125e+01 1.322652e+01 -8.678532e+00 1.943310e+00 7.045370e+00 -7.150521e+00 1.068356e+01 -7.145639e+00 5.421104e+00 3.117300e+00 -1.295745e+00 5.666144e+01 -1.601132e-01 5.692279e-02 2.004302e-02 1.441010e-01 5.194913e-02 6.878705e-02 7.292408e-02 2.644826e-02 5.660114e-02 -7.136992e-02 -2.594544e-02 -2.865687e-02 -1.692826e-01 6.737159e-02 4.021315e-02 -6.238929e-02 9.439191e-02 1.503792e-02 3.243857e-02 1.353128e-02 -4.140569e-02 5.595873e-02 -4.944659e-02 -6.660887e-03 -2.423774e-02 -5.221204e-03
<VARIANCE> 39
 1.231309e+01 1.301381e+01 1.957914e+01 1.782314e+01 1.421445e+01 2.156628e+01 1.492662e+01 2.217662e+01 2.059847e+01 1.547900e+01 1.260341e+01 1.064687e+01 9.199680e+00 6.130836e-01 1.099012e+00 1.786520e+00 1.649351e+00 1.144513e+00 1.795323e+00 1.312936e+00 1.610772e+00 1.934413e+00 1.517742e+00 1.105088e+00 9.881954e-01 6.336800e-01 8.764157e-02 1.970411e-01 3.438288e-01 3.079206e-01 2.312011e-01 3.493944e-01 2.582771e-01 3.097797e-01 3.812574e-01 2.976627e-01 2.182533e-01 1.978218e-01 1.056610e-01
<GCONST> 9.097125e+01
~h "a"
<BEGINHMM>
<NUMSTATES> 5
<STATE> 2
<MEAN> 39
 8.686063e+00 -1.610970e+01 7.058985e+00 -1.426170e+01 1.475699e+00 3.293807e-01 -8.900290e+00 9.160203e+00 -1.444821e+01 4.337895e+00 1.561876e+00 7.481241e-01 7.179876e+01 2.036905e+00 -2.685736e-01 -1.952194e+00 -3.969116e-01 -2.649953e-02 -1.926923e+00 4.063299e-01 5.751005e-01 -8.519279e-01 4.271736e-01 3.137914e-01 4.484239e-01 1.772546e+00 -2.852280e-01 1.291029e-01 2.415578e-01 3.555059e-01 2.637721e-01 3.025481e-01 3.801382e-02 -1.129426e-01 1.242354e-01 3.825266e-02 -5.373319e-02 -2.015772e-01 -3.084182e-01
<VARIANCE> 39
 6.627502e+01 2.338967e+01 5.740039e+01 3.266010e+01 3.967875e+01 5.999458e+01 4.787780e+01 5.141230e+01 5.609068e+01 3.444122e+01 2.625356e+01 1.951908e+01 8.142928e+01 4.703614e+00 2.595611e+00 5.744913e+00 3.852667e+00 3.080755e+00 5.511795e+00 3.799335e+00 3.752730e+00 3.265100e+00 3.221890e+00 2.560215e+00 2.070029e+00 4.062577e+00 9.948614e-01 6.067420e-01 1.251527e+00 7.874399e-01 5.919651e-01 1.214427e+00 6.919506e-01 6.615494e-01 6.255319e-01 5.703921e-01 5.180168e-01 4.867268e-01 8.362225e-01
<GCONST> 1.326415e+02
<STATE> 3
<MEAN> 39
 1.479784e+01 -1.766616e+01 2.056076e+00 -1.432400e+01 3.389566e+00 -5.478024e+00 -9.910980e+00 9.655454e+00 -1.772445e+01 5.143199e+00 3.036034e+00 1.847168e+00 7.815655e+01 -2.846200e-01 1.861487e-01 6.020893e-01 4.434413e-01 3.346313e-01 6.993323e-01 3.120394e-01 -3.282346e-01 3.888560e-03 2.474572e-01 -6.073315e-02 -2.088198e-01 -3.671797e-01 -6.314173e-01 2.941594e-01 9.264042e-01 2.136123e-01 7.237682e-02 9.934287e-01 -6.124737e-02 -2.853247e-01 3.582579e-01 -2.357388e-01 -3.297405e-01 -3.486876e-01 -6.578462e-01
<VARIANCE> 39
 5.193947e+00 1.364890e+01 3.589569e+01 2.181496e+01 4.102034e+01 2.841031e+01 4.056457e+01 5.877376e+01 5.749100e+01 4.711901e+01 2.893500e+01 2.231228e+01 1.383956e+01 9.259847e-01 1.620592e+00 5.051930e+00 2.022161e+00 2.481112e+00 3.683956e+00 3.183160e+00 2.385041e+00 2.692180e+00 3.121976e+00 2.048045e+00 2.013846e+00 1.409580e+00 3.540601e-01 3.010443e-01 6.755897e-01 4.482174e-01 4.471318e-01 6.148039e-01 4.312938e-01 5.586715e-01 6.187921e-01 6.300715e-01 3.775357e-01 4.843390e-01 2.294469e-01
<GCONST> 1.150387e+02
<STATE> 4
<MEAN> 39
 1.127732e+01 -1.427533e+01 7.517173e+00 -1.323353e+01 3.128895e+00 1.186630e+00 -7.961273e+00 8.388175e+00 -1.611109e+01 4.821102e+00 2.467582e+00 -8.180742e-02 7.321125e+01 -1.811391e+00 1.099067e+00 2.001853e+00 8.554418e-01 4.647789e-02 2.443149e+00 6.599615e-02 -5.494249e-01 1.232757e+00 -7.420989e-01 -5.665537e-01 -7.950961e-01 -2.187338e+00 -3.230369e-01 -1.990844e-01 4.348455e-02 2.103536e-02 -2.921687e-02 -1.311737e-01 -3.242068e-01 2.745268e-02 1.540743e-01 -1.830381e-01 -6.168978e-02 7.356192e-03 -1.029390e-01
<VARIANCE> 39
 1.536756e+01 2.040934e+01 5.499827e+01 3.294843e+01 4.972147e+01 4.572114e+01 5.185664e+01 6.440300e+01 5.454229e+01 5.354370e+01 3.026633e+01 2.336846e+01 3.027290e+01 2.196481e+00 2.412475e+00 5.938441e+00 3.202756e+00 3.834126e+00 4.641506e+00 3.395422e+00 3.696237e+00 3.468779e+00 3.963123e+00 2.234598e+00 3.444167e+00 2.418888e+00 3.014377e-01 3.477894e-01 8.708541e-01 4.284789e-01 4.235657e-01 6.060403e-01 5.200942e-01 4.977606e-01 5.628049e-01 6.578863e-01 3.391940e-01 4.092900e-01 2.551250e-01
<GCONST> 1.240016e+02
<TRANSP> 5
 0.000000e+00 1.000000e+00 0.000000e+00 0.000000e+00 0.000000e+00
 0.000000e+00 4.942776e-01 5.057224e-01 0.000000e+00 0.000000e+00
 0.000000e+00 0.000000e+00 6.319354e-01 3.680646e-01 0.000000e+00
 0.000000e+00 0.000000e+00 0.000000e+00 3.865991e-01 6.134009e-01
 0.000000e+00 0.000000e+00 0.000000e+00 0.000000e+00 0.000000e+00
<ENDHMM>
~h "b"
<BEGINHMM>
<NUMSTATES> 5
<STATE> 2
<MEAN> 39
 8.847337e+00 -2.263323e+00 1.585807e+01 -2.543970e+00 7.614910e+00 7.473947e+00 -9.152513e+00 7.950292e+00 -1.066189e+01 -1.160913e+00 -1.755841e+00 -4.400316e+00 6.290882e+01 -4.062352e-01 -1.134145e-01 1.040470e+00 -6.104476e-02 -4.404886e-02 9.612340e-01 1.147757e-01 -4.999112e-01 -6.141335e-02 4.088502e-01 -1.413298e-01 -2.402621e-01 -1.175607e-01 2.418076e-01 -1.123579e+00 -4.519213e-01 -5.243716e-01 -8.752394e-02 -8.296754e-01 -4.315464e-01 2.523242e-02 -7.032098e-01 -5.455015e-02 7.084814e-02 4.604021e-02 9.646293e-01
<VARIANCE> 39
 1.647512e+01 1.032346e+01 1.997587e+01 1.190265e+01 1.372562e+01 1.148148e+01 1.372217e+01 2.161332e+01 1.579481e+01 2.067942e+01 1.478910e+01 1.324125e+01 1.032913e+01 1.035929e+00 4.650346e+00 1.840496e+00 2.392592e+00 1.996063e+00 2.562867e+00 1.376726e+00 1.737762e+00 2.402895e+00 1.559196e+00 1.149851e+00 1.150537e+00 2.675275e+00 1.595426e-01 4.245451e-01 3.764890e-01 4.200138e-01 4.256706e-01 4.630728e-01 3.790949e-01 3.417012e-01 5.273970e-01 4.093240e-01 3.108754e-01 3.172428e-01 3.161289e-01
<GCONST> 1.013767e+02
<STATE> 3
<MEAN> 39
 8.475135e+00 -8.573404e+00 1.707201e+01 -6.218939e+00 5.736666e+00 8.835164e+00 -8.180065e+00 7.052367e+00 -1.355680e+01 -7.246587e-01 -2.709610e+00 -4.778543e+00 6.700954e+01 9.265559e-01 -3.343969e+00 -1.302998e+00 -1.161259e+00 4.516148e-02 -1.867972e+00 -1.469801e+00 -3.835659e-01 -2.156634e+00 -4.190120e-01 -1.662798e-02 -1.600383e-01 2.962509e+00 4.847194e-01 -1.619060e-01 -7.501206e-01 5.044835e-01 4.636488e-01 -1.353163e+00 -8.662048e-01 3.809039e-02 -4.133689e-01 -2.403816e-01 3.383214e-01 -6.244301e-03 5.048499e-01
<VARIANCE> 39
 1.053265e+01 3.541964e+01 2.845544e+01 2.018510e+01 1.754213e+01 2.305163e+01 1.378269e+01 3.042720e+01 2.141518e+01 2.754027e+01 1.289054e+01 1.211834e+01 1.753769e+01 9.254955e-01 2.764512e+00 2.517634e+00 2.990171e+00 4.815052e+00 2.623844e+00 2.125977e+00 2.332217e+00 3.817663e+00 3.168726e+00 2.490824e+00 1.811154e+00 1.352500e+00 1.252772e-01 6.175377e-01 5.966401e-01 5.338079e-01 3.699476e-01 4.072808e-01 3.675583e-01 3.503515e-01 5.413099e-01 5.913478e-01 3.823087e-01 2.950149e-01 2.438114e-01
<GCONST> 1.093072e+02
<STATE> 4
<MEAN> 39
 1.196936e+01 -1.402521e+01 1.221372e+01 -8.031950e+00 7.103553e+00 3.551677e+00 -1.289907e+01 5.485138e+00 -1.942449e+01 -3.496453e+00 -2.797693e+00 -4.514812e+00 7.340319e+01 1.239639e+00 -2.365556e+00 -1.783445e+00 3.721224e-01 1.100512e+00 -3.529951e+00 -2.683254e+00 -4.001572e-01 -2.321904e+00 -3.295132e-01 9.263777e-01 -2.709153e-01 2.626752e+00 -1.201674e-01 6.893079e-01 1.917843e-01 7.712984e-01 2.641940e-01 -3.756366e-01 -2.130919e-01 1.366371e-01 4.648854e-01 2.304386e-01 2.845065e-01 -5.730303e-02 -4.826261e-01
<VARIANCE> 39
 1.027594e+01 1.704202e+01 3.619621e+01 2.853430e+01 4.923426e+01 3.989788e+01 2.215940e+01 4.684212e+01 4.085756e+01 3.372977e+01 2.506955e+01 1.420657e+01 1.135007e+01 1.102696e+00 2.959185e+00 3.466586e+00 4.639111e+00 4.657801e+00 2.510005e+00 2.645576e+00 2.772458e+00 3.879823e+00 4.023306e+00 3.426465e+00 2.195073e+00 1.171078e+00 1.300694e-01 4.432274e-01 5.634657e-01 3.657265e-01 4.825811e-01 7.745134e-01 4.569530e-01 4.303727e-01 7.283723e-01 6.436946e-01 3.747330e-01 2.944039e-01 2.181022e-01
<GCONST> 1.156513e+02
<TRANSP> 5
 0.000000e+00 1.000000e+00 0.000000e+00 0.000000e+00 0.000000e+00
 0.000000e+00 7.277102e-01 2.722898e-01 0.000000e+00 0.000000e+00
 0.000000e+00 0.000000e+00 1.683107e-01 8.316893e-01 0.000000e+00
 0.000000e+00 0.000000e+00 0.000000e+00 2.424683e-01 7.575317e-01
 0.000000e+00 0.000000e+00 0.000000e+00 0.000000e+00 0.000000e+00
<ENDHMM>
~h "c"
<BEGINHMM>
<NUMSTATES> 5
<STATE> 2
<MEAN> 39
 -5.798288e+00 -1.713399e+01 2.874120e+01 -1.620451e+01 4.419914e-01 7.406059e+00 -6.307911e+00 5.103140e+00 -1.735342e+01 6.667395e+00 -2.922089e+00 -2.473328e+00 6.933979e+01 -3.700812e+00 -2.119117e+00 2.787936e+00 -2.777351e+00 -7.184393e-01 4.636829e-01 3.460605e-01 -3.071732e-01 -4.498258e-01 1.546245e+00 -2.665074e-01 2.105290e-02 8.998454e-01 4.033204e-01 -3.437987e-01 -4.008121e-01 3.361638e-02 1.728470e-01 -3.206164e-01 -2.217370e-01 2.444688e-01 -1.572702e-01 8.607175e-02 3.956688e-01 -6.531585e-02 5.840543e-01
<VARIANCE> 39
 4.189536e+01 3.019656e+01 8.105810e+01 5.042393e+01 3.416400e+01 3.308504e+01 3.179169e+01 3.270071e+01 4.127764e+01 2.806207e+01 1.887300e+01 1.596751e+01 3.977097e+01 3.822425e+00 3.674113e+00 7.443179e+00 4.764561e+00 2.408623e+00 2.560953e+00 2.429125e+00 3.433183e+00 3.509447e+00 2.745561e+00 1.708280e+00 1.394447e+00 3.492228e+00 6.463492e-01 8.152765e-01 1.555514e+00 1.183888e+00 4.009056e-01 5.883946e-01 5.002583e-01 4.673713e-01 6.105546e-01 4.559354e-01 3.196725e-01 3.370650e-01 5.205827e-01
<GCONST> 1.250067e+02
<STATE> 3
<MEAN> 39
 -1.416364e+01 -2.612133e+01 3.458961e+01 -2.219912e+01 -6.853103e-02 9.219707e+00 -5.789535e+00 6.330508e+00 -1.848845e+01 1.194699e+01 6.131419e-01 -2.488169e+00 7.532417e+01 9.692587e-01 -2.524116e-01 -6.008412e-01 1.006407e+00 2.450007e-01 3.714012e-01 -1.455344e-01 -1.334565e-01 1.037972e-01 -1.171846e-01 9.715099e-01 1.491070e-02 3.537971e-01 1.178472e+00 7.411567e-01 -8.764683e-01 8.168956e-01 2.119997e-01 -1.874801e-01 -1.924483e-01 -2.196595e-01 -6.784102e-02 -5.319090e-01 -3.880160e-02 -8.890473e-02 -3.442784e-01
<VARIANCE> 39
 1.883497e+01 1.861884e+01 2.486876e+01 3.124885e+01 2.908508e+01 3.182379e+01 4.138954e+01 2.697579e+01 4.414423e+01 2.111992e+01 3.368483e+01 1.761411e+01 1.521811e+01 6.355508e+00 3.596279e+00 4.790547e+00 4.717491e+00 1.875571e+00 2.000329e+00 2.351936e+00 2.472059e+00 2.490236e+00 2.556348e+00 1.673757e+00 1.190496e+00 1.275723e+00 5.415434e-01 5.176867e-01 9.510365e-01 7.456964e-01 4.058474e-01 3.952698e-01 4.805929e-01 4.357989e-01 5.560569e-01 3.642919e-01 3.969489e-01 2.517631e-01 1.577495e-01
<GCONST> 1.153453e+02
<STATE> 4
<MEAN> 39
 1.430260e+00 -1.915169e+01 2.450129e+01 -1.360644e+01 2.261525e+00 9.964215e+00 -8.644774e+00 7.371081e-01 -2.019069e+01 7.300438e+00 3.308046e+00 -3.526832e+00 7.463311e+01 4.637762e+00 2.327158e+00 -4.390195e+00 2.142480e+00 1.553164e+00 -1.490076e+00 -1.491519e+00 -6.524122e-01 -1.151140e+00 -1.262806e+00 -4.916784e-02 -5.968663e-01 -7.183344e-01 -5.539547e-01 -2.513445e-01 1.358020e-02 -3.038973e-01 2.008491e-01 -4.108142e-01 -1.515050e-01 4.625894e-01 1.381366e-01 2.570086e-01 -2.843871e-01 4.819460e-02 -1.105446e-01
<VARIANCE> 39
 6.248681e+01 2.582592e+01 6.672279e+01 2.553139e+01 2.842155e+01 3.632357e+01 4.365692e+01 4.384184e+01 2.968415e+01 2.692262e+01 1.959266e+01 1.060556e+01 3.019524e+01 4.286969e+00 3.109106e+00 5.205582e+00 3.632174e+00 2.932569e+00 3.535973e+00 3.353298e+00 3.068846e+00 4.126218e+00 2.588671e+00 2.387172e+00 1.348790e+00 1.578887e+00 8.937203e-01 5.995368e-01 1.098135e+00 4.636956e-01 5.269469e-01 5.062668e-01 4.940244e-01 5.246869e-01 5.022318e-01 3.801754e-01 2.515122e-01 2.164450e-01 2.135560e-01
<GCONST> 1.205418e+02
<TRANSP> 5
 0.000000e+00 1.000000e+00 0.000000e+00 0.000000e+00 0.000000e+00
 0.000000e+00 7.247593e-01 2.752408e-01 0.000000e+00 0.000000e+00
 0.000000e+00 0.000000e+00 8.150902e-01 1.849098e-01 0.000000e+00
 0.000000e+00 0.000000e+00 0.000000e+00 5.294637e-01 4.705363e-01
 0.000000e+00 0.000000e+00 0.000000e+00 0.000000e+00 0.000000e+00
<ENDHMM>
~h "d"
<BEGINHMM>
<NUMSTATES> 5
<STATE> 2
<MEAN> 39
 7.406283e+00 -8.055320e+00 1.531539e+01 -2.037446e+00 9.538861e+00 7.316214e+00 -1.277652e+01 4.519984e+00 -1.265334e+01 -4.859185e-01 3.387891e-01 -1.423985e+00 6.523872e+01 -1.107975e-01 -3.717137e-01 6.193780e-01 -2.535844e-01 -1.639248e-01 5.488519e-01 2.072866e-01 -3.435776e-01 -2.641770e-01 1.717000e-01 -2.089158e-01 -3.571966e-02 1.376646e-01 3.042765e-01 -9.421574e-01 -3.374248e-01 -4.891865e-01 3.053030e-02 -9.224423e-01 -5.796869e-01 -4.747941e-02 -7.513293e-01 3.075898e-01 2.000136e-01 -2.395092e-01 9.989446e-01
<VARIANCE> 39
 2.875187e+01 4.829001e+01 5.244562e+01 3.448195e+01 3.024713e+01 2.928801e+01 3.406712e+01 4.203745e+01 2.603691e+01 2.124654e+01 2.462606e+01 1.952655e+01 2.611705e+01 1.759153e+00 6.778204e+00 4.464005e+00 3.982970e+00 3.206942e+00 5.569238e+00 3.722011e+00 3.727110e+00 4.146003e+00 2.050374e+00 2.002565e+00 2.143078e+00 4.483497e+00 2.689558e-01 9.611993e-01 8.732162e-01 6.158718e-01 6.762570e-01 1.084189e+00 9.215655e-01 8.563814e-01 6.955124e-01 5.573813e-01 5.231762e-01 5.544522e-01 5.596423e-01
<GCONST> 1.269012e+02
<STATE> 3
<MEAN> 39
 9.686563e+00 -1.512402e+01 1.332006e+01 -5.906014e+00 9.986455e+00 5.335015e+00 -1.599725e+01 3.299461e+00 -1.637580e+01 -5.610695e-01 -7.304024e-01 -2.427791e+00 7.183282e+01 6.599569e-01 -1.908093e+00 -6.269309e-01 -1.105481e+00 3.741419e-01 -2.021937e+00 -1.534781e+00 -2.578260e-01 -1.867580e+00 5.366480e-01 4.614606e-01 -1.950219e-01 2.146523e+00 2.428832e-01 1.096119e-01 -3.372428e-01 1.156333e-02 6.468949e-02 -8.096852e-01 -1.393078e-01 2.805878e-01 -2.948755e-01 1.788160e-01 3.213115e-01 -3.297752e-02 2.544833e-01
<VARIANCE> 39
 1.445544e+01 4.670926e+01 5.523063e+01 4.001074e+01 4.003322e+01 4.940605e+01 4.200506e+01 3.174966e+01 2.996400e+01 2.612675e+01 2.470677e+01 2.043430e+01 2.717219e+01 1.721059e+00 4.144304e+00 5.609401e+00 3.801086e+00 2.868854e+00 7.632727e+00 4.608252e+00 4.641624e+00 3.558369e+00 2.932730e+00 3.598176e+00 3.944592e+00 3.107875e+00 1.639650e-01 9.119365e-01 6.532151e-01 6.030868e-01 8.800781e-01 1.215378e+00 1.220295e+00 8.312061e-01 7.632037e-01 7.501765e-01 4.803496e-01 4.268037e-01 4.361585e-01
<GCONST> 1.284510e+02
<STATE> 4
<MEAN> 39
 1.083153e+01 -1.578573e+01 1.215496e+01 -6.634377e+00 1.045646e+01 1.429905e+00 -1.760608e+01 2.390364e+00 -1.978437e+01 7.973894e-01 8.777360e-01 -2.483762e+00 7.420963e+01 6.978059e-01 -1.072638e+00 -7.786490e-01 -6.937047e-01 2.901199e-01 -2.228534e+00 -9.050824e-01 3.599779e-01 -1.617402e+00 7.158491e-01 7.596045e-01 -3.306545e-01 1.643100e+00 -6.087605e-02 4.424696e-01 -4.528156e-02 1.818804e-01 -1.431240e-01 8.420081e-02 4.279393e-01 3.520119e-01 3.980628e-01 -6.329686e-02 3.533529e-02 5.660177e-02 -3.286445e-01
<VARIANCE> 39
 1.858715e+01 3.771184e+01 8.117478e+01 4.623976e+01 3.827394e+01 6.531791e+01 4.659842e+01 3.611138e+01 3.676919e+01 3.296272e+01 3.985577e+01 2.862400e+01 2.787034e+01 1.610465e+00 3.340763e+00 5.019083e+00 3.930078e+00 3.675783e+00 6.402685e+00 5.886896e+00 5.588983e+00 3.614685e+00 4.591779e+00 3.233150e+00 3.640357e+00 1.713710e+00 2.105836e-01 7.425637e-01 8.460521e-01 6.411128e-01 6.323665e-01 1.336061e+00 9.298424e-01 6.359752e-01 7.690600e-01 5.413100e-01 5.640180e-01 4.476714e-01 4.914331e-01
<GCONST> 1.301852e+02
<TRANSP> 5
 0.000000e+00 1.000000e+00 0.000000e+00 0.000000e+00 0.000000e+00
 0.000000e+00 5.813746e-01 4.186253e-01 0.000000e+00 0.000000e+00
 0.000000e+00 0.000000e+00 1.653285e-01 8.346715e-01 0.000000e+00
 0.000000e+00 0.000000e+00 0.000000e+00 7.660527e-02 9.233947e-01
 0.000000e+00 0.000000e+00 0.000000e+00 0.000000e+00 0.000000e+00
<ENDHMM>
~h "e"
<BEGINHMM>
<NUMSTATES> 5
<STATE> 2
<MEAN> 39
 1.284305e+01 -1.950390e+01 8.430386e+00 -8.213881e+00 1.016128e+01 -4.050477e+00 -1.880384e+01 4.241141e+00 -2.128679e+01 4.969424e+00 5.903858e+00 -6.309063e-01 7.826146e+01 3.214846e-01 3.394698e-01 -6.630386e-01 -8.856475e-02 1.513561e-01 -1.798551e-01 3.883076e-01 1.526762e-01 -3.625354e-01 1.179228e-01 3.597957e-01 2.671773e-01 -2.461959e-01 -6.409130e-01 2.469071e-01 7.438436e-01 6.789673e-02 -2.717108e-01 8.711428e-01 5.601444e-01 1.905558e-02 5.162734e-01 -1.793005e-01 -4.768951e-01 -1.361789e-01 -5.553073e-01
<VARIANCE> 39
 6.539872e+00 1.367049e+01 4.569504e+01 3.756195e+01 2.930001e+01 3.601891e+01 4.254269e+01 4.017982e+01 3.306741e+01 4.536922e+01 2.287386e+01 2.902781e+01 1.508169e+01 1.775787e+00 1.540512e+00 5.896601e+00 2.509419e+00 2.269111e+00 4.503961e+00 2.931944e+00 2.926810e+00 2.596038e+00 3.759909e+00 2.354604e+00 2.143230e+00 1.085027e+00 4.210801e-01 4.003882e-01 7.251972e-01 4.971519e-01 4.312725e-01 5.617663e-01 4.719031e-01 5.705786e-01 5.527040e-01 6.382599e-01 4.280121e-01 5.004533e-01 1.811122e-01
<GCONST> 1.168807e+02
<STATE> 3
<MEAN> 39
 1.222965e+01 -1.778469e+01 1.021135e+01 -7.804615e+00 1.009503e+01 -1.788244e+00 -1.642403e+01 4.610157e+00 -2.144592e+01 3.673239e+00 4.540547e+00 -1.074787e+00 7.631348e+01 -8.061805e-01 1.380668e+00 9.686468e-01 4.001720e-01 -4.087333e-01 2.088386e+00 1.439963e+00 -2.071090e-01 9.775608e-01 -5.836627e-01 -9.413261e-01 -2.450821e-01 -1.595780e+00 -5.801210e-01 1.077279e-01 5.911412e-01 6.200115e-02 -2.271770e-01 5.802140e-01 1.427200e-01 -6.889173e-02 5.409540e-01 -5.357517e-02 -3.353419e-01 -1.814932e-01 -3.700167e-01
<VARIANCE> 39
 9.297441e+00 1.649390e+01 5.214140e+01 4.700399e+01 3.213614e+01 3.996357e+01 4.749965e+01 4.863486e+01 3.661713e+01 6.040411e+01 2.486079e+01 3.815872e+01 1.622163e+01 1.683738e+00 1.761554e+00 6.395925e+00 2.691542e+00 2.679737e+00 4.826467e+00 3.235264e+00 3.202858e+00 2.571848e+00 3.744252e+00 2.363376e+00 2.787010e+00 1.680741e+00 3.193066e-01 3.170238e-01 7.915794e-01 4.982455e-01 4.027012e-01 4.713469e-01 4.257340e-01 6.502871e-01 5.194743e-01 6.691096e-01 3.455970e-01 6.771648e-01 1.744973e-01
<GCONST> 1.198385e+02
<STATE> 4
<MEAN> 39
 9.301087e+00 -1.498402e+01 1.247612e+01 -7.375452e+00 8.228776e+00 3.328495e+00 -1.359629e+01 3.837635e+00 -1.763146e+01 4.150941e+00 3.389898e+00 -1.384839e+00 7.219296e+01 -1.416118e+00 1.109233e+00 1.245391e+00 2.647371e-01 -7.051202e-01 2.049501e+00 9.900396e-01 -1.964688e-01 1.397618e+00 -5.430904e-01 -1.014621e+00 -3.902305e-01 -1.881459e+00 -1.943135e-01 -3.128943e-01 4.107610e-02 -1.683338e-01 -9.834424e-02 -3.293010e-01 -2.520245e-01 9.842262e-02 -1.800418e-02 2.374046e-02 -1.133997e-02 -5.577219e-02 1.563480e-01
<VARIANCE> 39
 1.750467e+01 2.117937e+01 5.777224e+01 4.946891e+01 3.862808e+01 5.046309e+01 4.200777e+01 5.062007e+01 3.880320e+01 6.881383e+01 2.611427e+01 3.124206e+01 3.035067e+01 2.383835e+00 2.372747e+00 6.317622e+00 2.899139e+00 3.035838e+00 4.584986e+00 2.832455e+00 3.245969e+00 2.912775e+00 3.038724e+00 2.217952e+00 3.707950e+00 2.034050e+00 2.283830e-01 2.945351e-01 7.906497e-01 4.481455e-01 3.900070e-01 6.000531e-01 4.438457e-01 5.623290e-01 4.496749e-01 7.496524e-01 3.849901e-01 4.186001e-01 2.214260e-01
<GCONST> 1.222876e+02
<TRANSP> 5
 0.000000e+00 1.000000e+00 0.000000e+00 0.000000e+00 0.000000e+00
 0.000000e+00 5.464681e-01 4.535319e-01 0.000000e+00 0.000000e+00
 0.000000e+00 0.000000e+00 1.226962e-01 8.773038e-01 0.000000e+00
 0.000000e+00 0.000000e+00 0.000000e+00 2.441342e-01 7.558658e-01
 0.000000e+00 0.000000e+00 0.000000e+00 0.000000e+00 0.000000e+00
<ENDHMM>
~h "f"
<BEGINHMM>
<NUMSTATES> 5
<STATE> 2
<MEAN> 39
 7.105518e+00 -1.285474e+01 1.805992e+01 -1.245930e+01 7.931121e+00 4.318220e+00 -1.112924e+01 1.041831e+01 -1.628233e+01 3.664171e+00 3.417660e-01 -3.957681e+00 7.129015e+01 -2.952044e+00 -9.064795e-01 3.930386e+00 -1.551549e+00 3.634723e-01 2.794962e+00 1.434683e+00 7.225618e-01 5.251763e-01 1.403735e+00 -1.762029e-01 5.781534e-01 -7.239397e-01 -3.864238e-01 -8.736957e-01 -3.741757e-01 -1.691210e-01 -6.030538e-02 -5.029792e-01 -2.683770e-01 -2.925660e-01 -2.329489e-01 -3.050676e-02 -1.114326e-01 2.043371e-01 4.036041e-01
<VARIANCE> 39
 2.765029e+01 2.138325e+01 3.918424e+01 5.393894e+01 5.060539e+01 3.609866e+01 2.887625e+01 2.975707e+01 3.334018e+01 2.444207e+01 2.129712e+01 1.864820e+01 4.807585e+01 4.515722e+00 3.757528e+00 1.108807e+01 4.611681e+00 5.385668e+00 9.487855e+00 2.276161e+00 4.212016e+00 1.993034e+00 2.980857e+00 2.600142e+00 2.513545e+00 9.355306e-01 4.651846e-01 7.436261e-01 1.065791e+00 3.689589e-01 4.169667e-01 5.584813e-01 4.412894e-01 6.134784e-01 3.704842e-01 3.032795e-01 4.941517e-01 3.927991e-01 1.637582e-01
<GCONST> 1.227010e+02
<STATE> 3
<MEAN> 39
 1.997304e+00 -1.465661e+01 2.374249e+01 -1.374884e+01 8.570486e+00 8.673233e+00 -7.798862e+00 1.138745e+01 -1.563998e+01 5.872949e+00 -3.151384e-01 -2.378906e+00 7.003955e+01 -2.731370e+00 -2.106240e+00 2.103590e+00 -1.710276e+00 3.602647e-01 1.201601e+00 3.916641e-01 -1.774452e-01 -3.376367e-01 9.371915e-01 -4.730579e-01 5.172240e-01 2.420931e-01 2.981749e-01 -5.580394e-01 -1.159917e+00 1.313819e-01 -1.709920e-01 -1.039853e+00 -7.143827e-01 -4.425347e-01 -4.263451e-01 -4.043329e-01 9.179664e-02 -1.532637e-02 4.637185e-01
<VARIANCE> 39
 1.941815e+01 2.282947e+01 3.214718e+01 3.050304e+01 2.392613e+01 2.164044e+01 1.536436e+01 3.175071e+01 2.456994e+01 2.079819e+01 2.460984e+01 3.243702e+01 4.264145e+01 6.316948e+00 6.503292e+00 8.641245e+00 3.593955e+00 4.619750e+00 7.157714e+00 3.123097e+00 3.060943e+00 1.809290e+00 2.627077e+00 1.530500e+00 2.410651e+00 1.408027e+00 3.798004e-01 6.562951e-01 1.272722e+00 4.660248e-01 2.881182e-01 8.731034e-01 3.169837e-01 6.031372e-01 3.261358e-01 3.558671e-01 5.678030e-01 6.695668e-01 2.201623e-01
<GCONST> 1.203044e+02
<STATE> 4
<MEAN> 39
 -2.652112e+00 -2.170490e+01 2.259564e+01 -2.009936e+01 6.366377e+00 5.683062e+00 -9.842767e+00 9.934347e+00 -1.835933e+01 6.882979e+00 -9.784433e-01 -4.973207e-01 7.160186e+01 9.589738e-02 -3.658426e-01 -7.436509e-01 1.754612e-01 -3.477689e-01 -2.741521e-01 -3.634876e-01 -6.063660e-01 -4.318484e-01 -3.275211e-01 2.543398e-01 -1.303237e-01 1.330889e-01 6.293232e-01 4.944217e-01 -6.061863e-01 5.807601e-01 -9.181949e-02 -2.328200e-01 -1.341133e-01 -1.917222e-01 4.551652e-02 -2.361267e-01 1.669138e-01 -2.699282e-01 -4.216465e-02
<VARIANCE> 39
 3.506926e+01 4.290406e+01 4.077571e+01 2.802375e+01 2.602959e+01 1.779482e+01 1.840726e+01 2.020126e+01 1.964824e+01 1.895746e+01 2.020824e+01 1.676865e+01 1.965595e+01 7.011933e+00 7.186521e+00 4.035465e+00 3.895979e+00 2.156279e+00 2.656947e+00 2.073214e+00 2.316899e+00 2.643997e+00 1.968466e+00 1.265548e+00 2.340005e+00 2.063252e+00 3.802560e-01 7.610566e-01 9.218250e-01 4.749961e-01 3.634683e-01 7.572827e-01 4.648875e-01 4.510509e-01 5.164582e-01 3.410816e-01 2.650794e-01 3.819339e-01 3.654085e-01
<GCONST> 1.163133e+02
<TRANSP> 5
 0.000000e+00 1.000000e+00 0.000000e+00 0.000000e+00 0.000000e+00
 0.000000e+00 1.251177e-01 8.748823e-01 0.000000e+00 0.000000e+00
 0.000000e+00 0.000000e+00 1.171687e-01 8.828313e-01 0.000000e+00
 0.000000e+00 0.000000e+00 0.000000e+00 7.529356e-01 2.470644e-01
 0.000000e+00 0.000000e+00 0.000000e+00 0.000000e+00 0.000000e+00
<ENDHMM>
~h "g"
<BEGINHMM>
<NUMSTATES> 5
<STATE> 2
<MEAN> 39
 3.391407e+00 -1.075498e+01 1.631565e+01 -5.455093e+00 7.249975e+00 7.169602e+00 -1.138131e+01 7.086324e+00 -1.258848e+01 2.720851e+00 1.415247e-01 -6.754954e+00 6.358712e+01 1.339952e+00 -4.382787e-01 4.101874e-01 8.838096e-02 1.098278e+00 2.129355e-01 -1.460919e+00 -1.289351e+00 -1.438471e+00 -1.929176e-01 -1.117034e-01 -5.193230e-01 1.410933e+00 2.341683e-01 -1.416490e-02 -1.726756e-01 2.173820e-01 2.159334e-01 -2.628945e-01 -5.539439e-01 -2.650385e-01 -4.951464e-03 -9.491239e-02 1.149003e-01 1.951843e-01 1.848195e-01
<VARIANCE> 39
 4.430320e+01 4.557400e+01 2.924964e+01 4.146530e+01 4.110657e+01 3.697111e+01 6.769471e+01 2.583325e+01 4.064034e+01 3.340428e+01 1.640170e+01 2.809854e+01 5.327936e+01 2.662074e+00 5.977265e+00 2.386411e+00 4.483414e+00 2.581938e+00 6.682708e+00 6.117760e+00 3.604206e+00 4.013584e+00 2.614625e+00 1.662494e+00 1.680421e+00 3.433450e+00 3.414258e-01 1.323419e+00 3.988355e-01 7.080368e-01 5.255034e-01 6.123449e-01 1.038094e+00 6.424357e-01 7.539883e-01 5.521334e-01 2.894032e-01 5.536568e-01 7.152857e-01
<GCONST> 1.275533e+02
<STATE> 3
<MEAN> 39
 1.051068e+01 -1.295766e+01 1.639193e+01 -1.335104e+00 1.444583e+01 1.421614e+00 -2.461211e+01 1.683120e+00 -1.826645e+01 2.250103e+00 9.738919e-01 -1.067878e+01 7.139791e+01 8.022094e-01 6.757838e-01 -1.117996e+00 5.285890e-01 2.569554e-01 -3.851518e-01 -4.695944e-01 -7.367776e-01 -3.076595e-01 -9.372902e-01 3.917495e-01 1.300607e+00 1.635790e-01 -2.954556e-01 1.259857e-01 -9.532823e-02 -1.472644e-01 -6.447240e-01 -2.344678e-02 9.769916e-01 3.882656e-01 4.930588e-01 2.077472e-01 8.460432e-02 6.210574e-01 -2.745667e-01
<VARIANCE> 39
 6.117376e+00 2.036479e+01 3.106387e+01 4.565428e+01 4.963774e+01 4.541413e+01 9.960162e+01 2.927049e+01 1.595367e+01 3.215924e+01 2.205562e+01 3.607470e+01 1.499216e+01 1.051867e+00 2.894475e+00 3.917380e+00 4.829220e+00 3.538758e+00 8.415131e+00 8.070187e+00 2.463488e+00 2.254190e+00 3.315210e+00 2.100118e+00 2.925645e+00 1.773310e+00 2.150303e-01 6.803702e-01 6.385828e-01 5.160254e-01 4.339517e-01 7.615795e-01 8.235584e-01 5.882643e-01 6.869737e-01 6.550044e-01 1.894075e-01 4.294641e-01 4.364111e-01
<GCONST> 1.209205e+02
<STATE> 4
<MEAN> 39
 1.179842e+01 -1.223070e+01 1.234945e+01 -3.752511e+00 9.991356e+00 -9.707963e-02 -1.980046e+01 1.321917e+00 -1.838759e+01 2.503094e+00 3.810783e+00 -4.072631e+00 7.135696e+01 -3.009181e-03 5.070384e-01 -1.905102e-01 -6.242077e-01 -1.116804e+00 -1.068572e-02 1.309831e+00 2.577358e-01 3.909388e-01 3.158262e-03 3.092245e-01 1.635786e+00 -1.682460e-01 -1.796000e-01 -3.914946e-01 1.242274e-01 -1.947222e-01 -2.120800e-01 -1.251385e-01 2.502929e-01 2.286140e-01 -3.538609e-02 2.101178e-01 -3.445675e-03 -1.832496e-01 1.976673e-01
<VARIANCE> 39
 1.055053e+01 2.844857e+01 2.788269e+01 5.074054e+01 3.232998e+01 8.558528e+01 7.916840e+01 3.159975e+01 2.405489e+01 5.240219e+01 5.240868e+01 2.633428e+01 2.401101e+01 9.484971e-01 3.000672e+00 4.226987e+00 3.068029e+00 3.111345e+00 3.657609e+00 4.573042e+00 1.263976e+00 2.481267e+00 1.392632e+00 1.246516e+00 2.435493e+00 1.527948e+00 1.087968e-01 7.146956e-01 5.128473e-01 4.594235e-01 3.589739e-01 1.080352e+00 6.693373e-01 3.814884e-01 4.375884e-01 5.727420e-01 2.672025e-01 3.132833e-01 3.295415e-01
<GCONST> 1.172170e+02
<TRANSP> 5
 0.000000e+00 1.000000e+00 0.000000e+00 0.000000e+00 0.000000e+00
 0.000000e+00 6.135515e-01 3.864485e-01 0.000000e+00 0.000000e+00
 0.000000e+00 0.000000e+00 4.022692e-01 5.977308e-01 0.000000e+00
 0.000000e+00 0.000000e+00 0.000000e+00 3.722003e-01 6.277996e-01
 0.000000e+00 0.000000e+00 0.000000e+00 0.000000e+00 0.000000e+00
<ENDHMM>
~h "h"
<BEGINHMM>
<NUMSTATES> 5
<STATE> 2
<MEAN> 39
 9.517216e+00 -1.123005e+01 1.562159e+01 -1.547978e+01 6.553840e-01 1.540948e-01 -4.101495e+00 1.548541e+01 -1.508871e+01 8.181231e+00 3.018209e+00 -1.651659e+00 7.173957e+01 -3.045404e-01 5.639074e-01 6.804863e-01 -1.102973e+00 -1.236218e+00 5.291079e-01 1.694294e+00 1.241889e+00 6.035626e-01 7.350041e-01 -3.332887e-01 -3.617154e-01 -4.726983e-01 3.485675e-01 -2.087735e-01 -5.066236e-01 2.889524e-01 2.551639e-01 -4.194991e-01 -7.475898e-01 -3.120173e-01 7.004194e-02 -2.613713e-01 -2.033918e-01 -1.648964e-01 1.807630e-01
<VARIANCE> 39
 9.652689e+00 1.531295e+01 3.139086e+01 1.817780e+01 5.761758e+01 6.108693e+01 3.783256e+01 6.291304e+01 4.734868e+01 4.431805e+01 2.090354e+01 2.444968e+01 1.793774e+01 1.181918e+00 1.591210e+00 3.509420e+00 1.191942e+00 2.558168e+00 3.443743e+00 2.706760e+00 2.403180e+00 2.678873e+00 4.356246e+00 2.236474e+00 1.825451e+00 6.441123e-01 1.440266e-01 1.753688e-01 4.289273e-01 3.566579e-01 3.296084e-01 5.405722e-01 4.234867e-01 3.246770e-01 4.585907e-01 4.484534e-01 3.971858e-01 2.067190e-01 6.142760e-02
<GCONST> 1.091318e+02
<STATE> 3
<MEAN> 39
 9.672732e+00 -1.106838e+01 1.661186e+01 -1.641117e+01 -7.300037e-01 -9.325895e-01 -4.296483e+00 1.659042e+01 -1.456711e+01 9.350162e+00 2.856169e+00 -3.435932e+00 7.183002e+01 3.191712e-01 1.801762e-01 -2.389823e-02 -4.196523e-01 -3.644107e-01 -4.260960e-01 1.283035e-01 4.468981e-01 7.649147e-01 8.371794e-01 -3.798595e-01 -5.613900e-01 1.427014e-01 3.505073e-01 -2.007853e-01 -7.099734e-01 3.694672e-01 4.523434e-01 -2.290535e-01 -8.593389e-01 -6.032118e-01 -7.847494e-02 -5.750366e-01 -1.833127e-01 1.236600e-02 2.178907e-01
<VARIANCE> 39
 7.077510e+00 1.785351e+01 2.940479e+01 3.238116e+01 6.670693e+01 5.864037e+01 4.309612e+01 8.257185e+01 3.643070e+01 5.314918e+01 1.659032e+01 2.241067e+01 1.484254e+01 1.185408e+00 1.353870e+00 3.332859e+00 7.235968e-01 2.516810e+00 2.042360e+00 1.394337e+00 1.606134e+00 3.489902e+00 3.502346e+00 1.701815e+00 1.279359e+00 7.130439e-01 1.302722e-01 1.878578e-01 5.978542e-01 2.766216e-01 4.577373e-01 5.864913e-01 5.178695e-01 4.395466e-01 5.340342e-01 5.688363e-01 2.949433e-01 2.788640e-01 7.458071e-02
<GCONST> 1.081580e+02
<STATE> 4
<MEAN> 39
 1.172403e+01 -1.051711e+01 1.251452e+01 -1.720572e+01 -1.266663e+00 -2.321148e+00 -4.650821e+00 1.557154e+01 -1.330754e+01 1.026857e+01 1.178622e+00 -3.192946e+00 7.180791e+01 8.603292e-01 1.475003e-02 -1.726894e+00 2.158915e-01 2.908428e-01 -7.324811e-01 -1.306708e+00 -8.257422e-01 2.974623e-01 -8.178120e-01 -3.932187e-01 -9.512990e-02 3.750709e-01 9.593674e-02 -2.035652e-01 -3.870859e-01 3.555917e-01 4.160072e-01 -4.190751e-02 -4.519598e-01 -3.928172e-01 -2.261125e-01 -4.568802e-01 3.088241e-02 1.662665e-01 1.570340e-01
<VARIANCE> 39
 8.286101e+00 2.222182e+01 4.908762e+01 2.053385e+01 3.749077e+01 3.539713e+01 3.529583e+01 6.792721e+01 4.530464e+01 5.468454e+01 1.507244e+01 2.039153e+01 1.229947e+01 4.046195e-01 6.925071e-01 1.926526e+00 1.207701e+00 1.831761e+00 1.373302e+00 1.930943e+00 1.406514e+00 3.078262e+00 1.628692e+00 1.069242e+00 9.929041e-01 2.892244e-01 1.308491e-01 2.361761e-01 4.372379e-01 1.581189e-01 3.246109e-01 3.153150e-01 4.277099e-01 3.879962e-01 6.303431e-01 4.064613e-01 1.825702e-01 2.660756e-01 4.233762e-02
<GCONST> 9.898684e+01
<TRANSP> 5
 0.000000e+00 1.000000e+00 0.000000e+00 0.000000e+00 0.000000e+00
 0.000000e+00 3.270420e-01 6.729580e-01 0.000000e+00 0.000000e+00
 0.000000e+00 0.000000e+00 1.965503e-01 8.034497e-01 0.000000e+00
 0.000000e+00 0.000000e+00 0.000000e+00 5.571904e-01 4.428096e-01
 0.000000e+00 0.000000e+00 0.000000e+00 0.000000e+00 0.000000e+00
<ENDHMM>
~h "i"
<BEGINHMM>
<NUMSTATES> 5
<STATE> 2
<MEAN> 39
 1.148894e+01 -1.878138e+01 1.227895e+01 -2.387352e+00 1.447168e+01 -3.289082e+00 -2.405809e+01 2.281965e+00 -2.130168e+01 1.894223e+00 3.890607e+00 -5.946727e+00 7.658025e+01 2.008075e-01 -1.912694e-02 -2.482885e-01 9.166036e-01 8.419887e-01 -8.275774e-01 -9.406364e-01 -9.720691e-02 -1.781095e-01 3.265196e-01 4.532651e-01 -5.242767e-01 2.213902e-02 -5.251795e-01 2.673523e-01 5.243680e-01 -2.791789e-01 -5.487847e-01 7.444257e-01 9.223334e-01 2.018526e-01 4.754074e-01 4.759689e-02 -3.489324e-01 1.751403e-01 -5.168158e-01
<VARIANCE> 39
 9.019424e+00 1.335998e+01 4.083297e+01 4.917474e+01 2.514973e+01 3.654749e+01 3.538521e+01 3.369988e+01 3.757541e+01 4.988346e+01 1.812582e+01 2.754095e+01 1.502746e+01 1.884266e+00 1.895384e+00 4.483377e+00 3.364810e+00 2.393129e+00 3.858531e+00 3.714540e+00 2.652652e+00 2.930344e+00 3.237756e+00 1.702361e+00 2.180427e+00 1.019781e+00 4.122774e-01 4.184756e-01 7.023727e-01 6.899670e-01 4.600503e-01 6.610151e-01 5.868455e-01 5.047643e-01 6.380105e-01 5.789478e-01 4.006570e-01 4.477407e-01 2.306194e-01
<GCONST> 1.174486e+02
<STATE> 3
<MEAN> 39
 1.037433e+01 -1.775232e+01 1.412517e+01 -1.726935e+00 1.447340e+01 -1.580339e+00 -2.186168e+01 2.906558e+00 -2.132051e+01 2.821610e+00 3.907844e+00 -6.410383e+00 7.470831e+01 -1.003904e+00 1.289694e+00 1.237221e+00 -1.710046e-01 -9.096220e-01 1.965139e+00 1.838081e+00 -1.651409e-01 1.075952e+00 4.203041e-01 -5.608244e-01 4.133103e-01 -1.576532e+00 -5.281312e-01 1.744705e-01 3.342118e-01 -4.213289e-01 -6.406574e-01 5.281336e-01 6.604071e-01 1.132848e-01 5.533822e-01 -2.046821e-02 -3.607119e-01 2.991869e-01 -4.032242e-01
<VARIANCE> 39
 1.166124e+01 1.604068e+01 4.982671e+01 4.585400e+01 2.683842e+01 4.489762e+01 3.687937e+01 4.933561e+01 3.201616e+01 5.353096e+01 2.144312e+01 3.560576e+01 1.663587e+01 1.582168e+00 2.214933e+00 4.885201e+00 3.274873e+00 1.964298e+00 3.639695e+00 2.780403e+00 2.819959e+00 3.334385e+00 3.813164e+00 1.633400e+00 1.890673e+00 1.936939e+00 3.187601e-01 3.932073e-01 7.436544e-01 5.927477e-01 3.706442e-01 5.600519e-01 6.090492e-01 5.500496e-01 5.351903e-01 5.653670e-01 3.007341e-01 5.612327e-01 1.946051e-01
<GCONST> 1.183503e+02
<STATE> 4
<MEAN> 39
 6.088818e+00 -1.383412e+01 1.678144e+01 -2.685270e+00 9.775528e+00 3.145316e+00 -1.750814e+01 2.815685e+00 -1.462574e+01 4.737123e+00 2.428697e+00 -4.965858e+00 6.848432e+01 -1.587262e+00 8.119875e-01 6.557942e-01 -8.692838e-01 -1.678469e+00 1.522956e+00 1.894808e+00 2.324297e-01 1.443413e+00 -2.426211e-01 -7.873412e-01 6.852266e-01 -1.676734e+00 -1.280688e-01 -4.522969e-01 -1.219673e-01 -3.540905e-01 -8.615754e-02 -2.785700e-01 -2.452256e-02 2.180639e-01 -2.745720e-01 -1.245558e-01 -3.042029e-02 -1.895867e-02 3.192343e-01
<VARIANCE> 39
 2.250305e+01 2.459903e+01 6.527278e+01 4.340208e+01 3.153025e+01 4.685583e+01 3.401501e+01 4.396635e+01 5.402510e+01 6.569823e+01 2.012812e+01 2.522340e+01 3.816089e+01 2.183871e+00 2.957515e+00 5.815102e+00 3.503612e+00 2.578800e+00 3.385368e+00 2.818942e+00 2.820060e+00 3.488116e+00 3.720973e+00 1.859533e+00 2.613082e+00 1.999956e+00 2.273286e-01 5.097435e-01 7.067879e-01 6.807526e-01 4.381857e-01 5.675781e-01 4.884816e-01 5.767996e-01 6.614571e-01 6.123549e-01 2.848828e-01 3.927423e-01 2.914143e-01
<GCONST> 1.226820e+02
<TRANSP> 5
 0.000000e+00 1.000000e+00 0.000000e+00 0.000000e+00 0.000000e+00
 0.000000e+00 5.990335e-01 4.009665e-01 0.000000e+00 0.000000e+00
 0.000000e+00 0.000000e+00 3.723589e-01 6.276411e-01 0.000000e+00
 0.000000e+00 0.000000e+00 0.000000e+00 4.316378e-01 5.683622e-01
 0.000000e+00 0.000000e+00 0.000000e+00 0.000000e+00 0.000000e+00
<ENDHMM>
~h "j"
<BEGINHMM>
<NUMSTATES> 5
<STATE> 2
<MEAN> 39
 6.987359e+00 -1.576719e+01 1.500118e+01 2.200503e-01 1.131939e+01 -1.598762e+00 -1.808469e+01 5.673725e+00 -1.713823e+01 1.208173e+00 2.469456e+00 -4.579413e+00 7.073697e+01 1.129766e+00 -8.064823e-01 1.248801e-02 1.427480e+00 1.388654e+00 -1.677316e+00 -2.202641e+00 -6.295680e-01 -8.474956e-01 -2.012300e-01 2.069197e-01 -4.831546e-01 1.557217e+00 -1.017273e-01 -6.548951e-02 2.613227e-03 -2.420610e-01 -1.778912e-01 2.703663e-02 1.350033e-01 1.531867e-01 1.799815e-01 1.093722e-01 -8.491711e-02 -5.213723e-03 -3.784585e-02
<VARIANCE> 39
 5.008546e+01 2.146774e+01 6.771365e+01 7.188288e+01 3.869691e+01 4.886278e+01 6.627633e+01 3.860613e+01 5.157249e+01 3.936676e+01 1.842989e+01 2.146395e+01 7.670145e+01 2.904465e+00 2.024065e+00 3.713722e+00 4.332813e+00 2.254770e+00 3.608423e+00 3.589629e+00 2.680868e+00 3.679657e+00 3.291207e+00 1.962619e+00 1.637914e+00 2.442745e+00 4.051461e-01 3.628418e-01 6.897401e-01 7.867516e-01 4.469992e-01 6.032357e-01 7.154669e-01 4.401977e-01 5.665099e-01 6.239716e-01 3.007011e-01 2.608333e-01 3.088956e-01
<GCONST> 1.241863e+02
<STATE> 3
<MEAN> 39
 1.132604e+01 -1.973786e+01 1.163453e+01 -4.999934e-01 1.396005e+01 -7.850578e+00 -2.515862e+01 3.335481e+00 -2.032413e+01 2.182758e+00 3.836737e+00 -5.538201e+00 7.792957e+01 -5.226069e-02 -3.131346e-01 2.273694e-01 2.307175e-01 6.790783e-02 -3.936087e-01 -3.323890e-01 -6.887625e-02 4.654984e-03 3.828451e-01 1.381746e-01 -2.409117e-01 1.986584e-01 -1.068583e-01 2.026594e-01 1.510927e-01 -2.371713e-01 -2.190947e-01 4.758091e-01 5.862500e-01 1.478522e-01 3.008662e-02 -9.236593e-02 -1.265555e-01 1.559460e-01 -2.364063e-01
<VARIANCE> 39
 8.954811e+00 1.187700e+01 5.557334e+01 4.816684e+01 3.241325e+01 2.247849e+01 2.876910e+01 4.096360e+01 3.514817e+01 4.588789e+01 2.496329e+01 3.029531e+01 1.347340e+01 5.084556e-01 8.503946e-01 2.636327e+00 2.712809e+00 1.323017e+00 1.864106e+00 1.790230e+00 2.050418e+00 1.440138e+00 2.620828e+00 1.343124e+00 1.526988e+00 5.969685e-01 1.448499e-01 1.794750e-01 4.186711e-01 3.224819e-01 2.748787e-01 4.123209e-01 4.029801e-01 3.863823e-01 3.209557e-01 3.961065e-01 2.529493e-01 2.536005e-01 1.043958e-01
<GCONST> 1.026190e+02
<STATE> 4
<MEAN> 39
 1.117905e+01 -1.965960e+01 1.268355e+01 -7.230659e-01 1.394683e+01 -6.521514e+00 -2.393816e+01 4.704979e+00 -1.961416e+01 2.546338e+00 3.608434e+00 -5.509277e+00 7.708613e+01 -2.654030e-01 5.248411e-01 5.228131e-01 -2.299720e-01 -2.173711e-01 1.218704e+00 1.317627e+00 5.428034e-02 -5.610691e-02 1.137939e-01 -1.641463e-01 2.377676e-01 -6.067452e-01 -2.924612e-01 3.965204e-01 3.235985e-01 -2.242602e-01 -3.126305e-01 8.020172e-01 7.273283e-01 -5.072603e-02 1.484506e-01 -1.061916e-01 -2.094272e-01 1.966855e-01 -4.467664e-01
<VARIANCE> 39
 1.078935e+01 1.718773e+01 4.962831e+01 5.946095e+01 3.357547e+01 2.876391e+01 3.767591e+01 4.676635e+01 3.583178e+01 4.396146e+01 2.467375e+01 3.640515e+01 2.146052e+01 1.465361e+00 2.174587e+00 4.651884e+00 3.862923e+00 1.985660e+00 3.609903e+00 2.931195e+00 3.845053e+00 2.488516e+00 4.105388e+00 1.873542e+00 2.160864e+00 1.218204e+00 2.455283e-01 3.197996e-01 5.144894e-01 5.677574e-01 4.072235e-01 5.448472e-01 5.122851e-01 5.443938e-01 4.961823e-01 5.823058e-01 3.095529e-01 3.918489e-01 2.336642e-01
<GCONST> 1.174623e+02
<TRANSP> 5
 0.000000e+00 1.000000e+00 0.000000e+00 0.000000e+00 0.000000e+00
 0.000000e+00 5.117875e-01 4.882125e-01 0.000000e+00 0.000000e+00
 0.000000e+00 0.000000e+00 6.604577e-01 3.395424e-01 0.000000e+00
 0.000000e+00 0.000000e+00 0.000000e+00 1.770122e-01 8.229878e-01
 0.000000e+00 0.000000e+00 0.000000e+00 0.000000e+00 0.000000e+00
<ENDHMM>
~h "k"
<BEGINHMM>
<NUMSTATES> 5
<STATE> 2
<MEAN> 39
 -9.040473e-01 -1.156999e+01 1.426185e+01 -8.800195e+00 2.547879e+00 5.904666e+00 -1.012713e+01 6.492976e+00 -1.302847e+01 1.868960e+00 1.945627e+00 -1.846961e+00 6.000969e+01 -6.045758e-01 -8.151615e-01 -4.967285e-01 -1.570246e+00 -1.077274e+00 3.461777e-01 2.412730e-01 1.803408e-01 2.377913e-01 1.397820e-01 -1.783687e-01 -2.268227e-01 -2.282816e-01 5.484900e-01 -7.731824e-01 1.562262e-01 -6.993411e-01 3.267516e-02 -2.504320e-01 2.397924e-02 1.353927e-01 -6.408978e-01 4.198695e-01 4.029654e-02 -2.589122e-01 1.226213e+00
<VARIANCE> 39
 2.017414e+01 2.089107e+01 2.542570e+01 3.498085e+01 2.654067e+01 2.935969e+01 3.187636e+01 3.516180e+01 3.253875e+01 2.425030e+01 1.968693e+01 1.892432e+01 1.297036e+01 2.295319e+00 5.320819e+00 2.711302e+00 8.422328e+00 3.043622e+00 3.630655e+00 4.324067e+00 3.501615e+00 5.457363e+00 3.618876e+00 2.079559e+00 2.278463e+00 5.432408e+00 2.470369e-01 6.187065e-01 5.062619e-01 1.044566e+00 4.982670e-01 5.924116e-01 8.434677e-01 5.867705e-01 6.891128e-01 6.153834e-01 4.470675e-01 4.017563e-01 4.029362e-01
<GCONST> 1.224047e+02
<STATE> 3
<MEAN> 39
 8.211519e-01 -2.155470e+01 1.376894e+01 -2.246291e+01 -2.458857e+00 7.561277e+00 -6.363675e+00 8.710141e+00 -1.780281e+01 5.745000e+00 1.214352e+00 -4.657010e+00 6.879561e+01 1.601727e+00 -8.876895e-01 1.001701e+00 -1.241061e+00 9.600688e-02 -6.693254e-01 -6.569004e-01 7.176214e-02 -1.292272e+00 3.562050e-01 -4.726041e-01 -7.084110e-01 2.614225e+00 5.906580e-01 1.090299e+00 9.629085e-02 1.891092e+00 9.702410e-01 -7.555233e-01 -8.873579e-01 -3.092551e-01 1.384890e-01 -4.878336e-01 4.970906e-02 3.391954e-02 -1.315417e-01
<VARIANCE> 39
 1.927842e+01 3.832135e+01 3.980429e+01 5.867272e+01 6.081147e+01 4.308710e+01 5.155445e+01 5.276935e+01 6.543612e+01 3.995555e+01 2.720333e+01 2.768608e+01 2.329139e+01 3.357974e+00 6.317420e+00 3.750259e+00 1.156007e+01 5.371061e+00 4.360595e+00 6.111175e+00 4.280634e+00 4.407173e+00 4.450294e+00 3.060167e+00 3.323281e+00 3.271524e+00 3.680364e-01 5.971845e-01 8.700571e-01 1.242766e+00 7.609858e-01 9.705912e-01 9.154945e-01 7.556542e-01 1.086022e+00 7.515143e-01 4.841286e-01 4.894615e-01 5.021967e-01
<GCONST> 1.347415e+02
<STATE> 4
<MEAN> 39
 6.356439e+00 -1.683197e+01 1.803418e+01 -1.381154e+01 3.795998e+00 3.839009e+00 -1.364289e+01 5.287979e+00 -1.893352e+01 4.361000e+00 7.899978e-01 -6.481745e+00 7.271349e+01 2.592838e+00 1.593482e+00 -5.646186e-01 3.395505e+00 1.962812e+00 -2.699754e+00 -2.187458e+00 -3.355176e-01 -5.744269e-01 -8.852516e-01 3.593948e-01 -3.504716e-01 1.359500e+00 -1.656375e-01 1.845071e-01 -8.971769e-01 3.604317e-01 5.069310e-02 -2.063597e-01 2.576063e-01 1.661224e-01 3.057682e-01 -9.516695e-02 2.990630e-01 3.635259e-01 -5.023513e-01
<VARIANCE> 39
 2.681868e+01 4.350891e+01 3.186802e+01 5.750410e+01 5.673061e+01 4.379476e+01 4.718531e+01 5.489878e+01 3.601421e+01 3.333306e+01 3.580513e+01 3.289349e+01 2.791898e+01 2.692284e+00 2.720897e+00 4.672664e+00 5.460556e+00 4.145789e+00 5.719484e+00 4.848254e+00 2.970640e+00 3.664768e+00 3.299891e+00 3.281844e+00 2.785312e+00 1.757113e+00 3.691694e-01 7.960529e-01 5.659992e-01 1.466389e+00 6.891598e-01 7.179946e-01 7.912504e-01 6.068570e-01 6.450798e-01 5.466768e-01 5.505174e-01 4.417508e-01 3.416926e-01
<GCONST> 1.293762e+02
<TRANSP> 5
 0.000000e+00 1.000000e+00 0.000000e+00 0.000000e+00 0.000000e+00
 0.000000e+00 7.433093e-01 2.566907e-01 0.000000e+00 0.000000e+00
 0.000000e+00 0.000000e+00 5.844237e-01 4.155762e-01 0.000000e+00
 0.000000e+00 0.000000e+00 0.000000e+00 3.539097e-01 6.460903e-01
 0.000000e+00 0.000000e+00 0.000000e+00 0.000000e+00 0.000000e+00
<ENDHMM>
~h "l"
<BEGINHMM>
<NUMSTATES> 5
<STATE> 2
<MEAN> 39
 1.414005e+01 -1.425592e+01 6.534078e+00 -9.396729e+00 2.894135e+00 -3.681577e+00 -1.376693e+01 1.052894e+01 -1.282903e+01 -3.595190e+00 -4.181002e+00 -3.915890e+00 7.528197e+01 1.176933e+00 8.096241e-01 -2.099283e+00 1.195277e+00 2.639968e-01 -1.366265e+00 -6.067253e-01 -8.511490e-02 5.473217e-01 -1.134988e+00 -6.997151e-01 -6.186399e-01 7.983267e-02 -3.783246e-01 -2.159386e-01 3.511689e-01 -1.858551e-01 4.339971e-02 -9.830900e-04 6.883513e-02 -4.611318e-03 -3.356949e-01 4.119738e-01 4.753505e-01 1.597998e-01 -2.162546e-02
<VARIANCE> 39
 1.207948e+01 1.805678e+01 6.909787e+01 3.275220e+01 3.871272e+01 6.082371e+01 3.549517e+01 4.475018e+01 5.770060e+01 4.607877e+01 3.322749e+01 3.367995e+01 1.591916e+01 2.216506e+00 1.751155e+00 4.141648e+00 3.066703e+00 3.588390e+00 4.477942e+00 4.062696e+00 4.091456e+00 4.996135e+00 3.643234e+00 3.273438e+00 3.135994e+00 1.041163e+00 3.266094e-01 3.476748e-01 8.130446e-01 6.290599e-01 4.697803e-01 6.806348e-01 5.769419e-01 4.771636e-01 5.230651e-01 6.709756e-01 5.634244e-01 6.129820e-01 1.418949e-01
<GCONST> 1.230120e+02
<STATE> 3
<MEAN> 39
 1.574669e+01 -1.237806e+01 2.427147e+00 -7.577200e+00 3.930208e+00 -7.444505e+00 -1.567491e+01 1.145663e+01 -1.033743e+01 -4.267565e+00 -5.958223e+00 -5.384737e+00 7.433625e+01 3.710637e-02 -1.510598e-01 -3.803541e-02 5.544441e-02 -2.440478e-01 -8.895332e-01 1.673894e-01 3.300459e-01 -7.803292e-01 -1.814547e-01 6.191831e-01 4.152012e-01 2.589905e-01 -3.276459e-01 -3.028614e-01 7.302999e-01 -5.579680e-01 -2.169694e-01 2.582377e-01 2.293980e-01 -8.113137e-03 -6.060182e-01 5.647620e-01 6.392352e-01 2.587925e-01 1.207078e-01
<VARIANCE> 39
 6.035986e+00 1.554819e+01 3.816754e+01 2.423629e+01 3.341952e+01 5.283355e+01 3.039365e+01 4.394159e+01 5.840411e+01 5.284458e+01 2.663034e+01 3.363298e+01 1.451909e+01 5.356246e-01 1.317433e+00 3.407037e+00 1.958067e+00 2.303775e+00 2.997175e+00 2.352680e+00 2.608216e+00 4.167029e+00 3.003900e+00 3.216215e+00 3.369251e+00 5.861096e-01 1.361500e-01 1.932828e-01 5.125471e-01 3.708541e-01 3.814189e-01 6.562861e-01 6.643030e-01 4.903335e-01 5.622382e-01 8.537484e-01 4.366302e-01 4.908525e-01 1.052436e-01
<GCONST> 1.125709e+02
<STATE> 4
<MEAN> 39
 1.457802e+01 -1.494784e+01 4.314773e+00 -1.152549e+01 5.190773e-01 -8.729322e+00 -1.155696e+01 1.266153e+01 -1.647522e+01 -1.034988e+00 -1.338860e-01 -1.458320e+00 7.664915e+01 -4.295012e-01 -3.720900e-01 9.241374e-01 -8.910764e-01 -5.300995e-02 4.112771e-01 1.996545e-01 -4.801122e-01 -1.258695e+00 1.318759e+00 1.111343e+00 1.181205e-01 3.160695e-01 -1.582736e-01 4.868209e-02 2.480624e-01 1.029739e-01 2.818226e-01 3.465768e-01 -1.554899e-01 -1.820226e-01 2.189369e-01 1.386762e-01 -1.626278e-01 -1.778435e-01 -1.836727e-01
<VARIANCE> 39
 5.216586e+00 1.390145e+01 3.627819e+01 4.104525e+01 4.793450e+01 4.475644e+01 3.115271e+01 5.529449e+01 6.457275e+01 5.751931e+01 2.356125e+01 2.366553e+01 1.693616e+01 5.619655e-01 1.341982e+00 2.883307e+00 2.367116e+00 2.455433e+00 3.504384e+00 3.509481e+00 2.266403e+00 3.165000e+00 3.372260e+00 2.684172e+00 1.918543e+00 7.457358e-01 1.383455e-01 1.972960e-01 4.419463e-01 4.543461e-01 3.168638e-01 5.073658e-01 3.737590e-01 4.051766e-01 5.028929e-01 6.759806e-01 3.421554e-01 4.184683e-01 1.025422e-01
<GCONST> 1.111183e+02
<TRANSP> 5
 0.000000e+00 1.000000e+00 0.000000e+00 0.000000e+00 0.000000e+00
 0.000000e+00 2.267323e-01 7.732676e-01 0.000000e+00 0.000000e+00
 0.000000e+00 0.000000e+00 5.527337e-01 4.472663e-01 0.000000e+00
 0.000000e+00 0.000000e+00 0.000000e+00 6.121373e-01 3.878627e-01
 0.000000e+00 0.000000e+00 0.000000e+00 0.000000e+00 0.000000e+00
<ENDHMM>
~h "m"
<BEGINHMM>
<NUMSTATES> 5
<STATE> 2
<MEAN> 39
 1.210003e+01 -9.415297e+00 9.758581e+00 -5.608179e+00 1.312481e+01 9.166779e+00 -1.172105e+01 5.105650e+00 -1.460360e+01 2.398205e+00 -1.809997e+00 -9.450882e+00 6.882508e+01 -4.322649e-02 2.303446e-01 3.392319e-01 2.146444e-01 4.169251e-01 7.490310e-01 -5.282573e-03 -4.532437e-01 -9.043685e-02 5.046018e-01 -2.163873e-01 -9.093232e-01 -2.656724e-01 -2.062135e-02 -3.718880e-01 3.615092e-02 -3.826947e-01 -6.420768e-01 -9.227880e-01 -1.111173e-01 5.595171e-01 5.969469e-02 -1.458104e-01 3.126574e-01 8.543335e-01 3.775015e-01
<VARIANCE> 39
 1.247823e+01 1.012481e+01 1.961144e+01 1.719686e+01 2.136970e+01 1.783854e+01 2.183112e+01 2.964821e+01 3.110817e+01 2.349340e+01 1.463493e+01 2.410934e+01 1.366895e+01 7.836128e-01 8.520071e-01 1.773777e+00 1.702399e+00 3.015113e+00 2.731335e+00 1.262681e+00 2.054372e+00 1.769335e+00 1.939903e+00 1.097511e+00 3.707225e+00 6.617776e-01 1.306748e-01 2.133323e-01 2.911883e-01 3.285982e-01 4.992748e-01 3.986105e-01 3.382999e-01 3.484975e-01 3.464071e-01 4.039609e-01 2.551837e-01 5.898677e-01 9.672612e-02
<GCONST> 9.993991e+01
<STATE> 3
<MEAN> 39
 1.054022e+01 -9.903966e+00 1.079572e+01 -7.304145e+00 1.079193e+01 8.715766e+00 -1.039561e+01 7.028645e+00 -1.369445e+01 2.779826e+00 -8.846666e-01 -6.810801e+00 6.811465e+01 2.595815e-01 -3.267398e-01 3.998418e-02 -9.348690e-01 -1.483143e+00 -1.524326e+00 1.750253e-01 1.154252e+00 2.395903e-01 -1.218921e-01 4.696300e-01 1.515823e+00 6.569955e-01 -6.166017e-02 -2.477422e-01 -1.468658e-01 -1.510337e-01 -3.550569e-01 -6.349901e-01 -6.602390e-02 3.850633e-01 8.292221e-02 -1.836664e-01 1.909261e-01 4.588405e-01 1.732134e-01
<VARIANCE> 39
 2.546996e+01 1.330053e+01 3.160724e+01 2.374055e+01 3.699062e+01 2.790148e+01 3.579983e+01 4.157418e+01 3.174005e+01 2.341706e+01 1.921154e+01 3.145627e+01 2.431286e+01 2.387110e+00 1.538522e+00 3.306500e+00 2.335264e+00 4.514961e+00 3.595295e+00 1.982718e+00 2.565689e+00 2.063066e+00 2.037433e+00 1.569049e+00 3.634265e+00 1.657185e+00 2.659274e-01 2.827537e-01 4.532706e-01 3.993246e-01 5.786619e-01 5.268747e-01 3.863270e-01 4.864180e-01 3.910680e-01 4.461789e-01 2.786219e-01 5.856048e-01 1.891313e-01
<GCONST> 1.136338e+02
<STATE> 4
<MEAN> 39
 1.100415e+01 -1.004728e+01 1.107401e+01 -8.550792e+00 7.310609e+00 5.088205e+00 -9.089286e+00 1.053972e+01 -1.262121e+01 2.439510e+00 2.729387e-01 -4.280721e+00 6.916818e+01 -1.672117e-02 -5.543858e-01 -1.082451e-01 -7.902234e-01 -1.428002e+00 -1.999345e+00 -1.805517e-01 1.291445e+00 3.507659e-01 -3.021321e-01 6.370316e-01 1.571308e+00 5.874939e-01 -5.104737e-02 -1.597627e-01 -9.498488e-02 6.984221e-02 1.173257e-01 -1.612906e-01 -8.189736e-02 6.752916e-02 -7.888306e-02 -8.257989e-02 -2.437534e-02 -1.196735e-01 7.516512e-02
<VARIANCE> 39
 2.144031e+01 1.209847e+01 2.878613e+01 2.553084e+01 3.989598e+01 4.512615e+01 3.188447e+01 3.713842e+01 3.127570e+01 2.220794e+01 1.793049e+01 2.673062e+01 2.784247e+01 1.410789e+00 1.429727e+00 2.243445e+00 2.658073e+00 3.708769e+00 4.525203e+00 2.330413e+00 3.231886e+00 1.814977e+00 1.861573e+00 1.622766e+00 3.473518e+00 1.227876e+00 1.059366e-01 2.124449e-01 3.231975e-01 3.106614e-01 3.833737e-01 4.524734e-01 3.695483e-01 3.555761e-01 3.214363e-01 3.820944e-01 2.236736e-01 3.754053e-01 9.234664e-02
<GCONST> 1.080984e+02
<TRANSP> 5
 0.000000e+00 1.000000e+00 0.000000e+00 0.000000e+00 0.000000e+00
 0.000000e+00 6.825334e-01 3.174665e-01 0.000000e+00 0.000000e+00
 0.000000e+00 0.000000e+00 4.361670e-01 5.638330e-01 0.000000e+00
 0.000000e+00 0.000000e+00 0.000000e+00 3.751877e-01 6.248123e-01
 0.000000e+00 0.000000e+00 0.000000e+00 0.000000e+00 0.000000e+00
<ENDHMM>
~h "n"
<BEGINHMM>
<NUMSTATES> 5
<STATE> 2
<MEAN> 39
 1.088980e+01 -1.067744e+01 1.042571e+01 -4.003350e+00 1.416277e+01 1.042647e+01 -1.270325e+01 1.034821e-01 -1.682125e+01 2.917670e+00 -1.853514e+00 -7.089643e+00 6.889317e+01 5.938374e-01 -2.252422e-01 -4.636090e-01 -7.929879e-02 2.994594e-01 -2.716867e-01 -1.080075e-01 1.550030e-01 -3.153717e-01 -1.493481e-01 -1.129806e-01 1.374584e-01 5.942816e-01 -4.389263e-02 -5.539020e-01 -5.983545e-02 -7.628868e-01 -7.048233e-01 -1.040319e+00 -7.845062e-03 1.076082e+00 1.302901e-01 -1.021693e-01 5.052149e-01 9.500566e-01 5.249124e-01
<VARIANCE> 39
 2.077390e+01 1.209796e+01 2.924618e+01 2.629377e+01 2.632174e+01 2.414626e+01 2.779292e+01 4.177419e+01 2.684897e+01 2.461688e+01 1.786357e+01 2.292913e+01 2.293422e+01 2.102457e+00 2.224028e+00 2.786151e+00 3.936746e+00 3.613424e+00 4.926158e+00 2.605517e+00 6.745680e+00 2.665029e+00 2.060621e+00 2.134863e+00 4.783786e+00 2.012915e+00 2.933673e-01 3.040101e-01 4.599363e-01 5.266265e-01 5.430431e-01 6.802380e-01 5.498003e-01 8.564001e-01 5.453430e-01 4.942744e-01 3.924310e-01 7.028536e-01 1.995569e-01
<GCONST> 1.176170e+02
<STATE> 3
<MEAN> 39
 1.299129e+01 -1.501413e+01 8.024263e+00 -9.525389e+00 9.813713e+00 3.292581e+00 -1.251866e+01 8.269595e+00 -1.624723e+01 1.468806e-01 9.034660e-02 -2.862422e-01 7.441122e+01 3.065081e-01 -1.266287e+00 -8.346884e-01 -1.955834e+00 -1.724758e+00 -3.022065e+00 1.377955e-01 3.024910e+00 2.534181e-01 -4.786484e-01 1.471804e+00 2.778339e+00 1.538285e+00 -2.484972e-01 6.931354e-02 2.872319e-01 4.938138e-02 -9.682105e-02 -4.823724e-02 2.968436e-02 -1.479392e-01 -4.053166e-02 2.447405e-01 1.686371e-01 -1.323880e-01 -1.360447e-01
<VARIANCE> 39
 8.939171e+00 1.657449e+01 4.747529e+01 5.127579e+01 3.159503e+01 4.594880e+01 3.369066e+01 4.832959e+01 4.030405e+01 3.706947e+01 2.760754e+01 3.640268e+01 2.032918e+01 9.405068e-01 1.672803e+00 3.404308e+00 3.242606e+00 2.921588e+00 4.030091e+00 3.197104e+00 3.935541e+00 2.732848e+00 3.253846e+00 2.657451e+00 3.282257e+00 1.169418e+00 2.107995e-01 3.481489e-01 4.815105e-01 6.188331e-01 4.324647e-01 6.001191e-01 4.701770e-01 6.980551e-01 5.890777e-01 4.812623e-01 4.361923e-01 6.323866e-01 1.862212e-01
<GCONST> 1.182282e+02
<STATE> 4
<MEAN> 39
 1.319451e+01 -1.650784e+01 5.888186e+00 -1.228133e+01 7.307347e+00 -1.762203e+00 -1.167899e+01 1.281062e+01 -1.538447e+01 6.268532e-01 3.081888e+00 3.775860e+00 7.622077e+01 -2.109108e-01 -3.460577e-01 5.505369e-02 -6.319546e-01 -8.904768e-01 -1.170137e+00 1.494655e-01 7.845087e-01 1.315878e-02 4.017472e-01 8.750814e-01 5.625491e-01 4.056690e-01 -2.212467e-01 2.736386e-01 4.104907e-01 3.885660e-01 2.223020e-01 7.338575e-01 7.483771e-02 -6.770757e-01 -3.141916e-02 2.112690e-01 -3.398914e-01 -7.491174e-01 -4.153513e-01
<VARIANCE> 39
 9.725368e+00 1.904255e+01 5.426609e+01 4.502398e+01 4.470709e+01 4.085919e+01 4.131602e+01 4.596333e+01 3.278728e+01 4.231635e+01 2.340391e+01 3.066638e+01 2.221183e+01 1.003301e+00 1.224614e+00 2.690961e+00 2.290360e+00 1.811616e+00 2.926153e+00 2.685668e+00 2.704208e+00 2.587178e+00 2.629505e+00 1.813431e+00 2.293906e+00 8.522167e-01 1.354634e-01 3.497165e-01 4.016457e-01 5.070181e-01 3.234120e-01 5.827975e-01 3.555169e-01 5.910104e-01 3.267598e-01 4.945698e-01 4.084444e-01 6.236731e-01 1.686476e-01
<GCONST> 1.126891e+02
<TRANSP> 5
 0.000000e+00 1.000000e+00 0.000000e+00 0.000000e+00 0.000000e+00
 0.000000e+00 6.456323e-01 3.543677e-01 0.000000e+00 0.000000e+00
 0.000000e+00 0.000000e+00 3.208473e-01 6.791527e-01 0.000000e+00
 0.000000e+00 0.000000e+00 0.000000e+00 4.422118e-01 5.577882e-01
 0.000000e+00 0.000000e+00 0.000000e+00 0.000000e+00 0.000000e+00
<ENDHMM>
~h "o"
<BEGINHMM>
<NUMSTATES> 5
<STATE> 2
<MEAN> 39
 1.188157e+01 -1.357340e+01 1.167813e+01 -1.315627e+01 -1.244367e+00 -5.318722e+00 -1.038113e+01 1.308017e+01 -1.604480e+01 1.487608e-01 -4.889952e-01 -2.957067e+00 7.375671e+01 1.525777e+00 5.331088e-01 -7.531209e-01 4.096586e-01 -3.336340e-01 -2.397362e+00 -7.291598e-03 1.099372e+00 -9.379102e-01 -9.334520e-01 -1.102928e-01 -1.195187e-01 1.032201e+00 -3.214300e-01 1.540066e-01 -6.719822e-02 3.285922e-01 4.633760e-01 5.352063e-01 1.190922e-01 -1.621792e-01 1.907112e-01 -1.240530e-02 -9.535326e-02 -1.559045e-01 -4.028094e-01
<VARIANCE> 39
 2.516650e+01 3.877751e+01 5.132288e+01 2.454361e+01 4.762439e+01 6.060941e+01 3.305417e+01 5.541190e+01 5.684820e+01 3.263720e+01 2.581261e+01 2.593846e+01 2.122947e+01 4.270386e+00 2.752291e+00 4.656031e+00 2.759918e+00 4.010023e+00 4.805018e+00 3.764270e+00 3.545567e+00 3.460280e+00 3.502382e+00 2.080398e+00 2.351237e+00 2.296141e+00 4.923902e-01 8.116760e-01 9.637669e-01 5.013558e-01 5.421057e-01 1.044178e+00 5.586343e-01 6.022483e-01 7.000675e-01 5.327733e-01 4.339327e-01 5.080583e-01 3.974886e-01
<GCONST> 1.270247e+02
<STATE> 3
<MEAN> 39
 1.429023e+01 -1.332737e+01 9.136763e+00 -1.144051e+01 9.303015e-02 -9.650285e+00 -1.035094e+01 1.531803e+01 -1.925758e+01 -2.983588e+00 -1.215476e+00 -4.041253e+00 7.576466e+01 -2.860538e-02 3.468316e-01 9.761346e-02 5.651327e-01 5.661381e-01 4.719115e-01 2.265277e-01 -6.856780e-02 3.928966e-02 -2.300084e-01 -2.375403e-01 -2.029932e-01 -2.186992e-01 -7.383491e-01 -3.838755e-02 6.338710e-01 -9.833339e-02 2.343510e-01 1.330808e+00 4.741111e-02 -5.960176e-01 5.364687e-01 4.412956e-01 -4.790718e-02 4.775887e-02 -5.226230e-01
<VARIANCE> 39
 4.614302e+00 1.806037e+01 2.349932e+01 2.341835e+01 4.639520e+01 4.341511e+01 2.772145e+01 5.080521e+01 4.861308e+01 3.063426e+01 2.397858e+01 3.193699e+01 1.280172e+01 2.076414e+00 2.478120e+00 5.944808e+00 2.007651e+00 3.662487e+00 6.298163e+00 3.808147e+00 3.210304e+00 4.126125e+00 2.623553e+00 1.799470e+00 2.026222e+00 1.417083e+00 3.786520e-01 4.050063e-01 6.735150e-01 4.315032e-01 5.260856e-01 7.006691e-01 3.991404e-01 5.814234e-01 6.388301e-01 5.464391e-01 3.856126e-01 5.294543e-01 2.109182e-01
<GCONST> 1.177820e+02
<STATE> 4
<MEAN> 39
 1.144281e+01 -1.076876e+01 1.146012e+01 -1.158288e+01 3.231407e-01 -2.607631e+00 -8.836068e+00 1.293284e+01 -1.509359e+01 -1.024179e+00 -1.602242e+00 -4.136400e+00 7.155537e+01 -1.651161e+00 4.042684e-01 1.448066e+00 2.860964e-01 7.358614e-01 2.838258e+00 2.832308e-01 -1.258029e+00 9.547857e-01 6.959646e-01 -1.673095e-01 -5.123391e-02 -1.413725e+00 -3.970553e-01 -3.470045e-01 1.347720e-01 -1.757397e-01 1.083981e-01 1.662135e-01 -1.735839e-01 -2.234104e-01 -1.693854e-02 2.048300e-01 6.002890e-02 9.104993e-02 -1.243214e-02
<VARIANCE> 39
 1.586143e+01 2.415280e+01 3.815024e+01 3.331723e+01 5.911278e+01 4.762157e+01 4.171001e+01 4.225838e+01 6.034243e+01 3.355907e+01 2.214492e+01 2.219292e+01 3.042516e+01 2.554306e+00 2.597828e+00 6.438731e+00 2.547160e+00 3.961831e+00 4.473295e+00 3.313725e+00 3.362327e+00 3.028121e+00 2.424474e+00 2.156641e+00 3.027025e+00 2.011343e+00 3.032853e-01 4.018393e-01 5.603914e-01 3.974403e-01 5.502909e-01 7.951090e-01 5.268421e-01 4.900609e-01 6.394881e-01 4.364755e-01 3.483367e-01 3.487585e-01 2.465005e-01
<GCONST> 1.213884e+02
<TRANSP> 5
 0.000000e+00 1.000000e+00 0.000000e+00 0.000000e+00 0.000000e+00
 0.000000e+00 3.739969e-01 6.260031e-01 0.000000e+00 0.000000e+00
 0.000000e+00 0.000000e+00 5.634561e-01 4.365440e-01 0.000000e+00
 0.000000e+00 0.000000e+00 0.000000e+00 3.546181e-01 6.453819e-01
 0.000000e+00 0.000000e+00 0.000000e+00 0.000000e+00 0.000000e+00
<ENDHMM>
~h "p"
<BEGINHMM>
<NUMSTATES> 5
<STATE> 2
<MEAN> 39
 2.579952e+00 -8.011055e+00 1.367577e+01 -5.964446e+00 4.012666e+00 4.961817e+00 -1.010023e+01 7.335366e+00 -1.161315e+01 -1.313191e-01 2.980201e-01 -1.408589e+00 6.036797e+01 -1.800995e+00 1.898062e-01 4.626690e-01 -1.332372e-01 -6.733651e-01 3.806630e-01 -1.419224e-01 -6.745232e-02 9.274746e-01 1.215656e-01 -9.437111e-02 -5.215861e-02 -1.780901e+00 2.354622e-01 -8.490126e-01 -2.136399e-02 -3.952464e-01 -2.039342e-02 -3.070088e-01 -1.204857e-01 -1.118665e-02 -4.055837e-01 3.917696e-01 1.955604e-01 -4.861663e-02 9.318643e-01
<VARIANCE> 39
 2.891070e+01 1.155107e+01 3.255082e+01 3.676688e+01 4.023576e+01 2.571066e+01 3.108076e+01 3.542388e+01 2.986251e+01 2.287175e+01 2.031485e+01 2.002430e+01 1.404119e+01 1.309785e+00 1.715547e+00 2.574522e+00 1.738797e+00 1.512844e+00 2.134919e+00 1.903166e+00 1.668665e+00 1.780714e+00 1.798828e+00 1.389546e+00 1.329560e+00 1.597835e+00 2.595270e-01 4.296770e-01 4.824724e-01 4.314605e-01 2.907059e-01 5.642086e-01 4.680147e-01 3.977839e-01 3.923175e-01 4.105518e-01 3.153360e-01 3.079682e-01 2.349577e-01
<GCONST> 1.077230e+02
<STATE> 3
<MEAN> 39
 -2.026875e+00 -8.960746e+00 1.508034e+01 -5.345185e+00 3.807817e+00 5.948504e+00 -9.809935e+00 7.648181e+00 -9.714795e+00 1.256069e+00 1.718300e-01 -2.636751e+00 5.742653e+01 -2.110264e-01 -2.064038e+00 4.824352e-01 -1.661042e+00 -7.134104e-01 4.306213e-01 4.304686e-01 9.530240e-03 -5.512900e-01 1.093602e+00 3.283680e-01 2.734577e-01 1.389214e+00 1.100015e+00 -7.173099e-01 9.299080e-02 -5.042706e-01 1.917256e-01 -2.113024e-01 -9.072616e-02 -3.180122e-03 -7.845821e-01 1.966866e-01 1.299850e-01 1.727714e-01 1.609474e+00
<VARIANCE> 39
 1.619930e+01 9.084544e+00 1.830217e+01 1.951059e+01 2.033668e+01 1.528107e+01 2.258916e+01 2.452028e+01 2.602816e+01 1.581288e+01 1.536230e+01 1.398281e+01 1.100110e+01 2.695675e+00 3.130204e+00 2.873074e+00 2.953927e+00 2.257781e+00 2.176900e+00 2.198884e+00 2.350138e+00 2.655446e+00 2.377358e+00 1.705725e+00 1.662589e+00 2.894006e+00 4.047670e-01 4.182376e-01 5.202631e-01 4.229495e-01 3.923059e-01 4.808409e-01 4.835192e-01 4.762754e-01 4.469847e-01 3.363450e-01 3.852517e-01 3.474196e-01 1.731424e-01
<GCONST> 1.077581e+02
<STATE> 4
<MEAN> 39
 4.451781e-01 -1.618022e+01 1.652821e+01 -1.158520e+01 1.931734e+00 7.824626e+00 -8.418564e+00 7.170267e+00 -1.294045e+01 5.043499e+00 1.680634e+00 -1.133999e+00 6.479473e+01 2.755115e+00 -2.193229e+00 4.274836e-01 -1.681116e+00 6.533241e-02 -6.571684e-01 -4.718080e-01 -2.773205e-01 -2.161733e+00 6.250734e-01 8.659951e-02 6.287806e-03 4.417145e+00 7.248378e-01 5.313754e-01 -6.494229e-01 4.907510e-01 3.117197e-01 -8.943021e-01 -4.112230e-01 4.546162e-02 -1.150184e-01 -4.474506e-01 -9.028486e-02 -2.489307e-01 3.811222e-01
<VARIANCE> 39
 2.238485e+01 3.163367e+01 2.329898e+01 2.773573e+01 2.409723e+01 1.825731e+01 1.723284e+01 2.420748e+01 3.233262e+01 1.623553e+01 1.319234e+01 1.308565e+01 4.599500e+01 6.695541e+00 4.059955e+00 5.685127e+00 3.685686e+00 3.747506e+00 3.948919e+00 3.965866e+00 4.580485e+00 4.199945e+00 2.847533e+00 2.608418e+00 2.696682e+00 2.267788e+00 7.697309e-01 8.114635e-01 1.081110e+00 5.870862e-01 5.624920e-01 7.091443e-01 6.545989e-01 6.303257e-01 7.081784e-01 4.768132e-01 3.721471e-01 3.742904e-01 7.621723e-01
<GCONST> 1.232061e+02
<TRANSP> 5
 0.000000e+00 1.000000e+00 0.000000e+00 0.000000e+00 0.000000e+00
 0.000000e+00 5.545612e-01 4.454387e-01 0.000000e+00 0.000000e+00
 0.000000e+00 0.000000e+00 4.363002e-01 5.636998e-01 0.000000e+00
 0.000000e+00 0.000000e+00 0.000000e+00 4.421576e-01 5.578424e-01
 0.000000e+00 0.000000e+00 0.000000e+00 0.000000e+00 0.000000e+00
<ENDHMM>
~h "r"
<BEGINHMM>
<NUMSTATES> 5
<STATE> 2
<MEAN> 39
 1.085281e+01 -1.668686e+01 1.233856e+01 -1.419526e+01 4.071005e+00 2.591586e+00 -1.307365e+01 5.149470e+00 -1.904845e+01 3.800591e+00 9.450353e-01 -2.113510e+00 7.543281e+01 2.284444e+00 2.931324e-01 -2.275720e+00 -2.465252e-01 1.368379e+00 -3.127941e-01 -1.734135e+00 -1.423910e+00 -5.330024e-01 -5.603365e-01 -4.204686e-01 2.625064e-01 1.513215e+00 -3.583062e-01 5.349603e-01 -5.504082e-01 3.848446e-01 4.814499e-01 2.361992e-01 -1.841767e-01 5.532501e-02 6.829546e-01 -4.395271e-01 -1.643567e-01 9.819068e-03 -7.865872e-01
<VARIANCE> 39
 2.629918e+01 2.503238e+01 5.454189e+01 3.488326e+01 3.393430e+01 4.426591e+01 3.623858e+01 4.646487e+01 3.261397e+01 3.828494e+01 2.299252e+01 2.163205e+01 2.663147e+01 4.607275e+00 2.556051e+00 4.592739e+00 4.672685e+00 2.616076e+00 6.948970e+00 3.272040e+00 3.759435e+00 5.354823e+00 4.472641e+00 2.917545e+00 2.838528e+00 5.297990e+00 5.917682e-01 4.723110e-01 9.384947e-01 7.574447e-01 4.298753e-01 9.732046e-01 5.623651e-01 8.063475e-01 6.382731e-01 6.187985e-01 4.603506e-01 3.613901e-01 4.733186e-01
<GCONST> 1.282334e+02
<STATE> 3
<MEAN> 39
 1.454763e+01 -1.540407e+01 6.204097e+00 -1.475088e+01 7.791282e+00 1.326425e+00 -1.737436e+01 2.875675e+00 -1.938490e+01 2.369023e+00 -6.802210e-01 -2.365735e+00 7.668298e+01 3.932892e-01 1.077741e+00 -2.430663e+00 2.431974e-01 2.071624e+00 1.319827e+00 -1.677348e+00 -1.346038e+00 1.492043e+00 -1.410287e+00 -8.943841e-01 4.102259e-01 -5.809927e-01 -5.445908e-01 5.538943e-02 3.878072e-01 1.473844e-01 5.660025e-03 -8.294322e-02 2.395243e-01 6.907172e-01 3.421006e-01 -1.093476e-01 7.391179e-02 3.467804e-02 -4.174438e-01
<VARIANCE> 39
 6.606476e+00 1.847647e+01 3.019818e+01 4.017132e+01 3.115551e+01 4.285429e+01 3.536692e+01 3.633418e+01 3.210996e+01 4.241312e+01 3.137462e+01 2.376859e+01 1.604654e+01 1.426714e+00 1.551924e+00 4.157176e+00 3.346913e+00 1.833669e+00 7.646596e+00 3.058249e+00 4.526463e+00 3.339489e+00 3.460611e+00 2.206545e+00 2.181559e+00 1.381505e+00 4.459185e-01 3.611337e-01 6.096256e-01 4.981883e-01 4.144784e-01 1.126171e+00 5.336527e-01 7.408773e-01 7.219330e-01 5.945652e-01 4.608832e-01 3.772404e-01 3.281096e-01
<GCONST> 1.191652e+02
<STATE> 4
<MEAN> 39
 1.379876e+01 -1.257923e+01 1.962240e+00 -1.481132e+01 1.146486e+01 4.097018e+00 -1.983006e+01 3.165760e+00 -1.461855e+01 -1.975447e+00 -1.838725e+00 -9.650607e-01 7.470380e+01 8.545227e-02 -4.503246e-02 -5.739070e-01 1.993019e-01 5.948204e-01 -1.604447e+00 -2.530112e-01 1.683424e+00 1.402320e-02 -3.223159e-01 3.200776e-01 3.422048e-01 6.195908e-02 -1.968808e-01 -3.524278e-01 8.428286e-01 1.824714e-01 -7.695197e-01 -6.707847e-01 8.204510e-01 6.221944e-01 -5.505046e-01 4.912483e-01 3.905185e-01 -1.450196e-01 1.196256e-01
<VARIANCE> 39
 1.088637e+01 2.040297e+01 3.968306e+01 3.959605e+01 2.717231e+01 6.455236e+01 4.443825e+01 4.553878e+01 3.209338e+01 3.981543e+01 3.130116e+01 2.762803e+01 1.950170e+01 8.625067e-01 1.961447e+00 4.182132e+00 2.622260e+00 3.696439e+00 7.793179e+00 4.832001e+00 4.967955e+00 3.868516e+00 3.049284e+00 2.648602e+00 2.025760e+00 1.224817e+00 1.966966e-01 3.012351e-01 5.450419e-01 5.634788e-01 4.011056e-01 1.440927e+00 6.970490e-01 9.720693e-01 6.793144e-01 5.942430e-01 4.084350e-01 4.268470e-01 1.984495e-01
<GCONST> 1.210033e+02
<TRANSP> 5
 0.000000e+00 1.000000e+00 0.000000e+00 0.000000e+00 0.000000e+00
 0.000000e+00 3.020054e-01 6.979946e-01 0.000000e+00 0.000000e+00
 0.000000e+00 0.000000e+00 2.876680e-01 7.123320e-01 0.000000e+00
 0.000000e+00 0.000000e+00 0.000000e+00 6.412610e-01 3.587390e-01
 0.000000e+00 0.000000e+00 0.000000e+00 0.000000e+00 0.000000e+00
<ENDHMM>
~h "s"
<BEGINHMM>
<NUMSTATES> 5
<STATE> 2
<MEAN> 39
 -8.323568e+00 -2.288400e+01 3.400001e+01 -1.760965e+01 2.467136e+00 1.095198e+01 -4.695135e+00 6.239764e+00 -1.937377e+01 8.938932e+00 1.269458e+00 -1.736182e+00 7.659690e+01 -2.982360e+00 -1.308666e+00 2.242138e+00 -1.695169e+00 -1.835982e-01 9.452946e-01 5.973754e-01 3.984086e-01 1.670745e-01 1.069178e+00 -4.752083e-02 3.017464e-01 1.642342e-01 6.664134e-01 2.593938e-01 -9.561489e-01 2.781036e-01 1.877905e-01 -5.071933e-01 -3.248314e-01 2.375025e-02 -3.455449e-02 -1.221444e-01 2.595166e-02 -1.391827e-01 -1.497329e-01
<VARIANCE> 39
 4.576432e+01 2.650712e+01 4.777931e+01 3.377582e+01 2.645898e+01 3.656829e+01 3.028532e+01 3.988928e+01 5.354658e+01 3.162783e+01 2.645820e+01 2.103121e+01 2.155077e+01 4.476616e+00 3.551230e+00 8.029083e+00 3.172330e+00 2.718318e+00 3.272323e+00 2.507728e+00 3.005876e+00 2.781158e+00 2.335860e+00 2.089591e+00 1.896241e+00 7.716628e-01 5.355241e-01 5.563873e-01 9.150809e-01 5.673202e-01 5.050462e-01 5.895760e-01 3.940661e-01 5.206251e-01 5.646563e-01 4.571771e-01 3.811440e-01 3.223188e-01 1.196981e-01
<GCONST> 1.199250e+02
<STATE> 3
<MEAN> 39
 -1.331527e+01 -2.577666e+01 3.401798e+01 -2.128118e+01 1.932824e+00 1.109194e+01 -4.570210e+00 6.765099e+00 -1.862952e+01 1.202593e+01 1.638818e+00 -1.667742e+00 7.520341e+01 1.347358e+00 6.249496e-01 -1.233214e+00 1.086391e+00 1.020529e-01 -2.719771e-01 -3.012658e-01 -3.161325e-01 1.117156e-01 -7.308339e-01 -2.181695e-02 -8.605868e-02 -5.268798e-01 1.102359e+00 6.169467e-01 -7.463340e-01 7.152347e-01 1.464587e-01 -2.416169e-01 -3.080343e-01 -1.718940e-01 -6.823578e-02 -5.891464e-01 -8.316049e-02 -1.367263e-01 -1.740204e-01
<VARIANCE> 39
 1.779696e+01 2.300154e+01 2.937770e+01 2.618914e+01 2.466892e+01 3.411901e+01 2.493936e+01 2.591903e+01 4.398912e+01 2.688247e+01 2.789968e+01 2.029278e+01 2.279337e+01 5.037594e+00 3.046349e+00 3.409990e+00 3.724673e+00 2.046473e+00 1.864577e+00 2.146739e+00 2.357613e+00 2.915218e+00 2.577303e+00 2.249325e+00 1.601308e+00 1.496249e+00 4.278632e-01 5.696518e-01 6.692250e-01 5.513927e-01 4.696136e-01 4.571836e-01 4.176684e-01 4.091839e-01 4.807603e-01 4.104671e-01 4.575562e-01 3.462397e-01 2.596170e-01
<GCONST> 1.154917e+02
<STATE> 4
<MEAN> 39
 -1.889909e-01 -1.839377e+01 2.568908e+01 -1.338192e+01 3.593675e+00 9.483025e+00 -7.299558e+00 3.543529e+00 -1.989118e+01 5.132201e+00 3.238932e-01 -3.298587e+00 7.406342e+01 4.350526e+00 2.319276e+00 -4.076365e+00 2.335905e+00 1.110483e+00 -1.490115e+00 -1.879702e+00 -2.978545e-01 -1.107168e-01 -1.854258e+00 -3.986575e-01 -7.652123e-01 -1.012733e+00 -3.365754e-01 -2.378797e-01 -1.436379e-01 -2.199779e-01 1.544791e-01 -3.176481e-01 -1.619076e-01 4.581892e-01 1.952951e-01 2.436827e-01 4.435091e-02 2.583126e-02 1.174884e-02
<VARIANCE> 39
 6.529654e+01 2.785937e+01 7.572903e+01 3.951446e+01 3.046203e+01 3.746897e+01 4.180600e+01 5.381868e+01 3.556968e+01 3.703556e+01 2.462368e+01 2.321202e+01 4.002211e+01 4.655928e+00 3.503722e+00 4.801100e+00 5.166720e+00 3.804388e+00 4.828453e+00 3.406704e+00 3.915350e+00 4.872005e+00 3.711985e+00 3.084348e+00 2.638566e+00 3.104877e+00 9.093030e-01 5.357189e-01 1.025035e+00 5.980852e-01 5.244009e-01 6.779309e-01 5.280632e-01 7.201471e-01 5.951480e-01 5.862859e-01 3.878718e-01 5.131767e-01 2.792999e-01
<GCONST> 1.296439e+02
<TRANSP> 5
 0.000000e+00 1.000000e+00 0.000000e+00 0.000000e+00 0.000000e+00
 0.000000e+00 7.959679e-01 2.040321e-01 0.000000e+00 0.000000e+00
 0.000000e+00 0.000000e+00 7.535433e-01 2.464567e-01 0.000000e+00
 0.000000e+00 0.000000e+00 0.000000e+00 4.774998e-01 5.225002e-01
 0.000000e+00 0.000000e+00 0.000000e+00 0.000000e+00 0.000000e+00
<ENDHMM>
~h "t"
<BEGINHMM>
<NUMSTATES> 5
<STATE> 2
<MEAN> 39
 -6.241913e-01 -1.536398e+01 2.174598e+01 -1.064678e+01 2.642564e+00 8.345532e+00 -8.628000e+00 6.295642e+00 -1.411411e+01 4.556962e+00 -6.661711e-01 -1.703370e+00 6.593272e+01 -3.543051e-01 5.590813e-01 -2.731920e-01 1.603031e-01 -3.825400e-01 3.698727e-01 2.693317e-01 8.941019e-02 4.703107e-01 -2.624109e-01 6.636913e-02 1.245440e-02 -1.030200e+00 2.564196e-01 -2.289730e-01 -4.401875e-01 -1.403778e-02 7.721177e-02 -3.711317e-01 -1.463206e-01 2.088409e-02 -1.344901e-01 1.258685e-02 6.806725e-02 -9.103781e-02 3.155770e-01
<VARIANCE> 39
 4.491418e+01 5.128443e+01 6.724644e+01 6.020481e+01 3.624302e+01 3.446206e+01 3.196090e+01 3.910579e+01 5.039463e+01 3.430982e+01 2.103719e+01 1.688721e+01 5.236039e+01 5.454476e+00 5.285166e+00 7.458807e+00 6.798136e+00 3.348607e+00 3.718087e+00 3.192624e+00 2.652909e+00 3.350566e+00 3.317997e+00 1.833166e+00 1.546572e+00 5.334371e+00 5.141895e-01 1.305390e+00 1.118001e+00 1.257178e+00 6.480736e-01 8.335242e-01 5.420427e-01 5.570204e-01 5.927101e-01 6.499545e-01 4.209355e-01 3.822028e-01 7.858351e-01
<GCONST> 1.314494e+02
<STATE> 3
<MEAN> 39
 4.486516e-01 -1.099207e+01 1.693049e+01 -6.498128e+00 3.537899e+00 6.665441e+00 -9.513275e+00 5.629561e+00 -1.323623e+01 1.163206e+00 2.059801e-01 -1.389722e+00 6.185991e+01 -3.334507e-01 -2.799065e-01 -9.630263e-01 -2.990093e-02 -4.965380e-01 -3.739487e-01 5.631582e-02 2.880765e-01 4.573463e-01 -5.457785e-02 1.809905e-01 -2.022234e-01 -5.667290e-01 2.436839e-01 -1.095408e+00 3.018291e-01 -7.275220e-01 -7.779929e-02 -2.141184e-01 -1.138272e-01 -5.609336e-02 -5.290275e-01 4.910431e-01 -9.701999e-02 -1.201293e-01 1.212912e+00
<VARIANCE> 39
 3.319993e+01 2.829365e+01 5.199187e+01 3.782138e+01 3.201357e+01 2.625166e+01 3.619204e+01 3.506788e+01 3.927487e+01 2.919461e+01 1.851638e+01 1.644788e+01 3.870641e+01 4.911462e+00 5.617211e+00 6.332201e+00 4.771705e+00 3.200884e+00 3.072746e+00 2.807757e+00 2.652639e+00 2.648072e+00 2.760428e+00 1.859015e+00 1.936170e+00 3.388941e+00 4.795800e-01 8.575834e-01 9.625441e-01 7.977698e-01 5.550496e-01 6.438035e-01 5.920440e-01 5.448633e-01 5.400420e-01 5.748026e-01 3.818338e-01 3.395139e-01 7.763891e-01
<GCONST> 1.251370e+02
<STATE> 4
<MEAN> 39
 -1.111506e+00 -1.835625e+01 1.887411e+01 -1.171388e+01 6.187801e-01 7.054307e+00 -8.546063e+00 5.969483e+00 -1.443282e+01 4.648215e+00 -2.921825e-01 -2.417411e+00 6.610440e+01 1.394954e+00 -1.919884e+00 3.154457e-01 -1.547524e+00 -2.303803e-01 -4.358268e-01 -5.481728e-01 -5.055097e-01 -1.572172e+00 4.429959e-01 -2.385356e-01 -1.225211e-01 2.787701e+00 7.442420e-01 4.306751e-01 -3.351003e-01 3.756195e-01 4.448072e-01 -4.416025e-01 -3.082234e-01 -1.534050e-02 -2.865319e-01 -3.007994e-01 1.001759e-01 7.894693e-02 3.876259e-01
<VARIANCE> 39
 3.235598e+01 5.461869e+01 4.590981e+01 5.686190e+01 3.101681e+01 2.640369e+01 3.128272e+01 3.165672e+01 4.499289e+01 2.722395e+01 1.845611e+01 1.434505e+01 5.964177e+01 5.587658e+00 8.072594e+00 6.584911e+00 7.365663e+00 4.792704e+00 3.372764e+00 3.519650e+00 3.679074e+00 3.850637e+00 4.099153e+00 2.488235e+00 2.014279e+00 4.219466e+00 7.859565e-01 1.451805e+00 1.531436e+00 1.354043e+00 6.693677e-01 6.927567e-01 6.022078e-01 5.963424e-01 7.413026e-01 7.525466e-01 5.670469e-01 3.366284e-01 1.032002e+00
<GCONST> 1.331110e+02
<TRANSP> 5
 0.000000e+00 1.000000e+00 0.000000e+00 0.000000e+00 0.000000e+00
 0.000000e+00 4.874636e-01 5.125364e-01 0.000000e+00 0.000000e+00
 0.000000e+00 0.000000e+00 3.457699e-01 6.542301e-01 0.000000e+00
 0.000000e+00 0.000000e+00 0.000000e+00 5.841347e-01 4.158653e-01
 0.000000e+00 0.000000e+00 0.000000e+00 0.000000e+00 0.000000e+00
<ENDHMM>
~h "u"
<BEGINHMM>
<NUMSTATES> 5
<STATE> 2
<MEAN> 39
 1.001279e+01 -1.028260e+01 1.371111e+01 -1.159218e+01 4.316883e+00 -3.339732e+00 -1.221100e+01 1.366531e+01 -1.987644e+01 -3.801941e+00 -2.689337e+00 -7.288253e+00 7.031680e+01 1.020525e+00 1.368293e+00 1.828903e-01 4.186471e-01 -3.526145e-01 -1.811821e+00 -5.550605e-02 1.343059e+00 8.989014e-02 -1.236297e-01 -9.318033e-02 -6.275354e-01 8.394623e-02 -2.570035e-01 -2.049630e-01 1.765805e-01 1.956836e-01 1.072577e-01 3.315146e-01 -5.401394e-02 -3.292319e-01 2.501842e-01 2.793889e-01 3.636730e-01 2.963110e-01 1.961986e-02
<VARIANCE> 39
 2.904422e+01 2.463764e+01 3.179262e+01 2.156754e+01 3.500279e+01 3.931850e+01 3.206404e+01 3.705275e+01 5.972609e+01 5.016180e+01 3.071879e+01 3.037056e+01 2.897664e+01 2.627401e+00 3.272547e+00 3.444382e+00 2.291207e+00 4.261163e+00 4.833401e+00 3.811877e+00 3.972316e+00 3.852292e+00 3.005689e+00 2.449742e+00 2.889316e+00 1.276127e+00 4.818244e-01 6.157269e-01 5.412640e-01 5.273621e-01 4.825747e-01 8.522518e-01 6.596350e-01 8.103396e-01 5.504492e-01 5.703115e-01 4.892399e-01 5.443776e-01 3.416570e-01
<GCONST> 1.243685e+02
<STATE> 3
<MEAN> 39
 1.234762e+01 -5.913937e+00 1.541078e+01 -1.027556e+01 1.166049e+00 -8.583680e+00 -1.278947e+01 1.628569e+01 -1.684921e+01 -2.628272e+00 -9.234340e-02 -7.162158e+00 7.071663e+01 -5.278070e-02 3.364567e-02 2.099749e-01 6.365759e-01 4.567054e-01 7.910725e-01 1.237226e-01 -1.865771e-01 5.670772e-01 -1.267225e-01 1.923615e-02 3.608747e-01 -1.009843e-01 -6.030740e-01 -5.702559e-01 6.306434e-02 -2.664230e-02 3.783709e-01 1.197521e+00 1.380447e-01 -6.146523e-01 1.835551e-01 2.504706e-01 -1.048975e-01 1.494227e-01 -2.115865e-01
<VARIANCE> 39
 5.575414e+00 2.686562e+01 2.630614e+01 1.758256e+01 3.815150e+01 4.231071e+01 3.061635e+01 5.050895e+01 3.165475e+01 4.352361e+01 2.690495e+01 2.877221e+01 1.548717e+01 1.965001e+00 2.767634e+00 2.686153e+00 2.104404e+00 3.711393e+00 6.370949e+00 3.304078e+00 3.234849e+00 2.841997e+00 3.286870e+00 2.567623e+00 1.619221e+00 1.880239e+00 2.653064e-01 4.315501e-01 4.536351e-01 3.763322e-01 3.827265e-01 6.061977e-01 4.595787e-01 7.065055e-01 4.778379e-01 6.110383e-01 3.906583e-01 4.020725e-01 1.670657e-01
<GCONST> 1.160297e+02
<STATE> 4
<MEAN> 39
 9.525819e+00 -8.215937e+00 1.574229e+01 -8.391456e+00 5.014252e+00 6.287403e-01 -1.119773e+01 1.225549e+01 -1.535568e+01 -1.943556e+00 -1.705432e+00 -5.943153e+00 6.865733e+01 -1.737861e+00 -1.154110e+00 6.131280e-01 5.292599e-01 1.102773e+00 2.889367e+00 3.091140e-01 -1.807542e+00 6.711287e-01 9.531142e-01 8.535618e-02 4.997521e-01 -6.831171e-01 -3.885345e-01 -4.904847e-01 5.566149e-02 -2.903311e-01 -1.398670e-01 -1.209523e-01 -1.018279e-01 -1.066507e-01 -9.856222e-02 2.530782e-01 1.407438e-01 4.653741e-02 1.233298e-01
<VARIANCE> 39
 1.793893e+01 3.557783e+01 4.321245e+01 2.658717e+01 6.050692e+01 3.718928e+01 4.220747e+01 4.556773e+01 5.052482e+01 5.075359e+01 3.086427e+01 2.123735e+01 3.923676e+01 2.553120e+00 3.891298e+00 5.673916e+00 3.114574e+00 2.914074e+00 5.098442e+00 4.059835e+00 3.665623e+00 3.975545e+00 3.060854e+00 2.327499e+00 2.409710e+00 1.981718e+00 4.016139e-01 4.689341e-01 6.750520e-01 3.899395e-01 5.312742e-01 5.845323e-01 4.440328e-01 6.142800e-01 5.817142e-01 7.690738e-01 4.469200e-01 4.157131e-01 2.144995e-01
<GCONST> 1.244414e+02
<TRANSP> 5
 0.000000e+00 1.000000e+00 0.000000e+00 0.000000e+00 0.000000e+00
 0.000000e+00 4.890722e-01 5.109278e-01 0.000000e+00 0.000000e+00
 0.000000e+00 0.000000e+00 6.159292e-01 3.840708e-01 0.000000e+00
 0.000000e+00 0.000000e+00 0.000000e+00 3.066999e-01 6.933001e-01
 0.000000e+00 0.000000e+00 0.000000e+00 0.000000e+00 0.000000e+00
<ENDHMM>
~h "v"
<BEGINHMM>
<NUMSTATES> 5
<STATE> 2
<MEAN> 39
 8.471720e+00 -1.071301e+01 1.408811e+01 -1.018485e+01 7.427901e+00 4.967130e+00 -1.031292e+01 9.782618e+00 -1.563707e+01 -2.987074e-01 -2.026984e+00 -3.966108e+00 6.909449e+01 4.519940e-01 3.021218e-01 1.663199e-01 1.886742e-01 7.986463e-01 3.369806e-01 -8.249331e-02 2.101993e-01 -1.693828e-01 -4.167375e-01 -5.932735e-01 -1.485813e-02 3.047975e-02 6.433900e-02 -4.180355e-01 -2.322200e-01 -2.120074e-02 -1.450337e-01 -4.663252e-01 -3.064657e-01 -2.695579e-01 -2.329203e-01 2.051621e-01 3.288763e-01 1.127610e-01 3.804888e-01
<VARIANCE> 39
 3.338847e+01 2.794414e+01 4.764352e+01 4.751257e+01 3.831311e+01 4.988535e+01 3.399484e+01 3.381820e+01 3.643419e+01 2.329653e+01 1.819862e+01 1.116555e+01 4.783232e+01 3.205507e+00 1.661261e+00 4.188570e+00 2.483387e+00 2.731327e+00 3.651814e+00 2.236388e+00 2.178864e+00 2.712751e+00 1.843354e+00 1.200106e+00 1.246898e+00 1.317724e+00 3.368816e-01 4.392184e-01 5.033290e-01 4.839196e-01 3.686991e-01 5.415203e-01 4.067405e-01 4.390354e-01 4.364797e-01 3.888219e-01 2.918157e-01 2.455389e-01 1.772362e-01
<GCONST> 1.141585e+02
<STATE> 3
<MEAN> 39
 9.983735e+00 -1.250492e+01 1.452945e+01 -1.207823e+01 8.516809e+00 4.123357e+00 -1.158107e+01 1.028331e+01 -1.785969e+01 -8.079882e-01 -3.125027e+00 -3.901721e+00 7.179625e+01 7.312008e-01 -8.002798e-01 -9.389036e-01 2.726482e-01 1.190875e-01 -1.071929e+00 -1.142480e+00 -7.507907e-01 -6.459790e-01 -5.022428e-02 5.434044e-01 2.451395e-01 9.847122e-01 1.432969e-01 -2.314955e-01 -4.580275e-01 3.297119e-01 -2.588472e-01 -7.325282e-01 -3.677103e-01 -4.019130e-01 -1.123513e-01 2.458515e-01 5.497570e-01 4.029470e-02 3.087155e-01
<VARIANCE> 39
 1.484120e+01 1.611755e+01 5.502006e+01 4.894450e+01 4.063766e+01 5.193147e+01 3.015400e+01 3.211693e+01 2.539447e+01 2.287689e+01 1.956368e+01 1.312829e+01 1.965096e+01 1.831745e+00 1.992450e+00 3.858624e+00 3.413416e+00 3.807766e+00 2.941489e+00 2.340298e+00 2.522484e+00 2.444266e+00 1.751677e+00 1.407286e+00 1.232194e+00 1.437374e+00 4.012769e-01 3.177357e-01 7.419980e-01 5.579731e-01 3.310612e-01 6.482319e-01 4.100801e-01 4.445700e-01 2.844797e-01 4.203722e-01 3.588210e-01 3.099100e-01 1.568125e-01
<GCONST> 1.125509e+02
<STATE> 4
<MEAN> 39
 1.242789e+01 -1.462700e+01 9.922816e+00 -1.045609e+01 7.569081e+00 -7.720114e-01 -1.406902e+01 7.990952e+00 -1.977482e+01 -4.665953e-01 -3.591287e-01 -3.013867e+00 7.441141e+01 7.780696e-01 -8.085322e-01 -1.398923e+00 9.031836e-01 7.280314e-02 -1.991007e+00 -1.335470e+00 -1.086615e+00 -5.660928e-01 7.343787e-01 1.284370e+00 1.865334e-01 1.119104e+00 -1.881050e-01 -2.475481e-02 1.730655e-01 1.464389e-01 1.521890e-02 -2.971237e-02 3.725478e-02 6.235526e-02 2.218806e-01 1.978877e-01 2.652710e-02 -1.019571e-01 -4.180130e-02
<VARIANCE> 39
 1.125267e+01 1.340800e+01 4.911937e+01 4.825135e+01 5.714706e+01 5.428554e+01 3.299720e+01 4.503426e+01 3.780711e+01 2.496078e+01 1.803525e+01 1.515164e+01 1.629938e+01 1.049441e+00 1.423177e+00 3.196953e+00 3.022799e+00 3.349441e+00 2.708309e+00 3.231436e+00 2.879024e+00 2.294313e+00 2.329196e+00 2.376329e+00 1.972823e+00 8.126886e-01 1.952916e-01 2.180753e-01 4.629632e-01 4.325548e-01 3.003215e-01 6.600569e-01 2.851387e-01 4.187737e-01 4.475772e-01 4.041518e-01 2.322286e-01 2.259448e-01 1.158807e-01
<GCONST> 1.098576e+02
<TRANSP> 5
 0.000000e+00 1.000000e+00 0.000000e+00 0.000000e+00 0.000000e+00
 0.000000e+00 3.844076e-01 6.155924e-01 0.000000e+00 0.000000e+00
 0.000000e+00 0.000000e+00 3.407659e-01 6.592341e-01 0.000000e+00
 0.000000e+00 0.000000e+00 0.000000e+00 2.875376e-01 7.124624e-01
 0.000000e+00 0.000000e+00 0.000000e+00 0.000000e+00 0.000000e+00
<ENDHMM>
~h "x"
<BEGINHMM>
<NUMSTATES> 5
<STATE> 2
<MEAN> 39
 2.002885e+00 -2.142436e+01 1.692740e+01 -1.881908e+01 -1.000468e+00 9.613073e+00 -4.367448e+00 1.077820e+01 -1.724962e+01 5.225745e+00 3.987056e+00 -3.553970e+00 7.010823e+01 -9.189561e-01 -1.114966e+00 -3.841792e-01 -1.476791e+00 -1.267237e+00 8.496915e-01 9.968545e-01 1.579332e-01 -3.001977e-01 -5.901177e-01 -3.214412e-01 1.506020e-01 -2.725894e-01 4.160939e-01 3.249528e-01 -1.793905e-01 4.179081e-01 2.640829e-01 -5.470538e-01 -4.101643e-01 -1.372479e-01 -8.698918e-02 -4.154194e-03 -5.747115e-02 -1.845938e-01 1.727788e-01
<VARIANCE> 39
 1.057893e+01 2.846629e+01 3.653399e+01 4.963407e+01 5.924382e+01 3.514948e+01 5.406368e+01 5.178394e+01 3.543157e+01 2.383903e+01 2.204064e+01 2.493724e+01 1.939228e+01 1.610458e+00 2.074564e+00 2.064614e+00 4.082863e+00 3.267591e+00 2.656093e+00 2.524145e+00 2.699207e+00 2.565159e+00 3.127761e+00 1.994771e+00 2.369996e+00 1.010192e+00 1.463750e-01 2.801338e-01 4.635128e-01 4.384952e-01 4.711759e-01 4.604140e-01 3.735975e-01 5.032235e-01 5.424485e-01 5.674584e-01 3.275529e-01 3.990108e-01 9.089477e-02
<GCONST> 1.139449e+02
<STATE> 3
<MEAN> 39
 -1.558941e+00 -2.472991e+01 2.096929e+01 -1.436805e+01 2.278179e+00 8.915510e+00 -7.892813e+00 7.660620e+00 -1.786964e+01 5.817602e+00 2.836980e-01 -5.561591e+00 7.020486e+01 5.802251e-01 1.056371e+00 -4.224470e-01 -3.645760e-02 -1.454458e-01 -2.310150e-02 4.824170e-01 -2.150667e-01 -1.134576e-01 -1.696111e-01 -2.823063e-01 8.474804e-02 -1.182716e-01 6.932204e-01 8.725867e-01 -1.589450e-01 5.885591e-01 4.350598e-01 -5.017188e-01 -3.705024e-01 2.875602e-02 1.108399e-01 -1.082312e-02 6.990334e-02 -9.558056e-02 4.670251e-02
<VARIANCE> 39
 1.808380e+01 2.063977e+01 5.497680e+01 7.523021e+01 5.407996e+01 3.850539e+01 4.854865e+01 4.793266e+01 4.299390e+01 3.210922e+01 3.610348e+01 1.550124e+01 1.432957e+01 3.159969e+00 4.405184e+00 2.743702e+00 3.414156e+00 3.494635e+00 3.628399e+00 2.845720e+00 3.142637e+00 2.714095e+00 3.288727e+00 1.788974e+00 2.014497e+00 1.356028e+00 4.345496e-01 4.559531e-01 6.066254e-01 5.451861e-01 5.776166e-01 7.201489e-01 6.645967e-01 5.882498e-01 7.486843e-01 7.048131e-01 4.816970e-01 3.219014e-01 3.197827e-01
<GCONST> 1.227324e+02
<STATE> 4
<MEAN> 39
 4.483535e+00 -1.702968e+01 1.785653e+01 -1.574965e+01 3.512790e-01 7.367849e+00 -4.294134e+00 8.708284e+00 -1.877045e+01 5.409559e+00 1.173616e+00 -5.133937e+00 7.067426e+01 2.226118e+00 2.602345e+00 -1.023649e+00 1.018781e+00 5.986528e-01 -2.369997e+00 -1.046721e+00 -8.725037e-02 -1.330249e-02 6.127863e-02 -3.632692e-01 -2.744978e-01 4.125056e-01 1.178164e-01 -2.158779e-01 -4.218819e-01 9.871263e-02 2.733447e-01 -3.929002e-01 -5.218254e-01 3.073103e-02 1.592281e-01 4.231920e-02 1.143065e-01 8.852092e-02 1.907252e-01
<VARIANCE> 39
 3.666565e+01 3.445951e+01 6.260479e+01 4.230843e+01 4.442729e+01 4.345193e+01 2.925100e+01 4.112400e+01 3.211642e+01 5.058694e+01 2.552653e+01 2.285568e+01 2.276180e+01 4.362364e+00 3.122298e+00 2.404713e+00 3.243136e+00 3.617390e+00 5.528372e+00 4.263551e+00 3.799043e+00 3.643557e+00 3.698900e+00 2.520374e+00 2.525142e+00 3.206052e+00 3.675374e-01 6.659385e-01 6.446967e-01 4.233299e-01 6.040116e-01 5.761659e-01 3.867043e-01 5.740117e-01 4.923286e-01 5.829734e-01 3.188064e-01 3.419989e-01 2.519895e-01
<GCONST> 1.241990e+02
<TRANSP> 5
 0.000000e+00 1.000000e+00 0.000000e+00 0.000000e+00 0.000000e+00
 0.000000e+00 7.490968e-01 2.509032e-01 0.000000e+00 0.000000e+00
 0.000000e+00 0.000000e+00 5.691083e-01 4.308918e-01 0.000000e+00
 0.000000e+00 0.000000e+00 0.000000e+00 3.373843e-01 6.626157e-01
 0.000000e+00 0.000000e+00 0.000000e+00 0.000000e+00 0.000000e+00
<ENDHMM>
~h "z"
<BEGINHMM>
<NUMSTATES> 5
<STATE> 2
<MEAN> 39
 -5.389332e-01 -1.661481e+01 3.320065e+01 -1.788704e+01 4.617514e+00 1.523309e+01 -8.485451e+00 6.290630e-01 -2.119326e+01 6.187138e+00 -4.006374e+00 -3.791973e+00 7.427281e+01 -7.166508e-01 -2.603013e-01 1.394814e+00 -1.032267e+00 -9.851240e-02 1.074799e+00 4.395836e-01 -1.703269e-01 -2.693501e-01 1.662707e-01 -3.518122e-01 3.417496e-01 1.925155e-01 8.265825e-01 1.162425e-01 -1.449320e+00 6.945527e-01 1.585367e-01 -8.297611e-01 -3.790142e-01 6.513160e-02 9.696206e-02 -2.425931e-01 2.302420e-01 -1.477095e-01 -3.464711e-02
<VARIANCE> 39
 2.811895e+01 1.821473e+01 6.143697e+01 4.315961e+01 3.816418e+01 3.682451e+01 4.427525e+01 5.034129e+01 4.827652e+01 2.328913e+01 2.932775e+01 1.970380e+01 3.900940e+01 5.085800e+00 2.013088e+00 1.189262e+01 4.054495e+00 1.999715e+00 4.063849e+00 2.581123e+00 3.160544e+00 2.476573e+00 1.828241e+00 1.792558e+00 1.544464e+00 1.722590e+00 4.723315e-01 4.004455e-01 1.283213e+00 6.362252e-01 3.589426e-01 6.106691e-01 4.442120e-01 6.372598e-01 4.955398e-01 3.576675e-01 3.742705e-01 3.425272e-01 2.083872e-01
<GCONST> 1.212718e+02
<STATE> 3
<MEAN> 39
 4.392620e+00 -1.722061e+01 2.757847e+01 -1.687668e+01 4.650791e+00 1.457931e+01 -1.026270e+01 -1.759951e+00 -2.163396e+01 4.188283e+00 -5.024951e+00 -3.911003e+00 7.589449e+01 2.990129e+00 4.641455e-01 -5.428966e+00 2.276789e+00 4.499127e-01 -2.291309e+00 -1.060406e+00 -3.770732e-01 1.585813e-01 -8.975134e-01 9.635369e-01 -3.786576e-01 -4.417556e-05 2.302978e-01 1.240452e-01 -8.286658e-01 4.249698e-01 2.294455e-01 -7.153508e-01 -7.959217e-02 3.735869e-01 4.097157e-02 1.484374e-01 5.215400e-01 5.264593e-03 -7.153107e-02
<VARIANCE> 39
 2.132318e+01 1.824146e+01 3.183189e+01 2.839038e+01 3.132031e+01 2.221427e+01 2.606958e+01 3.407765e+01 2.182118e+01 2.388760e+01 2.571028e+01 9.507459e+00 2.011341e+01 1.686962e+00 1.789723e+00 4.377711e+00 2.541168e+00 2.453809e+00 4.519023e+00 1.840727e+00 3.083090e+00 2.700343e+00 1.805717e+00 1.451419e+00 1.632758e+00 1.282466e+00 3.603171e-01 3.212513e-01 7.310461e-01 4.199243e-01 3.435917e-01 5.185352e-01 2.759514e-01 4.412013e-01 3.280795e-01 4.982849e-01 3.031603e-01 2.516559e-01 2.058314e-01
<GCONST> 1.097573e+02
<STATE> 4
<MEAN> 39
 1.028906e+01 -1.615442e+01 1.535744e+01 -1.229218e+01 5.687193e+00 7.341720e+00 -1.149321e+01 -3.035759e-01 -2.209766e+01 3.566744e+00 -1.388099e+00 -4.394833e+00 7.590300e+01 2.170967e+00 2.653807e-01 -4.764215e+00 1.748628e+00 7.555178e-01 -2.780827e+00 -5.842475e-01 8.961290e-01 1.204722e-02 -1.636465e-01 1.689628e+00 2.076799e-01 -2.721760e-02 -6.293308e-01 -2.058859e-01 1.019428e+00 -5.074431e-01 -9.498423e-02 3.385176e-01 1.407819e-01 3.131246e-01 2.225354e-01 2.028819e-01 -4.842213e-03 3.347894e-01 6.238404e-02
<VARIANCE> 39
 2.405111e+01 1.685067e+01 6.458836e+01 2.496363e+01 3.801726e+01 4.883995e+01 2.726584e+01 4.130973e+01 1.961995e+01 2.543038e+01 2.457459e+01 1.598901e+01 2.429583e+01 1.335003e+00 1.780207e+00 3.896718e+00 2.658106e+00 2.210084e+00 4.663065e+00 2.117130e+00 2.904103e+00 2.736035e+00 2.790447e+00 2.035030e+00 2.458454e+00 1.014957e+00 3.018337e-01 2.519501e-01 5.975410e-01 4.164942e-01 4.183716e-01 6.789175e-01 3.057432e-01 5.170245e-01 3.194922e-01 4.094598e-01 3.669733e-01 2.736815e-01 1.703588e-01
<GCONST> 1.128343e+02
<TRANSP> 5
 0.000000e+00 1.000000e+00 0.000000e+00 0.000000e+00 0.000000e+00
 0.000000e+00 7.888142e-01 2.111858e-01 0.000000e+00 0.000000e+00
 0.000000e+00 0.000000e+00 4.008313e-01 5.991687e-01 0.000000e+00
 0.000000e+00 0.000000e+00 0.000000e+00 3.096091e-01 6.903909e-01
 0.000000e+00 0.000000e+00 0.000000e+00 0.000000e+00 0.000000e+00
<ENDHMM>
~h "aa"
<BEGINHMM>
<NUMSTATES> 5
<STATE> 2
<MEAN> 39
 1.460614e+01 -1.729852e+01 -8.993862e-01 -1.795268e+01 -2.700837e-01 -3.297700e+00 -5.935750e+00 1.480957e+01 -1.157169e+01 1.710668e+00 9.283475e-01 3.080005e+00 7.912134e+01 -1.997719e-02 -9.121720e-02 -2.670910e-01 -2.802268e-01 -3.096803e-01 8.026247e-02 6.261952e-01 3.980339e-01 3.996813e-01 1.053249e-01 -3.384279e-01 1.197947e-01 1.240234e-02 -3.268944e-02 8.785504e-02 2.884170e-01 1.816677e-01 2.400197e-01 1.199761e-01 -2.399384e-01 -2.608739e-01 -2.091624e-01 5.523826e-02 4.580592e-03 -1.605118e-01 -1.437686e-01
<VARIANCE> 39
 5.233057e+00 1.239384e+01 2.598747e+01 1.914814e+01 2.545951e+01 3.151696e+01 2.559839e+01 4.274221e+01 4.340226e+01 5.132276e+01 2.920064e+01 1.977723e+01 1.814392e+01 3.183160e-01 7.396361e-01 1.297037e+00 1.005723e+00 1.266922e+00 1.056597e+00 1.778471e+00 1.415212e+00 1.773134e+00 1.631299e+00 1.206604e+00 9.563793e-01 2.183812e-01 8.615507e-02 1.438402e-01 2.472683e-01 1.981095e-01 1.954257e-01 2.811585e-01 2.171397e-01 2.438889e-01 3.160239e-01 3.259420e-01 2.669896e-01 2.115658e-01 4.096052e-02
<GCONST> 9.083981e+01
<STATE> 3
<MEAN> 39
 1.507321e+01 -1.794735e+01 2.350286e-01 -1.712751e+01 6.248996e-01 -4.069366e+00 -6.370682e+00 1.399456e+01 -1.377057e+01 2.902391e+00 1.277275e+00 3.458877e+00 7.918008e+01 -3.986493e-02 4.570236e-01 1.329544e+00 9.915109e-01 9.993569e-01 4.312044e-01 -7.519138e-01 -1.220381e+00 -1.050566e+00 8.174664e-01 3.698823e-01 -9.069487e-01 -8.290825e-01 -3.755551e-01 3.257321e-01 7.022200e-01 3.972318e-01 2.805835e-01 7.824575e-01 -5.086916e-02 -4.227293e-01 9.820703e-02 -9.992284e-02 -2.347205e-01 -4.267868e-01 -4.174834e-01
<VARIANCE> 39
 5.245005e+00 1.406863e+01 2.274031e+01 1.657756e+01 2.595813e+01 2.801941e+01 2.210468e+01 4.393793e+01 3.449081e+01 5.460260e+01 2.385229e+01 1.965395e+01 1.939239e+01 5.739025e-01 1.270239e+00 2.274063e+00 1.936281e+00 1.939399e+00 1.891324e+00 2.035688e+00 1.919284e+00 2.378800e+00 3.727904e+00 2.003048e+00 2.026440e+00 6.130444e-01 1.591271e-01 1.692255e-01 4.928993e-01 2.922365e-01 3.546504e-01 3.330149e-01 3.164854e-01 3.828450e-01 4.215050e-01 4.928007e-01 2.889442e-01 3.424234e-01 8.588927e-02
<GCONST> 1.028186e+02
<STATE> 4
<MEAN> 39
 1.328013e+01 -1.489092e+01 5.269691e+00 -1.459510e+01 1.905963e+00 -8.661684e-01 -6.779743e+00 9.770082e+00 -1.536224e+01 5.676468e+00 1.597010e+00 1.043925e-01 7.545191e+01 -1.711499e+00 1.138459e+00 3.348828e+00 1.231566e+00 9.482706e-01 3.104446e+00 -1.478102e-01 -1.236257e+00 4.454406e-01 -1.366145e-01 -7.036252e-01 -1.251318e+00 -1.974288e+00 -5.300496e-01 -2.266316e-01 3.711859e-01 -1.003748e-01 -9.641433e-02 3.627436e-01 4.737114e-02 2.372638e-01 3.947589e-01 -2.911789e-01 -1.751051e-01 1.284119e-01 -9.434722e-02
<VARIANCE> 39
 1.071881e+01 1.917406e+01 3.653875e+01 2.522497e+01 3.579362e+01 4.727333e+01 4.696767e+01 3.519072e+01 5.085796e+01 4.998698e+01 2.670337e+01 2.413719e+01 2.916590e+01 1.839615e+00 1.636046e+00 6.465073e+00 3.147566e+00 3.051396e+00 3.196450e+00 2.460916e+00 3.331995e+00 3.591486e+00 4.468914e+00 1.848860e+00 2.911070e+00 1.213824e+00 3.253172e-01 3.110434e-01 8.541288e-01 2.936452e-01 3.321021e-01 6.787157e-01 4.466679e-01 3.475876e-01 6.593429e-01 5.978911e-01 4.270690e-01 3.516397e-01 1.846007e-01
<GCONST> 1.179617e+02
<TRANSP> 5
 0.000000e+00 1.000000e+00 0.000000e+00 0.000000e+00 0.000000e+00
 0.000000e+00 8.611630e-01 1.388370e-01 0.000000e+00 0.000000e+00
 0.000000e+00 0.000000e+00 5.548849e-01 4.451152e-01 0.000000e+00
 0.000000e+00 0.000000e+00 0.000000e+00 4.652143e-01 5.347857e-01
 0.000000e+00 0.000000e+00 0.000000e+00 0.000000e+00 0.000000e+00
<ENDHMM>
~h "aw"
<BEGINHMM>
<NUMSTATES> 5
<STATE> 2
<MEAN> 39
 -7.474797e-01 -1.372438e+01 1.363240e+01 -7.800015e+00 3.957401e+00 4.912278e+00 -9.313604e+00 9.542570e+00 -9.857509e+00 3.919184e+00 1.996032e+00 -2.240039e+00 6.241040e+01 -1.802149e-04 -4.002908e-04 -4.533151e-04 -6.255359e-04 3.060046e-04 -9.756409e-05 3.545313e-04 3.676544e-04 -3.322966e-04 2.823267e-04 3.441859e-04 -7.776468e-06 1.221478e-04 -1.140098e-05 1.280875e-04 8.513568e-05 5.610451e-05 1.307168e-04 1.258145e-04 -3.556004e-04 -3.413941e-04 -2.462322e-04 -2.982411e-04 -2.002541e-04 1.479088e-04 -5.553468e-05
<VARIANCE> 39
 7.885750e+01 3.150516e+01 5.932858e+01 4.002160e+01 3.388152e+01 4.450462e+01 4.196474e+01 3.377337e+01 5.805833e+01 2.700758e+01 1.807174e+01 1.807939e+01 1.000320e+02 2.049164e+00 1.868461e+00 3.042747e+00 2.325078e+00 1.845033e+00 2.917301e+00 2.107786e+00 2.084596e+00 2.106791e+00 1.946175e+00 1.426612e+00 1.517214e+00 1.393703e+00 2.791751e-01 3.309114e-01 4.813313e-01 4.079526e-01 3.174572e-01 5.210913e-01 3.729059e-01 3.905098e-01 3.965955e-01 3.683704e-01 2.743881e-01 2.959611e-01 2.159844e-01
<GCONST> 1.148699e+02
<STATE> 3
<MEAN> 39
 -7.474797e-01 -1.372438e+01 1.363240e+01 -7.800015e+00 3.957401e+00 4.912278e+00 -9.313604e+00 9.542570e+00 -9.857509e+00 3.919184e+00 1.996032e+00 -2.240039e+00 6.241040e+01 -1.802149e-04 -4.002908e-04 -4.533151e-04 -6.255359e-04 3.060046e-04 -9.756409e-05 3.545313e-04 3.676544e-04 -3.322966e-04 2.823267e-04 3.441859e-04 -7.776468e-06 1.221478e-04 -1.140098e-05 1.280875e-04 8.513568e-05 5.610451e-05 1.307168e-04 1.258145e-04 -3.556004e-04 -3.413941e-04 -2.462322e-04 -2.982411e-04 -2.002541e-04 1.479088e-04 -5.553468e-05
<VARIANCE> 39
 7.885750e+01 3.150516e+01 5.932858e+01 4.002160e+01 3.388152e+01 4.450462e+01 4.196474e+01 3.377337e+01 5.805833e+01 2.700758e+01 1.807174e+01 1.807939e+01 1.000320e+02 2.049164e+00 1.868461e+00 3.042747e+00 2.325078e+00 1.845033e+00 2.917301e+00 2.107786e+00 2.084596e+00 2.106791e+00 1.946175e+00 1.426612e+00 1.517214e+00 1.393703e+00 2.791751e-01 3.309114e-01 4.813313e-01 4.079526e-01 3.174572e-01 5.210913e-01 3.729059e-01 3.905098e-01 3.965955e-01 3.683704e-01 2.743881e-01 2.959611e-01 2.159844e-01
<GCONST> 1.148699e+02
<STATE> 4
<MEAN> 39
 -7.474797e-01 -1.372438e+01 1.363240e+01 -7.800015e+00 3.957401e+00 4.912278e+00 -9.313604e+00 9.542570e+00 -9.857509e+00 3.919184e+00 1.996032e+00 -2.240039e+00 6.241040e+01 -1.802149e-04 -4.002908e-04 -4.533151e-04 -6.255359e-04 3.060046e-04 -9.756409e-05 3.545313e-04 3.676544e-04 -3.322966e-04 2.823267e-04 3.441859e-04 -7.776468e-06 1.221478e-04 -1.140098e-05 1.280875e-04 8.513568e-05 5.610451e-05 1.307168e-04 1.258145e-04 -3.556004e-04 -3.413941e-04 -2.462322e-04 -2.982411e-04 -2.002541e-04 1.479088e-04 -5.553468e-05
<VARIANCE> 39
 7.885750e+01 3.150516e+01 5.932858e+01 4.002160e+01 3.388152e+01 4.450462e+01 4.196474e+01 3.377337e+01 5.805833e+01 2.700758e+01 1.807174e+01 1.807939e+01 1.000320e+02 2.049164e+00 1.868461e+00 3.042747e+00 2.325078e+00 1.845033e+00 2.917301e+00 2.107786e+00 2.084596e+00 2.106791e+00 1.946175e+00 1.426612e+00 1.517214e+00 1.393703e+00 2.791751e-01 3.309114e-01 4.813313e-01 4.079526e-01 3.174572e-01 5.210913e-01 3.729059e-01 3.905098e-01 3.965955e-01 3.683704e-01 2.743881e-01 2.959611e-01 2.159844e-01
<GCONST> 1.148699e+02
<TRANSP> 5
 0.000000e+00 1.000000e+00 0.000000e+00 0.000000e+00 0.000000e+00
 0.000000e+00 6.000000e-01 4.000000e-01 0.000000e+00 0.000000e+00
 0.000000e+00 0.000000e+00 6.000000e-01 4.000000e-01 0.000000e+00
 0.000000e+00 0.000000e+00 0.000000e+00 7.000000e-01 3.000000e-01
 0.000000e+00 0.000000e+00 0.000000e+00 0.000000e+00 0.000000e+00
<ENDHMM>
~h "ch"
<BEGINHMM>
<NUMSTATES> 5
<STATE> 2
<MEAN> 39
 -2.824702e+00 -2.175722e+01 2.145816e+01 -3.460295e+00 2.980792e+00 5.822629e+00 -1.191024e+01 8.346512e+00 -1.202670e+01 -8.612286e-01 1.107638e+00 -1.119334e+00 6.628345e+01 -2.256710e+00 -3.519816e+00 7.725694e-01 -1.475170e+00 -1.197879e+00 1.328783e-01 8.297164e-02 1.096712e+00 9.295906e-01 -5.865499e-01 -6.491610e-01 5.727882e-01 1.070933e+00 6.549416e-03 -5.639121e-01 6.789006e-02 -3.491400e-01 1.962461e-01 -3.574761e-01 -3.915768e-01 -1.174905e-01 -2.322549e-01 3.800799e-01 3.451101e-02 -1.581197e-01 7.516490e-01
<VARIANCE> 39
 2.825128e+01 7.479057e+01 5.314778e+01 2.283939e+01 2.887843e+01 2.033315e+01 2.904364e+01 3.668454e+01 3.294364e+01 2.339582e+01 1.818328e+01 1.427075e+01 4.401476e+01 3.439539e+00 6.446371e+00 6.028335e+00 3.476142e+00 3.009140e+00 2.555458e+00 3.304000e+00 2.428243e+00 2.745062e+00 2.304656e+00 1.505545e+00 1.057118e+00 4.603589e+00 3.710567e-01 1.394962e+00 1.077769e+00 4.626520e-01 5.858170e-01 5.562478e-01 5.239814e-01 5.845166e-01 4.875821e-01 5.054063e-01 3.901736e-01 2.207097e-01 5.220075e-01
<GCONST> 1.217096e+02
<STATE> 3
<MEAN> 39
 -9.340706e+00 -3.561357e+01 2.584825e+01 -1.044861e+01 2.546911e+00 4.970093e+00 -1.581477e+01 8.833736e+00 -1.024282e+01 2.356878e+00 1.482595e-01 -4.947033e-01 7.603289e+01 3.123160e-01 6.796452e-02 -4.225265e-03 -3.034016e-01 1.823080e-01 4.202072e-02 -2.986598e-01 -5.924341e-01 6.090494e-02 6.977945e-01 2.624453e-01 -4.702105e-02 5.551860e-01 9.885168e-01 1.259120e+00 -4.755518e-01 5.821719e-01 2.160948e-01 -1.666831e-02 1.474444e-01 -2.094852e-01 -2.302335e-01 -1.260786e-01 1.147226e-01 -1.445525e-01 -4.811155e-01
<VARIANCE> 39
 1.041025e+01 1.104996e+01 2.148841e+01 2.580252e+01 2.443570e+01 2.538788e+01 3.159337e+01 3.113856e+01 2.624892e+01 2.293407e+01 1.574320e+01 1.539404e+01 1.488013e+01 4.353216e+00 6.141188e+00 2.986630e+00 3.351414e+00 2.601984e+00 1.877293e+00 2.984634e+00 3.158499e+00 2.592879e+00 2.788247e+00 1.986733e+00 1.252741e+00 2.163846e+00 3.246933e-01 3.056305e-01 5.508742e-01 5.128332e-01 5.308267e-01 3.812531e-01 4.873289e-01 5.608453e-01 5.073044e-01 4.826496e-01 3.547417e-01 2.585423e-01 1.778256e-01
<GCONST> 1.117416e+02
<STATE> 4
<MEAN> 39
 2.318121e+00 -2.398094e+01 2.223358e+01 -5.887895e+00 5.808338e+00 5.300214e+00 -1.582631e+01 4.406571e+00 -1.225572e+01 4.090732e+00 1.973354e+00 -2.528035e+00 7.490657e+01 4.389385e+00 3.744313e+00 -2.889947e+00 1.643321e+00 1.616330e+00 -1.336845e+00 -5.195602e-01 -4.648335e-01 -1.499999e+00 -2.855293e-01 4.722367e-01 -8.723518e-01 -2.987514e-01 -1.876710e-01 -4.958516e-01 -5.809438e-01 -2.228066e-01 9.706126e-02 -6.885802e-01 -2.975402e-01 4.831219e-01 -2.043193e-01 -2.870404e-01 1.790097e-02 1.269877e-01 2.269337e-01
<VARIANCE> 39
 4.582228e+01 3.258535e+01 5.638385e+01 3.220551e+01 2.380892e+01 2.546680e+01 4.625383e+01 3.167234e+01 3.233397e+01 3.564441e+01 2.778845e+01 1.690478e+01 2.602017e+01 2.285503e+00 2.401320e+00 4.044400e+00 2.591809e+00 3.063317e+00 3.479744e+00 3.717956e+00 2.966017e+00 4.490343e+00 3.212878e+00 2.327549e+00 1.671767e+00 1.617507e+00 7.292518e-01 5.205287e-01 6.848659e-01 4.201062e-01 4.708728e-01 4.530778e-01 5.259390e-01 5.871324e-01 5.779247e-01 4.193088e-01 3.524182e-01 3.561760e-01 1.493707e-01
<GCONST> 1.196474e+02
<TRANSP> 5
 0.000000e+00 1.000000e+00 0.000000e+00 0.000000e+00 0.000000e+00
 0.000000e+00 7.259257e-01 2.740743e-01 0.000000e+00 0.000000e+00
 0.000000e+00 0.000000e+00 8.220003e-01 1.779998e-01 0.000000e+00
 0.000000e+00 0.000000e+00 0.000000e+00 6.017629e-01 3.982371e-01
 0.000000e+00 0.000000e+00 0.000000e+00 0.000000e+00 0.000000e+00
<ENDHMM>
~h "dj"
<BEGINHMM>
<NUMSTATES> 5
<STATE> 2
<MEAN> 39
 7.463723e+00 -1.157670e+01 2.000325e+01 3.338720e+00 1.243205e+01 3.059361e-01 -1.500157e+01 6.285888e+00 -1.518989e+01 2.168817e+00 7.676774e-01 -1.189011e+00 6.839471e+01 -9.406174e-01 -1.854121e-01 1.922842e+00 -4.726509e-01 -6.313035e-01 6.797197e-01 6.067773e-01 3.059674e-01 1.731738e-01 7.436139e-01 -3.475675e-01 -1.635458e-01 -3.397240e-01 1.119917e-01 -7.464724e-01 6.506306e-02 -3.310032e-01 -5.338052e-02 -3.103521e-01 -2.827384e-01 5.480977e-02 -5.225086e-01 -1.206254e-01 -1.562288e-01 -3.691314e-01 6.157069e-01
<VARIANCE> 39
 1.319790e+01 4.390428e+01 5.230657e+01 3.367950e+01 2.724892e+01 3.671899e+01 3.297311e+01 2.906976e+01 3.982227e+01 1.962807e+01 1.297309e+01 9.845992e+00 2.324563e+01 4.802800e-01 9.099176e+00 2.642194e+00 5.214318e+00 2.808697e+00 2.582147e+00 3.648475e+00 3.850162e+00 6.105863e+00 2.638519e+00 1.546319e+00 1.406905e+00 4.210505e+00 1.311804e-01 1.555778e+00 6.426051e-01 9.560707e-01 7.637926e-01 4.717971e-01 1.130095e+00 7.935120e-01 1.162461e+00 3.834408e-01 2.704753e-01 2.156867e-01 6.864608e-01
<GCONST> 1.204286e+02
<STATE> 3
<MEAN> 39
 5.216444e+00 -1.887325e+01 2.699522e+01 8.902277e-01 1.162168e+01 4.382588e-01 -1.700937e+01 6.776873e+00 -1.768629e+01 3.301736e+00 -2.310778e+00 -4.251451e+00 7.263026e+01 4.960929e-01 -1.257864e+00 8.354703e-02 9.833177e-01 9.624401e-01 -1.267337e+00 -2.231731e+00 -9.045747e-01 -7.905725e-01 -3.278805e-01 -5.879697e-01 -9.307664e-01 1.105907e+00 4.154274e-01 7.347992e-01 -1.076391e+00 3.493602e-01 3.917924e-04 -4.436583e-01 -1.595683e-01 -1.326071e-01 1.644696e-01 -3.884921e-01 4.102262e-01 2.234627e-01 -2.055820e-01
<VARIANCE> 39
 1.818703e+01 1.496940e+01 8.265438e+01 4.452081e+01 3.873326e+01 3.497517e+01 4.021669e+01 3.133945e+01 2.268523e+01 2.230406e+01 1.999133e+01 1.819382e+01 1.535388e+01 9.627064e-01 2.689035e+00 4.025234e+00 6.730903e+00 3.208735e+00 3.251654e+00 2.775359e+00 1.535593e+00 5.010253e+00 1.875627e+00 1.650425e+00 6.357155e-01 1.939936e+00 1.370926e-01 5.114906e-01 4.601462e-01 1.067477e+00 7.201893e-01 4.983433e-01 1.124442e+00 5.110763e-01 5.566130e-01 5.831090e-01 5.984799e-01 2.807366e-01 2.906988e-01
<GCONST> 1.166041e+02
<STATE> 4
<MEAN> 39
 8.947949e+00 -1.919161e+01 1.931708e+01 1.915051e+00 1.495127e+01 -3.865534e+00 -2.166148e+01 4.228582e+00 -2.106079e+01 2.017469e+00 -3.550533e-01 -5.313548e+00 7.492927e+01 2.226302e-01 6.173395e-02 -6.785330e-01 -2.193674e-01 -2.393014e-01 -2.354885e-01 -2.326381e-01 -1.278122e-01 -2.930154e-01 -1.787373e-01 8.221467e-01 -5.497156e-02 2.686119e-01 -1.277165e-01 2.331227e-01 9.139022e-03 -3.362674e-01 -3.754112e-01 3.573153e-01 5.518741e-01 2.325650e-01 2.385224e-01 -6.808595e-02 7.908034e-02 3.017922e-01 -2.074322e-01
<VARIANCE> 39
 2.252398e+01 1.200666e+01 1.319372e+02 3.688958e+01 3.117015e+01 3.216610e+01 2.349685e+01 3.423676e+01 3.772097e+01 2.988910e+01 2.465668e+01 1.203061e+01 1.712229e+01 7.247939e-01 6.790520e-01 3.181180e+00 2.493672e+00 1.565128e+00 2.006899e+00 2.111118e+00 1.552085e+00 1.339035e+00 1.433479e+00 2.118201e+00 1.541038e+00 4.223209e-01 9.429263e-02 1.691428e-01 4.221136e-01 4.058389e-01 3.843170e-01 4.095318e-01 6.392106e-01 2.090772e-01 3.434742e-01 2.947960e-01 3.019616e-01 1.687742e-01 1.486047e-01
<GCONST> 1.026577e+02
<TRANSP> 5
 0.000000e+00 1.000000e+00 0.000000e+00 0.000000e+00 0.000000e+00
 0.000000e+00 7.295299e-01 2.704701e-01 0.000000e+00 0.000000e+00
 0.000000e+00 0.000000e+00 5.469458e-01 4.530542e-01 0.000000e+00
 0.000000e+00 0.000000e+00 0.000000e+00 6.287689e-01 3.712312e-01
 0.000000e+00 0.000000e+00 0.000000e+00 0.000000e+00 0.000000e+00
<ENDHMM>
~h "ee"
<BEGINHMM>
<NUMSTATES> 5
<STATE> 2
<MEAN> 39
