~o
<STREAMINFO> 1 39
<VECSIZE> 39<NULLD><MFCC_D_A_0><DIAGC>
~s "silst"
<MEAN> 39
 -5.214717e+00 -1.308091e+01 1.323566e+01 -8.858468e+00 1.911794e+00 6.911138e+00 -7.252807e+00 1.058189e+01 -7.445080e+00 5.551330e+00 3.186646e+00 -1.229932e+00 5.699647e+01 -1.611750e-01 6.705616e-02 1.120461e-02 1.528798e-01 4.665732e-02 7.130522e-02 7.965282e-02 2.254366e-02 5.996997e-02 -7.824642e-02 -2.071048e-02 -2.173152e-02 -1.800496e-01 7.026151e-02 4.923994e-02 -7.500605e-02 1.094910e-01 1.571123e-02 3.858912e-02 1.764026e-02 -4.645880e-02 6.760494e-02 -6.169025e-02 -6.839244e-03 -2.516958e-02 -1.432040e-02
<VARIANCE> 39
 1.498152e+01 1.430047e+01 2.169133e+01 1.927345e+01 1.538226e+01 2.452605e+01 1.640283e+01 2.413773e+01 2.270767e+01 1.629422e+01 1.327131e+01 1.107965e+01 1.282310e+01 6.752911e-01 1.215375e+00 1.944929e+00 1.807901e+00 1.222907e+00 1.927142e+00 1.388111e+00 1.702313e+00 2.073151e+00 1.606086e+00 1.152710e+00 1.031412e+00 7.124480e-01 9.650514e-02 2.156718e-01 3.723053e-01 3.354799e-01 2.440787e-01 3.712681e-01 2.722670e-01 3.264093e-01 4.065418e-01 3.138640e-01 2.266010e-01 2.042223e-01 1.180332e-01
<GCONST> 9.422068e+01
~h "a"
<BEGINHMM>
<NUMSTATES> 5
<STATE> 2
<MEAN> 39
 8.480206e+00 -1.635114e+01 7.563688e+00 -1.433031e+01 1.413905e+00 6.786785e-01 -8.990092e+00 8.937861e+00 -1.444882e+01 4.442699e+00 1.401234e+00 4.992592e-01 7.183263e+01 2.136587e+00 -3.694021e-01 -1.881876e+00 -4.732931e-01 -4.100962e-02 -1.904101e+00 3.584017e-01 4.845881e-01 -9.499507e-01 4.419260e-01 2.494127e-01 4.161465e-01 1.930029e+00 -2.243527e-01 1.791412e-01 1.798123e-01 3.901014e-01 2.925747e-01 2.376245e-01 1.961597e-02 -1.126507e-01 9.584401e-02 7.894248e-03 -3.975440e-02 -1.793267e-01 -2.973436e-01
<VARIANCE> 39
 6.647852e+01 2.638721e+01 6.448717e+01 3.404377e+01 4.063560e+01 6.060210e+01 4.536954e+01 4.942956e+01 5.465055e+01 3.444998e+01 2.594119e+01 1.990513e+01 7.745908e+01 4.645555e+00 2.675113e+00 5.878846e+00 3.897077e+00 3.124497e+00 5.589767e+00 3.719958e+00 3.839647e+00 3.111720e+00 3.207016e+00 2.549068e+00 2.141503e+00 4.336291e+00 1.044452e+00 6.749286e-01 1.378746e+00 7.947528e-01 5.867214e-01 1.280482e+00 6.408042e-01 6.522059e-01 6.173273e-01 5.836836e-01 5.283633e-01 4.679309e-01 8.091360e-01
<GCONST> 1.330915e+02
<STATE> 3
<MEAN> 39
 1.470596e+01 -1.767408e+01 2.328934e+00 -1.428678e+01 3.415668e+00 -5.396970e+00 -9.872786e+00 9.439769e+00 -1.805459e+01 5.369754e+00 3.057728e+00 1.665297e+00 7.806879e+01 -3.195773e-01 2.193631e-01 6.886832e-01 4.234755e-01 3.100423e-01 7.904269e-01 3.759850e-01 -2.972868e-01 3.270094e-02 2.064411e-01 -8.611665e-02 -1.705077e-01 -4.166363e-01 -6.562435e-01 3.015772e-01 9.277084e-01 2.041588e-01 5.070647e-02 1.010649e+00 -5.412241e-02 -2.666480e-01 3.902457e-01 -2.711841e-01 -3.228504e-01 -3.212727e-01 -6.758115e-01
<VARIANCE> 39
 5.960804e+00 1.383292e+01 3.621808e+01 2.257493e+01 4.141957e+01 2.872358e+01 4.115021e+01 5.615908e+01 5.694831e+01 4.778836e+01 2.895522e+01 2.327877e+01 1.486499e+01 1.048285e+00 1.694352e+00 5.360361e+00 2.009556e+00 2.495782e+00 3.962584e+00 3.169177e+00 2.341286e+00 2.754233e+00 3.151378e+00 2.089333e+00 2.018274e+00 1.545558e+00 3.573644e-01 3.075201e-01 6.973629e-01 4.472425e-01 4.480200e-01 5.961109e-01 4.436180e-01 5.617249e-01 6.097757e-01 6.484799e-01 3.773098e-01 5.018959e-01 2.341930e-01
<GCONST> 1.159000e+02
<STATE> 4
<MEAN> 39
 1.117435e+01 -1.415841e+01 7.483094e+00 -1.333757e+01 2.962350e+00 1.420065e+00 -7.788838e+00 8.636569e+00 -1.576994e+01 4.542460e+00 2.386033e+00 7.298037e-02 7.298895e+01 -1.774814e+00 1.075365e+00 1.911989e+00 8.611568e-01 7.538754e-02 2.382838e+00 3.280476e-02 -5.669367e-01 1.212158e+00 -7.150373e-01 -5.534105e-01 -8.132727e-01 -2.141978e+00 -3.010675e-01 -2.051722e-01 3.554431e-02 3.452962e-02 -9.525349e-03 -1.521847e-01 -3.261064e-01 2.463463e-03 1.162214e-01 -1.404417e-01 -5.742189e-02 -2.556726e-02 -7.968389e-02
<VARIANCE> 39
 1.630796e+01 1.997511e+01 5.644600e+01 3.320169e+01 4.923552e+01 4.410256e+01 5.020057e+01 6.287914e+01 5.359383e+01 5.241535e+01 2.996881e+01 2.386286e+01 3.121201e+01 2.298940e+00 2.409654e+00 5.855895e+00 3.181087e+00 3.857430e+00 4.547997e+00 3.253392e+00 3.754801e+00 3.586470e+00 4.011536e+00 2.241755e+00 3.455132e+00 2.498730e+00 2.880673e-01 3.339940e-01 8.525732e-01 4.334598e-01 4.346212e-01 5.808439e-01 5.061486e-01 4.983919e-01 5.440885e-01 6.307458e-01 3.322358e-01 4.184380e-01 2.396777e-01
<GCONST> 1.237652e+02
<TRANSP> 5
 0.000000e+00 1.000000e+00 0.000000e+00 0.000000e+00 0.000000e+00
 0.000000e+00 4.992318e-01 5.007682e-01 0.000000e+00 0.000000e+00
 0.000000e+00 0.000000e+00 6.258390e-01 3.741610e-01 0.000000e+00
 0.000000e+00 0.000000e+00 0.000000e+00 3.734225e-01 6.265775e-01
 0.000000e+00 0.000000e+00 0.000000e+00 0.000000e+00 0.000000e+00
<ENDHMM>
~h "b"
<BEGINHMM>
<NUMSTATES> 5
<STATE> 2
<MEAN> 39
 8.782652e+00 -2.268207e+00 1.593920e+01 -2.592213e+00 7.581018e+00 7.539375e+00 -9.098846e+00 7.960067e+00 -1.064234e+01 -1.134987e+00 -1.788324e+00 -4.416023e+00 6.289052e+01 -3.618097e-01 -2.236278e-01 9.642274e-01 -1.259034e-01 -6.342257e-02 8.849100e-01 8.566544e-02 -4.785357e-01 -1.263527e-01 3.757580e-01 -1.427964e-01 -2.297530e-01 -1.563748e-02 2.586814e-01 -1.115689e+00 -4.742678e-01 -5.034693e-01 -7.918280e-02 -8.506023e-01 -4.437913e-01 2.112728e-02 -7.086050e-01 -6.545836e-02 8.061835e-02 4.870031e-02 9.687416e-01
<VARIANCE> 39
 1.657407e+01 1.049179e+01 2.026484e+01 1.198812e+01 1.366545e+01 1.141221e+01 1.362477e+01 2.119487e+01 1.577153e+01 2.086591e+01 1.465810e+01 1.314636e+01 1.044659e+01 1.056815e+00 4.878532e+00 1.970215e+00 2.478716e+00 2.040369e+00 2.597986e+00 1.377609e+00 1.768292e+00 2.493972e+00 1.623163e+00 1.175113e+00 1.165748e+00 2.860216e+00 1.623650e-01 4.289350e-01 3.862347e-01 4.264669e-01 4.285311e-01 4.693853e-01 3.834271e-01 3.407148e-01 5.284063e-01 4.165562e-01 3.193058e-01 3.169805e-01 3.124468e-01
<GCONST> 1.019211e+02
<STATE> 3
<MEAN> 39
 8.700174e+00 -9.499882e+00 1.688704e+01 -6.704332e+00 5.504465e+00 8.771865e+00 -8.171604e+00 7.011804e+00 -1.411601e+01 -8.603514e-01 -2.767090e+00 -4.742537e+00 6.771461e+01 9.675346e-01 -3.287236e+00 -1.340854e+00 -1.067311e+00 1.010843e-01 -2.015392e+00 -1.553763e+00 -3.917267e-01 -2.258682e+00 -4.753748e-01 2.523113e-02 -2.040811e-01 2.968298e+00 4.508822e-01 -4.154209e-02 -7.098930e-01 5.673636e-01 5.005480e-01 -1.324792e+00 -8.767615e-01 3.731261e-02 -3.321925e-01 -2.160929e-01 3.416460e-01 -2.449098e-02 4.114830e-01
<VARIANCE> 39
 1.051364e+01 3.319100e+01 2.890017e+01 2.093239e+01 1.917934e+01 2.393962e+01 1.420620e+01 3.266902e+01 2.170893e+01 2.877177e+01 1.299693e+01 1.215169e+01 1.691056e+01 9.625338e-01 2.902034e+00 2.612625e+00 2.907667e+00 4.785998e+00 2.731264e+00 2.058912e+00 2.380345e+00 4.020684e+00 3.311486e+00 2.558054e+00 1.831172e+00 1.392663e+00 1.257898e-01 6.176639e-01 5.900022e-01 5.439187e-01 3.747104e-01 4.113861e-01 3.677055e-01 3.690503e-01 5.363839e-01 5.981709e-01 3.817584e-01 2.862864e-01 2.377929e-01
<GCONST> 1.098676e+02
<STATE> 4
<MEAN> 39
 1.203055e+01 -1.379228e+01 1.213297e+01 -7.944098e+00 6.978612e+00 3.268098e+00 -1.286203e+01 5.630093e+00 -1.930984e+01 -3.590856e+00 -2.857439e+00 -4.515177e+00 7.334206e+01 1.239181e+00 -2.295751e+00 -1.796192e+00 3.688281e-01 1.091559e+00 -3.530159e+00 -2.683273e+00 -3.863246e-01 -2.243235e+00 -3.010867e-01 9.129902e-01 -2.409830e-01 2.589852e+00 -1.278922e-01 6.777272e-01 1.976395e-01 7.580168e-01 2.631384e-01 -3.443679e-01 -1.872582e-01 1.426928e-01 4.661110e-01 2.382007e-01 2.810101e-01 -5.577078e-02 -4.838477e-01
<VARIANCE> 39
 1.046554e+01 1.765121e+01 3.583401e+01 2.818409e+01 4.933448e+01 4.156778e+01 2.018473e+01 4.695882e+01 4.112118e+01 3.416429e+01 2.513606e+01 1.400914e+01 1.192410e+01 1.115216e+00 3.272209e+00 3.470173e+00 4.528563e+00 4.609254e+00 2.633846e+00 2.572236e+00 2.742046e+00 3.835268e+00 3.887036e+00 3.436087e+00 2.158597e+00 1.290991e+00 1.274671e-01 4.255694e-01 5.467356e-01 3.690590e-01 4.696245e-01 7.780251e-01 4.262675e-01 4.059384e-01 7.354047e-01 6.388474e-01 3.638506e-01 2.941138e-01 2.151538e-01
<GCONST> 1.155419e+02
<TRANSP> 5
 0.000000e+00 1.000000e+00 0.000000e+00 0.000000e+00 0.000000e+00
 0.000000e+00 7.344745e-01 2.655255e-01 0.000000e+00 0.000000e+00
 0.000000e+00 0.000000e+00 1.152166e-01 8.847834e-01 0.000000e+00
 0.000000e+00 0.000000e+00 0.000000e+00 2.202172e-01 7.797828e-01
 0.000000e+00 0.000000e+00 0.000000e+00 0.000000e+00 0.000000e+00
<ENDHMM>
~h "c"
<BEGINHMM>
<NUMSTATES> 5
<STATE> 2
<MEAN> 39
 -5.959055e+00 -1.733895e+01 2.895839e+01 -1.649627e+01 4.315023e-01 7.431876e+00 -6.324850e+00 5.068871e+00 -1.756130e+01 6.813655e+00 -2.929225e+00 -2.529401e+00 6.949368e+01 -3.727744e+00 -2.114261e+00 2.828012e+00 -2.804387e+00 -7.097842e-01 4.947555e-01 3.475236e-01 -2.674673e-01 -4.262722e-01 1.572251e+00 -2.246703e-01 3.527494e-02 8.928968e-01 4.286960e-01 -3.131273e-01 -4.318928e-01 8.494425e-02 1.701451e-01 -3.142630e-01 -2.168432e-01 2.485466e-01 -1.292894e-01 5.605781e-02 4.007698e-01 -6.303045e-02 5.623343e-01
<VARIANCE> 39
 4.328603e+01 2.987380e+01 7.762002e+01 4.892225e+01 3.515348e+01 3.230318e+01 3.192871e+01 3.246646e+01 4.128151e+01 2.778648e+01 1.886207e+01 1.592209e+01 3.801539e+01 3.739472e+00 3.552912e+00 7.530029e+00 4.512528e+00 2.443519e+00 2.593785e+00 2.446471e+00 3.403244e+00 3.447531e+00 2.666780e+00 1.740338e+00 1.441211e+00 3.476296e+00 6.596938e-01 8.057091e-01 1.515450e+00 1.155030e+00 4.074592e-01 5.888658e-01 4.989017e-01 4.693030e-01 6.091477e-01 4.581278e-01 3.232572e-01 3.399113e-01 5.226247e-01
<GCONST> 1.248280e+02
<STATE> 3
<MEAN> 39
 -1.393476e+01 -2.599067e+01 3.462885e+01 -2.199635e+01 3.110164e-03 9.394409e+00 -5.755170e+00 6.228486e+00 -1.843342e+01 1.195456e+01 7.146475e-01 -2.484192e+00 7.539365e+01 1.135577e+00 -1.396900e-01 -7.491233e-01 1.086967e+00 2.536540e-01 3.359759e-01 -1.669271e-01 -1.969775e-01 6.638005e-02 -1.838687e-01 9.576701e-01 -2.662456e-03 3.137206e-01 1.163349e+00 7.215109e-01 -8.943208e-01 7.688667e-01 2.144863e-01 -2.121270e-01 -2.053920e-01 -2.131687e-01 -8.096314e-02 -5.145708e-01 -5.921795e-02 -9.189450e-02 -3.422734e-01
<VARIANCE> 39
 1.967351e+01 1.949568e+01 2.532052e+01 3.245999e+01 2.927995e+01 3.183435e+01 4.059802e+01 2.734556e+01 4.346940e+01 2.104227e+01 3.366961e+01 1.743475e+01 1.575314e+01 6.687552e+00 3.829130e+00 5.043984e+00 4.618973e+00 1.861742e+00 2.024710e+00 2.411631e+00 2.554711e+00 2.506265e+00 2.549770e+00 1.690660e+00 1.193424e+00 1.273093e+00 5.395177e-01 5.434368e-01 9.722505e-01 7.948209e-01 4.134646e-01 3.958512e-01 4.849433e-01 4.334263e-01 5.519558e-01 3.755353e-01 3.904853e-01 2.475334e-01 1.580375e-01
<GCONST> 1.158638e+02
<STATE> 4
<MEAN> 39
 2.602826e+00 -1.878460e+01 2.312910e+01 -1.321411e+01 2.801060e+00 9.302179e+00 -9.284353e+00 4.048068e-01 -2.070404e+01 7.121309e+00 3.337412e+00 -3.617108e+00 7.463589e+01 4.490440e+00 2.122633e+00 -4.341305e+00 2.071743e+00 1.612591e+00 -1.698337e+00 -1.546776e+00 -4.532321e-01 -1.122657e+00 -1.164387e+00 -1.325672e-01 -5.378501e-01 -6.783925e-01 -7.251906e-01 -3.003857e-01 2.037236e-01 -2.993798e-01 1.271885e-01 -3.271641e-01 -6.742171e-02 4.980853e-01 2.301720e-01 2.639770e-01 -2.617261e-01 8.400794e-02 -1.056032e-01
<VARIANCE> 39
 6.178556e+01 2.506435e+01 6.333347e+01 2.719112e+01 2.923874e+01 3.917239e+01 4.668524e+01 4.374042e+01 3.031241e+01 2.416951e+01 1.911169e+01 1.101071e+01 3.041494e+01 4.432574e+00 3.507092e+00 5.335095e+00 3.538357e+00 2.827082e+00 3.752034e+00 3.178547e+00 3.088697e+00 4.216268e+00 2.658967e+00 2.397194e+00 1.352258e+00 1.594589e+00 8.207923e-01 5.810850e-01 9.731570e-01 4.834594e-01 5.330240e-01 5.739229e-01 5.176257e-01 5.147173e-01 5.071211e-01 3.516594e-01 2.567527e-01 2.277517e-01 2.213183e-01
<GCONST> 1.208137e+02
<TRANSP> 5
 0.000000e+00 1.000000e+00 0.000000e+00 0.000000e+00 0.000000e+00
 0.000000e+00 7.253543e-01 2.746457e-01 0.000000e+00 0.000000e+00
 0.000000e+00 0.000000e+00 8.189836e-01 1.810165e-01 0.000000e+00
 0.000000e+00 0.000000e+00 0.000000e+00 5.161995e-01 4.838005e-01
 0.000000e+00 0.000000e+00 0.000000e+00 0.000000e+00 0.000000e+00
<ENDHMM>
~h "d"
<BEGINHMM>
<NUMSTATES> 5
<STATE> 2
<MEAN> 39
 7.129488e+00 -9.489737e+00 1.508488e+01 -2.435942e+00 9.105272e+00 7.013522e+00 -1.306991e+01 4.589392e+00 -1.253213e+01 -2.518285e-01 1.711525e-01 -1.893233e+00 6.585117e+01 5.464849e-02 -5.994965e-01 3.553792e-01 -2.801649e-01 -1.022030e-02 2.869532e-01 -1.037849e-01 -3.596270e-01 -4.019215e-01 1.026946e-01 -9.997617e-02 1.013788e-01 3.872187e-01 2.989580e-01 -7.241858e-01 -3.442476e-01 -4.413346e-01 5.645117e-02 -8.884801e-01 -5.225440e-01 1.597448e-02 -6.557450e-01 2.773890e-01 2.265806e-01 -1.400232e-01 8.523526e-01
<VARIANCE> 39
 3.313300e+01 6.225848e+01 5.330942e+01 3.585333e+01 3.303998e+01 3.257931e+01 3.509914e+01 4.261659e+01 2.871551e+01 2.475554e+01 2.463583e+01 1.968500e+01 3.200615e+01 1.847158e+00 6.903345e+00 4.732302e+00 3.833832e+00 3.296376e+00 6.254537e+00 4.431023e+00 4.106549e+00 4.250170e+00 2.065117e+00 2.232826e+00 1.967543e+00 4.907331e+00 2.693861e-01 1.218146e+00 8.409886e-01 6.345594e-01 7.051600e-01 1.187054e+00 1.039453e+00 8.890465e-01 7.645103e-01 6.049405e-01 5.451513e-01 5.452895e-01 6.766961e-01
<GCONST> 1.296132e+02
<STATE> 3
<MEAN> 39
 1.065184e+01 -1.491559e+01 1.195908e+01 -6.263307e+00 1.069409e+01 3.487046e+00 -1.771437e+01 2.985795e+00 -1.745356e+01 -7.415867e-01 7.162228e-01 -1.270525e+00 7.265203e+01 5.087005e-01 -1.377028e+00 -5.815328e-01 -1.137923e+00 2.654120e-01 -1.881132e+00 -1.221017e+00 2.304118e-02 -1.535356e+00 7.106904e-01 6.492606e-01 -7.747164e-02 1.774223e+00 7.903367e-02 9.767612e-02 -1.260017e-01 -7.478528e-03 -9.928405e-02 -4.553844e-01 2.296233e-01 3.271774e-01 -1.308337e-01 2.332202e-01 1.104030e-01 -2.016714e-01 1.206472e-01
<VARIANCE> 39
 1.498736e+01 4.346432e+01 5.314677e+01 3.975093e+01 3.551513e+01 5.756251e+01 4.151775e+01 3.198247e+01 3.197588e+01 2.639091e+01 2.805112e+01 2.490698e+01 3.291343e+01 1.721764e+00 4.149816e+00 6.288236e+00 3.419221e+00 3.311716e+00 7.834321e+00 4.884148e+00 4.502247e+00 3.634746e+00 3.309597e+00 3.799453e+00 3.494163e+00 3.012237e+00 2.038652e-01 9.515898e-01 6.033146e-01 5.165240e-01 7.595811e-01 1.400158e+00 1.254611e+00 7.631799e-01 8.909805e-01 6.159062e-01 4.497902e-01 4.688537e-01 6.259377e-01
<GCONST> 1.295515e+02
<STATE> 4
<MEAN> 39
 1.059683e+01 -1.507708e+01 1.186531e+01 -6.630944e+00 1.039178e+01 1.330325e+00 -1.717741e+01 3.002847e+00 -1.927884e+01 8.446186e-01 1.145912e+00 -2.077977e+00 7.372990e+01 4.629436e-01 -9.801790e-01 -3.187936e-01 -7.233287e-01 1.597488e-01 -1.800492e+00 -4.472089e-01 4.379856e-01 -1.468209e+00 8.297569e-01 4.108412e-01 -5.365165e-01 1.381118e+00 -3.690955e-02 2.966324e-01 2.097673e-02 2.186421e-01 -1.390823e-01 1.041052e-01 3.992290e-01 2.303671e-01 2.959163e-01 -9.237578e-02 -6.405824e-02 -4.315623e-02 -2.361046e-01
<VARIANCE> 39
 1.955722e+01 4.239094e+01 7.544302e+01 4.507223e+01 4.022892e+01 6.302141e+01 4.574448e+01 3.884265e+01 3.759264e+01 3.366264e+01 3.916955e+01 2.594102e+01 3.302815e+01 1.771999e+00 3.593487e+00 4.848258e+00 4.339484e+00 3.183254e+00 6.877678e+00 5.572795e+00 5.561992e+00 4.145091e+00 4.468960e+00 3.426939e+00 4.088307e+00 1.860419e+00 2.144344e-01 8.380305e-01 8.304862e-01 4.862970e-01 6.846511e-01 1.298511e+00 9.172466e-01 6.004134e-01 7.093898e-01 4.410834e-01 5.296325e-01 3.394182e-01 5.868859e-01
<GCONST> 1.302632e+02
<TRANSP> 5
 0.000000e+00 1.000000e+00 0.000000e+00 0.000000e+00 0.000000e+00
 0.000000e+00 6.005002e-01 3.994998e-01 0.000000e+00 0.000000e+00
 0.000000e+00 0.000000e+00 1.863110e-01 8.136890e-01 0.000000e+00
 0.000000e+00 0.000000e+00 0.000000e+00 3.199374e-02 9.680063e-01
 0.000000e+00 0.000000e+00 0.000000e+00 0.000000e+00 0.000000e+00
<ENDHMM>
~h "e"
<BEGINHMM>
<NUMSTATES> 5
<STATE> 2
<MEAN> 39
 1.279228e+01 -1.949113e+01 8.469807e+00 -8.303044e+00 1.011484e+01 -3.966094e+00 -1.869155e+01 4.342896e+00 -2.126285e+01 4.944200e+00 5.930876e+00 -5.588629e-01 7.814165e+01 2.463296e-01 4.039966e-01 -5.502485e-01 -8.833660e-02 1.096587e-01 -2.713356e-02 4.676544e-01 1.167797e-01 -2.811891e-01 7.622553e-02 2.761419e-01 2.526816e-01 -3.188763e-01 -6.205334e-01 2.691786e-01 7.213485e-01 8.976382e-02 -2.590416e-01 8.704312e-01 5.446513e-01 -8.945731e-03 5.190304e-01 -1.787122e-01 -4.782932e-01 -1.463410e-01 -5.552327e-01
<VARIANCE> 39
 7.589428e+00 1.401023e+01 4.647986e+01 3.801707e+01 2.957088e+01 3.682143e+01 4.419653e+01 3.973811e+01 3.354689e+01 4.594020e+01 2.339429e+01 2.942746e+01 1.565451e+01 1.765600e+00 1.610770e+00 5.706698e+00 2.492145e+00 2.317538e+00 4.629873e+00 3.055272e+00 2.952092e+00 2.784707e+00 3.837968e+00 2.368411e+00 2.193417e+00 1.266112e+00 4.124032e-01 3.844567e-01 7.309095e-01 4.999907e-01 4.362414e-01 5.562382e-01 4.808245e-01 5.639961e-01 5.610723e-01 6.445284e-01 4.318244e-01 5.117491e-01 1.864315e-01
<GCONST> 1.176593e+02
<STATE> 3
<MEAN> 39
 1.200750e+01 -1.747064e+01 1.042706e+01 -7.792671e+00 9.988667e+00 -1.347563e+00 -1.623339e+01 4.490396e+00 -2.119361e+01 3.682313e+00 4.461000e+00 -1.136149e+00 7.600371e+01 -8.375288e-01 1.367594e+00 9.992860e-01 3.922580e-01 -4.126090e-01 2.128110e+00 1.417405e+00 -2.282342e-01 1.041565e+00 -5.422983e-01 -9.872051e-01 -2.783045e-01 -1.619443e+00 -5.494957e-01 5.779757e-02 5.543767e-01 3.634260e-02 -2.240459e-01 5.093814e-01 1.130392e-01 -5.305510e-02 4.927750e-01 -4.055580e-02 -3.104228e-01 -1.687502e-01 -3.235291e-01
<VARIANCE> 39
 1.065493e+01 1.703939e+01 5.236372e+01 4.790811e+01 3.219108e+01 4.059481e+01 4.869296e+01 4.846451e+01 3.679692e+01 6.209139e+01 2.472544e+01 3.794930e+01 1.748728e+01 1.740745e+00 1.876299e+00 6.157432e+00 2.732878e+00 2.756988e+00 4.892944e+00 3.277100e+00 3.194092e+00 2.642095e+00 3.633271e+00 2.300203e+00 2.836642e+00 1.783486e+00 3.346629e-01 3.116013e-01 8.342440e-01 4.944021e-01 4.012573e-01 4.898894e-01 4.327780e-01 6.489654e-01 5.185315e-01 6.919219e-01 3.353921e-01 6.553935e-01 1.854274e-01
<GCONST> 1.204922e+02
<STATE> 4
<MEAN> 39
 9.323423e+00 -1.481025e+01 1.267079e+01 -7.118909e+00 8.426560e+00 3.516130e+00 -1.368540e+01 3.691221e+00 -1.760717e+01 3.798046e+00 3.061203e+00 -1.606995e+00 7.216582e+01 -1.368572e+00 1.086821e+00 1.217021e+00 2.396782e-01 -6.820831e-01 1.998786e+00 9.806237e-01 -1.791775e-01 1.387539e+00 -5.088115e-01 -1.016049e+00 -3.904559e-01 -1.807047e+00 -1.865881e-01 -3.431869e-01 4.993058e-02 -1.962302e-01 -1.080543e-01 -3.511717e-01 -2.582779e-01 1.082908e-01 -5.262892e-02 5.116360e-02 1.981152e-02 -5.184755e-02 1.882001e-01
<VARIANCE> 39
 1.855569e+01 2.252585e+01 5.887411e+01 5.003577e+01 3.705462e+01 5.010964e+01 4.254276e+01 4.986776e+01 3.909072e+01 6.652298e+01 2.541995e+01 3.136230e+01 3.144769e+01 2.556308e+00 2.472101e+00 6.396852e+00 2.937966e+00 3.116456e+00 4.609097e+00 2.885940e+00 3.318566e+00 2.997417e+00 3.029964e+00 2.178071e+00 3.794787e+00 2.134921e+00 2.410166e-01 3.176504e-01 8.229678e-01 4.798678e-01 3.809701e-01 6.325602e-01 4.623157e-01 5.638482e-01 4.717560e-01 7.525054e-01 3.802592e-01 4.174253e-01 2.409272e-01
<GCONST> 1.230925e+02
<TRANSP> 5
 0.000000e+00 1.000000e+00 0.000000e+00 0.000000e+00 0.000000e+00
 0.000000e+00 5.384071e-01 4.615929e-01 0.000000e+00 0.000000e+00
 0.000000e+00 0.000000e+00 1.035700e-01 8.964300e-01 0.000000e+00
 0.000000e+00 0.000000e+00 0.000000e+00 2.024898e-01 7.975102e-01
 0.000000e+00 0.000000e+00 0.000000e+00 0.000000e+00 0.000000e+00
<ENDHMM>
~h "f"
<BEGINHMM>
<NUMSTATES> 5
<STATE> 2
<MEAN> 39
 7.074896e+00 -1.258318e+01 1.734779e+01 -1.277549e+01 7.426402e+00 3.340592e+00 -1.090251e+01 1.083285e+01 -1.672536e+01 3.772235e+00 6.703429e-01 -3.590517e+00 7.086403e+01 -2.332395e+00 -5.808322e-01 3.438657e+00 -1.216925e+00 3.643990e-01 2.102269e+00 1.324201e+00 7.443488e-01 2.157076e-01 1.411554e+00 -4.214824e-01 2.706113e-01 -6.775295e-01 -3.204365e-01 -7.853240e-01 -2.249651e-01 -1.465723e-01 -2.473384e-02 -3.549774e-01 -2.320263e-01 -2.342233e-01 -2.042414e-01 -5.753932e-02 -1.091107e-01 1.632776e-01 3.796078e-01
<VARIANCE> 39
 3.336663e+01 2.519530e+01 4.210854e+01 4.383376e+01 5.633912e+01 5.666246e+01 3.048762e+01 2.845311e+01 3.298164e+01 2.414020e+01 2.321531e+01 1.884418e+01 5.148463e+01 5.154416e+00 3.564120e+00 1.205265e+01 4.056595e+00 4.967246e+00 8.350289e+00 2.191775e+00 3.875313e+00 2.046021e+00 2.875882e+00 2.086808e+00 1.974509e+00 9.376450e-01 4.964398e-01 8.187988e-01 1.166115e+00 3.135685e-01 4.339349e-01 4.899825e-01 4.482286e-01 5.960283e-01 3.743001e-01 3.177854e-01 5.291888e-01 4.953259e-01 1.687115e-01
<GCONST> 1.232350e+02
<STATE> 3
<MEAN> 39
 3.159467e+00 -1.419040e+01 2.256548e+01 -1.327427e+01 8.131558e+00 6.559425e+00 -8.699129e+00 1.104320e+01 -1.601414e+01 5.715108e+00 -4.963694e-01 -2.792759e+00 7.034110e+01 -2.488886e+00 -1.708753e+00 2.423015e+00 -1.506022e+00 3.651338e-01 1.201077e+00 5.624003e-01 1.424293e-02 -3.220866e-01 1.119635e+00 -5.733799e-01 3.694061e-01 4.728586e-02 1.839215e-01 -5.813665e-01 -9.987278e-01 5.327056e-02 -1.612041e-01 -7.456283e-01 -5.885334e-01 -4.153285e-01 -3.288200e-01 -4.421575e-01 1.039319e-01 1.613817e-02 4.635380e-01
<VARIANCE> 39
 2.636249e+01 2.084515e+01 3.259380e+01 3.859969e+01 3.841832e+01 5.912957e+01 1.580679e+01 3.989315e+01 2.658431e+01 2.517216e+01 2.194929e+01 2.920216e+01 4.075200e+01 6.405265e+00 6.225504e+00 9.388804e+00 3.937986e+00 4.597746e+00 6.052813e+00 3.027651e+00 2.677466e+00 1.597682e+00 2.493473e+00 1.479944e+00 2.807656e+00 1.270630e+00 4.865857e-01 6.652235e-01 1.490763e+00 4.300837e-01 3.116304e-01 1.213140e+00 2.599675e-01 7.141576e-01 4.197145e-01 3.563035e-01 5.553937e-01 5.473519e-01 2.168892e-01
<GCONST> 1.228876e+02
<STATE> 4
<MEAN> 39
 -2.076015e+00 -2.096980e+01 2.240548e+01 -1.968420e+01 6.818087e+00 5.497239e+00 -9.553180e+00 1.027968e+01 -1.835486e+01 7.013516e+00 -1.375255e+00 -8.271236e-01 7.123608e+01 -1.111446e-01 -6.037799e-01 -4.869542e-01 -9.344617e-02 -3.332684e-01 -2.619715e-01 -3.677720e-01 -5.066590e-01 -5.459617e-01 -3.377486e-01 1.884476e-01 -5.214968e-02 2.511951e-01 5.564092e-01 4.088892e-01 -5.752798e-01 5.511268e-01 -8.361701e-02 -1.827970e-01 -1.741945e-01 -1.863196e-01 8.856489e-02 -2.944212e-01 1.983914e-01 -2.017269e-01 -1.367164e-02
<VARIANCE> 39
 4.068804e+01 4.907108e+01 4.050230e+01 3.247638e+01 2.724578e+01 2.750171e+01 1.875096e+01 2.354048e+01 2.007606e+01 1.998147e+01 1.959591e+01 1.776694e+01 2.118823e+01 6.928304e+00 6.832574e+00 4.409677e+00 4.170644e+00 2.185174e+00 2.441648e+00 1.982332e+00 2.161363e+00 2.436628e+00 1.990391e+00 1.408401e+00 2.408734e+00 1.813611e+00 4.069623e-01 7.969453e-01 9.498552e-01 4.786212e-01 3.914139e-01 8.486421e-01 4.899682e-01 4.889219e-01 4.593396e-01 3.605175e-01 2.610056e-01 4.044470e-01 3.535157e-01
<GCONST> 1.178304e+02
<TRANSP> 5
 0.000000e+00 1.000000e+00 0.000000e+00 0.000000e+00 0.000000e+00
 0.000000e+00 1.266949e-01 8.733051e-01 0.000000e+00 0.000000e+00
 0.000000e+00 0.000000e+00 2.340371e-02 9.765963e-01 0.000000e+00
 0.000000e+00 0.000000e+00 0.000000e+00 7.272310e-01 2.727690e-01
 0.000000e+00 0.000000e+00 0.000000e+00 0.000000e+00 0.000000e+00
<ENDHMM>
~h "g"
<BEGINHMM>
<NUMSTATES> 5
<STATE> 2
<MEAN> 39
 3.716784e+00 -1.094416e+01 1.614034e+01 -5.515956e+00 7.394624e+00 6.991611e+00 -1.170241e+01 7.095688e+00 -1.282533e+01 2.508638e+00 -1.826948e-02 -6.720582e+00 6.392390e+01 1.366566e+00 -4.305605e-01 3.561963e-01 1.070191e-01 1.175551e+00 1.528907e-01 -1.538172e+00 -1.255699e+00 -1.391281e+00 -1.874452e-01 -1.242840e-01 -5.065141e-01 1.413441e+00 1.788624e-01 1.068574e-02 -1.399332e-01 2.308017e-01 1.889965e-01 -2.395897e-01 -4.970748e-01 -2.544475e-01 3.121543e-02 -8.301026e-02 1.414244e-01 2.128786e-01 1.346476e-01
<VARIANCE> 39
 4.510173e+01 4.557607e+01 3.006452e+01 4.089367e+01 4.207205e+01 3.966039e+01 6.898724e+01 2.502583e+01 3.949463e+01 3.366733e+01 1.790087e+01 2.714956e+01 5.389936e+01 2.652201e+00 6.011834e+00 2.363900e+00 4.501998e+00 2.761789e+00 6.543100e+00 5.998899e+00 3.656470e+00 4.125566e+00 2.573540e+00 1.697230e+00 1.779497e+00 3.408403e+00 3.943717e-01 1.310307e+00 4.359711e-01 7.241886e-01 5.254032e-01 6.379978e-01 1.103221e+00 6.159130e-01 7.542949e-01 5.360036e-01 2.943245e-01 5.318309e-01 7.574396e-01
<GCONST> 1.281394e+02
<STATE> 3
<MEAN> 39
 1.051928e+01 -1.294485e+01 1.636362e+01 -1.184448e+00 1.453481e+01 9.856002e-01 -2.503682e+01 1.442906e+00 -1.798523e+01 2.681993e+00 1.318407e+00 -1.076856e+01 7.150309e+01 6.641460e-01 5.837556e-01 -9.905992e-01 3.307832e-01 5.466934e-02 -2.413817e-01 -1.918717e-01 -6.788333e-01 -2.983065e-01 -8.392644e-01 4.700109e-01 1.422960e+00 1.114397e-01 -2.443123e-01 5.176299e-02 -6.995637e-02 -1.891051e-01 -6.417277e-01 -1.376740e-02 9.459485e-01 4.216537e-01 3.851220e-01 1.522601e-01 8.267487e-02 5.930368e-01 -2.055446e-01
<VARIANCE> 39
 6.099812e+00 1.995658e+01 3.068900e+01 4.582544e+01 4.595088e+01 5.225767e+01 9.754961e+01 2.977951e+01 1.727432e+01 3.122336e+01 2.069942e+01 3.401977e+01 1.628252e+01 9.808556e-01 2.760682e+00 3.894522e+00 4.743771e+00 3.203729e+00 7.996458e+00 7.866379e+00 2.668765e+00 2.435977e+00 3.378716e+00 1.860756e+00 2.924324e+00 1.767060e+00 1.721801e-01 6.283980e-01 6.484912e-01 4.722141e-01 3.920377e-01 7.791305e-01 8.035062e-01 5.883770e-01 7.241391e-01 6.727511e-01 1.935531e-01 4.502164e-01 3.687878e-01
<GCONST> 1.201952e+02
<STATE> 4
<MEAN> 39
 1.181143e+01 -1.184107e+01 1.211709e+01 -4.013263e+00 9.693857e+00 -1.011645e-01 -1.920230e+01 1.558362e+00 -1.838544e+01 2.258855e+00 4.074286e+00 -3.390974e+00 7.120079e+01 -1.478393e-02 4.357283e-01 -1.974159e-01 -5.987169e-01 -1.203333e+00 -4.803588e-03 1.393681e+00 2.396425e-01 3.154036e-01 -7.941134e-04 3.362336e-01 1.540883e+00 -1.136649e-01 -1.524356e-01 -4.474275e-01 9.211586e-02 -1.789757e-01 -1.670080e-01 -1.412255e-01 1.642950e-01 1.701544e-01 -5.654796e-02 2.288369e-01 -5.207546e-02 -2.810501e-01 2.507701e-01
<VARIANCE> 39
 1.089676e+01 3.127016e+01 2.856113e+01 4.935973e+01 3.017114e+01 8.477631e+01 7.186576e+01 3.006182e+01 2.433125e+01 5.204314e+01 5.477657e+01 2.573847e+01 2.689075e+01 9.319382e-01 2.985547e+00 4.260142e+00 2.931942e+00 2.955158e+00 3.668276e+00 4.517568e+00 1.167709e+00 2.610219e+00 1.208905e+00 1.414657e+00 2.223613e+00 1.526313e+00 1.001585e-01 7.967983e-01 4.559520e-01 4.502840e-01 3.579372e-01 1.054036e+00 6.635232e-01 3.418858e-01 4.792899e-01 5.987994e-01 2.728100e-01 3.577294e-01 3.745640e-01
<GCONST> 1.171571e+02
<TRANSP> 5
 0.000000e+00 1.000000e+00 0.000000e+00 0.000000e+00 0.000000e+00
 0.000000e+00 6.148611e-01 3.851389e-01 0.000000e+00 0.000000e+00
 0.000000e+00 0.000000e+00 4.416439e-01 5.583561e-01 0.000000e+00
 0.000000e+00 0.000000e+00 0.000000e+00 3.774247e-01 6.225752e-01
 0.000000e+00 0.000000e+00 0.000000e+00 0.000000e+00 0.000000e+00
<ENDHMM>
~h "h"
<BEGINHMM>
<NUMSTATES> 5
<STATE> 2
<MEAN> 39
 9.590663e+00 -1.123471e+01 1.574694e+01 -1.585070e+01 6.876011e-01 6.668837e-01 -4.549423e+00 1.540126e+01 -1.488912e+01 7.872619e+00 2.397737e+00 -2.029758e+00 7.145735e+01 3.777751e-02 5.112700e-01 3.330599e-01 -1.036065e+00 -1.096461e+00 1.180221e-01 1.372035e+00 1.092602e+00 2.078906e-01 6.384354e-01 -1.867668e-01 -3.175347e-01 -3.194331e-01 3.383734e-01 -1.661667e-01 -5.244017e-01 3.406351e-01 2.707785e-01 -4.837445e-01 -7.227395e-01 -3.359089e-01 5.224486e-03 -1.840511e-01 -9.524458e-02 -1.686609e-01 1.964318e-01
<VARIANCE> 39
 1.165791e+01 1.652424e+01 3.221669e+01 2.111578e+01 6.684863e+01 5.579109e+01 4.567095e+01 6.753559e+01 4.657862e+01 4.320495e+01 1.909119e+01 2.096581e+01 1.913014e+01 1.009907e+00 1.552991e+00 3.292552e+00 1.353591e+00 2.520867e+00 3.617259e+00 2.895967e+00 2.689010e+00 3.207467e+00 3.447836e+00 2.317867e+00 1.812184e+00 6.530617e-01 1.844538e-01 1.865965e-01 5.218227e-01 3.347561e-01 3.976423e-01 5.222648e-01 5.325993e-01 3.633257e-01 4.646980e-01 5.722141e-01 3.878160e-01 2.195187e-01 7.526976e-02
<GCONST> 1.111858e+02
<STATE> 3
<MEAN> 39
 1.007680e+01 -1.106244e+01 1.594859e+01 -1.613773e+01 -3.442498e-01 -9.338734e-01 -4.609879e+00 1.601999e+01 -1.527621e+01 8.909808e+00 3.051764e+00 -3.091907e+00 7.190170e+01 3.067233e-01 1.642482e-01 -6.547634e-02 -3.659401e-01 -3.806022e-01 -5.606860e-01 3.118069e-01 5.471550e-01 5.895504e-01 1.045197e+00 -1.319423e-01 -5.704726e-01 1.874687e-01 2.333800e-01 -1.973444e-01 -6.045622e-01 3.631440e-01 3.907502e-01 -1.579298e-01 -7.667134e-01 -5.394465e-01 1.273809e-01 -4.996990e-01 -2.335315e-01 -4.751496e-02 1.800583e-01
<VARIANCE> 39
 6.736091e+00 1.770205e+01 2.831725e+01 3.191581e+01 7.379588e+01 6.027478e+01 4.172262e+01 8.632681e+01 4.056481e+01 5.357656e+01 1.645591e+01 2.059360e+01 1.501842e+01 1.406708e+00 1.402250e+00 3.831304e+00 7.809321e-01 2.669788e+00 1.940932e+00 2.428497e+00 1.900803e+00 3.446288e+00 5.047598e+00 2.384930e+00 1.294455e+00 6.784907e-01 1.707061e-01 2.091153e-01 6.095826e-01 3.039922e-01 4.983357e-01 7.128981e-01 5.884789e-01 4.819405e-01 7.698444e-01 5.486416e-01 3.189971e-01 2.579233e-01 8.427271e-02
<GCONST> 1.114722e+02
<STATE> 4
<MEAN> 39
 1.100899e+01 -1.157193e+01 1.473505e+01 -1.692016e+01 -2.732587e-01 -8.933897e-01 -4.346059e+00 1.476781e+01 -1.463001e+01 1.181656e+01 1.951783e+00 -3.708313e+00 7.211768e+01 8.221451e-01 9.646365e-03 -1.574634e+00 4.836802e-02 6.548026e-02 -7.041768e-01 -1.152974e+00 -6.711940e-01 4.876457e-01 -6.166096e-01 -4.748425e-01 -9.880451e-02 3.408848e-01 1.887236e-01 -1.556955e-01 -5.702159e-01 3.848872e-01 4.711723e-01 -1.078188e-01 -6.491643e-01 -4.631195e-01 -1.933925e-01 -6.136079e-01 1.268848e-02 1.497296e-01 1.850919e-01
<VARIANCE> 39
 8.826862e+00 2.314584e+01 4.184286e+01 2.804274e+01 4.555213e+01 4.032012e+01 3.824083e+01 6.435909e+01 4.941504e+01 5.541937e+01 1.686161e+01 2.099791e+01 1.097843e+01 6.178386e-01 7.608813e-01 2.549982e+00 1.204841e+00 2.087677e+00 1.472638e+00 2.281987e+00 1.490361e+00 3.016165e+00 1.891231e+00 1.212843e+00 1.050944e+00 3.272523e-01 1.428201e-01 2.598715e-01 4.381351e-01 1.588958e-01 3.381666e-01 3.482292e-01 3.920518e-01 3.635408e-01 6.920500e-01 4.210197e-01 2.295781e-01 3.006592e-01 4.568027e-02
<GCONST> 1.021125e+02
<TRANSP> 5
 0.000000e+00 1.000000e+00 0.000000e+00 0.000000e+00 0.000000e+00
 0.000000e+00 2.321799e-01 7.678201e-01 0.000000e+00 0.000000e+00
 0.000000e+00 0.000000e+00 1.932392e-01 8.067608e-01 0.000000e+00
 0.000000e+00 0.000000e+00 0.000000e+00 4.071433e-01 5.928568e-01
 0.000000e+00 0.000000e+00 0.000000e+00 0.000000e+00 0.000000e+00
<ENDHMM>
~h "i"
<BEGINHMM>
<NUMSTATES> 5
<STATE> 2
<MEAN> 39
 1.134939e+01 -1.852304e+01 1.257201e+01 -2.455899e+00 1.454080e+01 -2.864821e+00 -2.388407e+01 2.234536e+00 -2.138179e+01 1.774397e+00 3.897507e+00 -5.884452e+00 7.637768e+01 2.248977e-01 -6.700552e-03 -2.360856e-01 9.056326e-01 8.429438e-01 -7.495999e-01 -9.341108e-01 -1.512949e-01 -1.782839e-01 2.786084e-01 4.424113e-01 -5.264742e-01 6.237781e-02 -5.070196e-01 2.613971e-01 4.807692e-01 -2.699758e-01 -5.467855e-01 7.067466e-01 8.939011e-01 2.015352e-01 4.792452e-01 4.519615e-02 -3.324283e-01 1.766610e-01 -5.117081e-01
<VARIANCE> 39
 9.730254e+00 1.737349e+01 4.216931e+01 4.912460e+01 2.633286e+01 4.233910e+01 3.614834e+01 3.331424e+01 3.659354e+01 4.866770e+01 1.841517e+01 2.719248e+01 1.740272e+01 2.011651e+00 1.963971e+00 4.495104e+00 3.388847e+00 2.552090e+00 3.904878e+00 3.925940e+00 2.751019e+00 3.061521e+00 3.262237e+00 1.724669e+00 2.171155e+00 1.204412e+00 4.067322e-01 4.417123e-01 7.227535e-01 6.965151e-01 4.789534e-01 7.320638e-01 6.444020e-01 5.021591e-01 6.346362e-01 5.687402e-01 4.079286e-01 4.494313e-01 2.438755e-01
<GCONST> 1.189891e+02
<STATE> 3
<MEAN> 39
 1.024216e+01 -1.752545e+01 1.431134e+01 -1.707876e+00 1.430157e+01 -1.268799e+00 -2.156721e+01 2.803876e+00 -2.117407e+01 2.963317e+00 3.921529e+00 -6.347474e+00 7.443257e+01 -1.034521e+00 1.312620e+00 1.220286e+00 -2.131951e-01 -9.719123e-01 2.020316e+00 1.871650e+00 -1.732483e-01 1.151696e+00 4.024827e-01 -5.815187e-01 4.432021e-01 -1.622080e+00 -5.188754e-01 1.300994e-01 3.043188e-01 -4.288520e-01 -6.199102e-01 4.742964e-01 6.113305e-01 1.236755e-01 5.228128e-01 -3.266931e-02 -3.470924e-01 2.916088e-01 -3.659396e-01
<VARIANCE> 39
 1.201700e+01 1.671551e+01 5.173815e+01 4.615908e+01 2.621219e+01 4.505528e+01 3.533158e+01 4.884584e+01 3.254239e+01 5.579730e+01 2.108918e+01 3.553564e+01 1.731157e+01 1.593766e+00 2.269696e+00 4.896284e+00 3.280991e+00 1.977965e+00 3.620372e+00 2.781189e+00 2.771101e+00 3.326863e+00 3.741038e+00 1.654556e+00 1.928320e+00 1.968738e+00 3.181838e-01 3.940209e-01 7.688991e-01 5.909249e-01 3.674896e-01 5.781592e-01 6.166691e-01 5.545462e-01 5.282088e-01 5.783378e-01 2.995401e-01 5.533784e-01 1.958632e-01
<GCONST> 1.185920e+02
<STATE> 4
<MEAN> 39
 6.143237e+00 -1.362708e+01 1.688243e+01 -2.546955e+00 9.848221e+00 3.505215e+00 -1.717571e+01 2.626739e+00 -1.491889e+01 4.253312e+00 2.267622e+00 -4.825635e+00 6.850228e+01 -1.587249e+00 7.310968e-01 6.527259e-01 -9.211707e-01 -1.673572e+00 1.461962e+00 1.833207e+00 2.410153e-01 1.401547e+00 -2.307792e-01 -8.047252e-01 6.342505e-01 -1.603142e+00 -1.232988e-01 -5.114178e-01 -1.040584e-01 -3.892399e-01 -7.722443e-02 -3.207331e-01 -7.089925e-02 2.328452e-01 -3.014136e-01 -8.646180e-02 -2.466112e-02 -4.540375e-02 3.721156e-01
<VARIANCE> 39
 2.318980e+01 2.645319e+01 6.579363e+01 4.369892e+01 3.087152e+01 4.619336e+01 3.311970e+01 4.422823e+01 4.725936e+01 6.495275e+01 2.012698e+01 2.449563e+01 3.893660e+01 2.276173e+00 3.141440e+00 5.996007e+00 3.620913e+00 2.565353e+00 3.489961e+00 2.950507e+00 2.857577e+00 3.384412e+00 3.703114e+00 1.838750e+00 2.668433e+00 2.126472e+00 2.333875e-01 5.447559e-01 7.073946e-01 6.966920e-01 4.050753e-01 5.671867e-01 4.963533e-01 5.767521e-01 6.499946e-01 6.345593e-01 2.973663e-01 3.869427e-01 3.258793e-01
<GCONST> 1.230857e+02
<TRANSP> 5
 0.000000e+00 1.000000e+00 0.000000e+00 0.000000e+00 0.000000e+00
 0.000000e+00 6.104826e-01 3.895174e-01 0.000000e+00 0.000000e+00
 0.000000e+00 0.000000e+00 3.830836e-01 6.169164e-01 0.000000e+00
 0.000000e+00 0.000000e+00 0.000000e+00 4.047108e-01 5.952892e-01
 0.000000e+00 0.000000e+00 0.000000e+00 0.000000e+00 0.000000e+00
<ENDHMM>
~h "j"
<BEGINHMM>
<NUMSTATES> 5
<STATE> 2
<MEAN> 39
 8.219805e+00 -1.617537e+01 1.379254e+01 -5.605637e-01 1.178690e+01 -2.253805e+00 -1.868221e+01 5.432848e+00 -1.810620e+01 8.882241e-01 2.626478e+00 -4.244643e+00 7.191220e+01 9.512385e-01 -8.361151e-01 -7.432391e-02 1.331126e+00 1.280721e+00 -1.615196e+00 -2.097115e+00 -6.738390e-01 -7.545505e-01 5.777800e-02 3.840931e-01 -4.597096e-01 1.416255e+00 -1.385854e-01 -2.598562e-02 7.823896e-02 -2.239061e-01 -2.380930e-01 5.681277e-02 1.840186e-01 1.618060e-01 2.087704e-01 1.256537e-01 -1.100686e-01 -4.022744e-02 -8.142997e-02
<VARIANCE> 39
 4.604343e+01 2.173723e+01 6.846691e+01 7.278545e+01 3.718187e+01 4.801078e+01 6.068428e+01 3.793059e+01 4.837017e+01 4.256932e+01 1.886924e+01 2.416695e+01 6.854648e+01 2.775885e+00 1.956311e+00 3.322073e+00 4.117403e+00 2.104779e+00 3.602982e+00 3.241800e+00 2.790226e+00 3.510412e+00 3.275506e+00 1.913280e+00 1.674745e+00 2.314856e+00 3.457272e-01 3.529761e-01 6.232602e-01 7.240131e-01 3.806098e-01 6.061524e-01 6.149134e-01 4.372171e-01 5.164381e-01 6.052734e-01 2.994324e-01 2.758555e-01 2.717854e-01
<GCONST> 1.226518e+02
<STATE> 3
<MEAN> 39
 1.124323e+01 -1.966311e+01 1.169567e+01 -4.127654e-01 1.382545e+01 -7.825700e+00 -2.530062e+01 3.318504e+00 -2.009923e+01 2.316290e+00 4.005489e+00 -5.658063e+00 7.778643e+01 -7.772627e-02 -2.031766e-01 2.888491e-01 2.173550e-01 -8.451362e-03 -2.657473e-01 -2.014052e-01 -2.624225e-02 5.415526e-02 3.064877e-01 7.571951e-02 -2.052561e-01 1.042585e-01 -1.126964e-01 2.284265e-01 1.583588e-01 -2.458583e-01 -2.102533e-01 5.358343e-01 6.328701e-01 1.304451e-01 6.930157e-03 -1.181019e-01 -1.445503e-01 1.662280e-01 -2.540229e-01
<VARIANCE> 39
 8.888384e+00 1.210372e+01 5.421760e+01 4.763157e+01 3.107853e+01 2.420323e+01 2.903495e+01 4.591444e+01 3.633815e+01 4.376116e+01 2.408567e+01 2.873795e+01 1.537031e+01 5.529760e-01 9.782360e-01 2.567394e+00 2.732517e+00 1.295919e+00 2.042962e+00 1.978770e+00 2.078456e+00 1.445255e+00 2.633592e+00 1.365358e+00 1.618832e+00 6.175696e-01 1.522864e-01 1.913297e-01 4.373828e-01 3.148665e-01 2.835034e-01 4.089071e-01 3.967050e-01 4.310420e-01 3.453169e-01 3.934767e-01 2.551006e-01 2.675046e-01 1.049616e-01
<GCONST> 1.036692e+02
<STATE> 4
<MEAN> 39
 1.114134e+01 -1.924867e+01 1.239943e+01 -9.506961e-01 1.352693e+01 -6.036757e+00 -2.342950e+01 4.266844e+00 -1.976872e+01 2.603149e+00 3.603314e+00 -5.330760e+00 7.693597e+01 -2.876138e-01 4.815166e-01 6.300379e-01 -2.168504e-01 -2.011236e-01 1.126651e+00 1.254804e+00 1.159810e-01 -8.682042e-02 1.230567e-01 -2.036296e-01 1.468210e-01 -5.794388e-01 -3.027450e-01 3.369790e-01 3.411417e-01 -2.088486e-01 -2.772015e-01 7.418676e-01 6.740563e-01 5.991718e-03 1.766834e-01 -1.117409e-01 -2.142600e-01 1.773328e-01 -4.244891e-01
<VARIANCE> 39
 1.189265e+01 1.831627e+01 4.965022e+01 5.727615e+01 3.330518e+01 2.984231e+01 4.142398e+01 4.624868e+01 3.761542e+01 4.469439e+01 2.452472e+01 3.520525e+01 2.333532e+01 1.431806e+00 2.008241e+00 4.707662e+00 4.043370e+00 1.895159e+00 3.708818e+00 3.040262e+00 3.786548e+00 2.439583e+00 4.237600e+00 1.745524e+00 2.198165e+00 1.225121e+00 2.583816e-01 3.281030e-01 4.926702e-01 5.689104e-01 4.185390e-01 5.701861e-01 5.499781e-01 5.206224e-01 4.999239e-01 5.951974e-01 3.253134e-01 3.922584e-01 2.410245e-01
<GCONST> 1.179740e+02
<TRANSP> 5
 0.000000e+00 1.000000e+00 0.000000e+00 0.000000e+00 0.000000e+00
 0.000000e+00 5.462120e-01 4.537880e-01 0.000000e+00 0.000000e+00
 0.000000e+00 0.000000e+00 6.215816e-01 3.784185e-01 0.000000e+00
 0.000000e+00 0.000000e+00 0.000000e+00 1.162514e-01 8.837486e-01
 0.000000e+00 0.000000e+00 0.000000e+00 0.000000e+00 0.000000e+00
<ENDHMM>
~h "k"
<BEGINHMM>
<NUMSTATES> 5
<STATE> 2
<MEAN> 39
 -8.290234e-01 -1.174336e+01 1.417119e+01 -8.778023e+00 2.619407e+00 5.974675e+00 -1.006686e+01 6.360606e+00 -1.315395e+01 1.872592e+00 1.921511e+00 -1.907112e+00 6.015673e+01 -5.872589e-01 -7.976467e-01 -5.120111e-01 -1.610593e+00 -1.125424e+00 3.508881e-01 2.675579e-01 1.942140e-01 2.475715e-01 1.340898e-01 -1.771706e-01 -2.326315e-01 -2.391662e-01 5.560796e-01 -7.884738e-01 1.702880e-01 -7.169055e-01 2.764534e-02 -2.559454e-01 1.059595e-02 1.321813e-01 -6.481718e-01 4.287634e-01 3.178975e-02 -2.742648e-01 1.250884e+00
<VARIANCE> 39
 1.992131e+01 2.217659e+01 2.569730e+01 3.385823e+01 2.671058e+01 3.089680e+01 3.238990e+01 3.419631e+01 3.176338e+01 2.423845e+01 1.968436e+01 1.904996e+01 1.332197e+01 2.326490e+00 5.570928e+00 2.770197e+00 8.361343e+00 2.988178e+00 3.749875e+00 4.419551e+00 3.591223e+00 5.416084e+00 3.663877e+00 2.088655e+00 2.320681e+00 5.697424e+00 2.550212e-01 6.279282e-01 5.242664e-01 9.968246e-01 5.004122e-01 6.200902e-01 8.817942e-01 5.936249e-01 6.389264e-01 6.201098e-01 4.567940e-01 4.056959e-01 3.807950e-01
<GCONST> 1.227413e+02
<STATE> 3
<MEAN> 39
 9.097739e-01 -2.163450e+01 1.399263e+01 -2.248385e+01 -2.330088e+00 7.508343e+00 -6.592759e+00 8.531988e+00 -1.793896e+01 5.876751e+00 1.177338e+00 -4.718066e+00 6.899138e+01 1.649844e+00 -7.698188e-01 1.030378e+00 -1.060013e+00 2.002706e-01 -7.312657e-01 -7.689774e-01 3.436242e-02 -1.279231e+00 3.144246e-01 -4.514347e-01 -7.244316e-01 2.587065e+00 5.832979e-01 1.097985e+00 4.565201e-02 1.902286e+00 9.715911e-01 -7.579628e-01 -8.623362e-01 -2.849818e-01 1.453408e-01 -5.020761e-01 6.442888e-02 4.706613e-02 -1.579550e-01
<VARIANCE> 39
 1.872588e+01 3.905996e+01 3.969905e+01 5.688917e+01 6.042104e+01 4.258750e+01 5.218597e+01 5.336018e+01 6.369209e+01 3.935809e+01 2.666855e+01 2.811671e+01 2.323196e+01 3.363164e+00 6.312792e+00 3.713214e+00 1.205205e+01 5.592011e+00 4.410783e+00 6.245296e+00 4.257277e+00 4.319417e+00 4.439748e+00 3.035831e+00 3.298868e+00 3.235370e+00 3.585449e-01 6.146166e-01 8.998561e-01 1.193527e+00 7.545184e-01 9.519088e-01 9.252741e-01 7.622312e-01 1.068116e+00 7.469629e-01 4.935184e-01 4.996414e-01 5.042233e-01
<GCONST> 1.347141e+02
<STATE> 4
<MEAN> 39
 6.837545e+00 -1.619615e+01 1.790527e+01 -1.325611e+01 4.020121e+00 3.423695e+00 -1.385532e+01 5.382152e+00 -1.899849e+01 4.030962e+00 9.115790e-01 -6.442668e+00 7.277251e+01 2.581146e+00 1.625044e+00 -7.687554e-01 3.404127e+00 1.938345e+00 -2.713533e+00 -2.115642e+00 -2.839079e-01 -5.160346e-01 -9.410207e-01 3.620862e-01 -2.954311e-01 1.283039e+00 -2.274887e-01 8.587202e-02 -8.800818e-01 2.357277e-01 -2.136004e-02 -1.503897e-01 3.040997e-01 1.714905e-01 3.255610e-01 -4.976086e-02 2.728796e-01 3.615149e-01 -4.869224e-01
<VARIANCE> 39
 2.690834e+01 4.235616e+01 3.452662e+01 5.411454e+01 5.741117e+01 4.542865e+01 4.696758e+01 5.519366e+01 3.630474e+01 3.239409e+01 3.567323e+01 3.312503e+01 2.900814e+01 2.807586e+00 2.743992e+00 4.727424e+00 5.200360e+00 4.367462e+00 5.673361e+00 4.940177e+00 2.945219e+00 3.758770e+00 3.315269e+00 3.303206e+00 2.714810e+00 1.750772e+00 3.501486e-01 7.220026e-01 5.927177e-01 1.372364e+00 6.642026e-01 7.117813e-01 7.588385e-01 6.040179e-01 6.711988e-01 5.184696e-01 5.357344e-01 4.309662e-01 3.370833e-01
<GCONST> 1.291754e+02
<TRANSP> 5
 0.000000e+00 1.000000e+00 0.000000e+00 0.000000e+00 0.000000e+00
 0.000000e+00 7.357999e-01 2.642001e-01 0.000000e+00 0.000000e+00
 0.000000e+00 0.000000e+00 5.982351e-01 4.017649e-01 0.000000e+00
 0.000000e+00 0.000000e+00 0.000000e+00 3.432503e-01 6.567497e-01
 0.000000e+00 0.000000e+00 0.000000e+00 0.000000e+00 0.000000e+00
<ENDHMM>
~h "l"
<BEGINHMM>
<NUMSTATES> 5
<STATE> 2
<MEAN> 39
 1.341041e+01 -1.469449e+01 7.865926e+00 -9.314300e+00 3.061851e+00 -2.591000e+00 -1.349531e+01 1.013361e+01 -1.301346e+01 -3.000644e+00 -4.155305e+00 -3.916822e+00 7.494749e+01 1.313946e+00 8.040361e-01 -2.045419e+00 1.083106e+00 2.226232e-01 -1.388892e+00 -6.436923e-01 -1.170991e-02 4.676557e-01 -1.174768e+00 -7.135844e-01 -6.668917e-01 2.066728e-01 -3.166181e-01 -1.671755e-01 2.048903e-01 -1.792690e-01 4.282224e-02 -7.791347e-02 5.058017e-02 -1.349135e-03 -3.312503e-01 3.371088e-01 4.617694e-01 1.500380e-01 -6.897631e-03
<VARIANCE> 39
 1.818233e+01 2.115583e+01 8.017209e+01 3.790065e+01 4.320917e+01 7.011375e+01 3.769861e+01 4.487246e+01 5.629501e+01 4.595360e+01 3.525671e+01 3.287889e+01 1.744127e+01 2.709105e+00 1.937735e+00 4.505774e+00 3.378093e+00 3.487460e+00 4.438375e+00 3.936866e+00 3.891275e+00 4.869247e+00 3.637636e+00 3.341616e+00 3.100800e+00 1.185839e+00 3.900616e-01 3.626934e-01 9.382098e-01 6.726489e-01 5.211213e-01 7.356424e-01 5.748456e-01 4.965906e-01 5.931494e-01 6.839076e-01 6.930214e-01 6.171093e-01 1.607296e-01
<GCONST> 1.258951e+02
<STATE> 3
<MEAN> 39
 1.554074e+01 -1.257037e+01 3.031665e+00 -7.461426e+00 4.210403e+00 -6.743959e+00 -1.568378e+01 1.107128e+01 -1.093383e+01 -4.693430e+00 -5.992641e+00 -5.272631e+00 7.440781e+01 1.192768e-01 -1.554269e-01 -2.699616e-01 4.636607e-02 -2.533485e-01 -9.866873e-01 1.160673e-01 3.146143e-01 -7.544039e-01 -2.553852e-01 6.511471e-01 4.853084e-01 3.108153e-01 -3.298292e-01 -3.036197e-01 7.155665e-01 -5.225344e-01 -1.882398e-01 2.264723e-01 1.979855e-01 -5.213601e-03 -5.542735e-01 5.966140e-01 6.297383e-01 2.348001e-01 1.053653e-01
<VARIANCE> 39
 6.593072e+00 1.617475e+01 3.971399e+01 2.487862e+01 3.344612e+01 5.032832e+01 3.269031e+01 4.507727e+01 6.211434e+01 5.282840e+01 2.781432e+01 3.555471e+01 1.493144e+01 5.861866e-01 1.397107e+00 3.942674e+00 2.254514e+00 2.771238e+00 3.354100e+00 2.608838e+00 3.039013e+00 4.632651e+00 3.209883e+00 3.726454e+00 3.705272e+00 6.334342e-01 1.536426e-01 2.032489e-01 5.303164e-01 4.153901e-01 3.914632e-01 6.590900e-01 6.871057e-01 5.316688e-01 6.221057e-01 8.659944e-01 4.662373e-01 5.622446e-01 1.057460e-01
<GCONST> 1.152703e+02
<STATE> 4
<MEAN> 39
 1.470277e+01 -1.470626e+01 3.782197e+00 -1.185550e+01 4.045072e-01 -9.144981e+00 -1.151323e+01 1.328941e+01 -1.560973e+01 -6.205261e-01 -1.461046e-01 -1.511882e+00 7.659843e+01 -3.540203e-01 -2.740369e-01 7.711715e-01 -7.261718e-01 -5.513006e-02 2.511473e-01 1.352383e-01 -3.691627e-01 -1.035957e+00 1.120566e+00 9.431151e-01 5.929983e-02 2.625220e-01 -1.444523e-01 4.644216e-02 2.588699e-01 8.582308e-02 2.361227e-01 3.546659e-01 -1.046467e-01 -1.750875e-01 1.594391e-01 1.117998e-01 -1.465250e-01 -1.541117e-01 -1.712165e-01
<VARIANCE> 39
 4.845479e+00 1.370215e+01 3.535914e+01 3.866244e+01 4.610722e+01 4.377644e+01 3.181376e+01 6.066322e+01 6.706143e+01 5.500167e+01 2.400503e+01 2.359947e+01 1.641518e+01 5.012709e-01 1.304188e+00 2.625733e+00 2.327088e+00 2.297698e+00 3.101474e+00 3.317190e+00 2.235749e+00 3.095341e+00 3.230596e+00 2.372222e+00 1.896313e+00 6.771088e-01 1.239530e-01 1.842912e-01 4.023962e-01 4.546213e-01 3.387574e-01 4.891416e-01 3.898235e-01 4.024438e-01 4.922225e-01 6.307815e-01 3.291147e-01 3.921002e-01 1.011742e-01
<GCONST> 1.097524e+02
<TRANSP> 5
 0.000000e+00 1.000000e+00 0.000000e+00 0.000000e+00 0.000000e+00
 0.000000e+00 2.254203e-01 7.745797e-01 0.000000e+00 0.000000e+00
 0.000000e+00 0.000000e+00 5.559826e-01 4.440174e-01 0.000000e+00
 0.000000e+00 0.000000e+00 0.000000e+00 6.644410e-01 3.355590e-01
 0.000000e+00 0.000000e+00 0.000000e+00 0.000000e+00 0.000000e+00
<ENDHMM>
~h "m"
<BEGINHMM>
<NUMSTATES> 5
<STATE> 2
<MEAN> 39
 1.196369e+01 -9.424516e+00 9.639091e+00 -5.648938e+00 1.298580e+01 9.283474e+00 -1.148559e+01 5.186388e+00 -1.446023e+01 2.401580e+00 -1.834197e+00 -9.405971e+00 6.866076e+01 -5.032447e-02 2.092452e-01 3.104880e-01 1.948591e-01 3.854085e-01 7.162434e-01 1.172441e-02 -4.147305e-01 -3.761588e-02 5.236169e-01 -2.098271e-01 -8.738506e-01 -2.696660e-01 -1.908160e-02 -3.691539e-01 2.795029e-02 -3.926170e-01 -6.478328e-01 -9.279233e-01 -1.057280e-01 5.531163e-01 4.694439e-02 -1.412350e-01 3.223943e-01 8.629986e-01 3.764052e-01
<VARIANCE> 39
 1.340839e+01 1.001459e+01 2.007649e+01 1.754999e+01 2.181369e+01 1.905590e+01 2.067011e+01 2.982340e+01 3.010756e+01 2.409942e+01 1.462090e+01 2.501611e+01 1.412828e+01 7.672136e-01 8.812249e-01 1.824525e+00 1.799594e+00 3.260462e+00 2.941137e+00 1.256008e+00 2.152249e+00 1.876769e+00 1.925479e+00 1.167041e+00 3.964835e+00 6.866352e-01 1.288133e-01 2.143071e-01 3.018783e-01 3.249519e-01 4.973156e-01 4.059756e-01 3.359913e-01 3.545891e-01 3.482289e-01 4.143471e-01 2.536454e-01 6.105154e-01 1.013164e-01
<GCONST> 1.007963e+02
<STATE> 3
<MEAN> 39
 1.032289e+01 -1.022112e+01 1.061740e+01 -8.161613e+00 9.273180e+00 7.714536e+00 -1.039211e+01 7.823371e+00 -1.286519e+01 3.178442e+00 -3.188982e-01 -6.067021e+00 6.801417e+01 -2.879657e-02 -3.031614e-01 3.488946e-02 -8.521380e-01 -1.626334e+00 -1.454559e+00 2.452256e-01 1.107868e+00 3.418542e-01 -1.736029e-01 5.165591e-01 1.522412e+00 3.417303e-01 -4.326915e-02 -1.926809e-01 -1.095589e-01 -5.726524e-02 -2.190201e-01 -4.935647e-01 -3.956328e-02 2.879070e-01 -9.465828e-04 -1.947702e-01 1.035854e-01 3.211120e-01 1.419726e-01
<VARIANCE> 39
 2.825150e+01 1.433667e+01 3.178371e+01 2.714792e+01 4.142856e+01 3.257330e+01 3.348402e+01 3.841599e+01 3.443391e+01 2.589510e+01 2.069797e+01 3.697842e+01 2.428083e+01 1.831680e+00 1.494935e+00 2.786155e+00 2.447256e+00 3.750324e+00 3.550983e+00 1.775227e+00 2.491534e+00 1.806842e+00 2.117499e+00 1.585812e+00 3.861249e+00 1.484155e+00 1.900470e-01 3.047415e-01 4.530495e-01 4.334318e-01 6.401353e-01 6.328260e-01 3.736786e-01 5.254350e-01 3.892562e-01 4.440717e-01 3.194003e-01 6.895924e-01 1.561334e-01
<GCONST> 1.138498e+02
<STATE> 4
<MEAN> 39
 3.902705e+00 -1.051766e+01 1.173458e+01 -7.642842e+00 5.684807e+00 6.652000e+00 -7.986703e+00 1.040926e+01 -9.876042e+00 3.013568e+00 8.947224e-01 -3.754079e+00 6.313421e+01 -6.379025e-02 -2.655057e-01 3.420535e-02 -3.521038e-01 -6.732945e-01 -9.956940e-01 -4.239786e-02 7.038690e-01 1.222507e-01 -1.883398e-01 3.222633e-01 8.172529e-01 2.663320e-01 2.709196e-02 -8.370131e-02 -4.199158e-02 1.358100e-03 4.373191e-02 -1.251578e-01 -4.018843e-02 6.479514e-02 -5.210296e-02 -2.176297e-02 1.932410e-02 -2.234366e-02 9.865895e-02
<VARIANCE> 39
 7.904971e+01 8.252574e+00 2.011823e+01 1.718988e+01 3.309670e+01 2.773267e+01 2.499427e+01 2.664118e+01 3.299677e+01 1.684209e+01 1.435222e+01 2.088998e+01 6.295757e+01 8.547394e-01 1.019307e+00 1.479545e+00 1.848175e+00 2.880321e+00 3.721062e+00 1.566614e+00 2.556327e+00 1.460184e+00 1.386017e+00 1.333105e+00 2.906183e+00 8.415931e-01 9.109174e-02 1.437803e-01 2.044146e-01 2.135452e-01 2.921876e-01 3.085290e-01 2.728665e-01 2.807866e-01 2.680207e-01 2.909066e-01 1.996627e-01 2.733204e-01 5.994568e-02
<GCONST> 9.929110e+01
<TRANSP> 5
 0.000000e+00 1.000000e+00 0.000000e+00 0.000000e+00 0.000000e+00
 0.000000e+00 6.820201e-01 3.179799e-01 0.000000e+00 0.000000e+00
 0.000000e+00 0.000000e+00 4.164530e-01 5.835469e-01 0.000000e+00
 0.000000e+00 0.000000e+00 0.000000e+00 5.983900e-01 4.016100e-01
 0.000000e+00 0.000000e+00 0.000000e+00 0.000000e+00 0.000000e+00
<ENDHMM>
~h "n"
<BEGINHMM>
<NUMSTATES> 5
<STATE> 2
<MEAN> 39
 1.095319e+01 -1.068245e+01 1.043391e+01 -4.037002e+00 1.417858e+01 1.042722e+01 -1.273821e+01 1.092019e-01 -1.683581e+01 2.865372e+00 -1.866541e+00 -7.023029e+00 6.894952e+01 5.929766e-01 -2.620009e-01 -4.728357e-01 -1.262726e-01 2.664511e-01 -3.290924e-01 -1.131111e-01 2.160373e-01 -3.167182e-01 -1.613723e-01 -7.630935e-02 1.954138e-01 6.283831e-01 -4.384648e-02 -5.438433e-01 -8.182633e-02 -7.431325e-01 -6.952709e-01 -1.042974e+00 -8.689092e-03 1.068543e+00 1.348514e-01 -1.036672e-01 5.123709e-01 9.458251e-01 5.138124e-01
<VARIANCE> 39
 1.971602e+01 1.250673e+01 2.911625e+01 2.662622e+01 2.605519e+01 2.402808e+01 2.729257e+01 4.151894e+01 2.675164e+01 2.447673e+01 1.796064e+01 2.283250e+01 2.263670e+01 2.042555e+00 2.203126e+00 2.741325e+00 3.987168e+00 3.734814e+00 5.063013e+00 2.571460e+00 6.879155e+00 2.660696e+00 2.051983e+00 2.168465e+00 4.878356e+00 2.002033e+00 2.883606e-01 3.049252e-01 4.663796e-01 5.252975e-01 5.441826e-01 6.729552e-01 5.431422e-01 8.431188e-01 5.414760e-01 4.975075e-01 3.877870e-01 6.866714e-01 2.032092e-01
<GCONST> 1.175375e+02
<STATE> 3
<MEAN> 39
 1.312232e+01 -1.516598e+01 7.768665e+00 -9.861117e+00 9.583942e+00 2.592969e+00 -1.251503e+01 8.939819e+00 -1.628285e+01 -4.900040e-02 3.899248e-01 3.189321e-01 7.465048e+01 3.027898e-01 -1.239454e+00 -8.533297e-01 -1.895549e+00 -1.696614e+00 -3.052715e+00 1.398866e-01 2.973214e+00 1.778310e-01 -4.236015e-01 1.541387e+00 2.730725e+00 1.524472e+00 -2.576225e-01 1.074539e-01 3.141896e-01 1.120204e-01 -5.195900e-02 6.880359e-02 3.237879e-02 -2.620873e-01 -4.189236e-02 2.746762e-01 1.182822e-01 -2.470577e-01 -1.802795e-01
<VARIANCE> 39
 8.734060e+00 1.648203e+01 4.719427e+01 5.112133e+01 3.168080e+01 4.569875e+01 3.363936e+01 4.667633e+01 4.044214e+01 3.731100e+01 2.756693e+01 3.607787e+01 2.024308e+01 8.800690e-01 1.702649e+00 3.372125e+00 3.215574e+00 2.872868e+00 4.006379e+00 3.167778e+00 3.829220e+00 2.807652e+00 3.292451e+00 2.605894e+00 3.158053e+00 1.141328e+00 2.011407e-01 3.480331e-01 4.742377e-01 6.220843e-01 4.212731e-01 6.237562e-01 4.691830e-01 6.981524e-01 5.775871e-01 4.852577e-01 4.321370e-01 6.496336e-01 1.872169e-01
<GCONST> 1.179416e+02
<STATE> 4
<MEAN> 39
 1.312245e+01 -1.652970e+01 5.894218e+00 -1.214900e+01 7.474354e+00 -1.974989e+00 -1.187329e+01 1.259274e+01 -1.558748e+01 9.128902e-01 3.377816e+00 3.743330e+00 7.627305e+01 -2.268216e-01 -3.107874e-01 1.316859e-01 -5.380017e-01 -8.193968e-01 -9.987749e-01 1.397414e-01 6.036223e-01 -1.418882e-02 4.691821e-01 8.150298e-01 3.847411e-01 3.279495e-01 -2.224523e-01 2.747428e-01 4.355277e-01 3.839889e-01 2.243786e-01 7.670224e-01 7.951725e-02 -6.675580e-01 -1.025888e-02 1.910203e-01 -3.811733e-01 -7.482433e-01 -4.297591e-01
<VARIANCE> 39
 9.697320e+00 1.903231e+01 5.400503e+01 4.471946e+01 4.571240e+01 4.105087e+01 4.144043e+01 4.472193e+01 3.335999e+01 4.244870e+01 2.353255e+01 3.073592e+01 2.199267e+01 9.581441e-01 1.199104e+00 2.565077e+00 2.246375e+00 1.761574e+00 2.768256e+00 2.763597e+00 2.585996e+00 2.572356e+00 2.597813e+00 1.763617e+00 2.212650e+00 8.162927e-01 1.399346e-01 3.514196e-01 4.205200e-01 4.988040e-01 3.280645e-01 6.065074e-01 3.588057e-01 5.861819e-01 3.394655e-01 4.914162e-01 4.243148e-01 6.045018e-01 1.711269e-01
<GCONST> 1.125113e+02
<TRANSP> 5
 0.000000e+00 1.000000e+00 0.000000e+00 0.000000e+00 0.000000e+00
 0.000000e+00 6.562254e-01 3.437746e-01 0.000000e+00 0.000000e+00
 0.000000e+00 0.000000e+00 3.508295e-01 6.491705e-01 0.000000e+00
 0.000000e+00 0.000000e+00 0.000000e+00 4.388817e-01 5.611183e-01
 0.000000e+00 0.000000e+00 0.000000e+00 0.000000e+00 0.000000e+00
<ENDHMM>
~h "o"
<BEGINHMM>
<NUMSTATES> 5
<STATE> 2
<MEAN> 39
 1.133549e+01 -1.393870e+01 1.151858e+01 -1.350776e+01 -1.361520e+00 -5.512021e+00 -1.019243e+01 1.370100e+01 -1.530386e+01 6.985262e-01 -5.026119e-01 -2.837182e+00 7.356378e+01 1.307498e+00 1.688891e-01 -4.121585e-01 1.168759e-01 -4.211859e-01 -2.097585e+00 5.782092e-02 9.920405e-01 -9.995277e-01 -7.583067e-01 -1.397374e-01 -7.528351e-02 1.170033e+00 -1.806948e-01 2.177899e-01 -6.605887e-02 3.368715e-01 4.491612e-01 4.648147e-01 1.126797e-01 -1.595463e-01 6.756662e-02 -9.752431e-02 -8.891461e-02 -1.406419e-01 -3.173848e-01
<VARIANCE> 39
 3.484068e+01 4.743107e+01 5.119138e+01 2.383584e+01 4.761301e+01 6.842451e+01 3.407907e+01 5.731813e+01 5.058027e+01 3.393764e+01 2.565402e+01 2.557106e+01 2.355327e+01 3.851473e+00 2.524239e+00 4.107567e+00 2.869181e+00 3.641095e+00 4.825927e+00 3.489180e+00 3.419087e+00 3.546274e+00 3.156643e+00 1.964912e+00 2.237126e+00 2.950517e+00 5.952236e-01 9.201159e-01 9.586188e-01 5.512951e-01 5.915199e-01 1.117533e+00 5.531998e-01 6.019697e-01 5.956237e-01 6.137220e-01 4.133067e-01 4.887563e-01 3.669228e-01
<GCONST> 1.276565e+02
<STATE> 3
<MEAN> 39
 1.401035e+01 -1.375091e+01 9.591354e+00 -1.132553e+01 2.478071e-01 -8.876457e+00 -1.000393e+01 1.473903e+01 -1.983447e+01 -2.951415e+00 -1.438812e+00 -4.050567e+00 7.568768e+01 1.248347e-01 5.058802e-01 2.389617e-02 6.374153e-01 5.733387e-01 4.154750e-01 2.362879e-01 -8.691709e-02 2.968311e-02 -3.320546e-01 -2.556846e-01 -1.951260e-01 -1.869208e-01 -7.600963e-01 1.553804e-02 5.902293e-01 -6.871164e-02 2.392448e-01 1.294969e+00 1.792921e-02 -5.797142e-01 6.122649e-01 4.435442e-01 -2.488507e-02 5.772512e-02 -5.773758e-01
<VARIANCE> 39
 7.075167e+00 2.075587e+01 2.936422e+01 2.349785e+01 4.611307e+01 4.612729e+01 2.732426e+01 5.086614e+01 4.725063e+01 3.136913e+01 2.372279e+01 3.172316e+01 1.271155e+01 3.045344e+00 2.893724e+00 6.692462e+00 2.151050e+00 3.765769e+00 7.140757e+00 3.848701e+00 3.370620e+00 4.429298e+00 2.982467e+00 1.897172e+00 2.072896e+00 1.769807e+00 3.891486e-01 4.958609e-01 8.089681e-01 4.715699e-01 5.441502e-01 7.848462e-01 4.135888e-01 6.262147e-01 6.264227e-01 5.607777e-01 3.933229e-01 5.452157e-01 2.326081e-01
<GCONST> 1.209340e+02
<STATE> 4
<MEAN> 39
 1.127305e+01 -1.060068e+01 1.163309e+01 -1.159489e+01 1.634595e-01 -2.529187e+00 -8.611447e+00 1.307161e+01 -1.497459e+01 -1.052820e+00 -1.632797e+00 -4.164629e+00 7.144281e+01 -1.624484e+00 3.883186e-01 1.457659e+00 3.090948e-01 7.118671e-01 2.753544e+00 2.766104e-01 -1.255991e+00 8.942633e-01 6.934418e-01 -1.350172e-01 -5.371584e-02 -1.370329e+00 -3.737516e-01 -3.666407e-01 1.187828e-01 -1.703219e-01 1.285745e-01 1.421113e-01 -1.993095e-01 -2.286794e-01 -3.669059e-02 2.148543e-01 6.008654e-02 8.611008e-02 3.102597e-03
<VARIANCE> 39
 1.735326e+01 2.395309e+01 3.938900e+01 3.212376e+01 5.661824e+01 4.970647e+01 3.964521e+01 4.312925e+01 5.881081e+01 3.345430e+01 2.171859e+01 2.150539e+01 3.068622e+01 2.760468e+00 2.724292e+00 6.365742e+00 2.573438e+00 3.922827e+00 4.539950e+00 3.299769e+00 3.314621e+00 3.034889e+00 2.416379e+00 2.143745e+00 2.994971e+00 2.122168e+00 3.143932e-01 3.980448e-01 5.850174e-01 3.966215e-01 5.266409e-01 8.130329e-01 5.021917e-01 4.995695e-01 6.194842e-01 4.178928e-01 3.362027e-01 3.347060e-01 2.498915e-01
<GCONST> 1.213888e+02
<TRANSP> 5
 0.000000e+00 1.000000e+00 0.000000e+00 0.000000e+00 0.000000e+00
 0.000000e+00 4.558227e-01 5.441773e-01 0.000000e+00 0.000000e+00
 0.000000e+00 0.000000e+00 5.387058e-01 4.612942e-01 0.000000e+00
 0.000000e+00 0.000000e+00 0.000000e+00 3.651310e-01 6.348690e-01
 0.000000e+00 0.000000e+00 0.000000e+00 0.000000e+00 0.000000e+00
<ENDHMM>
~h "p"
<BEGINHMM>
<NUMSTATES> 5
<STATE> 2
<MEAN> 39
 2.783303e+00 -7.995474e+00 1.351470e+01 -6.069281e+00 3.913637e+00 4.925502e+00 -1.003918e+01 7.332676e+00 -1.156224e+01 -9.749693e-02 4.315747e-01 -1.312692e+00 6.053242e+01 -1.812446e+00 2.718433e-01 5.179624e-01 -9.128479e-02 -6.637157e-01 4.681271e-01 -1.335431e-01 -8.609953e-02 9.729139e-01 9.844811e-02 -1.259756e-01 -6.752223e-02 -1.852500e+00 1.986322e-01 -8.470657e-01 -1.710432e-02 -3.811733e-01 -2.327118e-02 -3.365577e-01 -1.448136e-01 -4.769377e-03 -4.030430e-01 3.867214e-01 1.799297e-01 -6.589403e-02 8.990964e-01
<VARIANCE> 39
 3.053763e+01 1.202317e+01 3.219992e+01 3.664111e+01 4.071385e+01 2.639957e+01 3.097747e+01 3.613875e+01 3.019168e+01 2.286904e+01 1.996762e+01 1.938963e+01 1.489018e+01 1.319858e+00 1.678861e+00 2.633080e+00 1.729746e+00 1.500164e+00 2.362161e+00 1.947889e+00 1.706921e+00 1.783452e+00 1.754106e+00 1.426613e+00 1.374869e+00 1.651665e+00 2.531303e-01 4.176104e-01 4.713607e-01 4.246626e-01 2.777007e-01 5.728720e-01 4.633077e-01 4.025229e-01 3.796169e-01 4.032310e-01 3.142456e-01 3.025920e-01 2.257846e-01
<GCONST> 1.078566e+02
<STATE> 3
<MEAN> 39
 -1.678736e+00 -8.809888e+00 1.524167e+01 -5.175366e+00 3.967417e+00 5.902505e+00 -9.988248e+00 7.454994e+00 -1.003058e+01 9.518759e-01 -9.669827e-02 -2.772829e+00 5.764017e+01 -4.750699e-01 -1.888527e+00 3.959842e-01 -1.491816e+00 -7.666240e-01 3.954935e-01 4.402607e-01 4.318549e-02 -3.308962e-01 1.022914e+00 3.297152e-01 2.088215e-01 1.009511e+00 1.051023e+00 -7.889274e-01 1.045497e-01 -5.475129e-01 1.689869e-01 -1.792447e-01 -5.402086e-02 2.755272e-03 -7.825372e-01 2.623614e-01 1.828102e-01 2.020107e-01 1.615924e+00
<VARIANCE> 39
 1.704983e+01 9.649305e+00 1.934431e+01 2.105345e+01 2.124552e+01 1.590170e+01 2.382040e+01 2.572171e+01 2.623280e+01 1.608545e+01 1.614093e+01 1.497062e+01 1.131786e+01 2.383051e+00 2.940195e+00 2.848065e+00 2.862043e+00 2.144993e+00 1.978610e+00 2.037595e+00 2.150935e+00 2.317461e+00 2.229085e+00 1.571422e+00 1.586925e+00 2.635362e+00 3.817123e-01 4.302864e-01 5.000459e-01 4.301934e-01 3.828368e-01 4.986300e-01 4.970481e-01 4.693675e-01 4.498035e-01 3.354514e-01 3.982311e-01 3.536340e-01 1.693966e-01
<GCONST> 1.074006e+02
<STATE> 4
<MEAN> 39
 -2.623182e-01 -1.509558e+01 1.602237e+01 -1.055899e+01 1.973537e+00 7.537610e+00 -8.499842e+00 7.282690e+00 -1.206353e+01 4.577991e+00 1.690772e+00 -1.308483e+00 6.332794e+01 2.595406e+00 -2.311444e+00 5.383481e-01 -1.801120e+00 4.554237e-02 -4.877215e-01 -4.581975e-01 -3.320965e-01 -2.186497e+00 7.088600e-01 8.460583e-02 5.915982e-02 4.340296e+00 8.502334e-01 4.023572e-01 -5.669423e-01 3.676337e-01 3.148828e-01 -8.544964e-01 -4.048160e-01 3.585666e-02 -2.377767e-01 -3.972224e-01 -9.945767e-02 -2.196273e-01 5.822811e-01
<VARIANCE> 39
 2.228237e+01 3.190345e+01 2.179713e+01 2.683300e+01 2.289035e+01 1.804606e+01 1.737341e+01 2.303464e+01 3.296380e+01 1.649475e+01 1.226074e+01 1.222398e+01 4.691420e+01 6.213943e+00 4.028991e+00 5.270076e+00 3.724095e+00 3.743917e+00 4.040796e+00 4.011191e+00 4.497363e+00 4.027856e+00 2.959301e+00 2.629756e+00 2.518502e+00 2.194969e+00 7.522800e-01 8.070676e-01 9.944015e-01 6.175111e-01 5.545940e-01 6.808327e-01 6.397352e-01 6.189024e-01 6.999201e-01 4.469719e-01 3.506566e-01 3.730543e-01 7.822550e-01
<GCONST> 1.224198e+02
<TRANSP> 5
 0.000000e+00 1.000000e+00 0.000000e+00 0.000000e+00 0.000000e+00
 0.000000e+00 5.402402e-01 4.597598e-01 0.000000e+00 0.000000e+00
 0.000000e+00 0.000000e+00 4.064726e-01 5.935274e-01 0.000000e+00
 0.000000e+00 0.000000e+00 0.000000e+00 4.490001e-01 5.509999e-01
 0.000000e+00 0.000000e+00 0.000000e+00 0.000000e+00 0.000000e+00
<ENDHMM>
~h "r"
<BEGINHMM>
<NUMSTATES> 5
<STATE> 2
<MEAN> 39
 9.891589e+00 -1.716210e+01 1.320515e+01 -1.443127e+01 3.585153e+00 3.028764e+00 -1.253747e+01 5.492217e+00 -1.877122e+01 4.081483e+00 9.500659e-01 -2.131652e+00 7.499134e+01 2.454852e+00 6.366971e-02 -1.983044e+00 -4.189267e-01 1.249213e+00 -3.776755e-01 -1.617336e+00 -1.390227e+00 -8.561467e-01 -3.587100e-01 -3.731472e-01 1.441676e-01 1.865991e+00 -2.342736e-01 5.905310e-01 -6.568379e-01 4.269747e-01 5.201133e-01 1.670810e-01 -2.469793e-01 2.869780e-03 6.360730e-01 -4.629013e-01 -1.544473e-01 2.124708e-02 -7.391485e-01
<VARIANCE> 39
 3.224425e+01 2.678579e+01 5.702781e+01 3.465069e+01 3.451666e+01 4.677509e+01 3.649561e+01 4.493704e+01 3.234576e+01 3.668561e+01 2.362312e+01 2.129768e+01 2.729221e+01 4.800314e+00 3.100034e+00 5.177716e+00 4.873587e+00 2.627924e+00 6.446827e+00 3.283028e+00 3.747300e+00 5.361254e+00 4.452710e+00 2.722758e+00 2.888419e+00 5.703608e+00 6.681576e-01 5.393026e-01 9.506387e-01 8.023692e-01 4.539037e-01 9.887421e-01 5.928973e-01 7.546756e-01 6.033996e-01 6.257293e-01 4.716559e-01 3.734563e-01 4.562364e-01
<GCONST> 1.292747e+02
<STATE> 3
<MEAN> 39
 1.455633e+01 -1.559348e+01 6.567621e+00 -1.460219e+01 7.196029e+00 6.559769e-01 -1.674141e+01 3.317883e+00 -2.005310e+01 2.624274e+00 -2.460031e-01 -2.650346e+00 7.690854e+01 5.220507e-01 1.060202e+00 -2.504351e+00 2.246174e-01 2.048009e+00 1.203523e+00 -1.728940e+00 -1.372517e+00 1.355214e+00 -1.402660e+00 -8.734218e-01 3.903262e-01 -4.863130e-01 -6.005910e-01 1.057259e-01 3.369820e-01 1.304023e-01 7.758480e-02 7.805792e-02 1.661562e-01 5.976052e-01 4.786204e-01 -1.736889e-01 -1.070190e-03 8.326206e-02 -5.065222e-01
<VARIANCE> 39
 6.509729e+00 1.793610e+01 3.185565e+01 3.700740e+01 3.166524e+01 3.974297e+01 3.553574e+01 3.826791e+01 3.227146e+01 4.208587e+01 3.125667e+01 2.393873e+01 1.605595e+01 1.616788e+00 1.621164e+00 4.222401e+00 3.140968e+00 1.881741e+00 8.081638e+00 3.221678e+00 4.632104e+00 3.424414e+00 3.484613e+00 2.297128e+00 2.165573e+00 1.451114e+00 4.574977e-01 3.654976e-01 5.942891e-01 4.691965e-01 4.174551e-01 1.096898e+00 5.418513e-01 7.613810e-01 7.229112e-01 6.234403e-01 4.412225e-01 4.027300e-01 3.289177e-01
<GCONST> 1.195306e+02
<STATE> 4
<MEAN> 39
 1.386901e+01 -1.244447e+01 2.035279e+00 -1.499063e+01 1.128737e+01 4.501012e+00 -1.974547e+01 2.901997e+00 -1.457566e+01 -2.044451e+00 -1.993905e+00 -1.145055e+00 7.472998e+01 6.159493e-02 4.369693e-02 -5.961524e-01 1.602503e-01 6.949534e-01 -1.383288e+00 -3.521562e-01 1.542723e+00 1.421102e-01 -3.931707e-01 1.986251e-01 3.461713e-01 -1.082165e-02 -1.993919e-01 -3.655586e-01 8.335508e-01 1.930461e-01 -7.524652e-01 -7.191903e-01 8.015454e-01 6.605131e-01 -5.545962e-01 4.829738e-01 4.024416e-01 -1.317662e-01 1.244210e-01
<VARIANCE> 39
 1.008578e+01 2.038720e+01 4.026408e+01 3.856695e+01 2.664972e+01 6.256848e+01 4.485077e+01 4.399230e+01 3.042608e+01 3.951975e+01 3.079238e+01 2.683166e+01 1.921584e+01 8.637083e-01 1.967092e+00 4.065145e+00 2.590349e+00 3.741310e+00 8.184976e+00 4.825282e+00 5.213086e+00 3.845881e+00 3.171695e+00 2.628716e+00 2.055625e+00 1.261381e+00 2.018289e-01 2.932029e-01 5.525225e-01 5.467196e-01 4.066670e-01 1.411909e+00 7.187784e-01 9.539722e-01 6.837493e-01 5.885083e-01 4.109225e-01 4.212937e-01 1.942354e-01
<GCONST> 1.208145e+02
<TRANSP> 5
 0.000000e+00 1.000000e+00 0.000000e+00 0.000000e+00 0.000000e+00
 0.000000e+00 3.254603e-01 6.745397e-01 0.000000e+00 0.000000e+00
 0.000000e+00 0.000000e+00 3.185990e-01 6.814010e-01 0.000000e+00
 0.000000e+00 0.000000e+00 0.000000e+00 6.379226e-01 3.620773e-01
 0.000000e+00 0.000000e+00 0.000000e+00 0.000000e+00 0.000000e+00
<ENDHMM>
~h "s"
<BEGINHMM>
<NUMSTATES> 5
<STATE> 2
<MEAN> 39
 -8.826883e+00 -2.304158e+01 3.393679e+01 -1.806920e+01 2.403766e+00 1.087154e+01 -4.697221e+00 6.280263e+00 -1.935114e+01 9.199033e+00 1.185991e+00 -1.821712e+00 7.643662e+01 -2.772602e+00 -1.232656e+00 1.999296e+00 -1.563628e+00 -1.797462e-01 8.867385e-01 5.589851e-01 3.465058e-01 1.832436e-01 1.008904e+00 -3.247350e-02 2.935677e-01 1.344375e-01 6.703112e-01 2.546200e-01 -8.817191e-01 3.089563e-01 1.672852e-01 -4.637449e-01 -2.948288e-01 8.225990e-03 -3.519820e-02 -1.455259e-01 2.885700e-02 -1.188715e-01 -1.324933e-01
<VARIANCE> 39
 4.924088e+01 2.701447e+01 4.633696e+01 3.581870e+01 2.602626e+01 3.667790e+01 2.948625e+01 3.866263e+01 5.174692e+01 3.281154e+01 2.673764e+01 2.066989e+01 2.146737e+01 4.611893e+00 3.450303e+00 8.076586e+00 3.137301e+00 2.571742e+00 3.240216e+00 2.433343e+00 2.899965e+00 2.739850e+00 2.281517e+00 2.056110e+00 1.863975e+00 7.679145e-01 5.498778e-01 5.460088e-01 9.135177e-01 5.714099e-01 4.884658e-01 5.762039e-01 3.937029e-01 5.081948e-01 5.404193e-01 4.540100e-01 3.772349e-01 3.210240e-01 1.229812e-01
<GCONST> 1.196470e+02
<STATE> 3
<MEAN> 39
 -1.269514e+01 -2.565250e+01 3.374606e+01 -2.078524e+01 2.007560e+00 1.111235e+01 -4.556627e+00 6.736760e+00 -1.858707e+01 1.177621e+01 1.697019e+00 -1.562920e+00 7.513615e+01 1.855837e+00 8.564830e-01 -1.514830e+00 1.369626e+00 1.521624e-01 -3.794144e-01 -4.488455e-01 -4.150798e-01 3.349206e-02 -1.000671e+00 -5.150243e-02 -1.575650e-01 -5.663840e-01 1.111315e+00 6.508060e-01 -8.098680e-01 6.988864e-01 1.874597e-01 -2.852657e-01 -3.679694e-01 -1.572666e-01 -7.705459e-02 -5.971994e-01 -1.014448e-01 -1.632550e-01 -1.888598e-01
<VARIANCE> 39
 2.057641e+01 2.477925e+01 3.179165e+01 2.785836e+01 2.520112e+01 3.456397e+01 2.546404e+01 2.740582e+01 4.457221e+01 2.895595e+01 2.801750e+01 2.075644e+01 2.382600e+01 5.318214e+00 3.256972e+00 3.939197e+00 3.865425e+00 2.241252e+00 2.020879e+00 2.376544e+00 2.568192e+00 3.152775e+00 2.602390e+00 2.367499e+00 1.748297e+00 1.723202e+00 4.375902e-01 5.787947e-01 6.601124e-01 5.992575e-01 4.955395e-01 4.928830e-01 4.196152e-01 4.398226e-01 5.030922e-01 4.403965e-01 4.772634e-01 3.647989e-01 2.844638e-01
<GCONST> 1.177662e+02
<STATE> 4
<MEAN> 39
 1.066537e+00 -1.788386e+01 2.459795e+01 -1.310887e+01 3.775248e+00 8.939170e+00 -7.896416e+00 3.464780e+00 -2.009510e+01 4.703191e+00 2.025563e-01 -3.526479e+00 7.407195e+01 4.297834e+00 2.275627e+00 -4.099624e+00 2.348842e+00 1.231187e+00 -1.654163e+00 -1.885161e+00 -1.455845e-01 -1.368422e-01 -1.781392e+00 -4.171565e-01 -7.676158e-01 -9.708499e-01 -4.972415e-01 -3.133653e-01 -3.387463e-02 -2.622379e-01 1.167925e-01 -2.629966e-01 -7.063756e-02 4.795854e-01 2.503991e-01 3.162027e-01 7.567643e-02 7.676810e-02 6.293072e-03
<VARIANCE> 39
 6.628728e+01 2.520619e+01 7.755262e+01 3.994853e+01 3.193470e+01 4.024367e+01 4.151337e+01 5.555429e+01 3.525953e+01 3.635938e+01 2.400089e+01 2.237763e+01 4.088303e+01 4.699079e+00 3.511343e+00 4.874507e+00 5.153853e+00 3.806354e+00 5.056196e+00 3.403286e+00 3.865191e+00 4.697729e+00 3.783758e+00 3.183084e+00 2.693670e+00 3.079017e+00 8.604271e-01 4.807479e-01 1.012128e+00 5.517002e-01 5.261973e-01 6.785649e-01 5.125197e-01 7.053111e-01 6.128969e-01 5.348539e-01 4.005944e-01 5.076363e-01 2.792854e-01
<GCONST> 1.294078e+02
<TRANSP> 5
 0.000000e+00 1.000000e+00 0.000000e+00 0.000000e+00 0.000000e+00
 0.000000e+00 8.186761e-01 1.813239e-01 0.000000e+00 0.000000e+00
 0.000000e+00 0.000000e+00 7.311167e-01 2.688833e-01 0.000000e+00
 0.000000e+00 0.000000e+00 0.000000e+00 4.593540e-01 5.406460e-01
 0.000000e+00 0.000000e+00 0.000000e+00 0.000000e+00 0.000000e+00
<ENDHMM>
~h "t"
<BEGINHMM>
<NUMSTATES> 5
<STATE> 2
<MEAN> 39
 -4.911978e-01 -1.586894e+01 2.129465e+01 -1.081110e+01 2.499273e+00 7.818096e+00 -9.023237e+00 6.176406e+00 -1.435900e+01 4.493125e+00 -7.899770e-01 -1.924913e+00 6.615318e+01 -1.448946e-01 1.680101e-01 -1.564690e-01 -2.837207e-01 -3.723346e-01 2.525627e-01 1.724860e-01 1.839078e-02 1.608026e-01 -6.199405e-02 2.078159e-03 6.975975e-02 -4.023384e-01 3.366944e-01 -1.532007e-01 -3.893875e-01 5.046700e-02 1.428285e-01 -3.544717e-01 -1.554498e-01 1.765495e-02 -1.559908e-01 -5.590676e-03 1.026900e-01 -3.428396e-02 3.650177e-01
<VARIANCE> 39
 4.102740e+01 5.695933e+01 6.371903e+01 6.679156e+01 3.690956e+01 3.265324e+01 3.350527e+01 3.753418e+01 4.757785e+01 3.398603e+01 2.041547e+01 1.612848e+01 5.319045e+01 5.744622e+00 6.986611e+00 7.350825e+00 8.170431e+00 3.490458e+00 3.692256e+00 3.350414e+00 2.926493e+00 4.005143e+00 3.794101e+00 2.062980e+00 1.536276e+00 7.121450e+00 6.269177e-01 1.662268e+00 1.365118e+00 1.587682e+00 7.080801e-01 7.842757e-01 5.873969e-01 5.859252e-01 6.441725e-01 7.897334e-01 4.728895e-01 3.594134e-01 9.866861e-01
<GCONST> 1.343432e+02
<STATE> 3
<MEAN> 39
 1.531233e+00 -1.176429e+01 1.759588e+01 -7.214843e+00 3.710150e+00 6.623494e+00 -9.571058e+00 5.263842e+00 -1.442889e+01 1.491077e+00 -1.506323e-01 -1.522348e+00 6.376555e+01 -4.226452e-02 -1.361272e-01 -1.203065e+00 1.504429e-01 -4.159717e-01 -5.598087e-01 -1.138138e-02 3.150807e-01 3.574912e-01 -2.714906e-01 2.687815e-01 -7.722391e-02 -4.377675e-01 2.167440e-01 -9.759750e-01 9.824547e-02 -5.798989e-01 -6.196832e-02 -3.026358e-01 -1.307472e-01 2.258129e-03 -4.193590e-01 4.187531e-01 4.839421e-03 -1.130703e-01 1.022123e+00
<VARIANCE> 39
 3.922367e+01 3.285321e+01 5.811061e+01 4.001310e+01 3.148419e+01 3.100864e+01 3.877158e+01 3.643567e+01 4.447102e+01 3.286216e+01 1.948484e+01 1.729263e+01 5.080798e+01 5.960003e+00 6.140850e+00 7.136680e+00 5.135036e+00 3.584665e+00 3.297075e+00 2.853690e+00 2.880225e+00 2.873442e+00 3.079409e+00 2.099046e+00 2.035116e+00 3.411821e+00 5.868086e-01 9.112002e-01 1.109400e+00 8.580321e-01 5.622868e-01 7.068726e-01 5.915097e-01 5.736248e-01 6.422558e-01 6.752310e-01 4.212423e-01 3.729794e-01 9.810423e-01
<GCONST> 1.290151e+02
<STATE> 4
<MEAN> 39
 -9.006109e-01 -1.491072e+01 1.670378e+01 -9.266975e+00 1.423111e+00 6.729734e+00 -8.318453e+00 6.548138e+00 -1.293196e+01 3.248412e+00 4.923586e-01 -2.173851e+00 6.341858e+01 7.050964e-01 -1.990281e+00 1.099875e-01 -1.277415e+00 -3.760023e-01 -4.050507e-01 -3.611296e-01 -2.224511e-01 -1.039644e+00 5.425062e-01 -9.163299e-02 -2.133260e-01 2.035722e+00 5.545698e-01 -1.251721e-01 7.942177e-02 -1.080337e-01 2.172203e-01 -2.718355e-01 -2.763144e-01 -1.236949e-01 -4.385373e-01 -2.714391e-02 -5.712263e-02 2.354281e-02 7.104198e-01
<VARIANCE> 39
 4.060732e+01 3.977291e+01 4.335860e+01 4.254264e+01 3.002655e+01 2.736844e+01 3.075097e+01 2.952626e+01 4.470603e+01 2.364510e+01 1.773304e+01 1.544841e+01 6.155579e+01 4.648650e+00 7.018253e+00 6.308538e+00 6.102321e+00 4.125525e+00 3.384934e+00 2.998836e+00 3.728261e+00 4.227092e+00 3.310377e+00 2.224899e+00 1.959516e+00 4.834911e+00 8.194388e-01 9.536520e-01 1.170742e+00 9.542047e-01 6.297867e-01 6.639206e-01 5.785825e-01 5.085539e-01 6.883125e-01 5.262441e-01 4.487374e-01 3.096656e-01 8.274655e-01
<GCONST> 1.292668e+02
<TRANSP> 5
 0.000000e+00 1.000000e+00 0.000000e+00 0.000000e+00 0.000000e+00
 0.000000e+00 5.820855e-01 4.179145e-01 0.000000e+00 0.000000e+00
 0.000000e+00 0.000000e+00 2.138214e-01 7.861785e-01 0.000000e+00
 0.000000e+00 0.000000e+00 0.000000e+00 4.552626e-01 5.447374e-01
 0.000000e+00 0.000000e+00 0.000000e+00 0.000000e+00 0.000000e+00
<ENDHMM>
~h "u"
<BEGINHMM>
<NUMSTATES> 5
<STATE> 2
<MEAN> 39
 1.033484e+01 -1.033649e+01 1.333701e+01 -1.153535e+01 4.163101e+00 -3.963138e+00 -1.273826e+01 1.394486e+01 -1.926425e+01 -3.691303e+00 -2.369211e+00 -7.213358e+00 7.053178e+01 7.901137e-01 1.198742e+00 2.983635e-01 3.301776e-01 -4.708027e-01 -1.557977e+00 6.000067e-02 1.171955e+00 1.726573e-01 6.680619e-02 -3.464096e-03 -5.300505e-01 5.520293e-03 -2.373705e-01 -1.319529e-01 1.955415e-01 1.819610e-01 9.749936e-02 4.469581e-01 4.219154e-02 -3.495151e-01 2.415884e-01 2.331140e-01 2.850163e-01 2.748994e-01 -2.002515e-02
<VARIANCE> 39
 2.781940e+01 2.855826e+01 3.080319e+01 2.033981e+01 3.553708e+01 4.155306e+01 3.319547e+01 3.705949e+01 5.455006e+01 5.194862e+01 3.107878e+01 3.210458e+01 2.550674e+01 2.319839e+00 2.992750e+00 2.953760e+00 2.180299e+00 3.987678e+00 4.722808e+00 3.416146e+00 3.739110e+00 3.744073e+00 2.807082e+00 2.299526e+00 2.696400e+00 1.298040e+00 4.722723e-01 6.798731e-01 5.394281e-01 4.706280e-01 4.495913e-01 9.440169e-01 6.565143e-01 7.946516e-01 5.486255e-01 5.706099e-01 5.160539e-01 5.574906e-01 3.231804e-01
<GCONST> 1.234709e+02
<STATE> 3
<MEAN> 39
 1.199961e+01 -5.532994e+00 1.606210e+01 -1.014479e+01 9.662353e-01 -8.281020e+00 -1.257243e+01 1.594770e+01 -1.667801e+01 -2.163932e+00 -1.459780e-01 -7.212599e+00 7.034870e+01 -2.636259e-02 8.227316e-02 2.946536e-01 6.031010e-01 4.769135e-01 8.590563e-01 1.594647e-01 -2.175676e-01 4.977890e-01 -2.005110e-01 -5.305791e-02 3.760013e-01 -6.648444e-02 -6.111475e-01 -6.340202e-01 1.949478e-02 -6.625375e-02 4.030427e-01 1.167753e+00 1.160267e-01 -5.638717e-01 1.233181e-01 1.980743e-01 -7.704507e-02 1.662461e-01 -1.845796e-01
<VARIANCE> 39
 7.362519e+00 2.766426e+01 2.538061e+01 1.822141e+01 3.827391e+01 4.571507e+01 3.128337e+01 5.187830e+01 3.245712e+01 4.076573e+01 2.733257e+01 2.927274e+01 1.744135e+01 2.466774e+00 3.189402e+00 2.844207e+00 2.145705e+00 3.467715e+00 7.210346e+00 3.327244e+00 3.737039e+00 2.974313e+00 3.386892e+00 2.478537e+00 1.661412e+00 2.150845e+00 2.758552e-01 4.169003e-01 4.952683e-01 3.815683e-01 4.206161e-01 6.313489e-01 4.840189e-01 6.821319e-01 4.423399e-01 5.791677e-01 4.137820e-01 4.140393e-01 1.761043e-01
<GCONST> 1.176972e+02
<STATE> 4
<MEAN> 39
 8.981818e+00 -7.789248e+00 1.603658e+01 -8.639701e+00 4.185776e+00 8.636767e-01 -1.088226e+01 1.193727e+01 -1.510535e+01 -1.301391e+00 -1.450057e+00 -5.860548e+00 6.787097e+01 -1.646347e+00 -1.164432e+00 3.905653e-01 3.833608e-01 1.060475e+00 2.671443e+00 3.321657e-01 -1.470654e+00 5.426134e-01 6.390331e-01 -9.744092e-03 4.917839e-01 -6.804431e-01 -3.195288e-01 -4.655318e-01 -1.385527e-02 -2.035795e-01 -5.245629e-02 -1.288460e-01 -1.464915e-01 -1.115233e-01 -9.193752e-02 1.754332e-01 1.652121e-01 7.531393e-02 1.326070e-01
<VARIANCE> 39
 2.187192e+01 3.302005e+01 3.886914e+01 2.513513e+01 5.374891e+01 3.943988e+01 4.188081e+01 4.824274e+01 5.074866e+01 4.919448e+01 2.848449e+01 2.172601e+01 4.248285e+01 2.498340e+00 3.549262e+00 5.385591e+00 2.804588e+00 2.916567e+00 5.182117e+00 3.615515e+00 3.475681e+00 3.295874e+00 3.108116e+00 2.158818e+00 2.420319e+00 1.757017e+00 3.932086e-01 4.476582e-01 5.641231e-01 4.354005e-01 5.218077e-01 6.130532e-01 4.699797e-01 6.732879e-01 5.559478e-01 7.453055e-01 3.985669e-01 3.826149e-01 2.012241e-01
<GCONST> 1.233051e+02
<TRANSP> 5
 0.000000e+00 1.000000e+00 0.000000e+00 0.000000e+00 0.000000e+00
 0.000000e+00 5.071951e-01 4.928049e-01 0.000000e+00 0.000000e+00
 0.000000e+00 0.000000e+00 5.820483e-01 4.179517e-01 0.000000e+00
 0.000000e+00 0.000000e+00 0.000000e+00 3.114234e-01 6.885766e-01
 0.000000e+00 0.000000e+00 0.000000e+00 0.000000e+00 0.000000e+00
<ENDHMM>
~h "v"
<BEGINHMM>
<NUMSTATES> 5
<STATE> 2
<MEAN> 39
 8.948129e+00 -1.123579e+01 1.385658e+01 -1.060472e+01 7.403476e+00 4.116746e+00 -1.063217e+01 1.014019e+01 -1.587336e+01 -2.878298e-01 -2.182688e+00 -3.901644e+00 6.987969e+01 2.710681e-01 1.880109e-01 1.858074e-01 1.105331e-01 6.752579e-01 2.768115e-01 -1.040657e-01 2.260106e-01 -6.745630e-02 -2.947115e-01 -5.277970e-01 2.413820e-02 -4.868136e-02 9.667706e-02 -3.665383e-01 -2.541249e-01 1.115939e-02 -1.487256e-01 -4.655802e-01 -2.863912e-01 -3.026587e-01 -2.829182e-01 1.892421e-01 3.500963e-01 9.287520e-02 3.793393e-01
<VARIANCE> 39
 3.187226e+01 2.632643e+01 4.895821e+01 5.145349e+01 4.118788e+01 5.082275e+01 3.356102e+01 3.548333e+01 3.735649e+01 2.666348e+01 1.908963e+01 1.186896e+01 4.324161e+01 2.508989e+00 1.533507e+00 4.231190e+00 2.166921e+00 2.800984e+00 3.876148e+00 2.112304e+00 2.053212e+00 2.479042e+00 1.714318e+00 1.207590e+00 1.143085e+00 1.165701e+00 3.354679e-01 4.179045e-01 5.693271e-01 4.810379e-01 3.663313e-01 5.978623e-01 4.168986e-01 4.171992e-01 4.271958e-01 4.315794e-01 3.061176e-01 2.413065e-01 1.694267e-01
<GCONST> 1.138024e+02
<STATE> 3
<MEAN> 39
 9.817533e+00 -1.215923e+01 1.444411e+01 -1.179506e+01 8.314643e+00 3.880888e+00 -1.143930e+01 1.031651e+01 -1.747820e+01 -6.375625e-01 -2.990723e+00 -3.857291e+00 7.147270e+01 7.270668e-01 -6.826223e-01 -9.037997e-01 2.175861e-01 1.480380e-01 -9.130925e-01 -9.822876e-01 -7.414047e-01 -7.231386e-01 -9.779104e-02 5.148934e-01 2.118628e-01 9.369310e-01 1.464264e-01 -2.631881e-01 -4.388745e-01 2.768307e-01 -2.277454e-01 -6.624548e-01 -3.618996e-01 -3.906866e-01 -1.487072e-01 2.330711e-01 5.247415e-01 5.066092e-02 3.176275e-01
<VARIANCE> 39
 1.759236e+01 1.976331e+01 5.630496e+01 5.402797e+01 4.143784e+01 5.343713e+01 3.057059e+01 3.160805e+01 2.852970e+01 2.576575e+01 2.061461e+01 1.360203e+01 2.447699e+01 1.894473e+00 1.716839e+00 3.459645e+00 2.906899e+00 3.549637e+00 2.862591e+00 2.116974e+00 2.351439e+00 2.393558e+00 1.566495e+00 1.446526e+00 1.194651e+00 1.363685e+00 3.936408e-01 3.282175e-01 7.260551e-01 5.824316e-01 3.379936e-01 6.693838e-01 4.216096e-01 4.166127e-01 2.860364e-01 4.474300e-01 3.503475e-01 2.826186e-01 1.580038e-01
<GCONST> 1.128030e+02
<STATE> 4
<MEAN> 39
 1.233045e+01 -1.457689e+01 1.005517e+01 -1.049602e+01 7.607426e+00 -5.893221e-01 -1.376657e+01 8.143886e+00 -1.980341e+01 -4.086038e-01 -2.479767e-01 -2.882275e+00 7.431770e+01 7.505072e-01 -8.440402e-01 -1.336680e+00 7.873654e-01 4.830195e-02 -1.865211e+00 -1.277707e+00 -1.120004e+00 -6.422381e-01 7.464852e-01 1.280384e+00 2.347414e-01 1.119585e+00 -1.555981e-01 -1.168125e-02 1.401054e-01 1.697247e-01 1.759806e-02 -5.710003e-02 -1.440633e-02 2.530639e-02 2.282855e-01 2.002974e-01 3.035050e-02 -1.105078e-01 -4.192890e-02
<VARIANCE> 39
 1.276917e+01 1.442266e+01 5.066633e+01 4.818210e+01 5.569721e+01 5.727360e+01 3.408071e+01 4.274530e+01 3.744686e+01 2.648747e+01 1.853563e+01 1.539760e+01 1.657771e+01 1.061168e+00 1.391599e+00 3.077331e+00 3.029464e+00 3.193380e+00 2.664745e+00 3.048927e+00 2.800535e+00 2.220771e+00 2.295703e+00 2.230314e+00 1.849889e+00 9.145744e-01 2.027718e-01 2.216505e-01 4.760300e-01 4.233375e-01 2.960021e-01 6.945327e-01 2.944173e-01 3.925435e-01 4.228846e-01 3.897131e-01 2.394335e-01 2.323818e-01 1.168269e-01
<GCONST> 1.099887e+02
<TRANSP> 5
 0.000000e+00 1.000000e+00 0.000000e+00 0.000000e+00 0.000000e+00
 0.000000e+00 3.370637e-01 6.629363e-01 0.000000e+00 0.000000e+00
 0.000000e+00 0.000000e+00 3.300146e-01 6.699854e-01 0.000000e+00
 0.000000e+00 0.000000e+00 0.000000e+00 3.044423e-01 6.955577e-01
 0.000000e+00 0.000000e+00 0.000000e+00 0.000000e+00 0.000000e+00
<ENDHMM>
~h "x"
<BEGINHMM>
<NUMSTATES> 5
<STATE> 2
<MEAN> 39
 2.037454e+00 -2.128957e+01 1.697996e+01 -1.885963e+01 -1.150180e+00 9.391378e+00 -4.370002e+00 1.094964e+01 -1.722650e+01 5.213421e+00 3.831411e+00 -3.666507e+00 7.006626e+01 -9.130489e-01 -1.085393e+00 -3.172081e-01 -1.443663e+00 -1.254213e+00 8.233944e-01 9.589242e-01 1.621423e-01 -2.973442e-01 -5.867363e-01 -3.321940e-01 1.284022e-01 -2.625197e-01 4.229488e-01 3.214524e-01 -1.735576e-01 4.232745e-01 2.826348e-01 -5.303998e-01 -4.115784e-01 -1.535277e-01 -9.309864e-02 -2.526884e-03 -4.371177e-02 -1.817270e-01 1.857392e-01
<VARIANCE> 39
 1.103505e+01 3.133112e+01 3.617132e+01 4.831767e+01 5.713698e+01 3.757040e+01 5.468850e+01 5.038021e+01 3.536506e+01 2.399078e+01 2.214461e+01 2.449514e+01 1.901817e+01 1.660124e+00 2.122011e+00 2.122846e+00 4.038413e+00 3.268399e+00 2.679605e+00 2.517049e+00 2.688796e+00 2.519796e+00 3.039216e+00 1.913935e+00 2.314464e+00 1.008424e+00 1.573761e-01 3.117036e-01 4.699565e-01 4.504991e-01 4.623647e-01 4.899108e-01 3.777044e-01 5.034369e-01 5.414312e-01 5.719187e-01 3.259964e-01 3.873834e-01 9.780842e-02
<GCONST> 1.143108e+02
<STATE> 3
<MEAN> 39
 -1.512734e+00 -2.459515e+01 2.118867e+01 -1.467483e+01 2.400751e+00 8.996733e+00 -7.496703e+00 7.947521e+00 -1.804998e+01 5.695539e+00 1.643941e-01 -5.390500e+00 7.050708e+01 7.493482e-01 1.186473e+00 -4.591165e-01 1.384888e-02 -8.825824e-02 -2.371450e-01 3.876223e-01 -2.224261e-01 -2.104673e-01 -1.705543e-01 -2.793879e-01 -5.229353e-03 -3.768272e-02 7.276953e-01 8.544548e-01 -2.227701e-01 5.868719e-01 4.304424e-01 -5.409946e-01 -4.101129e-01 2.598415e-02 1.179411e-01 9.786296e-03 8.199909e-02 -1.067451e-01 5.622360e-02
<VARIANCE> 39
 1.908493e+01 2.145812e+01 5.561833e+01 7.281234e+01 5.404057e+01 3.602898e+01 5.033242e+01 4.728395e+01 4.461129e+01 3.344489e+01 3.625365e+01 1.653848e+01 1.475907e+01 3.523267e+00 4.672426e+00 2.671689e+00 3.649250e+00 3.645452e+00 4.224396e+00 3.015391e+00 3.391558e+00 2.610852e+00 3.452741e+00 1.995002e+00 2.157396e+00 1.423983e+00 4.070182e-01 4.904227e-01 6.371025e-01 5.433521e-01 5.854535e-01 7.072666e-01 6.858066e-01 5.913676e-01 7.651226e-01 7.127192e-01 4.777969e-01 3.456887e-01 3.286467e-01
<GCONST> 1.239166e+02
<STATE> 4
<MEAN> 39
 4.602898e+00 -1.713321e+01 1.769694e+01 -1.557655e+01 6.177318e-01 6.780849e+00 -4.829553e+00 8.442616e+00 -1.890315e+01 5.719777e+00 1.073425e+00 -5.146540e+00 7.066190e+01 2.127747e+00 2.452240e+00 -1.110069e+00 9.496668e-01 5.390195e-01 -2.147091e+00 -9.461803e-01 -1.016606e-01 7.587823e-02 4.597891e-02 -3.843648e-01 -1.644339e-01 3.241963e-01 7.141016e-02 -2.159444e-01 -3.881503e-01 1.227048e-01 2.499934e-01 -2.949490e-01 -4.627103e-01 2.253924e-02 2.079839e-01 2.667420e-02 1.031466e-01 9.603276e-02 1.665810e-01
<VARIANCE> 39
 3.806966e+01 3.635487e+01 6.790223e+01 4.349731e+01 4.618577e+01 4.113158e+01 2.870100e+01 3.835359e+01 3.095569e+01 5.330650e+01 2.683787e+01 2.306300e+01 2.136440e+01 4.439989e+00 3.328488e+00 2.654941e+00 3.384020e+00 3.716800e+00 6.207469e+00 4.473476e+00 3.453814e+00 3.699535e+00 4.002331e+00 2.476777e+00 2.513967e+00 3.258716e+00 3.466566e-01 7.075925e-01 6.705234e-01 4.252939e-01 5.968316e-01 5.641532e-01 3.987586e-01 5.599871e-01 4.820628e-01 5.778193e-01 3.459496e-01 3.399836e-01 2.456136e-01
<GCONST> 1.247523e+02
<TRANSP> 5
 0.000000e+00 1.000000e+00 0.000000e+00 0.000000e+00 0.000000e+00
 0.000000e+00 7.560642e-01 2.439358e-01 0.000000e+00 0.000000e+00
 0.000000e+00 0.000000e+00 5.533801e-01 4.466200e-01 0.000000e+00
 0.000000e+00 0.000000e+00 0.000000e+00 2.881083e-01 7.118917e-01
 0.000000e+00 0.000000e+00 0.000000e+00 0.000000e+00 0.000000e+00
<ENDHMM>
~h "z"
<BEGINHMM>
<NUMSTATES> 5
<STATE> 2
<MEAN> 39
 -2.892449e-01 -1.666319e+01 3.317197e+01 -1.800795e+01 4.606560e+00 1.527858e+01 -8.538010e+00 5.698763e-01 -2.127045e+01 6.100212e+00 -4.194813e+00 -3.809304e+00 7.445464e+01 -5.444636e-01 -2.409325e-01 1.108408e+00 -8.892103e-01 -8.151755e-02 9.510240e-01 3.657943e-01 -2.054589e-01 -2.551621e-01 1.042507e-01 -3.010953e-01 3.029535e-01 2.019774e-01 8.102967e-01 1.213916e-01 -1.452467e+00 6.932856e-01 1.609863e-01 -8.311638e-01 -3.682545e-01 7.607845e-02 1.025371e-01 -2.268679e-01 2.510412e-01 -1.420154e-01 -4.287593e-02
<VARIANCE> 39
 2.841669e+01 1.764071e+01 5.783903e+01 4.222755e+01 3.792794e+01 3.601655e+01 4.394690e+01 4.854254e+01 4.563470e+01 2.333033e+01 2.977607e+01 1.976960e+01 3.626186e+01 5.563375e+00 2.035553e+00 1.343312e+01 4.434432e+00 2.077421e+00 4.420638e+00 2.649476e+00 3.163581e+00 2.521712e+00 1.928239e+00 1.782816e+00 1.575309e+00 1.699700e+00 4.710642e-01 3.898335e-01 1.231192e+00 6.257811e-01 3.561660e-01 6.135861e-01 4.323904e-01 6.178625e-01 4.897069e-01 3.631195e-01 3.809711e-01 3.414252e-01 2.062967e-01
<GCONST> 1.213801e+02
<STATE> 3
<MEAN> 39
 5.104906e+00 -1.683303e+01 2.606120e+01 -1.589977e+01 5.030069e+00 1.420976e+01 -1.051024e+01 -2.184564e+00 -2.133284e+01 4.051400e+00 -4.779005e+00 -4.070696e+00 7.563268e+01 2.976641e+00 5.366604e-01 -5.555630e+00 2.377618e+00 5.239276e-01 -2.326655e+00 -1.043638e+00 -2.837455e-01 1.990609e-01 -8.567732e-01 1.061510e+00 -4.469421e-01 -6.001140e-02 1.003860e-01 4.999971e-02 -5.472524e-01 2.720195e-01 1.779437e-01 -6.397271e-01 -3.759076e-02 4.375180e-01 1.397008e-02 1.807480e-01 4.925931e-01 6.833708e-02 -1.257305e-02
<VARIANCE> 39
 2.193564e+01 2.091719e+01 3.291896e+01 2.856017e+01 3.262117e+01 2.231149e+01 2.561895e+01 3.674315e+01 2.121186e+01 2.536187e+01 2.407740e+01 9.564782e+00 2.212449e+01 1.677372e+00 1.762111e+00 4.519676e+00 2.342646e+00 2.393619e+00 4.945994e+00 1.874619e+00 3.030758e+00 2.725283e+00 1.795984e+00 1.531399e+00 1.805382e+00 1.177211e+00 3.587406e-01 3.478260e-01 7.673764e-01 4.550295e-01 3.489950e-01 5.160589e-01 2.593051e-01 4.442235e-01 2.800465e-01 5.166129e-01 3.060928e-01 2.540264e-01 2.121778e-01
<GCONST> 1.102869e+02
<STATE> 4
<MEAN> 39
 1.053568e+01 -1.620344e+01 1.474030e+01 -1.223644e+01 5.671511e+00 6.807333e+00 -1.142194e+01 4.659773e-01 -2.198513e+01 3.461381e+00 -1.100205e+00 -4.216286e+00 7.578683e+01 2.034737e+00 1.626112e-01 -4.456874e+00 1.584100e+00 6.772583e-01 -2.732900e+00 -5.647578e-01 9.321279e-01 8.376595e-02 -1.228521e-01 1.650488e+00 2.778261e-01 4.499950e-02 -6.255142e-01 -1.963899e-01 1.053137e+00 -5.299525e-01 -1.000004e-01 3.743760e-01 1.351921e-01 2.729591e-01 2.123544e-01 1.694661e-01 -5.978585e-02 3.292831e-01 6.249871e-02
<VARIANCE> 39
 2.534369e+01 1.795960e+01 6.608164e+01 2.471446e+01 3.812610e+01 5.083796e+01 2.483282e+01 4.231213e+01 2.208643e+01 2.450973e+01 2.540431e+01 1.833701e+01 2.703293e+01 1.434256e+00 1.585688e+00 4.287068e+00 2.669955e+00 2.103433e+00 4.357766e+00 2.112340e+00 2.801490e+00 2.946491e+00 2.756936e+00 2.043195e+00 2.314759e+00 9.544409e-01 2.860322e-01 2.625769e-01 5.902847e-01 4.483916e-01 4.404376e-01 6.891351e-01 3.191026e-01 5.323727e-01 3.571167e-01 4.129649e-01 3.640356e-01 3.005705e-01 1.732830e-01
<GCONST> 1.135500e+02
<TRANSP> 5
 0.000000e+00 1.000000e+00 0.000000e+00 0.000000e+00 0.000000e+00
 0.000000e+00 8.004869e-01 1.995130e-01 0.000000e+00 0.000000e+00
 0.000000e+00 0.000000e+00 3.456987e-01 6.543013e-01 0.000000e+00
 0.000000e+00 0.000000e+00 0.000000e+00 3.098051e-01 6.901949e-01
 0.000000e+00 0.000000e+00 0.000000e+00 0.000000e+00 0.000000e+00
<ENDHMM>
~h "aa"
<BEGINHMM>
<NUMSTATES> 5
<STATE> 2
<MEAN> 39
 1.461246e+01 -1.728732e+01 -9.447073e-01 -1.800754e+01 -2.854759e-01 -3.257336e+00 -5.874930e+00 1.488039e+01 -1.144770e+01 1.692738e+00 8.352209e-01 3.101098e+00 7.907337e+01 -2.545440e-02 -8.671320e-02 -2.476728e-01 -2.651675e-01 -2.804538e-01 7.958668e-02 5.944928e-01 3.881974e-01 3.753419e-01 9.303536e-02 -3.261977e-01 1.201242e-01 7.014154e-03 -2.865410e-02 9.211762e-02 2.808804e-01 1.877779e-01 2.390037e-01 1.110762e-01 -2.425300e-01 -2.624971e-01 -2.175426e-01 5.756882e-02 1.623634e-02 -1.625398e-01 -1.408164e-01
<VARIANCE> 39
 5.228761e+00 1.230205e+01 2.579775e+01 1.889796e+01 2.547780e+01 3.169020e+01 2.501934e+01 4.233973e+01 4.243772e+01 5.149802e+01 2.839591e+01 1.980231e+01 1.810185e+01 3.133057e-01 7.386330e-01 1.258314e+00 1.006191e+00 1.227311e+00 1.063891e+00 1.730679e+00 1.417034e+00 1.783518e+00 1.616211e+00 1.220832e+00 9.420955e-01 2.145306e-01 8.134426e-02 1.421061e-01 2.413037e-01 1.904216e-01 1.938478e-01 2.724280e-01 2.100953e-01 2.450501e-01 3.081205e-01 3.235244e-01 2.582395e-01 2.088133e-01 3.911477e-02
<GCONST> 9.028766e+01
<STATE> 3
<MEAN> 39
 1.507356e+01 -1.796197e+01 2.227149e-01 -1.712993e+01 5.921248e-01 -4.219604e+00 -6.400858e+00 1.396617e+01 -1.394440e+01 2.996968e+00 1.374398e+00 3.394344e+00 7.920726e+01 -6.623144e-02 4.680538e-01 1.379157e+00 9.608184e-01 9.366434e-01 4.609725e-01 -7.099614e-01 -1.201546e+00 -1.027149e+00 8.207381e-01 3.516436e-01 -8.976280e-01 -8.327194e-01 -3.895664e-01 3.333323e-01 7.131981e-01 3.912627e-01 2.622156e-01 8.139828e-01 -4.687302e-02 -4.297617e-01 1.334836e-01 -1.103543e-01 -2.342965e-01 -4.153876e-01 -4.258642e-01
<VARIANCE> 39
 5.357893e+00 1.394358e+01 2.274690e+01 1.702438e+01 2.681168e+01 2.882545e+01 2.340845e+01 4.384528e+01 3.532778e+01 5.452956e+01 2.208891e+01 1.995930e+01 1.947982e+01 6.098861e-01 1.277370e+00 2.391796e+00 1.951574e+00 1.976709e+00 1.978952e+00 2.106507e+00 1.944588e+00 2.437775e+00 3.758817e+00 2.080458e+00 1.964403e+00 6.310885e-01 1.693510e-01 1.736988e-01 5.037701e-01 2.963312e-01 3.680919e-01 3.378696e-01 3.225332e-01 3.913708e-01 4.392869e-01 4.959544e-01 2.797094e-01 3.496125e-01 8.718589e-02
<GCONST> 1.035122e+02
<STATE> 4
<MEAN> 39
 1.314047e+01 -1.475752e+01 5.091640e+00 -1.445347e+01 1.942044e+00 -9.200493e-01 -6.998394e+00 9.842807e+00 -1.506106e+01 5.741232e+00 1.815542e+00 2.430395e-01 7.520560e+01 -1.685059e+00 1.179057e+00 3.243281e+00 1.272401e+00 9.151568e-01 3.090715e+00 -1.610627e-01 -1.276169e+00 4.533944e-01 -1.564149e-01 -6.846024e-01 -1.276871e+00 -2.009305e+00 -5.043623e-01 -2.262329e-01 3.554251e-01 -8.712570e-02 -6.589116e-02 3.612129e-01 4.595178e-02 2.327165e-01 3.763822e-01 -3.026038e-01 -1.956126e-01 1.151296e-01 -1.050495e-01
<VARIANCE> 39
 1.178064e+01 1.929879e+01 3.634590e+01 2.510522e+01 3.524498e+01 4.839706e+01 4.719593e+01 3.468377e+01 5.214277e+01 4.872368e+01 2.615199e+01 2.436511e+01 3.011909e+01 1.737298e+00 1.551598e+00 6.150770e+00 3.074504e+00 3.256738e+00 3.153344e+00 2.461517e+00 3.242948e+00 3.475918e+00 4.481960e+00 1.876377e+00 2.922571e+00 1.249954e+00 3.332528e-01 3.192984e-01 8.586368e-01 2.782739e-01 3.273855e-01 6.964570e-01 4.258905e-01 3.401893e-01 6.561883e-01 5.632840e-01 4.323633e-01 3.473001e-01 2.020958e-01
<GCONST> 1.179006e+02
<TRANSP> 5
 0.000000e+00 1.000000e+00 0.000000e+00 0.000000e+00 0.000000e+00
 0.000000e+00 8.593742e-01 1.406259e-01 0.000000e+00 0.000000e+00
 0.000000e+00 0.000000e+00 5.543897e-01 4.456103e-01 0.000000e+00
 0.000000e+00 0.000000e+00 0.000000e+00 4.499251e-01 5.500749e-01
 0.000000e+00 0.000000e+00 0.000000e+00 0.000000e+00 0.000000e+00
<ENDHMM>
~h "aw"
<BEGINHMM>
<NUMSTATES> 5
<STATE> 2
<MEAN> 39
 -7.474797e-01 -1.372438e+01 1.363240e+01 -7.800015e+00 3.957401e+00 4.912278e+00 -9.313604e+00 9.542570e+00 -9.857509e+00 3.919184e+00 1.996032e+00 -2.240039e+00 6.241040e+01 -1.802149e-04 -4.002908e-04 -4.533151e-04 -6.255359e-04 3.060046e-04 -9.756409e-05 3.545313e-04 3.676544e-04 -3.322966e-04 2.823267e-04 3.441859e-04 -7.776468e-06 1.221478e-04 -1.140098e-05 1.280875e-04 8.513568e-05 5.610451e-05 1.307168e-04 1.258145e-04 -3.556004e-04 -3.413941e-04 -2.462322e-04 -2.982411e-04 -2.002541e-04 1.479088e-04 -5.553468e-05
<VARIANCE> 39
 7.885750e+01 3.150516e+01 5.932858e+01 4.002160e+01 3.388152e+01 4.450462e+01 4.196474e+01 3.377337e+01 5.805833e+01 2.700758e+01 1.807174e+01 1.807939e+01 1.000320e+02 2.049164e+00 1.868461e+00 3.042747e+00 2.325078e+00 1.845033e+00 2.917301e+00 2.107786e+00 2.084596e+00 2.106791e+00 1.946175e+00 1.426612e+00 1.517214e+00 1.393703e+00 2.791751e-01 3.309114e-01 4.813313e-01 4.079526e-01 3.174572e-01 5.210913e-01 3.729059e-01 3.905098e-01 3.965955e-01 3.683704e-01 2.743881e-01 2.959611e-01 2.159844e-01
<GCONST> 1.148699e+02
<STATE> 3
<MEAN> 39
 -7.474797e-01 -1.372438e+01 1.363240e+01 -7.800015e+00 3.957401e+00 4.912278e+00 -9.313604e+00 9.542570e+00 -9.857509e+00 3.919184e+00 1.996032e+00 -2.240039e+00 6.241040e+01 -1.802149e-04 -4.002908e-04 -4.533151e-04 -6.255359e-04 3.060046e-04 -9.756409e-05 3.545313e-04 3.676544e-04 -3.322966e-04 2.823267e-04 3.441859e-04 -7.776468e-06 1.221478e-04 -1.140098e-05 1.280875e-04 8.513568e-05 5.610451e-05 1.307168e-04 1.258145e-04 -3.556004e-04 -3.413941e-04 -2.462322e-04 -2.982411e-04 -2.002541e-04 1.479088e-04 -5.553468e-05
<VARIANCE> 39
 7.885750e+01 3.150516e+01 5.932858e+01 4.002160e+01 3.388152e+01 4.450462e+01 4.196474e+01 3.377337e+01 5.805833e+01 2.700758e+01 1.807174e+01 1.807939e+01 1.000320e+02 2.049164e+00 1.868461e+00 3.042747e+00 2.325078e+00 1.845033e+00 2.917301e+00 2.107786e+00 2.084596e+00 2.106791e+00 1.946175e+00 1.426612e+00 1.517214e+00 1.393703e+00 2.791751e-01 3.309114e-01 4.813313e-01 4.079526e-01 3.174572e-01 5.210913e-01 3.729059e-01 3.905098e-01 3.965955e-01 3.683704e-01 2.743881e-01 2.959611e-01 2.159844e-01
<GCONST> 1.148699e+02
<STATE> 4
<MEAN> 39
 -7.474797e-01 -1.372438e+01 1.363240e+01 -7.800015e+00 3.957401e+00 4.912278e+00 -9.313604e+00 9.542570e+00 -9.857509e+00 3.919184e+00 1.996032e+00 -2.240039e+00 6.241040e+01 -1.802149e-04 -4.002908e-04 -4.533151e-04 -6.255359e-04 3.060046e-04 -9.756409e-05 3.545313e-04 3.676544e-04 -3.322966e-04 2.823267e-04 3.441859e-04 -7.776468e-06 1.221478e-04 -1.140098e-05 1.280875e-04 8.513568e-05 5.610451e-05 1.307168e-04 1.258145e-04 -3.556004e-04 -3.413941e-04 -2.462322e-04 -2.982411e-04 -2.002541e-04 1.479088e-04 -5.553468e-05
<VARIANCE> 39
 7.885750e+01 3.150516e+01 5.932858e+01 4.002160e+01 3.388152e+01 4.450462e+01 4.196474e+01 3.377337e+01 5.805833e+01 2.700758e+01 1.807174e+01 1.807939e+01 1.000320e+02 2.049164e+00 1.868461e+00 3.042747e+00 2.325078e+00 1.845033e+00 2.917301e+00 2.107786e+00 2.084596e+00 2.106791e+00 1.946175e+00 1.426612e+00 1.517214e+00 1.393703e+00 2.791751e-01 3.309114e-01 4.813313e-01 4.079526e-01 3.174572e-01 5.210913e-01 3.729059e-01 3.905098e-01 3.965955e-01 3.683704e-01 2.743881e-01 2.959611e-01 2.159844e-01
<GCONST> 1.148699e+02
<TRANSP> 5
 0.000000e+00 1.000000e+00 0.000000e+00 0.000000e+00 0.000000e+00
 0.000000e+00 6.000000e-01 4.000000e-01 0.000000e+00 0.000000e+00
 0.000000e+00 0.000000e+00 6.000000e-01 4.000000e-01 0.000000e+00
 0.000000e+00 0.000000e+00 0.000000e+00 7.000000e-01 3.000000e-01
 0.000000e+00 0.000000e+00 0.000000e+00 0.000000e+00 0.000000e+00
<ENDHMM>
~h "ch"
<BEGINHMM>
<NUMSTATES> 5
<STATE> 2
<MEAN> 39
 -2.904974e+00 -2.184718e+01 2.146668e+01 -3.425081e+00 2.886384e+00 5.849472e+00 -1.181237e+01 8.445131e+00 -1.194589e+01 -8.847092e-01 1.114050e+00 -1.095490e+00 6.621259e+01 -2.243088e+00 -3.573047e+00 7.740245e-01 -1.472513e+00 -1.195308e+00 1.101414e-01 8.341417e-02 1.135854e+00 9.293722e-01 -5.986820e-01 -6.608666e-01 5.771105e-01 1.114188e+00 -9.476196e-04 -5.656652e-01 8.072040e-02 -3.593766e-01 1.959638e-01 -3.520638e-01 -3.910137e-01 -1.221119e-01 -2.383419e-01 3.874902e-01 3.323806e-02 -1.606403e-01 7.573724e-01
<VARIANCE> 39
 2.794491e+01 7.457206e+01 5.339564e+01 2.284971e+01 2.847665e+01 2.043120e+01 2.905695e+01 3.633014e+01 3.296193e+01 2.282680e+01 1.843421e+01 1.443259e+01 4.380268e+01 3.474906e+00 6.343034e+00 5.894680e+00 3.482804e+00 3.024869e+00 2.554037e+00 3.298681e+00 2.368682e+00 2.750952e+00 2.283599e+00 1.492054e+00 1.054546e+00 4.538693e+00 3.602133e-01 1.400830e+00 1.075723e+00 4.387686e-01 5.826039e-01 5.618085e-01 5.196812e-01 5.788261e-01 4.918942e-01 5.051950e-01 3.869174e-01 2.228414e-01 5.243390e-01
<GCONST> 1.215178e+02
<STATE> 3
<MEAN> 39
 -9.338720e+00 -3.553601e+01 2.592065e+01 -1.042287e+01 2.508387e+00 4.993327e+00 -1.571719e+01 8.896616e+00 -1.025645e+01 2.313342e+00 1.549809e-01 -5.026680e-01 7.601488e+01 3.308353e-01 7.000410e-02 -4.435748e-03 -3.239549e-01 1.892542e-01 3.988548e-02 -3.084244e-01 -5.982005e-01 4.812985e-02 7.066949e-01 2.520331e-01 -5.920756e-02 5.638885e-01 9.923878e-01 1.244675e+00 -4.825420e-01 5.785263e-01 2.242814e-01 -1.759282e-02 1.356161e-01 -2.207598e-01 -2.328373e-01 -1.199075e-01 1.163014e-01 -1.423298e-01 -4.669439e-01
<VARIANCE> 39
 1.046657e+01 1.148418e+01 2.149744e+01 2.624938e+01 2.448289e+01 2.513655e+01 3.231393e+01 3.142741e+01 2.636912e+01 2.325586e+01 1.592476e+01 1.546183e+01 1.491552e+01 4.500540e+00 6.176382e+00 2.969714e+00 3.357779e+00 2.594836e+00 1.876054e+00 2.986388e+00 3.136293e+00 2.597057e+00 2.764389e+00 1.972359e+00 1.257807e+00 2.111969e+00 3.182244e-01 3.200983e-01 5.485593e-01 5.255857e-01 5.331305e-01 3.794749e-01 4.988894e-01 5.719368e-01 5.040608e-01 4.860642e-01 3.565779e-01 2.597643e-01 1.868856e-01
<GCONST> 1.120039e+02
<STATE> 4
<MEAN> 39
 2.674746e+00 -2.387353e+01 2.207721e+01 -5.724682e+00 6.013758e+00 5.203850e+00 -1.616933e+01 4.235353e+00 -1.232639e+01 4.245959e+00 2.154681e+00 -2.699649e+00 7.500651e+01 4.364050e+00 3.655890e+00 -2.969736e+00 1.623070e+00 1.624023e+00 -1.387728e+00 -5.644331e-01 -4.731868e-01 -1.539364e+00 -3.136080e-01 5.342643e-01 -8.069045e-01 -2.466415e-01 -2.309163e-01 -5.084201e-01 -5.554847e-01 -2.251498e-01 7.970443e-02 -6.794804e-01 -2.709519e-01 5.085288e-01 -1.813183e-01 -2.990098e-01 2.543790e-03 1.455432e-01 2.098987e-01
<VARIANCE> 39
 4.713535e+01 3.237052e+01 5.705470e+01 3.121858e+01 2.412486e+01 2.639644e+01 4.598586e+01 2.962979e+01 3.210384e+01 3.567584e+01 2.671964e+01 1.705614e+01 2.540727e+01 2.230163e+00 2.568114e+00 4.023620e+00 2.620429e+00 3.150955e+00 3.496591e+00 3.703768e+00 3.074203e+00 4.392138e+00 3.222675e+00 2.258930e+00 1.732765e+00 1.585678e+00 7.393960e-01 5.261182e-01 6.997318e-01 4.110127e-01 4.591532e-01 4.520776e-01 5.219578e-01 5.454539e-01 5.891975e-01 4.215963e-01 3.392890e-01 3.574947e-01 1.591793e-01
<GCONST> 1.196159e+02
<TRANSP> 5
 0.000000e+00 1.000000e+00 0.000000e+00 0.000000e+00 0.000000e+00
 0.000000e+00 7.192594e-01 2.807406e-01 0.000000e+00 0.000000e+00
 0.000000e+00 0.000000e+00 8.241604e-01 1.758396e-01 0.000000e+00
 0.000000e+00 0.000000e+00 0.000000e+00 6.037061e-01 3.962940e-01
 0.000000e+00 0.000000e+00 0.000000e+00 0.000000e+00 0.000000e+00
<ENDHMM>
~h "dj"
<BEGINHMM>
<NUMSTATES> 5
<STATE> 2
<MEAN> 39
 7.724478e+00 -1.241863e+01 1.939205e+01 1.955456e+00 1.265884e+01 3.049176e-01 -1.462459e+01 6.836282e+00 -1.639698e+01 1.770301e+00 8.986846e-02 -1.920167e+00 6.925226e+01 -8.246168e-01 -4.136521e-01 1.862439e+00 -1.314917e-03 -1.959880e-01 5.092548e-01 1.546375e-01 1.853324e-01 2.989553e-01 6.698253e-01 -4.284629e-01 -1.620970e-01 -2.630345e-01 1.298049e-01 -5.307109e-01 -3.294454e-02 -2.244764e-01 -9.622081e-02 -3.286431e-01 -2.592352e-01 -4.541305e-02 -3.486050e-01 -2.303807e-02 -1.042377e-01 -2.858209e-01 4.670422e-01
<VARIANCE> 39
 1.372747e+01 4.469087e+01 5.526757e+01 2.839918e+01 2.889390e+01 3.945517e+01 3.902040e+01 3.905499e+01 4.520625e+01 2.908480e+01 1.630964e+01 1.607661e+01 2.435758e+01 4.961868e-01 8.465794e+00 2.195319e+00 5.360364e+00 3.666531e+00 2.504212e+00 4.574802e+00 4.351542e+00 6.800992e+00 2.710976e+00 1.641535e+00 1.482266e+00 4.201400e+00 1.407691e-01 1.579243e+00 5.143965e-01 9.022207e-01 7.971036e-01 4.688496e-01 1.153026e+00 9.241897e-01 1.258826e+00 5.301135e-01 2.796689e-01 2.419272e-01 7.558647e-01
<GCONST> 1.235444e+02
<STATE> 3
<MEAN> 39
 6.474276e+00 -1.916210e+01 2.430543e+01 1.032421e+00 1.354250e+01 -7.094049e-02 -1.842099e+01 5.988256e+00 -1.795544e+01 2.519025e+00 -2.881598e+00 -4.815257e+00 7.319349e+01 6.235597e-01 -1.136646e+00 -2.027277e-01 8.130167e-01 1.122476e+00 -1.151312e+00 -2.320051e+00 -1.029440e+00 -8.202947e-01 -5.468803e-02 -3.449262e-01 -8.999281e-01 1.057941e+00 3.220888e-01 6.838676e-01 -9.420986e-01 2.087768e-01 -1.616246e-01 -4.067722e-01 -6.321730e-02 -4.016505e-02 1.217400e-01 -3.263814e-01 4.818780e-01 2.304043e-01 -1.815484e-01
<VARIANCE> 39
 1.876169e+01 1.551606e+01 8.291522e+01 4.197770e+01 4.447355e+01 3.643300e+01 4.388529e+01 3.097223e+01 2.445277e+01 2.447410e+01 1.858845e+01 2.240767e+01 1.426499e+01 8.986877e-01 2.348862e+00 3.722755e+00 6.576056e+00 3.399199e+00 3.561774e+00 2.786868e+00 2.087198e+00 5.517434e+00 2.792046e+00 2.233748e+00 6.760045e-01 1.966377e+00 1.766324e-01 5.402582e-01 5.730986e-01 8.861862e-01 7.762482e-01 5.316427e-01 1.122020e+00 5.290974e-01 5.524383e-01 6.255555e-01 6.652064e-01 2.967964e-01 3.081517e-01
<GCONST> 1.189221e+02
<STATE> 4
<MEAN> 39
 9.447761e+00 -1.893662e+01 1.749124e+01 1.248847e+00 1.560084e+01 -3.843463e+00 -2.210628e+01 3.763346e+00 -2.138460e+01 2.235967e+00 1.230434e-01 -5.676132e+00 7.506749e+01 1.432217e-01 1.095088e-01 -5.468400e-01 -1.907517e-01 -2.804769e-01 -3.157425e-01 -1.839430e-01 5.009544e-02 -2.840580e-01 -2.245737e-01 8.614925e-01 -4.207670e-02 2.508603e-01 -1.221806e-01 2.285107e-01 5.312515e-02 -1.924576e-01 -3.865401e-01 2.929558e-01 5.307620e-01 2.380728e-01 2.907354e-01 -1.863353e-01 -9.571002e-03 2.920717e-01 -2.053220e-01
<VARIANCE> 39
 1.958784e+01 1.152878e+01 1.106138e+02 3.504840e+01 3.088564e+01 2.764640e+01 2.705729e+01 3.251716e+01 3.727319e+01 2.918879e+01 2.611546e+01 1.659829e+01 1.614418e+01 6.995238e-01 6.813369e-01 3.239125e+00 2.819444e+00 1.391080e+00 2.071720e+00 2.326140e+00 1.661743e+00 1.298466e+00 1.347136e+00 1.954396e+00 1.662674e+00 4.662305e-01 8.947872e-02 1.758780e-01 4.323267e-01 4.235837e-01 3.434116e-01 3.802342e-01 6.748055e-01 2.172372e-01 3.512282e-01 3.207304e-01 2.933484e-01 1.851504e-01 1.584493e-01
<GCONST> 1.028467e+02
<TRANSP> 5
 0.000000e+00 1.000000e+00 0.000000e+00 0.000000e+00 0.000000e+00
 0.000000e+00 7.285895e-01 2.714105e-01 0.000000e+00 0.000000e+00
 0.000000e+00 0.000000e+00 5.217204e-01 4.782796e-01 0.000000e+00
 0.000000e+00 0.000000e+00 0.000000e+00 5.972314e-01 4.027686e-01
 0.000000e+00 0.000000e+00 0.000000e+00 0.000000e+00 0.000000e+00
<ENDHMM>
~h "ee"
<BEGINHMM>
<NUMSTATES> 5
<STATE> 2
<MEAN> 39
