~o
<STREAMINFO> 1 39
<VECSIZE> 39<NULLD><MFCC_D_A_0><DIAGC>
~h "a"
<BEGINHMM>
<NUMSTATES> 5
<STATE> 2
<MEAN> 39
 5.905763e+00 -1.537796e+01 1.121536e+01 -1.123922e+01 4.266725e+00 2.291816e+00 -9.956331e+00 8.807659e+00 -1.436058e+01 4.393621e+00 1.795410e+00 -1.341873e+00 6.951924e+01 1.621130e-01 -1.814020e-01 3.504340e-02 -1.978625e-01 2.584765e-02 -5.212213e-02 4.184990e-02 -1.723194e-02 -2.529811e-01 5.888237e-02 5.687030e-04 6.885314e-02 4.072431e-01 -8.943813e-02 1.733035e-02 5.049700e-02 5.488392e-02 1.167121e-02 2.202268e-02 -1.288354e-02 2.008704e-02 6.728910e-02 -4.427136e-02 -1.012375e-04 5.909586e-03 -6.223781e-02
<VARIANCE> 39
 8.591827e+01 3.472343e+01 1.076847e+02 5.056979e+01 4.944416e+01 7.156343e+01 5.194111e+01 5.747830e+01 6.625544e+01 3.814896e+01 2.451544e+01 2.860717e+01 7.717310e+01 4.654148e+00 2.576974e+00 7.136303e+00 3.165537e+00 3.053691e+00 6.351110e+00 3.264734e+00 3.489561e+00 3.426556e+00 2.842721e+00 1.863861e+00 2.159546e+00 3.525874e+00 5.973330e-01 4.724098e-01 1.193518e+00 5.389301e-01 5.006727e-01 1.096073e+00 5.572767e-01 6.298311e-01 6.224846e-01 5.667615e-01 3.620185e-01 4.094929e-01 4.517516e-01
<GCONST> 1.320175e+02
<STATE> 3
<MEAN> 39
 5.537582e+00 -1.552651e+01 1.166284e+01 -1.114285e+01 4.250888e+00 2.468772e+00 -9.792475e+00 8.939575e+00 -1.443186e+01 4.402849e+00 2.028419e+00 -1.261090e+00 6.954120e+01 -1.886201e-01 -4.793446e-02 2.071923e-01 -4.026012e-02 -1.958586e-03 1.105381e-01 6.385558e-03 -6.679483e-03 2.309984e-02 -1.540023e-02 1.015505e-02 2.783271e-02 -1.586524e-03 -7.698616e-02 2.622249e-02 3.113791e-02 5.774894e-02 -2.067965e-03 3.107067e-02 -3.540954e-02 -2.451884e-02 9.063262e-02 -3.842717e-02 -2.565630e-02 -2.186252e-02 -9.939790e-02
<VARIANCE> 39
 8.917559e+01 3.895544e+01 1.123797e+02 5.497227e+01 5.010383e+01 7.368015e+01 5.307583e+01 5.453324e+01 6.383807e+01 4.008858e+01 2.737460e+01 2.978285e+01 7.742283e+01 3.969003e+00 2.490062e+00 6.759813e+00 2.993673e+00 2.934841e+00 5.518805e+00 3.254402e+00 3.279455e+00 3.114931e+00 2.881865e+00 1.828618e+00 2.246826e+00 2.600783e+00 5.395367e-01 4.440079e-01 1.069488e+00 5.313369e-01 4.704864e-01 9.412581e-01 5.522915e-01 6.208083e-01 5.834532e-01 5.820075e-01 3.619108e-01 4.331131e-01 3.858062e-01
<GCONST> 1.308933e+02
<STATE> 4
<MEAN> 39
 4.376293e+00 -1.459126e+01 1.113707e+01 -1.096200e+01 3.618827e+00 3.248922e+00 -9.346292e+00 9.452762e+00 -1.246610e+01 4.388277e+00 2.137341e+00 -1.199400e+00 6.734360e+01 -2.623881e-01 -3.267708e-02 1.751037e-01 1.242553e-01 -8.107130e-03 8.697654e-02 -8.531786e-02 -1.048475e-01 1.588181e-01 -3.896114e-02 -9.609147e-02 -9.411817e-02 -1.642709e-01 2.444989e-02 -2.707392e-03 -4.143059e-04 5.898551e-02 1.480962e-02 -2.277544e-02 -3.020668e-02 -2.684746e-02 3.242089e-04 -2.696821e-02 -1.136200e-02 -2.922571e-02 -8.144679e-03
<VARIANCE> 39
 8.590378e+01 3.516374e+01 8.855078e+01 5.152390e+01 4.658027e+01 6.390717e+01 4.852381e+01 5.023073e+01 5.585131e+01 3.418712e+01 2.532454e+01 2.704990e+01 8.279987e+01 2.540631e+00 2.151200e+00 4.399070e+00 2.655171e+00 2.370437e+00 3.777356e+00 2.645299e+00 2.823010e+00 2.739724e+00 2.609056e+00 1.600954e+00 1.844251e+00 2.009651e+00 3.092398e-01 3.483310e-01 6.473054e-01 4.310888e-01 3.684382e-01 6.594012e-01 4.700953e-01 5.020618e-01 4.561154e-01 4.460682e-01 3.077349e-01 3.331640e-01 2.705005e-01
<GCONST> 1.229795e+02
<TRANSP> 5
 0.000000e+00 1.000000e+00 0.000000e+00 0.000000e+00 0.000000e+00
 0.000000e+00 4.354472e-01 5.645528e-01 0.000000e+00 0.000000e+00
 0.000000e+00 0.000000e+00 3.759149e-01 6.240851e-01 0.000000e+00
 0.000000e+00 0.000000e+00 0.000000e+00 2.696366e-01 7.303634e-01
 0.000000e+00 0.000000e+00 0.000000e+00 0.000000e+00 0.000000e+00
<ENDHMM>
~h "b"
<BEGINHMM>
<NUMSTATES> 5
<STATE> 2
<MEAN> 39
 6.130453e+00 -1.600236e+01 1.679497e+01 -8.804738e+00 5.384891e+00 2.487495e+00 -1.110855e+01 7.413487e+00 -1.684741e+01 2.166416e+00 5.958850e-01 -2.718861e+00 7.275097e+01 3.711431e-02 -1.150303e-01 2.767521e-01 -4.575735e-02 1.303567e-01 9.368376e-02 -1.344775e-01 -1.608167e-01 -1.809335e-01 3.695228e-02 -4.489473e-02 7.262932e-03 1.853287e-01 9.440592e-03 1.055879e-02 -4.948885e-02 -6.243761e-03 2.211776e-02 -1.992207e-02 -3.800289e-02 1.607826e-02 4.096252e-02 -1.234929e-02 -8.489025e-03 1.644422e-03 -1.077597e-02
<VARIANCE> 39
 8.732201e+01 6.123293e+01 1.298140e+02 7.343991e+01 5.295092e+01 8.036434e+01 5.457527e+01 5.552259e+01 5.516205e+01 6.036426e+01 2.918734e+01 2.905681e+01 5.479208e+01 5.250459e+00 4.926420e+00 7.896750e+00 4.822609e+00 3.955553e+00 6.725709e+00 3.840745e+00 3.648585e+00 4.477052e+00 4.020993e+00 2.516357e+00 2.658978e+00 4.031193e+00 6.704353e-01 8.440530e-01 1.202555e+00 8.418956e-01 7.006515e-01 1.196736e+00 6.554573e-01 6.627604e-01 7.976322e-01 7.015175e-01 4.588349e-01 4.946879e-01 6.233497e-01
<GCONST> 1.395496e+02
<STATE> 3
<MEAN> 39
 6.235143e+00 -1.619235e+01 1.685944e+01 -7.886621e+00 6.839346e+00 1.947896e+00 -1.237872e+01 7.511556e+00 -1.704181e+01 2.116923e+00 2.487130e-01 -3.091792e+00 7.218062e+01 7.035666e-02 -4.287153e-02 -1.306693e-02 7.037332e-02 1.767372e-01 9.717312e-03 -1.490551e-01 -9.809805e-02 -4.721532e-02 -2.433174e-03 -3.072551e-02 -3.802467e-02 7.223802e-02 -1.772300e-03 2.797589e-02 -4.240547e-02 1.041802e-02 -1.800293e-02 -2.287840e-02 7.975399e-03 1.751170e-02 3.063065e-02 -3.147635e-03 1.478687e-02 2.008930e-03 -2.498758e-02
<VARIANCE> 39
 7.468932e+01 6.025771e+01 1.112293e+02 9.152525e+01 5.688856e+01 8.135232e+01 6.126183e+01 5.751615e+01 5.140190e+01 5.548767e+01 3.272385e+01 3.036109e+01 4.466118e+01 4.705161e+00 5.359874e+00 7.139898e+00 5.357912e+00 3.971285e+00 6.973641e+00 4.255933e+00 3.488685e+00 4.453807e+00 4.083560e+00 2.716933e+00 2.759036e+00 3.956504e+00 6.120607e-01 9.528559e-01 1.082529e+00 9.423922e-01 7.017298e-01 1.177571e+00 7.722890e-01 6.496474e-01 8.265236e-01 7.294238e-01 5.203868e-01 5.420164e-01 6.370857e-01
<GCONST> 1.401399e+02
<STATE> 4
<MEAN> 39
 6.355039e+00 -1.534083e+01 1.591831e+01 -7.498511e+00 6.891827e+00 2.443966e+00 -1.260652e+01 7.237774e+00 -1.575220e+01 2.608014e+00 1.619742e-01 -3.105690e+00 7.085403e+01 2.883170e-01 5.714380e-03 -3.691010e-01 9.171082e-02 7.837155e-02 -2.519175e-01 -1.903064e-01 1.121978e-02 5.166422e-02 -6.751560e-02 3.638343e-02 1.526118e-02 1.609176e-01 -6.161645e-02 -5.990965e-03 -8.170465e-03 -3.049028e-02 -9.061236e-02 -4.583299e-02 6.510745e-02 8.808295e-02 4.498286e-02 3.675410e-03 3.800250e-02 1.939947e-02 -3.898592e-02
<VARIANCE> 39
 6.967816e+01 6.071742e+01 9.939616e+01 9.467561e+01 6.133084e+01 7.401926e+01 5.309684e+01 4.472062e+01 5.298159e+01 4.793066e+01 3.157635e+01 2.884954e+01 4.589620e+01 4.117207e+00 4.704114e+00 5.941795e+00 4.870670e+00 3.611121e+00 7.377395e+00 4.509123e+00 3.093928e+00 3.994682e+00 3.203339e+00 2.554328e+00 2.648960e+00 3.749053e+00 4.906661e-01 7.928826e-01 8.680633e-01 8.551260e-01 6.145154e-01 1.122737e+00 7.062517e-01 5.543134e-01 7.440112e-01 5.645407e-01 4.751980e-01 5.027264e-01 5.898860e-01
<GCONST> 1.365020e+02
<TRANSP> 5
 0.000000e+00 1.000000e+00 0.000000e+00 0.000000e+00 0.000000e+00
 0.000000e+00 8.717335e-01 1.282665e-01 0.000000e+00 0.000000e+00
 0.000000e+00 0.000000e+00 8.710055e-01 1.289945e-01 0.000000e+00
 0.000000e+00 0.000000e+00 0.000000e+00 6.498422e-01 3.501578e-01
 0.000000e+00 0.000000e+00 0.000000e+00 0.000000e+00 0.000000e+00
<ENDHMM>
~h "c"
<BEGINHMM>
<NUMSTATES> 5
<STATE> 2
<MEAN> 39
 -1.548213e+00 -1.844884e+01 2.568158e+01 -1.349446e+01 3.448608e+00 5.863086e+00 -8.525528e+00 6.126500e+00 -1.909743e+01 6.130816e+00 -1.389248e-01 -3.293694e+00 7.194149e+01 -9.521096e-01 -5.295404e-01 9.563540e-01 -4.614072e-01 1.041831e-01 6.250792e-01 8.270738e-02 -4.118962e-01 -2.219314e-01 4.712661e-01 -5.421536e-02 9.079079e-03 9.232534e-02 7.829332e-02 -9.925366e-03 -1.533674e-01 1.901746e-02 -6.049488e-03 -1.193614e-01 -6.077016e-02 6.768107e-02 4.522815e-02 -2.692188e-02 6.976082e-02 3.683961e-02 3.379611e-02
<VARIANCE> 39
 1.184705e+02 5.032634e+01 1.271552e+02 9.093805e+01 5.614608e+01 6.391854e+01 6.208663e+01 5.150715e+01 4.792782e+01 4.608334e+01 2.441545e+01 1.681648e+01 3.960314e+01 1.005550e+01 4.440866e+00 1.231863e+01 5.587564e+00 3.305146e+00 5.119230e+00 3.244719e+00 3.310564e+00 3.428753e+00 3.653368e+00 2.457254e+00 1.489545e+00 2.208127e+00 1.285595e+00 7.600436e-01 1.758836e+00 7.847760e-01 5.301740e-01 8.127430e-01 5.330572e-01 5.465577e-01 5.753780e-01 5.658644e-01 4.357956e-01 2.897179e-01 3.799113e-01
<GCONST> 1.352938e+02
<STATE> 3
<MEAN> 39
 -3.265033e+00 -2.055803e+01 2.677193e+01 -1.349669e+01 4.918189e+00 6.326464e+00 -9.482136e+00 5.675097e+00 -1.970974e+01 6.841270e+00 2.673899e-01 -3.476249e+00 7.277368e+01 5.257354e-01 9.190734e-02 -5.580087e-01 4.193683e-01 2.579013e-01 -2.576169e-01 -3.207151e-01 -4.522024e-02 -8.936986e-03 -1.584407e-01 1.273140e-01 -1.099491e-02 1.912138e-02 1.388048e-01 1.075373e-01 -1.947207e-01 9.830362e-02 2.223483e-02 -9.046679e-02 -3.558157e-02 5.854519e-02 6.103443e-02 -6.865067e-02 1.908185e-02 1.424082e-02 -6.829710e-02
<VARIANCE> 39
 1.276908e+02 5.019256e+01 1.187618e+02 1.118927e+02 6.062965e+01 6.447632e+01 6.018277e+01 4.735492e+01 4.337100e+01 4.451815e+01 2.959175e+01 1.922788e+01 2.916651e+01 1.111273e+01 5.195698e+00 1.121058e+01 7.152242e+00 3.520774e+00 4.673579e+00 3.584488e+00 2.974149e+00 2.978071e+00 3.654233e+00 2.520232e+00 1.766746e+00 1.794133e+00 1.331449e+00 8.609115e-01 1.622431e+00 1.005600e+00 5.803511e-01 8.135614e-01 6.240332e-01 5.670920e-01 5.570921e-01 5.956143e-01 4.631209e-01 3.441993e-01 2.966781e-01
<GCONST> 1.362008e+02
<STATE> 4
<MEAN> 39
 9.807095e-01 -1.774916e+01 1.824886e+01 -1.022796e+01 3.619017e+00 4.446628e+00 -1.003238e+01 6.375129e+00 -1.646635e+01 5.453796e+00 2.494998e+00 -2.285134e+00 6.936903e+01 3.814931e-01 5.623514e-01 -9.774456e-01 5.817934e-01 7.169477e-02 -2.860586e-01 1.364945e-02 3.735209e-01 5.755123e-01 -2.279751e-01 2.078552e-01 1.593798e-01 -6.952606e-01 -2.195167e-01 -3.530077e-02 1.447197e-01 -1.124812e-01 -1.183662e-01 8.371600e-02 8.651474e-02 7.702038e-02 1.650401e-01 5.642300e-02 6.712648e-03 4.564605e-02 -9.683453e-02
<VARIANCE> 39
 1.131311e+02 5.735912e+01 1.203723e+02 8.068658e+01 6.031064e+01 7.495672e+01 4.780410e+01 5.164518e+01 5.620828e+01 3.912405e+01 2.440058e+01 1.745546e+01 6.251740e+01 3.676142e+00 3.019452e+00 5.531526e+00 3.439665e+00 1.896333e+00 3.195020e+00 2.045429e+00 2.638318e+00 2.551875e+00 2.753230e+00 1.565847e+00 1.550584e+00 1.959665e+00 6.085382e-01 4.207563e-01 1.077400e+00 4.887119e-01 3.264064e-01 6.178559e-01 3.462265e-01 4.238676e-01 4.921241e-01 4.102900e-01 2.519907e-01 2.870287e-01 2.216751e-01
<GCONST> 1.248422e+02
<TRANSP> 5
 0.000000e+00 1.000000e+00 0.000000e+00 0.000000e+00 0.000000e+00
 0.000000e+00 7.980599e-01 2.019401e-01 0.000000e+00 0.000000e+00
 0.000000e+00 0.000000e+00 8.715568e-01 1.284432e-01 0.000000e+00
 0.000000e+00 0.000000e+00 0.000000e+00 4.061873e-01 5.938127e-01
 0.000000e+00 0.000000e+00 0.000000e+00 0.000000e+00 0.000000e+00
<ENDHMM>
~h "d"
<BEGINHMM>
<NUMSTATES> 5
<STATE> 2
<MEAN> 39
 5.559005e+00 -1.431697e+01 1.203970e+01 -7.415514e+00 5.640683e+00 2.873967e+00 -1.283334e+01 5.893504e+00 -1.407170e+01 2.977053e+00 2.200560e+00 -2.195698e+00 6.791644e+01 9.087023e-03 -4.029370e-02 -5.183676e-02 -5.590745e-02 1.911115e-01 3.833538e-02 -1.420744e-01 -9.494202e-02 -1.956876e-01 -9.229125e-03 1.571473e-01 6.776744e-02 1.237023e-01 -2.017536e-02 -8.443074e-03 8.048263e-02 -1.271601e-02 2.721911e-03 -5.713966e-02 5.079945e-02 2.213221e-01 1.421033e-02 -7.777182e-02 -1.296978e-02 3.273461e-02 2.479805e-02
<VARIANCE> 39
 7.410888e+01 4.037178e+01 6.111298e+01 4.789209e+01 5.062307e+01 6.339188e+01 4.841613e+01 5.296391e+01 5.809249e+01 3.784624e+01 2.575482e+01 2.978470e+01 8.478383e+01 2.193155e+00 3.381827e+00 4.266633e+00 3.062011e+00 2.497498e+00 4.854242e+00 2.930357e+00 2.987695e+00 3.637804e+00 2.535231e+00 2.272392e+00 2.207791e+00 2.865228e+00 2.712200e-01 6.385266e-01 6.204719e-01 5.211187e-01 4.416770e-01 9.527321e-01 5.659700e-01 5.875410e-01 6.842195e-01 4.725674e-01 4.337022e-01 4.109191e-01 4.327577e-01
<GCONST> 1.279491e+02
<STATE> 3
<MEAN> 39
 5.409503e+00 -1.421119e+01 1.215805e+01 -7.578259e+00 5.977234e+00 2.901904e+00 -1.290536e+01 6.357074e+00 -1.424082e+01 2.860190e+00 2.349023e+00 -2.103275e+00 6.796953e+01 -1.258474e-01 6.713828e-02 1.551850e-01 -6.553090e-02 1.303633e-01 1.099140e-01 1.420012e-02 2.934409e-01 1.051556e-01 -1.064897e-01 3.796628e-02 1.375762e-01 -2.005870e-02 -2.006061e-02 5.725295e-03 6.369840e-02 -1.789632e-02 -2.825067e-02 -4.047079e-02 3.575835e-02 1.371654e-01 6.251372e-02 -3.320194e-02 -5.955486e-02 2.150635e-03 -1.351916e-02
<VARIANCE> 39
 7.890511e+01 4.042022e+01 6.750147e+01 4.540281e+01 4.898563e+01 6.464410e+01 5.158614e+01 4.818017e+01 5.655130e+01 3.780167e+01 3.013146e+01 3.002125e+01 8.727653e+01 1.754831e+00 2.797200e+00 3.733469e+00 3.067609e+00 2.134322e+00 4.591847e+00 2.666381e+00 2.970683e+00 3.102710e+00 2.636055e+00 2.272147e+00 2.138073e+00 2.246118e+00 2.644776e-01 5.356452e-01 5.423915e-01 4.786824e-01 4.384736e-01 7.795555e-01 5.429096e-01 5.260324e-01 6.155850e-01 4.920795e-01 4.268680e-01 3.968419e-01 3.401252e-01
<GCONST> 1.257900e+02
<STATE> 4
<MEAN> 39
 3.748607e+00 -1.349218e+01 1.257864e+01 -7.680774e+00 5.565234e+00 3.866838e+00 -1.193438e+01 7.387589e+00 -1.259452e+01 2.894036e+00 2.234941e+00 -1.831336e+00 6.611823e+01 -1.429506e-01 5.294356e-02 1.862942e-01 -6.274538e-02 1.241356e-01 4.539043e-02 5.032025e-02 3.769794e-01 1.371062e-01 -9.111077e-02 -4.769802e-02 4.501124e-02 -6.251263e-02 3.137380e-02 -4.443177e-02 -2.208621e-02 -1.960296e-02 -3.812882e-02 -8.708777e-02 2.647449e-02 1.328501e-02 -4.555862e-02 -5.226857e-03 -5.856679e-02 -6.082020e-02 4.842839e-02
<VARIANCE> 39
 8.483423e+01 3.644492e+01 6.540490e+01 4.601638e+01 4.352271e+01 5.877788e+01 4.637202e+01 4.180866e+01 5.253967e+01 3.508036e+01 2.979602e+01 2.675929e+01 8.991814e+01 1.495408e+00 2.227530e+00 2.913904e+00 2.725178e+00 1.844721e+00 3.841718e+00 2.354488e+00 2.740109e+00 2.876881e+00 2.110756e+00 1.816574e+00 1.970685e+00 1.677322e+00 2.745430e-01 4.026926e-01 5.032094e-01 4.479262e-01 3.673210e-01 5.505244e-01 4.269578e-01 4.526848e-01 5.008627e-01 4.494267e-01 3.739334e-01 3.329046e-01 2.678216e-01
<GCONST> 1.207073e+02
<TRANSP> 5
 0.000000e+00 1.000000e+00 0.000000e+00 0.000000e+00 0.000000e+00
 0.000000e+00 2.895377e-01 7.104623e-01 0.000000e+00 0.000000e+00
 0.000000e+00 0.000000e+00 2.281960e-01 7.718040e-01 0.000000e+00
 0.000000e+00 0.000000e+00 0.000000e+00 1.846243e-01 8.153756e-01
 0.000000e+00 0.000000e+00 0.000000e+00 0.000000e+00 0.000000e+00
<ENDHMM>
~h "e"
<BEGINHMM>
<NUMSTATES> 5
<STATE> 2
<MEAN> 39
 4.518229e+00 -1.435813e+01 1.258359e+01 -7.802993e+00 5.587877e+00 3.266728e+00 -1.149969e+01 7.752716e+00 -1.304800e+01 3.595034e+00 2.241781e+00 -1.905630e+00 6.739308e+01 -8.122222e-02 1.082611e-01 1.879924e-02 9.141330e-02 4.421220e-03 1.711776e-01 4.957893e-02 -9.693573e-02 1.083926e-01 -4.236116e-03 -1.562199e-02 -5.214161e-02 -1.803732e-01 -4.500263e-02 -4.838382e-02 6.690069e-02 -1.516493e-02 -1.449053e-02 2.068305e-02 -5.188592e-03 2.154818e-03 1.017919e-02 4.757545e-03 -3.825127e-02 -3.637437e-02 -2.587161e-03
<VARIANCE> 39
 8.352889e+01 3.876659e+01 8.168298e+01 5.155113e+01 4.468307e+01 6.005021e+01 5.391175e+01 4.338875e+01 5.485950e+01 3.436852e+01 2.325237e+01 2.722517e+01 8.827029e+01 2.071055e+00 1.985651e+00 3.223738e+00 2.409486e+00 1.975801e+00 3.214950e+00 2.478969e+00 2.506205e+00 2.328531e+00 2.302279e+00 1.743726e+00 1.975486e+00 1.690575e+00 2.873999e-01 3.574427e-01 5.865282e-01 4.283759e-01 3.538990e-01 6.074546e-01 4.363120e-01 4.584087e-01 4.779435e-01 4.265476e-01 3.294033e-01 3.796624e-01 2.476365e-01
<GCONST> 1.209424e+02
<STATE> 3
<MEAN> 39
 4.358637e+00 -1.429134e+01 1.273908e+01 -7.739213e+00 5.546651e+00 3.571322e+00 -1.134233e+01 7.708203e+00 -1.289482e+01 3.594205e+00 2.105494e+00 -2.094709e+00 6.709306e+01 -1.334368e-01 6.234750e-02 6.948967e-02 5.347005e-02 -2.493203e-02 1.618612e-01 5.525295e-02 -5.629658e-02 1.108282e-01 -7.346699e-03 -6.880005e-02 -1.030452e-01 -1.926173e-01 -2.210890e-02 -3.298065e-02 3.779965e-02 -3.770924e-02 -2.083463e-02 -1.636366e-02 1.715770e-03 2.822188e-02 -1.075592e-02 3.066142e-04 -1.522122e-02 -3.988908e-03 2.029816e-02
<VARIANCE> 39
 8.392318e+01 4.108190e+01 7.689963e+01 5.277214e+01 4.424702e+01 5.838544e+01 5.372302e+01 4.364206e+01 5.394316e+01 3.457531e+01 2.338934e+01 2.578579e+01 8.717029e+01 1.846242e+00 1.930977e+00 3.066309e+00 2.405892e+00 1.933900e+00 3.360588e+00 2.456986e+00 2.413759e+00 2.271570e+00 2.246402e+00 1.605496e+00 2.045135e+00 1.719341e+00 2.598736e-01 3.590682e-01 5.295936e-01 4.186096e-01 3.454591e-01 5.799493e-01 4.116574e-01 4.581625e-01 4.466733e-01 4.227058e-01 3.334802e-01 3.682307e-01 2.471917e-01
<GCONST> 1.201150e+02
<STATE> 4
<MEAN> 39
 2.326950e+00 -1.362751e+01 1.280301e+01 -7.565660e+00 4.881795e+00 4.456801e+00 -1.037916e+01 8.224616e+00 -1.149813e+01 3.676763e+00 2.143652e+00 -2.279009e+00 6.468246e+01 -1.656168e-01 2.456741e-02 7.434682e-02 -2.950560e-02 -4.397924e-02 7.460758e-02 4.232198e-02 1.708075e-02 8.810747e-02 5.393543e-03 -4.711041e-02 -5.610028e-02 -1.585478e-01 2.685089e-02 -4.084807e-02 3.394338e-02 -4.883282e-02 -2.923448e-02 -3.181434e-02 3.325040e-03 2.810175e-02 -3.928331e-02 4.568931e-03 9.489404e-04 3.388618e-02 6.713776e-02
<VARIANCE> 39
 8.361880e+01 3.556015e+01 6.203054e+01 4.420678e+01 3.741256e+01 5.019796e+01 4.600188e+01 3.886005e+01 5.164601e+01 2.863926e+01 2.024738e+01 2.119601e+01 8.962046e+01 1.538158e+00 1.741049e+00 2.707961e+00 2.086116e+00 1.760082e+00 3.016850e+00 2.072016e+00 2.191754e+00 2.120202e+00 1.990843e+00 1.438470e+00 1.748103e+00 1.518657e+00 2.247998e-01 3.055095e-01 4.285316e-01 3.676011e-01 2.974652e-01 4.954798e-01 3.465682e-01 3.979980e-01 3.896746e-01 3.692260e-01 3.070911e-01 3.358110e-01 2.142032e-01
<GCONST> 1.149803e+02
<TRANSP> 5
 0.000000e+00 1.000000e+00 0.000000e+00 0.000000e+00 0.000000e+00
 0.000000e+00 1.556333e-01 8.443667e-01 0.000000e+00 0.000000e+00
 0.000000e+00 0.000000e+00 1.533929e-01 8.466071e-01 0.000000e+00
 0.000000e+00 0.000000e+00 0.000000e+00 2.735081e-01 7.264919e-01
 0.000000e+00 0.000000e+00 0.000000e+00 0.000000e+00 0.000000e+00
<ENDHMM>
~h "f"
<BEGINHMM>
<NUMSTATES> 5
<STATE> 2
<MEAN> 39
 7.596529e-01 -1.310021e+01 1.333038e+01 -8.585972e+00 5.035579e+00 3.557253e+00 -1.049333e+01 8.832294e+00 -1.197440e+01 4.078647e+00 2.247015e+00 -2.391683e+00 6.341389e+01 -2.872505e-03 -2.351159e-03 1.683526e-01 2.390472e-01 4.701928e-01 1.673001e-02 -1.397924e-01 1.124740e-01 2.288858e-02 2.376824e-01 -2.496143e-01 -2.687546e-01 -1.048296e-02 -6.984858e-02 -1.793110e-01 9.627941e-02 3.878614e-02 -1.275146e-02 8.524086e-02 3.895905e-02 -3.120498e-02 2.560808e-02 3.353884e-02 -1.026380e-01 1.216755e-02 8.040348e-02
<VARIANCE> 39
 8.474274e+01 4.479290e+01 5.395399e+01 4.466471e+01 4.179274e+01 6.361208e+01 3.763852e+01 3.287613e+01 7.324651e+01 1.952906e+01 2.054923e+01 1.732250e+01 8.206602e+01 1.422171e+00 1.461053e+00 1.409187e+00 1.926826e+00 1.389501e+00 2.887837e+00 1.643747e+00 2.519520e+00 2.158436e+00 1.639850e+00 1.161726e+00 1.844948e+00 8.391895e-01 2.124433e-01 2.459684e-01 3.598634e-01 3.398420e-01 2.924488e-01 5.072551e-01 3.761418e-01 3.572427e-01 3.505020e-01 2.489450e-01 3.683612e-01 2.509762e-01 1.274209e-01
<GCONST> 1.108038e+02
<STATE> 3
<MEAN> 39
 9.464280e-01 -1.328073e+01 1.345510e+01 -8.260381e+00 5.712515e+00 3.534798e+00 -1.059799e+01 8.538103e+00 -1.255775e+01 4.362728e+00 1.496164e+00 -3.157550e+00 6.365432e+01 -4.703860e-02 -2.011655e-01 1.919230e-01 3.650155e-01 4.014465e-01 1.043662e-01 -1.999398e-01 -9.726279e-02 6.949803e-02 1.476582e-01 -3.246207e-01 -2.660902e-01 8.164319e-02 -1.956824e-02 -1.060119e-01 3.785573e-02 7.178105e-02 -2.007581e-02 9.049488e-02 7.149949e-03 -3.456157e-02 8.482421e-03 -1.003301e-01 -1.975414e-02 5.266686e-02 3.155541e-02
<VARIANCE> 39
 8.294132e+01 4.976598e+01 5.466058e+01 4.480945e+01 4.539760e+01 6.575198e+01 4.039582e+01 3.078733e+01 5.660017e+01 2.098492e+01 1.924922e+01 1.883422e+01 7.683098e+01 1.933990e+00 1.985680e+00 1.977677e+00 2.519552e+00 1.637458e+00 2.979670e+00 1.952156e+00 2.486196e+00 2.186526e+00 2.072847e+00 1.605948e+00 1.986993e+00 8.855119e-01 2.110877e-01 2.547063e-01 3.187606e-01 3.391253e-01 2.473410e-01 4.974947e-01 2.633005e-01 4.685838e-01 3.546335e-01 2.585461e-01 3.742276e-01 3.544559e-01 1.252220e-01
<GCONST> 1.130916e+02
<STATE> 4
<MEAN> 39
 5.377036e-01 -1.324727e+01 1.417325e+01 -7.198552e+00 5.842561e+00 3.539238e+00 -1.077839e+01 8.806548e+00 -1.155303e+01 4.667018e+00 9.863466e-01 -3.250510e+00 6.311457e+01 -3.838307e-02 -2.009504e-01 1.792762e-01 4.219038e-01 3.480420e-01 2.787240e-01 -6.200992e-02 -8.943822e-02 -1.207141e-02 -1.312295e-01 -2.396981e-01 -1.567969e-01 2.858550e-02 2.960857e-02 -1.048080e-02 -4.039815e-02 1.675172e-03 -5.658127e-03 7.162950e-02 1.255316e-02 2.625947e-02 -6.711362e-02 -1.422983e-01 9.443155e-02 7.321019e-02 -3.816761e-03
<VARIANCE> 39
 8.216087e+01 5.223672e+01 4.597081e+01 4.850130e+01 4.666458e+01 7.165794e+01 4.277710e+01 3.603172e+01 5.510580e+01 2.231154e+01 1.780677e+01 2.140648e+01 7.200058e+01 2.284712e+00 2.120501e+00 1.959720e+00 2.368048e+00 1.620718e+00 2.926830e+00 1.870975e+00 2.031578e+00 1.909300e+00 1.549750e+00 1.678233e+00 1.500302e+00 8.879714e-01 2.345262e-01 2.957892e-01 3.276796e-01 3.759175e-01 2.115762e-01 4.998904e-01 2.880453e-01 5.428234e-01 3.062253e-01 3.082227e-01 2.766181e-01 4.070129e-01 1.536006e-01
<GCONST> 1.131528e+02
<TRANSP> 5
 0.000000e+00 1.000000e+00 0.000000e+00 0.000000e+00 0.000000e+00
 0.000000e+00 1.282818e-01 8.717183e-01 0.000000e+00 0.000000e+00
 0.000000e+00 0.000000e+00 1.218598e-01 8.781402e-01 0.000000e+00
 0.000000e+00 0.000000e+00 0.000000e+00 2.544916e-01 7.455084e-01
 0.000000e+00 0.000000e+00 0.000000e+00 0.000000e+00 0.000000e+00
<ENDHMM>
~h "g"
<BEGINHMM>
<NUMSTATES> 5
<STATE> 2
<MEAN> 39
 7.083438e+00 -1.491024e+01 1.406117e+01 -7.507878e+00 9.226682e+00 2.620883e+00 -1.702232e+01 5.170212e+00 -1.523481e+01 3.352218e+00 1.457741e+00 -4.513140e+00 7.055415e+01 4.476739e-01 2.602168e-01 7.265607e-02 3.414968e-01 3.525478e-01 -6.729645e-02 -4.690090e-01 -1.846891e-01 -5.613585e-02 3.202661e-02 4.644042e-02 -3.709761e-01 1.070974e-01 -3.230764e-02 1.977988e-02 3.914585e-02 -3.752758e-02 -1.121522e-01 6.864999e-03 1.028142e-01 -1.675135e-02 -1.449428e-02 5.593383e-02 2.744332e-02 -9.856408e-03 1.326968e-03
<VARIANCE> 39
 7.174900e+01 5.411628e+01 8.705965e+01 8.266972e+01 7.482445e+01 6.023914e+01 9.078285e+01 3.783586e+01 3.862521e+01 3.816397e+01 1.567085e+01 4.871587e+01 4.794486e+01 4.503910e+00 4.751719e+00 4.970566e+00 3.864516e+00 4.431298e+00 6.631217e+00 5.829503e+00 3.396949e+00 4.410282e+00 2.452154e+00 1.845682e+00 4.182638e+00 3.414904e+00 5.683661e-01 8.615599e-01 7.155384e-01 6.387582e-01 7.252607e-01 1.123467e+00 1.010931e+00 6.967587e-01 8.926255e-01 5.226119e-01 3.462791e-01 9.582065e-01 5.126848e-01
<GCONST> 1.366338e+02
<STATE> 3
<MEAN> 39
 8.328492e+00 -1.487156e+01 1.402516e+01 -6.707899e+00 9.002053e+00 2.326243e+00 -1.789531e+01 4.698683e+00 -1.510183e+01 3.513949e+00 2.099691e+00 -5.597035e+00 7.112863e+01 2.769521e-01 2.109685e-01 -2.262641e-01 -5.683017e-02 -2.513422e-01 -3.160497e-01 6.423220e-02 -1.158132e-01 3.816319e-02 1.988103e-01 1.912701e-01 1.321430e-01 7.304422e-02 -9.679097e-02 -1.129194e-02 5.884741e-02 -2.190374e-02 -5.602655e-02 -1.784520e-02 1.096080e-01 7.852146e-02 1.174609e-02 -1.515948e-03 3.434775e-02 1.444105e-01 -2.551441e-02
<VARIANCE> 39
 5.131448e+01 4.639834e+01 6.980054e+01 6.585017e+01 6.543130e+01 5.424581e+01 9.362097e+01 4.488001e+01 3.349708e+01 4.004752e+01 2.225183e+01 4.976995e+01 4.139664e+01 3.186757e+00 5.205794e+00 5.073779e+00 4.074666e+00 3.955490e+00 5.725569e+00 5.717705e+00 2.670841e+00 3.625380e+00 2.596751e+00 2.157827e+00 5.111317e+00 2.891983e+00 3.234302e-01 8.833875e-01 7.014914e-01 5.872399e-01 6.543261e-01 8.497095e-01 9.091541e-01 5.755804e-01 7.277872e-01 4.935790e-01 3.554097e-01 1.007159e+00 4.910375e-01
<GCONST> 1.335895e+02
<STATE> 4
<MEAN> 39
 7.517560e+00 -1.487088e+01 1.226599e+01 -9.537731e+00 5.260215e+00 1.823032e+00 -1.431626e+01 6.985206e+00 -1.348315e+01 3.846841e+00 2.606513e+00 -3.153734e+00 7.005868e+01 -2.362457e-01 2.718032e-01 2.714484e-01 -5.237947e-02 -5.085962e-01 -1.584068e-01 5.317002e-01 3.238432e-01 2.958062e-01 1.254818e-01 2.369212e-01 4.989118e-01 -2.572334e-01 -1.441654e-01 1.848546e-02 9.537539e-02 1.598765e-01 1.263199e-01 9.865876e-02 -2.334564e-02 4.236060e-02 -1.456257e-02 -1.786056e-01 -5.760765e-02 3.374715e-02 -9.209445e-02
<VARIANCE> 39
 7.023580e+01 4.073453e+01 8.183508e+01 4.448412e+01 5.912770e+01 5.608518e+01 6.166760e+01 4.841985e+01 4.421853e+01 4.128024e+01 2.831114e+01 3.487617e+01 5.501608e+01 2.608732e+00 4.266039e+00 5.071333e+00 4.559518e+00 3.961302e+00 4.784493e+00 4.177872e+00 2.192322e+00 3.822902e+00 2.200694e+00 2.453970e+00 3.880100e+00 2.643219e+00 2.479081e-01 6.092404e-01 6.967808e-01 4.954681e-01 5.559465e-01 7.358962e-01 6.393576e-01 3.922470e-01 5.919057e-01 3.897342e-01 3.694064e-01 6.262380e-01 2.990423e-01
<GCONST> 1.290504e+02
<TRANSP> 5
 0.000000e+00 1.000000e+00 0.000000e+00 0.000000e+00 0.000000e+00
 0.000000e+00 8.129387e-01 1.870613e-01 0.000000e+00 0.000000e+00
 0.000000e+00 0.000000e+00 6.705401e-01 3.294599e-01 0.000000e+00
 0.000000e+00 0.000000e+00 0.000000e+00 3.278492e-01 6.721508e-01
 0.000000e+00 0.000000e+00 0.000000e+00 0.000000e+00 0.000000e+00
<ENDHMM>
~h "h"
<BEGINHMM>
<NUMSTATES> 5
<STATE> 2
<MEAN> 39
 7.744390e+00 -1.523727e+01 1.259353e+01 -8.115789e+00 5.981987e+00 8.940392e-01 -1.229973e+01 8.046531e+00 -1.642626e+01 -2.311399e-01 -2.958143e-01 -2.600217e+00 7.186472e+01 6.773337e-01 -3.642348e-01 -8.039256e-02 3.117371e-01 2.795346e-01 -5.842702e-01 -5.320222e-01 -1.259786e-01 -5.737935e-01 -3.913273e-01 -3.345051e-02 7.570443e-02 8.150898e-01 6.689022e-02 8.696023e-02 -2.512153e-02 -1.815141e-02 1.227512e-02 5.471893e-02 -3.178068e-02 7.159593e-03 7.975574e-02 -1.279937e-02 8.538300e-03 9.840228e-03 -3.013312e-02
<VARIANCE> 39
 7.768684e+01 5.884140e+01 9.495033e+01 5.662964e+01 6.569426e+01 6.380468e+01 5.446128e+01 4.455539e+01 4.544345e+01 4.871730e+01 3.477743e+01 2.923195e+01 5.489047e+01 5.008580e+00 5.181073e+00 5.179852e+00 4.073424e+00 4.350634e+00 6.625263e+00 4.789153e+00 4.945503e+00 3.889268e+00 3.610206e+00 2.724483e+00 2.769020e+00 4.346912e+00 7.429454e-01 8.760928e-01 9.346084e-01 6.941159e-01 6.977963e-01 1.172570e+00 8.394356e-01 9.300646e-01 6.718618e-01 6.614583e-01 4.828104e-01 5.399415e-01 6.278450e-01
<GCONST> 1.384942e+02
<STATE> 3
<MEAN> 39
 9.921540e+00 -1.582333e+01 1.251320e+01 -7.951961e+00 6.627090e+00 -5.727920e-01 -1.400285e+01 8.598186e+00 -1.705415e+01 -1.633052e+00 -5.588672e-01 -2.628211e+00 7.411697e+01 1.636306e-01 -5.429847e-02 1.669889e-02 1.491439e-02 1.568891e-01 -6.920231e-02 -2.452658e-01 -7.369567e-02 -2.803824e-02 4.213155e-02 5.080422e-02 2.608305e-02 1.977889e-01 -1.142857e-01 3.195730e-02 5.750937e-02 -5.088123e-02 -3.647845e-02 9.937123e-02 7.155726e-02 -1.942764e-02 6.357473e-02 9.107815e-02 2.244134e-02 -1.034364e-03 -8.523868e-02
<VARIANCE> 39
 4.837801e+01 4.706816e+01 8.818890e+01 6.808469e+01 7.136736e+01 7.524451e+01 6.663668e+01 5.530453e+01 4.217747e+01 5.828192e+01 3.538238e+01 3.875118e+01 3.860083e+01 4.353327e+00 4.605357e+00 6.334610e+00 4.341043e+00 4.225235e+00 7.643978e+00 5.324900e+00 5.202232e+00 3.815499e+00 4.366288e+00 2.873338e+00 3.679655e+00 3.220741e+00 5.908773e-01 8.415025e-01 9.786366e-01 7.923911e-01 6.883737e-01 1.321953e+00 9.580857e-01 1.005862e+00 7.059041e-01 8.131864e-01 4.843107e-01 7.510896e-01 5.441623e-01
<GCONST> 1.397831e+02
<STATE> 4
<MEAN> 39
 6.184265e+00 -1.668875e+01 1.633849e+01 -9.133611e+00 6.185028e+00 2.546017e+00 -1.248093e+01 5.998722e+00 -1.734667e+01 3.507760e+00 4.442014e-01 -3.383840e+00 7.276261e+01 1.100181e-02 2.101327e-02 -2.568290e-02 -4.987599e-02 -3.495147e-02 4.228804e-03 5.350794e-02 2.472680e-02 1.661935e-02 4.619432e-02 1.962644e-03 7.476531e-03 -1.619552e-02 4.858007e-03 8.523305e-03 -1.179838e-02 -7.933944e-05 -4.677441e-03 -5.651361e-03 7.090366e-03 8.812389e-03 2.343853e-03 -4.945408e-03 -2.007140e-03 1.259406e-04 -5.260290e-03
<VARIANCE> 39
 8.361526e+01 5.223043e+01 1.288711e+02 7.767099e+01 6.482066e+01 7.567642e+01 6.831819e+01 5.731080e+01 4.437617e+01 5.828946e+01 2.842645e+01 3.111553e+01 4.427192e+01 5.378179e+00 4.361205e+00 7.914530e+00 4.891662e+00 3.575437e+00 6.568892e+00 4.421401e+00 4.026627e+00 3.662105e+00 3.834234e+00 2.378526e+00 2.763783e+00 2.850555e+00 7.558966e-01 8.017784e-01 1.190784e+00 8.348456e-01 5.865433e-01 1.196488e+00 7.715850e-01 7.467363e-01 7.054113e-01 6.878221e-01 4.483573e-01 5.425900e-01 4.900018e-01
<GCONST> 1.386322e+02
<TRANSP> 5
 0.000000e+00 1.000000e+00 0.000000e+00 0.000000e+00 0.000000e+00
 0.000000e+00 7.205069e-01 2.794931e-01 0.000000e+00 0.000000e+00
 0.000000e+00 0.000000e+00 8.586407e-01 1.413593e-01 0.000000e+00
 0.000000e+00 0.000000e+00 0.000000e+00 9.868842e-01 1.311574e-02
 0.000000e+00 0.000000e+00 0.000000e+00 0.000000e+00 0.000000e+00
<ENDHMM>
~h "i"
<BEGINHMM>
<NUMSTATES> 5
<STATE> 2
<MEAN> 39
 5.358695e+00 -1.608545e+01 1.447001e+01 -6.967875e+00 7.493494e+00 2.438888e+00 -1.436981e+01 5.735616e+00 -1.551431e+01 3.842715e+00 2.229373e+00 -3.119765e+00 6.997383e+01 8.746403e-02 1.357982e-01 -1.832148e-01 7.500215e-02 -1.051711e-02 1.864204e-02 1.043719e-02 -7.760352e-02 8.101816e-02 6.095444e-02 1.554523e-02 -8.496680e-02 -1.106978e-01 -1.091823e-01 -5.443424e-04 5.964394e-02 -7.404629e-02 -1.023482e-01 8.447245e-02 1.013487e-01 3.140418e-02 7.163975e-02 -2.874363e-03 -3.226063e-02 2.087294e-02 -5.353057e-02
<VARIANCE> 39
 7.469688e+01 4.196342e+01 8.634349e+01 6.455698e+01 5.961334e+01 6.758948e+01 6.931558e+01 4.812466e+01 5.795541e+01 4.415025e+01 2.427417e+01 2.743036e+01 7.428777e+01 3.814749e+00 3.191294e+00 4.966375e+00 3.695765e+00 3.440851e+00 4.263181e+00 3.516615e+00 2.494881e+00 3.157413e+00 2.696514e+00 1.913787e+00 1.853948e+00 2.461793e+00 4.590782e-01 5.307664e-01 7.160364e-01 6.455756e-01 5.542696e-01 7.587739e-01 5.794110e-01 4.547885e-01 5.240030e-01 4.880091e-01 3.399802e-01 3.969243e-01 3.493432e-01
<GCONST> 1.291974e+02
<STATE> 3
<MEAN> 39
 5.136561e+00 -1.593268e+01 1.442902e+01 -7.147135e+00 6.961142e+00 2.702767e+00 -1.398936e+01 5.816599e+00 -1.490373e+01 4.105291e+00 2.051215e+00 -3.247394e+00 6.963660e+01 -1.636857e-01 1.841594e-01 -9.658259e-02 -7.405876e-02 -1.856893e-01 2.109242e-01 2.261976e-01 4.571392e-02 2.455620e-01 -4.199821e-03 -4.837713e-02 -1.543073e-02 -2.855441e-01 -1.032234e-01 -1.144167e-02 3.777114e-02 -6.709311e-02 -6.079127e-02 3.847950e-02 5.536102e-02 4.828734e-02 4.442295e-02 -3.335267e-02 -1.855382e-02 4.694024e-02 -4.884887e-02
<VARIANCE> 39
 7.400600e+01 3.945526e+01 9.017627e+01 5.901547e+01 5.708397e+01 6.912294e+01 6.885656e+01 4.672987e+01 5.729819e+01 4.510988e+01 2.512293e+01 2.660460e+01 7.554390e+01 3.456239e+00 3.103013e+00 5.028121e+00 3.639665e+00 3.583431e+00 4.453586e+00 3.434953e+00 2.518291e+00 2.978848e+00 2.507024e+00 1.889937e+00 2.034147e+00 2.556564e+00 4.187349e-01 5.195004e-01 7.044416e-01 5.625799e-01 5.896932e-01 7.396781e-01 5.587063e-01 4.452152e-01 5.223513e-01 5.157475e-01 3.553714e-01 4.005667e-01 3.496300e-01
<GCONST> 1.287990e+02
<STATE> 4
<MEAN> 39
 3.723858e+00 -1.482293e+01 1.388914e+01 -7.572462e+00 5.583083e+00 3.674216e+00 -1.244469e+01 6.575006e+00 -1.328658e+01 4.053898e+00 2.157481e+00 -2.914925e+00 6.738974e+01 -2.954032e-01 1.686303e-01 -7.513084e-02 -1.081012e-01 -2.228861e-01 2.078289e-01 3.121727e-01 1.343209e-01 2.322680e-01 -1.180207e-01 -5.102532e-02 6.704631e-02 -3.701763e-01 -1.564537e-02 -6.636098e-02 7.363030e-02 -4.799013e-02 2.861667e-02 3.179274e-03 2.230464e-02 3.706358e-02 -4.878156e-02 2.793200e-02 -3.291328e-03 4.049201e-02 5.114546e-02
<VARIANCE> 39
 7.792139e+01 3.734900e+01 8.466320e+01 5.477334e+01 4.984008e+01 6.281792e+01 5.754982e+01 4.097333e+01 5.725856e+01 3.841594e+01 2.279230e+01 2.168537e+01 8.319402e+01 2.191859e+00 2.492516e+00 3.710608e+00 2.821325e+00 2.554072e+00 3.276397e+00 2.703186e+00 2.219720e+00 2.554368e+00 2.365318e+00 1.666518e+00 1.739949e+00 1.884993e+00 3.270489e-01 4.261357e-01 5.792523e-01 4.645099e-01 4.601434e-01 5.770162e-01 4.816462e-01 3.997908e-01 4.528058e-01 4.419918e-01 3.215490e-01 3.099906e-01 2.836586e-01
<GCONST> 1.222585e+02
<TRANSP> 5
 0.000000e+00 1.000000e+00 0.000000e+00 0.000000e+00 0.000000e+00
 0.000000e+00 3.501997e-01 6.498003e-01 0.000000e+00 0.000000e+00
 0.000000e+00 0.000000e+00 3.552153e-01 6.447847e-01 0.000000e+00
 0.000000e+00 0.000000e+00 0.000000e+00 2.548523e-01 7.451477e-01
 0.000000e+00 0.000000e+00 0.000000e+00 0.000000e+00 0.000000e+00
<ENDHMM>
~h "j"
<BEGINHMM>
<NUMSTATES> 5
<STATE> 2
<MEAN> 39
 4.599242e+00 -1.401965e+01 1.198055e+01 -8.033959e+00 5.900682e+00 2.282716e+00 -1.200920e+01 8.373508e+00 -1.318806e+01 3.143293e+00 1.922736e+00 -2.262203e+00 6.728560e+01 -2.375141e-02 1.503055e-01 -2.632429e-02 1.746421e-01 -2.338614e-02 5.601282e-02 -1.341848e-02 -1.650270e-01 -7.452624e-02 -5.405400e-02 1.006952e-01 -6.157901e-02 -1.443403e-01 -9.015729e-03 -5.100643e-02 9.274634e-02 -1.141828e-04 -5.607352e-03 1.781848e-02 1.045818e-02 -1.063975e-02 -1.504789e-02 1.780081e-02 -5.704764e-02 -3.034491e-02 3.977289e-02
<VARIANCE> 39
 9.095795e+01 3.490359e+01 7.330555e+01 4.866545e+01 5.279668e+01 6.965421e+01 5.694775e+01 3.987441e+01 5.873047e+01 3.141011e+01 2.059291e+01 2.128351e+01 9.230634e+01 2.415363e+00 1.859308e+00 3.333785e+00 2.215531e+00 2.139153e+00 3.481046e+00 2.577088e+00 2.349231e+00 2.491660e+00 2.336440e+00 1.492749e+00 1.620921e+00 1.750294e+00 3.203368e-01 2.959672e-01 5.285980e-01 3.423484e-01 3.336491e-01 5.952856e-01 4.130562e-01 4.207067e-01 4.296237e-01 4.225212e-01 2.833059e-01 3.505877e-01 2.212202e-01
<GCONST> 1.195448e+02
<STATE> 3
<MEAN> 39
 4.525757e+00 -1.381251e+01 1.225644e+01 -7.748410e+00 5.698080e+00 2.488392e+00 -1.200023e+01 8.103210e+00 -1.328425e+01 3.108290e+00 2.008891e+00 -2.477532e+00 6.700655e+01 -3.275342e-02 5.779655e-02 1.591450e-01 1.535638e-01 -4.932269e-02 8.845761e-02 5.303927e-03 -1.485170e-01 -6.509456e-02 -3.865646e-02 -2.383506e-02 -6.347425e-02 -8.618800e-02 2.865738e-03 -9.772861e-02 6.462646e-02 3.624538e-03 3.227685e-02 -8.812205e-03 -2.627555e-02 -6.869076e-03 -8.784375e-03 1.084518e-02 -6.527599e-02 -2.205922e-02 6.781929e-02
<VARIANCE> 39
 8.862920e+01 3.849168e+01 6.824618e+01 5.034614e+01 5.261694e+01 6.722507e+01 5.908688e+01 4.042910e+01 5.779525e+01 3.026700e+01 2.088127e+01 2.109654e+01 8.965699e+01 2.318993e+00 1.862562e+00 2.872024e+00 2.239077e+00 1.964256e+00 3.319882e+00 2.632895e+00 2.310246e+00 2.578192e+00 2.139027e+00 1.529718e+00 1.544868e+00 2.100086e+00 3.496104e-01 3.302014e-01 4.879095e-01 3.551121e-01 3.269167e-01 5.643326e-01 4.552834e-01 4.087476e-01 4.427037e-01 4.252624e-01 2.868925e-01 3.102749e-01 2.298199e-01
<GCONST> 1.194259e+02
<STATE> 4
<MEAN> 39
 -9.977539e-02 -1.307870e+01 1.222555e+01 -7.753606e+00 3.777850e+00 4.779039e+00 -9.475284e+00 9.076296e+00 -9.903072e+00 3.556384e+00 2.232092e+00 -1.992669e+00 6.191438e+01 -1.472953e-02 -7.886884e-02 9.029429e-02 1.224971e-01 4.571123e-02 -9.684714e-03 -3.464865e-02 -6.619409e-02 -1.982180e-02 7.969880e-03 -3.470051e-02 -5.719436e-02 1.591208e-02 3.511802e-02 -5.533172e-02 2.715719e-02 5.047955e-04 3.523916e-02 -4.847314e-04 -1.992790e-02 -1.325376e-02 -4.308192e-02 3.175733e-03 -1.041805e-02 -1.084519e-02 6.493673e-02
<VARIANCE> 39
 8.053651e+01 2.738215e+01 4.315335e+01 3.290141e+01 3.364301e+01 5.085490e+01 4.403127e+01 2.943159e+01 4.931520e+01 1.962983e+01 1.522917e+01 1.539697e+01 8.771059e+01 1.355538e+00 1.280562e+00 1.666738e+00 1.546190e+00 1.299129e+00 1.991126e+00 1.742367e+00 1.742187e+00 1.892799e+00 1.472347e+00 1.146024e+00 1.130091e+00 1.247124e+00 2.050683e-01 2.394691e-01 2.783327e-01 2.698947e-01 2.251027e-01 3.583990e-01 3.106145e-01 2.932698e-01 3.407105e-01 2.916296e-01 2.171850e-01 1.984762e-01 1.597547e-01
<GCONST> 1.053131e+02
<TRANSP> 5
 0.000000e+00 1.000000e+00 0.000000e+00 0.000000e+00 0.000000e+00
 0.000000e+00 1.847887e-01 8.152114e-01 0.000000e+00 0.000000e+00
 0.000000e+00 0.000000e+00 1.919575e-01 8.080425e-01 0.000000e+00
 0.000000e+00 0.000000e+00 0.000000e+00 4.771801e-01 5.228199e-01
 0.000000e+00 0.000000e+00 0.000000e+00 0.000000e+00 0.000000e+00
<ENDHMM>
~h "k"
<BEGINHMM>
<NUMSTATES> 5
<STATE> 2
<MEAN> 39
 2.414109e+00 -1.520558e+01 1.283173e+01 -9.252146e+00 4.617220e+00 4.414715e+00 -1.033039e+01 7.807350e+00 -1.343090e+01 3.974990e+00 2.062849e+00 -2.390712e+00 6.556129e+01 5.972262e-02 -8.771650e-02 -1.726237e-02 -3.535427e-01 -1.844410e-01 3.054906e-02 9.016650e-02 1.642045e-02 -1.280008e-01 -3.857081e-03 -1.046441e-01 -4.510225e-02 -1.129243e-03 1.066912e-01 -1.237885e-01 5.699927e-02 -7.925338e-02 2.245482e-02 -1.004867e-01 -8.551747e-02 -4.610163e-02 -1.121040e-01 5.850302e-02 -2.913352e-02 -2.353180e-02 2.305837e-01
<VARIANCE> 39
 6.846448e+01 4.057771e+01 5.944540e+01 7.385194e+01 4.403605e+01 5.899176e+01 5.442591e+01 4.588520e+01 5.755393e+01 3.467411e+01 2.074669e+01 2.341230e+01 7.713823e+01 2.742343e+00 4.311293e+00 3.466430e+00 6.598052e+00 3.224139e+00 4.739418e+00 4.019115e+00 3.037757e+00 4.018706e+00 2.817753e+00 1.948326e+00 2.217014e+00 5.127442e+00 3.765445e-01 8.319219e-01 6.566043e-01 1.406305e+00 5.269113e-01 7.984235e-01 6.828907e-01 5.351382e-01 7.422643e-01 5.715177e-01 3.670161e-01 3.844928e-01 8.202012e-01
<GCONST> 1.320357e+02
<STATE> 3
<MEAN> 39
 3.342287e+00 -1.575634e+01 1.292193e+01 -1.065642e+01 4.297810e+00 4.121559e+00 -1.039919e+01 7.759449e+00 -1.450149e+01 3.914061e+00 1.371570e+00 -2.747219e+00 6.676083e+01 3.118314e-01 -1.266609e-01 2.837107e-02 -1.238449e-01 -3.290128e-02 -2.899721e-01 -1.139882e-01 6.238361e-02 -1.712884e-01 -6.373723e-02 -1.162477e-01 -4.047297e-02 3.667195e-01 4.879205e-02 2.791113e-02 -1.036659e-02 1.536333e-01 3.197588e-02 -1.108423e-01 -1.057411e-01 -3.504948e-02 4.583019e-02 -1.333626e-02 4.080062e-02 1.336407e-02 5.069835e-02
<VARIANCE> 39
 6.596568e+01 4.281168e+01 5.809079e+01 8.990591e+01 5.409050e+01 6.484560e+01 5.912091e+01 5.202786e+01 5.713932e+01 3.401061e+01 2.129183e+01 2.611655e+01 6.874725e+01 3.116565e+00 4.295125e+00 3.998109e+00 8.533978e+00 3.955065e+00 5.479291e+00 4.206385e+00 3.197344e+00 4.397574e+00 2.671809e+00 1.865019e+00 2.323739e+00 4.909711e+00 4.345345e-01 7.519260e-01 7.179258e-01 1.600573e+00 6.798103e-01 9.891337e-01 7.716715e-01 5.510002e-01 7.343017e-01 5.594730e-01 3.451650e-01 3.985233e-01 7.423072e-01
<GCONST> 1.344189e+02
<STATE> 4
<MEAN> 39
 2.761963e+00 -1.450131e+01 1.258529e+01 -9.576441e+00 3.950483e+00 4.179967e+00 -9.730595e+00 8.443052e+00 -1.291926e+01 3.668978e+00 2.005744e+00 -2.271241e+00 6.541816e+01 7.596321e-02 -2.024113e-02 9.842024e-02 1.616181e-01 -1.210128e-01 -3.032474e-01 -1.997548e-01 1.307188e-02 1.017705e-01 -3.543310e-02 8.472956e-03 5.676862e-03 9.321707e-02 4.106652e-02 -9.644931e-03 1.427766e-02 -3.251680e-02 -1.530775e-02 -1.566288e-02 -4.364299e-02 -4.707740e-02 -4.777835e-02 2.450918e-02 1.729390e-02 2.835835e-04 7.336289e-02
<VARIANCE> 39
 7.406630e+01 3.737067e+01 6.000775e+01 6.064445e+01 4.804941e+01 6.089399e+01 4.750172e+01 5.042009e+01 5.261411e+01 2.991726e+01 1.978609e+01 2.475430e+01 7.254096e+01 2.426390e+00 3.197605e+00 3.461021e+00 4.403157e+00 2.642425e+00 4.621897e+00 2.684613e+00 2.857892e+00 3.239558e+00 2.436577e+00 1.604203e+00 1.915023e+00 3.220256e+00 3.417303e-01 4.727936e-01 5.526342e-01 6.951913e-01 5.085779e-01 7.308310e-01 5.247748e-01 4.481048e-01 5.407864e-01 3.963576e-01 2.802934e-01 3.441024e-01 4.431788e-01
<GCONST> 1.251659e+02
<TRANSP> 5
 0.000000e+00 1.000000e+00 0.000000e+00 0.000000e+00 0.000000e+00
 0.000000e+00 4.197050e-01 5.802950e-01 0.000000e+00 0.000000e+00
 0.000000e+00 0.000000e+00 4.331107e-01 5.668893e-01 0.000000e+00
 0.000000e+00 0.000000e+00 0.000000e+00 2.273377e-01 7.726623e-01
 0.000000e+00 0.000000e+00 0.000000e+00 0.000000e+00 0.000000e+00
<ENDHMM>
~h "l"
<BEGINHMM>
<NUMSTATES> 5
<STATE> 2
<MEAN> 39
 8.570670e+00 -1.452458e+01 1.147328e+01 -9.604139e+00 4.888190e+00 -8.426961e-03 -1.149444e+01 9.899886e+00 -1.523632e+01 6.882534e-01 -2.909099e-01 -2.621643e+00 7.147614e+01 4.955960e-01 6.989023e-02 -3.414776e-01 6.384911e-02 -1.958661e-03 -4.148656e-01 -1.873146e-01 1.628628e-02 -1.740941e-01 -2.589592e-01 -3.421170e-02 6.833339e-02 3.221085e-01 -7.750096e-02 -2.250252e-02 3.108515e-02 1.056435e-02 1.275890e-02 2.188924e-02 -1.441837e-03 -1.851735e-02 2.599751e-02 6.255468e-02 5.905706e-02 2.580310e-02 -2.662902e-02
<VARIANCE> 39
 6.922525e+01 3.489832e+01 9.504379e+01 5.655376e+01 5.775310e+01 9.022626e+01 5.031454e+01 5.937340e+01 5.330339e+01 4.977243e+01 3.468228e+01 3.097915e+01 5.856310e+01 3.691436e+00 3.204498e+00 5.109476e+00 4.145072e+00 4.024881e+00 6.316950e+00 3.791599e+00 4.449679e+00 4.093225e+00 3.714666e+00 2.900127e+00 2.991388e+00 3.180831e+00 4.350544e-01 5.477362e-01 7.519528e-01 7.734138e-01 7.425267e-01 9.916563e-01 6.637771e-01 7.713355e-01 7.847539e-01 6.901024e-01 5.554920e-01 5.829629e-01 4.313786e-01
<GCONST> 1.356411e+02
<STATE> 3
<MEAN> 39
 9.328353e+00 -1.442840e+01 1.049199e+01 -9.724472e+00 4.676799e+00 -7.659438e-01 -1.150750e+01 1.029251e+01 -1.526821e+01 5.469031e-01 -1.155962e-01 -2.444615e+00 7.190958e+01 1.224270e-01 1.080235e-02 -1.955906e-01 -9.140409e-02 -1.260151e-01 -2.100834e-01 -2.201698e-03 7.959407e-02 4.219764e-02 5.015114e-02 1.359717e-01 1.524978e-01 1.200620e-01 -1.318490e-01 -2.855038e-02 7.975180e-02 -1.330565e-02 -3.998313e-03 8.751760e-02 4.836527e-02 -7.154516e-03 4.250440e-02 9.878539e-02 4.131407e-02 -3.011997e-02 -6.752538e-02
<VARIANCE> 39
 6.138167e+01 3.269395e+01 8.879222e+01 5.672458e+01 5.642578e+01 8.522411e+01 5.284782e+01 6.445513e+01 5.632639e+01 5.496043e+01 3.113125e+01 3.315878e+01 5.713139e+01 2.936532e+00 2.958129e+00 5.035034e+00 4.120169e+00 3.999206e+00 6.567412e+00 3.860267e+00 4.588545e+00 3.827794e+00 3.727746e+00 2.435416e+00 3.129879e+00 2.285288e+00 3.661999e-01 5.299260e-01 7.214813e-01 7.510974e-01 6.722349e-01 9.494868e-01 6.439278e-01 7.546179e-01 6.974461e-01 7.079442e-01 4.553289e-01 5.676916e-01 3.467901e-01
<GCONST> 1.337520e+02
<STATE> 4
<MEAN> 39
 1.014494e+01 -1.421852e+01 7.901649e+00 -1.082348e+01 3.014063e+00 -3.411206e+00 -1.076763e+01 1.288121e+01 -1.345705e+01 1.351058e+00 3.982636e-01 -1.528962e+00 7.193171e+01 -1.731915e-01 2.524350e-02 1.085724e-01 -3.547909e-02 -2.634681e-02 2.179476e-01 8.954338e-02 -9.822997e-02 6.863259e-02 2.511858e-01 1.776363e-01 -3.999887e-03 -1.702090e-01 -9.143656e-02 5.589725e-03 9.449027e-02 2.407647e-02 3.791426e-02 1.358029e-01 1.893913e-04 -6.139322e-02 2.136364e-02 3.689153e-02 -2.236955e-02 -7.771651e-02 -8.554045e-02
<VARIANCE> 39
 5.532473e+01 2.658051e+01 7.269440e+01 5.258141e+01 5.585836e+01 9.774242e+01 4.936804e+01 7.579846e+01 5.619338e+01 4.659980e+01 2.757562e+01 3.218392e+01 5.984956e+01 1.710688e+00 1.983626e+00 3.159232e+00 3.172882e+00 3.116049e+00 4.909298e+00 2.998758e+00 3.152949e+00 2.780434e+00 2.750909e+00 1.704311e+00 2.268911e+00 1.629907e+00 2.242920e-01 3.481709e-01 4.850479e-01 5.230511e-01 4.670637e-01 8.163159e-01 5.147311e-01 5.296735e-01 4.980000e-01 5.457044e-01 3.033368e-01 4.416866e-01 2.394577e-01
<GCONST> 1.242514e+02
<TRANSP> 5
 0.000000e+00 1.000000e+00 0.000000e+00 0.000000e+00 0.000000e+00
 0.000000e+00 6.236987e-01 3.763013e-01 0.000000e+00 0.000000e+00
 0.000000e+00 0.000000e+00 5.653198e-01 4.346802e-01 0.000000e+00
 0.000000e+00 0.000000e+00 0.000000e+00 6.243792e-01 3.756208e-01
 0.000000e+00 0.000000e+00 0.000000e+00 0.000000e+00 0.000000e+00
<ENDHMM>
~h "m"
<BEGINHMM>
<NUMSTATES> 5
<STATE> 2
<MEAN> 39
 5.635906e+00 -1.273054e+01 1.118182e+01 -8.708655e+00 5.834491e+00 3.500917e+00 -1.093432e+01 9.519062e+00 -1.171142e+01 3.354890e+00 1.598134e+00 -2.541827e+00 6.655251e+01 -1.696962e-01 6.979685e-02 6.416595e-02 -1.539230e-01 -1.864435e-01 1.288082e-01 2.231317e-01 9.694038e-02 1.737718e-01 9.407813e-02 4.374471e-02 7.198723e-02 -1.548481e-01 -2.011885e-02 -6.593076e-02 5.868199e-02 -2.942305e-02 -4.619151e-02 -5.930232e-02 -7.954743e-03 2.796271e-02 -4.545147e-02 -6.650077e-03 -3.828149e-03 3.414596e-02 5.095633e-02
<VARIANCE> 39
 7.876488e+01 2.751574e+01 6.311105e+01 4.997874e+01 5.516187e+01 7.590783e+01 4.268198e+01 4.847359e+01 4.865723e+01 2.987724e+01 2.120068e+01 3.064184e+01 7.223719e+01 1.032509e+00 1.328815e+00 2.814203e+00 2.199133e+00 2.484484e+00 3.311161e+00 1.853441e+00 2.247012e+00 1.863972e+00 1.906164e+00 1.303640e+00 2.179507e+00 9.140411e-01 1.671945e-01 2.533732e-01 5.122991e-01 3.991369e-01 4.265999e-01 5.982251e-01 3.186595e-01 4.147798e-01 3.455777e-01 3.653679e-01 2.821721e-01 4.245015e-01 1.599953e-01
<GCONST> 1.151608e+02
<STATE> 3
<MEAN> 39
 5.366072e+00 -1.278604e+01 1.139433e+01 -9.074571e+00 5.407268e+00 3.717860e+00 -1.054146e+01 9.729482e+00 -1.146670e+01 3.614261e+00 1.638626e+00 -2.262477e+00 6.642374e+01 -1.978781e-01 -2.239496e-02 9.063496e-02 -1.503525e-01 -2.685281e-01 1.134953e-02 1.856700e-01 1.165386e-01 6.635655e-02 3.450950e-02 1.155758e-02 6.864595e-02 -1.051937e-01 -5.255189e-03 -4.384995e-02 2.483333e-02 3.120549e-02 -2.093915e-02 -7.101963e-02 -2.540693e-02 2.381281e-02 -5.218869e-02 -5.260640e-02 -8.736691e-03 -4.991682e-03 2.933127e-02
<VARIANCE> 39
 8.015128e+01 2.794817e+01 6.663549e+01 4.914971e+01 5.576467e+01 8.174168e+01 4.181772e+01 5.071925e+01 4.955207e+01 2.988225e+01 2.042572e+01 2.960424e+01 7.097389e+01 1.012975e+00 1.252703e+00 2.631764e+00 1.978022e+00 2.606871e+00 3.014331e+00 1.799309e+00 2.144075e+00 1.894287e+00 1.789226e+00 1.327230e+00 1.936581e+00 9.729174e-01 1.558364e-01 2.260834e-01 5.120730e-01 3.786279e-01 3.981722e-01 5.788084e-01 3.040387e-01 4.317166e-01 3.676211e-01 3.380713e-01 2.489266e-01 4.178095e-01 1.345712e-01
<GCONST> 1.141353e+02
<STATE> 4
<MEAN> 39
 -2.603631e+00 -1.214812e+01 1.165897e+01 -7.849366e+00 3.067942e+00 6.639690e+00 -7.326748e+00 1.082341e+01 -7.098250e+00 4.323773e+00 2.673106e+00 -1.687263e+00 5.831125e+01 -9.008730e-02 1.187289e-02 6.343637e-02 3.943291e-02 -1.834838e-02 -3.993685e-02 5.073458e-02 8.787748e-02 3.886420e-02 6.410010e-05 -2.507557e-02 -3.684288e-03 -6.251282e-02 2.302306e-02 -1.561039e-02 1.301864e-02 5.147171e-03 1.317246e-02 -1.174328e-02 -1.572494e-02 -5.695325e-03 -2.698587e-02 -1.096767e-02 -1.017180e-02 3.998083e-05 3.194027e-02
<VARIANCE> 39
 5.291629e+01 1.185112e+01 2.181522e+01 1.789680e+01 2.110501e+01 3.098440e+01 1.888643e+01 2.106936e+01 2.782376e+01 1.397085e+01 1.104433e+01 1.408205e+01 4.707929e+01 4.685597e-01 6.118067e-01 1.028684e+00 8.906553e-01 1.053548e+00 1.226593e+00 1.043923e+00 1.216697e+00 1.349712e+00 1.086196e+00 8.824343e-01 9.798923e-01 3.941830e-01 7.261530e-02 1.197284e-01 2.024317e-01 1.653439e-01 1.833850e-01 2.403553e-01 1.948053e-01 2.329689e-01 2.673655e-01 2.106316e-01 1.658886e-01 1.971829e-01 5.458947e-02
<GCONST> 8.631979e+01
<TRANSP> 5
 0.000000e+00 1.000000e+00 0.000000e+00 0.000000e+00 0.000000e+00
 0.000000e+00 2.254639e-01 7.745361e-01 0.000000e+00 0.000000e+00
 0.000000e+00 0.000000e+00 2.254994e-01 7.745007e-01 0.000000e+00
 0.000000e+00 0.000000e+00 0.000000e+00 8.087683e-01 1.912317e-01
 0.000000e+00 0.000000e+00 0.000000e+00 0.000000e+00 0.000000e+00
<ENDHMM>
~h "n"
<BEGINHMM>
<NUMSTATES> 5
<STATE> 2
<MEAN> 39
 5.238317e+00 -1.418659e+01 1.153778e+01 -7.867560e+00 6.544962e+00 3.829924e+00 -1.111100e+01 7.923227e+00 -1.288551e+01 3.755597e+00 1.680402e+00 -1.809338e+00 6.720142e+01 -3.656025e-02 8.910570e-02 -7.757856e-02 -4.973234e-03 -4.644072e-02 1.334477e-02 1.895491e-01 4.543288e-02 -2.110421e-02 -4.950906e-02 2.249959e-02 1.260857e-01 -6.677746e-02 -3.343125e-02 -1.584652e-02 4.632834e-02 -2.506514e-02 -3.152724e-02 -4.779929e-02 2.514156e-02 7.209796e-02 -1.824503e-04 1.582418e-02 3.109814e-02 2.999371e-02 2.647896e-02
<VARIANCE> 39
 8.451718e+01 2.979509e+01 6.575871e+01 5.265144e+01 5.488804e+01 5.655744e+01 5.063397e+01 5.025437e+01 5.042310e+01 3.731863e+01 2.304339e+01 3.113431e+01 8.114149e+01 1.653539e+00 1.770605e+00 2.958076e+00 2.527142e+00 2.353834e+00 4.172367e+00 2.499875e+00 3.619228e+00 2.583220e+00 2.476407e+00 1.794356e+00 2.698740e+00 1.543482e+00 2.079663e-01 3.239863e-01 4.562732e-01 4.299671e-01 3.923503e-01 7.227289e-01 3.918599e-01 6.075110e-01 4.791979e-01 4.579068e-01 3.662993e-01 5.264165e-01 2.224302e-01
<GCONST> 1.218049e+02
<STATE> 3
<MEAN> 39
 5.273258e+00 -1.416500e+01 1.146062e+01 -8.190521e+00 6.474589e+00 3.550527e+00 -1.086651e+01 8.310680e+00 -1.304553e+01 3.774955e+00 1.763789e+00 -1.450542e+00 6.729243e+01 -1.165985e-01 6.936748e-02 4.497496e-04 -5.173254e-02 -1.622718e-01 -6.499577e-02 2.555017e-01 1.969127e-01 2.933891e-02 -5.515995e-03 8.396693e-02 7.357624e-02 -6.260846e-02 -2.479764e-02 -6.755760e-03 5.267513e-02 4.830057e-03 -1.603483e-02 -1.828045e-04 -1.908732e-04 2.677222e-02 1.710868e-02 2.187202e-02 6.149219e-03 -5.060457e-02 4.590867e-03
<VARIANCE> 39
 8.564557e+01 3.078967e+01 6.717660e+01 5.217046e+01 5.420124e+01 5.746763e+01 4.814627e+01 4.796027e+01 5.192710e+01 3.879282e+01 2.283912e+01 3.186419e+01 8.111752e+01 1.510855e+00 1.930112e+00 2.923422e+00 2.348782e+00 2.159509e+00 3.834453e+00 2.162940e+00 3.191833e+00 2.541431e+00 2.555424e+00 1.823907e+00 2.669737e+00 1.552543e+00 2.001243e-01 3.236836e-01 4.736916e-01 4.243072e-01 3.790629e-01 7.122731e-01 3.857368e-01 5.848751e-01 4.607379e-01 4.915895e-01 3.567139e-01 5.252994e-01 2.372987e-01
<GCONST> 1.212979e+02
<STATE> 4
<MEAN> 39
 3.224937e+00 -1.368185e+01 1.157790e+01 -8.070373e+00 5.114152e+00 3.869741e+00 -9.809183e+00 8.949450e+00 -1.157189e+01 4.075198e+00 2.270589e+00 -1.533124e+00 6.527330e+01 -1.438716e-01 6.333388e-02 6.511478e-02 7.500726e-03 -1.137645e-01 1.380236e-02 1.839350e-01 1.133841e-01 3.477930e-02 1.222403e-02 4.499869e-02 -4.163718e-02 -9.168719e-02 2.740265e-02 -2.345543e-02 4.538056e-02 -1.029822e-02 2.776079e-02 1.214863e-02 -4.544212e-02 -8.412831e-03 -1.154163e-02 9.888770e-03 -3.131591e-02 -2.746689e-02 3.036263e-02
<VARIANCE> 39
 8.676462e+01 2.659570e+01 6.092643e+01 4.365187e+01 4.360103e+01 4.990105e+01 3.968029e+01 3.966358e+01 5.118374e+01 3.148392e+01 1.996411e+01 2.521118e+01 8.957989e+01 1.321110e+00 1.743574e+00 2.517152e+00 1.989344e+00 1.868855e+00 2.762745e+00 1.669583e+00 2.375499e+00 2.213104e+00 2.129333e+00 1.705382e+00 2.179135e+00 1.258986e+00 1.850960e-01 2.562590e-01 4.141249e-01 3.476462e-01 2.901635e-01 5.470891e-01 3.204039e-01 4.302725e-01 3.831009e-01 4.085561e-01 2.939636e-01 3.747258e-01 2.045089e-01
<GCONST> 1.145565e+02
<TRANSP> 5
 0.000000e+00 1.000000e+00 0.000000e+00 0.000000e+00 0.000000e+00
 0.000000e+00 2.131692e-01 7.868308e-01 0.000000e+00 0.000000e+00
 0.000000e+00 0.000000e+00 2.104672e-01 7.895328e-01 0.000000e+00
 0.000000e+00 0.000000e+00 0.000000e+00 2.703466e-01 7.296534e-01
 0.000000e+00 0.000000e+00 0.000000e+00 0.000000e+00 0.000000e+00
<ENDHMM>
~h "o"
<BEGINHMM>
<NUMSTATES> 5
<STATE> 2
<MEAN> 39
 7.325060e+00 -1.343499e+01 1.107965e+01 -1.022859e+01 3.869310e+00 6.857483e-01 -1.067828e+01 1.030339e+01 -1.308239e+01 2.432353e+00 4.412780e-01 -2.533241e+00 6.934859e+01 1.172093e-01 -4.411733e-02 -8.765138e-03 -8.065370e-02 -1.060952e-01 -2.199687e-01 5.675840e-02 1.414298e-01 -1.777097e-01 -2.436213e-02 -3.377226e-03 -2.938711e-02 1.544882e-01 -7.865722e-02 -3.336697e-02 4.264129e-02 1.791736e-02 1.222332e-02 7.610650e-02 3.848941e-02 -2.282780e-02 2.458704e-03 2.370022e-02 1.138554e-02 4.676496e-03 -4.685500e-02
<VARIANCE> 39
 8.161651e+01 3.182800e+01 6.813899e+01 4.574345e+01 6.564673e+01 9.995211e+01 4.987709e+01 6.536543e+01 5.261066e+01 3.923225e+01 2.352304e+01 2.832004e+01 7.597246e+01 2.746066e+00 2.337645e+00 4.184194e+00 2.794436e+00 3.357939e+00 6.237974e+00 2.907271e+00 3.868252e+00 3.069035e+00 2.622084e+00 1.744332e+00 2.411176e+00 2.334077e+00 3.688352e-01 4.638209e-01 7.635831e-01 5.044634e-01 5.162676e-01 1.079782e+00 5.050008e-01 6.585637e-01 5.592402e-01 5.064958e-01 3.393302e-01 4.656927e-01 3.285384e-01
<GCONST> 1.284523e+02
<STATE> 3
<MEAN> 39
 7.055860e+00 -1.401212e+01 1.152796e+01 -1.073537e+01 3.492481e+00 8.043976e-01 -1.049426e+01 1.026128e+01 -1.368281e+01 2.390501e+00 6.308827e-01 -2.124129e+00 6.966321e+01 -1.926581e-01 -3.871971e-02 1.341744e-01 -6.070896e-02 -1.749913e-01 5.560655e-02 2.273787e-01 7.877313e-02 -3.846279e-02 5.015402e-02 4.349815e-02 2.601953e-02 -8.854029e-02 -1.003855e-01 -3.916639e-02 5.342662e-02 1.598900e-02 2.692795e-02 1.038107e-01 5.512104e-03 -7.246525e-02 3.931418e-02 2.131102e-02 6.475204e-03 2.580753e-02 -3.941792e-02
<VARIANCE> 39
 7.917740e+01 3.382027e+01 7.173772e+01 4.481348e+01 6.191689e+01 9.026275e+01 5.059958e+01 5.869698e+01 5.514658e+01 4.017055e+01 2.671382e+01 2.981437e+01 7.666768e+01 2.930360e+00 2.497353e+00 5.055114e+00 2.774355e+00 3.072493e+00 6.198174e+00 2.803517e+00 3.625051e+00 3.069285e+00 2.612793e+00 1.881789e+00 2.216865e+00 2.320389e+00 3.816745e-01 5.356051e-01 8.418014e-01 5.576640e-01 5.204931e-01 1.109483e+00 4.858713e-01 6.301602e-01 5.588075e-01 5.149578e-01 3.687432e-01 4.412659e-01 3.551876e-01
<GCONST> 1.290687e+02
<STATE> 4
<MEAN> 39
 4.509255e+00 -1.311469e+01 1.177886e+01 -1.027219e+01 2.329446e+00 2.478247e+00 -8.823813e+00 1.031282e+01 -1.208264e+01 3.188936e+00 1.345394e+00 -2.409793e+00 6.645931e+01 -3.117937e-01 -9.482097e-02 1.928550e-01 8.847009e-02 -5.757494e-02 1.600258e-01 7.767951e-02 -1.180474e-01 1.553113e-02 1.773797e-02 1.389106e-02 4.296360e-04 -1.787742e-01 -2.876997e-02 -8.169223e-02 8.118174e-02 -3.017658e-02 6.290689e-02 4.885274e-02 -4.651130e-02 -5.667998e-02 -1.485996e-02 2.186549e-02 -2.174180e-02 4.418845e-02 5.922681e-02
<VARIANCE> 39
 8.496653e+01 3.000943e+01 6.388871e+01 3.899562e+01 4.786300e+01 6.761500e+01 3.892234e+01 4.246466e+01 5.160056e+01 3.506488e+01 2.136661e+01 2.476884e+01 8.219579e+01 2.439877e+00 2.152264e+00 3.898237e+00 2.234106e+00 2.345188e+00 3.891146e+00 2.341755e+00 2.499211e+00 2.766843e+00 2.181211e+00 1.543238e+00 1.782906e+00 1.721184e+00 3.197605e-01 3.475731e-01 5.273735e-01 3.837718e-01 3.898846e-01 7.085702e-01 3.650192e-01 4.432805e-01 4.722048e-01 4.005458e-01 2.910056e-01 3.022605e-01 2.715979e-01
<GCONST> 1.198669e+02
<TRANSP> 5
 0.000000e+00 1.000000e+00 0.000000e+00 0.000000e+00 0.000000e+00
 0.000000e+00 3.905306e-01 6.094693e-01 0.000000e+00 0.000000e+00
 0.000000e+00 0.000000e+00 4.059192e-01 5.940807e-01 0.000000e+00
 0.000000e+00 0.000000e+00 0.000000e+00 2.509075e-01 7.490925e-01
 0.000000e+00 0.000000e+00 0.000000e+00 0.000000e+00 0.000000e+00
<ENDHMM>
~h "p"
<BEGINHMM>
<NUMSTATES> 5
<STATE> 2
<MEAN> 39
 1.317813e+00 -1.185996e+01 1.303377e+01 -7.556509e+00 4.057052e+00 4.599009e+00 -9.656091e+00 8.837050e+00 -1.095714e+01 2.683209e+00 1.988377e+00 -1.699349e+00 6.231075e+01 -3.235230e-01 2.045661e-01 2.514282e-01 -2.203390e-02 -2.267880e-01 2.518313e-01 2.347968e-01 6.350677e-03 1.910805e-01 5.827334e-02 -1.269841e-01 -3.563508e-02 -4.244633e-01 7.435619e-02 -2.034390e-01 3.739265e-02 -1.349005e-01 -5.439992e-02 -1.080181e-02 -3.698521e-03 -4.606511e-02 -1.101811e-01 1.013055e-01 -7.036830e-03 -4.250682e-02 2.412388e-01
<VARIANCE> 39
 7.204535e+01 2.937803e+01 4.858813e+01 3.797258e+01 3.621114e+01 3.992697e+01 3.671748e+01 3.754687e+01 4.728415e+01 2.648072e+01 1.739246e+01 1.758207e+01 7.189732e+01 2.545366e+00 2.574247e+00 3.368440e+00 2.192077e+00 1.759810e+00 2.877893e+00 2.354803e+00 1.979389e+00 2.191275e+00 1.903955e+00 1.318111e+00 1.537998e+00 2.573427e+00 4.189555e-01 4.717616e-01 4.684130e-01 4.156542e-01 3.244096e-01 5.430529e-01 4.033288e-01 4.553435e-01 4.559588e-01 3.719904e-01 2.872547e-01 2.952121e-01 4.823608e-01
<GCONST> 1.169527e+02
<STATE> 3
<MEAN> 39
 9.240005e-01 -1.166674e+01 1.339225e+01 -7.751839e+00 3.656933e+00 5.046841e+00 -9.201779e+00 8.850574e+00 -1.087784e+01 2.956076e+00 1.709409e+00 -2.065924e+00 6.192810e+01 -9.437928e-02 -1.975771e-01 2.579786e-01 -3.238935e-01 -2.927924e-01 2.054563e-01 1.958966e-01 -3.689140e-02 -6.646807e-02 1.907324e-01 -1.258337e-01 -6.403834e-02 1.131558e-01 1.665307e-01 -2.324582e-01 -5.320364e-02 -1.316565e-01 1.186065e-02 -1.138849e-01 -8.529361e-02 -3.199434e-02 -1.505577e-01 6.314507e-02 3.469483e-02 -6.538979e-03 3.400441e-01
<VARIANCE> 39
 6.650534e+01 2.987098e+01 4.707329e+01 3.755236e+01 3.051048e+01 3.746302e+01 3.183331e+01 3.556906e+01 4.310115e+01 2.359808e+01 1.568112e+01 1.566833e+01 6.929163e+01 3.650917e+00 2.775778e+00 3.198025e+00 2.639893e+00 1.981625e+00 3.299878e+00 2.577944e+00 2.400754e+00 2.810817e+00 2.042748e+00 1.416886e+00 1.363518e+00 3.987535e+00 5.061345e-01 5.446176e-01 5.502749e-01 4.641985e-01 3.165899e-01 5.675737e-01 4.429176e-01 4.068512e-01 5.033001e-01 3.750308e-01 2.851922e-01 2.953722e-01 5.757496e-01
<GCONST> 1.186515e+02
<STATE> 4
<MEAN> 39
 -7.017907e-01 -1.196500e+01 1.314865e+01 -8.007585e+00 2.780475e+00 5.691450e+00 -8.308515e+00 9.379406e+00 -9.501022e+00 3.567401e+00 2.046116e+00 -1.824706e+00 6.052747e+01 3.128698e-02 -3.270676e-01 1.566351e-01 -2.582059e-01 -1.466106e-01 -2.347670e-03 2.328001e-02 -2.984833e-02 -1.528980e-01 1.737463e-01 -7.797627e-03 -5.030254e-02 3.401743e-01 1.441790e-01 -1.468806e-01 -9.540571e-02 -6.991964e-02 4.545599e-02 -1.163471e-01 -1.133039e-01 -4.437090e-02 -1.057335e-01 6.314147e-03 3.783350e-02 9.569241e-03 2.466288e-01
<VARIANCE> 39
 6.087249e+01 2.288213e+01 3.577866e+01 2.721198e+01 2.329166e+01 3.143081e+01 2.560903e+01 3.031594e+01 3.938453e+01 1.953266e+01 1.416351e+01 1.362316e+01 6.437533e+01 3.445498e+00 2.252324e+00 2.806292e+00 2.419829e+00 1.683849e+00 3.094208e+00 2.141707e+00 2.248427e+00 2.758576e+00 1.733597e+00 1.323292e+00 1.119863e+00 3.538036e+00 3.818867e-01 4.610347e-01 5.336533e-01 3.990101e-01 2.779389e-01 5.259756e-01 3.860482e-01 3.519520e-01 4.312533e-01 3.531057e-01 2.291435e-01 2.326015e-01 4.325043e-01
<GCONST> 1.126747e+02
<TRANSP> 5
 0.000000e+00 1.000000e+00 0.000000e+00 0.000000e+00 0.000000e+00
 0.000000e+00 1.606999e-01 8.393002e-01 0.000000e+00 0.000000e+00
 0.000000e+00 0.000000e+00 1.616587e-01 8.383412e-01 0.000000e+00
 0.000000e+00 0.000000e+00 0.000000e+00 2.975604e-01 7.024396e-01
 0.000000e+00 0.000000e+00 0.000000e+00 0.000000e+00 0.000000e+00
<ENDHMM>
~h "r"
<BEGINHMM>
<NUMSTATES> 5
<STATE> 2
<MEAN> 39
 3.932453e+00 -1.440783e+01 1.239903e+01 -1.106859e+01 3.291333e+00 3.587579e+00 -9.783916e+00 9.176517e+00 -1.269643e+01 3.440933e+00 1.236746e+00 -1.445241e+00 6.675159e+01 1.026571e-01 -1.600183e-01 1.542803e-02 -6.008075e-02 -7.581605e-02 1.411568e-01 2.045204e-02 -1.281854e-01 -9.921102e-02 -8.475544e-02 -8.757613e-02 1.275066e-02 1.581856e-01 6.263573e-03 9.120403e-02 -5.571093e-02 1.073044e-01 8.123550e-02 8.628024e-03 -5.035546e-02 -4.934106e-02 4.843505e-02 -2.282641e-02 -2.616985e-02 -4.354053e-02 -5.189747e-02
<VARIANCE> 39
 8.180975e+01 3.879517e+01 8.067779e+01 4.725999e+01 4.253957e+01 5.773469e+01 4.343821e+01 4.076791e+01 4.976319e+01 3.008517e+01 2.067826e+01 2.614243e+01 7.940670e+01 3.247930e+00 1.913535e+00 3.909447e+00 2.498819e+00 2.260915e+00 3.865611e+00 2.702039e+00 2.450354e+00 3.265564e+00 2.125683e+00 1.335729e+00 1.460100e+00 2.937894e+00 3.763520e-01 3.785198e-01 6.072451e-01 4.578814e-01 3.898681e-01 7.162054e-01 4.383019e-01 4.239220e-01 5.424817e-01 3.962811e-01 2.808064e-01 2.766540e-01 3.571003e-01
<GCONST> 1.217881e+02
<STATE> 3
<MEAN> 39
 4.146204e+00 -1.437951e+01 1.216587e+01 -1.080046e+01 3.407829e+00 3.666383e+00 -9.818580e+00 8.960338e+00 -1.293445e+01 3.184276e+00 1.288556e+00 -1.565533e+00 6.683127e+01 3.085147e-03 3.011872e-02 -7.371026e-02 1.109920e-01 5.272836e-02 1.438551e-01 8.414701e-04 -8.537604e-02 6.584696e-02 -1.104764e-01 -8.588926e-02 -5.502355e-02 -2.677776e-02 -1.030690e-02 8.405044e-02 -2.879162e-02 5.951587e-02 6.738973e-02 -1.940248e-02 -2.387771e-02 3.175430e-03 5.385756e-02 1.794704e-02 -1.917098e-02 -2.956565e-02 -4.544810e-02
<VARIANCE> 39
 8.460011e+01 3.829290e+01 8.187870e+01 4.669747e+01 4.311482e+01 6.166111e+01 4.577040e+01 4.311049e+01 4.882367e+01 3.120655e+01 2.163486e+01 2.726098e+01 7.969057e+01 2.430960e+00 1.930159e+00 3.838172e+00 2.201993e+00 2.421977e+00 3.861036e+00 2.612559e+00 2.325730e+00 2.720604e+00 2.036120e+00 1.421787e+00 1.343826e+00 1.990958e+00 3.782851e-01 3.634198e-01 5.673307e-01 4.121944e-01 4.126748e-01 7.974362e-01 4.535217e-01 4.486816e-01 5.658572e-01 3.769614e-01 2.638115e-01 2.576964e-01 3.435546e-01
<GCONST> 1.208942e+02
<STATE> 4
<MEAN> 39
 3.051896e+00 -1.380364e+01 1.216649e+01 -1.013909e+01 3.344760e+00 4.523249e+00 -9.120155e+00 9.407467e+00 -1.160586e+01 3.073945e+00 1.229965e+00 -1.529033e+00 6.546271e+01 -5.333820e-02 8.523021e-02 -1.208214e-02 1.156906e-01 8.871830e-02 1.155429e-01 5.837904e-03 -3.844239e-02 1.141958e-01 -9.383413e-03 -9.707150e-02 -6.349289e-02 -7.562013e-02 4.032468e-02 2.492269e-02 -4.683975e-03 -1.054339e-02 2.754509e-02 -7.431859e-02 -3.219537e-02 -9.228762e-03 -5.233855e-02 5.030961e-02 -6.427616e-03 -2.424104e-02 2.131266e-02
<VARIANCE> 39
 8.277573e+01 3.488883e+01 7.510686e+01 4.370578e+01 4.104128e+01 5.936910e+01 4.513677e+01 4.043856e+01 4.672154e+01 3.045654e+01 2.011040e+01 2.576022e+01 8.106923e+01 1.791117e+00 1.778977e+00 3.085228e+00 2.045980e+00 2.324303e+00 3.530447e+00 2.280904e+00 2.100272e+00 2.305161e+00 1.738832e+00 1.341131e+00 1.327994e+00 1.628973e+00 2.897535e-01 3.265354e-01 5.027010e-01 3.503008e-01 3.794868e-01 7.120147e-01 4.335772e-01 4.148352e-01 4.689286e-01 3.248168e-01 2.305891e-01 2.553765e-01 2.528684e-01
<GCONST> 1.168743e+02
<TRANSP> 5
 0.000000e+00 1.000000e+00 0.000000e+00 0.000000e+00 0.000000e+00
 0.000000e+00 1.551670e-01 8.448330e-01 0.000000e+00 0.000000e+00
 0.000000e+00 0.000000e+00 1.507369e-01 8.492632e-01 0.000000e+00
 0.000000e+00 0.000000e+00 0.000000e+00 1.972558e-01 8.027442e-01
 0.000000e+00 0.000000e+00 0.000000e+00 0.000000e+00 0.000000e+00
<ENDHMM>
~h "s"
<BEGINHMM>
<NUMSTATES> 5
<STATE> 2
<MEAN> 39
 2.703612e-01 -1.653116e+01 1.819968e+01 -1.144658e+01 3.796838e+00 5.836689e+00 -8.617184e+00 7.787881e+00 -1.416863e+01 5.802307e+00 1.623884e+00 -2.111205e+00 6.839542e+01 -3.500915e-01 -6.492965e-02 5.342274e-01 -1.285657e-01 -8.699734e-02 2.377331e-01 1.358528e-01 8.031538e-02 2.623663e-02 3.630056e-02 -4.535197e-02 1.106951e-02 -1.804280e-02 1.327681e-01 5.183935e-02 -2.085100e-01 1.060993e-01 8.531443e-02 -9.667934e-02 -1.259826e-01 -4.422773e-02 -4.194143e-02 -1.173023e-01 -1.933276e-02 -3.518691e-02 -5.543806e-03
<VARIANCE> 39
 1.011466e+02 4.526194e+01 1.380383e+02 7.681817e+01 4.047953e+01 6.138704e+01 4.776332e+01 4.467323e+01 5.995757e+01 3.934948e+01 2.492076e+01 2.757571e+01 8.302105e+01 5.503164e+00 2.732156e+00 6.937107e+00 3.507184e+00 2.423948e+00 4.018137e+00 2.556965e+00 2.244269e+00 2.864574e+00 2.680259e+00 1.780987e+00 1.761839e+00 1.676926e+00 5.580083e-01 4.647799e-01 7.950198e-01 5.697705e-01 3.918979e-01 5.488821e-01 4.705832e-01 3.758126e-01 4.810592e-01 4.583536e-01 3.256433e-01 3.373217e-01 2.348919e-01
<GCONST> 1.266213e+02
<STATE> 3
<MEAN> 39
 1.925821e-01 -1.608423e+01 1.820461e+01 -1.110714e+01 3.945578e+00 5.842383e+00 -8.974440e+00 7.983150e+00 -1.384004e+01 5.461841e+00 1.492897e+00 -2.456684e+00 6.790976e+01 5.080247e-02 1.017871e-01 -9.324154e-02 1.927076e-01 1.470004e-01 -8.230042e-02 -1.865774e-01 -2.889997e-02 -5.014958e-02 -1.584256e-01 -5.296096e-02 -1.288175e-01 -8.447100e-02 1.265035e-01 3.881265e-02 -2.137186e-01 1.153766e-01 7.444084e-02 -8.729106e-02 -9.929544e-02 -3.436917e-02 -1.376088e-02 -8.505901e-02 1.146262e-02 -7.600846e-03 -3.399328e-02
<VARIANCE> 39
 9.764989e+01 4.614781e+01 1.378855e+02 7.627585e+01 4.085984e+01 6.240771e+01 4.755639e+01 4.270467e+01 5.863317e+01 4.123529e+01 2.435407e+01 2.652653e+01 8.322688e+01 4.950912e+00 2.853952e+00 5.935741e+00 3.478697e+00 2.399714e+00 3.407618e+00 2.709956e+00 2.154868e+00 2.708361e+00 2.785124e+00 1.806704e+00 1.768056e+00 1.545330e+00 5.308356e-01 4.824094e-01 7.829051e-01 5.843130e-01 3.884662e-01 5.471743e-01 4.493525e-01 4.235857e-01 5.082394e-01 4.942474e-01 3.230751e-01 3.144068e-01 2.519200e-01
<GCONST> 1.262546e+02
<STATE> 4
<MEAN> 39
 3.786579e-01 -1.515931e+01 1.644403e+01 -9.775986e+00 4.204066e+00 5.493844e+00 -9.350081e+00 8.231039e+00 -1.303691e+01 4.780381e+00 1.800688e+00 -2.653888e+00 6.632224e+01 9.270958e-02 7.050052e-02 -2.324674e-01 2.241057e-01 1.591741e-01 -1.093069e-01 -2.143834e-01 -1.351823e-02 -8.266233e-03 -2.108756e-01 -4.908917e-02 -4.218747e-02 -1.381826e-01 4.102789e-02 -2.542779e-02 -7.494102e-02 3.864329e-02 5.471815e-03 -1.572522e-02 -4.326786e-02 -5.394230e-03 3.961593e-02 -2.478563e-02 2.508733e-03 1.752161e-02 -1.498601e-02
<VARIANCE> 39
 9.581084e+01 4.061564e+01 1.226144e+02 7.178510e+01 4.247665e+01 6.445044e+01 4.790211e+01 3.731821e+01 5.371580e+01 4.022649e+01 2.268437e+01 2.406638e+01 8.619914e+01 2.811140e+00 2.288422e+00 4.284601e+00 2.941170e+00 1.931861e+00 2.612197e+00 2.284895e+00 1.978370e+00 2.385044e+00 2.296320e+00 1.678696e+00 1.614334e+00 1.507285e+00 3.877193e-01 3.400607e-01 6.295293e-01 5.077795e-01 3.348874e-01 5.100251e-01 3.830779e-01 4.001720e-01 4.139571e-01 4.570928e-01 2.904030e-01 2.920960e-01 2.206071e-01
<GCONST> 1.210450e+02
<TRANSP> 5
 0.000000e+00 1.000000e+00 0.000000e+00 0.000000e+00 0.000000e+00
 0.000000e+00 2.890502e-01 7.109499e-01 0.000000e+00 0.000000e+00
 0.000000e+00 0.000000e+00 2.568609e-01 7.431391e-01 0.000000e+00
 0.000000e+00 0.000000e+00 0.000000e+00 1.866422e-01 8.133578e-01
 0.000000e+00 0.000000e+00 0.000000e+00 0.000000e+00 0.000000e+00
<ENDHMM>
~h "t"
<BEGINHMM>
<NUMSTATES> 5
<STATE> 2
<MEAN> 39
 2.412781e+00 -1.392763e+01 1.354288e+01 -8.930717e+00 4.510653e+00 4.671982e+00 -9.635853e+00 8.792169e+00 -1.195002e+01 4.029072e+00 1.540552e+00 -1.918563e+00 6.532452e+01 -3.154781e-02 3.021662e-01 -1.903773e-01 5.575480e-02 -3.903176e-02 2.069760e-02 7.246378e-02 7.322682e-02 2.430337e-01 1.190486e-02 -1.446511e-03 -4.239031e-02 -2.938398e-01 4.439592e-03 -4.418536e-02 4.684374e-02 1.429891e-03 -1.380388e-05 -8.559624e-03 -4.212349e-03 -2.294889e-02 -4.071249e-02 4.008657e-02 -5.825474e-03 -2.949172e-02 5.884204e-02
<VARIANCE> 39
 8.210354e+01 3.170113e+01 8.521859e+01 5.410664e+01 4.170993e+01 6.304308e+01 4.537318e+01 4.265084e+01 5.502512e+01 3.046470e+01 2.036260e+01 2.158640e+01 8.366482e+01 2.229699e+00 2.308754e+00 4.082624e+00 2.319541e+00 2.061895e+00 3.086130e+00 2.021205e+00 2.139841e+00 2.404563e+00 2.231471e+00 1.480325e+00 1.630379e+00 1.766702e+00 2.892126e-01 4.317097e-01 6.809131e-01 4.359804e-01 3.603479e-01 5.932527e-01 3.756752e-01 3.966193e-01 4.420986e-01 4.346089e-01 3.037560e-01 3.026192e-01 2.623065e-01
<GCONST> 1.195728e+02
<STATE> 3
<MEAN> 39
 2.341514e+00 -1.359085e+01 1.337994e+01 -8.758574e+00 4.477005e+00 4.733613e+00 -9.505079e+00 9.008060e+00 -1.156360e+01 3.941456e+00 1.470638e+00 -1.924964e+00 6.493565e+01 -1.175678e-02 2.371689e-01 -1.103709e-01 4.510747e-02 -6.443618e-03 -1.114627e-02 4.999752e-02 3.721243e-02 1.186120e-01 6.916356e-02 -1.219701e-02 -8.670325e-02 -1.972583e-01 1.834785e-02 -8.847855e-02 7.027087e-02 -1.199852e-02 -1.032869e-03 -2.306865e-02 -2.413195e-02 -4.848049e-02 -1.083465e-01 3.156652e-02 8.297725e-03 -1.803714e-02 1.003076e-01
<VARIANCE> 39
 8.251003e+01 3.239555e+01 7.899949e+01 5.162442e+01 4.186184e+01 6.133627e+01 4.466248e+01 4.395246e+01 5.511285e+01 2.810544e+01 1.953044e+01 2.130466e+01 8.381551e+01 1.944589e+00 2.361639e+00 3.654480e+00 2.286198e+00 1.999666e+00 3.142909e+00 1.901598e+00 2.172385e+00 2.265004e+00 2.177804e+00 1.528761e+00 1.558039e+00 1.615856e+00 3.014615e-01 4.453066e-01 6.257225e-01 4.117090e-01 3.431596e-01 5.364231e-01 3.853733e-01 4.068684e-01 4.543582e-01 4.124820e-01 2.866681e-01 3.052006e-01 3.080203e-01
<GCONST> 1.187692e+02
<STATE> 4
<MEAN> 39
 -1.050912e+00 -1.231260e+01 1.257988e+01 -8.059999e+00 3.330053e+00 6.007698e+00 -7.938345e+00 9.897282e+00 -8.726218e+00 4.355384e+00 2.323757e+00 -1.936409e+00 6.058278e+01 -2.356067e-02 3.529020e-02 2.347729e-02 5.047361e-02 3.516340e-02 -1.660245e-02 2.124600e-02 -2.837146e-02 -7.598051e-02 5.579330e-02 -9.186888e-03 -3.636827e-02 -4.752989e-02 3.493679e-02 -9.844089e-02 5.219207e-02 -2.973156e-02 -2.084713e-02 -4.750746e-03 -2.284882e-02 -5.694233e-02 -9.334893e-02 -4.827966e-03 6.127348e-05 9.382883e-03 1.043347e-01
<VARIANCE> 39
 6.405775e+01 1.941570e+01 4.327131e+01 3.221198e+01 2.868579e+01 4.081345e+01 3.020437e+01 3.176632e+01 4.661907e+01 1.862041e+01 1.484235e+01 1.512124e+01 7.301558e+01 1.179839e+00 1.576671e+00 2.124905e+00 1.706317e+00 1.590923e+00 2.128127e+00 1.492597e+00 1.648309e+00 1.774781e+00 1.714313e+00 1.247628e+00 1.108452e+00 1.113053e+00 2.035157e-01 2.644694e-01 3.573688e-01 2.754044e-01 2.502871e-01 3.625346e-01 2.831139e-01 2.842104e-01 3.394384e-01 3.043350e-01 2.224856e-01 2.100547e-01 2.006541e-01
<GCONST> 1.049180e+02
<TRANSP> 5
 0.000000e+00 1.000000e+00 0.000000e+00 0.000000e+00 0.000000e+00
 0.000000e+00 1.312733e-01 8.687267e-01 0.000000e+00 0.000000e+00
 0.000000e+00 0.000000e+00 1.314731e-01 8.685268e-01 0.000000e+00
 0.000000e+00 0.000000e+00 0.000000e+00 4.899099e-01 5.100901e-01
 0.000000e+00 0.000000e+00 0.000000e+00 0.000000e+00 0.000000e+00
<ENDHMM>
~h "u"
<BEGINHMM>
<NUMSTATES> 5
<STATE> 2
<MEAN> 39
 2.571357e+00 -1.242054e+01 1.374490e+01 -1.002785e+01 3.101256e+00 4.222981e+00 -8.784447e+00 1.041399e+01 -1.152415e+01 3.615420e+00 1.176348e+00 -2.969437e+00 6.437589e+01 -1.880427e-01 2.096827e-01 1.691404e-01 1.372767e-01 -3.325346e-02 1.164628e-01 1.713209e-01 8.130048e-02 1.065455e-01 5.598331e-02 -4.120407e-02 -1.354703e-01 -3.396001e-01 4.181512e-02 1.046070e-02 -3.478739e-02 4.350446e-02 3.063767e-02 4.147008e-03 -2.942919e-02 -3.471687e-02 -2.923725e-02 -5.395796e-02 3.523198e-02 2.458195e-02 1.556965e-02
<VARIANCE> 39
 8.434867e+01 3.508632e+01 4.807656e+01 4.385853e+01 4.010704e+01 5.498602e+01 3.479454e+01 3.880066e+01 4.669895e+01 3.001618e+01 1.947991e+01 2.584653e+01 6.615192e+01 1.907358e+00 1.845261e+00 2.694501e+00 2.196090e+00 2.118794e+00 3.150702e+00 1.735986e+00 2.224308e+00 2.526431e+00 1.901680e+00 1.284488e+00 1.706359e+00 1.359648e+00 2.827177e-01 3.898213e-01 4.308443e-01 4.333647e-01 4.384255e-01 6.537331e-01 3.779930e-01 3.738212e-01 4.775971e-01 3.850645e-01 2.600195e-01 3.083824e-01 2.083174e-01
<GCONST> 1.159610e+02
<STATE> 3
<MEAN> 39
 2.519048e+00 -1.189181e+01 1.372886e+01 -9.692450e+00 3.220391e+00 4.308516e+00 -8.541358e+00 1.072556e+01 -1.131470e+01 3.525002e+00 1.032759e+00 -3.300318e+00 6.379403e+01 -1.571071e-01 1.356838e-01 1.155563e-01 1.460037e-01 1.145748e-02 1.432500e-01 8.741547e-02 4.205462e-02 6.303935e-02 -7.473873e-03 6.014391e-02 -3.291958e-03 -2.965130e-01 4.498202e-02 -7.176480e-02 -4.437274e-02 6.886433e-03 4.006255e-04 -7.947747e-03 -6.140003e-02 -6.047076e-02 -3.327374e-02 -4.553195e-02 4.684271e-02 5.110924e-02 8.459827e-02
<VARIANCE> 39
 7.866896e+01 3.392995e+01 4.458359e+01 3.975078e+01 3.712898e+01 5.260574e+01 3.121238e+01 3.880880e+01 4.862254e+01 2.645277e+01 1.870502e+01 2.555301e+01 6.567274e+01 2.170669e+00 1.947901e+00 2.510092e+00 2.213862e+00 2.435185e+00 3.303753e+00 1.829359e+00 2.289799e+00 2.652537e+00 1.902914e+00 1.384592e+00 1.711008e+00 1.415470e+00 2.635204e-01 3.905048e-01 4.070425e-01 3.850956e-01 4.098129e-01 6.262804e-01 3.414484e-01 3.887732e-01 4.860805e-01 3.779570e-01 2.768108e-01 3.217251e-01 2.559429e-01
<GCONST> 1.157583e+02
<STATE> 4
<MEAN> 39
 3.293613e-01 -1.149363e+01 1.372114e+01 -8.964927e+00 2.602592e+00 5.303860e+00 -7.882389e+00 1.059150e+01 -9.640547e+00 3.867690e+00 1.716785e+00 -2.724117e+00 6.130965e+01 -2.427304e-01 -1.102185e-01 1.070389e-02 1.709177e-01 5.660727e-02 1.877327e-01 3.544640e-02 -8.640254e-02 7.150240e-02 -8.372247e-02 5.865911e-02 7.703800e-02 -1.877024e-01 7.925771e-02 -9.645884e-02 -6.272947e-03 -5.680180e-03 2.927996e-02 -1.588455e-02 -5.283678e-02 -3.699781e-02 -7.945145e-02 -7.146426e-03 -2.937608e-03 -7.086451e-03 1.497709e-01
<VARIANCE> 39
 6.660562e+01 2.441457e+01 3.224160e+01 3.144113e+01 2.882976e+01 3.915132e+01 2.260797e+01 2.942932e+01 4.373481e+01 2.176644e+01 1.454007e+01 1.901932e+01 5.931356e+01 1.841338e+00 1.812494e+00 1.957537e+00 1.913908e+00 2.224744e+00 2.677296e+00 1.733014e+00 2.077201e+00 2.461237e+00 1.701123e+00 1.299393e+00 1.465421e+00 1.208191e+00 2.098104e-01 2.952315e-01 3.170645e-01 3.083133e-01 3.367504e-01 4.067942e-01 2.734071e-01 3.586948e-01 4.508333e-01 3.041592e-01 2.377932e-01 2.580501e-01 2.133044e-01
<GCONST> 1.082023e+02
<TRANSP> 5
 0.000000e+00 1.000000e+00 0.000000e+00 0.000000e+00 0.000000e+00
 0.000000e+00 2.012233e-01 7.987767e-01 0.000000e+00 0.000000e+00
 0.000000e+00 0.000000e+00 2.046718e-01 7.953283e-01 0.000000e+00
 0.000000e+00 0.000000e+00 0.000000e+00 4.100993e-01 5.899007e-01
 0.000000e+00 0.000000e+00 0.000000e+00 0.000000e+00 0.000000e+00
<ENDHMM>
~h "v"
<BEGINHMM>
<NUMSTATES> 5
<STATE> 2
<MEAN> 39
 5.101431e+00 -1.360130e+01 1.196796e+01 -9.301089e+00 4.458572e+00 2.417667e+00 -1.061730e+01 9.591114e+00 -1.264451e+01 2.316941e+00 6.896581e-01 -1.813287e+00 6.747116e+01 -7.482560e-02 -3.114994e-02 1.510069e-01 -3.889062e-02 9.884197e-02 1.188125e-01 4.709665e-03 2.555120e-02 -5.530071e-02 -4.321001e-02 -6.443396e-02 -5.352763e-02 1.360901e-05 3.034008e-02 -5.588957e-02 -1.762683e-03 -1.371379e-02 1.649941e-02 -1.981122e-03 -4.651581e-03 -5.701362e-02 -1.177619e-01 3.587511e-02 4.662978e-02 -5.554281e-02 5.584082e-02
<VARIANCE> 39
 8.506541e+01 2.984728e+01 9.557181e+01 6.411317e+01 4.659614e+01 5.868755e+01 4.897887e+01 4.164909e+01 5.114792e+01 4.161153e+01 2.097886e+01 2.192779e+01 8.516842e+01 1.669911e+00 1.860304e+00 3.156080e+00 3.138680e+00 2.545873e+00 3.111262e+00 2.588587e+00 2.699845e+00 2.377365e+00 2.283205e+00 1.576185e+00 1.506260e+00 1.678586e+00 2.816047e-01 3.797520e-01 5.492817e-01 4.780554e-01 2.963869e-01 5.630172e-01 3.889737e-01 3.898680e-01 4.634204e-01 4.245392e-01 2.988287e-01 2.900678e-01 2.531330e-01
<GCONST> 1.198307e+02
<STATE> 3
<MEAN> 39
 5.101152e+00 -1.372209e+01 1.220539e+01 -9.526588e+00 4.594430e+00 2.541464e+00 -1.058092e+01 9.653380e+00 -1.290055e+01 2.323785e+00 7.036331e-01 -1.882024e+00 6.763789e+01 -3.046317e-02 -6.490415e-02 1.389955e-01 -1.319761e-02 7.784527e-02 9.079326e-02 -8.164373e-03 -9.105765e-02 -1.762962e-01 1.763087e-02 3.961790e-02 -1.509062e-01 7.470689e-02 3.549512e-02 -3.868680e-02 -2.936492e-02 2.746285e-02 -2.029654e-02 -1.239233e-02 -1.784029e-03 -6.884247e-02 -5.349728e-02 3.610304e-02 5.588339e-02 -4.818857e-02 5.047039e-02
<VARIANCE> 39
 8.497569e+01 2.981257e+01 9.944798e+01 6.415250e+01 4.921360e+01 5.803790e+01 4.682975e+01 4.510510e+01 5.398080e+01 4.094856e+01 2.258325e+01 2.170796e+01 8.100012e+01 1.897791e+00 1.823982e+00 3.452587e+00 2.838809e+00 2.405722e+00 3.040136e+00 2.566123e+00 2.535833e+00 2.496647e+00 2.369830e+00 1.613563e+00 1.608587e+00 1.706133e+00 2.707663e-01 3.384565e-01 5.723858e-01 4.947846e-01 3.072001e-01 5.651810e-01 3.971380e-01 4.414931e-01 4.771175e-01 4.244337e-01 3.065542e-01 2.853858e-01 2.469413e-01
<GCONST> 1.202559e+02
<STATE> 4
<MEAN> 39
 5.050789e+00 -1.353662e+01 1.176133e+01 -9.596005e+00 4.123866e+00 2.518373e+00 -1.016813e+01 9.628571e+00 -1.257159e+01 2.479655e+00 9.093934e-01 -2.003139e+00 6.754826e+01 1.049750e-02 -8.994949e-02 3.114591e-03 3.274806e-02 4.499210e-02 8.815006e-02 6.303678e-02 -1.370275e-01 -1.800046e-01 9.917057e-02 1.054150e-01 -1.856662e-01 9.199766e-02 2.914552e-02 -3.689343e-02 -1.132167e-02 2.706889e-02 -2.074686e-02 8.044868e-03 -2.891640e-03 -6.005481e-02 -2.705121e-03 2.795821e-02 2.964179e-02 -6.555247e-03 4.342320e-02
<VARIANCE> 39
 8.802552e+01 2.703550e+01 9.970148e+01 5.854615e+01 4.925832e+01 6.070350e+01 4.288354e+01 4.663017e+01 5.667420e+01 3.524712e+01 2.119636e+01 2.034472e+01 8.384782e+01 2.006474e+00 1.743885e+00 3.434512e+00 2.495286e+00 2.082029e+00 2.939089e+00 2.450925e+00 2.230275e+00 2.597129e+00 2.201446e+00 1.554910e+00 1.658895e+00 1.612160e+00 2.344791e-01 2.934448e-01 5.486698e-01 4.360198e-01 3.160714e-01 5.223258e-01 3.681362e-01 4.594714e-01 4.571799e-01 3.843621e-01 2.931481e-01 2.847716e-01 2.267046e-01
<GCONST> 1.185115e+02
<TRANSP> 5
 0.000000e+00 1.000000e+00 0.000000e+00 0.000000e+00 0.000000e+00
 0.000000e+00 1.960798e-01 8.039202e-01 0.000000e+00 0.000000e+00
 0.000000e+00 0.000000e+00 1.955259e-01 8.044741e-01 0.000000e+00
 0.000000e+00 0.000000e+00 0.000000e+00 2.213829e-01 7.786171e-01
 0.000000e+00 0.000000e+00 0.000000e+00 0.000000e+00 0.000000e+00
<ENDHMM>
~h "x"
<BEGINHMM>
<NUMSTATES> 5
<STATE> 2
<MEAN> 39
 6.550299e+00 -1.665658e+01 1.459283e+01 -1.033764e+01 5.321635e+00 2.949228e+00 -1.201260e+01 7.107769e+00 -1.669004e+01 2.386968e+00 9.487253e-01 -3.043140e+00 7.246163e+01 3.181784e-01 -2.511084e-01 1.959584e-01 -2.053063e-01 1.441095e-02 -6.322443e-02 -8.192921e-02 -1.979315e-01 -4.060382e-01 3.299082e-02 -8.172249e-02 -5.388677e-02 5.318118e-01 -3.651393e-04 3.790969e-02 -2.562132e-02 -4.586992e-03 -1.036837e-02 -8.479801e-03 -1.742685e-03 -3.690284e-03 3.053411e-02 -1.047626e-02 7.669348e-03 1.677776e-02 -7.481590e-03
<VARIANCE> 39
 6.648286e+01 6.268956e+01 9.072534e+01 7.766041e+01 5.607864e+01 7.012244e+01 6.345361e+01 4.904951e+01 5.436867e+01 4.744368e+01 3.339389e+01 3.396198e+01 6.241690e+01 5.312239e+00 4.784226e+00 6.351570e+00 4.734408e+00 4.017924e+00 7.598697e+00 4.850107e+00 4.090518e+00 4.573210e+00 3.559724e+00 2.775972e+00 2.739377e+00 4.611872e+00 6.709192e-01 7.953248e-01 1.076466e+00 8.372342e-01 6.770825e-01 1.423967e+00 8.034054e-01 7.317133e-01 8.138537e-01 6.737218e-01 5.081259e-01 5.179927e-01 6.650789e-01
<GCONST> 1.399645e+02
<STATE> 3
<MEAN> 39
 5.839747e+00 -1.743300e+01 1.682066e+01 -1.141896e+01 5.222579e+00 3.457004e+00 -1.184156e+01 6.558387e+00 -1.750566e+01 2.877350e+00 3.767208e-01 -3.397698e+00 7.403269e+01 1.153208e-01 2.697094e-02 -9.657207e-02 -4.352986e-02 -1.768981e-02 -7.181428e-02 -2.491615e-02 1.034350e-02 -1.132550e-02 3.356021e-03 2.783299e-02 3.487606e-02 5.807743e-02 3.778629e-04 1.989738e-02 -3.069354e-02 1.185157e-02 -7.308676e-03 -1.111233e-02 1.091986e-02 2.614679e-02 2.767455e-02 -1.063568e-02 6.219255e-04 6.958910e-03 -2.927334e-02
<VARIANCE> 39
 8.434058e+01 6.375589e+01 1.236866e+02 7.520020e+01 5.968746e+01 7.462811e+01 6.048121e+01 5.139301e+01 4.681147e+01 4.617471e+01 3.388859e+01 3.048806e+01 4.596520e+01 6.008677e+00 4.690993e+00 7.989721e+00 5.447650e+00 4.211198e+00 7.448792e+00 4.647999e+00 4.208061e+00 3.918138e+00 3.719626e+00 2.871577e+00 2.604946e+00 3.447746e+00 8.351436e-01 8.092755e-01 1.266087e+00 9.783345e-01 7.470672e-01 1.399276e+00 8.145105e-01 7.716748e-01 7.362348e-01 6.980756e-01 5.483027e-01 4.859530e-01 5.548685e-01
<GCONST> 1.405811e+02
<STATE> 4
<MEAN> 39
 8.461321e+00 -1.668606e+01 1.086066e+01 -1.283622e+01 3.288289e+00 1.124922e+00 -1.114014e+01 7.568563e+00 -1.659135e+01 3.545543e+00 2.115533e+00 -1.808432e+00 7.295883e+01 1.581184e-01 2.789289e-01 -4.814172e-01 1.549078e-01 -6.057579e-02 -1.914199e-01 1.941664e-01 3.562682e-01 3.832406e-01 -1.833778e-01 -1.866188e-01 1.316207e-01 -3.034279e-01 -1.954293e-01 -7.370451e-04 1.464336e-01 2.043572e-02 8.916528e-03 1.853230e-01 1.191161e-01 9.608671e-03 4.347254e-02 -1.030953e-02 -5.728427e-02 -3.995411e-02 -1.019160e-01
<VARIANCE> 39
 7.771455e+01 4.527061e+01 9.171963e+01 6.207439e+01 5.058752e+01 6.293258e+01 5.548914e+01 4.020684e+01 4.098978e+01 4.997543e+01 3.109098e+01 2.708543e+01 5.261483e+01 3.027071e+00 2.929115e+00 5.470695e+00 2.959414e+00 3.319871e+00 5.668112e+00 4.302762e+00 3.031151e+00 2.822850e+00 2.878716e+00 2.093814e+00 2.256104e+00 2.573111e+00 4.494616e-01 5.288186e-01 8.316603e-01 5.130398e-01 5.721899e-01 8.588705e-01 6.054810e-01 5.234774e-01 5.448328e-01 5.128325e-01 3.874979e-01 3.976403e-01 3.478238e-01
<GCONST> 1.293029e+02
<TRANSP> 5
 0.000000e+00 1.000000e+00 0.000000e+00 0.000000e+00 0.000000e+00
 0.000000e+00 8.306618e-01 1.693382e-01 0.000000e+00 0.000000e+00
 0.000000e+00 0.000000e+00 9.612428e-01 3.875723e-02 0.000000e+00
 0.000000e+00 0.000000e+00 0.000000e+00 6.525134e-01 3.474866e-01
 0.000000e+00 0.000000e+00 0.000000e+00 0.000000e+00 0.000000e+00
<ENDHMM>
~h "z"
<BEGINHMM>
<NUMSTATES> 5
<STATE> 2
<MEAN> 39
 6.071148e+00 -1.464335e+01 1.347091e+01 -8.224841e+00 7.368523e+00 5.101801e+00 -1.277092e+01 4.668595e+00 -1.563435e+01 3.117299e+00 7.639895e-01 -2.909721e+00 6.922010e+01 -1.292315e-01 1.952074e-01 1.009643e-01 3.165429e-02 3.698436e-01 4.921703e-02 -1.084777e-01 1.237734e-01 1.540044e-01 5.631294e-02 -1.974514e-01 -1.068395e-01 -1.571042e-01 -2.872833e-02 -3.766616e-02 3.957987e-02 -7.567126e-02 -8.573370e-02 -2.652501e-02 6.174508e-02 8.090165e-02 1.006051e-02 2.909793e-02 -1.470597e-02 5.521369e-02 2.397359e-02
<VARIANCE> 39
 7.323257e+01 2.224762e+01 1.140212e+02 7.007603e+01 6.452706e+01 7.236682e+01 7.946136e+01 5.465166e+01 5.812424e+01 3.112067e+01 2.978718e+01 3.782791e+01 8.182671e+01 1.487566e+00 1.513437e+00 6.011249e+00 4.590804e+00 2.880140e+00 4.601435e+00 2.136856e+00 3.330582e+00 2.586092e+00 2.507340e+00 1.965177e+00 2.877909e+00 1.043790e+00 2.349422e-01 2.641349e-01 9.150615e-01 7.186415e-01 4.966674e-01 8.484462e-01 4.148613e-01 6.517792e-01 4.119876e-01 3.999939e-01 3.142640e-01 6.034900e-01 1.692864e-01
<GCONST> 1.255244e+02
<STATE> 3
<MEAN> 39
 6.176208e+00 -1.414905e+01 1.281676e+01 -7.480395e+00 8.932360e+00 4.897447e+00 -1.289418e+01 5.456185e+00 -1.497462e+01 3.128573e+00 2.481834e-01 -2.835402e+00 6.872112e+01 7.258796e-02 1.007444e-01 -2.471495e-01 -2.882822e-01 -3.605805e-02 -2.490794e-01 1.521116e-01 4.697639e-01 1.780060e-01 7.664288e-02 -7.939070e-02 2.710032e-01 -5.567519e-02 -3.558514e-03 -3.250980e-02 4.227318e-02 -1.134584e-01 -2.062166e-01 -1.910862e-02 1.065557e-01 9.224598e-02 -3.766892e-04 8.070620e-03 4.927822e-02 5.881192e-02 2.331051e-02
<VARIANCE> 39
 7.400880e+01 2.124625e+01 1.104771e+02 7.421359e+01 6.372089e+01 7.377530e+01 8.471617e+01 5.989571e+01 5.457135e+01 3.341228e+01 2.766115e+01 4.110865e+01 7.329413e+01 1.404779e+00 1.715790e+00 5.425113e+00 4.842913e+00 2.865548e+00 4.270644e+00 2.538041e+00 4.091765e+00 2.355361e+00 2.376168e+00 1.769615e+00 3.449858e+00 1.024973e+00 2.103497e-01 3.318253e-01 8.739515e-01 8.179191e-01 5.037448e-01 7.919031e-01 4.090960e-01 7.237859e-01 4.227590e-01 4.383727e-01 3.230481e-01 6.435480e-01 1.680242e-01
<GCONST> 1.262512e+02
<STATE> 4
<MEAN> 39
 4.423638e+00 -1.375839e+01 1.184931e+01 -8.881126e+00 6.947392e+00 4.306572e+00 -1.195388e+01 7.603137e+00 -1.296111e+01 3.804612e+00 1.524521e+00 -1.464184e+00 6.659216e+01 -6.112444e-02 5.153077e-02 9.945061e-02 -4.404599e-01 -4.412780e-01 -1.631281e-01 2.962700e-01 5.044372e-01 1.445571e-01 1.543288e-01 2.331123e-02 1.715934e-01 -3.829584e-02 -4.463014e-02 -1.922187e-02 1.030040e-01 5.704195e-02 -1.246934e-01 8.651046e-03 9.617504e-02 9.528003e-03 -4.105444e-02 -2.007231e-02 6.321634e-02 -5.159326e-02 -9.150788e-03
<VARIANCE> 39
 8.944290e+01 1.954497e+01 8.142442e+01 4.775079e+01 5.150312e+01 5.838737e+01 6.214203e+01 5.608252e+01 5.941306e+01 3.405707e+01 1.829116e+01 3.614029e+01 8.532278e+01 1.115564e+00 1.433924e+00 3.955389e+00 2.601628e+00 2.409560e+00 3.736436e+00 2.027374e+00 3.724812e+00 2.013986e+00 2.238791e+00 1.426847e+00 2.323620e+00 8.868260e-01 1.463580e-01 2.526591e-01 5.416235e-01 4.125972e-01 3.358609e-01 6.046733e-01 3.158767e-01 5.531734e-01 3.565789e-01 3.736112e-01 2.942716e-01 3.370734e-01 1.250713e-01
<GCONST> 1.171921e+02
<TRANSP> 5
 0.000000e+00 1.000000e+00 0.000000e+00 0.000000e+00 0.000000e+00
 0.000000e+00 3.984567e-01 6.015433e-01 0.000000e+00 0.000000e+00
 0.000000e+00 0.000000e+00 4.250747e-01 5.749254e-01 0.000000e+00
 0.000000e+00 0.000000e+00 0.000000e+00 2.626394e-01 7.373606e-01
 0.000000e+00 0.000000e+00 0.000000e+00 0.000000e+00 0.000000e+00
<ENDHMM>
~h "aa"
<BEGINHMM>
<NUMSTATES> 5
<STATE> 2
<MEAN> 39
 6.441150e+00 -1.441915e+01 8.010315e+00 -1.303756e+01 2.437618e+00 2.247069e+00 -8.011254e+00 1.198985e+01 -1.015880e+01 3.358781e+00 5.901882e-01 -1.070831e-01 6.880891e+01 -6.899163e-02 -8.753746e-02 1.318546e-01 -2.374713e-01 -1.506673e-01 2.739732e-02 2.659203e-01 1.818739e-01 -5.363536e-02 1.583643e-01 -2.635968e-02 1.773160e-01 -2.777336e-02 -3.572758e-02 2.584750e-02 8.969416e-02 1.326305e-01 1.133788e-01 1.423865e-01 -9.682432e-02 -1.325369e-01 -5.296911e-03 -3.310925e-03 -1.333640e-02 -1.218207e-01 -6.299931e-02
<VARIANCE> 39
 1.011301e+02 2.373831e+01 1.009142e+02 5.167805e+01 3.363691e+01 5.885243e+01 3.082572e+01 3.888305e+01 4.558557e+01 3.811850e+01 2.293285e+01 2.217526e+01 9.464272e+01 1.300145e+00 1.544800e+00 3.321826e+00 1.870927e+00 2.018172e+00 2.632887e+00 1.749109e+00 2.173813e+00 2.321840e+00 1.688087e+00 1.623264e+00 1.718682e+00 1.190201e+00 2.033154e-01 2.836920e-01 5.387111e-01 4.214667e-01 3.836840e-01 4.636211e-01 3.261215e-01 3.941331e-01 4.539581e-01 3.533417e-01 2.777499e-01 3.503951e-01 1.840574e-01
<GCONST> 1.150719e+02
<STATE> 3
<MEAN> 39
 6.049357e+00 -1.461097e+01 8.547924e+00 -1.336510e+01 2.179986e+00 2.607727e+00 -7.507977e+00 1.202332e+01 -1.057195e+01 3.696699e+00 6.803778e-01 7.284841e-04 6.854691e+01 -1.938831e-01 4.987782e-02 2.647719e-01 9.854307e-02 3.314444e-02 3.178691e-01 9.842758e-02 -1.342439e-01 -3.432690e-02 1.012923e-01 -4.647294e-04 -1.178686e-01 -2.283266e-01 -3.424007e-03 7.529612e-02 4.198071e-02 1.776838e-01 1.366803e-01 9.669152e-02 -1.576555e-01 -1.425650e-01 1.073082e-03 -6.206471e-02 -2.045397e-03 -1.393795e-01 -6.463754e-02
<VARIANCE> 39
 1.018061e+02 2.586654e+01 9.671777e+01 5.125123e+01 3.486794e+01 5.871399e+01 3.166980e+01 3.986964e+01 4.226764e+01 3.644608e+01 2.275741e+01 2.392441e+01 9.295158e+01 1.351904e+00 1.615453e+00 3.275506e+00 2.543156e+00 2.299679e+00 2.708003e+00 1.761815e+00 2.479404e+00 2.520039e+00 1.947011e+00 1.691466e+00 2.117333e+00 1.441789e+00 2.308463e-01 3.166655e-01 6.436157e-01 4.331268e-01 3.890159e-01 5.118536e-01 3.192520e-01 4.057778e-01 4.949344e-01 3.915414e-01 3.054095e-01 4.053913e-01 2.371018e-01
<GCONST> 1.177151e+02
<STATE> 4
<MEAN> 39
 4.378298e+00 -1.373546e+01 9.478354e+00 -1.225737e+01 2.278075e+00 4.167296e+00 -7.261779e+00 1.132305e+01 -9.929190e+00 3.938876e+00 1.178325e+00 -6.546926e-01 6.637953e+01 -1.874280e-01 1.305224e-01 3.008058e-01 4.139158e-01 3.150968e-01 2.296761e-01 -2.355975e-01 -2.766998e-01 -1.118741e-01 -1.165775e-02 -1.087708e-02 -2.225582e-01 -3.058706e-01 3.836939e-02 2.859331e-03 5.757204e-02 6.726575e-02 8.152662e-02 -1.357215e-02 -1.445373e-01 -7.925987e-02 -7.289749e-02 -3.741854e-02 -1.411823e-02 -7.605312e-02 3.137333e-02
<VARIANCE> 39
 9.362129e+01 2.470654e+01 8.182178e+01 4.891591e+01 3.231892e+01 5.436437e+01 3.367554e+01 3.318350e+01 3.786627e+01 2.899963e+01 1.976102e+01 2.093582e+01 9.465440e+01 1.428507e+00 1.483755e+00 3.166677e+00 2.537573e+00 2.072644e+00 2.853848e+00 1.677822e+00 2.235804e+00 2.468738e+00 1.907793e+00 1.588744e+00 1.962227e+00 1.460784e+00 2.258940e-01 2.515388e-01 5.281130e-01 3.545735e-01 3.230788e-01 4.601126e-01 2.796512e-01 3.507019e-01 4.364018e-01 3.452209e-01 2.796540e-01 3.343496e-01 2.338688e-01
<GCONST> 1.142986e+02
<TRANSP> 5
 0.000000e+00 1.000000e+00 0.000000e+00 0.000000e+00 0.000000e+00
 0.000000e+00 3.053490e-01 6.946510e-01 0.000000e+00 0.000000e+00
 0.000000e+00 0.000000e+00 3.162225e-01 6.837775e-01 0.000000e+00
 0.000000e+00 0.000000e+00 0.000000e+00 3.806133e-01 6.193867e-01
 0.000000e+00 0.000000e+00 0.000000e+00 0.000000e+00 0.000000e+00
<ENDHMM>
~h "aw"
<BEGINHMM>
<NUMSTATES> 5
<STATE> 2
<MEAN> 39
 -7.474797e-01 -1.372438e+01 1.363240e+01 -7.800015e+00 3.957401e+00 4.912278e+00 -9.313604e+00 9.542570e+00 -9.857509e+00 3.919184e+00 1.996032e+00 -2.240039e+00 6.241040e+01 -1.802149e-04 -4.002908e-04 -4.533151e-04 -6.255359e-04 3.060046e-04 -9.756409e-05 3.545313e-04 3.676544e-04 -3.322966e-04 2.823267e-04 3.441859e-04 -7.776468e-06 1.221478e-04 -1.140098e-05 1.280875e-04 8.513568e-05 5.610451e-05 1.307168e-04 1.258145e-04 -3.556004e-04 -3.413941e-04 -2.462322e-04 -2.982411e-04 -2.002541e-04 1.479088e-04 -5.553468e-05
<VARIANCE> 39
 7.885750e+01 3.150516e+01 5.932858e+01 4.002160e+01 3.388152e+01 4.450462e+01 4.196474e+01 3.377337e+01 5.805833e+01 2.700758e+01 1.807174e+01 1.807939e+01 1.000320e+02 2.049164e+00 1.868461e+00 3.042747e+00 2.325078e+00 1.845033e+00 2.917301e+00 2.107786e+00 2.084596e+00 2.106791e+00 1.946175e+00 1.426612e+00 1.517214e+00 1.393703e+00 2.791751e-01 3.309114e-01 4.813313e-01 4.079526e-01 3.174572e-01 5.210913e-01 3.729059e-01 3.905098e-01 3.965955e-01 3.683704e-01 2.743881e-01 2.959611e-01 2.159844e-01
<GCONST> 1.148699e+02
<STATE> 3
<MEAN> 39
 -7.474797e-01 -1.372438e+01 1.363240e+01 -7.800015e+00 3.957401e+00 4.912278e+00 -9.313604e+00 9.542570e+00 -9.857509e+00 3.919184e+00 1.996032e+00 -2.240039e+00 6.241040e+01 -1.802149e-04 -4.002908e-04 -4.533151e-04 -6.255359e-04 3.060046e-04 -9.756409e-05 3.545313e-04 3.676544e-04 -3.322966e-04 2.823267e-04 3.441859e-04 -7.776468e-06 1.221478e-04 -1.140098e-05 1.280875e-04 8.513568e-05 5.610451e-05 1.307168e-04 1.258145e-04 -3.556004e-04 -3.413941e-04 -2.462322e-04 -2.982411e-04 -2.002541e-04 1.479088e-04 -5.553468e-05
<VARIANCE> 39
 7.885750e+01 3.150516e+01 5.932858e+01 4.002160e+01 3.388152e+01 4.450462e+01 4.196474e+01 3.377337e+01 5.805833e+01 2.700758e+01 1.807174e+01 1.807939e+01 1.000320e+02 2.049164e+00 1.868461e+00 3.042747e+00 2.325078e+00 1.845033e+00 2.917301e+00 2.107786e+00 2.084596e+00 2.106791e+00 1.946175e+00 1.426612e+00 1.517214e+00 1.393703e+00 2.791751e-01 3.309114e-01 4.813313e-01 4.079526e-01 3.174572e-01 5.210913e-01 3.729059e-01 3.905098e-01 3.965955e-01 3.683704e-01 2.743881e-01 2.959611e-01 2.159844e-01
<GCONST> 1.148699e+02
<STATE> 4
<MEAN> 39
 -7.474797e-01 -1.372438e+01 1.363240e+01 -7.800015e+00 3.957401e+00 4.912278e+00 -9.313604e+00 9.542570e+00 -9.857509e+00 3.919184e+00 1.996032e+00 -2.240039e+00 6.241040e+01 -1.802149e-04 -4.002908e-04 -4.533151e-04 -6.255359e-04 3.060046e-04 -9.756409e-05 3.545313e-04 3.676544e-04 -3.322966e-04 2.823267e-04 3.441859e-04 -7.776468e-06 1.221478e-04 -1.140098e-05 1.280875e-04 8.513568e-05 5.610451e-05 1.307168e-04 1.258145e-04 -3.556004e-04 -3.413941e-04 -2.462322e-04 -2.982411e-04 -2.002541e-04 1.479088e-04 -5.553468e-05
<VARIANCE> 39
 7.885750e+01 3.150516e+01 5.932858e+01 4.002160e+01 3.388152e+01 4.450462e+01 4.196474e+01 3.377337e+01 5.805833e+01 2.700758e+01 1.807174e+01 1.807939e+01 1.000320e+02 2.049164e+00 1.868461e+00 3.042747e+00 2.325078e+00 1.845033e+00 2.917301e+00 2.107786e+00 2.084596e+00 2.106791e+00 1.946175e+00 1.426612e+00 1.517214e+00 1.393703e+00 2.791751e-01 3.309114e-01 4.813313e-01 4.079526e-01 3.174572e-01 5.210913e-01 3.729059e-01 3.905098e-01 3.965955e-01 3.683704e-01 2.743881e-01 2.959611e-01 2.159844e-01
<GCONST> 1.148699e+02
<TRANSP> 5
 0.000000e+00 1.000000e+00 0.000000e+00 0.000000e+00 0.000000e+00
 0.000000e+00 6.000000e-01 4.000000e-01 0.000000e+00 0.000000e+00
 0.000000e+00 0.000000e+00 6.000000e-01 4.000000e-01 0.000000e+00
 0.000000e+00 0.000000e+00 0.000000e+00 7.000000e-01 3.000000e-01
 0.000000e+00 0.000000e+00 0.000000e+00 0.000000e+00 0.000000e+00
<ENDHMM>
~h "ch"
<BEGINHMM>
<NUMSTATES> 5
<STATE> 2
<MEAN> 39
 -1.955165e+00 -2.128100e+01 2.017443e+01 -7.379786e+00 4.153243e+00 5.322210e+00 -1.231248e+01 8.121587e+00 -1.310588e+01 1.875341e+00 1.022728e+00 -2.603552e+00 6.869457e+01 -5.653462e-01 -1.333950e+00 1.728565e-01 -4.675280e-01 -4.274155e-01 -1.397095e-02 -2.834172e-01 9.412628e-02 2.364572e-01 -1.498629e-01 -2.387386e-03 3.945760e-01 4.715154e-01 1.471718e-01 3.354920e-02 -5.562937e-02 -2.237650e-02 2.708841e-02 -1.063523e-01 -4.863817e-02 -2.208261e-02 -1.237431e-02 9.316583e-02 3.319575e-02 -2.718158e-02 9.367645e-02
<VARIANCE> 39
 8.817892e+01 1.077740e+02 9.301948e+01 5.183682e+01 4.046185e+01 4.246019e+01 5.528528e+01 4.286488e+01 5.388310e+01 3.845952e+01 2.376422e+01 2.637659e+01 6.877632e+01 4.349086e+00 7.208109e+00 4.256459e+00 3.712037e+00 3.124960e+00 3.085559e+00 2.844464e+00 3.664865e+00 3.892024e+00 3.823673e+00 2.225478e+00 2.094786e+00 3.264383e+00 5.025345e-01 1.280157e+00 7.987514e-01 5.330284e-01 5.671632e-01 5.729926e-01 4.790572e-01 5.740985e-01 5.930669e-01 6.357466e-01 4.394887e-01 3.691455e-01 5.383689e-01
<GCONST> 1.319599e+02
<STATE> 3
<MEAN> 39
 -2.992487e+00 -2.598925e+01 2.041421e+01 -9.011436e+00 3.643996e+00 4.325408e+00 -1.422402e+01 7.885110e+00 -1.274992e+01 2.256069e+00 1.286377e+00 -1.649648e+00 7.144228e+01 6.104871e-01 4.029953e-02 -4.340861e-01 -1.577587e-01 1.153233e-01 -2.135310e-01 -2.701912e-01 -2.942931e-01 -1.812361e-01 1.381082e-01 1.752775e-01 4.761758e-02 3.673548e-01 3.150207e-01 4.845332e-01 -1.808188e-01 1.793218e-01 1.384827e-01 -1.464100e-02 6.768955e-02 -5.100679e-02 -6.215801e-02 3.185110e-02 3.527349e-02 -8.709445e-02 -1.461400e-01
<VARIANCE> 39
 8.925633e+01 1.031494e+02 7.969308e+01 4.038253e+01 3.445416e+01 4.166587e+01 5.431789e+01 4.301795e+01 4.496318e+01 3.863180e+01 2.882108e+01 2.418011e+01 5.300252e+01 6.232076e+00 9.007917e+00 5.207728e+00 3.580446e+00 3.205795e+00 3.041309e+00 3.046645e+00 3.882004e+00 4.188196e+00 3.650037e+00 2.576220e+00 1.994471e+00 3.164415e+00 7.631944e-01 1.159627e+00 8.292928e-01 6.110420e-01 5.341717e-01 5.719860e-01 5.114044e-01 6.388516e-01 7.285964e-01 6.630353e-01 4.863684e-01 3.790414e-01 4.816848e-01
<GCONST> 1.328457e+02
<STATE> 4
<MEAN> 39
 -9.643288e-01 -2.189603e+01 1.827894e+01 -8.125408e+00 4.200376e+00 4.655149e+00 -1.294681e+01 7.564269e+00 -1.209724e+01 3.264981e+00 1.937843e+00 -2.207803e+00 6.966615e+01 1.140672e+00 1.158000e+00 -4.386496e-01 3.496740e-01 4.316102e-01 -5.749777e-02 -3.111803e-02 -3.107461e-01 -2.973042e-01 1.849091e-01 1.587064e-01 -2.319437e-01 -3.902007e-02 1.073096e-01 1.386233e-01 -9.294124e-02 7.072798e-02 5.116692e-02 -5.499950e-02 1.995953e-02 4.671641e-02 -7.340447e-02 -6.403240e-02 -4.668654e-02 -4.586429e-02 -4.680253e-02
<VARIANCE> 39
 9.370092e+01 1.094942e+02 7.779438e+01 3.472081e+01 2.773449e+01 4.393248e+01 5.299070e+01 3.841158e+01 4.760865e+01 3.932518e+01 2.111399e+01 2.506509e+01 7.528827e+01 5.742170e+00 6.384438e+00 4.792711e+00 2.952522e+00 2.168743e+00 3.386919e+00 2.805498e+00 2.707645e+00 3.757709e+00 3.013265e+00 1.877692e+00 1.506602e+00 2.800543e+00 6.909504e-01 9.937323e-01 6.247085e-01 4.816420e-01 3.716418e-01 5.449698e-01 4.360321e-01 5.056894e-01 5.793986e-01 5.267174e-01 3.586456e-01 2.603207e-01 3.634320e-01
<GCONST> 1.271798e+02
<TRANSP> 5
 0.000000e+00 1.000000e+00 0.000000e+00 0.000000e+00 0.000000e+00
 0.000000e+00 5.665165e-01 4.334835e-01 0.000000e+00 0.000000e+00
 0.000000e+00 0.000000e+00 6.919643e-01 3.080356e-01 0.000000e+00
 0.000000e+00 0.000000e+00 0.000000e+00 4.514577e-01 5.485423e-01
 0.000000e+00 0.000000e+00 0.000000e+00 0.000000e+00 0.000000e+00
<ENDHMM>
~h "dj"
<BEGINHMM>
<NUMSTATES> 5
<STATE> 2
<MEAN> 39
 4.474622e+00 -1.460936e+01 1.060100e+01 -5.658060e+00 7.678679e+00 2.337402e+00 -1.248892e+01 7.148040e+00 -1.179445e+01 4.329739e+00 1.880834e+00 -1.459996e+00 6.653069e+01 9.594328e-02 -7.036546e-02 4.011582e-02 -2.623178e-01 -1.026974e-01 4.844982e-01 -3.300980e-02 -3.919292e-01 8.650920e-02 1.068113e-01 8.544253e-02 3.077341e-01 1.044242e-02 -2.806623e-02 -3.323114e-02 1.694881e-01 2.025055e-03 -8.758440e-02 -1.124559e-01 -4.281633e-02 -5.277687e-04 -1.231513e-01 3.789619e-02 1.638955e-03 -1.475974e-02 -2.303115e-02
<VARIANCE> 39
 7.840742e+01 2.505018e+01 5.661943e+01 7.416753e+01 4.756378e+01 5.116722e+01 4.690246e+01 5.140524e+01 5.210233e+01 2.998428e+01 2.461106e+01 2.375995e+01 8.588640e+01 2.366577e+00 2.203953e+00 3.698825e+00 3.635831e+00 2.673535e+00 4.181324e+00 3.008494e+00 2.576944e+00 3.158722e+00 2.933102e+00 1.357901e+00 1.669436e+00 3.507665e+00 2.325080e-01 3.266650e-01 5.012957e-01 6.724223e-01 3.172099e-01 7.686298e-01 6.070279e-01 4.132039e-01 4.816985e-01 4.731091e-01 2.402695e-01 3.811036e-01 4.109711e-01
<GCONST> 1.231598e+02
<STATE> 3
<MEAN> 39
 5.296197e+00 -1.490356e+01 1.104180e+01 -6.195085e+00 7.933385e+00 2.531475e+00 -1.350671e+01 6.004463e+00 -1.302927e+01 3.929667e+00 1.569556e+00 -1.175109e+00 6.731536e+01 1.946996e-01 9.514364e-02 3.299033e-02 2.419257e-02 -4.103571e-02 -1.751002e-01 -2.658538e-01 -2.978812e-01 -2.385323e-01 1.110765e-01 1.900270e-01 1.448486e-01 -7.244279e-04 -9.231436e-02 1.393502e-02 1.705161e-03 6.572587e-02 -6.782753e-02 -1.843844e-01 -4.572864e-03 1.172585e-01 -4.099671e-02 -3.386648e-02 3.107444e-02 -3.763443e-02 -8.588587e-02
<VARIANCE> 39
 7.178094e+01 2.664754e+01 5.000698e+01 7.138671e+01 5.917671e+01 4.673733e+01 5.319631e+01 4.882365e+01 5.558033e+01 3.176267e+01 2.545428e+01 2.535614e+01 7.718626e+01 3.045835e+00 1.784000e+00 3.040256e+00 4.024776e+00 2.019960e+00 5.525397e+00 2.852574e+00 2.471683e+00 3.326413e+00 2.542821e+00 1.274001e+00 1.463645e+00 3.898019e+00 2.080043e-01 3.682605e-01 5.954462e-01 8.468075e-01 3.867841e-01 8.397317e-01 5.332648e-01 3.824171e-01 4.517922e-01 4.847141e-01 2.885076e-01 3.881481e-01 4.413811e-01
<GCONST> 1.236803e+02
<STATE> 4
<MEAN> 39
 7.229372e+00 -1.446262e+01 9.964034e+00 -5.435295e+00 9.098886e+00 1.050759e+00 -1.546458e+01 5.024012e+00 -1.579954e+01 1.555416e+00 2.857941e+00 -1.268389e+00 6.924142e+01 -1.681400e-01 2.111059e-01 7.474508e-02 -2.053829e-01 -4.739795e-01 5.117192e-02 1.813705e-01 1.877961e-01 1.798813e-02 -1.756010e-01 1.049418e-01 -5.792975e-02 -3.057840e-01 -9.111943e-02 -3.196440e-02 3.841847e-02 -4.785590e-02 -1.053694e-01 -1.269325e-03 4.066269e-02 1.155854e-01 9.711367e-02 -1.252039e-01 -1.301329e-01 -4.016870e-02 -3.347729e-02
<VARIANCE> 39
 7.239792e+01 1.974810e+01 4.665517e+01 4.805757e+01 5.858657e+01 3.856077e+01 5.427391e+01 4.638451e+01 7.771778e+01 5.660136e+01 2.500492e+01 1.723567e+01 8.506779e+01 1.111466e+00 1.152579e+00 2.164765e+00 2.907393e+00 1.786862e+00 2.796077e+00 1.944335e+00 1.974689e+00 2.377286e+00 2.405017e+00 1.707239e+00 1.580581e+00 1.383823e+00 1.310598e-01 2.150427e-01 3.835978e-01 4.390669e-01 3.135453e-01 5.224015e-01 3.585382e-01 3.386815e-01 3.303268e-01 5.372587e-01 2.473829e-01 2.538533e-01 2.068926e-01
<GCONST> 1.138721e+02
<TRANSP> 5
 0.000000e+00 1.000000e+00 0.000000e+00 0.000000e+00 0.000000e+00
 0.000000e+00 2.080361e-01 7.919639e-01 0.000000e+00 0.000000e+00
 0.000000e+00 0.000000e+00 2.790272e-01 7.209728e-01 0.000000e+00
 0.000000e+00 0.000000e+00 0.000000e+00 4.218011e-01 5.781989e-01
 0.000000e+00 0.000000e+00 0.000000e+00 0.000000e+00 0.000000e+00
<ENDHMM>
~h "ee"
<BEGINHMM>
<NUMSTATES> 5
<STATE> 2
<MEAN> 39
 9.217097e+00 -1.470929e+01 1.176995e+01 -9.609978e+00 5.951119e+00 2.825339e-01 -1.234451e+01 7.937126e+00 -1.657899e+01 1.023064e+00 -3.556612e-01 -2.755842e+00 7.300037e+01 3.959561e-01 -1.259814e-01 -2.499349e-01 -2.260307e-02 -8.425308e-03 -4.001911e-01 -1.790309e-01 -4.682684e-03 -1.994922e-01 -1.084575e-01 -4.355425e-02 -5.733149e-03 4.176982e-01 -4.900999e-02 3.925631e-02 1.778292e-02 2.453613e-02 -1.088610e-02 1.213280e-02 1.861337e-02 -2.192765e-03 1.628114e-02 -7.864864e-03 1.833718e-02 -3.427874e-04 -6.624685e-02
<VARIANCE> 39
 5.744061e+01 4.591452e+01 9.413692e+01 6.779180e+01 6.048397e+01 8.371565e+01 5.857733e+01 5.910606e+01 5.413276e+01 4.720108e+01 3.360881e+01 3.097338e+01 5.155261e+01 5.250907e+00 4.284928e+00 7.012496e+00 4.498375e+00 4.535250e+00 9.480673e+00 4.650232e+00 5.273627e+00 4.473191e+00 3.806866e+00 3.014595e+00 2.847031e+00 4.715290e+00 8.111330e-01 8.154069e-01 1.131067e+00 7.919688e-01 7.633907e-01 1.810382e+00 8.254517e-01 1.017294e+00 8.399100e-01 7.784355e-01 5.661417e-01 5.508462e-01 6.879621e-01
<GCONST> 1.414542e+02
<STATE> 3
<MEAN> 39
