~o
<STREAMINFO> 1 39
<VECSIZE> 39<NULLD><MFCC_D_A_0><DIAGC>
~s "silst"
<MEAN> 39
 -5.341114e+00 -1.354413e+01 1.365193e+01 -9.542581e+00 1.894448e+00 7.065040e+00 -7.316844e+00 1.061231e+01 -8.008502e+00 5.861610e+00 3.263402e+00 -1.038841e+00 5.732064e+01 -1.751028e-01 7.706810e-02 -3.703722e-03 1.919465e-01 4.546697e-02 8.038711e-02 8.475199e-02 -4.405040e-04 5.946206e-02 -9.678743e-02 -8.880976e-03 -3.417705e-02 -2.093448e-01 7.409646e-02 7.984658e-02 -1.103903e-01 1.538244e-01 1.218626e-02 5.775324e-02 3.056194e-02 -5.641149e-02 1.199391e-01 -8.855219e-02 -1.037150e-02 -3.385143e-02 -4.913193e-02
<VARIANCE> 39
 1.362652e+01 1.554917e+01 2.517502e+01 2.008738e+01 1.634159e+01 2.447552e+01 1.695400e+01 2.704996e+01 2.209926e+01 1.803449e+01 1.447308e+01 1.162903e+01 7.451319e+00 7.174482e-01 1.466102e+00 2.375143e+00 2.186337e+00 1.380006e+00 2.261126e+00 1.533817e+00 1.950577e+00 2.421449e+00 1.820453e+00 1.276278e+00 1.102491e+00 7.850395e-01 1.023340e-01 2.564918e-01 4.548886e-01 3.943705e-01 2.726914e-01 4.401037e-01 3.048155e-01 3.742302e-01 4.672917e-01 3.546859e-01 2.508906e-01 2.196711e-01 1.327783e-01
<GCONST> 9.765120e+01
~h "a"
<BEGINHMM>
<NUMSTATES> 5
<STATE> 2
<MEAN> 39
 8.204010e+00 -1.626086e+01 7.649737e+00 -1.422303e+01 1.442289e+00 8.174580e-01 -8.908317e+00 9.033723e+00 -1.423832e+01 4.439333e+00 1.389112e+00 4.826056e-01 7.151215e+01 2.117337e+00 -3.737259e-01 -1.857600e+00 -4.857036e-01 -3.890227e-02 -1.860468e+00 3.628301e-01 4.827715e-01 -9.395955e-01 4.310117e-01 2.382643e-01 4.221822e-01 1.917716e+00 -2.020957e-01 1.683565e-01 1.644737e-01 3.711462e-01 2.816381e-01 2.214586e-01 1.999048e-02 -1.098676e-01 8.496910e-02 1.367156e-02 -3.567576e-02 -1.730433e-01 -2.731570e-01
<VARIANCE> 39
 6.930676e+01 2.629923e+01 6.409804e+01 3.437630e+01 3.981951e+01 6.036142e+01 4.490181e+01 4.881097e+01 5.555641e+01 3.389578e+01 2.550907e+01 1.971128e+01 8.104357e+01 4.641886e+00 2.636844e+00 5.830257e+00 3.860499e+00 3.064423e+00 5.595523e+00 3.690292e+00 3.766933e+00 3.080613e+00 3.155686e+00 2.509270e+00 2.106762e+00 4.332310e+00 1.059436e+00 6.654305e-01 1.360837e+00 8.118176e-01 5.807871e-01 1.267635e+00 6.387942e-01 6.493732e-01 6.198316e-01 5.779049e-01 5.198882e-01 4.621208e-01 8.289625e-01
<GCONST> 1.329377e+02
<STATE> 3
<MEAN> 39
 1.473161e+01 -1.769307e+01 2.288267e+00 -1.429357e+01 3.427576e+00 -5.409007e+00 -9.856085e+00 9.448401e+00 -1.804474e+01 5.382998e+00 3.046621e+00 1.677306e+00 7.809885e+01 -3.213117e-01 2.159921e-01 6.850947e-01 4.318700e-01 3.102657e-01 7.829526e-01 3.718506e-01 -3.065825e-01 3.220186e-02 2.159922e-01 -7.845940e-02 -1.718131e-01 -4.130344e-01 -6.581942e-01 3.019988e-01 9.283375e-01 2.040755e-01 5.038163e-02 1.008148e+00 -5.650320e-02 -2.672861e-01 3.890650e-01 -2.698881e-01 -3.194900e-01 -3.206111e-01 -6.766735e-01
<VARIANCE> 39
 5.560305e+00 1.381093e+01 3.627743e+01 2.252225e+01 4.135422e+01 2.852995e+01 4.116235e+01 5.615824e+01 5.681476e+01 4.776471e+01 2.896033e+01 2.324748e+01 1.428667e+01 1.044478e+00 1.695782e+00 5.356999e+00 2.026242e+00 2.491027e+00 3.964380e+00 3.171885e+00 2.370070e+00 2.744925e+00 3.169048e+00 2.099911e+00 2.013748e+00 1.547603e+00 3.538617e-01 3.069893e-01 6.948676e-01 4.477164e-01 4.470648e-01 5.966071e-01 4.440993e-01 5.631610e-01 6.086566e-01 6.503870e-01 3.792538e-01 5.004038e-01 2.319879e-01
<GCONST> 1.157812e+02
<STATE> 4
<MEAN> 39
 1.109861e+01 -1.414437e+01 7.433393e+00 -1.337363e+01 2.888268e+00 1.451279e+00 -7.734816e+00 8.670942e+00 -1.570403e+01 4.542571e+00 2.404474e+00 8.292177e-02 7.288660e+01 -1.784819e+00 1.066408e+00 1.906706e+00 8.632520e-01 7.163362e-02 2.341871e+00 6.153257e-03 -5.738286e-01 1.202216e+00 -7.163566e-01 -5.463762e-01 -8.151334e-01 -2.138839e+00 -2.969395e-01 -2.050129e-01 4.001117e-02 3.997487e-02 -3.514307e-03 -1.541124e-01 -3.264917e-01 6.019893e-03 1.158132e-01 -1.363630e-01 -5.774138e-02 -2.480378e-02 -7.627372e-02
<VARIANCE> 39
 1.693217e+01 1.994168e+01 5.618942e+01 3.296073e+01 4.951585e+01 4.413750e+01 5.009489e+01 6.251082e+01 5.362363e+01 5.222957e+01 2.976131e+01 2.368831e+01 3.261719e+01 2.227071e+00 2.394071e+00 5.808734e+00 3.159483e+00 3.822921e+00 4.651245e+00 3.274315e+00 3.733662e+00 3.561844e+00 3.978943e+00 2.243538e+00 3.423048e+00 2.456570e+00 2.865161e-01 3.301422e-01 8.473911e-01 4.329053e-01 4.344127e-01 5.803344e-01 5.023037e-01 4.969150e-01 5.419843e-01 6.302218e-01 3.310186e-01 4.148792e-01 2.390108e-01
<GCONST> 1.236790e+02
<TRANSP> 5
 0.000000e+00 1.000000e+00 0.000000e+00 0.000000e+00 0.000000e+00
 0.000000e+00 5.112221e-01 4.887779e-01 0.000000e+00 0.000000e+00
 0.000000e+00 0.000000e+00 6.267922e-01 3.732078e-01 0.000000e+00
 0.000000e+00 0.000000e+00 0.000000e+00 3.797365e-01 6.202635e-01
 0.000000e+00 0.000000e+00 0.000000e+00 0.000000e+00 0.000000e+00
<ENDHMM>
~h "b"
<BEGINHMM>
<NUMSTATES> 5
<STATE> 2
<MEAN> 39
 8.611525e+00 -2.359750e+00 1.590662e+01 -2.629173e+00 7.522308e+00 7.547381e+00 -9.047859e+00 8.039311e+00 -1.053803e+01 -1.024195e+00 -1.703565e+00 -4.372648e+00 6.279044e+01 -3.333541e-01 -1.929319e-01 9.746809e-01 -1.105943e-01 -5.431151e-02 8.739231e-01 7.305006e-02 -4.906422e-01 -1.411275e-01 3.618425e-01 -1.525939e-01 -2.348662e-01 -5.678197e-03 2.640268e-01 -1.093969e+00 -4.623716e-01 -4.947612e-01 -7.535704e-02 -8.398954e-01 -4.400625e-01 1.640249e-02 -7.033527e-01 -6.812798e-02 7.340628e-02 4.091919e-02 9.602299e-01
<VARIANCE> 39
 1.841216e+01 1.096444e+01 2.016905e+01 1.199653e+01 1.380182e+01 1.134743e+01 1.366813e+01 2.141887e+01 1.633093e+01 2.149615e+01 1.500362e+01 1.310943e+01 1.100488e+01 1.113275e+00 4.885410e+00 1.960098e+00 2.465852e+00 2.020732e+00 2.572008e+00 1.371384e+00 1.764128e+00 2.484165e+00 1.617179e+00 1.180948e+00 1.166131e+00 2.830260e+00 1.628180e-01 4.574661e-01 3.926988e-01 4.280682e-01 4.252873e-01 4.715286e-01 3.804037e-01 3.403109e-01 5.231656e-01 4.116138e-01 3.192320e-01 3.173703e-01 3.132246e-01
<GCONST> 1.022819e+02
<STATE> 3
<MEAN> 39
 8.700173e+00 -9.499897e+00 1.688705e+01 -6.704337e+00 5.504460e+00 8.771862e+00 -8.171601e+00 7.011815e+00 -1.411601e+01 -8.603522e-01 -2.767089e+00 -4.742534e+00 6.771462e+01 9.675343e-01 -3.287238e+00 -1.340854e+00 -1.067310e+00 1.010837e-01 -2.015394e+00 -1.553763e+00 -3.917269e-01 -2.258680e+00 -4.753731e-01 2.522946e-02 -2.040799e-01 2.968300e+00 4.508823e-01 -4.154024e-02 -7.098936e-01 5.673646e-01 5.005480e-01 -1.324793e+00 -8.767618e-01 3.731227e-02 -3.321919e-01 -2.160939e-01 3.416450e-01 -2.449046e-02 4.114821e-01
<VARIANCE> 39
 1.051365e+01 3.319112e+01 2.890017e+01 2.093235e+01 1.917933e+01 2.393963e+01 1.420621e+01 3.266904e+01 2.170890e+01 2.877177e+01 1.299692e+01 1.215167e+01 1.691062e+01 9.625334e-01 2.902034e+00 2.612627e+00 2.907671e+00 4.785995e+00 2.731262e+00 2.058913e+00 2.380347e+00 4.020674e+00 3.311477e+00 2.558052e+00 1.831170e+00 1.392661e+00 1.257897e-01 6.176655e-01 5.900014e-01 5.439187e-01 3.747093e-01 4.113858e-01 3.677048e-01 3.690500e-01 5.363826e-01 5.981706e-01 3.817596e-01 2.862861e-01 2.377937e-01
<GCONST> 1.098676e+02
<STATE> 4
<MEAN> 39
 1.203055e+01 -1.379229e+01 1.213297e+01 -7.944096e+00 6.978605e+00 3.268086e+00 -1.286202e+01 5.630099e+00 -1.930984e+01 -3.590861e+00 -2.857445e+00 -4.515175e+00 7.334206e+01 1.239180e+00 -2.295749e+00 -1.796192e+00 3.688290e-01 1.091560e+00 -3.530159e+00 -2.683273e+00 -3.863244e-01 -2.243232e+00 -3.010876e-01 9.129886e-01 -2.409811e-01 2.589851e+00 -1.278920e-01 6.777281e-01 1.976391e-01 7.580167e-01 2.631385e-01 -3.443674e-01 -1.872582e-01 1.426933e-01 4.661106e-01 2.381998e-01 2.810105e-01 -5.577056e-02 -4.838484e-01
<VARIANCE> 39
 1.046555e+01 1.765122e+01 3.583402e+01 2.818409e+01 4.933447e+01 4.156785e+01 2.018476e+01 4.695884e+01 4.112115e+01 3.416436e+01 2.513601e+01 1.400912e+01 1.192409e+01 1.115215e+00 3.272213e+00 3.470172e+00 4.528567e+00 4.609248e+00 2.633856e+00 2.572231e+00 2.742044e+00 3.835265e+00 3.887032e+00 3.436088e+00 2.158595e+00 1.290994e+00 1.274669e-01 4.255694e-01 5.467350e-01 3.690586e-01 4.696241e-01 7.780250e-01 4.262677e-01 4.059375e-01 7.354026e-01 6.388460e-01 3.638499e-01 2.941139e-01 2.151536e-01
<GCONST> 1.155419e+02
<TRANSP> 5
 0.000000e+00 1.000000e+00 0.000000e+00 0.000000e+00 0.000000e+00
 0.000000e+00 7.382211e-01 2.617789e-01 0.000000e+00 0.000000e+00
 0.000000e+00 0.000000e+00 1.152169e-01 8.847831e-01 0.000000e+00
 0.000000e+00 0.000000e+00 0.000000e+00 2.202176e-01 7.797824e-01
 0.000000e+00 0.000000e+00 0.000000e+00 0.000000e+00 0.000000e+00
<ENDHMM>
~h "c"
<BEGINHMM>
<NUMSTATES> 5
<STATE> 2
<MEAN> 39
 -5.996745e+00 -1.740432e+01 2.859057e+01 -1.635518e+01 3.614243e-01 7.417002e+00 -6.294096e+00 5.116764e+00 -1.741277e+01 6.797195e+00 -2.794004e+00 -2.565367e+00 6.924307e+01 -3.657085e+00 -2.144900e+00 2.822931e+00 -2.788338e+00 -7.256715e-01 4.856124e-01 3.584639e-01 -2.776220e-01 -5.036868e-01 1.550452e+00 -2.146280e-01 2.502128e-02 9.364460e-01 4.037139e-01 -3.093178e-01 -3.990180e-01 7.865230e-02 1.657740e-01 -3.058130e-01 -2.127998e-01 2.478527e-01 -1.308279e-01 5.512777e-02 3.947385e-01 -6.043535e-02 5.543052e-01
<VARIANCE> 39
 4.175845e+01 3.101857e+01 8.171789e+01 4.945044e+01 3.504535e+01 3.127579e+01 3.130312e+01 3.237820e+01 4.399721e+01 2.703433e+01 1.926606e+01 1.567289e+01 4.027897e+01 3.951602e+00 3.586161e+00 7.508165e+00 4.484964e+00 2.426345e+00 2.546855e+00 2.403072e+00 3.381366e+00 3.795113e+00 2.649475e+00 1.717679e+00 1.427234e+00 3.519650e+00 6.818727e-01 8.213072e-01 1.532614e+00 1.156057e+00 4.095892e-01 5.802811e-01 4.898683e-01 4.714517e-01 6.632923e-01 4.489468e-01 3.197427e-01 3.360793e-01 5.354177e-01
<GCONST> 1.251264e+02
<STATE> 3
<MEAN> 39
 -1.393689e+01 -2.609646e+01 3.462011e+01 -2.192189e+01 -1.564106e-01 9.411533e+00 -5.743444e+00 6.264472e+00 -1.850295e+01 1.177970e+01 8.263442e-01 -2.519583e+00 7.536932e+01 1.127782e+00 -1.283583e-01 -7.148250e-01 1.078240e+00 2.488934e-01 3.493999e-01 -1.693764e-01 -2.041332e-01 7.455565e-02 -2.012335e-01 9.467908e-01 2.540371e-03 3.389247e-01 1.160118e+00 7.214436e-01 -8.960935e-01 7.616502e-01 2.137240e-01 -2.103482e-01 -2.008885e-01 -2.117897e-01 -7.401869e-02 -5.061604e-01 -6.192930e-02 -9.185509e-02 -3.397287e-01
<VARIANCE> 39
 1.875254e+01 1.935224e+01 2.393166e+01 3.232382e+01 3.029902e+01 3.094394e+01 4.003111e+01 2.715928e+01 4.293653e+01 2.319280e+01 3.385736e+01 1.729118e+01 1.569979e+01 6.661366e+00 3.818353e+00 5.103162e+00 4.606676e+00 1.855586e+00 2.013278e+00 2.392941e+00 2.540977e+00 2.455015e+00 2.548909e+00 1.688586e+00 1.187085e+00 1.304354e+00 5.330588e-01 5.335478e-01 9.611366e-01 7.962366e-01 4.115646e-01 3.957017e-01 4.824233e-01 4.297387e-01 5.480123e-01 3.808635e-01 3.893164e-01 2.484347e-01 1.605805e-01
<GCONST> 1.157532e+02
<STATE> 4
<MEAN> 39
 2.595066e+00 -1.874412e+01 2.312699e+01 -1.314487e+01 2.542472e+00 9.342800e+00 -9.139446e+00 4.703961e-01 -2.063120e+01 6.962283e+00 3.445849e+00 -3.629152e+00 7.459344e+01 4.468915e+00 2.147990e+00 -4.314741e+00 2.054217e+00 1.589304e+00 -1.739450e+00 -1.514597e+00 -3.993047e-01 -1.021888e+00 -1.102105e+00 -1.892111e-01 -5.520243e-01 -7.040027e-01 -7.120471e-01 -3.162791e-01 1.806084e-01 -2.958107e-01 1.130161e-01 -3.550937e-01 -7.427021e-02 5.003773e-01 2.335777e-01 2.598017e-01 -2.685150e-01 8.301142e-02 -1.005488e-01
<VARIANCE> 39
 6.122536e+01 2.486725e+01 6.268044e+01 2.725225e+01 3.101285e+01 3.849497e+01 4.619464e+01 4.256692e+01 2.929753e+01 2.483526e+01 1.912479e+01 1.137987e+01 3.217423e+01 4.553648e+00 3.364480e+00 5.412766e+00 3.502572e+00 2.915687e+00 4.039522e+00 3.158487e+00 3.103218e+00 4.343161e+00 2.751703e+00 2.458703e+00 1.342393e+00 1.544526e+00 8.251293e-01 5.778910e-01 9.775440e-01 4.796354e-01 5.371639e-01 6.163133e-01 5.112450e-01 4.962814e-01 4.799178e-01 3.430894e-01 2.528000e-01 2.289955e-01 2.224495e-01
<GCONST> 1.209598e+02
<TRANSP> 5
 0.000000e+00 1.000000e+00 0.000000e+00 0.000000e+00 0.000000e+00
 0.000000e+00 7.317541e-01 2.682459e-01 0.000000e+00 0.000000e+00
 0.000000e+00 0.000000e+00 8.217905e-01 1.782095e-01 0.000000e+00
 0.000000e+00 0.000000e+00 0.000000e+00 5.287027e-01 4.712974e-01
 0.000000e+00 0.000000e+00 0.000000e+00 0.000000e+00 0.000000e+00
<ENDHMM>
~h "d"
<BEGINHMM>
<NUMSTATES> 5
<STATE> 2
<MEAN> 39
 7.199840e+00 -9.202758e+00 1.500765e+01 -2.474983e+00 9.151966e+00 7.077940e+00 -1.292219e+01 4.578596e+00 -1.258635e+01 -2.833676e-01 1.267145e-01 -1.871901e+00 6.575975e+01 8.786688e-02 -5.482461e-01 3.663737e-01 -2.874134e-01 8.219364e-03 3.057825e-01 -1.160447e-01 -3.963431e-01 -4.336342e-01 1.021165e-01 -1.072980e-01 8.680850e-02 3.906173e-01 3.006368e-01 -7.360803e-01 -3.301990e-01 -4.348632e-01 5.693859e-02 -8.998442e-01 -5.447084e-01 6.680187e-03 -6.570385e-01 2.802733e-01 2.317708e-01 -1.443589e-01 8.639648e-01
<VARIANCE> 39
 3.232752e+01 5.757104e+01 5.309553e+01 3.581078e+01 3.288237e+01 3.266943e+01 3.526259e+01 4.255663e+01 2.817373e+01 2.468659e+01 2.463851e+01 1.947283e+01 3.366978e+01 1.885904e+00 6.859824e+00 4.682867e+00 3.812861e+00 3.299812e+00 6.256580e+00 4.326702e+00 4.018834e+00 4.212326e+00 2.075445e+00 2.240870e+00 1.909452e+00 4.901051e+00 2.629814e-01 1.179985e+00 8.360909e-01 6.335928e-01 7.049239e-01 1.174709e+00 1.000577e+00 8.864253e-01 7.626628e-01 6.072392e-01 5.450589e-01 5.347925e-01 6.584414e-01
<GCONST> 1.292866e+02
<STATE> 3
<MEAN> 39
 1.065185e+01 -1.491559e+01 1.195907e+01 -6.263305e+00 1.069410e+01 3.487039e+00 -1.771438e+01 2.985799e+00 -1.745357e+01 -7.415968e-01 7.162221e-01 -1.270520e+00 7.265204e+01 5.087005e-01 -1.377028e+00 -5.815347e-01 -1.137923e+00 2.654102e-01 -1.881138e+00 -1.221017e+00 2.304500e-02 -1.535356e+00 7.106913e-01 6.492624e-01 -7.746951e-02 1.774222e+00 7.903364e-02 9.767670e-02 -1.260011e-01 -7.479935e-03 -9.928665e-02 -4.553844e-01 2.296255e-01 3.271790e-01 -1.308333e-01 2.332212e-01 1.104026e-01 -2.016713e-01 1.206466e-01
<VARIANCE> 39
 1.498733e+01 4.346425e+01 5.314674e+01 3.975092e+01 3.551511e+01 5.756268e+01 4.151769e+01 3.198252e+01 3.197586e+01 2.639095e+01 2.805106e+01 2.490696e+01 3.291339e+01 1.721761e+00 4.149812e+00 6.288229e+00 3.419220e+00 3.311724e+00 7.834332e+00 4.884157e+00 4.502237e+00 3.634742e+00 3.309603e+00 3.799457e+00 3.494159e+00 3.012231e+00 2.038650e-01 9.515880e-01 6.033140e-01 5.165233e-01 7.595820e-01 1.400163e+00 1.254612e+00 7.631792e-01 8.909801e-01 6.159070e-01 4.497903e-01 4.688534e-01 6.259367e-01
<GCONST> 1.295516e+02
<STATE> 4
<MEAN> 39
 1.059684e+01 -1.507708e+01 1.186530e+01 -6.630942e+00 1.039179e+01 1.330312e+00 -1.717742e+01 3.002856e+00 -1.927884e+01 8.446152e-01 1.145913e+00 -2.077974e+00 7.372990e+01 4.629435e-01 -9.801787e-01 -3.187949e-01 -7.233314e-01 1.597454e-01 -1.800495e+00 -4.472067e-01 4.379897e-01 -1.468208e+00 8.297576e-01 4.108413e-01 -5.365153e-01 1.381117e+00 -3.690967e-02 2.966330e-01 2.097754e-02 2.186414e-01 -1.390837e-01 1.041069e-01 3.992296e-01 2.303664e-01 2.959170e-01 -9.237555e-02 -6.405853e-02 -4.315592e-02 -2.361051e-01
<VARIANCE> 39
 1.955722e+01 4.239087e+01 7.544299e+01 4.507224e+01 4.022890e+01 6.302151e+01 4.574443e+01 3.884275e+01 3.759261e+01 3.366265e+01 3.916952e+01 2.594102e+01 3.302810e+01 1.771998e+00 3.593482e+00 4.848252e+00 4.339479e+00 3.183253e+00 6.877678e+00 5.572795e+00 5.561983e+00 4.145090e+00 4.468961e+00 3.426939e+00 4.088299e+00 1.860416e+00 2.144340e-01 8.380299e-01 8.304862e-01 4.862970e-01 6.846520e-01 1.298513e+00 9.172465e-01 6.004131e-01 7.093898e-01 4.410831e-01 5.296328e-01 3.394181e-01 5.868850e-01
<GCONST> 1.302632e+02
<TRANSP> 5
 0.000000e+00 1.000000e+00 0.000000e+00 0.000000e+00 0.000000e+00
 0.000000e+00 5.985459e-01 4.014540e-01 0.000000e+00 0.000000e+00
 0.000000e+00 0.000000e+00 1.863116e-01 8.136883e-01 0.000000e+00
 0.000000e+00 0.000000e+00 0.000000e+00 3.199385e-02 9.680061e-01
 0.000000e+00 0.000000e+00 0.000000e+00 0.000000e+00 0.000000e+00
<ENDHMM>
~h "e"
<BEGINHMM>
<NUMSTATES> 5
<STATE> 2
<MEAN> 39
 1.279911e+01 -1.953847e+01 8.424082e+00 -8.294909e+00 1.010280e+01 -4.016116e+00 -1.868362e+01 4.340600e+00 -2.126593e+01 4.954208e+00 5.933423e+00 -5.268982e-01 7.817476e+01 2.378060e-01 4.013351e-01 -5.490564e-01 -8.560009e-02 9.747446e-02 -2.469244e-02 4.760143e-01 1.100371e-01 -2.861042e-01 8.524992e-02 2.890924e-01 2.469010e-01 -3.194160e-01 -6.212939e-01 2.728591e-01 7.294711e-01 8.771764e-02 -2.597929e-01 8.745939e-01 5.434188e-01 -9.217899e-03 5.182657e-01 -1.793934e-01 -4.779721e-01 -1.475938e-01 -5.573186e-01
<VARIANCE> 39
 7.594672e+00 1.352945e+01 4.679279e+01 3.804788e+01 2.953710e+01 3.690440e+01 4.340094e+01 3.984820e+01 3.325837e+01 4.592885e+01 2.338295e+01 2.936651e+01 1.518278e+01 1.765784e+00 1.604532e+00 5.702012e+00 2.493027e+00 2.333174e+00 4.645439e+00 3.057466e+00 2.958350e+00 2.776462e+00 3.843382e+00 2.367977e+00 2.192304e+00 1.262699e+00 4.113920e-01 3.823201e-01 7.326101e-01 4.979638e-01 4.352666e-01 5.579162e-01 4.788258e-01 5.643651e-01 5.593204e-01 6.426058e-01 4.309679e-01 5.100654e-01 1.859347e-01
<GCONST> 1.175535e+02
<STATE> 3
<MEAN> 39
 1.199098e+01 -1.755351e+01 1.038420e+01 -7.767960e+00 9.908080e+00 -1.368567e+00 -1.617999e+01 4.423384e+00 -2.124392e+01 3.701428e+00 4.500069e+00 -1.131534e+00 7.606311e+01 -8.494107e-01 1.369494e+00 1.022476e+00 3.851137e-01 -4.293832e-01 2.139855e+00 1.426600e+00 -2.314415e-01 1.031834e+00 -5.379926e-01 -9.775727e-01 -2.803617e-01 -1.631347e+00 -5.507011e-01 6.152200e-02 5.672851e-01 3.279169e-02 -2.166018e-01 5.112568e-01 1.092589e-01 -4.414037e-02 4.941080e-01 -4.315954e-02 -3.160526e-01 -1.642122e-01 -3.280095e-01
<VARIANCE> 39
 1.095490e+01 1.631779e+01 5.282860e+01 4.806737e+01 3.182545e+01 4.047536e+01 4.712856e+01 4.843229e+01 3.628954e+01 6.240953e+01 2.479883e+01 3.770444e+01 1.699678e+01 1.726206e+00 1.831560e+00 6.225105e+00 2.740139e+00 2.784201e+00 4.899370e+00 3.272331e+00 3.181805e+00 2.602506e+00 3.616839e+00 2.327452e+00 2.820734e+00 1.755552e+00 3.337515e-01 3.097390e-01 8.231949e-01 4.934282e-01 4.009129e-01 4.863124e-01 4.309611e-01 6.464312e-01 5.191799e-01 6.950991e-01 3.352788e-01 6.563945e-01 1.862884e-01
<GCONST> 1.203294e+02
<STATE> 4
<MEAN> 39
 8.940659e+00 -1.486448e+01 1.249864e+01 -7.296393e+00 7.892974e+00 3.554826e+00 -1.351924e+01 3.643340e+00 -1.728121e+01 4.115707e+00 3.391376e+00 -1.408366e+00 7.171942e+01 -1.389464e+00 1.087930e+00 1.205390e+00 2.421026e-01 -6.460909e-01 1.928920e+00 9.350066e-01 -1.477289e-01 1.327780e+00 -5.423563e-01 -1.003901e+00 -3.713685e-01 -1.825244e+00 -1.723634e-01 -3.274951e-01 5.114068e-02 -1.778830e-01 -6.721170e-02 -3.325363e-01 -2.436450e-01 1.202616e-01 -5.091583e-02 4.348359e-02 6.887993e-03 -5.024636e-02 1.910626e-01
<VARIANCE> 39
 2.083017e+01 2.190767e+01 5.788063e+01 4.899159e+01 4.021009e+01 4.857895e+01 4.077966e+01 4.865687e+01 4.024335e+01 6.649778e+01 2.647456e+01 3.159331e+01 3.550657e+01 2.435433e+00 2.355090e+00 6.267298e+00 2.815615e+00 3.176303e+00 4.636077e+00 2.828263e+00 3.244273e+00 2.917268e+00 2.960804e+00 2.149935e+00 3.738497e+00 2.038298e+00 2.345130e-01 3.182455e-01 8.007951e-01 4.730731e-01 4.080448e-01 6.292920e-01 4.550423e-01 5.474055e-01 4.580589e-01 7.390795e-01 3.762393e-01 4.173466e-01 2.381070e-01
<GCONST> 1.229026e+02
<TRANSP> 5
 0.000000e+00 1.000000e+00 0.000000e+00 0.000000e+00 0.000000e+00
 0.000000e+00 5.395623e-01 4.604376e-01 0.000000e+00 0.000000e+00
 0.000000e+00 0.000000e+00 1.045912e-01 8.954087e-01 0.000000e+00
 0.000000e+00 0.000000e+00 0.000000e+00 2.391456e-01 7.608544e-01
 0.000000e+00 0.000000e+00 0.000000e+00 0.000000e+00 0.000000e+00
<ENDHMM>
~h "f"
<BEGINHMM>
<NUMSTATES> 5
<STATE> 2
<MEAN> 39
 7.074890e+00 -1.258317e+01 1.734780e+01 -1.277550e+01 7.426388e+00 3.340592e+00 -1.090250e+01 1.083286e+01 -1.672535e+01 3.772243e+00 6.703319e-01 -3.590514e+00 7.086402e+01 -2.332395e+00 -5.808328e-01 3.438654e+00 -1.216923e+00 3.643989e-01 2.102267e+00 1.324203e+00 7.443506e-01 2.157050e-01 1.411553e+00 -4.214804e-01 2.706128e-01 -6.775295e-01 -3.204343e-01 -7.853233e-01 -2.249679e-01 -1.465708e-01 -2.473262e-02 -3.549768e-01 -2.320264e-01 -2.342252e-01 -2.042423e-01 -5.754117e-02 -1.091099e-01 1.632766e-01 3.796083e-01
<VARIANCE> 39
 3.336665e+01 2.519523e+01 4.210855e+01 4.383382e+01 5.633902e+01 5.666248e+01 3.048750e+01 2.845306e+01 3.298161e+01 2.414023e+01 2.321528e+01 1.884422e+01 5.148461e+01 5.154421e+00 3.564125e+00 1.205265e+01 4.056597e+00 4.967247e+00 8.350297e+00 2.191780e+00 3.875318e+00 2.046027e+00 2.875881e+00 2.086808e+00 1.974511e+00 9.376456e-01 4.964422e-01 8.187994e-01 1.166122e+00 3.135677e-01 4.339339e-01 4.899825e-01 4.482287e-01 5.960292e-01 3.742991e-01 3.177856e-01 5.291886e-01 4.953263e-01 1.687116e-01
<GCONST> 1.232350e+02
<STATE> 3
<MEAN> 39
 3.159463e+00 -1.419039e+01 2.256548e+01 -1.327428e+01 8.131553e+00 6.559419e+00 -8.699123e+00 1.104322e+01 -1.601414e+01 5.715119e+00 -4.963748e-01 -2.792754e+00 7.034109e+01 -2.488882e+00 -1.708753e+00 2.423009e+00 -1.506020e+00 3.651353e-01 1.201076e+00 5.624017e-01 1.424266e-02 -3.220899e-01 1.119630e+00 -5.733777e-01 3.694058e-01 4.728716e-02 1.839240e-01 -5.813652e-01 -9.987304e-01 5.327134e-02 -1.612037e-01 -7.456275e-01 -5.885335e-01 -4.153308e-01 -3.288203e-01 -4.421591e-01 1.039318e-01 1.613699e-02 4.635389e-01
<VARIANCE> 39
 2.636251e+01 2.084516e+01 3.259389e+01 3.859972e+01 3.841833e+01 5.912960e+01 1.580678e+01 3.989298e+01 2.658431e+01 2.517218e+01 2.194930e+01 2.920223e+01 4.075198e+01 6.405266e+00 6.225506e+00 9.388789e+00 3.937988e+00 4.597744e+00 6.052818e+00 3.027653e+00 2.677466e+00 1.597678e+00 2.493465e+00 1.479944e+00 2.807657e+00 1.270629e+00 4.865906e-01 6.652238e-01 1.490773e+00 4.300839e-01 3.116304e-01 1.213141e+00 2.599677e-01 7.141588e-01 4.197143e-01 3.563039e-01 5.553938e-01 5.473534e-01 2.168899e-01
<GCONST> 1.228876e+02
<STATE> 4
<MEAN> 39
 -2.076011e+00 -2.096979e+01 2.240548e+01 -1.968420e+01 6.818083e+00 5.497236e+00 -9.553176e+00 1.027968e+01 -1.835485e+01 7.013514e+00 -1.375259e+00 -8.271235e-01 7.123608e+01 -1.111403e-01 -6.037793e-01 -4.869592e-01 -9.344471e-02 -3.332685e-01 -2.619728e-01 -3.677724e-01 -5.066611e-01 -5.459636e-01 -3.377506e-01 1.884487e-01 -5.215107e-02 2.511967e-01 5.564095e-01 4.088893e-01 -5.752800e-01 5.511270e-01 -8.361683e-02 -1.827972e-01 -1.741948e-01 -1.863199e-01 8.856447e-02 -2.944207e-01 1.983916e-01 -2.017270e-01 -1.367147e-02
<VARIANCE> 39
 4.068808e+01 4.907107e+01 4.050231e+01 3.247636e+01 2.724578e+01 2.750172e+01 1.875094e+01 2.354048e+01 2.007605e+01 1.998147e+01 1.959591e+01 1.776694e+01 2.118823e+01 6.928306e+00 6.832570e+00 4.409695e+00 4.170642e+00 2.185172e+00 2.441652e+00 1.982332e+00 2.161365e+00 2.436625e+00 1.990389e+00 1.408400e+00 2.408736e+00 1.813613e+00 4.069632e-01 7.969449e-01 9.498568e-01 4.786211e-01 3.914140e-01 8.486424e-01 4.899684e-01 4.889223e-01 4.593397e-01 3.605174e-01 2.610056e-01 4.044470e-01 3.535159e-01
<GCONST> 1.178304e+02
<TRANSP> 5
 0.000000e+00 1.000000e+00 0.000000e+00 0.000000e+00 0.000000e+00
 0.000000e+00 1.266949e-01 8.733050e-01 0.000000e+00 0.000000e+00
 0.000000e+00 0.000000e+00 2.340371e-02 9.765963e-01 0.000000e+00
 0.000000e+00 0.000000e+00 0.000000e+00 7.272312e-01 2.727688e-01
 0.000000e+00 0.000000e+00 0.000000e+00 0.000000e+00 0.000000e+00
<ENDHMM>
~h "g"
<BEGINHMM>
<NUMSTATES> 5
<STATE> 2
<MEAN> 39
 2.488781e+00 -1.106676e+01 1.572554e+01 -5.165844e+00 6.964861e+00 6.804395e+00 -1.093532e+01 7.649390e+00 -1.201439e+01 2.670905e+00 1.652543e-01 -6.176925e+00 6.276473e+01 1.412232e+00 -3.800711e-01 3.749381e-01 3.508789e-01 1.257015e+00 -7.372301e-02 -1.576437e+00 -1.205952e+00 -1.416537e+00 -3.396953e-01 -2.729214e-01 -5.758716e-01 1.426064e+00 2.415168e-01 -1.850243e-03 -1.269282e-01 1.794874e-01 1.971755e-01 -2.369150e-01 -5.286014e-01 -2.748534e-01 -1.801706e-02 -7.629731e-02 9.529341e-02 1.400640e-01 2.059258e-01
<VARIANCE> 39
 5.006498e+01 4.072968e+01 2.786978e+01 4.074352e+01 3.712398e+01 3.922951e+01 6.339289e+01 2.650549e+01 4.029102e+01 3.018340e+01 1.711702e+01 2.603458e+01 5.597263e+01 2.654988e+00 5.434825e+00 2.348521e+00 4.511906e+00 2.857539e+00 6.680317e+00 5.870944e+00 3.381286e+00 3.781827e+00 2.392841e+00 1.691561e+00 1.695865e+00 3.324428e+00 4.220129e-01 1.190663e+00 4.098764e-01 7.586154e-01 5.353726e-01 6.261674e-01 9.781725e-01 5.924482e-01 7.452149e-01 4.988956e-01 3.044802e-01 5.067576e-01 7.118841e-01
<GCONST> 1.270025e+02
<STATE> 3
<MEAN> 39
 1.048375e+01 -1.394226e+01 1.553539e+01 -9.865236e-01 1.651605e+01 -2.486786e-01 -2.629784e+01 2.718736e+00 -1.655902e+01 3.101568e+00 1.171926e+00 -1.039084e+01 7.228789e+01 5.602283e-01 5.788431e-01 -6.506718e-01 1.115934e-02 9.001894e-02 8.437748e-02 -2.242339e-01 -5.589401e-01 -2.252058e-01 -6.406484e-01 4.012627e-01 1.039138e+00 1.081528e-01 -2.350411e-01 8.493634e-02 -3.578473e-02 -1.597595e-01 -5.684071e-01 2.428283e-02 8.198809e-01 3.325273e-01 3.066506e-01 1.292803e-01 6.849987e-02 4.683558e-01 -2.366036e-01
<VARIANCE> 39
 5.381196e+00 2.553329e+01 3.212292e+01 4.248622e+01 5.248521e+01 6.278592e+01 8.449667e+01 3.639370e+01 2.247486e+01 2.806736e+01 1.869152e+01 2.833979e+01 1.684790e+01 8.988037e-01 2.721802e+00 3.740957e+00 4.129174e+00 2.961682e+00 7.653059e+00 6.759090e+00 3.178387e+00 2.062115e+00 3.260052e+00 1.773112e+00 3.052701e+00 1.867177e+00 1.644887e-01 5.443618e-01 5.638520e-01 4.270926e-01 4.421549e-01 8.884773e-01 8.381081e-01 6.765997e-01 6.210248e-01 6.137487e-01 2.137324e-01 4.767226e-01 3.182719e-01
<GCONST> 1.198009e+02
<STATE> 4
<MEAN> 39
 1.181143e+01 -1.184109e+01 1.211708e+01 -4.013265e+00 9.693871e+00 -1.011744e-01 -1.920233e+01 1.558352e+00 -1.838544e+01 2.258890e+00 4.074293e+00 -3.390982e+00 7.120080e+01 -1.478374e-02 4.357255e-01 -1.974194e-01 -5.987176e-01 -1.203333e+00 -4.805272e-03 1.393682e+00 2.396414e-01 3.154019e-01 -7.962618e-04 3.362349e-01 1.540888e+00 -1.136640e-01 -1.524348e-01 -4.474237e-01 9.211532e-02 -1.789748e-01 -1.670076e-01 -1.412264e-01 1.642951e-01 1.701562e-01 -5.654832e-02 2.288326e-01 -5.207522e-02 -2.810490e-01 2.507686e-01
<VARIANCE> 39
 1.089672e+01 3.127019e+01 2.856104e+01 4.935963e+01 3.017109e+01 8.477618e+01 7.186567e+01 3.006182e+01 2.433121e+01 5.204333e+01 5.477666e+01 2.573846e+01 2.689068e+01 9.319346e-01 2.985543e+00 4.260119e+00 2.931944e+00 2.955156e+00 3.668263e+00 4.517561e+00 1.167709e+00 2.610206e+00 1.208907e+00 1.414654e+00 2.223611e+00 1.526311e+00 1.001585e-01 7.967983e-01 4.559517e-01 4.502831e-01 3.579360e-01 1.054039e+00 6.635214e-01 3.418886e-01 4.792880e-01 5.987986e-01 2.728108e-01 3.577290e-01 3.745628e-01
<GCONST> 1.171570e+02
<TRANSP> 5
 0.000000e+00 1.000000e+00 0.000000e+00 0.000000e+00 0.000000e+00
 0.000000e+00 6.632386e-01 3.367614e-01 0.000000e+00 0.000000e+00
 0.000000e+00 0.000000e+00 5.629282e-01 4.370719e-01 0.000000e+00
 0.000000e+00 0.000000e+00 0.000000e+00 3.774257e-01 6.225743e-01
 0.000000e+00 0.000000e+00 0.000000e+00 0.000000e+00 0.000000e+00
<ENDHMM>
~h "h"
<BEGINHMM>
<NUMSTATES> 5
<STATE> 2
<MEAN> 39
 8.971094e+00 -1.120690e+01 1.549255e+01 -1.567776e+01 5.026153e-01 7.984456e-01 -4.533707e+00 1.553685e+01 -1.410446e+01 7.892490e+00 2.427648e+00 -2.066801e+00 7.073300e+01 1.180237e-01 5.263671e-01 2.592019e-01 -1.107060e+00 -1.179468e+00 1.761639e-02 1.352540e+00 1.133688e+00 2.559545e-01 5.618262e-01 -2.495228e-01 -3.275413e-01 -2.625517e-01 3.344660e-01 -1.656738e-01 -5.044182e-01 3.002156e-01 2.362890e-01 -4.836038e-01 -7.164819e-01 -3.547436e-01 -7.222343e-02 -2.282559e-01 -9.919921e-02 -1.688727e-01 2.033388e-01
<VARIANCE> 39
 1.896797e+01 1.577176e+01 3.217501e+01 2.058830e+01 6.430942e+01 5.349455e+01 4.379100e+01 6.533466e+01 5.772563e+01 4.183738e+01 1.828679e+01 2.012566e+01 2.907454e+01 1.097666e+00 1.485760e+00 3.237078e+00 1.401064e+00 2.545967e+00 3.656583e+00 2.765733e+00 2.670184e+00 3.172808e+00 3.438480e+00 2.267908e+00 1.737628e+00 6.875281e-01 1.756501e-01 1.783395e-01 5.079883e-01 3.511876e-01 4.005314e-01 4.984868e-01 5.121170e-01 3.481223e-01 5.653313e-01 5.771502e-01 3.788160e-01 2.092219e-01 7.298406e-02
<GCONST> 1.118666e+02
<STATE> 3
<MEAN> 39
 1.008082e+01 -1.109705e+01 1.592025e+01 -1.601266e+01 -2.130551e-01 -7.930176e-01 -4.577832e+00 1.590923e+01 -1.527235e+01 8.948504e+00 3.060175e+00 -3.079380e+00 7.190993e+01 2.990891e-01 1.619545e-01 -1.052248e-01 -3.712792e-01 -4.168926e-01 -5.618015e-01 3.062254e-01 5.320090e-01 6.146348e-01 1.025880e+00 -1.385750e-01 -5.734676e-01 1.642844e-01 2.375956e-01 -1.992177e-01 -6.057148e-01 3.568221e-01 3.846899e-01 -1.696632e-01 -7.795967e-01 -5.404735e-01 1.218814e-01 -5.042614e-01 -2.318351e-01 -4.580555e-02 1.829059e-01
<VARIANCE> 39
 7.160594e+00 1.775106e+01 2.841190e+01 3.115526e+01 7.271458e+01 5.934825e+01 4.191475e+01 8.573851e+01 4.206070e+01 5.365518e+01 1.655548e+01 2.076944e+01 1.556333e+01 1.415200e+00 1.412864e+00 3.750286e+00 7.934352e-01 2.616734e+00 1.943063e+00 2.433169e+00 1.865170e+00 3.412825e+00 5.079217e+00 2.390547e+00 1.300656e+00 6.352997e-01 1.707028e-01 2.094271e-01 5.999924e-01 3.071552e-01 4.943030e-01 7.084098e-01 5.719471e-01 4.720887e-01 7.843073e-01 5.326355e-01 3.189065e-01 2.593457e-01 8.473072e-02
<GCONST> 1.114126e+02
<STATE> 4
<MEAN> 39
 1.098438e+01 -1.158400e+01 1.469237e+01 -1.688758e+01 -2.750533e-01 -8.552831e-01 -4.340352e+00 1.473976e+01 -1.458732e+01 1.179137e+01 1.949361e+00 -3.693013e+00 7.208238e+01 8.235633e-01 1.194272e-02 -1.572869e+00 3.790578e-02 5.509383e-02 -7.125651e-01 -1.153978e+00 -6.642481e-01 4.907123e-01 -6.130794e-01 -4.782590e-01 -9.600072e-02 3.365841e-01 1.895505e-01 -1.542213e-01 -5.646937e-01 3.823042e-01 4.730375e-01 -1.081732e-01 -6.484852e-01 -4.621970e-01 -1.982976e-01 -6.072948e-01 1.405723e-02 1.487217e-01 1.860944e-01
<VARIANCE> 39
 9.168805e+00 2.310298e+01 4.168804e+01 2.780132e+01 4.564126e+01 4.009910e+01 3.830449e+01 6.399054e+01 4.978368e+01 5.564346e+01 1.686784e+01 2.097893e+01 1.144447e+01 6.209581e-01 7.611918e-01 2.542850e+00 1.217871e+00 2.099525e+00 1.472493e+00 2.282648e+00 1.476455e+00 3.010147e+00 1.872895e+00 1.215635e+00 1.048495e+00 3.166218e-01 1.426731e-01 2.592979e-01 4.377930e-01 1.590489e-01 3.366671e-01 3.485956e-01 3.921088e-01 3.627073e-01 6.963037e-01 4.135337e-01 2.307177e-01 3.007607e-01 4.575787e-02
<GCONST> 1.021328e+02
<TRANSP> 5
 0.000000e+00 1.000000e+00 0.000000e+00 0.000000e+00 0.000000e+00
 0.000000e+00 2.674504e-01 7.325495e-01 0.000000e+00 0.000000e+00
 0.000000e+00 0.000000e+00 1.852520e-01 8.147480e-01 0.000000e+00
 0.000000e+00 0.000000e+00 0.000000e+00 4.064489e-01 5.935510e-01
 0.000000e+00 0.000000e+00 0.000000e+00 0.000000e+00 0.000000e+00
<ENDHMM>
~h "i"
<BEGINHMM>
<NUMSTATES> 5
<STATE> 2
<MEAN> 39
 1.137966e+01 -1.854507e+01 1.248678e+01 -2.362786e+00 1.460793e+01 -2.856463e+00 -2.397998e+01 2.188589e+00 -2.126686e+01 1.774233e+00 3.860823e+00 -5.935432e+00 7.637380e+01 2.215288e-01 -2.284609e-03 -2.433713e-01 8.869081e-01 8.396665e-01 -7.608383e-01 -9.321479e-01 -1.337671e-01 -1.792205e-01 2.897469e-01 4.445723e-01 -5.207924e-01 5.167205e-02 -5.103917e-01 2.570854e-01 4.883019e-01 -2.730710e-01 -5.469815e-01 6.998685e-01 8.878225e-01 2.050687e-01 4.765424e-01 5.172298e-02 -3.275742e-01 1.756566e-01 -5.077705e-01
<VARIANCE> 39
 9.405922e+00 1.695646e+01 4.214324e+01 4.917175e+01 2.632247e+01 4.157931e+01 3.585487e+01 3.296337e+01 3.710588e+01 4.812952e+01 1.832628e+01 2.699027e+01 1.675386e+01 1.985028e+00 1.946383e+00 4.490230e+00 3.395309e+00 2.519874e+00 3.860105e+00 3.871767e+00 2.725045e+00 3.009815e+00 3.236978e+00 1.708041e+00 2.151540e+00 1.190180e+00 4.019473e-01 4.430542e-01 7.178397e-01 6.935576e-01 4.719306e-01 7.278983e-01 6.360728e-01 4.970014e-01 6.290535e-01 5.666080e-01 4.054303e-01 4.444512e-01 2.416138e-01
<GCONST> 1.186189e+02
<STATE> 3
<MEAN> 39
 1.023750e+01 -1.751463e+01 1.431809e+01 -1.739808e+00 1.433599e+01 -1.322368e+00 -2.163853e+01 2.853172e+00 -2.114895e+01 3.034283e+00 3.934413e+00 -6.355894e+00 7.439978e+01 -1.050075e+00 1.312901e+00 1.251252e+00 -2.293991e-01 -9.932713e-01 2.023088e+00 1.877072e+00 -1.577292e-01 1.167158e+00 4.211309e-01 -5.825323e-01 4.415141e-01 -1.627045e+00 -5.144775e-01 1.317035e-01 2.950955e-01 -4.212111e-01 -6.239704e-01 4.784498e-01 6.126325e-01 1.167308e-01 5.306502e-01 -3.659562e-02 -3.484287e-01 2.874449e-01 -3.667620e-01
<VARIANCE> 39
 1.194931e+01 1.664231e+01 5.136869e+01 4.564735e+01 2.631170e+01 4.500358e+01 3.600002e+01 4.877160e+01 3.251663e+01 5.575631e+01 2.102016e+01 3.541124e+01 1.731161e+01 1.559245e+00 2.256131e+00 4.783330e+00 3.269890e+00 1.953026e+00 3.587200e+00 2.731134e+00 2.781641e+00 3.323024e+00 3.742853e+00 1.645651e+00 1.920080e+00 1.952446e+00 3.145681e-01 3.871305e-01 7.673665e-01 5.861602e-01 3.672704e-01 5.765045e-01 6.136441e-01 5.552270e-01 5.287656e-01 5.711927e-01 2.983320e-01 5.542805e-01 1.945029e-01
<GCONST> 1.183986e+02
<STATE> 4
<MEAN> 39
 5.640582e+00 -1.348009e+01 1.659231e+01 -2.770093e+00 9.281176e+00 3.411599e+00 -1.714569e+01 2.888931e+00 -1.414083e+01 4.508263e+00 2.336575e+00 -4.775122e+00 6.775861e+01 -1.563622e+00 7.125602e-01 6.019148e-01 -8.664089e-01 -1.604797e+00 1.436551e+00 1.861808e+00 2.768013e-01 1.316125e+00 -2.471914e-01 -7.476639e-01 6.334414e-01 -1.576967e+00 -9.816351e-02 -4.796737e-01 -9.558239e-02 -3.430592e-01 -4.143710e-02 -2.987678e-01 -5.323937e-02 2.277189e-01 -2.954073e-01 -7.823634e-02 -1.704065e-02 -4.655404e-02 3.628733e-01
<VARIANCE> 39
 2.436993e+01 2.562021e+01 6.240421e+01 4.178310e+01 3.306759e+01 4.478721e+01 3.323127e+01 4.302643e+01 5.354866e+01 6.213573e+01 1.966113e+01 2.388955e+01 4.222140e+01 2.113284e+00 3.015317e+00 5.636743e+00 3.438525e+00 2.649107e+00 3.375241e+00 2.843809e+00 2.815141e+00 3.480389e+00 3.556181e+00 1.802726e+00 2.581727e+00 1.999964e+00 2.237154e-01 5.359120e-01 6.737246e-01 6.786740e-01 4.268709e-01 5.722473e-01 4.965350e-01 5.613600e-01 6.461531e-01 6.040180e-01 2.895871e-01 3.775209e-01 3.041757e-01
<GCONST> 1.224495e+02
<TRANSP> 5
 0.000000e+00 1.000000e+00 0.000000e+00 0.000000e+00 0.000000e+00
 0.000000e+00 6.157175e-01 3.842826e-01 0.000000e+00 0.000000e+00
 0.000000e+00 0.000000e+00 3.862568e-01 6.137431e-01 0.000000e+00
 0.000000e+00 0.000000e+00 0.000000e+00 4.517075e-01 5.482926e-01
 0.000000e+00 0.000000e+00 0.000000e+00 0.000000e+00 0.000000e+00
<ENDHMM>
~h "j"
<BEGINHMM>
<NUMSTATES> 5
<STATE> 2
<MEAN> 39
 7.617688e+00 -1.601730e+01 1.422542e+01 -4.443358e-01 1.135403e+01 -1.849577e+00 -1.825669e+01 5.743742e+00 -1.756096e+01 9.202949e-01 2.622284e+00 -4.256886e+00 7.125503e+01 9.589648e-01 -8.318660e-01 1.926378e-02 1.365714e+00 1.303897e+00 -1.568347e+00 -2.100054e+00 -6.886604e-01 -7.904939e-01 -1.246119e-02 3.425748e-01 -4.648511e-01 1.445291e+00 -9.998963e-02 -3.132105e-02 5.177835e-02 -1.955942e-01 -1.883652e-01 1.804341e-02 1.472735e-01 1.414604e-01 1.786224e-01 1.162220e-01 -1.158784e-01 -3.445020e-02 -5.008268e-02
<VARIANCE> 39
 5.076466e+01 2.196775e+01 7.085918e+01 7.552438e+01 4.069706e+01 4.855495e+01 6.478259e+01 3.762516e+01 5.152024e+01 4.288185e+01 1.856098e+01 2.350767e+01 7.517939e+01 2.662288e+00 1.971061e+00 3.619138e+00 4.227657e+00 2.141644e+00 3.417643e+00 3.370296e+00 2.674426e+00 3.435595e+00 3.290081e+00 1.891037e+00 1.625129e+00 2.230157e+00 3.714388e-01 3.527342e-01 6.628910e-01 7.776360e-01 4.252349e-01 5.962321e-01 6.906931e-01 4.300788e-01 5.258416e-01 6.079101e-01 2.992096e-01 2.666762e-01 2.922528e-01
<GCONST> 1.235101e+02
<STATE> 3
<MEAN> 39
 1.130339e+01 -1.982936e+01 1.168559e+01 -5.641611e-01 1.362537e+01 -7.995842e+00 -2.505338e+01 3.334289e+00 -2.029707e+01 2.429196e+00 4.112546e+00 -5.370728e+00 7.804096e+01 -7.568369e-02 -2.262604e-01 2.565585e-01 2.029060e-01 -1.982384e-02 -2.606645e-01 -1.804171e-01 -5.940264e-02 3.608854e-02 2.997528e-01 5.298725e-02 -1.840304e-01 1.039888e-01 -1.043748e-01 2.221094e-01 1.405411e-01 -2.354692e-01 -2.110640e-01 5.196408e-01 6.162211e-01 1.193371e-01 6.404574e-03 -1.078174e-01 -1.336704e-01 1.560458e-01 -2.452047e-01
<VARIANCE> 39
 8.271228e+00 1.172579e+01 5.339450e+01 4.833593e+01 3.192434e+01 2.314524e+01 2.811945e+01 4.441875e+01 3.479418e+01 4.395060e+01 2.473581e+01 2.927477e+01 1.373963e+01 5.125909e-01 9.378577e-01 2.601078e+00 2.701234e+00 1.270928e+00 1.978978e+00 1.947638e+00 1.950305e+00 1.467321e+00 2.602722e+00 1.300846e+00 1.579132e+00 5.979595e-01 1.435611e-01 1.902125e-01 4.294044e-01 3.078112e-01 2.721416e-01 3.990682e-01 3.902852e-01 4.136999e-01 3.405380e-01 3.893810e-01 2.507729e-01 2.632678e-01 1.028929e-01
<GCONST> 1.027204e+02
<STATE> 4
<MEAN> 39
 1.117115e+01 -1.947072e+01 1.243593e+01 -9.466348e-01 1.348056e+01 -6.145021e+00 -2.341532e+01 4.170683e+00 -1.994439e+01 2.592139e+00 3.617745e+00 -5.231573e+00 7.715092e+01 -3.120408e-01 4.683931e-01 5.708698e-01 -2.044276e-01 -2.188438e-01 1.131689e+00 1.276461e+00 6.881477e-02 -9.882868e-02 1.383795e-01 -1.851325e-01 1.355162e-01 -5.786413e-01 -3.033587e-01 3.478247e-01 3.532824e-01 -2.116586e-01 -2.834440e-01 7.489021e-01 6.822909e-01 1.285715e-02 1.731237e-01 -1.181723e-01 -2.123432e-01 1.703575e-01 -4.287647e-01
<VARIANCE> 39
 1.104909e+01 1.699680e+01 5.003900e+01 5.892884e+01 3.408995e+01 2.823830e+01 3.858752e+01 4.602637e+01 3.623777e+01 4.471687e+01 2.512992e+01 3.588711e+01 2.068793e+01 1.368854e+00 1.988396e+00 4.728867e+00 4.100580e+00 1.872149e+00 3.685120e+00 3.010424e+00 3.721815e+00 2.454661e+00 4.247182e+00 1.745763e+00 2.211428e+00 1.225462e+00 2.476625e-01 3.109092e-01 5.138159e-01 5.641738e-01 4.211918e-01 5.651795e-01 5.494664e-01 5.102013e-01 4.941908e-01 5.911691e-01 3.250546e-01 3.847129e-01 2.384565e-01
<GCONST> 1.174378e+02
<TRANSP> 5
 0.000000e+00 1.000000e+00 0.000000e+00 0.000000e+00 0.000000e+00
 0.000000e+00 5.773380e-01 4.226620e-01 0.000000e+00 0.000000e+00
 0.000000e+00 0.000000e+00 6.375666e-01 3.624334e-01 0.000000e+00
 0.000000e+00 0.000000e+00 0.000000e+00 1.163598e-01 8.836402e-01
 0.000000e+00 0.000000e+00 0.000000e+00 0.000000e+00 0.000000e+00
<ENDHMM>
~h "k"
<BEGINHMM>
<NUMSTATES> 5
<STATE> 2
<MEAN> 39
 -8.766584e-01 -1.173635e+01 1.417213e+01 -8.769877e+00 2.624758e+00 5.974268e+00 -1.005567e+01 6.387471e+00 -1.311658e+01 1.889179e+00 1.932217e+00 -1.896102e+00 6.011634e+01 -5.812795e-01 -7.889240e-01 -5.121329e-01 -1.594721e+00 -1.113770e+00 3.490813e-01 2.694421e-01 1.931634e-01 2.458841e-01 1.302440e-01 -1.791343e-01 -2.297519e-01 -2.390804e-01 5.554574e-01 -7.878861e-01 1.660104e-01 -7.147840e-01 2.378299e-02 -2.489836e-01 1.267081e-02 1.271857e-01 -6.436437e-01 4.250867e-01 3.155104e-02 -2.729880e-01 1.245913e+00
<VARIANCE> 39
 2.011983e+01 2.204291e+01 2.553435e+01 3.372415e+01 2.655403e+01 3.074327e+01 3.224440e+01 3.407261e+01 3.183969e+01 2.413404e+01 1.957071e+01 1.897631e+01 1.346482e+01 2.315284e+00 5.542708e+00 2.755151e+00 8.339033e+00 2.989453e+00 3.725269e+00 4.395054e+00 3.571954e+00 5.383034e+00 3.641263e+00 2.075467e+00 2.308195e+00 5.657400e+00 2.533511e-01 6.247001e-01 5.235668e-01 9.959387e-01 4.992591e-01 6.233843e-01 8.786435e-01 5.947201e-01 6.404778e-01 6.180212e-01 4.546250e-01 4.038525e-01 3.826765e-01
<GCONST> 1.226307e+02
<STATE> 3
<MEAN> 39
 9.060957e-01 -2.164700e+01 1.400366e+01 -2.251593e+01 -2.291358e+00 7.474404e+00 -6.628958e+00 8.584791e+00 -1.788780e+01 5.919719e+00 1.142521e+00 -4.768034e+00 6.901375e+01 1.669283e+00 -7.572080e-01 1.034993e+00 -1.090523e+00 1.896567e-01 -7.435272e-01 -7.525565e-01 6.016033e-02 -1.284384e+00 3.138454e-01 -4.650874e-01 -7.400795e-01 2.607077e+00 5.899441e-01 1.101499e+00 4.786732e-02 1.912411e+00 9.732546e-01 -7.596645e-01 -8.649306e-01 -2.883196e-01 1.408524e-01 -5.049883e-01 6.798488e-02 5.245347e-02 -1.542716e-01
<VARIANCE> 39
 1.883081e+01 3.922664e+01 3.992908e+01 5.713932e+01 6.061477e+01 4.267853e+01 5.231689e+01 5.323910e+01 6.369849e+01 3.935999e+01 2.666101e+01 2.792785e+01 2.331712e+01 3.332289e+00 6.330219e+00 3.732431e+00 1.199478e+01 5.614157e+00 4.412705e+00 6.248725e+00 4.189133e+00 4.345702e+00 4.470522e+00 3.024102e+00 3.283353e+00 3.199945e+00 3.532325e-01 6.154154e-01 9.050233e-01 1.182347e+00 7.572534e-01 9.578299e-01 9.221675e-01 7.613835e-01 1.072706e+00 7.508885e-01 4.950204e-01 4.982569e-01 5.052885e-01
<GCONST> 1.347125e+02
<STATE> 4
<MEAN> 39
 6.850629e+00 -1.616111e+01 1.792162e+01 -1.326900e+01 4.008850e+00 3.419871e+00 -1.381489e+01 5.432247e+00 -1.897517e+01 4.025276e+00 8.984087e-01 -6.469269e+00 7.278007e+01 2.580719e+00 1.613213e+00 -7.612605e-01 3.411194e+00 1.936209e+00 -2.702741e+00 -2.121083e+00 -2.948120e-01 -5.227058e-01 -9.393771e-01 3.702964e-01 -2.816309e-01 1.288023e+00 -2.320638e-01 8.062132e-02 -8.788607e-01 2.434457e-01 -1.502727e-02 -1.510735e-01 2.919330e-01 1.626647e-01 3.254699e-01 -4.889068e-02 2.722935e-01 3.626775e-01 -4.896031e-01
<VARIANCE> 39
 2.674556e+01 4.206028e+01 3.433251e+01 5.421006e+01 5.771095e+01 4.540306e+01 4.782714e+01 5.463195e+01 3.602965e+01 3.245040e+01 3.553907e+01 3.263232e+01 2.891488e+01 2.814953e+00 2.823412e+00 4.746482e+00 5.203379e+00 4.370587e+00 5.753189e+00 4.938735e+00 2.992572e+00 3.749874e+00 3.318778e+00 3.315519e+00 2.727193e+00 1.735061e+00 3.509784e-01 7.165218e-01 5.949406e-01 1.377610e+00 6.718817e-01 7.119774e-01 7.731580e-01 6.023694e-01 6.713580e-01 5.186338e-01 5.363630e-01 4.293751e-01 3.380316e-01
<GCONST> 1.292381e+02
<TRANSP> 5
 0.000000e+00 1.000000e+00 0.000000e+00 0.000000e+00 0.000000e+00
 0.000000e+00 7.376620e-01 2.623380e-01 0.000000e+00 0.000000e+00
 0.000000e+00 0.000000e+00 5.954152e-01 4.045847e-01 0.000000e+00
 0.000000e+00 0.000000e+00 0.000000e+00 3.430717e-01 6.569283e-01
 0.000000e+00 0.000000e+00 0.000000e+00 0.000000e+00 0.000000e+00
<ENDHMM>
~h "l"
<BEGINHMM>
<NUMSTATES> 5
<STATE> 2
<MEAN> 39
 1.341041e+01 -1.469450e+01 7.865927e+00 -9.314315e+00 3.061846e+00 -2.591010e+00 -1.349530e+01 1.013361e+01 -1.301351e+01 -3.000630e+00 -4.155277e+00 -3.916817e+00 7.494749e+01 1.313948e+00 8.040316e-01 -2.045415e+00 1.083104e+00 2.226290e-01 -1.388898e+00 -6.436943e-01 -1.169342e-02 4.676484e-01 -1.174771e+00 -7.135870e-01 -6.668924e-01 2.066722e-01 -3.166181e-01 -1.671742e-01 2.048888e-01 -1.792659e-01 4.282317e-02 -7.791311e-02 5.058044e-02 -1.349125e-03 -3.312463e-01 3.371043e-01 4.617658e-01 1.500392e-01 -6.898547e-03
<VARIANCE> 39
 1.818233e+01 2.115578e+01 8.017182e+01 3.790057e+01 4.320905e+01 7.011361e+01 3.769857e+01 4.487238e+01 5.629553e+01 4.595354e+01 3.525675e+01 3.287881e+01 1.744131e+01 2.709098e+00 1.937738e+00 4.505763e+00 3.378084e+00 3.487463e+00 4.438363e+00 3.936851e+00 3.891312e+00 4.869252e+00 3.637624e+00 3.341615e+00 3.100791e+00 1.185842e+00 3.900611e-01 3.626947e-01 9.382087e-01 6.726512e-01 5.211198e-01 7.356403e-01 5.748438e-01 4.965889e-01 5.931548e-01 6.839144e-01 6.930226e-01 6.171094e-01 1.607298e-01
<GCONST> 1.258951e+02
<STATE> 3
<MEAN> 39
 1.554074e+01 -1.257038e+01 3.031666e+00 -7.461430e+00 4.210401e+00 -6.743975e+00 -1.568377e+01 1.107130e+01 -1.093385e+01 -4.693435e+00 -5.992635e+00 -5.272624e+00 7.440781e+01 1.192772e-01 -1.554258e-01 -2.699626e-01 4.636639e-02 -2.533480e-01 -9.866895e-01 1.160671e-01 3.146165e-01 -7.544028e-01 -2.553859e-01 6.511457e-01 4.853074e-01 3.108151e-01 -3.298295e-01 -3.036192e-01 7.155667e-01 -5.225344e-01 -1.882401e-01 2.264736e-01 1.979858e-01 -5.214917e-03 -5.542731e-01 5.966143e-01 6.297386e-01 2.347997e-01 1.053651e-01
<VARIANCE> 39
 6.593071e+00 1.617473e+01 3.971402e+01 2.487859e+01 3.344608e+01 5.032837e+01 3.269030e+01 4.507725e+01 6.211445e+01 5.282832e+01 2.781432e+01 3.555470e+01 1.493141e+01 5.861861e-01 1.397105e+00 3.942670e+00 2.254518e+00 2.771236e+00 3.354095e+00 2.608835e+00 3.039011e+00 4.632658e+00 3.209886e+00 3.726456e+00 3.705267e+00 6.334341e-01 1.536425e-01 2.032490e-01 5.303158e-01 4.153903e-01 3.914635e-01 6.590892e-01 6.871043e-01 5.316684e-01 6.221062e-01 8.659937e-01 4.662375e-01 5.622448e-01 1.057461e-01
<GCONST> 1.152703e+02
<STATE> 4
<MEAN> 39
 1.470277e+01 -1.470627e+01 3.782203e+00 -1.185550e+01 4.045110e-01 -9.144992e+00 -1.151323e+01 1.328942e+01 -1.560974e+01 -6.205425e-01 -1.461020e-01 -1.511887e+00 7.659844e+01 -3.540209e-01 -2.740366e-01 7.711730e-01 -7.261720e-01 -5.513041e-02 2.511495e-01 1.352385e-01 -3.691630e-01 -1.035956e+00 1.120567e+00 9.431150e-01 5.929864e-02 2.625215e-01 -1.444527e-01 4.644172e-02 2.588707e-01 8.582284e-02 2.361224e-01 3.546670e-01 -1.046465e-01 -1.750883e-01 1.594396e-01 1.118001e-01 -1.465254e-01 -1.541111e-01 -1.712167e-01
<VARIANCE> 39
 4.845492e+00 1.370215e+01 3.535916e+01 3.866251e+01 4.610723e+01 4.377648e+01 3.181372e+01 6.066325e+01 6.706145e+01 5.500169e+01 2.400504e+01 2.359947e+01 1.641517e+01 5.012717e-01 1.304189e+00 2.625734e+00 2.327092e+00 2.297700e+00 3.101481e+00 3.317188e+00 2.235749e+00 3.095346e+00 3.230600e+00 2.372222e+00 1.896314e+00 6.771103e-01 1.239533e-01 1.842914e-01 4.023967e-01 4.546219e-01 3.387573e-01 4.891424e-01 3.898230e-01 4.024443e-01 4.922236e-01 6.307822e-01 3.291151e-01 3.921003e-01 1.011743e-01
<GCONST> 1.097524e+02
<TRANSP> 5
 0.000000e+00 1.000000e+00 0.000000e+00 0.000000e+00 0.000000e+00
 0.000000e+00 2.254222e-01 7.745779e-01 0.000000e+00 0.000000e+00
 0.000000e+00 0.000000e+00 5.559824e-01 4.440176e-01 0.000000e+00
 0.000000e+00 0.000000e+00 0.000000e+00 6.644409e-01 3.355591e-01
 0.000000e+00 0.000000e+00 0.000000e+00 0.000000e+00 0.000000e+00
<ENDHMM>
~h "m"
<BEGINHMM>
<NUMSTATES> 5
<STATE> 2
<MEAN> 39
 1.191568e+01 -9.434163e+00 9.659331e+00 -5.643273e+00 1.296308e+01 9.303407e+00 -1.145091e+01 5.207321e+00 -1.446200e+01 2.380367e+00 -1.840958e+00 -9.412718e+00 6.862395e+01 -4.508486e-02 2.107712e-01 3.176171e-01 1.941282e-01 3.895989e-01 7.164332e-01 1.603507e-02 -4.107372e-01 -4.769204e-02 5.236348e-01 -2.104189e-01 -8.721471e-01 -2.624773e-01 -1.705267e-02 -3.652248e-01 2.777140e-02 -3.910538e-01 -6.436661e-01 -9.243346e-01 -1.074453e-01 5.503973e-01 4.814717e-02 -1.404611e-01 3.237201e-01 8.636439e-01 3.751482e-01
<VARIANCE> 39
 1.448931e+01 1.028193e+01 1.995362e+01 1.742698e+01 2.206544e+01 1.874374e+01 2.058695e+01 2.984126e+01 3.006059e+01 2.372859e+01 1.445296e+01 2.487268e+01 1.463534e+01 7.567445e-01 8.797410e-01 1.797152e+00 1.783257e+00 3.239937e+00 2.935476e+00 1.250018e+00 2.152972e+00 1.856006e+00 1.924988e+00 1.166051e+00 3.963911e+00 6.811315e-01 1.297334e-01 2.170712e-01 2.997958e-01 3.251417e-01 5.015861e-01 4.047748e-01 3.357976e-01 3.558630e-01 3.456907e-01 4.129160e-01 2.516776e-01 6.071295e-01 1.018270e-01
<GCONST> 1.008096e+02
<STATE> 3
<MEAN> 39
 1.027130e+01 -1.014032e+01 1.070156e+01 -8.136271e+00 9.372664e+00 7.832132e+00 -1.031633e+01 7.896507e+00 -1.288913e+01 3.072189e+00 -3.606839e-01 -6.082531e+00 6.796741e+01 9.068079e-03 -2.936705e-01 5.351840e-02 -8.559410e-01 -1.607462e+00 -1.446452e+00 2.475072e-01 1.107512e+00 3.179254e-01 -1.668209e-01 5.298432e-01 1.537990e+00 3.719374e-01 -3.714160e-02 -1.932563e-01 -1.165127e-01 -5.653892e-02 -2.222015e-01 -4.939494e-01 -5.129316e-02 2.765516e-01 3.459921e-03 -1.948499e-01 1.087332e-01 3.159488e-01 1.428836e-01
<VARIANCE> 39
 2.955301e+01 1.410235e+01 3.164201e+01 2.722034e+01 4.003287e+01 3.155748e+01 3.279149e+01 3.868615e+01 3.468581e+01 2.440644e+01 1.977777e+01 3.698216e+01 2.509805e+01 1.822071e+00 1.507077e+00 2.785390e+00 2.446634e+00 3.781706e+00 3.550907e+00 1.804150e+00 2.540226e+00 1.836982e+00 2.104977e+00 1.552510e+00 3.781737e+00 1.436046e+00 1.984252e-01 3.028212e-01 4.478281e-01 4.342454e-01 6.349922e-01 6.218545e-01 3.806165e-01 5.349004e-01 3.891453e-01 4.402892e-01 3.147409e-01 6.849746e-01 1.582361e-01
<GCONST> 1.137352e+02
<STATE> 4
<MEAN> 39
 8.426842e+00 -1.027069e+01 1.119776e+01 -8.025873e+00 6.855944e+00 6.139973e+00 -8.565666e+00 1.014014e+01 -1.183633e+01 2.342064e+00 2.423574e-01 -4.537537e+00 6.690570e+01 -6.205526e-02 -3.717085e-01 3.362663e-02 -5.142130e-01 -9.892664e-01 -1.478526e+00 -1.167772e-01 1.002340e+00 1.863022e-01 -2.597358e-01 4.522451e-01 1.154086e+00 3.965075e-01 1.587418e-02 -1.229828e-01 -6.311552e-02 8.041583e-03 6.626871e-02 -1.801689e-01 -5.814532e-02 9.880316e-02 -6.217397e-02 -3.429435e-02 2.426288e-02 -2.793777e-02 1.249887e-01
<VARIANCE> 39
 4.808500e+01 1.202469e+01 2.604576e+01 2.165688e+01 4.106306e+01 3.584692e+01 3.022093e+01 3.327610e+01 3.249664e+01 1.959941e+01 1.643582e+01 2.500703e+01 4.551444e+01 1.190034e+00 1.378603e+00 1.999183e+00 2.422125e+00 3.655104e+00 4.357303e+00 1.975660e+00 3.064973e+00 1.756987e+00 1.584024e+00 1.535611e+00 3.563448e+00 1.159671e+00 1.151500e-01 1.895087e-01 2.640799e-01 2.681260e-01 3.623409e-01 3.951210e-01 3.273332e-01 3.233392e-01 3.004075e-01 3.399457e-01 2.173074e-01 3.413424e-01 7.781704e-02
<GCONST> 1.062876e+02
<TRANSP> 5
 0.000000e+00 1.000000e+00 0.000000e+00 0.000000e+00 0.000000e+00
 0.000000e+00 6.820199e-01 3.179801e-01 0.000000e+00 0.000000e+00
 0.000000e+00 0.000000e+00 4.139012e-01 5.860988e-01 0.000000e+00
 0.000000e+00 0.000000e+00 0.000000e+00 4.137826e-01 5.862175e-01
 0.000000e+00 0.000000e+00 0.000000e+00 0.000000e+00 0.000000e+00
<ENDHMM>
~h "n"
<BEGINHMM>
<NUMSTATES> 5
<STATE> 2
<MEAN> 39
 1.085776e+01 -1.069100e+01 1.043120e+01 -4.049416e+00 1.409152e+01 1.041502e+01 -1.268542e+01 1.462637e-01 -1.678461e+01 2.891403e+00 -1.820551e+00 -6.983252e+00 6.886286e+01 5.972071e-01 -2.573732e-01 -4.677948e-01 -1.165713e-01 2.828736e-01 -3.278731e-01 -1.236684e-01 2.101744e-01 -3.187127e-01 -1.552081e-01 -7.553010e-02 1.937293e-01 6.306655e-01 -3.760513e-02 -5.410373e-01 -8.157180e-02 -7.372347e-01 -6.866779e-01 -1.036900e+00 -1.204315e-02 1.060431e+00 1.299114e-01 -1.071670e-01 5.054603e-01 9.412656e-01 5.160128e-01
<VARIANCE> 39
 2.115901e+01 1.247602e+01 2.896693e+01 2.656884e+01 2.680611e+01 2.399759e+01 2.708202e+01 4.172715e+01 2.736999e+01 2.444903e+01 1.837603e+01 2.306421e+01 2.364323e+01 2.045605e+00 2.197942e+00 2.736214e+00 3.982863e+00 3.750376e+00 5.026110e+00 2.581668e+00 6.876215e+00 2.673484e+00 2.046933e+00 2.160496e+00 4.857066e+00 1.997126e+00 2.953406e-01 3.049799e-01 4.651034e-01 5.308467e-01 5.584009e-01 6.758530e-01 5.433843e-01 8.529865e-01 5.453495e-01 4.945239e-01 3.961242e-01 6.877978e-01 2.032991e-01
<GCONST> 1.178079e+02
<STATE> 3
<MEAN> 39
 1.308595e+01 -1.517324e+01 7.744447e+00 -9.863944e+00 9.532917e+00 2.598639e+00 -1.245836e+01 8.920276e+00 -1.628441e+01 -2.650128e-02 4.091402e-01 3.447682e-01 7.461307e+01 3.002829e-01 -1.237787e+00 -8.533406e-01 -1.893173e+00 -1.693817e+00 -3.059819e+00 1.413967e-01 2.980795e+00 1.843329e-01 -4.230684e-01 1.538821e+00 2.730593e+00 1.523435e+00 -2.569834e-01 1.075193e-01 3.155535e-01 1.113205e-01 -5.302668e-02 7.244787e-02 3.285765e-02 -2.631894e-01 -4.222208e-02 2.693891e-01 1.151019e-01 -2.468330e-01 -1.800220e-01
<VARIANCE> 39
 9.380573e+00 1.645797e+01 4.695807e+01 5.109905e+01 3.134467e+01 4.575652e+01 3.292483e+01 4.680833e+01 4.042582e+01 3.737783e+01 2.775417e+01 3.594436e+01 2.094590e+01 8.840453e-01 1.709925e+00 3.370695e+00 3.223441e+00 2.889733e+00 3.953945e+00 3.164978e+00 3.790659e+00 2.813331e+00 3.293440e+00 2.620939e+00 3.154525e+00 1.144937e+00 2.012461e-01 3.479479e-01 4.740234e-01 6.221341e-01 4.214112e-01 6.182633e-01 4.695506e-01 6.971385e-01 5.778133e-01 4.862234e-01 4.370754e-01 6.493561e-01 1.873964e-01
<GCONST> 1.180243e+02
<STATE> 4
<MEAN> 39
 1.299540e+01 -1.649986e+01 5.897266e+00 -1.213481e+01 7.349198e+00 -1.905105e+00 -1.176713e+01 1.256864e+01 -1.551868e+01 9.876448e-01 3.449459e+00 3.736579e+00 7.611349e+01 -2.388809e-01 -3.039862e-01 1.374256e-01 -5.269724e-01 -8.212390e-01 -9.973903e-01 1.316478e-01 5.985392e-01 -1.824727e-03 4.495820e-01 7.954652e-01 3.712680e-01 3.118809e-01 -2.185811e-01 2.738385e-01 4.372396e-01 3.892965e-01 2.366025e-01 7.670808e-01 7.433341e-02 -6.649031e-01 -1.585400e-02 1.802359e-01 -3.894802e-01 -7.466735e-01 -4.256884e-01
<VARIANCE> 39
 1.137353e+01 1.897809e+01 5.351579e+01 4.445462e+01 4.597596e+01 4.138177e+01 4.104490e+01 4.477826e+01 3.383323e+01 4.279937e+01 2.379980e+01 3.022561e+01 2.462381e+01 9.656538e-01 1.195618e+00 2.553000e+00 2.246840e+00 1.770677e+00 2.746378e+00 2.754035e+00 2.582389e+00 2.571203e+00 2.610006e+00 1.830449e+00 2.219553e+00 8.411877e-01 1.408608e-01 3.498559e-01 4.167983e-01 5.028381e-01 3.494674e-01 5.957143e-01 3.619584e-01 5.849707e-01 3.404960e-01 5.020344e-01 4.278872e-01 6.017959e-01 1.719993e-01
<GCONST> 1.129422e+02
<TRANSP> 5
 0.000000e+00 1.000000e+00 0.000000e+00 0.000000e+00 0.000000e+00
 0.000000e+00 6.578574e-01 3.421426e-01 0.000000e+00 0.000000e+00
 0.000000e+00 0.000000e+00 3.509749e-01 6.490251e-01 0.000000e+00
 0.000000e+00 0.000000e+00 0.000000e+00 4.437782e-01 5.562218e-01
 0.000000e+00 0.000000e+00 0.000000e+00 0.000000e+00 0.000000e+00
<ENDHMM>
~h "o"
<BEGINHMM>
<NUMSTATES> 5
<STATE> 2
<MEAN> 39
 1.130094e+01 -1.399933e+01 1.151684e+01 -1.346016e+01 -1.479912e+00 -5.542186e+00 -1.012749e+01 1.361442e+01 -1.524933e+01 7.992529e-01 -5.337679e-01 -2.871844e+00 7.356377e+01 1.300953e+00 1.720444e-01 -4.085983e-01 1.257669e-01 -4.254110e-01 -2.105140e+00 6.350890e-02 9.935051e-01 -9.917355e-01 -7.425740e-01 -1.483913e-01 -8.954652e-02 1.168190e+00 -1.785129e-01 2.184079e-01 -6.243072e-02 3.359109e-01 4.484998e-01 4.572155e-01 1.088082e-01 -1.526335e-01 5.899263e-02 -1.047037e-01 -8.542988e-02 -1.396581e-01 -3.155704e-01
<VARIANCE> 39
 3.568784e+01 4.784600e+01 5.109632e+01 2.414185e+01 4.831458e+01 7.034988e+01 3.402792e+01 5.789901e+01 5.037117e+01 3.458939e+01 2.569969e+01 2.548816e+01 2.437611e+01 3.819103e+00 2.516786e+00 4.005778e+00 2.869738e+00 3.618409e+00 4.829592e+00 3.476985e+00 3.389702e+00 3.542295e+00 3.182737e+00 1.963776e+00 2.251916e+00 2.982426e+00 5.975058e-01 9.193974e-01 9.492700e-01 5.584900e-01 5.899578e-01 1.138841e+00 5.510122e-01 6.036192e-01 5.880075e-01 6.147816e-01 4.135357e-01 4.851900e-01 3.720373e-01
<GCONST> 1.277860e+02
<STATE> 3
<MEAN> 39
 1.403356e+01 -1.378093e+01 9.579023e+00 -1.131485e+01 8.625550e-02 -9.107281e+00 -9.948500e+00 1.473557e+01 -1.981372e+01 -2.751107e+00 -1.495301e+00 -4.145215e+00 7.574064e+01 1.172772e-01 5.034435e-01 2.528800e-02 6.228901e-01 5.641814e-01 4.011016e-01 2.322764e-01 -7.652521e-02 2.377957e-02 -3.184175e-01 -2.499623e-01 -1.988203e-01 -2.008060e-01 -7.518233e-01 1.519520e-02 5.845264e-01 -7.137709e-02 2.353463e-01 1.281882e+00 1.419835e-02 -5.766561e-01 6.028508e-01 4.370896e-01 -2.475467e-02 5.818750e-02 -5.721885e-01
<VARIANCE> 39
 6.793398e+00 2.045986e+01 2.892327e+01 2.320805e+01 4.710115e+01 4.781200e+01 2.715261e+01 4.988339e+01 4.680070e+01 3.328816e+01 2.350091e+01 3.178626e+01 1.256223e+01 3.018453e+00 2.832565e+00 6.495882e+00 2.130065e+00 3.725419e+00 7.143017e+00 3.788399e+00 3.359960e+00 4.386422e+00 2.958680e+00 1.879031e+00 2.058872e+00 1.739644e+00 3.876187e-01 4.896874e-01 7.986582e-01 4.668255e-01 5.364757e-01 7.857756e-01 4.111428e-01 6.182314e-01 6.352392e-01 5.608464e-01 3.889055e-01 5.446746e-01 2.317158e-01
<GCONST> 1.206895e+02
<STATE> 4
<MEAN> 39
 1.081403e+01 -1.050257e+01 1.169428e+01 -1.175766e+01 -1.928551e-01 -2.531755e+00 -8.510942e+00 1.309693e+01 -1.463875e+01 -6.986157e-01 -1.566535e+00 -4.158867e+00 7.092120e+01 -1.625680e+00 3.922960e-01 1.400247e+00 3.102780e-01 7.285098e-01 2.672638e+00 2.156896e-01 -1.216694e+00 8.864199e-01 6.325325e-01 -1.261386e-01 -1.753771e-02 -1.387530e+00 -3.442003e-01 -3.565589e-01 1.026531e-01 -1.490045e-01 1.235613e-01 1.196303e-01 -1.876416e-01 -2.133519e-01 -3.221471e-02 2.058271e-01 6.168366e-02 8.488460e-02 1.558265e-02
<VARIANCE> 39
 2.075745e+01 2.335746e+01 3.783477e+01 3.245308e+01 5.726587e+01 5.086097e+01 3.970284e+01 4.161186e+01 6.033772e+01 3.562812e+01 2.182220e+01 2.155936e+01 3.474305e+01 2.638049e+00 2.635779e+00 6.118726e+00 2.532746e+00 3.862214e+00 4.525227e+00 3.308708e+00 3.210455e+00 2.938825e+00 2.450676e+00 2.093242e+00 2.957308e+00 2.033988e+00 3.173903e-01 3.873988e-01 5.698696e-01 3.977031e-01 5.189424e-01 7.836790e-01 5.031650e-01 4.828253e-01 6.018862e-01 4.205414e-01 3.291532e-01 3.336348e-01 2.427174e-01
<GCONST> 1.212529e+02
<TRANSP> 5
 0.000000e+00 1.000000e+00 0.000000e+00 0.000000e+00 0.000000e+00
 0.000000e+00 4.630738e-01 5.369263e-01 0.000000e+00 0.000000e+00
 0.000000e+00 0.000000e+00 5.475838e-01 4.524162e-01 0.000000e+00
 0.000000e+00 0.000000e+00 0.000000e+00 3.959034e-01 6.040966e-01
 0.000000e+00 0.000000e+00 0.000000e+00 0.000000e+00 0.000000e+00
<ENDHMM>
~h "p"
<BEGINHMM>
<NUMSTATES> 5
<STATE> 2
<MEAN> 39
 2.782041e+00 -7.994440e+00 1.350703e+01 -6.045856e+00 3.895051e+00 4.928217e+00 -1.003199e+01 7.312275e+00 -1.153911e+01 -1.449875e-01 4.142976e-01 -1.296396e+00 6.052431e+01 -1.813750e+00 2.668125e-01 5.161005e-01 -9.878646e-02 -6.631354e-01 4.788925e-01 -1.099440e-01 -7.748637e-02 9.669324e-01 1.002347e-01 -1.247386e-01 -7.065931e-02 -1.849410e+00 1.903567e-01 -8.456166e-01 -1.940465e-02 -3.835109e-01 -2.255436e-02 -3.374740e-01 -1.409800e-01 1.819718e-03 -4.003482e-01 3.943706e-01 1.833678e-01 -6.832983e-02 8.921957e-01
<VARIANCE> 39
 3.056891e+01 1.204177e+01 3.221011e+01 3.647311e+01 4.068151e+01 2.641192e+01 3.098956e+01 3.594553e+01 3.046588e+01 2.227553e+01 1.993296e+01 1.931205e+01 1.496525e+01 1.313341e+00 1.675179e+00 2.632347e+00 1.711887e+00 1.501412e+00 2.362380e+00 1.960567e+00 1.710873e+00 1.791547e+00 1.750673e+00 1.423829e+00 1.376875e+00 1.662758e+00 2.467280e-01 4.190073e-01 4.694536e-01 4.199746e-01 2.789771e-01 5.702218e-01 4.658409e-01 3.972980e-01 3.802158e-01 3.915416e-01 3.127394e-01 3.010384e-01 2.273746e-01
<GCONST> 1.077565e+02
<STATE> 3
<MEAN> 39
 -1.697116e+00 -8.822926e+00 1.522784e+01 -5.191777e+00 3.932904e+00 5.909118e+00 -9.968812e+00 7.467553e+00 -1.001343e+01 9.276494e-01 -8.309878e-02 -2.780357e+00 5.762416e+01 -4.872988e-01 -1.879046e+00 3.783929e-01 -1.492646e+00 -7.654288e-01 3.884522e-01 4.560119e-01 5.905716e-02 -3.276449e-01 1.030256e+00 3.392256e-01 1.979563e-01 9.924725e-01 1.043995e+00 -7.823068e-01 1.074393e-01 -5.505493e-01 1.666405e-01 -1.796615e-01 -5.836139e-02 -1.729825e-03 -7.781457e-01 2.694539e-01 1.803493e-01 2.051502e-01 1.607192e+00
<VARIANCE> 39
 1.702929e+01 9.623783e+00 1.925696e+01 2.099347e+01 2.127454e+01 1.582949e+01 2.376960e+01 2.561303e+01 2.610416e+01 1.561188e+01 1.606533e+01 1.495145e+01 1.130352e+01 2.326053e+00 2.943218e+00 2.819572e+00 2.821459e+00 2.128000e+00 1.973127e+00 2.010413e+00 2.133342e+00 2.325658e+00 2.151802e+00 1.562111e+00 1.577590e+00 2.618719e+00 3.866293e-01 4.286826e-01 4.978923e-01 4.239826e-01 3.803691e-01 4.969955e-01 4.959830e-01 4.708208e-01 4.433311e-01 3.358455e-01 3.972974e-01 3.518576e-01 1.785482e-01
<GCONST> 1.072213e+02
<STATE> 4
<MEAN> 39
 -3.779907e-01 -1.504552e+01 1.595166e+01 -1.058226e+01 2.006992e+00 7.541055e+00 -8.366180e+00 7.438063e+00 -1.197891e+01 4.690932e+00 1.729419e+00 -1.362246e+00 6.319974e+01 2.551642e+00 -2.270996e+00 5.406607e-01 -1.768765e+00 6.721217e-02 -4.787719e-01 -4.771917e-01 -3.375436e-01 -2.156572e+00 7.120995e-01 8.034240e-02 6.565259e-02 4.269044e+00 8.478165e-01 3.921907e-01 -5.504314e-01 3.708596e-01 3.127535e-01 -8.394389e-01 -4.134033e-01 2.725025e-02 -2.344169e-01 -4.014359e-01 -1.025572e-01 -2.124875e-01 5.816600e-01
<VARIANCE> 39
 2.255497e+01 3.150423e+01 2.169007e+01 2.661339e+01 2.270174e+01 1.779711e+01 1.828877e+01 2.386703e+01 3.296390e+01 1.724363e+01 1.227891e+01 1.216382e+01 4.686543e+01 6.224546e+00 4.059666e+00 5.189129e+00 3.759567e+00 3.710601e+00 3.986815e+00 4.004521e+00 4.424346e+00 4.052040e+00 3.025267e+00 2.591083e+00 2.478023e+00 2.433146e+00 7.450086e-01 8.083510e-01 9.912636e-01 6.106081e-01 5.475859e-01 6.852220e-01 6.377944e-01 6.129146e-01 7.083421e-01 4.546177e-01 3.452529e-01 3.694592e-01 7.795084e-01
<GCONST> 1.225324e+02
<TRANSP> 5
 0.000000e+00 1.000000e+00 0.000000e+00 0.000000e+00 0.000000e+00
 0.000000e+00 5.402633e-01 4.597367e-01 0.000000e+00 0.000000e+00
 0.000000e+00 0.000000e+00 4.098347e-01 5.901653e-01 0.000000e+00
 0.000000e+00 0.000000e+00 0.000000e+00 4.597318e-01 5.402682e-01
 0.000000e+00 0.000000e+00 0.000000e+00 0.000000e+00 0.000000e+00
<ENDHMM>
~h "r"
<BEGINHMM>
<NUMSTATES> 5
<STATE> 2
<MEAN> 39
 9.893158e+00 -1.716181e+01 1.320160e+01 -1.443085e+01 3.586445e+00 3.027182e+00 -1.253959e+01 5.494234e+00 -1.877147e+01 4.081447e+00 9.507289e-01 -2.130750e+00 7.499152e+01 2.453716e+00 6.234937e-02 -1.982761e+00 -4.205521e-01 1.249955e+00 -3.789842e-01 -1.617831e+00 -1.389268e+00 -8.564302e-01 -3.573743e-01 -3.734794e-01 1.449684e-01 1.865764e+00 -2.346457e-01 5.904802e-01 -6.561685e-01 4.265653e-01 5.199014e-01 1.673852e-01 -2.469109e-01 2.643453e-03 6.360953e-01 -4.629039e-01 -1.548671e-01 2.106112e-02 -7.388678e-01
<VARIANCE> 39
 3.224922e+01 2.678362e+01 5.701093e+01 3.464889e+01 3.452424e+01 4.678491e+01 3.649950e+01 4.494983e+01 3.234303e+01 3.668250e+01 2.362135e+01 2.129659e+01 2.729069e+01 4.797206e+00 3.098531e+00 5.176749e+00 4.871604e+00 2.630339e+00 6.448874e+00 3.283542e+00 3.750775e+00 5.360715e+00 4.455476e+00 2.721792e+00 2.890192e+00 5.703691e+00 6.687936e-01 5.393026e-01 9.507577e-01 8.029442e-01 4.539810e-01 9.880205e-01 5.928532e-01 7.544589e-01 6.033728e-01 6.256143e-01 4.716561e-01 3.733321e-01 4.562919e-01
<GCONST> 1.292767e+02
<STATE> 3
<MEAN> 39
 1.453293e+01 -1.561706e+01 6.630653e+00 -1.466196e+01 7.318069e+00 5.691538e-01 -1.678427e+01 3.450204e+00 -2.012977e+01 2.660650e+00 -2.468376e-01 -2.561445e+00 7.691942e+01 5.126846e-01 1.058227e+00 -2.500518e+00 2.181761e-01 2.046277e+00 1.187438e+00 -1.733102e+00 -1.367611e+00 1.373137e+00 -1.379176e+00 -8.831290e-01 3.902524e-01 -4.871787e-01 -5.967337e-01 1.052719e-01 3.270459e-01 1.418529e-01 6.491753e-02 8.359099e-02 1.685271e-01 5.796651e-01 4.861748e-01 -1.808732e-01 -3.506495e-03 7.304733e-02 -5.047563e-01
<VARIANCE> 39
 6.506326e+00 1.776618e+01 3.182953e+01 3.692469e+01 3.247260e+01 3.982116e+01 3.533824e+01 3.911960e+01 3.244416e+01 4.164751e+01 3.098969e+01 2.429656e+01 1.588499e+01 1.599176e+00 1.603603e+00 4.190260e+00 3.164228e+00 1.878075e+00 8.015094e+00 3.182971e+00 4.616115e+00 3.442608e+00 3.504819e+00 2.279223e+00 2.178527e+00 1.441358e+00 4.590958e-01 3.617738e-01 5.963181e-01 4.774871e-01 4.246105e-01 1.088085e+00 5.355622e-01 7.789270e-01 7.213960e-01 6.199648e-01 4.417164e-01 4.084859e-01 3.257674e-01
<GCONST> 1.195384e+02
<STATE> 4
<MEAN> 39
 1.387685e+01 -1.245483e+01 1.989667e+00 -1.496375e+01 1.132961e+01 4.447747e+00 -1.978826e+01 2.906421e+00 -1.452784e+01 -2.029784e+00 -2.020332e+00 -1.126925e+00 7.472073e+01 6.877645e-02 3.568784e-02 -6.136418e-01 1.790671e-01 6.800798e-01 -1.389596e+00 -3.452350e-01 1.536615e+00 1.544099e-01 -3.973081e-01 2.070226e-01 3.500523e-01 -1.089166e-02 -1.968259e-01 -3.682075e-01 8.340482e-01 1.891396e-01 -7.499827e-01 -7.239958e-01 8.030046e-01 6.670756e-01 -5.641690e-01 4.863202e-01 4.086953e-01 -1.255808e-01 1.285616e-01
<VARIANCE> 39
 1.009452e+01 2.032116e+01 4.000315e+01 3.854227e+01 2.674817e+01 6.286779e+01 4.482056e+01 4.370056e+01 2.996772e+01 3.936421e+01 3.060220e+01 2.691075e+01 1.912134e+01 8.654552e-01 1.969747e+00 4.097141e+00 2.597860e+00 3.717288e+00 8.180351e+00 4.800540e+00 5.228645e+00 3.880212e+00 3.157798e+00 2.631515e+00 2.072377e+00 1.262830e+00 1.989433e-01 2.920896e-01 5.509315e-01 5.487104e-01 4.059288e-01 1.404317e+00 7.139611e-01 9.482752e-01 6.794969e-01 5.873489e-01 4.073124e-01 4.268864e-01 1.940437e-01
<GCONST> 1.207564e+02
<TRANSP> 5
 0.000000e+00 1.000000e+00 0.000000e+00 0.000000e+00 0.000000e+00
 0.000000e+00 3.255100e-01 6.744900e-01 0.000000e+00 0.000000e+00
 0.000000e+00 0.000000e+00 3.274363e-01 6.725637e-01 0.000000e+00
 0.000000e+00 0.000000e+00 0.000000e+00 6.399202e-01 3.600798e-01
 0.000000e+00 0.000000e+00 0.000000e+00 0.000000e+00 0.000000e+00
<ENDHMM>
~h "s"
<BEGINHMM>
<NUMSTATES> 5
<STATE> 2
<MEAN> 39
 -8.819207e+00 -2.298841e+01 3.381678e+01 -1.800269e+01 2.393683e+00 1.086239e+01 -4.716063e+00 6.283545e+00 -1.927862e+01 9.171171e+00 1.184345e+00 -1.817571e+00 7.630721e+01 -2.761190e+00 -1.239250e+00 2.004990e+00 -1.557790e+00 -1.820370e-01 8.927309e-01 5.567924e-01 3.374878e-01 1.801842e-01 1.009715e+00 -3.122683e-02 2.924760e-01 1.443317e-01 6.638891e-01 2.498900e-01 -8.724041e-01 3.031129e-01 1.631928e-01 -4.614118e-01 -2.940419e-01 6.859799e-03 -3.551442e-02 -1.414141e-01 3.131765e-02 -1.178048e-01 -1.285274e-01
<VARIANCE> 39
 4.895784e+01 2.734359e+01 4.844673e+01 3.628991e+01 2.591001e+01 3.654637e+01 2.936209e+01 3.848458e+01 5.231381e+01 3.280521e+01 2.659571e+01 2.061027e+01 2.397246e+01 4.606061e+00 3.439268e+00 8.039293e+00 3.128748e+00 2.563543e+00 3.227995e+00 2.420686e+00 2.902147e+00 2.733246e+00 2.275071e+00 2.051294e+00 1.854413e+00 7.821859e-01 5.530782e-01 5.475143e-01 9.237692e-01 5.737468e-01 4.890712e-01 5.749799e-01 3.916078e-01 5.077786e-01 5.383219e-01 4.552920e-01 3.761394e-01 3.200220e-01 1.249331e-01
<GCONST> 1.198147e+02
<STATE> 3
<MEAN> 39
 -1.269670e+01 -2.564671e+01 3.374934e+01 -2.078695e+01 2.010104e+00 1.111759e+01 -4.556638e+00 6.742784e+00 -1.857470e+01 1.177935e+01 1.693192e+00 -1.558498e+00 7.512829e+01 1.856524e+00 8.580571e-01 -1.517026e+00 1.371125e+00 1.524871e-01 -3.798585e-01 -4.495195e-01 -4.153791e-01 3.338376e-02 -1.000989e+00 -4.995994e-02 -1.571631e-01 -5.689427e-01 1.110997e+00 6.500318e-01 -8.101488e-01 6.989152e-01 1.870134e-01 -2.855952e-01 -3.679011e-01 -1.575644e-01 -7.757218e-02 -5.971235e-01 -1.013584e-01 -1.635915e-01 -1.885576e-01
<VARIANCE> 39
 2.056530e+01 2.480774e+01 3.178615e+01 2.784333e+01 2.519194e+01 3.457754e+01 2.544792e+01 2.743629e+01 4.475269e+01 2.894938e+01 2.801802e+01 2.076842e+01 2.389404e+01 5.315162e+00 3.258147e+00 3.942980e+00 3.865922e+00 2.239828e+00 2.019685e+00 2.375472e+00 2.566494e+00 3.150597e+00 2.600667e+00 2.369087e+00 1.747290e+00 1.731012e+00 4.374182e-01 5.792068e-01 6.597595e-01 5.988299e-01 4.954567e-01 4.926873e-01 4.193264e-01 4.396495e-01 5.031098e-01 4.400874e-01 4.769408e-01 3.646987e-01 2.843894e-01
<GCONST> 1.177712e+02
<STATE> 4
<MEAN> 39
 1.074288e+00 -1.787709e+01 2.457520e+01 -1.309735e+01 3.770000e+00 8.934999e+00 -7.895494e+00 3.463853e+00 -2.009543e+01 4.694800e+00 2.156842e-01 -3.521976e+00 7.406212e+01 4.297847e+00 2.273338e+00 -4.099747e+00 2.349167e+00 1.230142e+00 -1.655175e+00 -1.885026e+00 -1.458006e-01 -1.386092e-01 -1.782234e+00 -4.185700e-01 -7.700524e-01 -9.702854e-01 -4.985516e-01 -3.140513e-01 -3.196642e-02 -2.635450e-01 1.168229e-01 -2.625842e-01 -7.037427e-02 4.799605e-01 2.509698e-01 3.166749e-01 7.451257e-02 7.607568e-02 7.259955e-03
<VARIANCE> 39
 6.606313e+01 2.523527e+01 7.727435e+01 3.980271e+01 3.193174e+01 4.016734e+01 4.151517e+01 5.552417e+01 3.520676e+01 3.620936e+01 2.401421e+01 2.245284e+01 4.110861e+01 4.698222e+00 3.510787e+00 4.874363e+00 5.153662e+00 3.807861e+00 5.055154e+00 3.403222e+00 3.865184e+00 4.699446e+00 3.783219e+00 3.177046e+00 2.692288e+00 3.074876e+00 8.584839e-01 4.811407e-01 1.010064e+00 5.502573e-01 5.260795e-01 6.782261e-01 5.124635e-01 7.045133e-01 6.118547e-01 5.341964e-01 4.015470e-01 5.087629e-01 2.802460e-01
<GCONST> 1.293928e+02
<TRANSP> 5
 0.000000e+00 1.000000e+00 0.000000e+00 0.000000e+00 0.000000e+00
 0.000000e+00 8.198298e-01 1.801701e-01 0.000000e+00 0.000000e+00
 0.000000e+00 0.000000e+00 7.313114e-01 2.686886e-01 0.000000e+00
 0.000000e+00 0.000000e+00 0.000000e+00 4.594133e-01 5.405867e-01
 0.000000e+00 0.000000e+00 0.000000e+00 0.000000e+00 0.000000e+00
<ENDHMM>
~h "t"
<BEGINHMM>
<NUMSTATES> 5
<STATE> 2
<MEAN> 39
 -4.973912e-01 -1.588497e+01 2.132677e+01 -1.082453e+01 2.474076e+00 7.798745e+00 -9.065157e+00 6.129246e+00 -1.436652e+01 4.500893e+00 -7.737340e-01 -1.890257e+00 6.617438e+01 -1.592051e-01 1.818799e-01 -1.561582e-01 -2.727291e-01 -3.699404e-01 2.595697e-01 1.616059e-01 1.590729e-02 1.786777e-01 -7.963917e-02 -1.433579e-05 7.622999e-02 -4.243691e-01 3.328449e-01 -1.439297e-01 -4.023909e-01 5.915424e-02 1.521979e-01 -3.579710e-01 -1.545778e-01 2.458767e-02 -1.502489e-01 -4.511738e-03 1.052723e-01 -3.975078e-02 3.519896e-01
<VARIANCE> 39
 4.094772e+01 5.647174e+01 6.419109e+01 6.640320e+01 3.678292e+01 3.263270e+01 3.352202e+01 3.741279e+01 4.741881e+01 3.409303e+01 2.047824e+01 1.630126e+01 5.325858e+01 5.740281e+00 6.967209e+00 7.347654e+00 8.156005e+00 3.472013e+00 3.695704e+00 3.348300e+00 2.912137e+00 4.010690e+00 3.825488e+00 2.068534e+00 1.547993e+00 7.117309e+00 6.261985e-01 1.650172e+00 1.376494e+00 1.579659e+00 7.036141e-01 7.890636e-01 5.911434e-01 5.769371e-01 6.347269e-01 7.903973e-01 4.716950e-01 3.597097e-01 9.769549e-01
<GCONST> 1.343058e+02
<STATE> 3
<MEAN> 39
 1.500857e+00 -1.174190e+01 1.761874e+01 -7.076920e+00 3.739971e+00 6.544400e+00 -9.708818e+00 5.199525e+00 -1.439492e+01 1.431636e+00 -1.492870e-01 -1.502003e+00 6.369346e+01 -8.253293e-02 -5.531456e-02 -1.220785e+00 1.734127e-01 -3.869806e-01 -5.464396e-01 -7.157549e-03 3.401899e-01 4.000329e-01 -2.896907e-01 2.758460e-01 -7.989019e-02 -5.208063e-01 2.021631e-01 -9.830274e-01 9.782657e-02 -5.876310e-01 -6.930345e-02 -2.917011e-01 -1.110924e-01 9.611134e-03 -4.136452e-01 4.365655e-01 9.124218e-03 -1.178964e-01 1.014203e+00
<VARIANCE> 39
 3.896780e+01 3.215494e+01 5.696763e+01 4.045446e+01 3.128619e+01 3.136352e+01 4.019187e+01 3.732132e+01 4.405185e+01 3.213626e+01 1.936558e+01 1.722923e+01 5.055254e+01 5.859149e+00 5.842823e+00 7.038576e+00 4.997878e+00 3.552184e+00 3.270437e+00 2.812373e+00 2.777051e+00 2.718162e+00 3.021316e+00 2.042795e+00 2.027713e+00 3.153858e+00 5.640560e-01 9.083246e-01 1.098453e+00 8.484433e-01 5.516749e-01 7.071125e-01 5.989836e-01 5.639014e-01 6.281667e-01 6.509250e-01 4.164813e-01 3.723231e-01 9.664697e-01
<GCONST> 1.284624e+02
<STATE> 4
<MEAN> 39
 -1.170448e+00 -1.492258e+01 1.651284e+01 -9.270523e+00 1.399039e+00 6.723808e+00 -8.302183e+00 6.660503e+00 -1.268989e+01 3.282946e+00 5.422679e-01 -2.103359e+00 6.312676e+01 7.031106e-01 -1.983057e+00 1.035261e-01 -1.261827e+00 -3.969205e-01 -4.037279e-01 -3.259530e-01 -2.203965e-01 -1.034763e+00 5.350373e-01 -9.254598e-02 -2.052102e-01 2.018643e+00 5.594921e-01 -1.370582e-01 9.998633e-02 -1.133348e-01 2.043493e-01 -2.602367e-01 -2.749572e-01 -1.361186e-01 -4.543763e-01 -3.087261e-02 -6.008606e-02 2.620606e-02 7.236031e-01
<VARIANCE> 39
 4.000297e+01 3.728156e+01 4.256382e+01 4.192836e+01 2.949590e+01 2.659043e+01 3.040370e+01 2.981643e+01 4.579159e+01 2.338511e+01 1.749794e+01 1.497869e+01 6.210130e+01 4.526841e+00 6.980967e+00 6.227619e+00 6.079417e+00 4.095677e+00 3.288840e+00 3.025129e+00 3.697770e+00 4.249797e+00 3.279610e+00 2.203779e+00 1.941013e+00 4.870289e+00 7.999052e-01 9.321633e-01 1.131356e+00 9.561939e-01 6.450198e-01 6.393382e-01 5.670332e-01 5.069975e-01 6.904420e-01 5.269917e-01 4.410681e-01 3.101819e-01 8.361223e-01
<GCONST> 1.288667e+02
<TRANSP> 5
 0.000000e+00 1.000000e+00 0.000000e+00 0.000000e+00 0.000000e+00
 0.000000e+00 5.830233e-01 4.169767e-01 0.000000e+00 0.000000e+00
 0.000000e+00 0.000000e+00 2.237533e-01 7.762467e-01 0.000000e+00
 0.000000e+00 0.000000e+00 0.000000e+00 4.711781e-01 5.288219e-01
 0.000000e+00 0.000000e+00 0.000000e+00 0.000000e+00 0.000000e+00
<ENDHMM>
~h "u"
<BEGINHMM>
<NUMSTATES> 5
<STATE> 2
<MEAN> 39
 1.033484e+01 -1.033648e+01 1.333700e+01 -1.153535e+01 4.163090e+00 -3.963148e+00 -1.273825e+01 1.394487e+01 -1.926424e+01 -3.691284e+00 -2.369184e+00 -7.213359e+00 7.053178e+01 7.901115e-01 1.198738e+00 2.983615e-01 3.301762e-01 -4.707991e-01 -1.557968e+00 6.000199e-02 1.171955e+00 1.726606e-01 6.680914e-02 -3.462178e-03 -5.300497e-01 5.520530e-03 -2.373720e-01 -1.319523e-01 1.955425e-01 1.819611e-01 9.749886e-02 4.469598e-01 4.219179e-02 -3.495158e-01 2.415897e-01 2.331133e-01 2.850150e-01 2.748995e-01 -2.002650e-02
<VARIANCE> 39
 2.781933e+01 2.855817e+01 3.080317e+01 2.033975e+01 3.553708e+01 4.155299e+01 3.319537e+01 3.705943e+01 5.455008e+01 5.194872e+01 3.107902e+01 3.210452e+01 2.550670e+01 2.319836e+00 2.992757e+00 2.953762e+00 2.180292e+00 3.987679e+00 4.722814e+00 3.416142e+00 3.739104e+00 3.744064e+00 2.807081e+00 2.299532e+00 2.696397e+00 1.298039e+00 4.722716e-01 6.798723e-01 5.394276e-01 4.706270e-01 4.495911e-01 9.440158e-01 6.565135e-01 7.946493e-01 5.486243e-01 5.706093e-01 5.160540e-01 5.574899e-01 3.231806e-01
<GCONST> 1.234709e+02
<STATE> 3
<MEAN> 39
 1.199958e+01 -5.533007e+00 1.606204e+01 -1.014479e+01 9.662251e-01 -8.280907e+00 -1.257236e+01 1.594771e+01 -1.667791e+01 -2.163815e+00 -1.458725e-01 -7.212584e+00 7.034863e+01 -2.639095e-02 8.228977e-02 2.946711e-01 6.030893e-01 4.769049e-01 8.590820e-01 1.594748e-01 -2.175768e-01 4.978094e-01 -2.005086e-01 -5.307129e-02 3.760017e-01 -6.651093e-02 -6.111447e-01 -6.340155e-01 1.948830e-02 -6.625978e-02 4.030335e-01 1.167732e+00 1.160175e-01 -5.638693e-01 1.233155e-01 1.980651e-01 -7.704920e-02 1.662470e-01 -1.845800e-01
<VARIANCE> 39
 7.362546e+00 2.766395e+01 2.538063e+01 1.822121e+01 3.827351e+01 4.571537e+01 3.128326e+01 5.187778e+01 3.245752e+01 4.076660e+01 2.733327e+01 2.927243e+01 1.744154e+01 2.466801e+00 3.189377e+00 2.844185e+00 2.145698e+00 3.467687e+00 7.210298e+00 3.327214e+00 3.736996e+00 2.974302e+00 3.386855e+00 2.478510e+00 1.661394e+00 2.150863e+00 2.758524e-01 4.168979e-01 4.952670e-01 3.815668e-01 4.206183e-01 6.313752e-01 4.840166e-01 6.821244e-01 4.423354e-01 5.791664e-01 4.137783e-01 4.140345e-01 1.761023e-01
<GCONST> 1.176971e+02
<STATE> 4
<MEAN> 39
 8.259494e+00 -7.865438e+00 1.576338e+01 -8.792193e+00 3.737703e+00 1.077455e+00 -1.074784e+01 1.173138e+01 -1.471342e+01 -1.291757e+00 -1.486627e+00 -5.828762e+00 6.715670e+01 -1.661842e+00 -1.131945e+00 3.430636e-01 3.839916e-01 9.908815e-01 2.481738e+00 2.857538e-01 -1.397708e+00 5.272353e-01 5.514269e-01 -5.341080e-02 4.531922e-01 -7.134356e-01 -2.793836e-01 -4.245914e-01 7.700019e-03 -1.637844e-01 -2.504528e-02 -1.399967e-01 -1.475569e-01 -8.647265e-02 -8.366221e-02 2.016567e-01 1.920050e-01 8.281185e-02 1.361469e-01
<VARIANCE> 39
 2.787706e+01 3.125957e+01 3.783207e+01 2.551943e+01 5.310225e+01 3.772732e+01 3.985382e+01 4.606675e+01 5.044612e+01 4.699055e+01 2.762030e+01 2.072122e+01 4.671090e+01 2.343561e+00 3.399794e+00 5.153621e+00 2.799391e+00 2.888316e+00 5.335029e+00 3.442542e+00 3.351380e+00 3.134946e+00 3.194901e+00 2.223106e+00 2.326222e+00 1.662491e+00 3.914880e-01 4.576697e-01 5.431649e-01 4.593585e-01 5.070224e-01 5.932477e-01 4.449847e-01 6.403516e-01 5.329547e-01 7.261325e-01 4.056475e-01 3.750705e-01 1.902363e-01
<GCONST> 1.227269e+02
<TRANSP> 5
 0.000000e+00 1.000000e+00 0.000000e+00 0.000000e+00 0.000000e+00
 0.000000e+00 5.071962e-01 4.928038e-01 0.000000e+00 0.000000e+00
 0.000000e+00 0.000000e+00 5.820533e-01 4.179467e-01 0.000000e+00
 0.000000e+00 0.000000e+00 0.000000e+00 3.593585e-01 6.406415e-01
 0.000000e+00 0.000000e+00 0.000000e+00 0.000000e+00 0.000000e+00
<ENDHMM>
~h "v"
<BEGINHMM>
<NUMSTATES> 5
<STATE> 2
<MEAN> 39
 7.932978e+00 -1.057751e+01 1.403546e+01 -9.881630e+00 7.022428e+00 4.613891e+00 -1.017974e+01 1.003474e+01 -1.510363e+01 -1.992916e-01 -1.909241e+00 -4.004992e+00 6.843124e+01 3.906030e-01 2.489451e-01 2.427758e-01 9.463320e-02 6.861394e-01 3.647723e-01 -4.880181e-02 1.982185e-01 -1.513841e-01 -3.131122e-01 -5.404398e-01 -1.201129e-02 4.906767e-02 1.019733e-01 -3.473907e-01 -2.075873e-01 -7.711394e-03 -1.173187e-01 -3.994377e-01 -2.566455e-01 -2.780290e-01 -2.660857e-01 1.784304e-01 2.987421e-01 8.620352e-02 3.698691e-01
<VARIANCE> 39
 4.080852e+01 2.957900e+01 4.466250e+01 4.941637e+01 3.922783e+01 4.830468e+01 3.226740e+01 3.292333e+01 4.068064e+01 2.300557e+01 1.801548e+01 1.159370e+01 5.533096e+01 2.625587e+00 1.740105e+00 3.956821e+00 2.078999e+00 2.522652e+00 3.561468e+00 1.956346e+00 2.112230e+00 2.537571e+00 1.662617e+00 1.164165e+00 1.143464e+00 1.125675e+00 3.681439e-01 4.446624e-01 5.385274e-01 4.633904e-01 3.605736e-01 5.796643e-01 3.919318e-01 4.381046e-01 4.402966e-01 4.029393e-01 3.102733e-01 2.444234e-01 1.668554e-01
<GCONST> 1.136450e+02
<STATE> 3
<MEAN> 39
 9.627472e+00 -1.214959e+01 1.465776e+01 -1.169672e+01 8.373567e+00 4.112492e+00 -1.136314e+01 1.032176e+01 -1.743815e+01 -6.750842e-01 -3.062993e+00 -3.910855e+00 7.130993e+01 7.392110e-01 -7.581363e-01 -8.769826e-01 1.497636e-01 1.421906e-01 -9.199453e-01 -9.907091e-01 -7.116227e-01 -7.167505e-01 -4.233838e-02 4.949429e-01 2.277409e-01 9.970141e-01 1.636624e-01 -2.465391e-01 -4.703517e-01 2.805714e-01 -2.456754e-01 -6.894022e-01 -3.529834e-01 -3.936622e-01 -1.370765e-01 2.382836e-01 5.320540e-01 5.127863e-02 3.231197e-01
<VARIANCE> 39
 1.869820e+01 2.053935e+01 5.548252e+01 5.272151e+01 4.047913e+01 5.518626e+01 3.092414e+01 3.125170e+01 2.805872e+01 2.460921e+01 1.968067e+01 1.321803e+01 2.551955e+01 1.906947e+00 1.972035e+00 3.554139e+00 3.108665e+00 3.486237e+00 2.842718e+00 2.131025e+00 2.313342e+00 2.336428e+00 1.585395e+00 1.401957e+00 1.202670e+00 1.398829e+00 4.117970e-01 3.736335e-01 7.892922e-01 5.833110e-01 3.343643e-01 6.805132e-01 4.214646e-01 4.285718e-01 2.889905e-01 4.396027e-01 3.483771e-01 2.794802e-01 1.573614e-01
<GCONST> 1.132346e+02
<STATE> 4
<MEAN> 39
 1.231602e+01 -1.458561e+01 1.008428e+01 -1.058738e+01 7.520158e+00 -5.403287e-01 -1.370841e+01 8.177697e+00 -1.972638e+01 -3.332948e-01 -2.792896e-01 -2.920170e+00 7.429256e+01 7.914658e-01 -8.193017e-01 -1.405769e+00 7.729941e-01 2.066867e-02 -1.920325e+00 -1.237817e+00 -1.112369e+00 -6.161585e-01 7.807401e-01 1.293120e+00 2.355440e-01 1.155019e+00 -1.673003e-01 -5.592142e-03 1.446213e-01 1.809117e-01 2.269051e-02 -4.709476e-02 -8.064187e-03 2.719483e-02 2.324369e-01 1.926751e-01 2.933403e-02 -1.079748e-01 -5.275408e-02
<VARIANCE> 39
 1.361010e+01 1.436135e+01 4.990621e+01 4.812901e+01 5.612111e+01 5.762960e+01 3.412160e+01 4.194678e+01 3.725600e+01 2.695524e+01 1.829732e+01 1.529776e+01 1.706742e+01 1.117472e+00 1.464013e+00 3.595210e+00 3.049615e+00 3.254546e+00 2.769064e+00 3.162841e+00 2.812764e+00 2.230849e+00 2.216556e+00 2.214350e+00 1.835324e+00 8.703003e-01 2.114324e-01 2.482744e-01 5.065434e-01 4.254614e-01 3.009335e-01 7.235581e-01 2.991255e-01 3.853607e-01 4.203085e-01 3.884387e-01 2.401061e-01 2.328680e-01 1.235403e-01
<GCONST> 1.106465e+02
<TRANSP> 5
 0.000000e+00 1.000000e+00 0.000000e+00 0.000000e+00 0.000000e+00
 0.000000e+00 4.052494e-01 5.947506e-01 0.000000e+00 0.000000e+00
 0.000000e+00 0.000000e+00 3.391804e-01 6.608196e-01 0.000000e+00
 0.000000e+00 0.000000e+00 0.000000e+00 3.131891e-01 6.868109e-01
 0.000000e+00 0.000000e+00 0.000000e+00 0.000000e+00 0.000000e+00
<ENDHMM>
~h "x"
<BEGINHMM>
<NUMSTATES> 5
<STATE> 2
<MEAN> 39
 2.004553e+00 -2.130938e+01 1.690243e+01 -1.882623e+01 -1.132479e+00 9.434546e+00 -4.424669e+00 1.083477e+01 -1.726774e+01 5.186454e+00 3.899116e+00 -3.617880e+00 7.001103e+01 -9.088967e-01 -1.072477e+00 -3.281342e-01 -1.421234e+00 -1.242065e+00 8.222539e-01 9.640666e-01 1.645291e-01 -2.823755e-01 -5.806810e-01 -3.308515e-01 1.275117e-01 -2.710072e-01 4.193172e-01 3.222831e-01 -1.714072e-01 4.204361e-01 2.829980e-01 -5.283733e-01 -4.057960e-01 -1.463077e-01 -8.577831e-02 2.814366e-03 -4.633707e-02 -1.843633e-01 1.832550e-01
<VARIANCE> 39
 1.108245e+01 3.113108e+01 3.664215e+01 4.809372e+01 5.672421e+01 3.755778e+01 5.470078e+01 5.157782e+01 3.533859e+01 2.390990e+01 2.253719e+01 2.466518e+01 1.924383e+01 1.649468e+00 2.128247e+00 2.121196e+00 4.067429e+00 3.262232e+00 2.660022e+00 2.500935e+00 2.673063e+00 2.532452e+00 3.020501e+00 1.902672e+00 2.300071e+00 1.009492e+00 1.579065e-01 3.096794e-01 4.676884e-01 4.483145e-01 4.594687e-01 4.868346e-01 3.793573e-01 5.062162e-01 5.441274e-01 5.709960e-01 3.244685e-01 3.860039e-01 9.784836e-02
<GCONST> 1.143143e+02
<STATE> 3
<MEAN> 39
 -1.495518e+00 -2.452397e+01 2.097790e+01 -1.433153e+01 2.349051e+00 9.208048e+00 -7.518287e+00 7.560192e+00 -1.785014e+01 5.826395e+00 3.541214e-01 -5.424675e+00 7.028740e+01 7.300806e-01 1.218798e+00 -4.264877e-01 4.135706e-02 -6.925947e-02 -2.004091e-01 4.193769e-01 -1.743151e-01 -1.133960e-01 -1.275397e-01 -2.962619e-01 1.751447e-02 -6.905748e-02 6.987227e-01 8.406897e-01 -2.173394e-01 5.539416e-01 4.139597e-01 -5.438728e-01 -4.047704e-01 3.982367e-02 1.011389e-01 -7.523046e-03 7.601985e-02 -9.278344e-02 4.706925e-02
<VARIANCE> 39
 1.852542e+01 2.115983e+01 5.617134e+01 7.367713e+01 5.266381e+01 3.663438e+01 4.873810e+01 5.061958e+01 4.431602e+01 3.311655e+01 3.630984e+01 1.583706e+01 1.588198e+01 3.432600e+00 4.541553e+00 2.678552e+00 3.576646e+00 3.587927e+00 4.234253e+00 2.957555e+00 3.393458e+00 2.821644e+00 3.450218e+00 1.950410e+00 2.126792e+00 1.421710e+00 4.213362e-01 4.811364e-01 6.395237e-01 5.580741e-01 5.890315e-01 6.958629e-01 6.625847e-01 5.914101e-01 7.458594e-01 7.050053e-01 4.693193e-01 3.344141e-01 3.226252e-01
<GCONST> 1.237660e+02
<STATE> 4
<MEAN> 39
 4.442985e+00 -1.682998e+01 1.746924e+01 -1.528869e+01 7.884334e-01 6.961957e+00 -4.732352e+00 8.519571e+00 -1.843970e+01 5.814468e+00 1.156595e+00 -4.957832e+00 7.022919e+01 2.041681e+00 2.489003e+00 -1.088006e+00 8.810843e-01 5.476776e-01 -2.195482e+00 -9.298103e-01 4.464529e-02 9.747923e-02 2.386120e-02 -3.684039e-01 -1.310362e-01 2.605701e-01 6.468420e-02 -2.362987e-01 -3.603107e-01 1.132199e-01 2.283986e-01 -2.983577e-01 -4.727056e-01 1.558150e-02 1.833273e-01 1.967960e-02 1.250899e-01 9.314439e-02 1.756811e-01
<VARIANCE> 39
 3.814901e+01 3.450853e+01 6.928127e+01 4.592906e+01 4.632733e+01 4.107038e+01 2.728124e+01 3.514100e+01 3.421950e+01 5.186289e+01 2.644144e+01 2.324066e+01 2.682587e+01 4.589170e+00 3.202859e+00 2.608843e+00 3.335026e+00 3.756224e+00 5.686182e+00 4.348152e+00 4.000726e+00 3.597096e+00 3.965532e+00 2.442067e+00 2.502077e+00 3.318383e+00 3.389364e-01 6.849958e-01 6.868525e-01 4.183834e-01 6.092440e-01 5.439907e-01 3.822758e-01 5.563131e-01 4.720226e-01 5.633084e-01 3.367938e-01 3.326715e-01 2.391730e-01
<GCONST> 1.246656e+02
<TRANSP> 5
 0.000000e+00 1.000000e+00 0.000000e+00 0.000000e+00 0.000000e+00
 0.000000e+00 7.580655e-01 2.419346e-01 0.000000e+00 0.000000e+00
 0.000000e+00 0.000000e+00 5.674506e-01 4.325494e-01 0.000000e+00
 0.000000e+00 0.000000e+00 0.000000e+00 3.057942e-01 6.942058e-01
 0.000000e+00 0.000000e+00 0.000000e+00 0.000000e+00 0.000000e+00
<ENDHMM>
~h "z"
<BEGINHMM>
<NUMSTATES> 5
<STATE> 2
<MEAN> 39
 -2.892424e-01 -1.666319e+01 3.317197e+01 -1.800795e+01 4.606562e+00 1.527857e+01 -8.538015e+00 5.698751e-01 -2.127045e+01 6.100214e+00 -4.194806e+00 -3.809298e+00 7.445463e+01 -5.444635e-01 -2.409328e-01 1.108409e+00 -8.892106e-01 -8.151814e-02 9.510241e-01 3.657950e-01 -2.054593e-01 -2.551629e-01 1.042511e-01 -3.010951e-01 3.029526e-01 2.019777e-01 8.102967e-01 1.213917e-01 -1.452467e+00 6.932856e-01 1.609865e-01 -8.311635e-01 -3.682546e-01 7.607852e-02 1.025374e-01 -2.268679e-01 2.510411e-01 -1.420154e-01 -4.287598e-02
<VARIANCE> 39
 2.841670e+01 1.764071e+01 5.783905e+01 4.222755e+01 3.792795e+01 3.601655e+01 4.394691e+01 4.854258e+01 4.563474e+01 2.333034e+01 2.977601e+01 1.976959e+01 3.626188e+01 5.563375e+00 2.035553e+00 1.343312e+01 4.434433e+00 2.077419e+00 4.420633e+00 2.649475e+00 3.163583e+00 2.521712e+00 1.928240e+00 1.782818e+00 1.575309e+00 1.699700e+00 4.710644e-01 3.898335e-01 1.231193e+00 6.257815e-01 3.561656e-01 6.135860e-01 4.323907e-01 6.178628e-01 4.897069e-01 3.631198e-01 3.809714e-01 3.414255e-01 2.062968e-01
<GCONST> 1.213801e+02
<STATE> 3
<MEAN> 39
 5.104908e+00 -1.683303e+01 2.606120e+01 -1.589977e+01 5.030074e+00 1.420976e+01 -1.051024e+01 -2.184566e+00 -2.133284e+01 4.051404e+00 -4.778996e+00 -4.070695e+00 7.563268e+01 2.976639e+00 5.366607e-01 -5.555628e+00 2.377617e+00 5.239297e-01 -2.326652e+00 -1.043637e+00 -2.837458e-01 1.990618e-01 -8.567724e-01 1.061507e+00 -4.469436e-01 -6.001180e-02 1.003856e-01 4.999961e-02 -5.472518e-01 2.720191e-01 1.779436e-01 -6.397267e-01 -3.759085e-02 4.375184e-01 1.397069e-02 1.807479e-01 4.925925e-01 6.833671e-02 -1.257285e-02
<VARIANCE> 39
 2.193566e+01 2.091721e+01 3.291896e+01 2.856016e+01 3.262120e+01 2.231147e+01 2.561896e+01 3.674316e+01 2.121186e+01 2.536187e+01 2.407730e+01 9.564788e+00 2.212449e+01 1.677372e+00 1.762112e+00 4.519678e+00 2.342648e+00 2.393614e+00 4.945989e+00 1.874621e+00 3.030761e+00 2.725282e+00 1.795985e+00 1.531395e+00 1.805381e+00 1.177212e+00 3.587408e-01 3.478265e-01 7.673767e-01 4.550298e-01 3.489949e-01 5.160583e-01 2.593050e-01 4.442238e-01 2.800459e-01 5.166129e-01 3.060923e-01 2.540267e-01 2.121781e-01
<GCONST> 1.102869e+02
<STATE> 4
<MEAN> 39
 1.053568e+01 -1.620343e+01 1.474031e+01 -1.223643e+01 5.671521e+00 6.807344e+00 -1.142194e+01 4.659744e-01 -2.198513e+01 3.461391e+00 -1.100201e+00 -4.216290e+00 7.578683e+01 2.034736e+00 1.626121e-01 -4.456872e+00 1.584099e+00 6.772593e-01 -2.732897e+00 -5.647570e-01 9.321295e-01 8.376779e-02 -1.228526e-01 1.650485e+00 2.778232e-01 4.499916e-02 -6.255137e-01 -1.963896e-01 1.053137e+00 -5.299528e-01 -1.000021e-01 3.743753e-01 1.351923e-01 2.729596e-01 2.123547e-01 1.694653e-01 -5.978572e-02 3.292834e-01 6.249867e-02
<VARIANCE> 39
 2.534371e+01 1.795961e+01 6.608165e+01 2.471449e+01 3.812607e+01 5.083796e+01 2.483285e+01 4.231218e+01 2.208644e+01 2.450965e+01 2.540431e+01 1.833700e+01 2.703294e+01 1.434255e+00 1.585690e+00 4.287070e+00 2.669957e+00 2.103432e+00 4.357763e+00 2.112342e+00 2.801492e+00 2.946490e+00 2.756938e+00 2.043189e+00 2.314758e+00 9.544426e-01 2.860323e-01 2.625773e-01 5.902849e-01 4.483919e-01 4.404361e-01 6.891356e-01 3.191029e-01 5.323736e-01 3.571169e-01 4.129646e-01 3.640362e-01 3.005708e-01 1.732832e-01
<GCONST> 1.135500e+02
<TRANSP> 5
 0.000000e+00 1.000000e+00 0.000000e+00 0.000000e+00 0.000000e+00
 0.000000e+00 8.004869e-01 1.995131e-01 0.000000e+00 0.000000e+00
 0.000000e+00 0.000000e+00 3.456986e-01 6.543015e-01 0.000000e+00
 0.000000e+00 0.000000e+00 0.000000e+00 3.098046e-01 6.901954e-01
 0.000000e+00 0.000000e+00 0.000000e+00 0.000000e+00 0.000000e+00
<ENDHMM>
~h "aa"
<BEGINHMM>
<NUMSTATES> 5
<STATE> 2
<MEAN> 39
 1.459501e+01 -1.727594e+01 -9.459630e-01 -1.803277e+01 -2.961343e-01 -3.233477e+00 -5.842218e+00 1.487858e+01 -1.141604e+01 1.745884e+00 8.286260e-01 3.071113e+00 7.904683e+01 -2.635834e-02 -9.348836e-02 -2.514374e-01 -2.695439e-01 -2.744114e-01 8.883743e-02 5.894744e-01 3.881447e-01 3.810339e-01 9.100882e-02 -3.291456e-01 1.204495e-01 8.129528e-03 -2.785709e-02 8.887484e-02 2.826323e-01 1.883810e-01 2.389590e-01 1.113514e-01 -2.452936e-01 -2.613652e-01 -2.183075e-01 5.504415e-02 1.538488e-02 -1.611887e-01 -1.405166e-01
<VARIANCE> 39
 5.499474e+00 1.235598e+01 2.587717e+01 1.892698e+01 2.516277e+01 3.148093e+01 2.481205e+01 4.219702e+01 4.253946e+01 5.198423e+01 2.841088e+01 1.980617e+01 1.837714e+01 3.137686e-01 7.580975e-01 1.260314e+00 1.007905e+00 1.231197e+00 1.050967e+00 1.726120e+00 1.409361e+00 1.774560e+00 1.606358e+00 1.211391e+00 9.407801e-01 2.160124e-01 8.086814e-02 1.443989e-01 2.427205e-01 1.897490e-01 1.926803e-01 2.726072e-01 2.107096e-01 2.439883e-01 3.073806e-01 3.236906e-01 2.576361e-01 2.071013e-01 3.899662e-02
<GCONST> 9.033431e+01
<STATE> 3
<MEAN> 39
 1.500884e+01 -1.796354e+01 2.774591e-01 -1.714346e+01 5.240744e-01 -4.113522e+00 -6.338435e+00 1.394311e+01 -1.390561e+01 2.992770e+00 1.389387e+00 3.356683e+00 7.916203e+01 -6.287996e-02 4.610498e-01 1.380571e+00 9.580896e-01 9.477715e-01 4.666931e-01 -7.203289e-01 -1.207459e+00 -1.025653e+00 8.111826e-01 3.368508e-01 -8.935035e-01 -8.314852e-01 -3.853097e-01 3.308153e-01 7.072471e-01 3.931553e-01 2.659144e-01 8.013262e-01 -4.884218e-02 -4.232839e-01 1.280718e-01 -1.115879e-01 -2.363769e-01 -4.109637e-01 -4.234260e-01
<VARIANCE> 39
 6.459429e+00 1.399601e+01 2.292127e+01 1.690817e+01 2.588909e+01 2.819200e+01 2.259971e+01 4.389802e+01 3.546385e+01 5.455959e+01 2.225006e+01 1.997212e+01 2.032546e+01 6.013489e-01 1.304187e+00 2.385622e+00 1.955572e+00 1.930562e+00 1.962057e+00 2.079488e+00 1.929187e+00 2.435020e+00 3.757150e+00 2.065041e+00 1.965612e+00 6.363732e-01 1.693238e-01 1.704006e-01 5.025749e-01 2.962155e-01 3.637603e-01 3.304167e-01 3.245981e-01 3.868067e-01 4.354045e-01 4.978719e-01 2.796746e-01 3.496199e-01 8.567186e-02
<GCONST> 1.035361e+02
<STATE> 4
<MEAN> 39
 1.293388e+01 -1.473284e+01 5.154657e+00 -1.461711e+01 1.689871e+00 -5.440086e-01 -6.689752e+00 9.848857e+00 -1.489706e+01 5.678719e+00 1.636073e+00 1.045067e-01 7.491808e+01 -1.681107e+00 1.146076e+00 3.172572e+00 1.292205e+00 9.740118e-01 2.962387e+00 -2.176511e-01 -1.228360e+00 4.335966e-01 -1.982062e-01 -6.994299e-01 -1.262040e+00 -1.974469e+00 -5.008889e-01 -2.135377e-01 3.714313e-01 -7.540241e-02 -6.593637e-02 3.514595e-01 4.544088e-02 2.318414e-01 3.697701e-01 -2.843379e-01 -1.695574e-01 1.189551e-01 -9.343216e-02
<VARIANCE> 39
 1.513219e+01 1.949367e+01 3.529580e+01 2.416725e+01 3.625058e+01 4.832876e+01 4.650745e+01 3.455648e+01 5.433415e+01 4.878637e+01 2.473394e+01 2.392707e+01 3.446877e+01 1.729424e+00 1.532592e+00 6.339705e+00 3.029365e+00 3.066327e+00 3.637216e+00 2.500366e+00 3.347458e+00 3.438139e+00 4.550779e+00 1.756930e+00 2.936447e+00 1.190125e+00 3.338130e-01 3.100172e-01 8.283154e-01 2.809581e-01 3.239465e-01 6.695434e-01 4.301127e-01 3.462264e-01 6.535044e-01 5.679718e-01 4.237071e-01 3.452034e-01 1.844479e-01
<GCONST> 1.180380e+02
<TRANSP> 5
 0.000000e+00 1.000000e+00 0.000000e+00 0.000000e+00 0.000000e+00
 0.000000e+00 8.598552e-01 1.401448e-01 0.000000e+00 0.000000e+00
 0.000000e+00 0.000000e+00 5.538841e-01 4.461159e-01 0.000000e+00
 0.000000e+00 0.000000e+00 0.000000e+00 4.522812e-01 5.477188e-01
 0.000000e+00 0.000000e+00 0.000000e+00 0.000000e+00 0.000000e+00
<ENDHMM>
~h "aw"
<BEGINHMM>
<NUMSTATES> 5
<STATE> 2
<MEAN> 39
 -7.474797e-01 -1.372438e+01 1.363240e+01 -7.800015e+00 3.957401e+00 4.912278e+00 -9.313604e+00 9.542570e+00 -9.857509e+00 3.919184e+00 1.996032e+00 -2.240039e+00 6.241040e+01 -1.802149e-04 -4.002908e-04 -4.533151e-04 -6.255359e-04 3.060046e-04 -9.756409e-05 3.545313e-04 3.676544e-04 -3.322966e-04 2.823267e-04 3.441859e-04 -7.776468e-06 1.221478e-04 -1.140098e-05 1.280875e-04 8.513568e-05 5.610451e-05 1.307168e-04 1.258145e-04 -3.556004e-04 -3.413941e-04 -2.462322e-04 -2.982411e-04 -2.002541e-04 1.479088e-04 -5.553468e-05
<VARIANCE> 39
 7.885750e+01 3.150516e+01 5.932858e+01 4.002160e+01 3.388152e+01 4.450462e+01 4.196474e+01 3.377337e+01 5.805833e+01 2.700758e+01 1.807174e+01 1.807939e+01 1.000320e+02 2.049164e+00 1.868461e+00 3.042747e+00 2.325078e+00 1.845033e+00 2.917301e+00 2.107786e+00 2.084596e+00 2.106791e+00 1.946175e+00 1.426612e+00 1.517214e+00 1.393703e+00 2.791751e-01 3.309114e-01 4.813313e-01 4.079526e-01 3.174572e-01 5.210913e-01 3.729059e-01 3.905098e-01 3.965955e-01 3.683704e-01 2.743881e-01 2.959611e-01 2.159844e-01
<GCONST> 1.148699e+02
<STATE> 3
<MEAN> 39
 -7.474797e-01 -1.372438e+01 1.363240e+01 -7.800015e+00 3.957401e+00 4.912278e+00 -9.313604e+00 9.542570e+00 -9.857509e+00 3.919184e+00 1.996032e+00 -2.240039e+00 6.241040e+01 -1.802149e-04 -4.002908e-04 -4.533151e-04 -6.255359e-04 3.060046e-04 -9.756409e-05 3.545313e-04 3.676544e-04 -3.322966e-04 2.823267e-04 3.441859e-04 -7.776468e-06 1.221478e-04 -1.140098e-05 1.280875e-04 8.513568e-05 5.610451e-05 1.307168e-04 1.258145e-04 -3.556004e-04 -3.413941e-04 -2.462322e-04 -2.982411e-04 -2.002541e-04 1.479088e-04 -5.553468e-05
<VARIANCE> 39
 7.885750e+01 3.150516e+01 5.932858e+01 4.002160e+01 3.388152e+01 4.450462e+01 4.196474e+01 3.377337e+01 5.805833e+01 2.700758e+01 1.807174e+01 1.807939e+01 1.000320e+02 2.049164e+00 1.868461e+00 3.042747e+00 2.325078e+00 1.845033e+00 2.917301e+00 2.107786e+00 2.084596e+00 2.106791e+00 1.946175e+00 1.426612e+00 1.517214e+00 1.393703e+00 2.791751e-01 3.309114e-01 4.813313e-01 4.079526e-01 3.174572e-01 5.210913e-01 3.729059e-01 3.905098e-01 3.965955e-01 3.683704e-01 2.743881e-01 2.959611e-01 2.159844e-01
<GCONST> 1.148699e+02
<STATE> 4
<MEAN> 39
 -7.474797e-01 -1.372438e+01 1.363240e+01 -7.800015e+00 3.957401e+00 4.912278e+00 -9.313604e+00 9.542570e+00 -9.857509e+00 3.919184e+00 1.996032e+00 -2.240039e+00 6.241040e+01 -1.802149e-04 -4.002908e-04 -4.533151e-04 -6.255359e-04 3.060046e-04 -9.756409e-05 3.545313e-04 3.676544e-04 -3.322966e-04 2.823267e-04 3.441859e-04 -7.776468e-06 1.221478e-04 -1.140098e-05 1.280875e-04 8.513568e-05 5.610451e-05 1.307168e-04 1.258145e-04 -3.556004e-04 -3.413941e-04 -2.462322e-04 -2.982411e-04 -2.002541e-04 1.479088e-04 -5.553468e-05
<VARIANCE> 39
 7.885750e+01 3.150516e+01 5.932858e+01 4.002160e+01 3.388152e+01 4.450462e+01 4.196474e+01 3.377337e+01 5.805833e+01 2.700758e+01 1.807174e+01 1.807939e+01 1.000320e+02 2.049164e+00 1.868461e+00 3.042747e+00 2.325078e+00 1.845033e+00 2.917301e+00 2.107786e+00 2.084596e+00 2.106791e+00 1.946175e+00 1.426612e+00 1.517214e+00 1.393703e+00 2.791751e-01 3.309114e-01 4.813313e-01 4.079526e-01 3.174572e-01 5.210913e-01 3.729059e-01 3.905098e-01 3.965955e-01 3.683704e-01 2.743881e-01 2.959611e-01 2.159844e-01
<GCONST> 1.148699e+02
<TRANSP> 5
 0.000000e+00 1.000000e+00 0.000000e+00 0.000000e+00 0.000000e+00
 0.000000e+00 6.000000e-01 4.000000e-01 0.000000e+00 0.000000e+00
 0.000000e+00 0.000000e+00 6.000000e-01 4.000000e-01 0.000000e+00
 0.000000e+00 0.000000e+00 0.000000e+00 7.000000e-01 3.000000e-01
 0.000000e+00 0.000000e+00 0.000000e+00 0.000000e+00 0.000000e+00
<ENDHMM>
~h "ch"
<BEGINHMM>
<NUMSTATES> 5
<STATE> 2
<MEAN> 39
 -2.917128e+00 -2.178783e+01 2.142564e+01 -3.426705e+00 2.889829e+00 5.853526e+00 -1.179007e+01 8.461593e+00 -1.192015e+01 -8.666977e-01 1.121967e+00 -1.100994e+00 6.615535e+01 -2.234010e+00 -3.556183e+00 7.699656e-01 -1.465740e+00 -1.189834e+00 1.112375e-01 8.624535e-02 1.125792e+00 9.177364e-01 -6.001207e-01 -6.622370e-01 5.693353e-01 1.108294e+00 -2.454776e-03 -5.732520e-01 8.218600e-02 -3.559169e-01 1.936593e-01 -3.538662e-01 -3.868717e-01 -1.174935e-01 -2.392780e-01 3.838180e-01 3.008334e-02 -1.578140e-01 7.579690e-01
<VARIANCE> 39
 2.784180e+01 7.494653e+01 5.348969e+01 2.274080e+01 2.834271e+01 2.033679e+01 2.902099e+01 3.621234e+01 3.294173e+01 2.278489e+01 1.835896e+01 1.436974e+01 4.427345e+01 3.475384e+00 6.371731e+00 5.869860e+00 3.475645e+00 3.016604e+00 2.542050e+00 3.284544e+00 2.378372e+00 2.765907e+00 2.273088e+00 1.485298e+00 1.062054e+00 4.524165e+00 3.589599e-01 1.406079e+00 1.071015e+00 4.391536e-01 5.809160e-01 5.597929e-01 5.207549e-01 5.804844e-01 4.897200e-01 5.055757e-01 3.871317e-01 2.234330e-01 5.219011e-01
<GCONST> 1.214829e+02
<STATE> 3
<MEAN> 39
 -9.338722e+00 -3.553601e+01 2.592065e+01 -1.042287e+01 2.508386e+00 4.993315e+00 -1.571718e+01 8.896625e+00 -1.025646e+01 2.313342e+00 1.549732e-01 -5.026650e-01 7.601488e+01 3.308369e-01 7.000446e-02 -4.436790e-03 -3.239570e-01 1.892542e-01 3.988488e-02 -3.084257e-01 -5.982019e-01 4.812868e-02 7.066964e-01 2.520334e-01 -5.920688e-02 5.638892e-01 9.923876e-01 1.244675e+00 -4.825419e-01 5.785261e-01 2.242809e-01 -1.759239e-02 1.356167e-01 -2.207594e-01 -2.328368e-01 -1.199075e-01 1.163017e-01 -1.423302e-01 -4.669440e-01
<VARIANCE> 39
 1.046657e+01 1.148417e+01 2.149746e+01 2.624938e+01 2.448290e+01 2.513658e+01 3.231391e+01 3.142747e+01 2.636913e+01 2.325586e+01 1.592480e+01 1.546182e+01 1.491551e+01 4.500541e+00 6.176387e+00 2.969715e+00 3.357778e+00 2.594833e+00 1.876054e+00 2.986385e+00 3.136289e+00 2.597054e+00 2.764384e+00 1.972359e+00 1.257807e+00 2.111968e+00 3.182240e-01 3.200978e-01 5.485591e-01 5.255853e-01 5.331300e-01 3.794743e-01 4.988887e-01 5.719360e-01 5.040607e-01 4.860636e-01 3.565780e-01 2.597645e-01 1.868850e-01
<GCONST> 1.120039e+02
<STATE> 4
<MEAN> 39
 2.674748e+00 -2.387352e+01 2.207720e+01 -5.724691e+00 6.013756e+00 5.203844e+00 -1.616932e+01 4.235358e+00 -1.232639e+01 4.245960e+00 2.154677e+00 -2.699647e+00 7.500650e+01 4.364050e+00 3.655893e+00 -2.969738e+00 1.623071e+00 1.624022e+00 -1.387729e+00 -5.644289e-01 -4.731850e-01 -1.539364e+00 -3.136096e-01 5.342642e-01 -8.069053e-01 -2.466418e-01 -2.309163e-01 -5.084205e-01 -5.554845e-01 -2.251496e-01 7.970404e-02 -6.794810e-01 -2.709518e-01 5.085291e-01 -1.813186e-01 -2.990102e-01 2.543735e-03 1.455435e-01 2.098988e-01
<VARIANCE> 39
 4.713536e+01 3.237051e+01 5.705468e+01 3.121857e+01 2.412486e+01 2.639648e+01 4.598582e+01 2.962973e+01 3.210384e+01 3.567582e+01 2.671969e+01 1.705615e+01 2.540729e+01 2.230163e+00 2.568115e+00 4.023620e+00 2.620430e+00 3.150963e+00 3.496594e+00 3.703760e+00 3.074198e+00 4.392142e+00 3.222679e+00 2.258931e+00 1.732767e+00 1.585677e+00 7.393956e-01 5.261185e-01 6.997315e-01 4.110132e-01 4.591540e-01 4.520777e-01 5.219576e-01 5.454521e-01 5.891976e-01 4.215967e-01 3.392894e-01 3.574947e-01 1.591792e-01
<GCONST> 1.196159e+02
<TRANSP> 5
 0.000000e+00 1.000000e+00 0.000000e+00 0.000000e+00 0.000000e+00
 0.000000e+00 7.206043e-01 2.793957e-01 0.000000e+00 0.000000e+00
 0.000000e+00 0.000000e+00 8.241605e-01 1.758395e-01 0.000000e+00
 0.000000e+00 0.000000e+00 0.000000e+00 6.037061e-01 3.962938e-01
 0.000000e+00 0.000000e+00 0.000000e+00 0.000000e+00 0.000000e+00
<ENDHMM>
~h "dj"
<BEGINHMM>
<NUMSTATES> 5
<STATE> 2
<MEAN> 39
 7.724476e+00 -1.241863e+01 1.939206e+01 1.955453e+00 1.265882e+01 3.049374e-01 -1.462457e+01 6.836277e+00 -1.639700e+01 1.770286e+00 8.987956e-02 -1.920153e+00 6.925225e+01 -8.246192e-01 -4.136489e-01 1.862441e+00 -1.315748e-03 -1.959925e-01 5.092527e-01 1.546413e-01 1.853381e-01 2.989645e-01 6.698278e-01 -4.284651e-01 -1.620963e-01 -2.630370e-01 1.298057e-01 -5.307102e-01 -3.294732e-02 -2.244752e-01 -9.622034e-02 -3.286448e-01 -2.592340e-01 -4.541200e-02 -3.486035e-01 -2.303890e-02 -1.042389e-01 -2.858203e-01 4.670425e-01
<VARIANCE> 39
 1.372746e+01 4.469088e+01 5.526745e+01 2.839912e+01 2.889389e+01 3.945500e+01 3.902036e+01 3.905490e+01 4.520631e+01 2.908470e+01 1.630960e+01 1.607659e+01 2.435761e+01 4.961874e-01 8.465814e+00 2.195326e+00 5.360335e+00 3.666530e+00 2.504211e+00 4.574789e+00 4.351531e+00 6.800980e+00 2.710980e+00 1.641533e+00 1.482262e+00 4.201407e+00 1.407686e-01 1.579247e+00 5.143974e-01 9.022183e-01 7.971085e-01 4.688481e-01 1.153024e+00 9.241871e-01 1.258826e+00 5.301139e-01 2.796689e-01 2.419267e-01 7.558655e-01
<GCONST> 1.235444e+02
<STATE> 3
<MEAN> 39
 6.474269e+00 -1.916211e+01 2.430544e+01 1.032447e+00 1.354250e+01 -7.096908e-02 -1.842097e+01 5.988281e+00 -1.795543e+01 2.519014e+00 -2.881617e+00 -4.815252e+00 7.319350e+01 6.235650e-01 -1.136646e+00 -2.027404e-01 8.130177e-01 1.122490e+00 -1.151322e+00 -2.320057e+00 -1.029439e+00 -8.202997e-01 -5.468648e-02 -3.449282e-01 -8.999287e-01 1.057945e+00 3.220898e-01 6.838701e-01 -9.420994e-01 2.087719e-01 -1.616241e-01 -4.067678e-01 -6.321666e-02 -4.016577e-02 1.217383e-01 -3.263786e-01 4.818816e-01 2.304051e-01 -1.815514e-01
<VARIANCE> 39
 1.876163e+01 1.551605e+01 8.291479e+01 4.197787e+01 4.447353e+01 3.643296e+01 4.388531e+01 3.097228e+01 2.445284e+01 2.447413e+01 1.858851e+01 2.240756e+01 1.426495e+01 8.986908e-01 2.348867e+00 3.722773e+00 6.576065e+00 3.399239e+00 3.561776e+00 2.786865e+00 2.087194e+00 5.517424e+00 2.792040e+00 2.233760e+00 6.760027e-01 1.966377e+00 1.766328e-01 5.402569e-01 5.730976e-01 8.861909e-01 7.762539e-01 5.316464e-01 1.122022e+00 5.290968e-01 5.524374e-01 6.255562e-01 6.652057e-01 2.967959e-01 3.081510e-01
<GCONST> 1.189221e+02
<STATE> 4
<MEAN> 39
 9.447766e+00 -1.893663e+01 1.749122e+01 1.248843e+00 1.560087e+01 -3.843487e+00 -2.210627e+01 3.763391e+00 -2.138459e+01 2.235987e+00 1.230512e-01 -5.676122e+00 7.506748e+01 1.432250e-01 1.095103e-01 -5.468464e-01 -1.907656e-01 -2.804800e-01 -3.157382e-01 -1.839410e-01 5.009846e-02 -2.840584e-01 -2.245663e-01 8.615003e-01 -4.206805e-02 2.508569e-01 -1.221817e-01 2.285098e-01 5.312796e-02 -1.924571e-01 -3.865424e-01 2.929550e-01 5.307622e-01 2.380723e-01 2.907363e-01 -1.863356e-01 -9.572620e-03 2.920724e-01 -2.053211e-01
<VARIANCE> 39
 1.958774e+01 1.152875e+01 1.106133e+02 3.504840e+01 3.088560e+01 2.764636e+01 2.705717e+01 3.251726e+01 3.727331e+01 2.918878e+01 2.611541e+01 1.659823e+01 1.614413e+01 6.995236e-01 6.813366e-01 3.239125e+00 2.819454e+00 1.391082e+00 2.071717e+00 2.326148e+00 1.661739e+00 1.298462e+00 1.347140e+00 1.954394e+00 1.662678e+00 4.662321e-01 8.947862e-02 1.758781e-01 4.323267e-01 4.235841e-01 3.434134e-01 3.802329e-01 6.748081e-01 2.172375e-01 3.512273e-01 3.207296e-01 2.933480e-01 1.851507e-01 1.584487e-01
<GCONST> 1.028467e+02
<TRANSP> 5
 0.000000e+00 1.000000e+00 0.000000e+00 0.000000e+00 0.000000e+00
 0.000000e+00 7.285906e-01 2.714094e-01 0.000000e+00 0.000000e+00
 0.000000e+00 0.000000e+00 5.217217e-01 4.782783e-01 0.000000e+00
 0.000000e+00 0.000000e+00 0.000000e+00 5.972322e-01 4.027678e-01
 0.000000e+00 0.000000e+00 0.000000e+00 0.000000e+00 0.000000e+00
<ENDHMM>
~h "ee"
<BEGINHMM>
<NUMSTATES> 5
<STATE> 2
<MEAN> 39
