~o
<STREAMINFO> 1 39
<VECSIZE> 39<NULLD><MFCC_D_A_0><DIAGC>
~s "silst"
<MEAN> 39
 -5.456075e+00 -1.345937e+01 1.358808e+01 -9.415228e+00 1.930449e+00 7.127615e+00 -7.270761e+00 1.063123e+01 -7.844114e+00 5.771522e+00 3.238957e+00 -1.083086e+00 5.714917e+01 -1.644154e-01 7.562298e-02 1.331646e-02 1.861669e-01 5.771100e-02 7.048430e-02 7.245121e-02 9.801375e-03 5.453215e-02 -8.571141e-02 -1.710305e-02 -3.881647e-02 -1.918777e-01 6.942792e-02 7.425763e-02 -1.004709e-01 1.406720e-01 1.045817e-02 5.000984e-02 2.455292e-02 -4.893116e-02 1.127758e-01 -8.104330e-02 -1.014889e-02 -3.287062e-02 -4.449288e-02
<VARIANCE> 39
 1.280903e+01 1.467387e+01 2.399827e+01 1.909962e+01 1.574987e+01 2.361089e+01 1.649944e+01 2.573990e+01 2.118439e+01 1.753258e+01 1.397467e+01 1.125345e+01 7.095368e+00 6.698859e-01 1.402130e+00 2.263080e+00 2.091350e+00 1.304271e+00 2.156962e+00 1.494430e+00 1.890988e+00 2.349211e+00 1.748019e+00 1.235286e+00 1.058368e+00 7.474094e-01 9.798786e-02 2.434190e-01 4.325878e-01 3.785088e-01 2.628484e-01 4.226326e-01 2.970181e-01 3.650513e-01 4.520210e-01 3.452033e-01 2.445802e-01 2.129999e-01 1.253663e-01
<GCONST> 9.604688e+01
~h "a"
<BEGINHMM>
<NUMSTATES> 5
<STATE> 2
<MEAN> 39
 8.940328e+00 -1.571911e+01 6.273426e+00 -1.392769e+01 1.622300e+00 -2.505199e-01 -8.955710e+00 9.300317e+00 -1.433464e+01 4.258154e+00 1.891961e+00 8.199673e-01 7.169968e+01 1.908368e+00 -2.855307e-01 -1.960982e+00 -3.772154e-01 -2.200094e-02 -1.878003e+00 4.915328e-01 6.125457e-01 -7.991226e-01 5.145910e-01 3.566589e-01 4.161768e-01 1.670252e+00 -3.228430e-01 5.247868e-02 3.510526e-01 2.857755e-01 2.308553e-01 3.865492e-01 4.965096e-02 -1.359216e-01 1.153574e-01 6.738947e-02 -1.031989e-01 -2.236783e-01 -2.755817e-01
<VARIANCE> 39
 6.770251e+01 2.005879e+01 4.712213e+01 3.114076e+01 3.789257e+01 5.730022e+01 4.752698e+01 5.215842e+01 5.993963e+01 3.355424e+01 2.569068e+01 1.962117e+01 8.753777e+01 4.423443e+00 2.339723e+00 5.891055e+00 3.653934e+00 2.811025e+00 5.603578e+00 3.649004e+00 3.413289e+00 3.133549e+00 3.022331e+00 2.605076e+00 1.931501e+00 3.778501e+00 1.025491e+00 4.788250e-01 1.080496e+00 7.382463e-01 5.603730e-01 1.137021e+00 6.724353e-01 6.543736e-01 6.484100e-01 5.362329e-01 4.871316e-01 4.937238e-01 8.863134e-01
<GCONST> 1.310497e+02
<STATE> 3
<MEAN> 39
 1.480471e+01 -1.772628e+01 1.962552e+00 -1.450483e+01 3.307181e+00 -5.489460e+00 -9.854727e+00 9.808623e+00 -1.758326e+01 5.063242e+00 2.973357e+00 1.949112e+00 7.822517e+01 -2.627347e-01 1.734833e-01 5.493118e-01 4.381310e-01 3.463657e-01 6.565737e-01 2.924166e-01 -3.400553e-01 -2.291139e-02 2.742868e-01 -4.825548e-02 -2.328309e-01 -3.433821e-01 -6.132276e-01 2.962542e-01 9.216264e-01 2.278292e-01 8.050078e-02 9.760712e-01 -6.481051e-02 -2.896942e-01 3.401532e-01 -2.298367e-01 -3.298082e-01 -3.593146e-01 -6.462299e-01
<VARIANCE> 39
 5.037242e+00 1.355244e+01 3.480959e+01 2.303840e+01 4.103770e+01 2.828939e+01 4.015256e+01 5.887443e+01 5.663483e+01 4.646411e+01 2.917427e+01 2.167435e+01 1.339059e+01 8.443815e-01 1.576044e+00 4.708603e+00 2.018778e+00 2.468349e+00 3.477949e+00 3.184773e+00 2.380981e+00 2.634253e+00 3.089076e+00 2.003570e+00 2.023519e+00 1.320398e+00 3.469014e-01 2.965906e-01 6.641975e-01 4.450136e-01 4.397857e-01 6.336749e-01 4.201591e-01 5.446000e-01 6.137603e-01 6.096027e-01 3.800842e-01 4.645177e-01 2.279141e-01
<GCONST> 1.143783e+02
<STATE> 4
<MEAN> 39
 1.124853e+01 -1.437596e+01 7.500802e+00 -1.322221e+01 3.178977e+00 1.020305e+00 -8.017345e+00 8.375937e+00 -1.628158e+01 4.989965e+00 2.553819e+00 -1.845413e-01 7.322794e+01 -1.826788e+00 1.099744e+00 2.064046e+00 8.563895e-01 2.886784e-02 2.441907e+00 7.647298e-02 -5.426874e-01 1.220780e+00 -7.627198e-01 -5.794104e-01 -7.762419e-01 -2.192032e+00 -3.337573e-01 -1.848897e-01 5.659595e-02 1.970532e-02 -4.036682e-02 -1.060508e-01 -3.172823e-01 3.729632e-02 1.857703e-01 -2.050430e-01 -6.570622e-02 2.998038e-02 -1.206544e-01
<VARIANCE> 39
 1.598446e+01 2.051801e+01 5.391786e+01 3.288309e+01 5.039214e+01 4.665304e+01 5.316533e+01 6.356344e+01 5.545867e+01 5.364779e+01 3.024992e+01 2.313690e+01 3.134462e+01 2.141389e+00 2.389757e+00 5.993250e+00 3.145160e+00 3.751118e+00 4.709224e+00 3.413217e+00 3.604507e+00 3.429277e+00 3.862786e+00 2.228334e+00 3.378620e+00 2.370213e+00 3.214640e-01 3.508019e-01 8.702604e-01 4.162071e-01 4.221819e-01 6.305054e-01 5.285723e-01 4.826385e-01 5.733504e-01 6.724831e-01 3.401597e-01 4.046450e-01 2.671195e-01
<GCONST> 1.241049e+02
<TRANSP> 5
 0.000000e+00 1.000000e+00 0.000000e+00 0.000000e+00 0.000000e+00
 0.000000e+00 4.668804e-01 5.331197e-01 0.000000e+00 0.000000e+00
 0.000000e+00 0.000000e+00 6.335460e-01 3.664540e-01 0.000000e+00
 0.000000e+00 0.000000e+00 0.000000e+00 4.032272e-01 5.967728e-01
 0.000000e+00 0.000000e+00 0.000000e+00 0.000000e+00 0.000000e+00
<ENDHMM>
~h "b"
<BEGINHMM>
<NUMSTATES> 5
<STATE> 2
<MEAN> 39
 8.747787e+00 -2.393831e+00 1.573316e+01 -2.554960e+00 7.575188e+00 7.436638e+00 -9.133144e+00 8.011469e+00 -1.058893e+01 -1.078607e+00 -1.618455e+00 -4.333191e+00 6.285923e+01 -4.092775e-01 3.872140e-02 1.102786e+00 2.799982e-02 -1.935540e-02 1.020954e+00 1.363539e-01 -5.350536e-01 -2.043444e-02 4.070718e-01 -1.300390e-01 -2.431913e-01 -2.095079e-01 2.323930e-01 -1.105870e+00 -4.199578e-01 -5.321485e-01 -9.041876e-02 -7.993777e-01 -4.178569e-01 2.049782e-02 -7.015138e-01 -4.761807e-02 6.210406e-02 3.912324e-02 9.495902e-01
<VARIANCE> 39
 1.842019e+01 1.081790e+01 1.997904e+01 1.186415e+01 1.387109e+01 1.170354e+01 1.395341e+01 2.241235e+01 1.651917e+01 2.113625e+01 1.510175e+01 1.350699e+01 1.094015e+01 1.094385e+00 4.392202e+00 1.744783e+00 2.271289e+00 1.930008e+00 2.450534e+00 1.354371e+00 1.660295e+00 2.360092e+00 1.497620e+00 1.132616e+00 1.138270e+00 2.499037e+00 1.561266e-01 4.516001e-01 3.822731e-01 4.119501e-01 4.204365e-01 4.602562e-01 3.743213e-01 3.436932e-01 5.172791e-01 4.002433e-01 3.044223e-01 3.193478e-01 3.194222e-01
<GCONST> 1.013443e+02
<STATE> 3
<MEAN> 39
 8.360051e+00 -7.811132e+00 1.708797e+01 -5.824304e+00 5.940752e+00 8.800499e+00 -8.203406e+00 7.239797e+00 -1.314037e+01 -6.805080e-01 -2.693039e+00 -4.834320e+00 6.643560e+01 8.716642e-01 -3.373931e+00 -1.196114e+00 -1.229654e+00 -6.861721e-03 -1.769910e+00 -1.397816e+00 -3.492363e-01 -2.064754e+00 -3.345077e-01 -8.521812e-02 -1.584298e-01 2.927464e+00 4.979832e-01 -2.527982e-01 -7.430985e-01 4.429314e-01 4.213215e-01 -1.365002e+00 -8.554407e-01 3.402143e-02 -4.494146e-01 -2.409163e-01 3.203834e-01 1.897290e-03 5.752192e-01
<VARIANCE> 39
 1.057283e+01 3.573563e+01 2.774207e+01 1.944342e+01 1.666341e+01 2.220423e+01 1.323889e+01 2.893737e+01 2.100832e+01 2.781863e+01 1.259599e+01 1.183486e+01 1.764303e+01 8.726237e-01 2.646201e+00 2.441647e+00 3.100193e+00 4.757551e+00 2.669563e+00 2.108497e+00 2.413751e+00 3.763252e+00 3.104677e+00 2.435183e+00 1.801283e+00 1.276025e+00 1.286092e-01 6.168752e-01 5.922428e-01 5.497710e-01 3.767859e-01 3.941074e-01 3.565584e-01 3.481398e-01 5.283626e-01 5.862880e-01 3.931916e-01 2.971104e-01 2.467476e-01
<GCONST> 1.088514e+02
<STATE> 4
<MEAN> 39
 1.188110e+01 -1.411030e+01 1.239218e+01 -7.950545e+00 7.293400e+00 3.710151e+00 -1.302726e+01 5.281462e+00 -1.941530e+01 -3.328395e+00 -2.743485e+00 -4.477878e+00 7.337434e+01 1.233742e+00 -2.408631e+00 -1.752785e+00 4.098403e-01 1.138591e+00 -3.540899e+00 -2.711147e+00 -3.948469e-01 -2.316227e+00 -3.572615e-01 8.845146e-01 -2.979438e-01 2.649980e+00 -1.138057e-01 7.000405e-01 1.785634e-01 7.786327e-01 2.533203e-01 -3.940197e-01 -2.119880e-01 1.489525e-01 4.625784e-01 2.015265e-01 2.800792e-01 -5.641332e-02 -4.824604e-01
<VARIANCE> 39
 1.010527e+01 1.748802e+01 3.726014e+01 2.994101e+01 5.067281e+01 3.857433e+01 2.377606e+01 4.683946e+01 4.054047e+01 3.336853e+01 2.492015e+01 1.406802e+01 1.109901e+01 1.118591e+00 2.824127e+00 3.580296e+00 4.821779e+00 4.641770e+00 2.430613e+00 2.622923e+00 2.728706e+00 3.920851e+00 4.096107e+00 3.463368e+00 2.222412e+00 1.107505e+00 1.368122e-01 4.620235e-01 6.034088e-01 3.602514e-01 5.122250e-01 7.596203e-01 4.810045e-01 4.277378e-01 7.229926e-01 6.611679e-01 3.806927e-01 2.953632e-01 2.266859e-01
<GCONST> 1.160281e+02
<TRANSP> 5
 0.000000e+00 1.000000e+00 0.000000e+00 0.000000e+00 0.000000e+00
 0.000000e+00 7.253007e-01 2.746994e-01 0.000000e+00 0.000000e+00
 0.000000e+00 0.000000e+00 2.224759e-01 7.775241e-01 0.000000e+00
 0.000000e+00 0.000000e+00 0.000000e+00 2.671163e-01 7.328837e-01
 0.000000e+00 0.000000e+00 0.000000e+00 0.000000e+00 0.000000e+00
<ENDHMM>
~h "c"
<BEGINHMM>
<NUMSTATES> 5
<STATE> 2
<MEAN> 39
 -5.653451e+00 -1.700321e+01 2.845148e+01 -1.590204e+01 5.577738e-01 7.538441e+00 -6.333079e+00 5.122914e+00 -1.712384e+01 6.626871e+00 -2.770433e+00 -2.478621e+00 6.902545e+01 -3.654970e+00 -2.135644e+00 2.764842e+00 -2.777027e+00 -7.574104e-01 4.465521e-01 3.651802e-01 -2.986430e-01 -5.059960e-01 1.499007e+00 -2.771841e-01 2.059928e-02 8.980797e-01 3.674458e-01 -3.690702e-01 -3.738181e-01 -2.361440e-04 1.534189e-01 -3.334452e-01 -2.284061e-01 2.376422e-01 -1.688030e-01 8.874370e-02 3.805681e-01 -7.165427e-02 6.022841e-01
<VARIANCE> 39
 3.869004e+01 3.125424e+01 8.419641e+01 5.022557e+01 3.541380e+01 3.269432e+01 3.187823e+01 3.323023e+01 4.379808e+01 2.769744e+01 1.922626e+01 1.580977e+01 4.151778e+01 4.078138e+00 3.783503e+00 7.520254e+00 4.769263e+00 2.413036e+00 2.551919e+00 2.404487e+00 3.526052e+00 3.897991e+00 2.768136e+00 1.674128e+00 1.395100e+00 3.611786e+00 6.406013e-01 8.352937e-01 1.566341e+00 1.177556e+00 4.162252e-01 5.742317e-01 4.935295e-01 4.726770e-01 6.452475e-01 4.473003e-01 3.134876e-01 3.374912e-01 5.355044e-01
<GCONST> 1.254574e+02
<STATE> 3
<MEAN> 39
 -1.441357e+01 -2.624235e+01 3.462186e+01 -2.237613e+01 -3.337785e-01 9.092646e+00 -5.841506e+00 6.379640e+00 -1.862400e+01 1.177851e+01 5.240386e-01 -2.556754e+00 7.516370e+01 7.459508e-01 -3.890750e-01 -3.965926e-01 8.774558e-01 1.971667e-01 4.166229e-01 -1.162192e-01 -7.258365e-02 1.497573e-01 -5.219597e-02 9.768776e-01 4.544446e-02 4.322136e-01 1.183074e+00 7.424856e-01 -8.562467e-01 8.514574e-01 2.092288e-01 -1.501806e-01 -1.701201e-01 -2.222177e-01 -3.489567e-02 -5.300705e-01 -1.165264e-02 -7.726353e-02 -3.407923e-01
<VARIANCE> 39
 1.573718e+01 1.846493e+01 2.226145e+01 3.000684e+01 2.977476e+01 3.037731e+01 4.106609e+01 2.634952e+01 4.425428e+01 2.241399e+01 3.327335e+01 1.759396e+01 1.545590e+01 5.839961e+00 3.224647e+00 4.503533e+00 4.698364e+00 1.827733e+00 1.923498e+00 2.265922e+00 2.301017e+00 2.324657e+00 2.561776e+00 1.659777e+00 1.156674e+00 1.274406e+00 5.470065e-01 5.171117e-01 9.126784e-01 7.213339e-01 3.933651e-01 3.709207e-01 4.761313e-01 4.317415e-01 5.373510e-01 3.680145e-01 3.890893e-01 2.511384e-01 1.620633e-01
<GCONST> 1.142787e+02
<STATE> 4
<MEAN> 39
 2.119191e-01 -1.967093e+01 2.555792e+01 -1.375299e+01 1.922774e+00 1.054554e+01 -8.142857e+00 1.155028e+00 -1.973615e+01 7.503616e+00 3.617868e+00 -3.382096e+00 7.466509e+01 4.725477e+00 2.450852e+00 -4.335194e+00 2.254630e+00 1.521001e+00 -1.394387e+00 -1.411317e+00 -7.606000e-01 -1.070539e+00 -1.273430e+00 -2.282681e-02 -6.389541e-01 -7.182556e-01 -3.728188e-01 -1.806864e-01 -1.674854e-01 -2.857873e-01 2.164584e-01 -5.131007e-01 -2.041600e-01 4.325427e-01 6.116875e-02 1.956066e-01 -3.246165e-01 1.121290e-02 -1.165812e-01
<VARIANCE> 39
 6.244813e+01 2.782094e+01 6.727012e+01 2.597704e+01 2.935151e+01 3.193295e+01 4.204535e+01 4.385997e+01 3.052376e+01 2.862890e+01 2.093944e+01 1.127780e+01 3.234993e+01 4.326320e+00 2.907100e+00 5.182120e+00 3.590273e+00 2.998442e+00 3.737458e+00 3.460314e+00 3.217049e+00 4.142581e+00 2.585781e+00 2.386836e+00 1.336922e+00 1.530398e+00 9.945428e-01 6.318203e-01 1.221274e+00 4.596432e-01 5.225274e-01 5.149004e-01 4.694237e-01 5.340569e-01 5.451645e-01 3.866733e-01 2.710681e-01 2.236779e-01 2.219084e-01
<GCONST> 1.213152e+02
<TRANSP> 5
 0.000000e+00 1.000000e+00 0.000000e+00 0.000000e+00 0.000000e+00
 0.000000e+00 7.252831e-01 2.747168e-01 0.000000e+00 0.000000e+00
 0.000000e+00 0.000000e+00 8.136695e-01 1.863305e-01 0.000000e+00
 0.000000e+00 0.000000e+00 0.000000e+00 5.634845e-01 4.365155e-01
 0.000000e+00 0.000000e+00 0.000000e+00 0.000000e+00 0.000000e+00
<ENDHMM>
~h "d"
<BEGINHMM>
<NUMSTATES> 5
<STATE> 2
<MEAN> 39
 7.388953e+00 -7.160611e+00 1.511261e+01 -1.873838e+00 9.756182e+00 7.281671e+00 -1.267666e+01 4.308291e+00 -1.282094e+01 -4.132839e-01 6.587847e-01 -1.140105e+00 6.462447e+01 -1.627505e-01 -2.222104e-01 8.003631e-01 -1.944982e-01 -2.073325e-01 6.859494e-01 3.347422e-01 -3.342793e-01 -1.827010e-01 2.297659e-01 -3.186318e-01 -1.400320e-01 3.590265e-02 2.959564e-01 -1.051608e+00 -3.031373e-01 -5.096287e-01 9.905273e-03 -8.791015e-01 -5.731760e-01 -5.413252e-02 -7.587664e-01 2.820615e-01 1.481676e-01 -3.007273e-01 1.074372e+00
<VARIANCE> 39
 2.977058e+01 3.493629e+01 4.644123e+01 3.366276e+01 2.794804e+01 2.903770e+01 3.194107e+01 3.804892e+01 2.657380e+01 2.078841e+01 2.192953e+01 1.864935e+01 2.347719e+01 1.764293e+00 6.489740e+00 4.413772e+00 3.896716e+00 3.148018e+00 4.982710e+00 3.569400e+00 3.243291e+00 3.780320e+00 2.119696e+00 1.916176e+00 2.506250e+00 4.154131e+00 2.661343e-01 7.883804e-01 8.711317e-01 5.836555e-01 5.990754e-01 1.042455e+00 7.801083e-01 8.402554e-01 6.534715e-01 5.007805e-01 5.015030e-01 5.683662e-01 4.471821e-01
<GCONST> 1.245154e+02
<STATE> 3
<MEAN> 39
 8.843246e+00 -1.520499e+01 1.440134e+01 -5.403631e+00 9.242226e+00 6.550245e+00 -1.412841e+01 3.573130e+00 -1.568188e+01 2.964336e-02 -1.393142e+00 -3.156371e+00 7.114523e+01 7.219627e-01 -2.251954e+00 -6.022552e-01 -1.055208e+00 4.400421e-01 -1.712456e+00 -1.557032e+00 -5.591795e-01 -1.980196e+00 4.845771e-01 2.235283e-01 -4.068274e-01 2.274372e+00 3.453701e-01 7.954255e-02 -4.360938e-01 6.571962e-03 2.204540e-01 -1.022793e+00 -4.686019e-01 2.305020e-01 -3.844909e-01 8.841499e-02 4.040588e-01 5.388137e-02 3.606092e-01
<VARIANCE> 39
 1.463325e+01 4.644718e+01 5.656826e+01 4.143753e+01 4.116149e+01 3.994956e+01 4.162521e+01 3.279508e+01 2.852147e+01 2.700426e+01 2.376189e+01 1.754407e+01 2.315627e+01 1.745452e+00 3.948690e+00 4.746992e+00 4.010195e+00 2.523077e+00 6.829223e+00 3.874662e+00 4.785712e+00 3.370492e+00 2.544601e+00 3.037491e+00 3.874340e+00 2.888561e+00 1.398965e-01 8.475059e-01 6.823902e-01 6.836808e-01 9.577351e-01 1.134384e+00 1.203053e+00 8.392710e-01 7.381964e-01 8.566589e-01 4.849892e-01 3.953110e-01 3.526844e-01
<GCONST> 1.267687e+02
<STATE> 4
<MEAN> 39
 1.103860e+01 -1.626405e+01 1.231362e+01 -6.652925e+00 1.076241e+01 1.550771e+00 -1.834046e+01 1.895439e+00 -1.999246e+01 6.617135e-01 5.699108e-01 -2.675822e+00 7.454140e+01 8.394182e-01 -9.857594e-01 -1.073865e+00 -7.152988e-01 4.094359e-01 -2.479783e+00 -1.217033e+00 3.895166e-01 -1.599591e+00 4.792373e-01 9.018415e-01 -8.221245e-02 1.734314e+00 -9.320771e-02 5.229950e-01 -5.121458e-02 1.716807e-01 -2.013210e-01 3.027535e-02 5.066797e-01 4.743852e-01 4.450481e-01 -2.017947e-02 1.244619e-01 1.176015e-01 -3.901024e-01
<VARIANCE> 39
 1.688270e+01 3.330337e+01 8.103421e+01 4.785796e+01 3.638661e+01 5.984734e+01 4.512280e+01 3.415754e+01 3.202038e+01 3.203712e+01 3.912709e+01 2.905730e+01 2.535940e+01 1.608105e+00 3.263156e+00 4.793681e+00 3.905813e+00 4.155194e+00 6.261643e+00 6.015732e+00 5.536881e+00 3.629853e+00 4.687870e+00 3.226555e+00 3.334521e+00 1.631917e+00 1.890658e-01 7.159258e-01 7.556099e-01 6.713715e-01 5.836942e-01 1.259561e+00 8.831160e-01 6.293874e-01 7.175546e-01 6.321610e-01 5.310760e-01 4.618328e-01 4.476988e-01
<GCONST> 1.289799e+02
<TRANSP> 5
 0.000000e+00 1.000000e+00 0.000000e+00 0.000000e+00 0.000000e+00
 0.000000e+00 5.743630e-01 4.256370e-01 0.000000e+00 0.000000e+00
 0.000000e+00 0.000000e+00 1.505015e-01 8.494985e-01 0.000000e+00
 0.000000e+00 0.000000e+00 0.000000e+00 1.827500e-01 8.172500e-01
 0.000000e+00 0.000000e+00 0.000000e+00 0.000000e+00 0.000000e+00
<ENDHMM>
~h "e"
<BEGINHMM>
<NUMSTATES> 5
<STATE> 2
<MEAN> 39
 1.282010e+01 -1.951967e+01 8.450942e+00 -8.245882e+00 1.020288e+01 -4.138158e+00 -1.890173e+01 4.071507e+00 -2.139492e+01 5.172960e+00 5.923064e+00 -7.620301e-01 7.833004e+01 3.603826e-01 2.863472e-01 -7.108118e-01 -1.067726e-01 1.766052e-01 -2.701424e-01 3.169114e-01 1.581794e-01 -3.872116e-01 1.541025e-01 3.809499e-01 2.762840e-01 -1.913478e-01 -6.465869e-01 2.407175e-01 7.469913e-01 6.740482e-02 -2.779915e-01 8.733453e-01 5.730827e-01 3.846476e-02 5.241356e-01 -1.973579e-01 -4.816232e-01 -1.262823e-01 -5.570099e-01
<VARIANCE> 39
 6.498779e+00 1.328959e+01 4.535131e+01 3.776222e+01 2.924935e+01 3.574853e+01 4.295567e+01 4.009821e+01 3.294158e+01 4.404575e+01 2.256620e+01 2.923569e+01 1.488094e+01 1.775385e+00 1.465703e+00 5.824960e+00 2.544321e+00 2.242386e+00 4.314608e+00 2.951952e+00 2.869058e+00 2.499477e+00 3.751485e+00 2.282291e+00 2.113537e+00 1.005716e+00 4.392016e-01 3.999715e-01 7.238066e-01 4.991668e-01 4.410112e-01 5.600370e-01 4.720927e-01 5.714716e-01 5.509800e-01 6.411363e-01 4.277422e-01 4.960909e-01 1.798012e-01
<GCONST> 1.165607e+02
<STATE> 3
<MEAN> 39
 1.236536e+01 -1.805007e+01 1.004621e+01 -7.934545e+00 1.014729e+01 -2.081065e+00 -1.664556e+01 4.625600e+00 -2.164975e+01 3.733686e+00 4.618768e+00 -9.680732e-01 7.653020e+01 -7.793015e-01 1.345163e+00 9.398918e-01 3.789018e-01 -3.999680e-01 2.029248e+00 1.429371e+00 -1.609301e-01 9.391862e-01 -6.217204e-01 -9.148356e-01 -2.069545e-01 -1.567033e+00 -5.978363e-01 1.517470e-01 6.170372e-01 8.702067e-02 -2.313623e-01 6.402708e-01 1.791894e-01 -7.892486e-02 5.773012e-01 -6.625827e-02 -3.590968e-01 -1.963268e-01 -4.096250e-01
<VARIANCE> 39
 9.099445e+00 1.537559e+01 5.097085e+01 4.679906e+01 3.155113e+01 3.937430e+01 4.729406e+01 4.843832e+01 3.595803e+01 5.874143e+01 2.491717e+01 3.799607e+01 1.547892e+01 1.588582e+00 1.717435e+00 6.343736e+00 2.699246e+00 2.669403e+00 4.722857e+00 3.250074e+00 3.202563e+00 2.508881e+00 3.868699e+00 2.350104e+00 2.739960e+00 1.582296e+00 3.225980e-01 3.205581e-01 7.734926e-01 5.044067e-01 4.020659e-01 4.619223e-01 4.307824e-01 6.453078e-01 5.159881e-01 6.707205e-01 3.530140e-01 6.926689e-01 1.734070e-01
<GCONST> 1.194242e+02
<STATE> 4
<MEAN> 39
 8.911495e+00 -1.510401e+01 1.212517e+01 -7.871092e+00 7.664260e+00 3.242980e+00 -1.346550e+01 4.060381e+00 -1.721503e+01 4.485664e+00 3.759329e+00 -1.047560e+00 7.172771e+01 -1.415519e+00 1.100226e+00 1.158446e+00 2.950909e-01 -6.766835e-01 1.973490e+00 9.588219e-01 -1.845732e-01 1.364512e+00 -5.849257e-01 -9.746069e-01 -3.824525e-01 -1.877733e+00 -1.849283e-01 -2.644496e-01 5.754543e-02 -1.231389e-01 -6.162667e-02 -2.698094e-01 -2.074963e-01 8.542219e-02 -7.842052e-03 1.964912e-02 -3.054847e-02 -6.448052e-02 1.304648e-01
<VARIANCE> 39
 2.041933e+01 2.017915e+01 5.643272e+01 4.903410e+01 4.146701e+01 4.917093e+01 4.295117e+01 4.971518e+01 4.144267e+01 6.814881e+01 2.671706e+01 3.267859e+01 3.483978e+01 2.227421e+00 2.251827e+00 6.225877e+00 2.793036e+00 3.090691e+00 4.559978e+00 2.766513e+00 3.141280e+00 2.894209e+00 3.046882e+00 2.183045e+00 3.621556e+00 1.888575e+00 2.250867e-01 2.899818e-01 7.625285e-01 4.443306e-01 4.051405e-01 5.843013e-01 4.425183e-01 5.413755e-01 4.309583e-01 7.366906e-01 3.705084e-01 4.175287e-01 2.034297e-01
<GCONST> 1.220486e+02
<TRANSP> 5
 0.000000e+00 1.000000e+00 0.000000e+00 0.000000e+00 0.000000e+00
 0.000000e+00 5.333227e-01 4.666773e-01 0.000000e+00 0.000000e+00
 0.000000e+00 0.000000e+00 1.496029e-01 8.503971e-01 0.000000e+00
 0.000000e+00 0.000000e+00 0.000000e+00 3.020394e-01 6.979606e-01
 0.000000e+00 0.000000e+00 0.000000e+00 0.000000e+00 0.000000e+00
<ENDHMM>
~h "f"
<BEGINHMM>
<NUMSTATES> 5
<STATE> 2
<MEAN> 39
 6.803100e+00 -1.284465e+01 1.850992e+01 -1.263237e+01 7.766802e+00 4.605733e+00 -1.085897e+01 9.977725e+00 -1.647135e+01 4.018024e+00 4.582573e-01 -3.829755e+00 7.129092e+01 -3.077148e+00 -1.045799e+00 3.956869e+00 -1.641972e+00 3.720527e-01 2.793124e+00 1.411903e+00 7.672018e-01 5.589122e-01 1.358668e+00 -1.177085e-01 7.132434e-01 -6.784917e-01 -3.550415e-01 -8.916576e-01 -4.453328e-01 -1.280121e-01 -2.401472e-02 -5.697260e-01 -3.118921e-01 -2.655942e-01 -2.394711e-01 -6.765959e-02 -1.519324e-01 1.477909e-01 4.049758e-01
<VARIANCE> 39
 2.640328e+01 1.926722e+01 4.145514e+01 5.532207e+01 4.674934e+01 3.408511e+01 2.584849e+01 2.910671e+01 3.554745e+01 1.967534e+01 2.125409e+01 1.779289e+01 4.661546e+01 4.544248e+00 3.699955e+00 1.113972e+01 4.374012e+00 5.530791e+00 9.217827e+00 2.275624e+00 3.988937e+00 2.030570e+00 2.965768e+00 2.810952e+00 2.332983e+00 1.002768e+00 4.432284e-01 6.971276e-01 1.029077e+00 4.622465e-01 3.979689e-01 5.675299e-01 4.265282e-01 6.219312e-01 3.695153e-01 2.985865e-01 4.526061e-01 4.197255e-01 1.606246e-01
<GCONST> 1.220696e+02
<STATE> 3
<MEAN> 39
 1.623222e+00 -1.519959e+01 2.422838e+01 -1.434186e+01 8.831665e+00 8.774385e+00 -7.641573e+00 1.192244e+01 -1.562313e+01 6.329532e+00 -2.590715e-01 -1.687901e+00 7.028292e+01 -2.570110e+00 -2.236254e+00 1.765840e+00 -1.821889e+00 3.747413e-01 9.959775e-01 3.475214e-01 -2.445242e-01 -5.646631e-01 8.754979e-01 -5.236559e-01 4.842952e-01 3.722535e-01 3.337751e-01 -4.318587e-01 -1.164286e+00 1.636389e-01 -1.933303e-01 -1.017220e+00 -7.199482e-01 -4.491892e-01 -4.048179e-01 -4.340506e-01 9.090424e-02 -9.744631e-02 3.867793e-01
<VARIANCE> 39
 1.795838e+01 2.837068e+01 3.506965e+01 2.849748e+01 2.438398e+01 1.936068e+01 1.815324e+01 2.166438e+01 2.432415e+01 2.192030e+01 2.847861e+01 3.044344e+01 4.658772e+01 6.505090e+00 6.294837e+00 8.351961e+00 3.302677e+00 4.533809e+00 6.104847e+00 2.929260e+00 2.750469e+00 2.246688e+00 2.373011e+00 1.209266e+00 1.889451e+00 1.342888e+00 3.449114e-01 7.161528e-01 1.174454e+00 4.435025e-01 2.917086e-01 9.362083e-01 3.647794e-01 6.419769e-01 3.086731e-01 3.791499e-01 6.005467e-01 6.907999e-01 2.743770e-01
<GCONST> 1.199476e+02
<STATE> 4
<MEAN> 39
 -2.864364e+00 -2.208725e+01 2.233664e+01 -2.028700e+01 6.079907e+00 5.537620e+00 -1.003167e+01 9.710795e+00 -1.837458e+01 6.729564e+00 -8.960563e-01 -5.421462e-01 7.171448e+01 2.106933e-01 -3.088390e-01 -7.927435e-01 3.083386e-01 -3.666631e-01 -3.191935e-01 -4.028089e-01 -5.891847e-01 -4.100191e-01 -3.679234e-01 2.720101e-01 -2.001997e-01 1.183717e-01 6.354148e-01 5.332083e-01 -5.738898e-01 6.017267e-01 -7.537770e-02 -2.012280e-01 -1.038687e-01 -1.941081e-01 4.697379e-02 -2.072631e-01 1.637202e-01 -2.745683e-01 -6.222118e-02
<VARIANCE> 39
 3.529638e+01 4.003743e+01 4.043895e+01 2.621045e+01 2.575135e+01 1.702864e+01 1.806959e+01 1.998134e+01 1.950760e+01 1.817714e+01 1.957790e+01 1.575574e+01 1.884328e+01 6.856964e+00 7.098338e+00 3.938601e+00 3.660350e+00 1.981801e+00 2.415040e+00 2.169562e+00 2.339573e+00 2.545097e+00 1.890975e+00 1.229783e+00 2.436142e+00 2.106600e+00 3.836491e-01 7.445477e-01 9.146278e-01 4.565093e-01 3.677802e-01 7.306482e-01 4.350536e-01 4.070614e-01 5.173482e-01 3.076936e-01 2.507738e-01 3.649239e-01 3.592976e-01
<GCONST> 1.151411e+02
<TRANSP> 5
 0.000000e+00 1.000000e+00 0.000000e+00 0.000000e+00 0.000000e+00
 0.000000e+00 1.191025e-01 8.808975e-01 0.000000e+00 0.000000e+00
 0.000000e+00 0.000000e+00 2.357666e-01 7.642334e-01 0.000000e+00
 0.000000e+00 0.000000e+00 0.000000e+00 7.470677e-01 2.529323e-01
 0.000000e+00 0.000000e+00 0.000000e+00 0.000000e+00 0.000000e+00
<ENDHMM>
~h "g"
<BEGINHMM>
<NUMSTATES> 5
<STATE> 2
<MEAN> 39
 2.202417e+00 -1.070287e+01 1.590998e+01 -5.231938e+00 6.608574e+00 7.120465e+00 -1.040800e+01 7.610490e+00 -1.182777e+01 2.908060e+00 3.763025e-01 -6.182751e+00 6.237339e+01 1.339976e+00 -4.225685e-01 4.261377e-01 2.572010e-01 1.105357e+00 6.642609e-02 -1.378468e+00 -1.208869e+00 -1.469732e+00 -3.421965e-01 -2.167459e-01 -5.629514e-01 1.401768e+00 3.026180e-01 -5.486194e-02 -1.502457e-01 1.840131e-01 2.563643e-01 -2.835441e-01 -6.146741e-01 -2.802524e-01 -6.991006e-02 -8.823767e-02 6.413268e-02 1.157021e-01 2.683522e-01
<VARIANCE> 39
 4.868502e+01 4.114479e+01 2.680784e+01 4.006939e+01 3.694990e+01 3.497462e+01 6.143103e+01 2.800768e+01 4.206409e+01 3.035872e+01 1.534467e+01 2.697635e+01 5.410920e+01 2.684718e+00 5.451633e+00 2.241039e+00 4.524828e+00 2.808415e+00 6.341510e+00 5.807219e+00 3.643880e+00 3.687062e+00 2.469015e+00 1.663414e+00 1.634601e+00 3.234987e+00 3.478845e-01 1.251284e+00 3.677680e-01 7.202179e-01 5.411242e-01 6.091675e-01 9.565548e-01 6.197072e-01 7.429907e-01 5.096464e-01 2.811775e-01 5.294546e-01 6.843224e-01
<GCONST> 1.263094e+02
<STATE> 3
<MEAN> 39
 1.041063e+01 -1.411086e+01 1.545389e+01 -8.482391e-01 1.657123e+01 -2.617723e-01 -2.606057e+01 2.988943e+00 -1.648582e+01 2.718214e+00 7.907524e-01 -1.026692e+01 7.226994e+01 7.095230e-01 6.026090e-01 -7.439692e-01 1.610328e-01 3.506426e-01 -1.329764e-01 -6.143059e-01 -5.871156e-01 -2.700734e-01 -7.219906e-01 3.250144e-01 8.600105e-01 2.465493e-01 -2.639410e-01 1.641874e-01 -7.027138e-02 -1.342857e-01 -5.477619e-01 3.751806e-02 7.890236e-01 2.810480e-01 3.784255e-01 1.690902e-01 8.610998e-02 4.783089e-01 -3.021750e-01
<VARIANCE> 39
 5.170475e+00 2.597849e+01 3.315783e+01 4.134574e+01 5.455857e+01 5.841674e+01 8.617544e+01 3.454669e+01 2.130150e+01 2.878824e+01 1.927266e+01 2.794960e+01 1.606429e+01 1.063994e+00 2.863126e+00 3.768127e+00 4.412427e+00 3.287527e+00 8.438691e+00 7.192464e+00 3.026356e+00 1.801088e+00 3.096234e+00 1.895963e+00 2.913415e+00 2.165334e+00 2.125075e-01 5.466925e-01 5.353877e-01 4.786159e-01 5.059137e-01 8.280649e-01 9.056026e-01 6.649780e-01 6.028901e-01 6.025395e-01 2.186886e-01 4.357356e-01 3.365677e-01
<GCONST> 1.205353e+02
<STATE> 4
<MEAN> 39
 1.173906e+01 -1.241928e+01 1.244438e+01 -3.868017e+00 9.924911e+00 2.377969e-01 -1.958668e+01 1.348431e+00 -1.859943e+01 2.421750e+00 3.707928e+00 -4.412724e+00 7.138684e+01 3.786623e-02 5.479500e-01 -1.542078e-01 -5.654932e-01 -1.043271e+00 -2.162210e-02 1.156880e+00 2.352035e-01 4.160096e-01 -4.437528e-02 2.651030e-01 1.625055e+00 -1.786321e-01 -1.926365e-01 -3.645268e-01 1.468611e-01 -2.087828e-01 -2.405094e-01 -1.224040e-01 2.942292e-01 2.432932e-01 7.252518e-04 2.526553e-01 -1.187880e-02 -1.330777e-01 1.651871e-01
<VARIANCE> 39
 1.039893e+01 2.658538e+01 2.910986e+01 5.285725e+01 3.561472e+01 8.573286e+01 8.108516e+01 3.370956e+01 2.456281e+01 5.388650e+01 5.146084e+01 2.674560e+01 2.223099e+01 1.047853e+00 3.100919e+00 4.332863e+00 3.088104e+00 3.154127e+00 4.328277e+00 4.949010e+00 1.353769e+00 2.628617e+00 1.527910e+00 1.294107e+00 2.737304e+00 1.602015e+00 1.049916e-01 7.008190e-01 5.426443e-01 4.709398e-01 3.815171e-01 1.070439e+00 6.472247e-01 4.116865e-01 3.978333e-01 5.824496e-01 2.526543e-01 2.619900e-01 3.040849e-01
<GCONST> 1.179470e+02
<TRANSP> 5
 0.000000e+00 1.000000e+00 0.000000e+00 0.000000e+00 0.000000e+00
 0.000000e+00 6.553318e-01 3.446682e-01 0.000000e+00 0.000000e+00
 0.000000e+00 0.000000e+00 5.513384e-01 4.486616e-01 0.000000e+00
 0.000000e+00 0.000000e+00 0.000000e+00 3.341388e-01 6.658611e-01
 0.000000e+00 0.000000e+00 0.000000e+00 0.000000e+00 0.000000e+00
<ENDHMM>
~h "h"
<BEGINHMM>
<NUMSTATES> 5
<STATE> 2
<MEAN> 39
 8.701962e+00 -1.120883e+01 1.503111e+01 -1.550198e+01 5.016575e-01 1.456914e-01 -4.384372e+00 1.527222e+01 -1.441606e+01 8.346081e+00 3.311664e+00 -1.636230e+00 7.094566e+01 -2.422829e-01 6.166923e-01 6.880766e-01 -1.182232e+00 -1.355366e+00 3.871026e-01 1.598090e+00 1.319528e+00 7.224628e-01 6.254013e-01 -3.720250e-01 -3.700269e-01 -3.862188e-01 3.481649e-01 -2.264870e-01 -4.459387e-01 2.486478e-01 2.337762e-01 -3.791477e-01 -7.066547e-01 -2.975776e-01 -1.788219e-02 -3.104047e-01 -2.113397e-01 -1.360636e-01 1.804961e-01
<VARIANCE> 39
 1.659042e+01 1.375040e+01 3.217942e+01 1.839944e+01 6.032017e+01 5.312984e+01 3.630383e+01 5.776616e+01 5.598167e+01 4.505468e+01 2.036843e+01 2.426192e+01 3.068684e+01 1.441841e+00 1.483177e+00 3.583874e+00 1.305570e+00 2.651817e+00 3.774437e+00 2.781178e+00 2.419338e+00 3.179726e+00 4.138259e+00 1.938872e+00 1.770210e+00 8.652540e-01 1.124797e-01 1.572001e-01 4.549666e-01 3.768585e-01 3.414338e-01 4.908620e-01 4.330356e-01 3.229882e-01 5.052239e-01 4.814827e-01 4.090146e-01 1.958338e-01 5.722208e-02
<GCONST> 1.104989e+02
<STATE> 3
<MEAN> 39
 9.538499e+00 -1.123220e+01 1.709980e+01 -1.628028e+01 -8.642365e-01 -6.089748e-01 -3.547872e+00 1.673719e+01 -1.433192e+01 9.889092e+00 2.586073e+00 -3.808899e+00 7.195621e+01 3.841658e-01 1.581532e-01 -2.158707e-01 -4.169976e-01 -3.475891e-01 -2.771266e-01 1.019971e-01 2.594455e-01 6.678022e-01 5.643451e-01 -4.954818e-01 -4.792090e-01 1.003603e-01 4.280467e-01 -1.873169e-01 -8.028780e-01 3.277443e-01 4.460375e-01 -3.071785e-01 -9.202204e-01 -6.583076e-01 -2.298618e-01 -6.131554e-01 -1.236211e-01 5.565825e-02 2.484646e-01
<VARIANCE> 39
 6.879905e+00 1.819574e+01 2.918381e+01 3.045759e+01 5.607311e+01 5.643674e+01 4.169543e+01 8.490395e+01 3.620154e+01 5.423164e+01 1.567932e+01 2.309303e+01 1.321281e+01 8.871787e-01 1.380031e+00 2.779001e+00 6.948295e-01 2.419129e+00 1.961079e+00 1.267517e+00 1.480423e+00 2.915879e+00 2.600138e+00 1.430283e+00 1.262163e+00 6.008384e-01 1.153185e-01 1.987788e-01 5.289609e-01 2.597157e-01 4.154882e-01 5.503379e-01 4.226588e-01 3.714923e-01 4.846417e-01 5.197421e-01 2.469768e-01 2.956559e-01 7.172600e-02
<GCONST> 1.050195e+02
<STATE> 4
<MEAN> 39
 1.230022e+01 -1.003378e+01 1.097801e+01 -1.734942e+01 -1.689984e+00 -3.159239e+00 -5.200905e+00 1.558533e+01 -1.232742e+01 9.504243e+00 8.433034e-01 -2.929544e+00 7.190460e+01 8.445733e-01 -2.494228e-02 -1.773389e+00 3.530321e-01 4.010332e-01 -8.115914e-01 -1.400591e+00 -8.720904e-01 3.157808e-01 -9.224787e-01 -4.329323e-01 -1.170304e-02 3.916501e-01 3.133850e-02 -2.334887e-01 -2.278691e-01 3.250478e-01 3.539965e-01 2.109925e-02 -3.239274e-01 -2.901523e-01 -2.067596e-01 -3.631935e-01 4.849888e-03 1.423634e-01 1.073985e-01
<VARIANCE> 39
 7.237656e+00 2.031653e+01 5.747727e+01 1.623872e+01 3.172121e+01 3.445080e+01 3.420922e+01 6.469106e+01 5.097967e+01 4.988594e+01 1.546808e+01 2.067926e+01 1.241846e+01 4.251494e-01 7.779897e-01 2.092119e+00 1.245329e+00 1.769468e+00 1.354114e+00 1.872739e+00 1.469652e+00 3.030286e+00 1.759761e+00 9.980726e-01 9.782120e-01 2.938368e-01 1.086008e-01 2.103636e-01 4.839240e-01 1.922565e-01 3.418347e-01 2.900969e-01 4.905702e-01 4.080449e-01 5.769029e-01 4.263252e-01 1.696013e-01 2.518956e-01 4.665928e-02
<GCONST> 9.880239e+01
<TRANSP> 5
 0.000000e+00 1.000000e+00 0.000000e+00 0.000000e+00 0.000000e+00
 0.000000e+00 3.658291e-01 6.341709e-01 0.000000e+00 0.000000e+00
 0.000000e+00 0.000000e+00 2.763601e-01 7.236400e-01 0.000000e+00
 0.000000e+00 0.000000e+00 0.000000e+00 5.970547e-01 4.029453e-01
 0.000000e+00 0.000000e+00 0.000000e+00 0.000000e+00 0.000000e+00
<ENDHMM>
~h "i"
<BEGINHMM>
<NUMSTATES> 5
<STATE> 2
<MEAN> 39
 1.150425e+01 -1.882610e+01 1.223674e+01 -2.339411e+00 1.443560e+01 -3.416500e+00 -2.411877e+01 2.287169e+00 -2.126743e+01 1.929394e+00 3.906870e+00 -5.958827e+00 7.661652e+01 1.861299e-01 -2.788981e-02 -2.363613e-01 9.106906e-01 8.158191e-01 -8.353170e-01 -9.334205e-01 -6.660875e-02 -1.643873e-01 2.961283e-01 4.436937e-01 -5.219680e-01 8.556788e-03 -5.294027e-01 2.720103e-01 5.348606e-01 -2.862018e-01 -5.460815e-01 7.607868e-01 9.294010e-01 2.047300e-01 4.709429e-01 4.052773e-02 -3.486260e-01 1.826863e-01 -5.158907e-01
<VARIANCE> 39
 9.152193e+00 1.234669e+01 4.168889e+01 4.948475e+01 2.564707e+01 3.468613e+01 3.551767e+01 3.370304e+01 3.837253e+01 5.082212e+01 1.798952e+01 2.728973e+01 1.439039e+01 1.831499e+00 1.843131e+00 4.463750e+00 3.381334e+00 2.341821e+00 3.772094e+00 3.582807e+00 2.628035e+00 2.820762e+00 3.201604e+00 1.677971e+00 2.161468e+00 9.536254e-01 4.203272e-01 4.081949e-01 7.074451e-01 6.697937e-01 4.598632e-01 6.225954e-01 5.771984e-01 5.045817e-01 6.404203e-01 5.771416e-01 3.989183e-01 4.356523e-01 2.183848e-01
<GCONST> 1.168862e+02
<STATE> 3
<MEAN> 39
 1.039883e+01 -1.793048e+01 1.415862e+01 -1.635060e+00 1.452109e+01 -1.827147e+00 -2.199755e+01 3.071661e+00 -2.132144e+01 2.578070e+00 3.820593e+00 -6.442684e+00 7.490600e+01 -9.916678e-01 1.284087e+00 1.238068e+00 -1.509326e-01 -8.727615e-01 1.963623e+00 1.827028e+00 -1.733250e-01 1.031828e+00 4.080095e-01 -5.601205e-01 3.932609e-01 -1.562405e+00 -5.312771e-01 2.027064e-01 3.435066e-01 -4.262805e-01 -6.477239e-01 5.630561e-01 6.812882e-01 9.864178e-02 5.569571e-01 -1.353798e-02 -3.627929e-01 3.062819e-01 -4.238198e-01
<VARIANCE> 39
 1.199820e+01 1.570323e+01 5.045945e+01 4.782681e+01 2.800207e+01 4.518608e+01 3.830630e+01 5.024155e+01 3.269683e+01 5.214646e+01 2.191997e+01 3.556259e+01 1.616801e+01 1.614172e+00 2.191346e+00 5.019354e+00 3.318420e+00 1.917365e+00 3.561151e+00 2.783265e+00 2.832979e+00 3.327214e+00 3.848934e+00 1.649802e+00 1.853301e+00 1.892173e+00 3.253211e-01 3.980900e-01 7.484400e-01 6.030051e-01 3.829443e-01 5.608822e-01 6.205813e-01 5.578603e-01 5.512975e-01 5.691680e-01 3.039537e-01 5.663507e-01 1.908347e-01
<GCONST> 1.186473e+02
<STATE> 4
<MEAN> 39
 5.773180e+00 -1.399204e+01 1.632830e+01 -3.040448e+00 9.213233e+00 2.963403e+00 -1.747279e+01 2.984565e+00 -1.427775e+01 4.885036e+00 2.545545e+00 -4.902113e+00 6.811370e+01 -1.531805e+00 8.441228e-01 6.005158e-01 -7.820619e-01 -1.576941e+00 1.557533e+00 1.866250e+00 2.078339e-01 1.381552e+00 -2.816480e-01 -7.137648e-01 6.783139e-01 -1.676668e+00 -1.164174e-01 -3.808225e-01 -1.167726e-01 -2.839948e-01 -5.659843e-02 -2.674318e-01 -4.283978e-03 2.153810e-01 -2.322625e-01 -1.171126e-01 -2.705473e-02 -8.798977e-03 2.659468e-01
<VARIANCE> 39
 2.361986e+01 2.285339e+01 6.281200e+01 4.258401e+01 3.623182e+01 4.513173e+01 3.515305e+01 4.345150e+01 5.810352e+01 6.551460e+01 2.035836e+01 2.519290e+01 4.163652e+01 2.083089e+00 2.754030e+00 5.587337e+00 3.225366e+00 2.605463e+00 3.265535e+00 2.815566e+00 2.787458e+00 3.575973e+00 3.624375e+00 1.848963e+00 2.501452e+00 1.859980e+00 2.188677e-01 4.432970e-01 6.834037e-01 6.510916e-01 4.549538e-01 5.572501e-01 4.915679e-01 5.741655e-01 6.599957e-01 5.942935e-01 2.839050e-01 3.775249e-01 2.345632e-01
<GCONST> 1.219591e+02
<TRANSP> 5
 0.000000e+00 1.000000e+00 0.000000e+00 0.000000e+00 0.000000e+00
 0.000000e+00 5.926571e-01 4.073429e-01 0.000000e+00 0.000000e+00
 0.000000e+00 0.000000e+00 3.647837e-01 6.352164e-01 0.000000e+00
 0.000000e+00 0.000000e+00 0.000000e+00 4.622102e-01 5.377898e-01
 0.000000e+00 0.000000e+00 0.000000e+00 0.000000e+00 0.000000e+00
<ENDHMM>
~h "j"
<BEGINHMM>
<NUMSTATES> 5
<STATE> 2
<MEAN> 39
 6.177905e+00 -1.554799e+01 1.537363e+01 2.733094e-01 1.061213e+01 -1.216266e+00 -1.737623e+01 6.044436e+00 -1.657379e+01 1.240704e+00 2.584475e+00 -4.525704e+00 6.988273e+01 1.140807e+00 -7.414452e-01 1.342821e-01 1.439890e+00 1.359049e+00 -1.559998e+00 -2.111905e+00 -6.386393e-01 -9.300054e-01 -2.526313e-01 1.846459e-01 -4.881955e-01 1.511295e+00 -5.765719e-02 -7.946552e-02 -5.226385e-03 -2.143361e-01 -1.197627e-01 6.292647e-03 8.513372e-02 1.172820e-01 1.434077e-01 1.041463e-01 -9.634960e-02 -8.119031e-05 2.175694e-03
<VARIANCE> 39
 5.411484e+01 2.147427e+01 6.797591e+01 7.464711e+01 4.135120e+01 4.972873e+01 7.081272e+01 3.901281e+01 5.581195e+01 3.904348e+01 1.724941e+01 2.100708e+01 8.404969e+01 2.857839e+00 1.976006e+00 3.818250e+00 4.413858e+00 2.190894e+00 3.533696e+00 3.605424e+00 2.585911e+00 3.611455e+00 3.257372e+00 1.942266e+00 1.565645e+00 2.410263e+00 4.176433e-01 3.574232e-01 7.035077e-01 8.431141e-01 4.660271e-01 5.815351e-01 7.161124e-01 4.476812e-01 5.868876e-01 6.066791e-01 2.870540e-01 2.417399e-01 3.226883e-01
<GCONST> 1.244230e+02
<STATE> 3
<MEAN> 39
 1.146840e+01 -1.959609e+01 1.146217e+01 -7.339787e-01 1.389332e+01 -7.669671e+00 -2.473569e+01 3.267384e+00 -2.077050e+01 2.262571e+00 3.885586e+00 -5.289006e+00 7.778893e+01 -3.271654e-02 -3.468678e-01 1.479996e-01 2.411300e-01 1.293558e-01 -4.676148e-01 -4.186558e-01 -1.408994e-01 -1.686447e-02 4.879081e-01 1.554534e-01 -2.575729e-01 2.322623e-01 -1.118858e-01 1.917498e-01 1.402941e-01 -2.399355e-01 -2.380811e-01 4.459966e-01 5.846325e-01 1.559692e-01 4.615144e-02 -7.959940e-02 -1.205452e-01 1.451984e-01 -2.232458e-01
<VARIANCE> 39
 8.559524e+00 1.268530e+01 5.247245e+01 4.760988e+01 3.173610e+01 2.503258e+01 2.842753e+01 4.055464e+01 3.187373e+01 4.492513e+01 2.506873e+01 2.943324e+01 1.458997e+01 5.061868e-01 8.254620e-01 2.639177e+00 2.716320e+00 1.357437e+00 1.753690e+00 1.775460e+00 1.973435e+00 1.493932e+00 2.578759e+00 1.312068e+00 1.539634e+00 6.244581e-01 1.466075e-01 1.713703e-01 4.154034e-01 3.024326e-01 2.585994e-01 4.025940e-01 3.918889e-01 3.653975e-01 3.037204e-01 3.955138e-01 2.559409e-01 2.527936e-01 1.038008e-01
<GCONST> 1.021791e+02
<STATE> 4
<MEAN> 39
 1.117451e+01 -1.981623e+01 1.275558e+01 -6.064239e-01 1.404390e+01 -6.720230e+00 -2.425434e+01 4.659709e+00 -1.969339e+01 2.511581e+00 3.630318e+00 -5.712530e+00 7.717667e+01 -2.567539e-01 4.905357e-01 4.189044e-01 -2.461254e-01 -2.337611e-01 1.160413e+00 1.288530e+00 -9.297224e-03 -6.124701e-02 1.610680e-01 -1.107339e-01 2.583605e-01 -5.657836e-01 -2.877771e-01 4.065936e-01 3.159996e-01 -2.361171e-01 -3.277807e-01 8.257456e-01 7.594022e-01 -5.274444e-02 1.430638e-01 -1.158281e-01 -2.051210e-01 2.169350e-01 -4.519185e-01
<VARIANCE> 39
 9.697477e+00 1.650231e+01 4.866046e+01 5.996392e+01 3.286921e+01 2.850114e+01 3.598773e+01 4.638780e+01 3.472676e+01 4.327884e+01 2.477187e+01 3.610222e+01 1.952469e+01 1.320119e+00 2.090173e+00 4.562421e+00 3.830971e+00 1.977224e+00 3.594809e+00 2.903045e+00 3.802408e+00 2.508023e+00 4.014030e+00 1.924142e+00 2.112046e+00 1.199072e+00 2.492761e-01 3.089955e-01 5.498236e-01 5.549988e-01 4.032148e-01 5.347626e-01 5.003933e-01 5.495831e-01 5.092031e-01 5.886849e-01 3.007110e-01 3.910365e-01 2.170499e-01
<GCONST> 1.167596e+02
<TRANSP> 5
 0.000000e+00 1.000000e+00 0.000000e+00 0.000000e+00 0.000000e+00
 0.000000e+00 5.106717e-01 4.893283e-01 0.000000e+00 0.000000e+00
 0.000000e+00 0.000000e+00 6.565094e-01 3.434906e-01 0.000000e+00
 0.000000e+00 0.000000e+00 0.000000e+00 2.085655e-01 7.914345e-01
 0.000000e+00 0.000000e+00 0.000000e+00 0.000000e+00 0.000000e+00
<ENDHMM>
~h "k"
<BEGINHMM>
<NUMSTATES> 5
<STATE> 2
<MEAN> 39
 -7.685739e-01 -1.145539e+01 1.415008e+01 -8.610391e+00 2.634402e+00 5.766638e+00 -1.030775e+01 6.262738e+00 -1.307457e+01 1.774433e+00 1.861634e+00 -1.937345e+00 6.001519e+01 -6.238388e-01 -8.063940e-01 -5.063484e-01 -1.630578e+00 -1.120453e+00 3.492463e-01 2.489830e-01 1.826484e-01 2.370062e-01 1.312670e-01 -1.858219e-01 -2.454253e-01 -2.482576e-01 5.644457e-01 -8.011909e-01 1.547358e-01 -7.410665e-01 1.962399e-02 -2.423878e-01 4.204480e-02 1.392187e-01 -6.656355e-01 4.406840e-01 4.533187e-02 -2.726580e-01 1.264338e+00
<VARIANCE> 39
 1.999596e+01 2.042988e+01 2.498098e+01 3.419436e+01 2.666395e+01 2.879122e+01 3.172339e+01 3.375307e+01 3.140610e+01 2.423607e+01 1.963012e+01 1.871376e+01 1.284479e+01 2.322091e+00 5.343442e+00 2.722472e+00 8.223618e+00 3.022029e+00 3.672961e+00 4.435682e+00 3.520388e+00 5.279320e+00 3.647514e+00 2.092571e+00 2.333318e+00 5.478998e+00 2.416933e-01 6.130528e-01 5.036895e-01 9.604795e-01 4.922153e-01 5.940608e-01 8.505379e-01 5.953721e-01 6.128234e-01 6.053242e-01 4.516469e-01 4.039072e-01 3.673716e-01
<GCONST> 1.219400e+02
<STATE> 3
<MEAN> 39
 7.441639e-01 -2.141771e+01 1.365858e+01 -2.248926e+01 -2.524831e+00 7.543486e+00 -6.248679e+00 8.865519e+00 -1.764571e+01 5.731839e+00 1.243272e+00 -4.687088e+00 6.863521e+01 1.566089e+00 -9.393659e-01 9.725149e-01 -1.437306e+00 -2.719353e-03 -6.142091e-01 -5.413355e-01 1.380965e-01 -1.310443e+00 3.791328e-01 -4.798113e-01 -7.183347e-01 2.633274e+00 6.063431e-01 1.076911e+00 1.254344e-01 1.899714e+00 9.738737e-01 -7.582522e-01 -9.049186e-01 -3.202650e-01 1.272271e-01 -4.869362e-01 4.146842e-02 3.373791e-02 -1.016989e-01
<VARIANCE> 39
 1.982401e+01 3.875420e+01 4.060383e+01 5.977134e+01 6.118656e+01 4.357575e+01 5.115222e+01 5.272304e+01 6.604578e+01 4.015858e+01 2.749784e+01 2.785935e+01 2.359814e+01 3.362536e+00 6.145244e+00 3.810734e+00 1.107015e+01 5.272206e+00 4.353749e+00 6.022434e+00 4.219750e+00 4.531839e+00 4.543097e+00 3.054412e+00 3.259872e+00 3.292077e+00 3.640642e-01 6.034213e-01 8.443373e-01 1.245373e+00 7.660360e-01 9.938906e-01 9.149225e-01 7.519952e-01 1.084637e+00 7.645282e-01 4.797637e-01 4.935532e-01 4.920312e-01
<GCONST> 1.347944e+02
<STATE> 4
<MEAN> 39
 6.062387e+00 -1.702483e+01 1.818130e+01 -1.426773e+01 3.619522e+00 4.118365e+00 -1.342755e+01 5.433485e+00 -1.894860e+01 4.473747e+00 7.485450e-01 -6.559714e+00 7.256033e+01 2.584427e+00 1.577136e+00 -4.684252e-01 3.431883e+00 1.996060e+00 -2.655221e+00 -2.240018e+00 -3.934325e-01 -6.174936e-01 -8.407860e-01 3.670217e-01 -4.107532e-01 1.370641e+00 -1.393906e-01 2.144742e-01 -9.116333e-01 4.609593e-01 9.406127e-02 -2.594529e-01 2.190331e-01 1.479470e-01 3.115209e-01 -1.081737e-01 3.058677e-01 3.772047e-01 -5.074621e-01
<VARIANCE> 39
 2.694473e+01 4.241982e+01 2.994377e+01 6.051992e+01 5.758080e+01 4.282519e+01 4.946853e+01 5.415750e+01 3.567295e+01 3.411467e+01 3.583522e+01 3.132528e+01 2.841737e+01 2.664387e+00 2.705332e+00 4.651673e+00 5.185657e+00 4.106515e+00 5.719202e+00 4.754401e+00 2.917929e+00 3.532589e+00 3.318704e+00 3.244781e+00 2.792893e+00 1.636365e+00 3.556986e-01 7.732760e-01 5.529469e-01 1.542971e+00 7.219486e-01 7.293536e-01 7.941522e-01 6.006975e-01 6.526165e-01 5.562857e-01 5.568802e-01 4.244702e-01 3.585804e-01
<GCONST> 1.291895e+02
<TRANSP> 5
 0.000000e+00 1.000000e+00 0.000000e+00 0.000000e+00 0.000000e+00
 0.000000e+00 7.322903e-01 2.677098e-01 0.000000e+00 0.000000e+00
 0.000000e+00 0.000000e+00 5.675364e-01 4.324636e-01 0.000000e+00
 0.000000e+00 0.000000e+00 0.000000e+00 3.732518e-01 6.267482e-01
 0.000000e+00 0.000000e+00 0.000000e+00 0.000000e+00 0.000000e+00
<ENDHMM>
~h "l"
<BEGINHMM>
<NUMSTATES> 5
<STATE> 2
<MEAN> 39
 1.438227e+01 -1.418515e+01 6.211422e+00 -9.365266e+00 2.990477e+00 -4.117877e+00 -1.414152e+01 1.028976e+01 -1.308458e+01 -3.595502e+00 -3.946925e+00 -3.704343e+00 7.541254e+01 1.079902e+00 7.994404e-01 -2.077762e+00 1.213456e+00 1.975558e-01 -1.399813e+00 -4.892080e-01 6.262987e-03 5.542861e-01 -1.141895e+00 -6.239605e-01 -5.205457e-01 2.743075e-02 -3.907680e-01 -2.182564e-01 3.922219e-01 -2.106514e-01 9.229054e-03 4.465295e-02 1.075229e-01 2.846880e-03 -3.188696e-01 4.414514e-01 4.401630e-01 1.278244e-01 -3.271671e-02
<VARIANCE> 39
 9.592257e+00 1.613232e+01 6.609702e+01 3.318820e+01 3.790852e+01 5.658109e+01 3.542168e+01 5.118029e+01 5.872013e+01 4.691830e+01 3.320675e+01 3.364486e+01 1.463395e+01 1.867136e+00 1.623348e+00 3.872130e+00 2.966922e+00 3.824151e+00 4.567903e+00 4.280730e+00 4.161370e+00 4.814674e+00 3.673715e+00 3.232462e+00 3.246065e+00 9.717961e-01 3.080171e-01 3.376575e-01 7.794213e-01 5.960044e-01 4.700856e-01 6.676778e-01 6.257765e-01 4.805675e-01 5.326592e-01 6.390388e-01 5.452499e-01 6.280901e-01 1.393782e-01
<GCONST> 1.221843e+02
<STATE> 3
<MEAN> 39
 1.583996e+01 -1.233971e+01 2.119568e+00 -7.657607e+00 3.684846e+00 -7.921591e+00 -1.555788e+01 1.168349e+01 -1.020730e+01 -3.970478e+00 -5.821664e+00 -5.376386e+00 7.437791e+01 -7.493419e-03 -1.450774e-01 8.226209e-02 1.247089e-02 -3.192583e-01 -8.097658e-01 2.567039e-01 3.550625e-01 -8.042036e-01 -1.493387e-01 6.048166e-01 3.686163e-01 2.398246e-01 -3.260823e-01 -2.988075e-01 7.323635e-01 -5.835199e-01 -2.159431e-01 2.911419e-01 2.384700e-01 -1.986722e-02 -6.162518e-01 5.460318e-01 6.190521e-01 2.633231e-01 1.306060e-01
<VARIANCE> 39
 5.677434e+00 1.524375e+01 3.700993e+01 2.357491e+01 3.489496e+01 5.481483e+01 2.945037e+01 4.394915e+01 5.715128e+01 5.236741e+01 2.700210e+01 3.316758e+01 1.440141e+01 5.295162e-01 1.272394e+00 3.255513e+00 1.882664e+00 2.148035e+00 2.902386e+00 2.236093e+00 2.444853e+00 3.941543e+00 2.847078e+00 2.966136e+00 3.235553e+00 5.687581e-01 1.245043e-01 1.888594e-01 4.933419e-01 3.498949e-01 3.766999e-01 6.589031e-01 6.138105e-01 4.899854e-01 5.452479e-01 8.452949e-01 4.544521e-01 4.769190e-01 1.038037e-01
<GCONST> 1.114914e+02
<STATE> 4
<MEAN> 39
 1.450552e+01 -1.503483e+01 4.673023e+00 -1.106934e+01 7.112107e-01 -8.455908e+00 -1.166547e+01 1.236078e+01 -1.690706e+01 -1.536849e+00 -1.267652e-01 -1.474718e+00 7.663367e+01 -4.751733e-01 -4.463501e-01 9.937184e-01 -9.981763e-01 -4.032088e-03 4.919830e-01 1.656112e-01 -5.602788e-01 -1.362269e+00 1.454506e+00 1.221201e+00 1.596349e-01 3.523832e-01 -1.629210e-01 5.666047e-02 2.430713e-01 1.281782e-01 3.044053e-01 3.352985e-01 -1.881240e-01 -1.918016e-01 2.573653e-01 1.575108e-01 -1.690883e-01 -2.006319e-01 -2.004125e-01
<VARIANCE> 39
 5.285217e+00 1.430193e+01 3.592531e+01 3.657125e+01 4.889763e+01 4.367110e+01 3.208994e+01 5.480731e+01 6.494405e+01 5.859873e+01 2.417185e+01 2.351449e+01 1.755436e+01 5.574843e-01 1.355808e+00 3.015095e+00 2.247593e+00 2.383629e+00 3.587824e+00 3.571474e+00 2.312391e+00 3.293790e+00 3.386067e+00 2.901767e+00 1.991933e+00 7.750948e-01 1.427179e-01 2.087784e-01 4.665089e-01 4.590440e-01 3.033800e-01 5.144534e-01 3.775469e-01 4.210786e-01 5.114713e-01 7.074040e-01 3.570594e-01 4.370911e-01 1.036593e-01
<GCONST> 1.116851e+02
<TRANSP> 5
 0.000000e+00 1.000000e+00 0.000000e+00 0.000000e+00 0.000000e+00
 0.000000e+00 2.678060e-01 7.321940e-01 0.000000e+00 0.000000e+00
 0.000000e+00 0.000000e+00 5.508315e-01 4.491685e-01 0.000000e+00
 0.000000e+00 0.000000e+00 0.000000e+00 5.786835e-01 4.213165e-01
 0.000000e+00 0.000000e+00 0.000000e+00 0.000000e+00 0.000000e+00
<ENDHMM>
~h "m"
<BEGINHMM>
<NUMSTATES> 5
<STATE> 2
<MEAN> 39
 1.204953e+01 -9.408360e+00 9.731176e+00 -5.535028e+00 1.307062e+01 9.058692e+00 -1.165136e+01 5.285566e+00 -1.452002e+01 2.353639e+00 -1.708228e+00 -9.290789e+00 6.875290e+01 -7.971296e-02 2.272411e-01 3.622671e-01 2.522507e-01 4.564384e-01 7.820439e-01 1.702068e-02 -4.523709e-01 -8.980519e-02 5.033967e-01 -2.339965e-01 -9.248825e-01 -2.974978e-01 -1.406550e-02 -3.608347e-01 4.609891e-02 -3.555828e-01 -6.039529e-01 -8.902989e-01 -1.198209e-01 5.273480e-01 5.322719e-02 -1.315408e-01 2.944607e-01 8.064058e-01 3.712052e-01
<VARIANCE> 39
 1.262769e+01 9.707354e+00 1.917836e+01 1.687132e+01 2.137890e+01 1.682791e+01 2.234847e+01 2.958476e+01 3.070488e+01 2.270683e+01 1.469026e+01 2.420431e+01 1.353011e+01 6.648529e-01 8.022163e-01 1.787894e+00 1.612479e+00 2.744412e+00 2.558211e+00 1.196552e+00 1.949415e+00 1.659116e+00 1.906410e+00 1.065694e+00 3.478819e+00 6.024011e-01 1.261223e-01 2.143717e-01 2.826924e-01 3.295849e-01 5.073640e-01 4.180865e-01 3.338334e-01 3.684531e-01 3.437815e-01 4.083458e-01 2.592686e-01 6.011450e-01 9.362882e-02
<GCONST> 9.903102e+01
<STATE> 3
<MEAN> 39
 1.018698e+01 -9.476218e+00 1.096912e+01 -6.098763e+00 1.179507e+01 9.459225e+00 -1.046514e+01 6.074124e+00 -1.388719e+01 2.848071e+00 -1.171913e+00 -7.719499e+00 6.749233e+01 4.486241e-01 -3.014680e-01 3.232969e-02 -7.341478e-01 -1.124140e+00 -1.425840e+00 -4.907952e-02 9.330690e-01 1.769354e-01 -1.094359e-01 3.912975e-01 1.264980e+00 7.829763e-01 -5.497443e-02 -2.993853e-01 -1.275529e-01 -2.694365e-01 -4.781012e-01 -7.550158e-01 -6.815878e-02 5.104854e-01 1.138950e-01 -1.740066e-01 2.597899e-01 5.960664e-01 2.440951e-01
<VARIANCE> 39
 2.825754e+01 1.189730e+01 2.899485e+01 1.815122e+01 3.017715e+01 2.276287e+01 3.397531e+01 3.816237e+01 3.125396e+01 2.037721e+01 1.794715e+01 2.408861e+01 2.429777e+01 2.610932e+00 1.664658e+00 3.430599e+00 2.217654e+00 4.778205e+00 3.322126e+00 2.129174e+00 2.832355e+00 2.379449e+00 1.949059e+00 1.398716e+00 3.462658e+00 1.326604e+00 2.911249e-01 3.133796e-01 4.529900e-01 3.739976e-01 5.271932e-01 4.917670e-01 3.902662e-01 4.184380e-01 4.153482e-01 4.244343e-01 2.559342e-01 4.932490e-01 1.606524e-01
<GCONST> 1.116655e+02
<STATE> 4
<MEAN> 39
 1.187122e+01 -1.068165e+01 1.061890e+01 -1.023882e+01 5.843463e+00 3.264545e+00 -9.824224e+00 1.148720e+01 -1.249973e+01 2.164808e+00 6.013491e-01 -3.015978e+00 7.040136e+01 -1.053496e-02 -6.074921e-01 -1.713558e-01 -1.054257e+00 -1.833760e+00 -2.336748e+00 1.653872e-02 1.713730e+00 3.827363e-01 -3.564718e-01 7.921662e-01 1.891836e+00 6.550430e-01 -8.883787e-02 -1.511987e-01 -8.895234e-02 1.908183e-01 2.479952e-01 -4.170796e-02 -3.997637e-02 1.138334e-03 -1.388384e-01 -8.186510e-02 -7.518247e-02 -2.552160e-01 2.050823e-02
<VARIANCE> 39
 1.747686e+01 1.327108e+01 3.237663e+01 2.546564e+01 4.542660e+01 5.291064e+01 3.509643e+01 3.983287e+01 3.315316e+01 2.605244e+01 1.949691e+01 3.176678e+01 2.339467e+01 1.459765e+00 1.593000e+00 2.380331e+00 2.929229e+00 3.792497e+00 4.687833e+00 2.783243e+00 3.104534e+00 1.794152e+00 2.377037e+00 1.671522e+00 3.675917e+00 1.291117e+00 9.517819e-02 2.069280e-01 3.771755e-01 3.395882e-01 4.030391e-01 4.963951e-01 4.303131e-01 4.095828e-01 3.362360e-01 4.336037e-01 2.541022e-01 4.583217e-01 9.099530e-02
<GCONST> 1.107500e+02
<TRANSP> 5
 0.000000e+00 1.000000e+00 0.000000e+00 0.000000e+00 0.000000e+00
 0.000000e+00 6.856619e-01 3.143381e-01 0.000000e+00 0.000000e+00
 0.000000e+00 0.000000e+00 4.306782e-01 5.693218e-01 0.000000e+00
 0.000000e+00 0.000000e+00 0.000000e+00 4.675002e-01 5.324998e-01
 0.000000e+00 0.000000e+00 0.000000e+00 0.000000e+00 0.000000e+00
<ENDHMM>
~h "n"
<BEGINHMM>
<NUMSTATES> 5
<STATE> 2
<MEAN> 39
 1.064023e+01 -1.061853e+01 1.051702e+01 -3.928303e+00 1.412722e+01 1.046854e+01 -1.267975e+01 1.687714e-01 -1.664532e+01 2.990424e+00 -1.708435e+00 -6.985128e+00 6.863920e+01 6.218658e-01 -1.785585e-01 -4.472857e-01 3.994856e-04 3.756462e-01 -1.942147e-01 -1.382669e-01 3.503345e-02 -3.591407e-01 -1.485332e-01 -1.655619e-01 6.107326e-02 5.764429e-01 -4.268895e-02 -5.592658e-01 -4.497536e-02 -7.531653e-01 -6.893972e-01 -1.021087e+00 -1.538458e-02 1.059005e+00 1.206824e-01 -9.915981e-02 4.856439e-01 9.272655e-01 5.260448e-01
<VARIANCE> 39
 2.399872e+01 1.264329e+01 2.916986e+01 2.632812e+01 2.746548e+01 2.382634e+01 2.870241e+01 4.257212e+01 2.771499e+01 2.458180e+01 1.818438e+01 2.333316e+01 2.441971e+01 2.193454e+00 2.269219e+00 2.842430e+00 3.891147e+00 3.556707e+00 4.732047e+00 2.662200e+00 6.585555e+00 2.641306e+00 2.114012e+00 2.062576e+00 4.529711e+00 2.017086e+00 3.077660e-01 3.259440e-01 4.574220e-01 5.559630e-01 5.631984e-01 6.924062e-01 5.569819e-01 8.912181e-01 5.436130e-01 4.963057e-01 4.057769e-01 7.203672e-01 2.024278e-01
<GCONST> 1.183013e+02
<STATE> 3
<MEAN> 39
 1.282691e+01 -1.481207e+01 8.267694e+00 -9.151858e+00 1.018984e+01 3.958200e+00 -1.250635e+01 7.549011e+00 -1.637216e+01 3.571834e-01 -1.834767e-01 -9.016781e-01 7.416485e+01 3.139935e-01 -1.292454e+00 -8.513057e-01 -1.994311e+00 -1.728168e+00 -3.026593e+00 1.171592e-01 3.068260e+00 2.967423e-01 -4.841125e-01 1.447044e+00 2.803253e+00 1.558278e+00 -2.402833e-01 2.441745e-02 2.638035e-01 -2.106799e-02 -1.686013e-01 -1.580321e-01 2.546447e-02 -3.220401e-02 -1.426013e-02 2.202713e-01 2.216720e-01 -2.036252e-02 -9.159458e-02
<VARIANCE> 39
 8.961985e+00 1.623888e+01 4.667360e+01 5.062110e+01 3.121867e+01 4.656216e+01 3.291380e+01 4.852802e+01 3.969938e+01 3.650085e+01 2.790380e+01 3.570773e+01 2.007084e+01 9.556268e-01 1.711464e+00 3.388316e+00 3.230463e+00 2.906193e+00 3.979461e+00 3.207499e+00 3.941834e+00 2.698044e+00 3.233054e+00 2.654303e+00 3.365517e+00 1.196685e+00 2.200299e-01 3.421140e-01 5.037458e-01 6.148269e-01 4.369614e-01 5.900875e-01 4.837328e-01 6.980760e-01 6.014153e-01 4.843177e-01 4.421904e-01 5.982194e-01 1.917494e-01
<GCONST> 1.182558e+02
<STATE> 4
<MEAN> 39
 1.315947e+01 -1.651039e+01 5.826470e+00 -1.228280e+01 7.295530e+00 -1.513896e+00 -1.159962e+01 1.277810e+01 -1.534280e+01 5.140541e-01 2.939173e+00 3.783097e+00 7.605194e+01 -1.901686e-01 -3.950646e-01 -1.292984e-02 -7.101578e-01 -9.768481e-01 -1.352152e+00 1.374797e-01 9.570205e-01 4.234665e-02 3.189262e-01 9.422302e-01 7.296686e-01 4.746789e-01 -2.195458e-01 2.712289e-01 4.077933e-01 4.068317e-01 2.353396e-01 7.083178e-01 6.271853e-02 -6.862071e-01 -5.243343e-02 2.171163e-01 -3.204184e-01 -7.609145e-01 -4.047822e-01
<VARIANCE> 39
 1.060784e+01 1.877926e+01 5.393460e+01 4.505074e+01 4.321059e+01 4.000331e+01 4.126673e+01 4.582420e+01 3.357067e+01 4.309569e+01 2.361957e+01 3.133199e+01 2.359307e+01 1.029106e+00 1.309786e+00 2.773606e+00 2.371063e+00 1.890075e+00 3.147979e+00 2.751038e+00 2.959489e+00 2.576118e+00 2.682639e+00 1.946034e+00 2.431845e+00 9.403389e-01 1.345127e-01 3.411074e-01 3.879614e-01 5.003390e-01 3.492996e-01 5.476995e-01 3.513920e-01 5.899670e-01 3.429497e-01 5.102485e-01 4.051793e-01 6.248649e-01 1.631090e-01
<GCONST> 1.134218e+02
<TRANSP> 5
 0.000000e+00 1.000000e+00 0.000000e+00 0.000000e+00 0.000000e+00
 0.000000e+00 6.477122e-01 3.522878e-01 0.000000e+00 0.000000e+00
 0.000000e+00 0.000000e+00 2.996763e-01 7.003237e-01 0.000000e+00
 0.000000e+00 0.000000e+00 0.000000e+00 4.442177e-01 5.557824e-01
 0.000000e+00 0.000000e+00 0.000000e+00 0.000000e+00 0.000000e+00
<ENDHMM>
~h "o"
<BEGINHMM>
<NUMSTATES> 5
<STATE> 2
<MEAN> 39
 1.230575e+01 -1.309880e+01 1.126244e+01 -1.273283e+01 -5.845510e-01 -5.153066e+00 -1.038627e+01 1.255059e+01 -1.696378e+01 -6.523612e-01 -8.450304e-01 -3.506827e+00 7.385938e+01 1.623145e+00 7.614492e-01 -1.032777e+00 6.244253e-01 -1.787034e-01 -2.583143e+00 -6.912524e-02 1.119881e+00 -8.770806e-01 -9.243621e-01 -1.125281e-01 -2.967961e-01 9.011076e-01 -4.919592e-01 3.007324e-02 5.662545e-02 2.667003e-01 4.184519e-01 6.532320e-01 1.332583e-01 -1.977379e-01 2.983846e-01 1.303431e-01 -6.197767e-02 -9.863428e-02 -4.401833e-01
<VARIANCE> 39
 2.128791e+01 2.845858e+01 3.987961e+01 2.627133e+01 4.954345e+01 5.340430e+01 3.415694e+01 5.110211e+01 5.631790e+01 3.198533e+01 2.765892e+01 2.708042e+01 2.596866e+01 4.138953e+00 3.200977e+00 5.540030e+00 2.885631e+00 4.182933e+00 5.154178e+00 4.063470e+00 3.711044e+00 3.375341e+00 3.852267e+00 2.216986e+00 2.485926e+00 2.065272e+00 4.980753e-01 5.816860e-01 7.847700e-01 4.928870e-01 5.862157e-01 9.815652e-01 5.434455e-01 5.972697e-01 7.270849e-01 4.835135e-01 4.584442e-01 5.439135e-01 4.722008e-01
<GCONST> 1.268415e+02
<STATE> 3
<MEAN> 39
 1.436242e+01 -1.326257e+01 8.830035e+00 -1.158273e+01 -3.401302e-01 -1.030917e+01 -1.034810e+01 1.564413e+01 -1.854341e+01 -2.530432e+00 -1.225884e+00 -3.890367e+00 7.584897e+01 -1.507808e-01 2.162134e-01 1.702074e-01 4.763868e-01 5.090420e-01 5.068644e-01 2.393448e-01 -7.711001e-02 5.453442e-02 -9.188828e-02 -2.247896e-01 -2.011788e-01 -2.320732e-01 -6.715527e-01 -5.376742e-02 6.291031e-01 -1.030496e-01 2.342328e-01 1.296379e+00 5.163884e-02 -5.928376e-01 4.351279e-01 4.002744e-01 -5.029174e-02 2.510398e-02 -4.640569e-01
<VARIANCE> 39
 4.787621e+00 1.767200e+01 2.277305e+01 2.313395e+01 4.926237e+01 4.232546e+01 2.766276e+01 5.020431e+01 5.104589e+01 3.358128e+01 2.432903e+01 3.161900e+01 1.243293e+01 1.495203e+00 2.022403e+00 5.070049e+00 1.911641e+00 3.496847e+00 5.641858e+00 3.648760e+00 3.062317e+00 4.012949e+00 2.339206e+00 1.726178e+00 1.896681e+00 1.318492e+00 3.807944e-01 3.755147e-01 6.248450e-01 4.013115e-01 4.952087e-01 6.747853e-01 3.939628e-01 5.445837e-01 6.524475e-01 5.460739e-01 3.773292e-01 5.033323e-01 1.860099e-01
<GCONST> 1.160099e+02
<STATE> 4
<MEAN> 39
 1.073933e+01 -1.071221e+01 1.164868e+01 -1.172691e+01 8.871205e-03 -2.409812e+00 -8.683306e+00 1.279601e+01 -1.477559e+01 -4.928390e-01 -1.469629e+00 -4.162340e+00 7.084977e+01 -1.686651e+00 4.040080e-01 1.430444e+00 2.877264e-01 7.753691e-01 2.832880e+00 2.035594e-01 -1.241660e+00 9.597012e-01 6.122724e-01 -1.765931e-01 -1.980335e-02 -1.465956e+00 -3.557173e-01 -3.251730e-01 1.040246e-01 -1.422084e-01 9.861048e-02 1.159719e-01 -1.652120e-01 -1.969332e-01 -1.083389e-02 1.752958e-01 5.877415e-02 1.032934e-01 9.320416e-04
<VARIANCE> 39
 2.143128e+01 2.435035e+01 3.671304e+01 3.418906e+01 6.199175e+01 4.809185e+01 4.260431e+01 4.090691e+01 6.193577e+01 3.670588e+01 2.173904e+01 2.302609e+01 3.612107e+01 2.401128e+00 2.528491e+00 6.123527e+00 2.525188e+00 3.869328e+00 4.246849e+00 3.357423e+00 3.237214e+00 2.983691e+00 2.469799e+00 2.139547e+00 2.985497e+00 1.887000e+00 3.138729e-01 4.019317e-01 5.534838e-01 4.039675e-01 5.451547e-01 7.376295e-01 5.370920e-01 4.776618e-01 6.203465e-01 4.485645e-01 3.382125e-01 3.511808e-01 2.461231e-01
<GCONST> 1.216272e+02
<TRANSP> 5
 0.000000e+00 1.000000e+00 0.000000e+00 0.000000e+00 0.000000e+00
 0.000000e+00 2.707416e-01 7.292584e-01 0.000000e+00 0.000000e+00
 0.000000e+00 0.000000e+00 6.006385e-01 3.993615e-01 0.000000e+00
 0.000000e+00 0.000000e+00 0.000000e+00 3.793775e-01 6.206226e-01
 0.000000e+00 0.000000e+00 0.000000e+00 0.000000e+00 0.000000e+00
<ENDHMM>
~h "p"
<BEGINHMM>
<NUMSTATES> 5
<STATE> 2
<MEAN> 39
 2.197364e+00 -7.959640e+00 1.412161e+01 -5.671742e+00 4.103854e+00 5.209610e+00 -1.008082e+01 7.264506e+00 -1.151030e+01 -1.049168e-01 1.091728e-01 -1.717741e+00 6.008408e+01 -1.762939e+00 9.966637e-02 3.349230e-01 -1.322377e-01 -6.840780e-01 2.845248e-01 -1.026918e-01 -1.749691e-02 8.980489e-01 1.043482e-01 -5.615280e-02 -1.488550e-02 -1.691387e+00 2.546424e-01 -7.994881e-01 -3.623264e-02 -3.963451e-01 -4.565157e-03 -2.542006e-01 -8.187147e-02 -7.115171e-03 -3.793626e-01 3.942475e-01 1.979579e-01 -3.526347e-02 9.060205e-01
<VARIANCE> 39
 2.714486e+01 1.077666e+01 3.209074e+01 3.509045e+01 3.772134e+01 2.485596e+01 2.978229e+01 3.338023e+01 2.895504e+01 2.101952e+01 1.990519e+01 2.051032e+01 1.364516e+01 1.237625e+00 1.682610e+00 2.538749e+00 1.668231e+00 1.455892e+00 1.983132e+00 1.776415e+00 1.570267e+00 1.722116e+00 1.773022e+00 1.357871e+00 1.289291e+00 1.530648e+00 2.413071e-01 4.561814e-01 4.719943e-01 4.166006e-01 2.899999e-01 5.483803e-01 4.550697e-01 3.781625e-01 3.829764e-01 3.833957e-01 3.154554e-01 3.064860e-01 2.713187e-01
<GCONST> 1.065384e+02
<STATE> 3
<MEAN> 39
 -2.460142e+00 -9.203181e+00 1.471012e+01 -5.579157e+00 3.546710e+00 6.028117e+00 -9.525517e+00 7.933369e+00 -9.238316e+00 1.627543e+00 5.709395e-01 -2.397304e+00 5.712154e+01 1.119765e-01 -2.141709e+00 6.102658e-01 -1.821338e+00 -6.293044e-01 4.576849e-01 3.899066e-01 3.620825e-03 -7.823915e-01 1.150105e+00 2.937934e-01 2.554382e-01 1.775006e+00 1.149946e+00 -6.107863e-01 5.664585e-02 -4.645028e-01 1.804172e-01 -2.683460e-01 -1.382950e-01 -4.819150e-02 -7.972404e-01 1.263001e-01 6.375831e-02 1.206515e-01 1.581244e+00
<VARIANCE> 39
 1.564080e+01 8.305631e+00 1.704806e+01 1.786635e+01 1.899800e+01 1.412886e+01 2.072233e+01 2.278705e+01 2.523663e+01 1.551100e+01 1.438078e+01 1.280867e+01 1.061588e+01 3.075300e+00 3.152588e+00 2.900151e+00 3.022242e+00 2.249610e+00 2.253170e+00 2.343486e+00 2.586470e+00 2.952136e+00 2.373695e+00 1.817156e+00 1.722235e+00 3.187711e+00 4.100353e-01 4.268626e-01 5.428170e-01 3.876750e-01 3.903664e-01 4.882500e-01 4.563401e-01 4.762416e-01 4.493344e-01 3.412060e-01 3.710844e-01 3.464589e-01 1.862665e-01
<GCONST> 1.075833e+02
<STATE> 4
<MEAN> 39
 1.343183e+00 -1.717569e+01 1.713762e+01 -1.260398e+01 1.989387e+00 8.116290e+00 -8.231377e+00 7.127038e+00 -1.395691e+01 5.461284e+00 1.426334e+00 -1.149225e+00 6.646893e+01 2.857350e+00 -1.983688e+00 1.840028e-01 -1.463025e+00 1.189874e-01 -9.513025e-01 -5.354021e-01 -1.971697e-01 -2.062732e+00 4.903638e-01 1.135057e-01 -1.314012e-02 4.354837e+00 5.574272e-01 6.449480e-01 -6.973488e-01 6.285632e-01 3.371594e-01 -9.172987e-01 -4.506190e-01 6.560383e-02 3.143322e-02 -5.061116e-01 -6.957006e-02 -2.441527e-01 1.368854e-01
<VARIANCE> 39
 2.347297e+01 2.925579e+01 2.355046e+01 2.691337e+01 2.525373e+01 1.842262e+01 1.931198e+01 2.721057e+01 3.039437e+01 1.702778e+01 1.517962e+01 1.421109e+01 4.201585e+01 7.174669e+00 4.660924e+00 6.026760e+00 3.783049e+00 4.035861e+00 3.915621e+00 4.280510e+00 4.581674e+00 4.354206e+00 3.036170e+00 2.520474e+00 2.789303e+00 2.687962e+00 7.593700e-01 8.249023e-01 1.139376e+00 5.394710e-01 5.651768e-01 7.366495e-01 6.939982e-01 6.469722e-01 6.822519e-01 5.340154e-01 3.797429e-01 3.836184e-01 7.098206e-01
<GCONST> 1.244123e+02
<TRANSP> 5
 0.000000e+00 1.000000e+00 0.000000e+00 0.000000e+00 0.000000e+00
 0.000000e+00 6.014311e-01 3.985689e-01 0.000000e+00 0.000000e+00
 0.000000e+00 0.000000e+00 4.768153e-01 5.231847e-01 0.000000e+00
 0.000000e+00 0.000000e+00 0.000000e+00 4.455165e-01 5.544835e-01
 0.000000e+00 0.000000e+00 0.000000e+00 0.000000e+00 0.000000e+00
<ENDHMM>
~h "r"
<BEGINHMM>
<NUMSTATES> 5
<STATE> 2
<MEAN> 39
 1.189057e+01 -1.596301e+01 1.106926e+01 -1.388263e+01 4.488125e+00 2.151646e+00 -1.353019e+01 4.832693e+00 -1.929112e+01 3.242242e+00 1.111208e+00 -2.286165e+00 7.568438e+01 2.110493e+00 4.668876e-01 -2.511245e+00 -1.766103e-01 1.465685e+00 -1.161675e-01 -1.772792e+00 -1.498748e+00 -2.620490e-01 -7.331907e-01 -5.563979e-01 2.229998e-01 1.175849e+00 -4.875264e-01 4.385484e-01 -4.140446e-01 3.039021e-01 4.535226e-01 2.573865e-01 -1.398278e-01 1.290718e-01 7.132486e-01 -3.578154e-01 -1.845559e-01 1.457068e-02 -7.934111e-01
<VARIANCE> 39
 1.894813e+01 2.006473e+01 4.853977e+01 3.130729e+01 3.316795e+01 4.118866e+01 3.636426e+01 4.394661e+01 3.478490e+01 3.686638e+01 2.355713e+01 2.204445e+01 2.711717e+01 4.420491e+00 2.403568e+00 4.380427e+00 4.525973e+00 2.591150e+00 7.719305e+00 3.393706e+00 3.602698e+00 5.255048e+00 4.284540e+00 2.810245e+00 2.777296e+00 4.838806e+00 5.591596e-01 4.293045e-01 8.866445e-01 6.000538e-01 4.036085e-01 9.715698e-01 5.322112e-01 8.177845e-01 7.017231e-01 5.742157e-01 4.349213e-01 3.673288e-01 5.167519e-01
<GCONST> 1.266156e+02
<STATE> 3
<MEAN> 39
 1.444523e+01 -1.500946e+01 5.805540e+00 -1.478174e+01 8.104117e+00 2.414030e+00 -1.762729e+01 2.382942e+00 -1.866944e+01 1.677891e+00 -1.068368e+00 -2.226911e+00 7.630828e+01 3.134795e-01 1.047437e+00 -2.330108e+00 1.925788e-01 2.131093e+00 1.335270e+00 -1.635543e+00 -1.226855e+00 1.556337e+00 -1.324885e+00 -9.132208e-01 4.135984e-01 -6.080160e-01 -5.003394e-01 -2.857168e-02 4.574147e-01 1.178209e-01 -5.613678e-02 -2.791787e-01 2.804609e-01 8.037660e-01 1.973009e-01 -7.511079e-03 1.323969e-01 2.084018e-02 -3.092007e-01
<VARIANCE> 39
 7.335579e+00 2.003414e+01 2.990952e+01 4.249781e+01 2.784631e+01 4.498438e+01 3.406366e+01 3.579107e+01 3.298596e+01 4.315905e+01 3.141946e+01 2.291192e+01 1.704700e+01 1.317286e+00 1.549013e+00 4.168425e+00 3.442313e+00 1.862401e+00 7.414007e+00 3.062590e+00 4.311050e+00 3.141952e+00 3.471606e+00 2.211738e+00 2.156070e+00 1.254780e+00 4.273462e-01 3.616761e-01 6.235685e-01 5.098026e-01 3.975013e-01 1.190546e+00 5.411658e-01 7.510307e-01 7.169363e-01 5.934907e-01 4.466881e-01 3.628911e-01 3.116977e-01
<GCONST> 1.189896e+02
<STATE> 4
<MEAN> 39
 1.381242e+01 -1.268918e+01 2.127134e+00 -1.467528e+01 1.166996e+01 3.815632e+00 -1.994618e+01 3.437510e+00 -1.481022e+01 -2.025565e+00 -1.720342e+00 -9.425942e-01 7.481374e+01 8.289545e-02 -1.099440e-01 -4.582457e-01 2.779499e-01 5.239461e-01 -1.806673e+00 -1.935779e-01 1.792268e+00 -1.113487e-01 -2.452291e-01 3.990004e-01 3.069597e-01 1.198100e-01 -2.035173e-01 -3.223490e-01 8.405782e-01 1.804278e-01 -7.933282e-01 -6.032287e-01 8.336577e-01 5.589917e-01 -5.253295e-01 4.802638e-01 3.737181e-01 -1.614686e-01 9.581566e-02
<VARIANCE> 39
 1.100078e+01 2.033667e+01 4.122275e+01 4.103362e+01 2.686088e+01 6.681859e+01 4.435685e+01 4.819777e+01 3.357816e+01 4.083932e+01 3.129874e+01 2.695697e+01 1.944883e+01 8.548542e-01 1.959991e+00 4.264139e+00 2.808182e+00 3.652053e+00 7.238072e+00 5.004644e+00 4.711209e+00 3.782790e+00 3.066634e+00 2.628331e+00 2.027449e+00 1.148993e+00 2.022200e-01 3.259714e-01 5.399094e-01 5.832201e-01 3.946428e-01 1.527094e+00 7.298762e-01 1.003309e+00 7.083418e-01 5.915805e-01 4.168615e-01 4.189442e-01 2.045057e-01
<GCONST> 1.214124e+02
<TRANSP> 5
 0.000000e+00 1.000000e+00 0.000000e+00 0.000000e+00 0.000000e+00
 0.000000e+00 2.742030e-01 7.257971e-01 0.000000e+00 0.000000e+00
 0.000000e+00 0.000000e+00 2.522306e-01 7.477694e-01 0.000000e+00
 0.000000e+00 0.000000e+00 0.000000e+00 6.323692e-01 3.676309e-01
 0.000000e+00 0.000000e+00 0.000000e+00 0.000000e+00 0.000000e+00
<ENDHMM>
~h "s"
<BEGINHMM>
<NUMSTATES> 5
<STATE> 2
<MEAN> 39
 -7.193593e+00 -2.230302e+01 3.359649e+01 -1.668444e+01 2.552886e+00 1.101425e+01 -4.691622e+00 6.157490e+00 -1.915878e+01 8.538636e+00 1.241621e+00 -1.649271e+00 7.653735e+01 -3.316428e+00 -1.466243e+00 2.694109e+00 -1.843735e+00 -1.917789e-01 1.100221e+00 6.988246e-01 4.488117e-01 1.262736e-01 1.124563e+00 -7.352611e-02 3.626539e-01 2.660508e-01 6.326308e-01 2.428818e-01 -1.039596e+00 2.027653e-01 2.084576e-01 -5.799023e-01 -3.817514e-01 3.963272e-02 -6.176396e-02 -9.503917e-02 2.593064e-02 -1.658988e-01 -1.540212e-01
<VARIANCE> 39
 4.418163e+01 2.703620e+01 5.565318e+01 3.204750e+01 2.768818e+01 3.671186e+01 3.168681e+01 4.270066e+01 5.509397e+01 3.216136e+01 2.580786e+01 2.171777e+01 2.625742e+01 4.274225e+00 3.722842e+00 7.897939e+00 3.325134e+00 2.977536e+00 3.494846e+00 2.624432e+00 3.264623e+00 2.909355e+00 2.506882e+00 2.171355e+00 1.921974e+00 7.740559e-01 5.836342e-01 6.047787e-01 9.398691e-01 5.677578e-01 5.385108e-01 6.051084e-01 3.945475e-01 5.552214e-01 5.950330e-01 4.781278e-01 3.922756e-01 3.378682e-01 1.275281e-01
<GCONST> 1.214985e+02
<STATE> 3
<MEAN> 39
 -1.371217e+01 -2.590377e+01 3.426328e+01 -2.167366e+01 1.832695e+00 1.102550e+01 -4.695245e+00 6.716344e+00 -1.880882e+01 1.204871e+01 1.735297e+00 -1.794750e+00 7.542011e+01 8.528428e-01 4.060357e-01 -9.558370e-01 7.247029e-01 5.350529e-02 -1.646330e-01 -2.091714e-01 -2.470868e-01 1.714865e-01 -4.202522e-01 8.896517e-03 -5.642435e-02 -4.785162e-01 1.063301e+00 5.716406e-01 -6.826585e-01 7.269899e-01 1.264004e-01 -2.062822e-01 -2.403198e-01 -1.597031e-01 -3.882016e-02 -5.467646e-01 -6.998529e-02 -1.023500e-01 -1.666956e-01
<VARIANCE> 39
 1.593971e+01 2.129202e+01 2.794298e+01 2.397499e+01 2.318110e+01 3.361758e+01 2.454679e+01 2.456358e+01 4.491264e+01 2.439704e+01 2.722626e+01 1.972165e+01 2.141511e+01 4.802293e+00 2.699622e+00 2.966476e+00 3.694175e+00 1.882856e+00 1.733735e+00 1.954021e+00 2.163088e+00 2.715674e+00 2.559981e+00 2.119958e+00 1.549412e+00 1.218110e+00 4.210794e-01 5.377112e-01 6.594756e-01 5.011653e-01 4.295523e-01 4.181674e-01 3.996005e-01 3.910132e-01 4.608590e-01 3.963512e-01 4.219593e-01 3.203557e-01 2.223319e-01
<GCONST> 1.129568e+02
<STATE> 4
<MEAN> 39
 -1.279803e+00 -1.897367e+01 2.659665e+01 -1.371543e+01 3.392721e+00 9.849524e+00 -6.831698e+00 3.683125e+00 -1.974889e+01 5.555955e+00 4.700450e-01 -3.072779e+00 7.418291e+01 4.318946e+00 2.330879e+00 -4.010926e+00 2.378525e+00 1.049222e+00 -1.392095e+00 -1.804483e+00 -4.058045e-01 -1.260635e-01 -1.881980e+00 -4.235803e-01 -7.371801e-01 -1.054847e+00 -2.052051e-01 -1.770850e-01 -2.531111e-01 -1.848119e-01 1.832906e-01 -3.357867e-01 -2.277345e-01 4.165686e-01 1.540002e-01 1.855685e-01 2.165843e-02 -1.452042e-02 -2.107491e-03
<VARIANCE> 39
 6.387138e+01 2.963665e+01 7.493348e+01 4.067688e+01 2.987160e+01 3.823933e+01 4.130156e+01 5.369332e+01 3.560012e+01 3.794055e+01 2.507612e+01 2.380654e+01 3.798050e+01 4.966746e+00 3.553562e+00 4.966916e+00 4.927751e+00 3.554986e+00 4.762622e+00 3.474636e+00 3.921491e+00 4.939191e+00 3.544287e+00 2.988992e+00 2.504933e+00 3.146391e+00 9.104348e-01 5.580746e-01 1.041592e+00 6.165912e-01 5.204321e-01 6.874400e-01 5.288526e-01 7.403736e-01 5.815164e-01 6.047967e-01 4.005535e-01 5.115737e-01 2.783925e-01
<GCONST> 1.297648e+02
<TRANSP> 5
 0.000000e+00 1.000000e+00 0.000000e+00 0.000000e+00 0.000000e+00
 0.000000e+00 7.615007e-01 2.384993e-01 0.000000e+00 0.000000e+00
 0.000000e+00 0.000000e+00 7.804552e-01 2.195448e-01 0.000000e+00
 0.000000e+00 0.000000e+00 0.000000e+00 4.924341e-01 5.075659e-01
 0.000000e+00 0.000000e+00 0.000000e+00 0.000000e+00 0.000000e+00
<ENDHMM>
~h "t"
<BEGINHMM>
<NUMSTATES> 5
<STATE> 2
<MEAN> 39
 -7.528262e-01 -1.449509e+01 2.240089e+01 -1.010879e+01 3.315523e+00 8.442247e+00 -8.252652e+00 6.921633e+00 -1.391765e+01 4.434866e+00 -7.030114e-01 -1.415039e+00 6.565115e+01 -6.221549e-01 8.732657e-01 -3.252793e-01 4.364609e-01 -4.260908e-01 4.340824e-01 3.210350e-01 2.166608e-01 7.784887e-01 -4.511800e-01 6.653842e-02 2.940406e-02 -1.580010e+00 2.136224e-01 -3.430642e-01 -5.205529e-01 -9.031946e-02 2.814267e-02 -4.265497e-01 -1.829179e-01 5.191559e-02 -1.128960e-01 3.099426e-02 6.878434e-02 -1.391543e-01 3.320508e-01
<VARIANCE> 39
 4.849999e+01 4.635341e+01 7.488220e+01 5.710463e+01 3.337389e+01 3.261981e+01 3.222852e+01 3.851229e+01 5.261304e+01 3.309220e+01 2.232630e+01 1.794449e+01 5.358038e+01 5.057634e+00 4.567303e+00 8.099054e+00 5.900491e+00 3.045746e+00 3.574504e+00 2.935905e+00 2.466202e+00 3.116079e+00 3.202305e+00 1.742537e+00 1.659045e+00 4.471799e+00 4.541399e-01 1.139898e+00 1.147937e+00 1.035647e+00 5.888947e-01 8.781216e-01 4.831065e-01 5.080231e-01 5.572724e-01 6.216004e-01 4.328197e-01 4.109318e-01 6.782559e-01
<GCONST> 1.298177e+02
<STATE> 3
<MEAN> 39
 -4.467435e-01 -1.057582e+01 1.663404e+01 -6.024653e+00 3.501522e+00 6.462842e+00 -9.704417e+00 5.922044e+00 -1.233866e+01 1.134281e+00 3.705536e-01 -1.501026e+00 6.062911e+01 -5.209144e-01 -7.487689e-01 -7.637716e-01 -4.562138e-01 -7.108369e-01 -2.026242e-01 1.559006e-01 2.365455e-01 4.244084e-01 1.828275e-01 8.442972e-02 -2.459302e-01 -3.517341e-01 3.311887e-01 -1.152823e+00 4.106698e-01 -8.344346e-01 -1.061002e-01 -1.230784e-01 -1.198334e-01 -1.560928e-01 -6.343561e-01 4.979400e-01 -1.513262e-01 -9.671156e-02 1.356137e+00
<VARIANCE> 39
 3.102410e+01 2.519675e+01 4.671730e+01 3.461171e+01 2.824680e+01 2.160884e+01 3.316267e+01 3.492132e+01 3.606096e+01 2.400329e+01 1.671660e+01 1.541302e+01 3.226611e+01 3.836055e+00 5.814357e+00 5.715569e+00 4.864613e+00 3.053030e+00 2.835299e+00 2.662794e+00 2.511797e+00 2.326956e+00 2.648682e+00 1.877466e+00 1.792416e+00 3.621895e+00 3.871045e-01 7.465929e-01 8.359753e-01 7.035411e-01 5.295430e-01 6.102534e-01 5.618197e-01 5.042719e-01 4.554240e-01 4.735576e-01 3.337650e-01 3.143160e-01 5.857432e-01
<GCONST> 1.213059e+02
<STATE> 4
<MEAN> 39
 -8.895530e-01 -2.053125e+01 2.029737e+01 -1.358337e+01 -8.849114e-02 7.443781e+00 -8.644546e+00 5.503747e+00 -1.544133e+01 5.527699e+00 -7.927667e-01 -2.201113e+00 6.824224e+01 1.946437e+00 -1.464485e+00 1.614464e-01 -1.233729e+00 5.234795e-03 -6.218114e-01 -6.855729e-01 -5.920257e-01 -1.784881e+00 1.533695e-01 -1.975439e-01 7.295069e-03 2.930753e+00 7.507611e-01 7.770388e-01 -6.129291e-01 7.051412e-01 5.692697e-01 -5.447280e-01 -2.899475e-01 6.466082e-02 -1.375759e-01 -4.161149e-01 2.013868e-01 5.006605e-02 6.955083e-02
<VARIANCE> 39
 3.057673e+01 4.868810e+01 4.584008e+01 5.638664e+01 3.051491e+01 2.538902e+01 3.022035e+01 3.123696e+01 4.371265e+01 2.727066e+01 1.872121e+01 1.433823e+01 5.117485e+01 6.011586e+00 8.463249e+00 6.875712e+00 8.090489e+00 4.937257e+00 3.704198e+00 3.565158e+00 3.612719e+00 3.468258e+00 4.529838e+00 2.569716e+00 1.983428e+00 3.963253e+00 7.359892e-01 1.302078e+00 1.436503e+00 1.274898e+00 6.500947e-01 6.562206e-01 6.138493e-01 6.024224e-01 7.529712e-01 7.290051e-01 5.553267e-01 3.369694e-01 9.834562e-01
<GCONST> 1.325476e+02
<TRANSP> 5
 0.000000e+00 1.000000e+00 0.000000e+00 0.000000e+00 0.000000e+00
 0.000000e+00 4.100665e-01 5.899335e-01 0.000000e+00 0.000000e+00
 0.000000e+00 0.000000e+00 4.641734e-01 5.358266e-01 0.000000e+00
 0.000000e+00 0.000000e+00 0.000000e+00 6.444294e-01 3.555706e-01
 0.000000e+00 0.000000e+00 0.000000e+00 0.000000e+00 0.000000e+00
<ENDHMM>
~h "u"
<BEGINHMM>
<NUMSTATES> 5
<STATE> 2
<MEAN> 39
 9.648566e+00 -1.004306e+01 1.415074e+01 -1.148160e+01 4.082987e+00 -3.032066e+00 -1.189914e+01 1.329955e+01 -1.993517e+01 -3.599326e+00 -2.723710e+00 -7.249595e+00 6.995507e+01 1.242870e+00 1.517153e+00 8.434714e-02 4.735249e-01 -2.839860e-01 -2.035691e+00 -1.833809e-01 1.402887e+00 2.642575e-02 -2.133591e-01 -1.877653e-01 -7.537949e-01 1.624152e-01 -2.804170e-01 -2.764207e-01 1.590829e-01 1.622871e-01 1.170585e-01 2.745334e-01 -8.109225e-02 -2.647877e-01 2.527398e-01 2.968409e-01 3.849976e-01 3.087367e-01 5.256056e-02
<VARIANCE> 39
 2.979012e+01 2.543036e+01 3.193671e+01 2.139148e+01 3.499843e+01 3.916241e+01 3.141363e+01 3.678462e+01 6.307140e+01 4.814946e+01 3.147031e+01 3.097764e+01 3.069911e+01 3.009428e+00 3.559545e+00 3.745853e+00 2.426186e+00 4.394327e+00 5.128036e+00 4.022274e+00 4.102374e+00 3.813506e+00 3.220257e+00 2.530238e+00 3.047725e+00 1.486300e+00 5.009185e-01 5.996892e-01 6.051976e-01 5.421675e-01 4.857969e-01 8.108600e-01 6.495698e-01 7.910510e-01 5.730634e-01 5.673186e-01 4.872471e-01 5.494262e-01 3.607413e-01
<GCONST> 1.255028e+02
<STATE> 3
<MEAN> 39
 1.251227e+01 -6.276358e+00 1.499059e+01 -1.034676e+01 1.533946e+00 -8.609286e+00 -1.292502e+01 1.650418e+01 -1.700828e+01 -2.956599e+00 -3.063332e-01 -7.224623e+00 7.094348e+01 -7.940262e-02 1.455260e-02 1.947491e-01 6.212770e-01 4.122527e-01 7.816635e-01 1.239584e-01 -1.650764e-01 6.200694e-01 -8.532424e-02 5.535996e-02 3.483328e-01 -1.236803e-01 -5.933875e-01 -5.304419e-01 9.197712e-02 -1.494557e-02 3.429897e-01 1.203631e+00 1.479718e-01 -6.485143e-01 2.002166e-01 2.690867e-01 -9.103073e-02 1.568429e-01 -2.182257e-01
<VARIANCE> 39
 5.038182e+00 2.663799e+01 2.697343e+01 1.730507e+01 3.946460e+01 4.057782e+01 3.029677e+01 4.932676e+01 3.110761e+01 4.545398e+01 2.714371e+01 2.823592e+01 1.444237e+01 1.627324e+00 2.585962e+00 2.652861e+00 2.036990e+00 3.782565e+00 5.832298e+00 3.215579e+00 3.103391e+00 2.800568e+00 3.202725e+00 2.571127e+00 1.634818e+00 1.607916e+00 2.721763e-01 4.381181e-01 4.469208e-01 3.714329e-01 4.035299e-01 6.040416e-01 4.529306e-01 7.020941e-01 4.733566e-01 6.125581e-01 3.925035e-01 4.042202e-01 1.637132e-01
<GCONST> 1.152314e+02
<STATE> 4
<MEAN> 39
 8.652548e+00 -8.122195e+00 1.555050e+01 -8.541081e+00 4.341399e+00 9.733150e-01 -1.118087e+01 1.185060e+01 -1.465522e+01 -1.822003e+00 -1.621445e+00 -5.810051e+00 6.769695e+01 -1.770737e+00 -1.089536e+00 5.675142e-01 5.157819e-01 9.844896e-01 2.677969e+00 2.753568e-01 -1.698786e+00 6.777322e-01 8.589851e-01 4.068435e-03 4.235963e-01 -7.674201e-01 -3.400930e-01 -4.477112e-01 6.641199e-02 -2.492689e-01 -9.731530e-02 -1.557036e-01 -9.445547e-02 -5.457775e-02 -1.108405e-01 2.559665e-01 1.564141e-01 5.629591e-02 1.360472e-01
<VARIANCE> 39
 2.492176e+01 3.423075e+01 4.129321e+01 2.704361e+01 6.082473e+01 3.473522e+01 3.999676e+01 4.157723e+01 4.889386e+01 4.894120e+01 2.981249e+01 2.062471e+01 4.505941e+01 2.311103e+00 3.766642e+00 5.370498e+00 3.070235e+00 2.803761e+00 5.265478e+00 3.756436e+00 3.542155e+00 3.765530e+00 3.290528e+00 2.356376e+00 2.293972e+00 1.923782e+00 4.066686e-01 4.819950e-01 6.406862e-01 4.186773e-01 5.236473e-01 5.409407e-01 4.212084e-01 5.673327e-01 5.334202e-01 7.537915e-01 4.567819e-01 4.130269e-01 2.013882e-01
<GCONST> 1.238119e+02
<TRANSP> 5
 0.000000e+00 1.000000e+00 0.000000e+00 0.000000e+00 0.000000e+00
 0.000000e+00 4.635314e-01 5.364686e-01 0.000000e+00 0.000000e+00
 0.000000e+00 0.000000e+00 6.309798e-01 3.690202e-01 0.000000e+00
 0.000000e+00 0.000000e+00 0.000000e+00 3.860437e-01 6.139563e-01
 0.000000e+00 0.000000e+00 0.000000e+00 0.000000e+00 0.000000e+00
<ENDHMM>
~h "v"
<BEGINHMM>
<NUMSTATES> 5
<STATE> 2
<MEAN> 39
 6.641694e+00 -1.004715e+01 1.422690e+01 -9.216044e+00 6.491553e+00 5.629154e+00 -9.511624e+00 9.461092e+00 -1.451265e+01 -1.360626e-01 -1.420170e+00 -3.863837e+00 6.685101e+01 6.344697e-01 3.147458e-01 1.543482e-01 1.992552e-01 8.607314e-01 3.875421e-01 -9.615254e-02 1.855620e-01 -2.644791e-01 -3.867798e-01 -4.839588e-01 -6.937534e-02 1.846893e-01 9.310272e-02 -3.858882e-01 -1.858249e-01 -4.489195e-02 -9.771135e-02 -3.894296e-01 -2.644907e-01 -2.370802e-01 -2.444836e-01 1.796767e-01 2.456233e-01 7.771409e-02 3.668991e-01
<VARIANCE> 39
 4.553167e+01 2.845153e+01 4.363757e+01 4.225782e+01 3.493362e+01 4.192915e+01 2.829133e+01 3.006990e+01 3.882548e+01 2.114263e+01 1.723859e+01 1.111299e+01 6.131285e+01 3.664324e+00 2.033092e+00 3.851424e+00 2.680133e+00 2.534565e+00 3.271703e+00 2.244901e+00 2.182750e+00 2.883162e+00 1.983523e+00 1.278217e+00 1.193989e+00 1.577348e+00 3.675999e-01 4.567948e-01 4.642243e-01 4.436851e-01 3.505173e-01 4.957177e-01 3.729054e-01 4.349453e-01 4.468796e-01 3.760724e-01 2.897675e-01 2.464360e-01 1.772029e-01
<GCONST> 1.140634e+02
<STATE> 3
<MEAN> 39
 9.942142e+00 -1.295109e+01 1.477254e+01 -1.247247e+01 8.460294e+00 4.266443e+00 -1.159372e+01 1.031625e+01 -1.821061e+01 -9.501446e-01 -3.255061e+00 -4.043626e+00 7.213466e+01 7.681909e-01 -7.506109e-01 -1.001852e+00 3.344249e-01 1.781526e-01 -1.147900e+00 -1.207585e+00 -7.659518e-01 -6.496251e-01 -4.897085e-02 5.663770e-01 2.404055e-01 9.364149e-01 1.598083e-01 -1.643831e-01 -5.177675e-01 3.652603e-01 -2.682331e-01 -7.805092e-01 -3.428043e-01 -4.095881e-01 -8.447003e-02 2.659451e-01 5.661814e-01 3.486291e-02 2.887991e-01
<VARIANCE> 39
 1.395361e+01 1.352829e+01 5.212994e+01 4.293743e+01 3.935649e+01 4.744603e+01 2.762620e+01 3.127611e+01 2.309358e+01 2.243441e+01 1.942582e+01 1.370387e+01 1.621395e+01 1.889748e+00 2.085088e+00 4.355652e+00 3.654150e+00 4.064788e+00 3.114710e+00 2.695049e+00 2.573051e+00 2.365260e+00 1.822898e+00 1.472247e+00 1.243765e+00 1.471442e+00 4.219262e-01 3.428346e-01 7.860824e-01 5.268751e-01 3.167466e-01 6.251339e-01 4.247352e-01 4.655452e-01 3.071343e-01 4.324961e-01 3.555589e-01 3.189084e-01 1.676684e-01
<GCONST> 1.125749e+02
<STATE> 4
<MEAN> 39
 1.258632e+01 -1.466051e+01 9.752922e+00 -1.056286e+01 7.442356e+00 -1.008451e+00 -1.413204e+01 8.140123e+00 -1.972086e+01 -4.001703e-01 -2.645371e-01 -3.208078e+00 7.449939e+01 8.179020e-01 -7.083460e-01 -1.534481e+00 9.506624e-01 9.103803e-02 -2.113088e+00 -1.305073e+00 -1.028837e+00 -5.124969e-01 7.712728e-01 1.282839e+00 1.562551e-01 1.084484e+00 -2.387345e-01 -4.677420e-02 2.284596e-01 1.273665e-01 1.351582e-02 8.619737e-03 7.524534e-02 8.321872e-02 2.370807e-01 2.025701e-01 -1.477896e-02 -8.051451e-02 -4.456921e-02
<VARIANCE> 39
 1.096134e+01 1.281537e+01 4.718132e+01 4.639518e+01 6.078735e+01 5.141940e+01 3.473009e+01 4.538761e+01 3.866048e+01 2.664274e+01 1.770680e+01 1.597279e+01 1.580352e+01 1.015723e+00 1.467036e+00 3.607312e+00 3.224252e+00 3.406555e+00 2.798031e+00 3.389671e+00 2.942871e+00 2.451654e+00 2.198287e+00 2.381108e+00 2.049795e+00 8.068989e-01 2.185178e-01 2.177693e-01 4.678055e-01 4.376692e-01 3.408426e-01 6.537750e-01 3.026531e-01 4.203036e-01 4.533637e-01 4.261747e-01 2.400514e-01 2.136263e-01 1.208192e-01
<GCONST> 1.106062e+02
<TRANSP> 5
 0.000000e+00 1.000000e+00 0.000000e+00 0.000000e+00 0.000000e+00
 0.000000e+00 4.644808e-01 5.355191e-01 0.000000e+00 0.000000e+00
 0.000000e+00 0.000000e+00 3.685732e-01 6.314267e-01 0.000000e+00
 0.000000e+00 0.000000e+00 0.000000e+00 2.741422e-01 7.258578e-01
 0.000000e+00 0.000000e+00 0.000000e+00 0.000000e+00 0.000000e+00
<ENDHMM>
~h "x"
<BEGINHMM>
<NUMSTATES> 5
<STATE> 2
<MEAN> 39
 1.947689e+00 -2.149127e+01 1.687430e+01 -1.871731e+01 -9.153608e-01 9.708764e+00 -4.414577e+00 1.060884e+01 -1.728977e+01 5.197011e+00 4.090029e+00 -3.531255e+00 7.008697e+01 -9.265537e-01 -1.110918e+00 -4.009265e-01 -1.499222e+00 -1.305698e+00 8.489074e-01 1.025898e+00 1.559796e-01 -2.886238e-01 -5.940582e-01 -3.357473e-01 1.613339e-01 -2.855086e-01 4.131519e-01 3.241632e-01 -1.788684e-01 4.082742e-01 2.555150e-01 -5.513549e-01 -4.118969e-01 -1.255136e-01 -7.341621e-02 1.018883e-03 -6.118962e-02 -1.765710e-01 1.691956e-01
<VARIANCE> 39
 1.047921e+01 2.691355e+01 3.691360e+01 5.159917e+01 6.026390e+01 3.502012e+01 5.445070e+01 5.331879e+01 3.586583e+01 2.358005e+01 2.202361e+01 2.529861e+01 1.952135e+01 1.570424e+00 2.066840e+00 2.095448e+00 4.103894e+00 3.289238e+00 2.642260e+00 2.578205e+00 2.684342e+00 2.591950e+00 3.197802e+00 2.062741e+00 2.424151e+00 1.018571e+00 1.406324e-01 2.650203e-01 4.637815e-01 4.353692e-01 4.673472e-01 4.602358e-01 3.732302e-01 5.033472e-01 5.449827e-01 5.631487e-01 3.228774e-01 4.035859e-01 8.669420e-02
<GCONST> 1.139402e+02
<STATE> 3
<MEAN> 39
 -1.507376e+00 -2.464337e+01 2.086486e+01 -1.430308e+01 2.290428e+00 8.782223e+00 -8.107173e+00 7.672781e+00 -1.773069e+01 5.837535e+00 2.508313e-01 -5.602804e+00 7.009503e+01 5.015253e-01 9.967185e-01 -4.111652e-01 -9.482922e-02 -1.889529e-01 4.296677e-02 5.458928e-01 -1.685124e-01 -6.521027e-02 -1.552145e-01 -2.939389e-01 1.382484e-01 -1.584078e-01 6.749260e-01 8.622603e-01 -1.221436e-01 5.888826e-01 4.350342e-01 -4.965836e-01 -3.517500e-01 4.157718e-02 1.031679e-01 -6.390715e-03 7.454675e-02 -8.365557e-02 4.973351e-02
<VARIANCE> 39
 1.817736e+01 2.206674e+01 5.440903e+01 7.513046e+01 5.457495e+01 3.775894e+01 4.802801e+01 4.684846e+01 4.224350e+01 3.194350e+01 3.620895e+01 1.529302e+01 1.463213e+01 3.009071e+00 4.333992e+00 2.807324e+00 3.432813e+00 3.488133e+00 3.392929e+00 2.803395e+00 3.048330e+00 2.702813e+00 3.253269e+00 1.750247e+00 1.973532e+00 1.303847e+00 4.375246e-01 4.748473e-01 5.817351e-01 5.467083e-01 5.764713e-01 7.189013e-01 6.503477e-01 5.827901e-01 7.385754e-01 7.093864e-01 4.716589e-01 3.057732e-01 3.147824e-01
<GCONST> 1.223665e+02
<STATE> 4
<MEAN> 39
 4.093925e+00 -1.702540e+01 1.768801e+01 -1.557614e+01 2.859872e-01 7.891720e+00 -4.061002e+00 8.830400e+00 -1.835696e+01 5.281840e+00 1.277111e+00 -5.087284e+00 7.020210e+01 2.148972e+00 2.623208e+00 -8.095475e-01 1.005574e+00 6.423278e-01 -2.396806e+00 -1.047128e+00 4.452258e-02 -2.885054e-02 1.099515e-01 -3.373279e-01 -2.617389e-01 4.160149e-01 1.580388e-01 -2.150010e-01 -4.174240e-01 7.409207e-02 2.610490e-01 -4.366575e-01 -5.650917e-01 1.358654e-02 1.264479e-01 4.093093e-02 1.331878e-01 7.995047e-02 2.262039e-01
<VARIANCE> 39
 3.532552e+01 3.549686e+01 5.840771e+01 4.379488e+01 4.239365e+01 4.497821e+01 2.752575e+01 4.006010e+01 3.356178e+01 4.718694e+01 2.502273e+01 2.219292e+01 2.708668e+01 4.461331e+00 2.984205e+00 2.190281e+00 3.184548e+00 3.482162e+00 4.904297e+00 4.096925e+00 4.302306e+00 3.736695e+00 3.447595e+00 2.452334e+00 2.520299e+00 3.136594e+00 3.713589e-01 6.335691e-01 6.505579e-01 4.159696e-01 6.303108e-01 5.378429e-01 3.676914e-01 5.337012e-01 4.852070e-01 5.889398e-01 3.376414e-01 3.412622e-01 2.418447e-01
<GCONST> 1.236646e+02
<TRANSP> 5
 0.000000e+00 1.000000e+00 0.000000e+00 0.000000e+00 0.000000e+00
 0.000000e+00 7.450450e-01 2.549549e-01 0.000000e+00 0.000000e+00
 0.000000e+00 0.000000e+00 5.724529e-01 4.275471e-01 0.000000e+00
 0.000000e+00 0.000000e+00 0.000000e+00 3.822293e-01 6.177707e-01
 0.000000e+00 0.000000e+00 0.000000e+00 0.000000e+00 0.000000e+00
<ENDHMM>
~h "z"
<BEGINHMM>
<NUMSTATES> 5
<STATE> 2
<MEAN> 39
 -5.854614e-01 -1.664715e+01 3.316692e+01 -1.784024e+01 4.563460e+00 1.517930e+01 -8.449578e+00 6.433983e-01 -2.126015e+01 6.185053e+00 -3.918144e+00 -3.848927e+00 7.423306e+01 -8.419085e-01 -2.825601e-01 1.602296e+00 -1.128323e+00 -9.728697e-02 1.148730e+00 4.894242e-01 -1.403117e-01 -2.807237e-01 2.154470e-01 -3.847466e-01 3.806532e-01 2.038856e-01 8.220817e-01 1.169210e-01 -1.437221e+00 6.894959e-01 1.631808e-01 -8.293481e-01 -3.836597e-01 7.204461e-02 1.012826e-01 -2.482059e-01 2.194809e-01 -1.431142e-01 -3.475020e-02
<VARIANCE> 39
 2.846973e+01 1.871702e+01 6.331052e+01 4.329881e+01 3.811839e+01 3.709964e+01 4.462174e+01 5.198107e+01 5.004422e+01 2.330417e+01 2.987632e+01 2.006782e+01 4.023237e+01 4.794715e+00 1.976847e+00 1.105583e+01 3.831371e+00 1.969480e+00 3.957974e+00 2.555551e+00 3.135338e+00 2.494044e+00 1.724530e+00 1.819639e+00 1.511043e+00 1.728761e+00 4.781772e-01 4.094633e-01 1.311707e+00 6.382806e-01 3.650125e-01 6.048160e-01 4.514285e-01 6.490824e-01 5.025730e-01 3.597765e-01 3.758622e-01 3.453514e-01 2.123689e-01
<GCONST> 1.213269e+02
<STATE> 3
<MEAN> 39
 3.756779e+00 -1.734515e+01 2.865889e+01 -1.749818e+01 4.608761e+00 1.488261e+01 -1.003827e+01 -1.441102e+00 -2.167324e+01 4.550404e+00 -5.076552e+00 -3.788367e+00 7.597247e+01 2.946515e+00 4.093842e-01 -5.239115e+00 2.151595e+00 3.711069e-01 -2.183192e+00 -1.023491e+00 -3.991062e-01 1.253671e-01 -9.379646e-01 8.742716e-01 -3.593579e-01 9.117915e-03 3.477894e-01 1.552451e-01 -1.015297e+00 5.296635e-01 2.275990e-01 -7.676803e-01 -1.171980e-01 3.101133e-01 4.608339e-02 1.029707e-01 5.269164e-01 -3.114850e-02 -9.181100e-02
<VARIANCE> 39
 2.222715e+01 1.661112e+01 3.338887e+01 2.715320e+01 3.043819e+01 2.240696e+01 2.638226e+01 3.171445e+01 2.219742e+01 2.416742e+01 2.469550e+01 9.448237e+00 1.904153e+01 1.683096e+00 1.741198e+00 4.372602e+00 2.577578e+00 2.420460e+00 4.188501e+00 1.851554e+00 3.190098e+00 2.546406e+00 1.872689e+00 1.404255e+00 1.539191e+00 1.325147e+00 3.813695e-01 3.107090e-01 7.086663e-01 4.056412e-01 3.251263e-01 5.269349e-01 2.979843e-01 4.314259e-01 3.546827e-01 4.862721e-01 2.978117e-01 2.484754e-01 1.872163e-01
<GCONST> 1.093092e+02
<STATE> 4
<MEAN> 39
 1.003559e+01 -1.600057e+01 1.587249e+01 -1.219963e+01 5.720640e+00 7.791855e+00 -1.153832e+01 -6.196793e-01 -2.191610e+01 3.511713e+00 -1.555089e+00 -4.377492e+00 7.577898e+01 2.252054e+00 3.608011e-01 -4.921613e+00 1.869724e+00 8.091474e-01 -2.751720e+00 -6.356871e-01 8.170475e-01 4.684487e-02 -1.969206e-01 1.665429e+00 1.245652e-01 -7.431670e-02 -6.103544e-01 -2.147371e-01 9.727089e-01 -4.889289e-01 -7.347654e-02 3.046682e-01 1.307360e-01 3.326461e-01 1.976090e-01 2.169973e-01 2.451880e-02 3.107798e-01 7.086965e-02
<VARIANCE> 39
 2.370158e+01 1.723029e+01 6.378810e+01 2.489568e+01 3.853572e+01 4.781797e+01 2.800774e+01 4.130354e+01 1.902642e+01 2.540732e+01 2.439006e+01 1.530855e+01 2.420479e+01 1.307371e+00 1.967872e+00 3.852872e+00 2.680658e+00 2.287172e+00 5.037513e+00 2.090986e+00 3.082129e+00 2.874908e+00 2.752103e+00 2.120170e+00 2.497624e+00 1.093881e+00 3.088921e-01 2.495526e-01 5.977004e-01 3.939101e-01 4.220470e-01 6.455818e-01 3.083589e-01 5.216942e-01 3.039490e-01 4.122357e-01 3.649741e-01 2.856118e-01 1.695243e-01
<GCONST> 1.130850e+02
<TRANSP> 5
 0.000000e+00 1.000000e+00 0.000000e+00 0.000000e+00 0.000000e+00
 0.000000e+00 7.789173e-01 2.210827e-01 0.000000e+00 0.000000e+00
 0.000000e+00 0.000000e+00 4.328119e-01 5.671881e-01 0.000000e+00
 0.000000e+00 0.000000e+00 0.000000e+00 3.307622e-01 6.692378e-01
 0.000000e+00 0.000000e+00 0.000000e+00 0.000000e+00 0.000000e+00
<ENDHMM>
~h "aa"
<BEGINHMM>
<NUMSTATES> 5
<STATE> 2
<MEAN> 39
 1.460787e+01 -1.728731e+01 -9.189336e-01 -1.790566e+01 -2.209924e-01 -3.327809e+00 -6.011710e+00 1.469008e+01 -1.166318e+01 1.783347e+00 1.027431e+00 3.039376e+00 7.912086e+01 -2.157503e-02 -9.388125e-02 -2.906636e-01 -2.821532e-01 -3.184074e-01 7.602984e-02 6.397479e-01 4.104057e-01 4.197012e-01 1.110130e-01 -3.376268e-01 1.221402e-01 1.834863e-02 -4.130985e-02 7.973743e-02 3.009155e-01 1.717836e-01 2.296229e-01 1.334934e-01 -2.350155e-01 -2.552722e-01 -1.955961e-01 5.098077e-02 -6.401377e-03 -1.556255e-01 -1.428790e-01
<VARIANCE> 39
 5.198628e+00 1.256591e+01 2.592210e+01 1.974496e+01 2.565660e+01 3.141936e+01 2.642893e+01 4.338692e+01 4.439444e+01 5.165462e+01 2.903378e+01 1.991447e+01 1.814239e+01 3.214886e-01 7.507597e-01 1.345343e+00 1.000155e+00 1.263918e+00 1.085030e+00 1.787590e+00 1.407894e+00 1.770473e+00 1.631859e+00 1.195942e+00 9.308677e-01 2.158660e-01 9.434920e-02 1.517016e-01 2.561599e-01 1.974802e-01 1.974986e-01 2.937847e-01 2.234999e-01 2.455592e-01 3.296668e-01 3.292524e-01 2.705367e-01 2.065765e-01 3.920777e-02
<GCONST> 9.125248e+01
<STATE> 3
<MEAN> 39
 1.504205e+01 -1.792480e+01 1.673839e-01 -1.708788e+01 7.176595e-01 -3.977589e+00 -6.484183e+00 1.402435e+01 -1.364345e+01 2.801967e+00 1.340843e+00 3.546039e+00 7.910691e+01 -4.854210e-02 4.531731e-01 1.308722e+00 1.000752e+00 9.872746e-01 4.164521e-01 -7.538754e-01 -1.220618e+00 -1.059763e+00 8.199785e-01 4.006945e-01 -9.003939e-01 -8.161209e-01 -3.662232e-01 3.293774e-01 6.993450e-01 3.986755e-01 2.797124e-01 7.758797e-01 -4.715388e-02 -4.320628e-01 8.865927e-02 -9.038037e-02 -2.412603e-01 -4.351319e-01 -4.173249e-01
<VARIANCE> 39
 5.215724e+00 1.422807e+01 2.266381e+01 1.651140e+01 2.696719e+01 2.888222e+01 2.202534e+01 4.329742e+01 3.406327e+01 5.481039e+01 2.214776e+01 1.974688e+01 1.960498e+01 5.620563e-01 1.290224e+00 2.213358e+00 1.902653e+00 1.925370e+00 1.903967e+00 2.055736e+00 1.944388e+00 2.309681e+00 3.717082e+00 1.972181e+00 2.048579e+00 6.197180e-01 1.552364e-01 1.730616e-01 4.910402e-01 2.872899e-01 3.520710e-01 3.479427e-01 3.060724e-01 3.849373e-01 4.048980e-01 4.936222e-01 2.824528e-01 3.365976e-01 8.685786e-02
<GCONST> 1.026642e+02
<STATE> 4
<MEAN> 39
 1.296272e+01 -1.492497e+01 5.329661e+00 -1.451248e+01 1.810781e+00 -8.062260e-01 -6.848138e+00 9.808256e+00 -1.517809e+01 5.748038e+00 1.748732e+00 1.743331e-01 7.517628e+01 -1.746543e+00 1.135718e+00 3.336039e+00 1.184999e+00 8.802223e-01 3.035955e+00 -1.406178e-01 -1.166103e+00 4.821874e-01 -1.555624e-01 -6.906676e-01 -1.204808e+00 -1.992561e+00 -5.104128e-01 -2.078620e-01 3.590566e-01 -9.338426e-02 -8.354572e-02 3.543173e-01 4.748451e-02 2.272769e-01 3.887250e-01 -2.926463e-01 -1.808213e-01 1.340248e-01 -1.012882e-01
<VARIANCE> 39
 1.373387e+01 1.942084e+01 3.697152e+01 2.599463e+01 3.716971e+01 5.082054e+01 4.906152e+01 3.495473e+01 5.199703e+01 5.018336e+01 2.715948e+01 2.412661e+01 3.310007e+01 1.859818e+00 1.659986e+00 6.592430e+00 3.062531e+00 3.127108e+00 3.617719e+00 2.498289e+00 3.366039e+00 3.510259e+00 4.480656e+00 1.910063e+00 2.782223e+00 1.229813e+00 3.379448e-01 3.194770e-01 8.793535e-01 2.963378e-01 3.458809e-01 7.125029e-01 4.727982e-01 3.572631e-01 6.725303e-01 6.037390e-01 4.329925e-01 3.464617e-01 1.951565e-01
<GCONST> 1.191122e+02
<TRANSP> 5
 0.000000e+00 1.000000e+00 0.000000e+00 0.000000e+00 0.000000e+00
 0.000000e+00 8.620491e-01 1.379508e-01 0.000000e+00 0.000000e+00
 0.000000e+00 0.000000e+00 5.552891e-01 4.447109e-01 0.000000e+00
 0.000000e+00 0.000000e+00 0.000000e+00 4.915780e-01 5.084220e-01
 0.000000e+00 0.000000e+00 0.000000e+00 0.000000e+00 0.000000e+00
<ENDHMM>
~h "aw"
<BEGINHMM>
<NUMSTATES> 5
<STATE> 2
<MEAN> 39
 -7.474797e-01 -1.372438e+01 1.363240e+01 -7.800015e+00 3.957401e+00 4.912278e+00 -9.313604e+00 9.542570e+00 -9.857509e+00 3.919184e+00 1.996032e+00 -2.240039e+00 6.241040e+01 -1.802149e-04 -4.002908e-04 -4.533151e-04 -6.255359e-04 3.060046e-04 -9.756409e-05 3.545313e-04 3.676544e-04 -3.322966e-04 2.823267e-04 3.441859e-04 -7.776468e-06 1.221478e-04 -1.140098e-05 1.280875e-04 8.513568e-05 5.610451e-05 1.307168e-04 1.258145e-04 -3.556004e-04 -3.413941e-04 -2.462322e-04 -2.982411e-04 -2.002541e-04 1.479088e-04 -5.553468e-05
<VARIANCE> 39
 7.885750e+01 3.150516e+01 5.932858e+01 4.002160e+01 3.388152e+01 4.450462e+01 4.196474e+01 3.377337e+01 5.805833e+01 2.700758e+01 1.807174e+01 1.807939e+01 1.000320e+02 2.049164e+00 1.868461e+00 3.042747e+00 2.325078e+00 1.845033e+00 2.917301e+00 2.107786e+00 2.084596e+00 2.106791e+00 1.946175e+00 1.426612e+00 1.517214e+00 1.393703e+00 2.791751e-01 3.309114e-01 4.813313e-01 4.079526e-01 3.174572e-01 5.210913e-01 3.729059e-01 3.905098e-01 3.965955e-01 3.683704e-01 2.743881e-01 2.959611e-01 2.159844e-01
<GCONST> 1.148699e+02
<STATE> 3
<MEAN> 39
 -7.474797e-01 -1.372438e+01 1.363240e+01 -7.800015e+00 3.957401e+00 4.912278e+00 -9.313604e+00 9.542570e+00 -9.857509e+00 3.919184e+00 1.996032e+00 -2.240039e+00 6.241040e+01 -1.802149e-04 -4.002908e-04 -4.533151e-04 -6.255359e-04 3.060046e-04 -9.756409e-05 3.545313e-04 3.676544e-04 -3.322966e-04 2.823267e-04 3.441859e-04 -7.776468e-06 1.221478e-04 -1.140098e-05 1.280875e-04 8.513568e-05 5.610451e-05 1.307168e-04 1.258145e-04 -3.556004e-04 -3.413941e-04 -2.462322e-04 -2.982411e-04 -2.002541e-04 1.479088e-04 -5.553468e-05
<VARIANCE> 39
 7.885750e+01 3.150516e+01 5.932858e+01 4.002160e+01 3.388152e+01 4.450462e+01 4.196474e+01 3.377337e+01 5.805833e+01 2.700758e+01 1.807174e+01 1.807939e+01 1.000320e+02 2.049164e+00 1.868461e+00 3.042747e+00 2.325078e+00 1.845033e+00 2.917301e+00 2.107786e+00 2.084596e+00 2.106791e+00 1.946175e+00 1.426612e+00 1.517214e+00 1.393703e+00 2.791751e-01 3.309114e-01 4.813313e-01 4.079526e-01 3.174572e-01 5.210913e-01 3.729059e-01 3.905098e-01 3.965955e-01 3.683704e-01 2.743881e-01 2.959611e-01 2.159844e-01
<GCONST> 1.148699e+02
<STATE> 4
<MEAN> 39
 -7.474797e-01 -1.372438e+01 1.363240e+01 -7.800015e+00 3.957401e+00 4.912278e+00 -9.313604e+00 9.542570e+00 -9.857509e+00 3.919184e+00 1.996032e+00 -2.240039e+00 6.241040e+01 -1.802149e-04 -4.002908e-04 -4.533151e-04 -6.255359e-04 3.060046e-04 -9.756409e-05 3.545313e-04 3.676544e-04 -3.322966e-04 2.823267e-04 3.441859e-04 -7.776468e-06 1.221478e-04 -1.140098e-05 1.280875e-04 8.513568e-05 5.610451e-05 1.307168e-04 1.258145e-04 -3.556004e-04 -3.413941e-04 -2.462322e-04 -2.982411e-04 -2.002541e-04 1.479088e-04 -5.553468e-05
<VARIANCE> 39
 7.885750e+01 3.150516e+01 5.932858e+01 4.002160e+01 3.388152e+01 4.450462e+01 4.196474e+01 3.377337e+01 5.805833e+01 2.700758e+01 1.807174e+01 1.807939e+01 1.000320e+02 2.049164e+00 1.868461e+00 3.042747e+00 2.325078e+00 1.845033e+00 2.917301e+00 2.107786e+00 2.084596e+00 2.106791e+00 1.946175e+00 1.426612e+00 1.517214e+00 1.393703e+00 2.791751e-01 3.309114e-01 4.813313e-01 4.079526e-01 3.174572e-01 5.210913e-01 3.729059e-01 3.905098e-01 3.965955e-01 3.683704e-01 2.743881e-01 2.959611e-01 2.159844e-01
<GCONST> 1.148699e+02
<TRANSP> 5
 0.000000e+00 1.000000e+00 0.000000e+00 0.000000e+00 0.000000e+00
 0.000000e+00 6.000000e-01 4.000000e-01 0.000000e+00 0.000000e+00
 0.000000e+00 0.000000e+00 6.000000e-01 4.000000e-01 0.000000e+00
 0.000000e+00 0.000000e+00 0.000000e+00 7.000000e-01 3.000000e-01
 0.000000e+00 0.000000e+00 0.000000e+00 0.000000e+00 0.000000e+00
<ENDHMM>
~h "ch"
<BEGINHMM>
<NUMSTATES> 5
<STATE> 2
<MEAN> 39
 -2.797231e+00 -2.172468e+01 2.133894e+01 -3.400075e+00 3.076399e+00 5.835688e+00 -1.199718e+01 8.372509e+00 -1.198265e+01 -9.763321e-01 1.118188e+00 -1.151889e+00 6.629208e+01 -2.282653e+00 -3.548965e+00 8.298525e-01 -1.508257e+00 -1.212288e+00 1.400322e-01 9.756034e-02 1.098040e+00 9.110379e-01 -5.617756e-01 -6.719185e-01 5.586086e-01 1.092097e+00 -3.825891e-03 -5.848547e-01 8.475627e-02 -3.548792e-01 1.830330e-01 -3.597024e-01 -3.803349e-01 -1.092811e-01 -2.358447e-01 3.776263e-01 2.742558e-02 -1.560612e-01 7.621499e-01
<VARIANCE> 39
 2.898430e+01 7.525619e+01 5.198187e+01 2.321155e+01 2.957748e+01 2.046124e+01 2.949051e+01 3.630777e+01 3.296151e+01 2.166864e+01 1.812334e+01 1.422643e+01 4.476237e+01 3.418455e+00 6.085444e+00 5.818211e+00 3.371757e+00 3.018604e+00 2.566131e+00 3.344921e+00 2.413931e+00 2.788063e+00 2.272845e+00 1.475969e+00 1.075618e+00 4.408543e+00 3.650515e-01 1.410406e+00 1.022918e+00 4.752729e-01 5.864404e-01 5.553363e-01 5.342488e-01 5.898560e-01 4.890708e-01 5.030490e-01 3.900075e-01 2.230351e-01 5.235602e-01
<GCONST> 1.215534e+02
<STATE> 3
<MEAN> 39
 -9.363713e+00 -3.566343e+01 2.585708e+01 -1.046086e+01 2.563483e+00 4.958129e+00 -1.584373e+01 8.831731e+00 -1.022115e+01 2.383590e+00 1.386487e-01 -4.999307e-01 7.605046e+01 3.037044e-01 5.574959e-02 -2.186121e-04 -3.093543e-01 1.788443e-01 4.248287e-02 -2.963806e-01 -5.935419e-01 5.866279e-02 7.006628e-01 2.649468e-01 -3.729505e-02 5.628809e-01 9.912389e-01 1.268571e+00 -4.758231e-01 5.861326e-01 2.103568e-01 -1.324410e-02 1.514681e-01 -2.126206e-01 -2.304877e-01 -1.310092e-01 1.163448e-01 -1.430713e-01 -4.880330e-01
<VARIANCE> 39
 1.024710e+01 1.088590e+01 2.107455e+01 2.532320e+01 2.426726e+01 2.539068e+01 3.151401e+01 3.117188e+01 2.609316e+01 2.262047e+01 1.562481e+01 1.539397e+01 1.484388e+01 4.272706e+00 6.057191e+00 2.993291e+00 3.323133e+00 2.610907e+00 1.882879e+00 2.992836e+00 3.165066e+00 2.596083e+00 2.800114e+00 1.993649e+00 1.250495e+00 2.162541e+00 3.251340e-01 2.985564e-01 5.518034e-01 5.032068e-01 5.265485e-01 3.831449e-01 4.853798e-01 5.598028e-01 5.063096e-01 4.807015e-01 3.555457e-01 2.576929e-01 1.740336e-01
<GCONST> 1.115369e+02
<STATE> 4
<MEAN> 39
 2.076541e+00 -2.411717e+01 2.237520e+01 -6.004978e+00 5.641605e+00 5.378607e+00 -1.569432e+01 4.429771e+00 -1.227860e+01 3.962327e+00 1.815636e+00 -2.400634e+00 7.486501e+01 4.401694e+00 3.796568e+00 -2.815065e+00 1.681367e+00 1.641791e+00 -1.303667e+00 -5.129225e-01 -4.769812e-01 -1.476892e+00 -2.652421e-01 4.327914e-01 -9.197575e-01 -3.299767e-01 -1.582513e-01 -4.807603e-01 -5.964347e-01 -2.079597e-01 1.183718e-01 -7.015941e-01 -3.070412e-01 4.919688e-01 -2.076665e-01 -2.763074e-01 2.688088e-02 1.044365e-01 2.329664e-01
<VARIANCE> 39
 4.481992e+01 3.342860e+01 5.504203e+01 3.310870e+01 2.402636e+01 2.459046e+01 4.467467e+01 3.159674e+01 3.248701e+01 3.583831e+01 2.853672e+01 1.698692e+01 2.622142e+01 2.286896e+00 2.302939e+00 4.034380e+00 2.531429e+00 2.969747e+00 3.504999e+00 3.793321e+00 2.973341e+00 4.515716e+00 3.149312e+00 2.333988e+00 1.608158e+00 1.586080e+00 7.203519e-01 5.546592e-01 6.720734e-01 4.427269e-01 4.821945e-01 4.435915e-01 5.175687e-01 6.068923e-01 5.877285e-01 4.119637e-01 3.555453e-01 3.545797e-01 1.541934e-01
<GCONST> 1.196418e+02
<TRANSP> 5
 0.000000e+00 1.000000e+00 0.000000e+00 0.000000e+00 0.000000e+00
 0.000000e+00 7.289239e-01 2.710761e-01 0.000000e+00 0.000000e+00
 0.000000e+00 0.000000e+00 8.198308e-01 1.801692e-01 0.000000e+00
 0.000000e+00 0.000000e+00 0.000000e+00 6.010544e-01 3.989456e-01
 0.000000e+00 0.000000e+00 0.000000e+00 0.000000e+00 0.000000e+00
<ENDHMM>
~h "dj"
<BEGINHMM>
<NUMSTATES> 5
<STATE> 2
<MEAN> 39
 7.277236e+00 -1.098200e+01 2.020070e+01 4.146326e+00 1.258775e+01 1.846823e-01 -1.536905e+01 6.442644e+00 -1.471809e+01 1.848148e+00 1.020197e+00 -1.007344e+00 6.761598e+01 -1.002025e+00 3.025659e-02 1.903377e+00 -7.029411e-01 -8.041987e-01 8.169904e-01 7.951311e-01 3.027865e-01 2.053211e-01 8.216354e-01 -2.700308e-01 -6.085015e-02 -4.539587e-01 6.275169e-02 -8.277609e-01 1.336936e-01 -3.770348e-01 -6.259605e-02 -2.733444e-01 -2.573681e-01 5.429247e-02 -5.601383e-01 -1.018116e-01 -2.024786e-01 -4.087883e-01 6.734368e-01
<VARIANCE> 39
 1.282844e+01 4.125965e+01 4.538694e+01 3.340858e+01 2.605804e+01 3.406736e+01 3.001579e+01 2.607363e+01 3.679710e+01 1.782768e+01 1.162736e+01 9.138201e+00 2.125786e+01 5.288754e-01 8.461897e+00 2.967324e+00 4.892518e+00 2.256868e+00 2.410297e+00 3.275161e+00 3.741084e+00 5.766452e+00 2.715408e+00 1.509563e+00 1.325923e+00 3.834680e+00 1.229037e-01 1.438048e+00 6.326014e-01 8.105212e-01 7.247572e-01 4.966913e-01 1.055951e+00 7.221226e-01 1.124411e+00 3.237601e-01 2.485524e-01 2.134096e-01 6.053949e-01
<GCONST> 1.179524e+02
<STATE> 3
<MEAN> 39
 4.450202e+00 -1.814732e+01 2.810134e+01 8.298512e-01 1.059573e+01 1.076443e+00 -1.587318e+01 7.316473e+00 -1.746474e+01 3.529808e+00 -1.911696e+00 -4.232583e+00 7.170965e+01 3.789555e-01 -1.363509e+00 2.691369e-01 9.625494e-01 8.197886e-01 -1.055146e+00 -1.964918e+00 -8.313317e-01 -7.592881e-01 -3.556958e-01 -6.169573e-01 -1.001842e+00 1.086839e+00 4.381433e-01 6.475539e-01 -1.065052e+00 4.387201e-01 1.350332e-01 -5.137115e-01 -3.120990e-01 -1.601310e-01 1.753484e-01 -4.043015e-01 3.451541e-01 1.860391e-01 -1.631366e-01
<VARIANCE> 39
 2.027089e+01 1.720624e+01 7.799549e+01 4.431810e+01 3.850728e+01 3.561369e+01 4.615221e+01 3.100246e+01 2.029679e+01 2.112403e+01 2.091475e+01 1.674227e+01 1.997526e+01 1.061004e+00 3.029673e+00 3.887387e+00 6.552078e+00 3.167350e+00 3.502391e+00 3.515615e+00 1.563025e+00 4.828048e+00 1.979847e+00 1.478898e+00 6.754856e-01 2.063016e+00 1.358864e-01 5.117551e-01 4.169368e-01 1.066829e+00 7.036596e-01 4.906434e-01 1.128598e+00 5.501807e-01 5.049207e-01 5.466555e-01 5.690049e-01 2.962752e-01 2.638502e-01
<GCONST> 1.171630e+02
<STATE> 4
<MEAN> 39
 8.701188e+00 -1.929477e+01 1.995066e+01 2.412539e+00 1.485529e+01 -4.237823e+00 -2.149713e+01 4.414410e+00 -2.091514e+01 2.095922e+00 -6.884094e-01 -5.437465e+00 7.485053e+01 2.478224e-01 1.468957e-02 -7.328924e-01 -1.455885e-01 -1.164014e-01 -3.532183e-01 -3.792703e-01 -1.836170e-01 -2.765830e-01 -1.342115e-01 7.780246e-01 -6.554871e-02 3.058388e-01 -1.275957e-01 2.155138e-01 -1.210670e-02 -3.834911e-01 -3.732766e-01 3.734366e-01 5.486502e-01 2.275822e-01 2.220695e-01 -2.582899e-02 1.140548e-01 3.163957e-01 -1.888051e-01
<VARIANCE> 39
 2.204695e+01 1.203843e+01 1.285959e+02 3.551219e+01 3.071359e+01 3.223636e+01 2.267127e+01 3.468362e+01 3.914178e+01 2.983480e+01 2.251239e+01 1.174718e+01 1.757823e+01 7.302164e-01 6.680326e-01 3.351494e+00 2.455010e+00 1.771838e+00 2.243904e+00 2.108620e+00 1.383568e+00 1.453523e+00 1.453132e+00 2.204289e+00 1.445492e+00 4.184596e-01 9.283745e-02 1.872746e-01 4.232903e-01 3.764025e-01 3.941206e-01 3.876531e-01 6.043420e-01 2.333385e-01 3.503670e-01 2.692593e-01 2.807681e-01 1.653915e-01 1.676267e-01
<GCONST> 1.026904e+02
<TRANSP> 5
 0.000000e+00 1.000000e+00 0.000000e+00 0.000000e+00 0.000000e+00
 0.000000e+00 7.272083e-01 2.727918e-01 0.000000e+00 0.000000e+00
 0.000000e+00 0.000000e+00 6.023139e-01 3.976861e-01 0.000000e+00
 0.000000e+00 0.000000e+00 0.000000e+00 6.393784e-01 3.606216e-01
 0.000000e+00 0.000000e+00 0.000000e+00 0.000000e+00 0.000000e+00
<ENDHMM>
~h "ee"
<BEGINHMM>
<NUMSTATES> 5
<STATE> 2
<MEAN> 39
