~o
<STREAMINFO> 1 39
<VECSIZE> 39<NULLD><MFCC_D_A_0><DIAGC>
~h "a"
<BEGINHMM>
<NUMSTATES> 5
<STATE> 2
<MEAN> 39
 3.881194e-01 -1.420192e+01 1.365077e+01 -8.344281e+00 3.965126e+00 4.539112e+00 -9.528861e+00 9.206600e+00 -1.085651e+01 3.751842e+00 1.755014e+00 -2.355419e+00 6.401662e+01 -7.120694e-03 2.896593e-03 -1.259231e-03 -4.524067e-03 -5.489195e-03 -6.099512e-04 7.118806e-03 9.407972e-03 7.069208e-03 5.097293e-03 1.362968e-03 6.098705e-04 -8.235996e-03 -5.051563e-04 4.287045e-04 -4.364418e-04 -1.803166e-04 2.747515e-05 8.304448e-05 -2.292655e-04 4.014225e-04 1.029035e-03 2.232776e-04 3.323131e-04 5.283423e-04 -8.553330e-04
<VARIANCE> 39
 8.712579e+01 3.597896e+01 7.027339e+01 4.430356e+01 3.710931e+01 4.975760e+01 4.489267e+01 3.726159e+01 6.093034e+01 3.135748e+01 2.018302e+01 2.110495e+01 1.064392e+02 2.421621e+00 2.114318e+00 3.599279e+00 2.574652e+00 2.073731e+00 3.333180e+00 2.395241e+00 2.355648e+00 2.284090e+00 2.213873e+00 1.526451e+00 1.726447e+00 1.606611e+00 3.307255e-01 3.743766e-01 5.568058e-01 4.491909e-01 3.529022e-01 5.971755e-01 4.182432e-01 4.403627e-01 4.261739e-01 4.154164e-01 2.918613e-01 3.339868e-01 2.537360e-01
<GCONST> 1.194236e+02
<STATE> 3
<MEAN> 39
 3.615603e-01 -1.418545e+01 1.364167e+01 -8.354632e+00 3.947944e+00 4.537539e+00 -9.504524e+00 9.240934e+00 -1.082663e+01 3.768892e+00 1.763243e+00 -2.351555e+00 6.397738e+01 -8.626210e-03 4.080921e-03 -2.431962e-03 -4.557115e-03 -5.043433e-03 -3.526045e-04 6.287142e-03 1.019885e-02 9.837311e-03 5.466982e-03 2.082742e-03 1.809430e-03 -1.089944e-02 -1.717344e-04 4.066305e-04 -5.536260e-04 -8.738492e-06 1.053186e-04 1.066239e-04 -2.741017e-04 -1.377493e-05 6.530121e-04 4.773207e-05 1.848598e-04 2.072269e-04 -6.852983e-04
<VARIANCE> 39
 8.695013e+01 3.591527e+01 7.010120e+01 4.440398e+01 3.689885e+01 4.978416e+01 4.464957e+01 3.716990e+01 6.092748e+01 3.124212e+01 2.011133e+01 2.104004e+01 1.063139e+02 2.416817e+00 2.110566e+00 3.580297e+00 2.568142e+00 2.068577e+00 3.319070e+00 2.383978e+00 2.336995e+00 2.276306e+00 2.204328e+00 1.524469e+00 1.719891e+00 1.604498e+00 3.296500e-01 3.735875e-01 5.539074e-01 4.462230e-01 3.524142e-01 5.941063e-01 4.157811e-01 4.362097e-01 4.247157e-01 4.135742e-01 2.919278e-01 3.328579e-01 2.532061e-01
<GCONST> 1.192977e+02
<STATE> 4
<MEAN> 39
 -1.710772e-01 -1.398612e+01 1.343758e+01 -8.286224e+00 3.862065e+00 4.721264e+00 -9.231034e+00 9.517776e+00 -1.028990e+01 3.928559e+00 1.892372e+00 -2.254075e+00 6.325133e+01 -7.872494e-03 5.013325e-03 -5.830428e-03 -2.125620e-03 -3.613664e-03 -7.038949e-04 5.290793e-03 9.058165e-03 1.101270e-02 5.266720e-03 2.092085e-03 1.410541e-03 -1.334970e-02 1.618228e-04 1.805271e-04 -5.866342e-04 1.750632e-04 1.384684e-04 5.111806e-05 -1.967251e-04 -3.444391e-04 7.342415e-05 -9.023496e-05 -1.138649e-04 -1.481749e-04 -2.901606e-04
<VARIANCE> 39
 8.341231e+01 3.374570e+01 6.470329e+01 4.250189e+01 3.465535e+01 4.849900e+01 4.304093e+01 3.524977e+01 5.978926e+01 2.904730e+01 1.901593e+01 1.986949e+01 1.057895e+02 2.188004e+00 1.922630e+00 3.292310e+00 2.400931e+00 1.918343e+00 3.095913e+00 2.230361e+00 2.160081e+00 2.156354e+00 2.075554e+00 1.445093e+00 1.612812e+00 1.502458e+00 2.958342e-01 3.406776e-01 5.118023e-01 4.161328e-01 3.279312e-01 5.497555e-01 3.894817e-01 4.027943e-01 4.008768e-01 3.901609e-01 2.775002e-01 3.114542e-01 2.335699e-01
<GCONST> 1.167915e+02
<TRANSP> 5
 0.000000e+00 1.000000e+00 0.000000e+00 0.000000e+00 0.000000e+00
 0.000000e+00 7.158120e-01 2.841881e-01 0.000000e+00 0.000000e+00
 0.000000e+00 0.000000e+00 7.158124e-01 2.841876e-01 0.000000e+00
 0.000000e+00 0.000000e+00 0.000000e+00 8.552395e-01 1.447605e-01
 0.000000e+00 0.000000e+00 0.000000e+00 0.000000e+00 0.000000e+00
<ENDHMM>
~h "b"
<BEGINHMM>
<NUMSTATES> 5
<STATE> 2
<MEAN> 39
 8.697574e-01 -1.429420e+01 1.403967e+01 -8.140010e+00 4.069127e+00 4.269588e+00 -9.617422e+00 9.166931e+00 -1.142648e+01 3.603734e+00 1.713254e+00 -2.188969e+00 6.452628e+01 5.482053e-03 6.202759e-03 -7.220988e-03 9.154417e-03 8.113542e-03 3.190839e-03 -5.436115e-03 1.931981e-03 1.164083e-02 -1.388308e-03 -5.645696e-03 -2.411630e-03 -7.177179e-03 4.816181e-04 7.008343e-04 -1.262833e-03 4.927047e-04 7.754916e-04 -3.901969e-04 -1.553925e-04 9.544362e-04 9.845492e-04 -5.808782e-04 -8.825277e-04 -6.686616e-04 -5.753570e-04
<VARIANCE> 39
 8.956785e+01 3.854484e+01 7.268533e+01 5.073538e+01 3.985029e+01 5.325012e+01 4.486001e+01 3.846556e+01 6.502886e+01 3.408771e+01 2.138826e+01 2.169456e+01 1.022055e+02 2.561085e+00 2.502321e+00 3.794021e+00 2.719229e+00 2.309294e+00 3.739416e+00 2.444421e+00 2.397888e+00 2.647881e+00 2.282559e+00 1.660553e+00 1.682409e+00 1.847214e+00 3.450139e-01 4.416650e-01 5.874714e-01 4.777684e-01 4.084492e-01 6.824527e-01 4.309198e-01 4.397204e-01 4.993237e-01 4.215303e-01 3.182761e-01 3.213664e-01 2.969438e-01
<GCONST> 1.220313e+02
<STATE> 3
<MEAN> 39
 8.955093e-01 -1.427472e+01 1.401109e+01 -8.113863e+00 4.103593e+00 4.278244e+00 -9.636653e+00 9.179914e+00 -1.138514e+01 3.594609e+00 1.684005e+00 -2.203341e+00 6.451202e+01 6.512991e-03 7.108678e-03 -1.083660e-02 8.454192e-03 1.022574e-02 2.134502e-03 -7.155510e-03 2.300991e-03 1.260158e-02 -2.503530e-03 -8.525837e-03 -4.851140e-03 -7.966698e-03 2.615875e-04 2.492389e-04 -9.067659e-04 -1.972078e-04 5.233621e-04 -2.458217e-04 -4.506897e-04 -4.087322e-05 1.432485e-04 -3.588327e-04 -7.388843e-04 -6.386911e-04 -1.702907e-04
<VARIANCE> 39
 8.921625e+01 3.873088e+01 7.213313e+01 5.047105e+01 4.006578e+01 5.296800e+01 4.502851e+01 3.830697e+01 6.494255e+01 3.385942e+01 2.150073e+01 2.172458e+01 1.019078e+02 2.547930e+00 2.500831e+00 3.789850e+00 2.693679e+00 2.314327e+00 3.740847e+00 2.466729e+00 2.378654e+00 2.670110e+00 2.291652e+00 1.664467e+00 1.684126e+00 1.850827e+00 3.434759e-01 4.411608e-01 5.896771e-01 4.731578e-01 4.094120e-01 6.849042e-01 4.355592e-01 4.371977e-01 5.043971e-01 4.243476e-01 3.186668e-01 3.212816e-01 2.974281e-01
<GCONST> 1.220383e+02
<STATE> 4
<MEAN> 39
 6.228905e-01 -1.415352e+01 1.401215e+01 -8.042008e+00 4.148218e+00 4.420334e+00 -9.571580e+00 9.299707e+00 -1.106069e+01 3.633065e+00 1.667037e+00 -2.200242e+00 6.420384e+01 1.247364e-02 5.528989e-03 -1.274059e-02 5.222248e-03 1.197663e-02 -1.698537e-03 -1.081314e-02 -6.639047e-04 6.158306e-03 -4.789348e-03 -1.002101e-02 -5.408080e-03 -4.318080e-05 4.338389e-04 1.172061e-04 -5.986039e-04 -1.720281e-04 2.089234e-04 -4.579141e-04 -4.676881e-04 -4.281634e-04 -5.713871e-04 -2.857884e-04 -1.944998e-04 -1.888225e-04 2.004194e-04
<VARIANCE> 39
 8.759908e+01 3.834995e+01 6.899068e+01 4.943895e+01 3.906134e+01 5.226103e+01 4.390057e+01 3.698326e+01 6.388770e+01 3.271329e+01 2.104477e+01 2.105051e+01 1.031635e+02 2.429198e+00 2.409251e+00 3.651975e+00 2.642992e+00 2.256445e+00 3.649318e+00 2.416642e+00 2.301961e+00 2.664439e+00 2.273630e+00 1.633060e+00 1.644223e+00 1.852755e+00 3.247116e-01 4.263762e-01 5.730405e-01 4.682204e-01 3.998686e-01 6.663991e-01 4.282901e-01 4.266323e-01 5.046346e-01 4.230623e-01 3.124739e-01 3.139688e-01 2.957355e-01
<GCONST> 1.211850e+02
<TRANSP> 5
 0.000000e+00 1.000000e+00 0.000000e+00 0.000000e+00 0.000000e+00
 0.000000e+00 7.179367e-01 2.820634e-01 0.000000e+00 0.000000e+00
 0.000000e+00 0.000000e+00 7.179369e-01 2.820631e-01 0.000000e+00
 0.000000e+00 0.000000e+00 0.000000e+00 8.481688e-01 1.518312e-01
 0.000000e+00 0.000000e+00 0.000000e+00 0.000000e+00 0.000000e+00
<ENDHMM>
~h "c"
<BEGINHMM>
<NUMSTATES> 5
<STATE> 2
<MEAN> 39
 -6.433504e-01 -1.416036e+01 1.508763e+01 -8.099030e+00 4.137342e+00 4.578784e+00 -9.918934e+00 8.809408e+00 -1.092025e+01 4.207098e+00 1.660160e+00 -2.347003e+00 6.361851e+01 -1.415738e-02 1.199685e-03 1.139578e-02 3.083286e-03 -1.209585e-04 1.057685e-02 6.434034e-03 -4.529221e-03 -3.411672e-03 3.826815e-03 4.433345e-04 -4.637522e-03 -1.435032e-02 2.323078e-04 -2.409324e-04 3.886451e-04 6.897499e-05 1.965548e-05 1.297118e-04 -1.066443e-04 5.545499e-04 2.728395e-04 -4.572886e-04 -1.026446e-04 -5.428051e-04 4.649864e-04
<VARIANCE> 39
 8.492224e+01 3.447113e+01 8.196500e+01 5.207943e+01 3.923227e+01 5.191413e+01 4.407484e+01 3.881896e+01 6.320414e+01 3.008273e+01 1.963653e+01 1.838269e+01 1.019540e+02 2.969958e+00 2.116501e+00 4.068976e+00 2.908317e+00 2.085571e+00 3.523622e+00 2.228652e+00 2.339352e+00 2.235236e+00 2.201271e+00 1.644481e+00 1.606050e+00 1.449256e+00 4.025454e-01 3.729838e-01 6.202852e-01 4.719507e-01 3.637338e-01 6.199339e-01 3.948279e-01 4.366059e-01 4.254594e-01 3.991134e-01 3.192884e-01 3.168601e-01 2.324666e-01
<GCONST> 1.201412e+02
<STATE> 3
<MEAN> 39
 -6.812198e-01 -1.416587e+01 1.513332e+01 -8.096461e+00 4.141438e+00 4.616572e+00 -9.898594e+00 8.791247e+00 -1.094228e+01 4.221741e+00 1.659246e+00 -2.360044e+00 6.359090e+01 -1.318541e-02 2.433820e-04 1.222134e-02 3.426092e-03 -2.767570e-04 9.968227e-03 5.284499e-03 -3.250084e-03 -2.992786e-03 2.012362e-03 -4.643734e-04 -6.075899e-03 -1.274515e-02 4.564645e-04 -2.566127e-04 1.626142e-05 1.533403e-04 -6.699602e-05 -2.541207e-04 -3.687422e-04 4.846393e-04 2.747758e-04 -6.676469e-04 -3.438198e-04 -5.091376e-04 5.282497e-04
<VARIANCE> 39
 8.460988e+01 3.467357e+01 8.158139e+01 5.217984e+01 3.931747e+01 5.128082e+01 4.368042e+01 3.861418e+01 6.387465e+01 2.993338e+01 1.973534e+01 1.831845e+01 1.015059e+02 2.993102e+00 2.141178e+00 4.044116e+00 2.925622e+00 2.081219e+00 3.525026e+00 2.230455e+00 2.348145e+00 2.253324e+00 2.203971e+00 1.654657e+00 1.605517e+00 1.455149e+00 4.059339e-01 3.769490e-01 6.190265e-01 4.759639e-01 3.623008e-01 6.231096e-01 3.967549e-01 4.390402e-01 4.301512e-01 4.000821e-01 3.213271e-01 3.174945e-01 2.331078e-01
<GCONST> 1.202216e+02
<STATE> 4
<MEAN> 39
 -1.643967e+00 -1.408634e+01 1.478938e+01 -8.202985e+00 3.455226e+00 4.744981e+00 -9.328609e+00 9.091267e+00 -1.030761e+01 4.309798e+00 1.818452e+00 -2.357219e+00 6.251318e+01 -4.179305e-03 -4.771268e-03 9.934887e-03 -5.816072e-04 -1.540168e-03 6.671152e-03 2.591016e-03 -6.177723e-03 -8.696610e-03 -2.416576e-04 -2.748542e-04 -4.127769e-03 4.478013e-04 4.545078e-04 -1.482046e-05 -3.773094e-04 1.955985e-04 -1.467948e-04 -2.349365e-04 -1.260114e-04 3.628426e-04 3.801722e-04 -4.613209e-04 -1.517662e-04 -3.460114e-04 2.102298e-04
<VARIANCE> 39
 8.031364e+01 3.318010e+01 7.365936e+01 4.768507e+01 3.881212e+01 5.052502e+01 3.894082e+01 3.464480e+01 6.018420e+01 2.647658e+01 1.829787e+01 1.673546e+01 9.959187e+01 2.749821e+00 1.933912e+00 3.654591e+00 2.654003e+00 1.869154e+00 3.177561e+00 1.987957e+00 2.081231e+00 2.199880e+00 2.031489e+00 1.528051e+00 1.431789e+00 1.326964e+00 3.656384e-01 3.348980e-01 5.605168e-01 4.369220e-01 3.268424e-01 5.475734e-01 3.588789e-01 3.919545e-01 4.159817e-01 3.711131e-01 2.968161e-01 2.829109e-01 2.013258e-01
<GCONST> 1.167871e+02
<TRANSP> 5
 0.000000e+00 1.000000e+00 0.000000e+00 0.000000e+00 0.000000e+00
 0.000000e+00 7.270964e-01 2.729036e-01 0.000000e+00 0.000000e+00
 0.000000e+00 0.000000e+00 7.270963e-01 2.729037e-01 0.000000e+00
 0.000000e+00 0.000000e+00 0.000000e+00 8.790962e-01 1.209039e-01
 0.000000e+00 0.000000e+00 0.000000e+00 0.000000e+00 0.000000e+00
<ENDHMM>
~h "d"
<BEGINHMM>
<NUMSTATES> 5
<STATE> 2
<MEAN> 39
 1.148189e-01 -1.390526e+01 1.377356e+01 -7.982166e+00 4.080922e+00 4.839207e+00 -1.007778e+01 8.670482e+00 -1.097180e+01 3.661593e+00 2.242471e+00 -2.303178e+00 6.327890e+01 -1.822858e-02 1.322757e-02 -2.257467e-03 -5.200126e-03 -4.137547e-03 9.267636e-03 8.529915e-03 1.045440e-02 2.081681e-02 8.242187e-03 4.322418e-03 1.919863e-03 -2.894592e-02 8.425987e-04 6.810756e-04 -1.472327e-03 3.523604e-04 6.764718e-04 -1.029868e-03 -1.160933e-04 1.111355e-03 4.031034e-04 3.067013e-04 -5.487871e-04 -1.397056e-03 -2.011477e-04
<VARIANCE> 39
 8.222984e+01 3.408949e+01 6.260857e+01 3.767662e+01 3.338615e+01 4.377398e+01 4.524340e+01 3.776337e+01 6.344674e+01 3.047771e+01 1.953625e+01 1.963949e+01 9.574240e+01 2.283616e+00 2.217204e+00 3.339141e+00 2.442765e+00 1.982413e+00 3.113829e+00 2.239985e+00 2.326193e+00 2.350594e+00 2.107308e+00 1.563526e+00 1.689421e+00 1.593413e+00 3.110463e-01 4.043409e-01 5.350831e-01 4.355275e-01 3.404739e-01 5.742285e-01 3.972311e-01 4.317484e-01 4.513747e-01 4.000151e-01 2.990465e-01 3.353835e-01 2.567794e-01
<GCONST> 1.181239e+02
<STATE> 3
<MEAN> 39
 4.623844e-02 -1.385757e+01 1.374862e+01 -7.987687e+00 4.068864e+00 4.868813e+00 -1.004118e+01 8.710836e+00 -1.089346e+01 3.692430e+00 2.260875e+00 -2.298146e+00 6.316450e+01 -1.532254e-02 1.502123e-02 -7.221560e-03 -3.553727e-03 -2.995867e-03 7.354159e-03 8.259360e-03 1.165015e-02 2.214888e-02 8.396771e-03 2.647501e-03 -1.334639e-03 -2.940213e-02 8.460645e-04 3.855151e-04 -1.592788e-03 6.364115e-04 3.022301e-05 -3.776334e-04 2.632251e-04 2.079677e-07 4.352813e-04 4.106766e-04 -3.348224e-04 -8.903939e-04 -1.855566e-04
<VARIANCE> 39
 8.178494e+01 3.347733e+01 6.187446e+01 3.776369e+01 3.299987e+01 4.332062e+01 4.545177e+01 3.782119e+01 6.301068e+01 3.033442e+01 1.954829e+01 1.959236e+01 9.514455e+01 2.259324e+00 2.180805e+00 3.288178e+00 2.462682e+00 1.969704e+00 3.086416e+00 2.232049e+00 2.312411e+00 2.346444e+00 2.097891e+00 1.564443e+00 1.678330e+00 1.576794e+00 3.074815e-01 3.982995e-01 5.272214e-01 4.401453e-01 3.386412e-01 5.693602e-01 3.953621e-01 4.280139e-01 4.506150e-01 3.978505e-01 2.993353e-01 3.337667e-01 2.539598e-01
<GCONST> 1.178931e+02
<STATE> 4
<MEAN> 39
 -5.195346e-01 -1.361141e+01 1.351806e+01 -7.837011e+00 4.031560e+00 5.076622e+00 -9.735961e+00 9.022792e+00 -1.025272e+01 3.887094e+00 2.406851e+00 -2.154806e+00 6.233900e+01 -1.389133e-02 1.461128e-02 -1.112713e-02 5.561075e-04 -2.907851e-03 4.778277e-03 8.004121e-03 1.102514e-02 2.270301e-02 7.053645e-03 3.522729e-03 -2.740052e-04 -2.920814e-02 5.045635e-04 4.987267e-05 -8.489377e-04 3.748013e-04 -2.081957e-04 -1.677906e-04 1.986623e-04 -1.719039e-04 3.419589e-04 3.081759e-04 2.077621e-04 7.387452e-05 7.035129e-05
<VARIANCE> 39
 7.806951e+01 3.028968e+01 5.649653e+01 3.596092e+01 3.160656e+01 4.140942e+01 4.391878e+01 3.574054e+01 6.033743e+01 2.795301e+01 1.859381e+01 1.851298e+01 9.250490e+01 2.033753e+00 1.956544e+00 3.007718e+00 2.286374e+00 1.814633e+00 2.904553e+00 2.057911e+00 2.183521e+00 2.234514e+00 1.976914e+00 1.483104e+00 1.568028e+00 1.450112e+00 2.743201e-01 3.553513e-01 4.849346e-01 4.092481e-01 3.124671e-01 5.305830e-01 3.624611e-01 4.060819e-01 4.304201e-01 3.751260e-01 2.850408e-01 3.105800e-01 2.298270e-01
<GCONST> 1.151952e+02
<TRANSP> 5
 0.000000e+00 1.000000e+00 0.000000e+00 0.000000e+00 0.000000e+00
 0.000000e+00 7.119386e-01 2.880614e-01 0.000000e+00 0.000000e+00
 0.000000e+00 0.000000e+00 7.119383e-01 2.880617e-01 0.000000e+00
 0.000000e+00 0.000000e+00 0.000000e+00 8.470153e-01 1.529846e-01
 0.000000e+00 0.000000e+00 0.000000e+00 0.000000e+00 0.000000e+00
<ENDHMM>
~h "e"
<BEGINHMM>
<NUMSTATES> 5
<STATE> 2
<MEAN> 39
 -3.487464e-01 -1.384638e+01 1.385836e+01 -7.705847e+00 4.135854e+00 4.753332e+00 -9.724037e+00 9.252408e+00 -1.021736e+01 3.945547e+00 2.095261e+00 -2.281010e+00 6.292181e+01 -5.137455e-03 8.204330e-04 5.561897e-04 -1.785979e-03 -2.640967e-03 3.344035e-03 4.416639e-03 1.639246e-04 1.358606e-03 2.456792e-03 7.150570e-04 6.419756e-04 -5.250500e-03 1.735996e-04 -1.461998e-04 1.754223e-04 -1.564975e-04 -6.823455e-05 1.206899e-04 9.040588e-05 5.812126e-06 -1.829198e-04 -1.702256e-04 -1.627512e-04 -1.085539e-04 3.300626e-04
<VARIANCE> 39
 8.108429e+01 3.340597e+01 6.147604e+01 4.062029e+01 3.531758e+01 4.486737e+01 4.448222e+01 3.590732e+01 5.955676e+01 2.839846e+01 1.853245e+01 1.841327e+01 1.013163e+02 2.161247e+00 2.012029e+00 3.187545e+00 2.451273e+00 1.868898e+00 3.047378e+00 2.190983e+00 2.222609e+00 2.203074e+00 2.012110e+00 1.502853e+00 1.586433e+00 1.473788e+00 2.929862e-01 3.535237e-01 5.072709e-01 4.375714e-01 3.238201e-01 5.434709e-01 3.871974e-01 4.211153e-01 4.157204e-01 3.791499e-01 2.884226e-01 3.137232e-01 2.291057e-01
<GCONST> 1.165793e+02
<STATE> 3
<MEAN> 39
 -3.632495e-01 -1.384379e+01 1.386088e+01 -7.711916e+00 4.124937e+00 4.762756e+00 -9.710875e+00 9.253013e+00 -1.021485e+01 3.950432e+00 2.097358e+00 -2.278787e+00 6.290655e+01 -4.454401e-03 3.627719e-04 1.060846e-03 -2.049741e-03 -2.904136e-03 3.590177e-03 4.711260e-03 8.221257e-05 6.627064e-04 1.761149e-03 2.772182e-04 4.425875e-04 -4.145197e-03 3.420651e-04 -1.313488e-04 7.673288e-05 -1.007989e-04 4.668114e-05 3.306847e-05 -3.358956e-05 -9.575803e-05 -2.816559e-04 -1.983431e-04 -5.198428e-05 4.006935e-05 4.582147e-04
<VARIANCE> 39
 8.100848e+01 3.342572e+01 6.128824e+01 4.057650e+01 3.510844e+01 4.479734e+01 4.441044e+01 3.586273e+01 5.964457e+01 2.838972e+01 1.851942e+01 1.838770e+01 1.013115e+02 2.162426e+00 2.009401e+00 3.177408e+00 2.452353e+00 1.864667e+00 3.045403e+00 2.188607e+00 2.217565e+00 2.200190e+00 2.015169e+00 1.502701e+00 1.583661e+00 1.473709e+00 2.931877e-01 3.531776e-01 5.059431e-01 4.370592e-01 3.229308e-01 5.427902e-01 3.867103e-01 4.200467e-01 4.148042e-01 3.800977e-01 2.883238e-01 3.131381e-01 2.290531e-01
<GCONST> 1.165379e+02
<STATE> 4
<MEAN> 39
 -8.521823e-01 -1.367205e+01 1.376083e+01 -7.630471e+00 4.035381e+00 4.973719e+00 -9.419551e+00 9.512393e+00 -9.716820e+00 4.041790e+00 2.153875e+00 -2.212292e+00 6.228739e+01 -3.877601e-03 4.414104e-04 1.570979e-03 -8.894192e-04 -3.096057e-03 3.329326e-03 4.270795e-03 -1.535619e-04 1.713798e-04 -5.623474e-05 1.121534e-04 8.572041e-04 -3.899201e-03 3.254782e-04 -9.442209e-05 -8.821241e-05 -4.585299e-05 1.150517e-04 -8.309066e-05 -7.376000e-05 -1.366876e-04 -2.820583e-04 -1.073728e-04 9.464636e-05 1.871542e-04 3.898311e-04
<VARIANCE> 39
 7.734045e+01 3.164492e+01 5.642653e+01 3.878681e+01 3.328973e+01 4.393660e+01 4.281050e+01 3.420580e+01 5.781875e+01 2.660376e+01 1.773718e+01 1.731613e+01 1.001118e+02 1.984467e+00 1.822009e+00 2.931435e+00 2.298786e+00 1.752475e+00 2.864938e+00 2.047523e+00 2.080611e+00 2.077863e+00 1.909728e+00 1.425210e+00 1.476327e+00 1.380281e+00 2.665419e-01 3.210621e-01 4.704782e-01 4.086304e-01 3.016809e-01 5.039854e-01 3.624757e-01 3.932390e-01 3.916201e-01 3.607262e-01 2.740363e-01 2.905262e-01 2.109821e-01
<GCONST> 1.141379e+02
<TRANSP> 5
 0.000000e+00 1.000000e+00 0.000000e+00 0.000000e+00 0.000000e+00
 0.000000e+00 7.221285e-01 2.778715e-01 0.000000e+00 0.000000e+00
 0.000000e+00 0.000000e+00 7.221294e-01 2.778706e-01 0.000000e+00
 0.000000e+00 0.000000e+00 0.000000e+00 8.649247e-01 1.350752e-01
 0.000000e+00 0.000000e+00 0.000000e+00 0.000000e+00 0.000000e+00
<ENDHMM>
~h "f"
<BEGINHMM>
<NUMSTATES> 5
<STATE> 2
<MEAN> 39
 -1.393278e+00 -1.351958e+01 1.407551e+01 -8.029846e+00 5.008272e+00 5.144138e+00 -9.907915e+00 9.536805e+00 -9.863880e+00 4.464377e+00 2.145724e+00 -2.376057e+00 6.213321e+01 2.917926e-02 -2.894378e-03 -7.833043e-03 1.614729e-02 1.905197e-02 -2.890694e-02 -5.275180e-02 -1.479091e-02 -1.457599e-02 -2.274514e-02 -2.009075e-03 -8.786233e-03 1.594665e-02 2.021981e-03 -1.205494e-04 2.391511e-05 -4.832943e-04 1.370749e-03 6.574240e-04 1.187004e-03 9.662512e-04 -3.812450e-04 1.840445e-03 2.320283e-05 -9.016009e-04 1.814497e-03
<VARIANCE> 39
 7.453566e+01 3.589825e+01 5.799621e+01 3.904105e+01 3.539578e+01 4.552329e+01 4.738006e+01 3.193864e+01 6.018785e+01 2.461085e+01 1.623995e+01 1.851388e+01 9.678819e+01 2.317364e+00 1.911388e+00 3.303540e+00 2.267268e+00 1.887010e+00 2.803297e+00 2.236282e+00 2.147801e+00 2.029643e+00 2.000972e+00 1.342472e+00 1.585757e+00 1.241794e+00 2.994086e-01 3.257196e-01 5.319694e-01 3.899796e-01 3.238184e-01 5.082732e-01 3.930377e-01 3.994837e-01 3.912817e-01 3.933986e-01 2.523292e-01 3.103619e-01 1.881985e-01
<GCONST> 1.150459e+02
<STATE> 3
<MEAN> 39
 -1.281264e+00 -1.353357e+01 1.405604e+01 -7.979735e+00 5.078124e+00 5.055571e+00 -1.006808e+01 9.498750e+00 -9.920492e+00 4.393020e+00 2.131164e+00 -2.422300e+00 6.221138e+01 3.391867e-02 -3.118431e-03 -6.385532e-03 1.364007e-02 2.114032e-02 -2.554525e-02 -4.656469e-02 -1.012458e-02 -1.547239e-02 -1.442650e-02 -9.331101e-04 -1.273576e-02 2.105975e-02 1.699470e-03 1.034887e-04 1.563095e-04 -1.641857e-03 1.911024e-04 1.077494e-03 1.830221e-03 1.124672e-03 -4.283284e-04 3.436879e-03 1.792577e-03 4.796977e-04 1.749348e-03
<VARIANCE> 39
 7.507516e+01 3.594440e+01 5.711887e+01 3.968370e+01 3.583566e+01 4.619812e+01 4.904182e+01 3.181457e+01 6.073762e+01 2.466807e+01 1.636643e+01 1.900044e+01 9.721235e+01 2.319569e+00 1.919186e+00 3.328017e+00 2.296160e+00 1.902388e+00 2.843391e+00 2.281511e+00 2.140685e+00 2.032516e+00 2.016073e+00 1.354911e+00 1.599121e+00 1.258764e+00 3.004093e-01 3.289217e-01 5.366372e-01 3.960737e-01 3.250602e-01 5.161693e-01 4.001646e-01 3.986347e-01 3.929552e-01 3.967748e-01 2.543180e-01 3.125027e-01 1.919849e-01
<GCONST> 1.153867e+02
<STATE> 4
<MEAN> 39
 -1.192334e+00 -1.354826e+01 1.384658e+01 -7.714834e+00 5.080935e+00 5.220301e+00 -1.009204e+01 9.482172e+00 -9.605175e+00 4.216452e+00 2.155144e+00 -2.533632e+00 6.205337e+01 2.633080e-02 -3.859068e-03 -2.170866e-03 6.697879e-03 1.312236e-02 -1.374431e-02 -2.501806e-02 -5.647360e-03 -1.349873e-02 -6.134892e-03 3.072520e-03 -6.966579e-03 2.036723e-02 3.568794e-04 -5.780301e-05 9.380349e-05 -2.232605e-03 -1.758988e-03 1.279377e-04 1.375177e-03 3.708779e-04 1.395405e-04 2.214535e-03 1.758626e-03 2.465050e-03 7.555946e-04
<VARIANCE> 39
 7.654298e+01 3.950232e+01 5.217762e+01 3.851036e+01 3.645104e+01 4.791194e+01 5.120061e+01 3.229743e+01 5.674461e+01 2.350043e+01 1.652152e+01 1.869780e+01 9.424437e+01 2.204951e+00 1.864562e+00 3.158391e+00 2.365531e+00 1.924156e+00 2.849745e+00 2.207665e+00 2.077913e+00 1.910995e+00 1.895489e+00 1.371359e+00 1.559853e+00 1.132342e+00 2.781391e-01 3.124535e-01 5.160349e-01 4.099344e-01 3.148864e-01 5.064279e-01 3.848837e-01 3.809314e-01 3.640689e-01 3.706091e-01 2.547831e-01 2.999415e-01 1.704925e-01
<GCONST> 1.143735e+02
<TRANSP> 5
 0.000000e+00 1.000000e+00 0.000000e+00 0.000000e+00 0.000000e+00
 0.000000e+00 7.222748e-01 2.777252e-01 0.000000e+00 0.000000e+00
 0.000000e+00 0.000000e+00 7.222751e-01 2.777249e-01 0.000000e+00
 0.000000e+00 0.000000e+00 0.000000e+00 8.718437e-01 1.281563e-01
 0.000000e+00 0.000000e+00 0.000000e+00 0.000000e+00 0.000000e+00
<ENDHMM>
~h "g"
<BEGINHMM>
<NUMSTATES> 5
<STATE> 2
<MEAN> 39
 1.781951e+00 -1.394008e+01 1.301491e+01 -8.386116e+00 4.431068e+00 4.450188e+00 -1.078389e+01 8.331131e+00 -1.119610e+01 3.545421e+00 1.755315e+00 -2.828588e+00 6.464011e+01 -3.209561e-03 2.451167e-02 -4.242724e-03 4.801536e-03 -1.978317e-02 -6.194696e-03 1.897745e-02 2.057335e-02 3.868698e-02 6.595119e-03 8.301818e-03 2.104827e-02 -1.955874e-02 -4.506300e-04 4.224657e-04 -9.256624e-04 -1.487859e-03 -1.507741e-03 3.952087e-04 3.391521e-03 2.794060e-03 1.451308e-03 9.561738e-04 1.237321e-04 -1.968738e-05 -1.393810e-03
<VARIANCE> 39
 9.381017e+01 3.877411e+01 6.485967e+01 3.840818e+01 4.074935e+01 4.429253e+01 4.668951e+01 3.991502e+01 5.288604e+01 2.502703e+01 1.955330e+01 2.282959e+01 1.000042e+02 2.306566e+00 2.627536e+00 3.475332e+00 2.454692e+00 2.278422e+00 3.654963e+00 2.375268e+00 2.561526e+00 2.418568e+00 2.078789e+00 1.498348e+00 2.100774e+00 1.878046e+00 3.113590e-01 4.768046e-01 5.662162e-01 4.641592e-01 3.797632e-01 6.578446e-01 4.259819e-01 4.670179e-01 4.547664e-01 4.042454e-01 2.770814e-01 4.123086e-01 2.890545e-01
<GCONST> 1.205326e+02
<STATE> 3
<MEAN> 39
 1.794509e+00 -1.386781e+01 1.299077e+01 -8.391738e+00 4.359122e+00 4.426292e+00 -1.070297e+01 8.410867e+00 -1.108032e+01 3.574515e+00 1.780975e+00 -2.759693e+00 6.459905e+01 -5.495743e-03 2.428342e-02 -5.596105e-03 -1.561612e-04 -2.410489e-02 -5.094923e-03 2.713410e-02 2.842028e-02 4.176065e-02 9.103172e-03 6.026216e-03 1.765166e-02 -2.352579e-02 -2.516957e-04 -4.366681e-04 -9.583488e-04 -2.058216e-03 -1.346530e-03 3.102986e-04 2.418139e-03 1.948137e-03 2.176074e-04 7.733451e-04 -9.170258e-04 -1.145427e-03 -6.298065e-04
<VARIANCE> 39
 9.388553e+01 3.872831e+01 6.532439e+01 3.785741e+01 4.064407e+01 4.453801e+01 4.684424e+01 3.954564e+01 5.277039e+01 2.478520e+01 1.965235e+01 2.293121e+01 9.996321e+01 2.314153e+00 2.598975e+00 3.455329e+00 2.450634e+00 2.289909e+00 3.680789e+00 2.368162e+00 2.576521e+00 2.423341e+00 2.063154e+00 1.508619e+00 2.099889e+00 1.876521e+00 3.116010e-01 4.721571e-01 5.604920e-01 4.642443e-01 3.807600e-01 6.631101e-01 4.228486e-01 4.697213e-01 4.558207e-01 4.026661e-01 2.783457e-01 4.117257e-01 2.863752e-01
<GCONST> 1.205012e+02
<STATE> 4
<MEAN> 39
 1.396558e+00 -1.374983e+01 1.278282e+01 -8.482933e+00 4.012934e+00 4.532771e+00 -1.019673e+01 8.736590e+00 -1.068753e+01 3.724371e+00 1.872837e+00 -2.656917e+00 6.410211e+01 -4.312145e-03 1.815680e-02 -5.849640e-03 -7.453666e-03 -2.642098e-02 -3.857743e-03 3.095429e-02 2.964874e-02 3.463361e-02 1.209626e-02 4.863836e-03 1.439198e-02 -1.910254e-02 -2.723783e-04 -1.138021e-03 -6.488679e-04 -1.601260e-03 -6.481387e-04 3.517128e-04 1.199624e-03 4.560575e-04 -1.084262e-03 6.423077e-04 -4.982887e-04 -7.594594e-04 1.622383e-04
<VARIANCE> 39
 9.341123e+01 3.619526e+01 6.235883e+01 3.631209e+01 4.016587e+01 4.435911e+01 4.503194e+01 3.808156e+01 5.265221e+01 2.335595e+01 1.897283e+01 2.217257e+01 1.009135e+02 2.206182e+00 2.397002e+00 3.317055e+00 2.381313e+00 2.273523e+00 3.631293e+00 2.298426e+00 2.541822e+00 2.414330e+00 1.944817e+00 1.484863e+00 2.037810e+00 1.804081e+00 2.935186e-01 4.358112e-01 5.382322e-01 4.523612e-01 3.771996e-01 6.558316e-01 4.108614e-01 4.617687e-01 4.577126e-01 3.824178e-01 2.741024e-01 4.020866e-01 2.702167e-01
<GCONST> 1.192986e+02
<TRANSP> 5
 0.000000e+00 1.000000e+00 0.000000e+00 0.000000e+00 0.000000e+00
 0.000000e+00 6.972486e-01 3.027514e-01 0.000000e+00 0.000000e+00
 0.000000e+00 0.000000e+00 6.972482e-01 3.027517e-01 0.000000e+00
 0.000000e+00 0.000000e+00 0.000000e+00 8.246368e-01 1.753632e-01
 0.000000e+00 0.000000e+00 0.000000e+00 0.000000e+00 0.000000e+00
<ENDHMM>
~h "h"
<BEGINHMM>
<NUMSTATES> 5
<STATE> 2
<MEAN> 39
 2.032618e+00 -1.406693e+01 1.326137e+01 -8.015406e+00 4.417478e+00 3.401826e+00 -1.014676e+01 9.039907e+00 -1.191322e+01 3.340156e+00 1.456715e+00 -2.542662e+00 6.521111e+01 1.887002e-02 -6.172199e-03 3.073327e-02 3.064325e-03 2.348239e-02 3.190192e-03 -1.833083e-02 -1.471781e-02 -1.928826e-02 6.528226e-03 -3.697058e-04 -9.593147e-03 4.023778e-02 9.462892e-04 -1.424821e-03 -1.208600e-05 -1.809247e-03 -4.886400e-04 -1.777417e-03 -3.604851e-04 1.022791e-03 7.243801e-05 1.260941e-03 6.650804e-04 2.011545e-03 2.163997e-03
<VARIANCE> 39
 9.021824e+01 3.585078e+01 7.289395e+01 4.613649e+01 4.755624e+01 5.863022e+01 5.091898e+01 4.064087e+01 6.018851e+01 3.940424e+01 2.098608e+01 2.371862e+01 1.027439e+02 2.639074e+00 2.459757e+00 4.186984e+00 2.980183e+00 2.546001e+00 3.964836e+00 2.850384e+00 2.730776e+00 2.580476e+00 2.423008e+00 1.650723e+00 1.682859e+00 1.735295e+00 3.617162e-01 4.339755e-01 6.777238e-01 5.431185e-01 4.237474e-01 6.919587e-01 4.989366e-01 5.145397e-01 4.860718e-01 4.485747e-01 3.149263e-01 3.234943e-01 2.657361e-01
<GCONST> 1.236557e+02
<STATE> 3
<MEAN> 39
 2.095218e+00 -1.409806e+01 1.336130e+01 -8.027120e+00 4.481641e+00 3.414857e+00 -1.020927e+01 8.975709e+00 -1.198659e+01 3.367775e+00 1.461125e+00 -2.568854e+00 6.535799e+01 2.050800e-02 -1.015137e-02 3.021703e-02 -2.919840e-03 2.240157e-02 4.396177e-04 -1.813778e-02 -1.273675e-02 -1.906748e-02 1.041822e-02 1.803207e-03 -3.615591e-03 4.552194e-02 5.761943e-04 -1.064235e-03 -6.285392e-04 -2.464553e-03 -1.209516e-03 -1.156719e-03 6.906086e-04 1.531423e-03 6.360187e-04 1.068701e-03 5.767638e-04 2.203966e-03 1.382770e-03
<VARIANCE> 39
 9.044439e+01 3.638390e+01 7.428294e+01 4.642587e+01 4.787203e+01 5.900793e+01 5.154960e+01 4.099983e+01 5.972627e+01 4.012436e+01 2.100656e+01 2.384869e+01 1.032404e+02 2.675050e+00 2.493480e+00 4.281800e+00 3.017433e+00 2.565711e+00 4.019756e+00 2.873614e+00 2.765133e+00 2.589141e+00 2.469891e+00 1.674594e+00 1.699917e+00 1.734632e+00 3.671078e-01 4.378188e-01 6.901992e-01 5.511425e-01 4.275760e-01 7.005261e-01 5.028242e-01 5.228052e-01 4.886769e-01 4.576576e-01 3.205490e-01 3.261126e-01 2.658484e-01
<GCONST> 1.240576e+02
<STATE> 4
<MEAN> 39
 1.969142e+00 -1.413490e+01 1.342854e+01 -8.118371e+00 4.585736e+00 3.585121e+00 -1.033276e+01 8.782483e+00 -1.196468e+01 3.613604e+00 1.569330e+00 -2.577132e+00 6.532529e+01 2.005731e-02 -1.447047e-02 2.518134e-02 -1.524807e-02 1.698460e-02 3.558665e-03 -1.377761e-02 -1.591631e-02 -2.082480e-02 1.417928e-02 5.199134e-03 3.014720e-03 4.937092e-02 1.047688e-04 -4.745068e-04 -1.319650e-03 -2.502381e-03 -1.514179e-03 -5.710887e-05 1.675607e-03 1.476688e-03 8.865487e-04 7.207720e-04 4.760100e-04 1.665280e-03 2.628531e-04
<VARIANCE> 39
 9.115527e+01 3.657199e+01 7.501888e+01 4.667120e+01 4.776105e+01 5.891903e+01 5.053936e+01 4.152482e+01 5.923418e+01 4.047346e+01 2.054604e+01 2.342565e+01 1.040809e+02 2.696594e+00 2.518829e+00 4.393438e+00 3.036397e+00 2.564197e+00 3.976312e+00 2.851688e+00 2.753609e+00 2.572317e+00 2.510859e+00 1.663519e+00 1.676226e+00 1.730882e+00 3.664013e-01 4.419930e-01 7.032230e-01 5.517386e-01 4.306027e-01 6.865249e-01 5.027456e-01 5.247040e-01 4.889522e-01 4.643439e-01 3.191632e-01 3.195022e-01 2.661959e-01
<GCONST> 1.240664e+02
<TRANSP> 5
 0.000000e+00 1.000000e+00 0.000000e+00 0.000000e+00 0.000000e+00
 0.000000e+00 6.961471e-01 3.038529e-01 0.000000e+00 0.000000e+00
 0.000000e+00 0.000000e+00 6.961472e-01 3.038528e-01 0.000000e+00
 0.000000e+00 0.000000e+00 0.000000e+00 8.231722e-01 1.768279e-01
 0.000000e+00 0.000000e+00 0.000000e+00 0.000000e+00 0.000000e+00
<ENDHMM>
~h "i"
<BEGINHMM>
<NUMSTATES> 5
<STATE> 2
<MEAN> 39
 -8.393862e-02 -1.417592e+01 1.400040e+01 -7.833307e+00 4.300063e+00 4.543217e+00 -1.000717e+01 9.001273e+00 -1.069663e+01 3.831542e+00 1.918433e+00 -2.428232e+00 6.358348e+01 -3.160313e-03 -1.610490e-03 5.044588e-04 2.227199e-03 -3.078210e-03 -1.230860e-03 8.535779e-04 1.167220e-03 5.474297e-03 2.211911e-04 -3.683012e-03 -1.063948e-03 -2.698643e-03 5.793737e-04 3.032760e-04 -4.739153e-04 4.473639e-04 4.021417e-04 -1.669031e-04 -3.827525e-04 -6.967230e-05 1.549170e-04 -2.225292e-04 -9.395492e-05 -8.470273e-05 -6.873463e-05
<VARIANCE> 39
 8.353938e+01 3.526985e+01 6.687413e+01 4.376337e+01 3.813257e+01 4.829629e+01 4.827316e+01 3.699061e+01 6.162215e+01 2.992559e+01 1.935505e+01 1.939493e+01 1.057488e+02 2.349809e+00 2.149999e+00 3.404364e+00 2.603508e+00 2.140990e+00 3.194548e+00 2.329531e+00 2.254208e+00 2.277514e+00 2.063177e+00 1.539903e+00 1.602139e+00 1.587772e+00 3.221420e-01 3.848484e-01 5.400677e-01 4.624732e-01 3.717807e-01 5.707179e-01 4.087800e-01 4.171823e-01 4.228312e-01 3.858106e-01 2.976521e-01 3.113237e-01 2.490717e-01
<GCONST> 1.186815e+02
<STATE> 3
<MEAN> 39
 -9.342358e-02 -1.418108e+01 1.400281e+01 -7.823412e+00 4.292685e+00 4.541583e+00 -1.000579e+01 9.004864e+00 -1.067242e+01 3.830988e+00 1.902405e+00 -2.433939e+00 6.357391e+01 -8.122352e-04 -7.575363e-04 -1.285678e-03 3.121437e-03 -1.790702e-03 -2.082586e-03 -5.914947e-04 9.008293e-04 5.419018e-03 -4.951890e-04 -3.859805e-03 -1.133812e-03 -2.240762e-03 6.944936e-04 2.501400e-04 -5.917404e-04 3.132643e-04 4.298061e-04 -2.640855e-04 -4.939177e-04 -1.491975e-04 -1.299292e-04 -3.385798e-04 -2.124572e-05 3.802335e-06 8.806032e-05
<VARIANCE> 39
 8.355321e+01 3.525333e+01 6.709224e+01 4.369111e+01 3.815947e+01 4.813452e+01 4.839973e+01 3.699053e+01 6.154784e+01 2.994818e+01 1.938005e+01 1.940771e+01 1.056685e+02 2.347441e+00 2.150404e+00 3.410275e+00 2.601896e+00 2.145040e+00 3.182861e+00 2.335595e+00 2.252466e+00 2.286463e+00 2.061555e+00 1.542174e+00 1.605351e+00 1.595320e+00 3.220912e-01 3.852201e-01 5.422695e-01 4.622687e-01 3.725336e-01 5.693014e-01 4.104076e-01 4.170452e-01 4.247556e-01 3.854178e-01 2.981879e-01 3.120803e-01 2.504720e-01
<GCONST> 1.187162e+02
<STATE> 4
<MEAN> 39
 -6.196560e-01 -1.413636e+01 1.393345e+01 -7.550495e+00 4.309407e+00 4.750384e+00 -9.890687e+00 9.207116e+00 -1.006809e+01 3.906769e+00 1.962530e+00 -2.405846e+00 6.293851e+01 4.092136e-03 -2.028974e-04 -3.358036e-03 2.557970e-03 7.362880e-04 -2.587224e-03 -2.922171e-03 -6.253118e-04 3.132358e-03 -2.026281e-03 -4.164119e-03 -8.225771e-04 1.367463e-03 6.558844e-04 2.570531e-04 -4.350099e-04 6.073364e-05 4.000974e-04 -9.409496e-05 -4.198246e-04 -2.564001e-04 -5.239873e-04 -5.285326e-04 -8.202585e-05 -3.375254e-05 2.542646e-04
<VARIANCE> 39
 8.003235e+01 3.459435e+01 6.467519e+01 4.227212e+01 3.755979e+01 4.557125e+01 4.797836e+01 3.492371e+01 5.875917e+01 2.776231e+01 1.856316e+01 1.860196e+01 1.041140e+02 2.124824e+00 1.968498e+00 3.127146e+00 2.441680e+00 2.037247e+00 2.914649e+00 2.216075e+00 2.099265e+00 2.160269e+00 1.939460e+00 1.442593e+00 1.511277e+00 1.480726e+00 2.887937e-01 3.524885e-01 5.002246e-01 4.296976e-01 3.524325e-01 5.185771e-01 3.904372e-01 3.896379e-01 4.001675e-01 3.646990e-01 2.788129e-01 2.932506e-01 2.284930e-01
<GCONST> 1.163505e+02
<TRANSP> 5
 0.000000e+00 1.000000e+00 0.000000e+00 0.000000e+00 0.000000e+00
 0.000000e+00 7.192513e-01 2.807488e-01 0.000000e+00 0.000000e+00
 0.000000e+00 0.000000e+00 7.192489e-01 2.807511e-01 0.000000e+00
 0.000000e+00 0.000000e+00 0.000000e+00 8.610768e-01 1.389232e-01
 0.000000e+00 0.000000e+00 0.000000e+00 0.000000e+00 0.000000e+00
<ENDHMM>
~h "j"
<BEGINHMM>
<NUMSTATES> 5
<STATE> 2
<MEAN> 39
 -2.664341e-01 -1.383945e+01 1.380979e+01 -7.665366e+00 4.205969e+00 4.523353e+00 -9.773675e+00 9.240277e+00 -1.051192e+01 3.791384e+00 1.978987e+00 -2.435732e+00 6.302742e+01 4.405347e-03 1.994388e-03 2.622895e-03 2.343163e-03 5.039567e-03 -4.325515e-03 -5.230838e-03 1.595804e-03 -5.878403e-03 -4.314121e-03 -2.076631e-03 -3.719761e-03 1.076734e-03 -5.907757e-05 -3.725750e-04 5.076260e-04 9.686189e-05 -2.095689e-04 -1.631815e-04 8.698877e-05 4.837981e-04 -3.329790e-04 -1.864196e-04 -3.404439e-04 -5.205651e-04 2.373935e-04
<VARIANCE> 39
 8.230161e+01 3.508564e+01 6.173898e+01 4.064729e+01 3.617141e+01 4.718107e+01 4.693003e+01 3.523376e+01 6.350879e+01 2.702550e+01 1.853773e+01 1.912001e+01 1.024982e+02 2.222475e+00 2.026102e+00 3.162841e+00 2.423787e+00 1.896255e+00 3.089739e+00 2.305505e+00 2.179874e+00 2.272716e+00 2.016540e+00 1.461582e+00 1.588850e+00 1.493583e+00 3.034824e-01 3.444408e-01 5.018052e-01 4.278225e-01 3.241336e-01 5.535690e-01 4.019303e-01 4.052880e-01 4.215402e-01 3.803495e-01 2.810719e-01 3.124853e-01 2.314256e-01
<GCONST> 1.169089e+02
<STATE> 3
<MEAN> 39
 -2.463143e-01 -1.383412e+01 1.382258e+01 -7.654404e+00 4.222683e+00 4.503724e+00 -9.795490e+00 9.247594e+00 -1.053432e+01 3.779136e+00 1.972093e+00 -2.451960e+00 6.303506e+01 4.220874e-03 3.794439e-04 4.443294e-03 2.817619e-03 4.570895e-03 -4.309786e-03 -5.432313e-03 2.355222e-03 -6.240466e-03 -3.890194e-03 -2.685133e-03 -4.404197e-03 1.987108e-03 -1.136505e-04 -4.358962e-04 5.658258e-04 6.714083e-05 -1.504465e-04 1.610220e-04 8.279641e-05 2.328437e-04 -5.368586e-05 2.375436e-04 -1.191381e-04 -1.527563e-04 2.247925e-04
<VARIANCE> 39
 8.230355e+01 3.512296e+01 6.102930e+01 4.072677e+01 3.617817e+01 4.739835e+01 4.708681e+01 3.547774e+01 6.370126e+01 2.711920e+01 1.851605e+01 1.909443e+01 1.023157e+02 2.221708e+00 2.028050e+00 3.172460e+00 2.444259e+00 1.900942e+00 3.109886e+00 2.316392e+00 2.189827e+00 2.283447e+00 2.025252e+00 1.458862e+00 1.594115e+00 1.507488e+00 3.037438e-01 3.452282e-01 5.058878e-01 4.318152e-01 3.251380e-01 5.570829e-01 4.039113e-01 4.067377e-01 4.232683e-01 3.823377e-01 2.802491e-01 3.136391e-01 2.335557e-01
<GCONST> 1.170252e+02
<STATE> 4
<MEAN> 39
 -1.010356e+00 -1.355207e+01 1.359406e+01 -7.492469e+00 4.125304e+00 4.807098e+00 -9.374930e+00 9.727110e+00 -9.662148e+00 3.986675e+00 2.042071e+00 -2.383126e+00 6.197234e+01 8.653731e-03 -2.025513e-03 6.319400e-03 2.281557e-03 4.668850e-03 -5.173585e-03 -6.348992e-03 2.515734e-03 -6.704100e-03 -1.736587e-03 -1.841325e-03 -3.380768e-03 8.468888e-03 1.137698e-05 -2.967797e-04 3.776918e-04 -1.252338e-04 -1.371255e-04 2.874137e-04 1.114366e-04 7.522674e-05 1.311422e-04 2.016737e-04 7.178338e-05 8.423877e-05 3.084354e-04
<VARIANCE> 39
 7.557097e+01 3.197954e+01 5.181903e+01 3.663740e+01 3.418407e+01 4.516995e+01 4.583090e+01 3.294078e+01 5.946814e+01 2.442924e+01 1.708689e+01 1.770140e+01 9.850000e+01 1.879658e+00 1.748096e+00 2.742319e+00 2.204987e+00 1.727057e+00 2.773160e+00 2.095447e+00 1.979288e+00 2.118401e+00 1.848494e+00 1.325051e+00 1.449468e+00 1.366072e+00 2.552555e-01 2.994356e-01 4.473112e-01 3.911873e-01 2.934112e-01 4.889027e-01 3.652467e-01 3.685911e-01 3.949012e-01 3.502839e-01 2.534411e-01 2.835909e-01 2.058821e-01
<GCONST> 1.131161e+02
<TRANSP> 5
 0.000000e+00 1.000000e+00 0.000000e+00 0.000000e+00 0.000000e+00
 0.000000e+00 7.281473e-01 2.718526e-01 0.000000e+00 0.000000e+00
 0.000000e+00 0.000000e+00 7.281466e-01 2.718534e-01 0.000000e+00
 0.000000e+00 0.000000e+00 0.000000e+00 8.779669e-01 1.220331e-01
 0.000000e+00 0.000000e+00 0.000000e+00 0.000000e+00 0.000000e+00
<ENDHMM>
~h "k"
<BEGINHMM>
<NUMSTATES> 5
<STATE> 2
<MEAN> 39
 2.508695e-01 -1.393010e+01 1.324179e+01 -8.183751e+00 4.221073e+00 4.619153e+00 -9.571864e+00 9.287529e+00 -1.057567e+01 3.998854e+00 1.885433e+00 -2.320495e+00 6.337501e+01 -5.996532e-03 -4.348832e-03 9.877689e-03 5.281227e-06 -8.657628e-05 1.178492e-04 3.546533e-03 4.725319e-03 4.186349e-03 2.996539e-03 -3.949651e-03 1.134504e-03 2.627776e-03 -6.236217e-04 -1.574927e-04 -7.311655e-05 1.071746e-04 -3.300628e-04 -7.798364e-06 5.450254e-04 -1.821611e-04 -1.453206e-04 5.674855e-05 6.726266e-04 2.262604e-04 -2.032495e-04
<VARIANCE> 39
 8.294128e+01 3.173353e+01 6.333412e+01 4.528757e+01 3.695228e+01 4.942377e+01 4.672662e+01 3.796629e+01 6.067170e+01 2.970636e+01 1.927967e+01 2.070461e+01 1.023111e+02 2.121260e+00 2.073554e+00 3.280510e+00 2.827739e+00 2.081428e+00 3.202028e+00 2.391572e+00 2.261187e+00 2.313248e+00 2.096623e+00 1.588710e+00 1.701551e+00 1.780865e+00 2.964645e-01 3.767579e-01 5.185291e-01 5.064650e-01 3.585969e-01 5.743077e-01 4.234246e-01 4.214368e-01 4.379931e-01 3.957832e-01 3.083535e-01 3.313127e-01 2.816140e-01
<GCONST> 1.189300e+02
<STATE> 3
<MEAN> 39
 2.247226e-01 -1.394674e+01 1.327154e+01 -8.183015e+00 4.220096e+00 4.620757e+00 -9.549910e+00 9.303119e+00 -1.056713e+01 4.008173e+00 1.876741e+00 -2.319419e+00 6.337991e+01 -8.650504e-03 -4.558677e-03 1.030245e-02 -1.303011e-04 -2.265558e-04 1.476572e-03 6.171979e-03 4.516023e-03 3.437322e-03 3.567120e-03 -2.513871e-03 9.752211e-04 1.528742e-03 -6.895651e-04 1.491369e-04 1.793492e-04 6.950684e-05 6.326869e-05 2.312966e-04 6.340048e-04 1.272062e-04 -1.607112e-04 1.908585e-04 3.402921e-04 -1.013440e-04 -3.641862e-04
<VARIANCE> 39
 8.304440e+01 3.179611e+01 6.402592e+01 4.552447e+01 3.695557e+01 4.942827e+01 4.671456e+01 3.796778e+01 6.083673e+01 2.980841e+01 1.935341e+01 2.076031e+01 1.024759e+02 2.142868e+00 2.072098e+00 3.287104e+00 2.835699e+00 2.087502e+00 3.207146e+00 2.389554e+00 2.265858e+00 2.307304e+00 2.101301e+00 1.587416e+00 1.704513e+00 1.781827e+00 2.991586e-01 3.763268e-01 5.192590e-01 5.075868e-01 3.596292e-01 5.746937e-01 4.227474e-01 4.217476e-01 4.368970e-01 3.963013e-01 3.080884e-01 3.319016e-01 2.813267e-01
<GCONST> 1.189975e+02
<STATE> 4
<MEAN> 39
 -3.499999e-01 -1.388295e+01 1.310969e+01 -8.048770e+00 4.122696e+00 4.828666e+00 -9.159291e+00 9.586800e+00 -1.007577e+01 4.124346e+00 1.944650e+00 -2.244298e+00 6.269941e+01 -7.377906e-03 -6.107468e-03 9.856930e-03 -1.207373e-04 1.126574e-03 4.842544e-04 5.830375e-03 2.975588e-03 -5.779346e-04 2.244893e-03 -4.778665e-03 -1.530258e-03 3.571236e-03 -3.074358e-04 4.387168e-05 2.215627e-04 1.003361e-04 2.470829e-05 -8.870240e-05 4.299664e-05 3.749530e-05 -1.290436e-04 -6.823554e-05 -1.491664e-04 -8.261166e-05 -1.326369e-04
<VARIANCE> 39
 7.931511e+01 3.057581e+01 6.049822e+01 4.298808e+01 3.494570e+01 4.759982e+01 4.429418e+01 3.566759e+01 5.973493e+01 2.783508e+01 1.884879e+01 1.969023e+01 1.010801e+02 1.994819e+00 1.918320e+00 3.064381e+00 2.652950e+00 1.985443e+00 3.016664e+00 2.217524e+00 2.103174e+00 2.203708e+00 1.993514e+00 1.501593e+00 1.617889e+00 1.686058e+00 2.753517e-01 3.463282e-01 4.899016e-01 4.774844e-01 3.449874e-01 5.353345e-01 3.949128e-01 3.912420e-01 4.160679e-01 3.771573e-01 2.896567e-01 3.146312e-01 2.596212e-01
<GCONST> 1.167668e+02
<TRANSP> 5
 0.000000e+00 1.000000e+00 0.000000e+00 0.000000e+00 0.000000e+00
 0.000000e+00 7.199189e-01 2.800810e-01 0.000000e+00 0.000000e+00
 0.000000e+00 0.000000e+00 7.199197e-01 2.800803e-01 0.000000e+00
 0.000000e+00 0.000000e+00 0.000000e+00 8.633437e-01 1.366563e-01
 0.000000e+00 0.000000e+00 0.000000e+00 0.000000e+00 0.000000e+00
<ENDHMM>
~h "l"
<BEGINHMM>
<NUMSTATES> 5
<STATE> 2
<MEAN> 39
 1.074872e+00 -1.410769e+01 1.321208e+01 -8.458931e+00 3.846897e+00 4.012430e+00 -9.683180e+00 9.331666e+00 -1.101446e+01 3.492554e+00 1.588805e+00 -2.420929e+00 6.446601e+01 -7.512609e-03 -2.314902e-03 -3.102734e-03 6.004807e-03 -2.231083e-03 -8.702971e-04 7.278841e-03 1.080051e-02 1.054404e-02 6.588442e-04 5.336837e-03 3.254457e-03 -5.482071e-03 -2.359586e-04 1.256564e-04 -1.351428e-04 -5.388657e-04 -9.020470e-04 -2.396041e-04 7.477135e-04 4.912694e-04 -1.089571e-04 2.226043e-04 4.571564e-04 4.488776e-04 -2.785150e-04
<VARIANCE> 39
 8.982031e+01 3.485720e+01 6.682704e+01 4.447505e+01 4.093948e+01 5.504426e+01 4.537379e+01 3.715765e+01 6.155194e+01 3.374422e+01 2.090748e+01 2.030676e+01 1.072819e+02 2.315237e+00 2.162827e+00 3.475722e+00 2.583610e+00 2.205192e+00 3.403476e+00 2.393700e+00 2.342489e+00 2.423381e+00 2.259516e+00 1.651114e+00 1.714347e+00 1.637712e+00 3.105212e-01 3.812100e-01 5.434108e-01 4.585898e-01 3.753810e-01 5.936513e-01 4.229905e-01 4.403356e-01 4.501460e-01 4.229487e-01 3.136491e-01 3.293367e-01 2.521056e-01
<GCONST> 1.200065e+02
<STATE> 3
<MEAN> 39
 1.052072e+00 -1.411213e+01 1.319854e+01 -8.439137e+00 3.835495e+00 4.007326e+00 -9.660616e+00 9.365211e+00 -1.098028e+01 3.492678e+00 1.610338e+00 -2.408213e+00 6.444749e+01 -8.411860e-03 -1.797501e-03 -3.230770e-03 4.488045e-03 -4.854186e-03 -1.487678e-03 9.436274e-03 1.233653e-02 1.011991e-02 1.484449e-03 6.752307e-03 4.526808e-03 -6.706777e-03 -1.318950e-04 2.922018e-04 -8.650750e-05 -4.101341e-04 -6.935095e-04 -2.275203e-04 4.422097e-04 3.029803e-04 -2.112209e-04 6.104849e-05 2.560634e-04 2.957633e-04 -3.295043e-04
<VARIANCE> 39
 9.001317e+01 3.485722e+01 6.684512e+01 4.457997e+01 4.076805e+01 5.499025e+01 4.531631e+01 3.708155e+01 6.138527e+01 3.382009e+01 2.078479e+01 2.033088e+01 1.075462e+02 2.306965e+00 2.164886e+00 3.463751e+00 2.594662e+00 2.205014e+00 3.374243e+00 2.391470e+00 2.337677e+00 2.412806e+00 2.258584e+00 1.639178e+00 1.712496e+00 1.633304e+00 3.091746e-01 3.807604e-01 5.399244e-01 4.595053e-01 3.754176e-01 5.888880e-01 4.226836e-01 4.397411e-01 4.484888e-01 4.219644e-01 3.118137e-01 3.285592e-01 2.520237e-01
<GCONST> 1.199362e+02
<STATE> 4
<MEAN> 39
 8.816057e-01 -1.415278e+01 1.311311e+01 -8.370049e+00 3.829856e+00 4.016587e+00 -9.642669e+00 9.443791e+00 -1.080013e+01 3.519131e+00 1.725094e+00 -2.328951e+00 6.433261e+01 -7.493157e-03 -6.231772e-04 -2.576450e-03 2.899343e-03 -6.253602e-03 -1.926193e-03 8.451490e-03 1.077843e-02 7.620845e-03 1.679555e-03 7.877121e-03 4.915121e-03 -6.675922e-03 -1.492096e-04 2.808785e-04 4.166580e-05 -2.043672e-04 -2.428626e-04 -1.556421e-04 1.269275e-04 1.868540e-04 -2.267568e-04 -4.287048e-05 8.524338e-05 1.305063e-04 -4.035687e-04
<VARIANCE> 39
 9.007932e+01 3.419519e+01 6.711598e+01 4.430139e+01 4.009154e+01 5.611812e+01 4.504302e+01 3.711063e+01 6.028598e+01 3.307576e+01 2.038931e+01 2.023908e+01 1.097029e+02 2.251242e+00 2.129392e+00 3.378356e+00 2.554349e+00 2.156722e+00 3.301050e+00 2.381166e+00 2.263988e+00 2.332681e+00 2.222000e+00 1.583480e+00 1.665440e+00 1.632026e+00 3.016118e-01 3.766510e-01 5.226223e-01 4.458352e-01 3.683813e-01 5.710399e-01 4.246762e-01 4.235798e-01 4.317024e-01 4.143495e-01 3.019819e-01 3.178806e-01 2.505230e-01
<GCONST> 1.192860e+02
<TRANSP> 5
 0.000000e+00 1.000000e+00 0.000000e+00 0.000000e+00 0.000000e+00
 0.000000e+00 7.152181e-01 2.847818e-01 0.000000e+00 0.000000e+00
 0.000000e+00 0.000000e+00 7.152174e-01 2.847826e-01 0.000000e+00
 0.000000e+00 0.000000e+00 0.000000e+00 8.501828e-01 1.498172e-01
 0.000000e+00 0.000000e+00 0.000000e+00 0.000000e+00 0.000000e+00
<ENDHMM>
~h "m"
<BEGINHMM>
<NUMSTATES> 5
<STATE> 2
<MEAN> 39
 -4.437124e-01 -1.359012e+01 1.371679e+01 -7.941671e+00 4.133367e+00 4.718721e+00 -9.095243e+00 9.932175e+00 -9.914696e+00 4.030787e+00 1.836160e+00 -2.144860e+00 6.268335e+01 -2.069669e-03 -8.222044e-03 3.754130e-03 1.328034e-03 3.150950e-03 1.059389e-03 -2.154412e-03 -3.082291e-03 -4.241286e-04 6.257379e-03 -7.530235e-06 6.365659e-03 3.955892e-03 -1.593924e-04 -4.367966e-04 -9.618259e-06 -4.250937e-05 8.349281e-05 1.943589e-05 -1.870908e-04 -4.749163e-04 -3.255115e-04 2.289614e-04 6.176357e-05 -2.303306e-04 2.499445e-04
<VARIANCE> 39
 8.133560e+01 3.028822e+01 5.961069e+01 4.201354e+01 3.696882e+01 4.983307e+01 3.976308e+01 3.569094e+01 5.853241e+01 2.684884e+01 1.868694e+01 1.896782e+01 9.915504e+01 2.126416e+00 1.905687e+00 3.148193e+00 2.352043e+00 1.969667e+00 3.023992e+00 2.113387e+00 2.124520e+00 2.043758e+00 1.933883e+00 1.431999e+00 1.611286e+00 1.299946e+00 2.815619e-01 3.317789e-01 5.006983e-01 4.113875e-01 3.371222e-01 5.325195e-01 3.752314e-01 3.916104e-01 3.810734e-01 3.654050e-01 2.720887e-01 3.129172e-01 2.009997e-01
<GCONST> 1.154512e+02
<STATE> 3
<MEAN> 39
 -4.525902e-01 -1.361597e+01 1.372780e+01 -7.940500e+00 4.142929e+00 4.720710e+00 -9.099716e+00 9.922137e+00 -9.917375e+00 4.050560e+00 1.830657e+00 -2.125861e+00 6.269616e+01 -2.735993e-03 -9.492383e-03 4.201190e-03 1.442383e-03 3.306366e-03 8.387509e-04 -3.087133e-03 -4.225076e-03 -1.612758e-03 5.824673e-03 -1.511687e-04 4.890656e-03 4.472313e-03 -2.651357e-04 -2.798128e-04 1.725739e-04 -1.270513e-04 -8.050389e-05 -9.130092e-05 -1.754814e-04 -1.337618e-04 -1.358908e-04 -1.420598e-04 -4.359757e-05 -3.494172e-04 1.101779e-04
<VARIANCE> 39
 8.121047e+01 3.031768e+01 5.970194e+01 4.218357e+01 3.695383e+01 5.004300e+01 3.989526e+01 3.586513e+01 5.852372e+01 2.698461e+01 1.860298e+01 1.894910e+01 9.935155e+01 2.119428e+00 1.909251e+00 3.148087e+00 2.359257e+00 1.969413e+00 3.022344e+00 2.115783e+00 2.123187e+00 2.042686e+00 1.931113e+00 1.424220e+00 1.608666e+00 1.297531e+00 2.811588e-01 3.328615e-01 5.009942e-01 4.130841e-01 3.376994e-01 5.321188e-01 3.759438e-01 3.913372e-01 3.808665e-01 3.647677e-01 2.704037e-01 3.124695e-01 2.009171e-01
<GCONST> 1.154585e+02
<STATE> 4
<MEAN> 39
 -1.250410e+00 -1.333434e+01 1.349864e+01 -7.786733e+00 3.971308e+00 5.020196e+00 -8.743426e+00 1.024928e+01 -9.128469e+00 4.200097e+00 1.984015e+00 -1.972124e+00 6.161643e+01 -5.767920e-03 -6.793491e-03 4.301181e-03 3.884050e-04 1.287117e-03 1.228383e-03 -1.740641e-03 -1.359183e-03 5.847775e-04 3.903520e-03 -3.256062e-04 4.027923e-03 5.278860e-04 -2.839898e-04 -1.717433e-05 2.506632e-04 -6.975389e-05 -7.570467e-05 3.427236e-05 -6.618483e-05 2.651474e-04 2.311050e-04 -1.350488e-04 1.089487e-04 -7.338139e-05 -1.157450e-04
<VARIANCE> 39
 7.522797e+01 2.687666e+01 5.213646e+01 3.776388e+01 3.292301e+01 4.616052e+01 3.616051e+01 3.309858e+01 5.413525e+01 2.430028e+01 1.694236e+01 1.738376e+01 9.504830e+01 1.791130e+00 1.619794e+00 2.711542e+00 2.062079e+00 1.758901e+00 2.667243e+00 1.887934e+00 1.923472e+00 1.836699e+00 1.774756e+00 1.304293e+00 1.463241e+00 1.103311e+00 2.350646e-01 2.832325e-01 4.328588e-01 3.604226e-01 3.023628e-01 4.673301e-01 3.365943e-01 3.542380e-01 3.432245e-01 3.353524e-01 2.488295e-01 2.842572e-01 1.689072e-01
<GCONST> 1.110178e+02
<TRANSP> 5
 0.000000e+00 1.000000e+00 0.000000e+00 0.000000e+00 0.000000e+00
 0.000000e+00 7.312391e-01 2.687609e-01 0.000000e+00 0.000000e+00
 0.000000e+00 0.000000e+00 7.312382e-01 2.687618e-01 0.000000e+00
 0.000000e+00 0.000000e+00 0.000000e+00 8.791724e-01 1.208276e-01
 0.000000e+00 0.000000e+00 0.000000e+00 0.000000e+00 0.000000e+00
<ENDHMM>
~h "n"
<BEGINHMM>
<NUMSTATES> 5
<STATE> 2
<MEAN> 39
 -3.825573e-02 -1.386018e+01 1.369701e+01 -7.593303e+00 4.232516e+00 4.790038e+00 -9.487579e+00 9.294318e+00 -1.031628e+01 3.837217e+00 1.995008e+00 -2.215163e+00 6.309542e+01 7.861303e-04 7.047715e-04 -5.964412e-03 -6.537570e-03 -3.804294e-03 4.150733e-04 5.960834e-03 -7.037132e-05 -2.477140e-03 -3.081941e-03 -2.485787e-03 4.090340e-03 2.089854e-03 2.040047e-04 -4.887254e-05 2.127410e-04 -1.454006e-04 -1.841761e-04 -1.038160e-04 4.171474e-04 -3.472990e-04 -5.702818e-04 5.544653e-04 5.747929e-04 4.275714e-04 2.969568e-04
<VARIANCE> 39
 8.307280e+01 3.276707e+01 6.316352e+01 4.293382e+01 3.563165e+01 4.530793e+01 4.401709e+01 3.590282e+01 5.724648e+01 2.930630e+01 1.931479e+01 1.945388e+01 9.988446e+01 2.152796e+00 1.984758e+00 3.155357e+00 2.372329e+00 1.904056e+00 3.182384e+00 2.182980e+00 2.350140e+00 2.211313e+00 2.062049e+00 1.495189e+00 1.686476e+00 1.431567e+00 2.928797e-01 3.509958e-01 4.931349e-01 4.100140e-01 3.264292e-01 5.765592e-01 3.878854e-01 4.453548e-01 4.129320e-01 3.905459e-01 2.848358e-01 3.329859e-01 2.254912e-01
<GCONST> 1.169356e+02
<STATE> 3
<MEAN> 39
 -4.356751e-02 -1.385642e+01 1.367809e+01 -7.610492e+00 4.222857e+00 4.796495e+00 -9.468318e+00 9.289779e+00 -1.032111e+01 3.831549e+00 1.993109e+00 -2.197918e+00 6.309201e+01 9.878627e-04 6.714838e-04 -5.327865e-03 -7.326335e-03 -3.621484e-03 7.679149e-04 7.283198e-03 -5.126605e-04 -4.017621e-03 -1.570672e-03 -1.074208e-03 4.971835e-03 2.783109e-03 -1.507235e-04 1.190604e-04 4.502780e-04 3.610116e-06 2.691283e-04 1.666139e-04 1.633841e-04 -1.704052e-04 -4.469678e-04 4.041196e-04 4.944193e-04 1.101591e-04 -3.905801e-05
<VARIANCE> 39
 8.314715e+01 3.262604e+01 6.291516e+01 4.280761e+01 3.544623e+01 4.509586e+01 4.384109e+01 3.593457e+01 5.748658e+01 2.925999e+01 1.934443e+01 1.942875e+01 1.002145e+02 2.151917e+00 1.982529e+00 3.161989e+00 2.368596e+00 1.900970e+00 3.182345e+00 2.182122e+00 2.348467e+00 2.209353e+00 2.063160e+00 1.501170e+00 1.683646e+00 1.435982e+00 2.928618e-01 3.514148e-01 4.948124e-01 4.100177e-01 3.265119e-01 5.768926e-01 3.877060e-01 4.453734e-01 4.122061e-01 3.911446e-01 2.856954e-01 3.323978e-01 2.268697e-01
<GCONST> 1.169317e+02
<STATE> 4
<MEAN> 39
 -7.167645e-01 -1.366193e+01 1.361158e+01 -7.504421e+00 4.109838e+00 5.028170e+00 -9.213049e+00 9.473482e+00 -9.825385e+00 3.943004e+00 2.093723e+00 -2.107258e+00 6.228960e+01 -3.719903e-04 2.122646e-03 -4.048747e-03 -5.500041e-03 -1.940442e-03 2.620485e-03 6.146772e-03 -1.723878e-03 -3.020319e-03 -1.986611e-04 -1.372814e-04 3.886276e-03 2.257515e-05 -1.558545e-04 1.890447e-04 4.933921e-04 -8.545368e-06 2.266779e-04 1.910570e-04 -1.313019e-04 -1.093799e-04 -1.516841e-04 6.622345e-05 -3.177961e-05 -3.416560e-04 -8.879662e-05
<VARIANCE> 39
 7.942648e+01 3.004636e+01 5.752971e+01 4.027899e+01 3.293291e+01 4.238519e+01 4.110238e+01 3.379333e+01 5.620611e+01 2.726354e+01 1.822916e+01 1.793233e+01 9.826833e+01 1.945543e+00 1.784178e+00 2.908011e+00 2.199549e+00 1.748336e+00 2.933939e+00 2.035257e+00 2.185683e+00 2.069573e+00 1.952699e+00 1.427122e+00 1.563419e+00 1.326426e+00 2.632959e-01 3.178375e-01 4.589206e-01 3.815404e-01 3.015737e-01 5.304542e-01 3.634288e-01 4.142193e-01 3.864784e-01 3.716461e-01 2.729415e-01 3.088211e-01 2.096749e-01
<GCONST> 1.141762e+02
<TRANSP> 5
 0.000000e+00 1.000000e+00 0.000000e+00 0.000000e+00 0.000000e+00
 0.000000e+00 7.088678e-01 2.911322e-01 0.000000e+00 0.000000e+00
 0.000000e+00 0.000000e+00 7.088661e-01 2.911339e-01 0.000000e+00
 0.000000e+00 0.000000e+00 0.000000e+00 8.463987e-01 1.536013e-01
 0.000000e+00 0.000000e+00 0.000000e+00 0.000000e+00 0.000000e+00
<ENDHMM>
~h "o"
<BEGINHMM>
<NUMSTATES> 5
<STATE> 2
<MEAN> 39
 1.868927e-01 -1.388940e+01 1.363769e+01 -8.140705e+00 3.998283e+00 4.293790e+00 -9.461875e+00 9.564567e+00 -1.069958e+01 3.770751e+00 1.828192e+00 -2.398793e+00 6.347556e+01 4.167246e-03 -9.649019e-04 -3.360549e-03 6.696410e-04 2.900140e-03 2.032186e-03 -2.693653e-03 -3.383220e-03 6.134509e-04 1.112283e-05 1.759040e-03 1.199127e-03 2.310037e-03 -5.370116e-05 -8.661135e-05 1.769947e-04 2.941750e-05 1.206563e-06 7.785833e-05 8.281751e-06 -1.464375e-04 -5.882371e-05 -1.237820e-04 -1.606865e-04 3.599015e-05 5.076859e-05
<VARIANCE> 39
 8.654200e+01 3.325589e+01 6.512896e+01 4.465585e+01 3.826176e+01 5.225921e+01 4.379092e+01 3.738373e+01 6.230690e+01 2.994675e+01 1.963448e+01 2.012147e+01 1.015182e+02 2.331732e+00 2.082875e+00 3.391190e+00 2.516208e+00 2.070980e+00 3.342143e+00 2.277586e+00 2.330236e+00 2.297169e+00 2.138104e+00 1.543739e+00 1.648366e+00 1.519219e+00 3.216155e-01 3.677618e-01 5.355032e-01 4.371177e-01 3.507177e-01 5.917073e-01 4.003253e-01 4.325785e-01 4.347522e-01 4.032423e-01 2.960693e-01 3.186772e-01 2.377058e-01
<GCONST> 1.185699e+02
<STATE> 3
<MEAN> 39
 1.995762e-01 -1.389671e+01 1.363280e+01 -8.137973e+00 4.011824e+00 4.301164e+00 -9.473488e+00 9.551639e+00 -1.070169e+01 3.769199e+00 1.833746e+00 -2.393762e+00 6.348849e+01 4.026840e-03 -9.723777e-04 -2.588000e-03 8.747100e-04 3.143673e-03 2.290009e-03 -2.732419e-03 -3.693965e-03 3.537187e-04 -2.509474e-04 1.519737e-03 1.453609e-03 2.363645e-03 -1.137446e-04 -3.451774e-05 3.044184e-04 1.981429e-05 7.633575e-06 5.722618e-05 1.892302e-05 -6.170908e-05 -9.071566e-05 -8.274699e-05 -1.165877e-04 7.445231e-05 4.697781e-05
<VARIANCE> 39
 8.663708e+01 3.331635e+01 6.520742e+01 4.481461e+01 3.845093e+01 5.203703e+01 4.397008e+01 3.728612e+01 6.221239e+01 3.007093e+01 1.964375e+01 2.005591e+01 1.016051e+02 2.333666e+00 2.086160e+00 3.401517e+00 2.517215e+00 2.069878e+00 3.344468e+00 2.281503e+00 2.330395e+00 2.295904e+00 2.139645e+00 1.545118e+00 1.646368e+00 1.521021e+00 3.219816e-01 3.680792e-01 5.367533e-01 4.374491e-01 3.501495e-01 5.927520e-01 4.008949e-01 4.324404e-01 4.345234e-01 4.028766e-01 2.964305e-01 3.183991e-01 2.378343e-01
<GCONST> 1.185950e+02
<STATE> 4
<MEAN> 39
 -6.125647e-01 -1.364749e+01 1.347817e+01 -8.043709e+00 3.776411e+00 4.602451e+00 -9.017782e+00 9.913416e+00 -9.975500e+00 3.875597e+00 1.930688e+00 -2.271944e+00 6.247401e+01 2.023207e-03 -9.795286e-04 -4.236557e-04 1.956950e-03 4.712875e-03 2.949746e-03 -2.875367e-03 -3.202043e-03 -1.113801e-04 -3.187488e-04 1.521732e-03 1.584491e-03 1.685709e-03 -1.106553e-04 5.249667e-05 2.194398e-04 3.288230e-05 3.322228e-05 2.117548e-05 -2.681476e-05 4.242671e-05 -4.947025e-05 1.958763e-05 -4.576912e-05 6.233923e-05 -3.742656e-05
<VARIANCE> 39
 8.163622e+01 3.092572e+01 5.785826e+01 4.091568e+01 3.619150e+01 5.023213e+01 4.005973e+01 3.448492e+01 5.947707e+01 2.734018e+01 1.811409e+01 1.804955e+01 9.917097e+01 2.074796e+00 1.833846e+00 3.054288e+00 2.281340e+00 1.871252e+00 3.066885e+00 2.042685e+00 2.125541e+00 2.122672e+00 1.981302e+00 1.424479e+00 1.500819e+00 1.342705e+00 2.806937e-01 3.220248e-01 4.824846e-01 3.956338e-01 3.152680e-01 5.369618e-01 3.601021e-01 3.938119e-01 4.020516e-01 3.718612e-01 2.743963e-01 2.904707e-01 2.048328e-01
<GCONST> 1.149771e+02
<TRANSP> 5
 0.000000e+00 1.000000e+00 0.000000e+00 0.000000e+00 0.000000e+00
 0.000000e+00 7.220421e-01 2.779579e-01 0.000000e+00 0.000000e+00
 0.000000e+00 0.000000e+00 7.220388e-01 2.779612e-01 0.000000e+00
 0.000000e+00 0.000000e+00 0.000000e+00 8.708671e-01 1.291329e-01
 0.000000e+00 0.000000e+00 0.000000e+00 0.000000e+00 0.000000e+00
<ENDHMM>
~h "p"
<BEGINHMM>
<NUMSTATES> 5
<STATE> 2
<MEAN> 39
 -6.561817e-01 -1.361022e+01 1.364431e+01 -7.587882e+00 3.981651e+00 5.093438e+00 -9.324759e+00 9.133533e+00 -1.011868e+01 3.948840e+00 2.169719e+00 -2.265623e+00 6.222414e+01 -1.623784e-04 -1.934832e-03 6.869113e-03 1.957842e-03 4.347558e-05 2.996238e-03 -8.484928e-03 -1.070011e-02 -1.134235e-02 -5.116867e-03 4.866412e-03 -6.238983e-03 4.119726e-03 -4.114995e-04 -4.387776e-04 -8.096865e-04 -7.833691e-04 -2.134894e-03 5.571368e-04 2.806170e-04 3.878247e-04 1.884146e-03 8.074540e-04 5.401480e-04 -9.219183e-04 -5.329737e-04
<VARIANCE> 39
 7.916936e+01 3.271317e+01 5.863308e+01 3.738871e+01 3.129112e+01 4.234542e+01 3.982312e+01 3.776660e+01 5.733129e+01 2.659381e+01 1.842137e+01 1.784912e+01 9.130752e+01 2.352121e+00 2.138468e+00 3.214293e+00 2.458146e+00 1.944267e+00 3.026471e+00 2.255297e+00 2.240880e+00 2.199197e+00 2.002089e+00 1.458941e+00 1.510771e+00 1.678116e+00 3.363443e-01 3.836577e-01 5.269333e-01 4.395001e-01 3.409391e-01 5.638090e-01 4.100132e-01 4.214952e-01 4.195755e-01 3.881662e-01 2.843280e-01 2.963669e-01 2.642661e-01
<GCONST> 1.167042e+02
<STATE> 3
<MEAN> 39
 -6.543846e-01 -1.362178e+01 1.365633e+01 -7.590075e+00 3.971263e+00 5.104339e+00 -9.347978e+00 9.100515e+00 -1.015023e+01 3.937584e+00 2.181873e+00 -2.288919e+00 6.223859e+01 -1.295067e-03 -3.272847e-03 2.892722e-03 -1.259891e-03 -3.746052e-03 3.570053e-03 -6.486700e-03 -9.441446e-03 -7.992560e-03 -3.838635e-03 3.911929e-03 -7.115060e-03 2.605113e-03 -3.402093e-04 -5.847513e-04 -1.058611e-03 -9.118735e-04 -6.899333e-04 3.573159e-04 8.544922e-04 5.184937e-04 9.093261e-04 3.473951e-04 -3.701260e-04 -4.405580e-05 -2.885450e-04
<VARIANCE> 39
 7.894922e+01 3.279501e+01 5.885096e+01 3.750919e+01 3.149590e+01 4.229700e+01 3.999452e+01 3.755825e+01 5.759876e+01 2.657092e+01 1.847600e+01 1.782912e+01 9.124690e+01 2.360753e+00 2.141649e+00 3.226741e+00 2.454855e+00 1.944847e+00 3.015738e+00 2.260704e+00 2.241331e+00 2.199137e+00 2.004436e+00 1.464678e+00 1.507820e+00 1.678739e+00 3.367460e-01 3.837755e-01 5.277869e-01 4.384052e-01 3.410514e-01 5.608414e-01 4.098165e-01 4.222440e-01 4.199614e-01 3.888201e-01 2.855137e-01 2.953336e-01 2.639722e-01
<GCONST> 1.167296e+02
<STATE> 4
<MEAN> 39
 -1.339723e+00 -1.348813e+01 1.347668e+01 -7.549401e+00 3.775897e+00 5.339345e+00 -9.091372e+00 9.272549e+00 -9.639853e+00 4.001790e+00 2.250833e+00 -2.174729e+00 6.140099e+01 1.693179e-03 -3.218758e-03 -1.389924e-03 -6.591049e-03 -4.272658e-03 -7.266023e-04 -3.873088e-03 -4.736213e-03 -8.164993e-03 -2.954763e-03 1.544204e-03 -3.522118e-03 4.745569e-03 1.098361e-06 -1.203827e-04 -4.414487e-04 -7.173392e-04 1.656175e-06 -1.285739e-04 6.592672e-04 6.386958e-04 2.379613e-04 2.987925e-04 -1.839455e-04 5.408069e-04 2.488914e-05
<VARIANCE> 39
 7.370755e+01 3.046416e+01 5.343977e+01 3.494543e+01 2.973701e+01 3.847802e+01 3.675680e+01 3.432587e+01 5.453240e+01 2.473560e+01 1.716226e+01 1.617921e+01 8.685364e+01 2.157608e+00 1.960308e+00 2.951766e+00 2.295597e+00 1.809991e+00 2.792506e+00 2.118403e+00 2.091482e+00 2.082461e+00 1.913962e+00 1.386117e+00 1.394000e+00 1.541911e+00 3.041112e-01 3.512472e-01 4.855962e-01 4.087732e-01 3.187199e-01 5.222707e-01 3.813320e-01 3.968309e-01 4.005899e-01 3.712693e-01 2.702828e-01 2.736038e-01 2.388676e-01
<GCONST> 1.138685e+02
<TRANSP> 5
 0.000000e+00 1.000000e+00 0.000000e+00 0.000000e+00 0.000000e+00
 0.000000e+00 7.140902e-01 2.859098e-01 0.000000e+00 0.000000e+00
 0.000000e+00 0.000000e+00 7.140896e-01 2.859104e-01 0.000000e+00
 0.000000e+00 0.000000e+00 0.000000e+00 8.571738e-01 1.428262e-01
 0.000000e+00 0.000000e+00 0.000000e+00 0.000000e+00 0.000000e+00
<ENDHMM>
~h "r"
<BEGINHMM>
<NUMSTATES> 5
<STATE> 2
<MEAN> 39
 -3.074135e-01 -1.375710e+01 1.356922e+01 -8.133764e+00 4.242630e+00 4.995780e+00 -9.786826e+00 9.079928e+00 -1.053798e+01 3.856914e+00 2.046595e+00 -2.215303e+00 6.279790e+01 4.538862e-03 -4.306632e-03 -2.930655e-03 -9.967842e-04 -2.807856e-03 -6.533695e-03 -8.443202e-03 -3.653128e-03 -2.475437e-03 -2.320356e-03 4.340507e-03 7.416587e-04 5.346356e-03 -9.850215e-05 1.897631e-04 -2.418765e-05 2.916317e-04 -2.808616e-04 6.116635e-06 3.369519e-04 5.912844e-05 2.753083e-04 -3.584445e-04 -5.764123e-04 -1.868351e-04 -2.186138e-04
<VARIANCE> 39
 8.122043e+01 3.213110e+01 6.194245e+01 4.107184e+01 3.548925e+01 4.296887e+01 4.487194e+01 3.475960e+01 6.197117e+01 2.623463e+01 1.868270e+01 1.835393e+01 9.677103e+01 2.281310e+00 2.024120e+00 3.389742e+00 2.382257e+00 1.969004e+00 3.026610e+00 2.330837e+00 2.105586e+00 2.267554e+00 1.988857e+00 1.452672e+00 1.473878e+00 1.580084e+00 3.097194e-01 3.630653e-01 5.323197e-01 4.216278e-01 3.411172e-01 5.638250e-01 4.152278e-01 3.970169e-01 4.272147e-01 3.791745e-01 2.815837e-01 2.839439e-01 2.466004e-01
<GCONST> 1.167136e+02
<STATE> 3
<MEAN> 39
 -2.845159e-01 -1.377423e+01 1.355526e+01 -8.138835e+00 4.233070e+00 4.969168e+00 -9.815804e+00 9.068784e+00 -1.055109e+01 3.841966e+00 2.054521e+00 -2.213252e+00 6.282517e+01 4.088094e-03 -3.409511e-03 -2.861446e-03 6.114672e-04 -3.438827e-03 -6.600345e-03 -7.308691e-03 -3.535626e-03 -1.360159e-03 -3.269301e-03 2.552481e-03 -1.894426e-04 4.390172e-03 -1.600566e-04 2.929820e-04 1.240531e-04 5.061041e-04 -1.095799e-04 4.656011e-05 3.685064e-04 1.669310e-04 3.904511e-04 -2.809474e-04 -5.776359e-04 -3.371587e-04 -3.084275e-04
<VARIANCE> 39
 8.113777e+01 3.232914e+01 6.228341e+01 4.125668e+01 3.572212e+01 4.298517e+01 4.513926e+01 3.480950e+01 6.198548e+01 2.629640e+01 1.867179e+01 1.844659e+01 9.697210e+01 2.269313e+00 2.014530e+00 3.379635e+00 2.370083e+00 1.960705e+00 3.016814e+00 2.328757e+00 2.098592e+00 2.258160e+00 1.990931e+00 1.450950e+00 1.477045e+00 1.563926e+00 3.072256e-01 3.600305e-01 5.284426e-01 4.182240e-01 3.391653e-01 5.616748e-01 4.148685e-01 3.950167e-01 4.258140e-01 3.796570e-01 2.813825e-01 2.845950e-01 2.432152e-01
<GCONST> 1.166482e+02
<STATE> 4
<MEAN> 39
 -7.825488e-01 -1.360294e+01 1.346147e+01 -8.022539e+00 4.203269e+00 5.197035e+00 -9.527333e+00 9.465562e+00 -9.964448e+00 3.898443e+00 2.095182e+00 -2.102183e+00 6.216568e+01 7.487745e-03 -3.321064e-03 -3.185143e-03 7.187625e-04 -2.017672e-03 -7.678083e-03 -5.354973e-03 -1.637032e-03 -3.255840e-03 -4.528346e-03 -9.760943e-04 -1.974338e-03 8.632586e-03 -2.290715e-04 3.322440e-04 1.305111e-04 4.256543e-04 -1.941791e-05 1.533073e-04 4.890254e-04 3.008370e-04 5.291253e-04 8.350924e-05 -3.046864e-04 -3.113832e-04 -4.059699e-04
<VARIANCE> 39
 7.648267e+01 3.157357e+01 5.781651e+01 3.991741e+01 3.490221e+01 4.131929e+01 4.416234e+01 3.291371e+01 5.974445e+01 2.493821e+01 1.743292e+01 1.755269e+01 9.457131e+01 2.037267e+00 1.835700e+00 3.044625e+00 2.225207e+00 1.811898e+00 2.809488e+00 2.199345e+00 1.973871e+00 2.119303e+00 1.898135e+00 1.358258e+00 1.405261e+00 1.382480e+00 2.713751e-01 3.231455e-01 4.745799e-01 3.868948e-01 3.123126e-01 5.216550e-01 3.886232e-01 3.725675e-01 4.013887e-01 3.623821e-01 2.628761e-01 2.712431e-01 2.095382e-01
<GCONST> 1.140284e+02
<TRANSP> 5
 0.000000e+00 1.000000e+00 0.000000e+00 0.000000e+00 0.000000e+00
 0.000000e+00 7.228655e-01 2.771345e-01 0.000000e+00 0.000000e+00
 0.000000e+00 0.000000e+00 7.228659e-01 2.771341e-01 0.000000e+00
 0.000000e+00 0.000000e+00 0.000000e+00 8.697819e-01 1.302182e-01
 0.000000e+00 0.000000e+00 0.000000e+00 0.000000e+00 0.000000e+00
<ENDHMM>
~h "s"
<BEGINHMM>
<NUMSTATES> 5
<STATE> 2
<MEAN> 39
 -8.993278e-01 -1.389003e+01 1.424572e+01 -8.079027e+00 3.970659e+00 5.057291e+00 -9.233387e+00 9.357006e+00 -1.030026e+01 4.124283e+00 1.919064e+00 -2.336895e+00 6.279204e+01 1.107544e-03 5.727145e-03 -8.813301e-03 1.093632e-03 -3.907685e-03 1.888473e-04 2.981722e-03 3.483386e-03 5.891152e-03 -6.557505e-03 2.103951e-03 3.719425e-03 -5.451093e-03 -1.983043e-04 2.519917e-04 1.042066e-04 3.407916e-04 2.535746e-04 7.081581e-04 -5.892075e-04 -3.252861e-04 3.478009e-04 -3.477678e-04 -2.737911e-04 -6.202337e-04 -6.463123e-04
<VARIANCE> 39
 7.934951e+01 3.113013e+01 7.267342e+01 4.527671e+01 3.539557e+01 4.496592e+01 4.470252e+01 3.503378e+01 6.020533e+01 2.969164e+01 1.882859e+01 1.937266e+01 1.003403e+02 2.513349e+00 1.966422e+00 3.565133e+00 2.555952e+00 1.987064e+00 3.023973e+00 2.337987e+00 2.119748e+00 2.175891e+00 2.102827e+00 1.431283e+00 1.575860e+00 1.438080e+00 3.416697e-01 3.509921e-01 5.526808e-01 4.317276e-01 3.409292e-01 5.421621e-01 4.103299e-01 4.029000e-01 4.080054e-01 3.976680e-01 2.754946e-01 3.085328e-01 2.208799e-01
<GCONST> 1.173761e+02
<STATE> 3
<MEAN> 39
 -8.945137e-01 -1.386861e+01 1.420791e+01 -8.078010e+00 3.955590e+00 5.063249e+00 -9.222141e+00 9.369152e+00 -1.027408e+01 4.097777e+00 1.922622e+00 -2.324742e+00 6.276820e+01 8.739735e-04 5.801644e-03 -9.282851e-03 1.409430e-03 -3.492625e-03 1.644092e-03 1.530248e-03 2.579142e-03 7.014021e-03 -6.994142e-03 1.015374e-03 1.411633e-03 -6.760954e-03 2.153391e-05 -3.688193e-04 -1.324616e-04 1.135249e-04 2.407516e-04 2.463676e-04 -8.288901e-04 -5.141131e-04 2.286120e-04 1.916934e-04 -2.719493e-04 -7.993024e-04 -8.677772e-05
<VARIANCE> 39
 7.949101e+01 3.114096e+01 7.246948e+01 4.466181e+01 3.514399e+01 4.500243e+01 4.430503e+01 3.488794e+01 6.000257e+01 2.954587e+01 1.886175e+01 1.936291e+01 1.002686e+02 2.503330e+00 1.970326e+00 3.539847e+00 2.531431e+00 1.972749e+00 3.029012e+00 2.330191e+00 2.116207e+00 2.174065e+00 2.095604e+00 1.436325e+00 1.576887e+00 1.440392e+00 3.406930e-01 3.520268e-01 5.478765e-01 4.287643e-01 3.381699e-01 5.431748e-01 4.098768e-01 4.020431e-01 4.078591e-01 3.963848e-01 2.762748e-01 3.082339e-01 2.212050e-01
<GCONST> 1.172815e+02
<STATE> 4
<MEAN> 39
 -1.259028e+00 -1.373514e+01 1.411058e+01 -7.975523e+00 3.979768e+00 5.338177e+00 -9.051920e+00 9.466614e+00 -9.970284e+00 4.095707e+00 2.023935e+00 -2.253267e+00 6.230735e+01 2.382967e-03 4.717464e-03 -1.378179e-02 -2.437967e-04 -4.122153e-03 8.798402e-04 3.686769e-04 8.747935e-04 7.800702e-03 -5.858812e-03 -5.736452e-04 -2.315113e-04 -6.825488e-03 4.587667e-04 -3.780131e-04 -2.925824e-04 1.334554e-04 3.246832e-04 -3.733575e-04 -7.664196e-04 -4.870026e-04 -2.951217e-04 4.615049e-04 7.134795e-05 -4.297956e-04 4.430750e-04
<VARIANCE> 39
 7.719072e+01 2.992653e+01 6.936765e+01 4.266119e+01 3.373811e+01 4.387389e+01 4.196321e+01 3.337306e+01 5.987629e+01 2.884055e+01 1.814056e+01 1.827288e+01 9.917756e+01 2.382042e+00 1.825376e+00 3.309253e+00 2.420928e+00 1.874948e+00 2.922476e+00 2.218601e+00 2.009526e+00 2.097806e+00 2.045100e+00 1.390843e+00 1.520076e+00 1.370882e+00 3.176339e-01 3.286974e-01 5.086246e-01 4.057597e-01 3.210264e-01 5.208628e-01 3.910118e-01 3.793804e-01 3.928888e-01 3.863462e-01 2.683100e-01 2.960960e-01 2.084651e-01
<GCONST> 1.155607e+02
<TRANSP> 5
 0.000000e+00 1.000000e+00 0.000000e+00 0.000000e+00 0.000000e+00
 0.000000e+00 7.151811e-01 2.848189e-01 0.000000e+00 0.000000e+00
 0.000000e+00 0.000000e+00 7.151811e-01 2.848189e-01 0.000000e+00
 0.000000e+00 0.000000e+00 0.000000e+00 8.563186e-01 1.436814e-01
 0.000000e+00 0.000000e+00 0.000000e+00 0.000000e+00 0.000000e+00
<ENDHMM>
~h "t"
<BEGINHMM>
<NUMSTATES> 5
<STATE> 2
<MEAN> 39
 -7.286659e-01 -1.374200e+01 1.373800e+01 -7.800340e+00 4.172267e+00 4.800872e+00 -9.361035e+00 9.594779e+00 -1.003672e+01 3.993015e+00 1.888404e+00 -2.229631e+00 6.246493e+01 1.216449e-02 5.159021e-03 -1.256876e-02 -4.536782e-03 3.477387e-04 -5.925711e-03 -3.317234e-04 2.999837e-03 -3.202060e-03 -2.843778e-04 3.588812e-04 -1.140564e-03 4.263300e-03 -6.819912e-04 1.040108e-04 3.146094e-04 3.482654e-04 -6.594140e-05 6.741578e-04 2.481593e-04 -3.057950e-04 2.993630e-04 3.039979e-04 3.172619e-04 2.631309e-05 -4.839738e-04
<VARIANCE> 39
 7.814603e+01 2.911027e+01 6.107355e+01 4.149210e+01 3.423951e+01 4.505876e+01 4.203388e+01 3.556230e+01 5.987152e+01 2.664977e+01 1.800643e+01 1.818460e+01 9.894394e+01 2.179225e+00 1.951656e+00 3.236201e+00 2.466435e+00 1.876323e+00 2.983990e+00 2.139449e+00 2.076447e+00 2.147087e+00 2.025256e+00 1.444295e+00 1.502074e+00 1.500693e+00 2.989243e-01 3.592490e-01 5.132586e-01 4.293234e-01 3.250631e-01 5.355331e-01 3.826088e-01 3.930321e-01 4.026961e-01 3.855193e-01 2.790413e-01 2.914188e-01 2.367269e-01
<GCONST> 1.158456e+02
<STATE> 3
<MEAN> 39
 -6.936029e-01 -1.372065e+01 1.369560e+01 -7.818920e+00 4.168867e+00 4.784894e+00 -9.355591e+00 9.609887e+00 -1.003983e+01 3.994326e+00 1.889963e+00 -2.235060e+00 6.247334e+01 9.983717e-03 4.789243e-03 -1.137388e-02 -3.924943e-03 -6.446746e-04 -4.348275e-03 9.241000e-04 2.823474e-03 -1.814711e-03 7.426112e-05 6.416700e-04 -1.986236e-03 3.048824e-03 -5.534847e-04 -4.873397e-04 2.678728e-04 1.456505e-04 -4.032630e-04 1.629873e-04 4.006269e-04 -2.182107e-05 2.871380e-04 -1.109352e-04 -7.134675e-05 -2.263920e-05 -8.718508e-05
<VARIANCE> 39
 7.827552e+01 2.916631e+01 6.082389e+01 4.160900e+01 3.424245e+01 4.521050e+01 4.204064e+01 3.543122e+01 5.992240e+01 2.671165e+01 1.799964e+01 1.811580e+01 9.897442e+01 2.168798e+00 1.949727e+00 3.224880e+00 2.463400e+00 1.871462e+00 2.989121e+00 2.131467e+00 2.081037e+00 2.150146e+00 2.020195e+00 1.443949e+00 1.499299e+00 1.499195e+00 2.974444e-01 3.578573e-01 5.111492e-01 4.287061e-01 3.244154e-01 5.359178e-01 3.809912e-01 3.940981e-01 4.027211e-01 3.842024e-01 2.787922e-01 2.909710e-01 2.356735e-01
<GCONST> 1.158026e+02
<STATE> 4
<MEAN> 39
 -1.078388e+00 -1.341521e+01 1.343257e+01 -7.877437e+00 3.985283e+00 5.038661e+00 -8.940006e+00 9.936894e+00 -9.510239e+00 4.058695e+00 1.948795e+00 -2.172131e+00 6.183336e+01 1.368840e-03 4.091530e-03 -8.281261e-03 -2.520719e-03 -3.240158e-03 -1.020194e-03 4.914747e-03 4.060920e-03 2.257396e-03 2.128779e-04 1.597705e-03 -1.227243e-03 -4.208538e-03 -4.999614e-04 -5.080544e-04 2.505434e-04 1.336487e-04 -2.601452e-04 -5.524847e-06 1.599864e-04 -4.337310e-05 1.122069e-04 -1.970308e-04 -6.876083e-05 1.643286e-04 -1.306435e-04
<VARIANCE> 39
 7.452269e+01 2.668757e+01 5.540062e+01 3.846595e+01 3.221656e+01 4.517490e+01 3.982327e+01 3.400990e+01 5.825843e+01 2.494580e+01 1.707220e+01 1.662107e+01 9.675986e+01 1.930224e+00 1.735448e+00 2.911510e+00 2.277020e+00 1.749836e+00 2.824569e+00 1.946931e+00 1.950192e+00 2.019704e+00 1.876735e+00 1.359563e+00 1.382045e+00 1.400859e+00 2.623139e-01 3.195916e-01 4.644399e-01 3.981212e-01 3.018128e-01 4.983575e-01 3.486134e-01 3.662429e-01 3.771238e-01 3.594801e-01 2.629041e-01 2.666095e-01 2.136509e-01
<GCONST> 1.129466e+02
<TRANSP> 5
 0.000000e+00 1.000000e+00 0.000000e+00 0.000000e+00 0.000000e+00
 0.000000e+00 7.240558e-01 2.759442e-01 0.000000e+00 0.000000e+00
 0.000000e+00 0.000000e+00 7.240559e-01 2.759441e-01 0.000000e+00
 0.000000e+00 0.000000e+00 0.000000e+00 8.709539e-01 1.290461e-01
 0.000000e+00 0.000000e+00 0.000000e+00 0.000000e+00 0.000000e+00
<ENDHMM>
~h "u"
<BEGINHMM>
<NUMSTATES> 5
<STATE> 2
<MEAN> 39
 -6.421129e-01 -1.355918e+01 1.382475e+01 -7.902846e+00 3.937000e+00 4.893530e+00 -8.983727e+00 1.000142e+01 -9.925878e+00 3.677468e+00 1.800196e+00 -2.144777e+00 6.249527e+01 1.471369e-02 5.041711e-03 6.584341e-03 7.879777e-04 7.476648e-03 -6.006003e-03 -5.138925e-03 1.342588e-04 -1.239524e-02 -4.896709e-03 -6.457036e-03 1.133704e-03 1.255911e-02 4.962824e-04 1.231741e-04 -1.740998e-04 -2.416626e-04 7.758099e-05 -5.605776e-04 -4.566755e-04 -1.450588e-04 -3.029850e-04 4.101252e-04 7.188754e-04 2.234814e-04 2.328805e-04
<VARIANCE> 39
 7.829929e+01 3.133603e+01 5.831713e+01 3.985818e+01 3.273492e+01 4.557174e+01 3.974762e+01 3.358884e+01 5.648172e+01 2.914716e+01 1.877501e+01 1.866814e+01 9.848197e+01 2.376276e+00 1.977106e+00 3.176153e+00 2.424690e+00 1.930218e+00 3.163147e+00 2.114036e+00 2.104968e+00 2.154651e+00 2.031336e+00 1.569188e+00 1.631369e+00 1.542187e+00 3.281538e-01 3.452660e-01 5.032589e-01 4.290436e-01 3.299157e-01 5.833473e-01 3.690345e-01 3.969641e-01 4.089743e-01 3.900739e-01 3.044256e-01 3.253906e-01 2.347165e-01
<GCONST> 1.164577e+02
<STATE> 3
<MEAN> 39
 -5.920261e-01 -1.354600e+01 1.385355e+01 -7.898623e+00 3.974243e+00 4.875177e+00 -9.005249e+00 9.997417e+00 -9.971683e+00 3.670882e+00 1.783691e+00 -2.137491e+00 6.254515e+01 1.599923e-02 5.510078e-03 5.833181e-03 -3.260529e-04 7.418751e-03 -6.720113e-03 -5.667879e-03 -1.003387e-03 -1.339884e-02 -3.686110e-03 -3.945687e-03 1.727332e-03 1.321771e-02 4.777456e-04 5.269832e-05 -3.992945e-04 -3.023501e-04 -2.987172e-04 -9.002828e-05 1.071039e-04 -7.567973e-06 2.504471e-04 4.992657e-04 9.854867e-04 2.105747e-04 2.152264e-04
<VARIANCE> 39
 7.866787e+01 3.109813e+01 5.847615e+01 3.979867e+01 3.288552e+01 4.567887e+01 3.959173e+01 3.375728e+01 5.655143e+01 2.914008e+01 1.878106e+01 1.883377e+01 9.868730e+01 2.368619e+00 1.965754e+00 3.190260e+00 2.425591e+00 1.942783e+00 3.175425e+00 2.112527e+00 2.123868e+00 2.174755e+00 2.033403e+00 1.567904e+00 1.640313e+00 1.537128e+00 3.278407e-01 3.441326e-01 5.059364e-01 4.291582e-01 3.309185e-01 5.849987e-01 3.680616e-01 4.004311e-01 4.140898e-01 3.903247e-01 3.037581e-01 3.270598e-01 2.342380e-01
<GCONST> 1.165295e+02
<STATE> 4
<MEAN> 39
 -1.061334e+00 -1.331616e+01 1.369339e+01 -7.764023e+00 4.007946e+00 5.041276e+00 -8.863334e+00 1.007631e+01 -9.544545e+00 3.844131e+00 1.845378e+00 -2.073354e+00 6.183203e+01 1.890461e-02 2.757449e-03 4.469181e-03 -2.464833e-03 9.006654e-03 -4.652643e-03 -6.369930e-03 -3.309175e-03 -1.337290e-02 -1.714788e-03 -1.574296e-03 9.451843e-04 1.839303e-02 2.800761e-04 -1.251304e-04 -5.385017e-04 -2.191654e-04 -2.671039e-04 6.520590e-04 5.411879e-04 2.966480e-04 8.262283e-04 1.751865e-04 3.136212e-04 -2.397393e-04 1.796704e-04
<VARIANCE> 39
 7.546185e+01 2.896663e+01 5.230549e+01 3.738736e+01 3.193595e+01 4.340777e+01 3.656993e+01 3.218149e+01 5.390971e+01 2.696125e+01 1.783369e+01 1.781919e+01 9.476491e+01 2.136917e+00 1.795362e+00 2.965473e+00 2.270486e+00 1.839864e+00 2.952318e+00 1.935082e+00 2.034740e+00 2.092932e+00 1.923347e+00 1.486259e+00 1.527702e+00 1.432064e+00 2.953179e-01 3.155508e-01 4.790384e-01 4.049766e-01 3.103978e-01 5.419543e-01 3.357175e-01 3.806861e-01 3.992151e-01 3.715902e-01 2.902418e-01 3.040987e-01 2.163326e-01
<GCONST> 1.140117e+02
<TRANSP> 5
 0.000000e+00 1.000000e+00 0.000000e+00 0.000000e+00 0.000000e+00
 0.000000e+00 7.095420e-01 2.904580e-01 0.000000e+00 0.000000e+00
 0.000000e+00 0.000000e+00 7.095433e-01 2.904566e-01 0.000000e+00
 0.000000e+00 0.000000e+00 0.000000e+00 8.528984e-01 1.471016e-01
 0.000000e+00 0.000000e+00 0.000000e+00 0.000000e+00 0.000000e+00
<ENDHMM>
~h "v"
<BEGINHMM>
<NUMSTATES> 5
<STATE> 2
<MEAN> 39
 1.462154e-01 -1.391921e+01 1.354950e+01 -8.296041e+00 4.029319e+00 4.575945e+00 -9.699441e+00 9.306628e+00 -1.069632e+01 3.506331e+00 1.695169e+00 -2.320131e+00 6.345533e+01 -1.247017e-04 5.866625e-03 -3.182643e-03 -7.458360e-03 -1.049959e-02 -6.331852e-03 6.038427e-03 -1.067590e-03 -5.243859e-03 4.174213e-03 1.407220e-03 -3.191265e-04 -3.282831e-03 2.002147e-05 -1.131430e-04 -2.876561e-05 1.857573e-04 -6.233105e-04 -7.099653e-04 -8.408233e-05 -1.684550e-04 -1.294046e-04 1.021650e-04 6.503002e-05 8.511847e-05 7.088244e-05
<VARIANCE> 39
 8.859996e+01 3.192769e+01 6.674278e+01 4.428749e+01 3.451813e+01 4.617456e+01 4.474466e+01 3.487627e+01 6.107991e+01 3.048409e+01 2.009602e+01 1.905557e+01 1.034632e+02 2.121319e+00 1.954557e+00 3.204477e+00 2.599672e+00 1.900593e+00 3.116913e+00 2.185659e+00 2.232295e+00 2.245550e+00 2.094005e+00 1.557167e+00 1.650375e+00 1.495337e+00 2.844264e-01 3.414879e-01 5.070826e-01 4.567605e-01 3.191289e-01 5.556220e-01 3.864270e-01 4.139436e-01 4.219582e-01 3.961104e-01 3.003037e-01 3.222588e-01 2.345129e-01
<GCONST> 1.173283e+02
<STATE> 3
<MEAN> 39
 1.363565e-01 -1.390024e+01 1.354121e+01 -8.318753e+00 3.990038e+00 4.551730e+00 -9.681158e+00 9.305520e+00 -1.070834e+01 3.520916e+00 1.703803e+00 -2.322629e+00 6.343653e+01 -1.161970e-04 4.949672e-03 -3.160346e-03 -7.113900e-03 -1.102132e-02 -7.402996e-03 4.656159e-03 -1.444685e-03 -4.763503e-03 4.028455e-03 1.869897e-03 3.175171e-04 -2.738652e-03 -7.015662e-05 -2.278294e-04 -6.434447e-05 1.081180e-04 -9.589928e-05 -3.189091e-04 -3.867642e-04 -7.544488e-05 1.992534e-04 -5.197630e-05 9.765536e-05 3.066467e-04 3.361218e-05
<VARIANCE> 39
 8.866292e+01 3.165585e+01 6.699346e+01 4.405338e+01 3.471124e+01 4.613730e+01 4.456480e+01 3.481630e+01 6.101693e+01 3.060301e+01 2.016320e+01 1.893775e+01 1.031433e+02 2.121761e+00 1.938260e+00 3.215558e+00 2.576765e+00 1.897391e+00 3.121438e+00 2.170481e+00 2.230844e+00 2.247764e+00 2.093503e+00 1.552388e+00 1.641813e+00 1.482231e+00 2.834632e-01 3.393497e-01 5.074794e-01 4.527045e-01 3.183338e-01 5.569597e-01 3.832787e-01 4.136975e-01 4.221487e-01 3.954882e-01 2.994018e-01 3.204588e-01 2.326338e-01
<GCONST> 1.172326e+02
<STATE> 4
<MEAN> 39
 -3.373423e-01 -1.377983e+01 1.334896e+01 -8.227418e+00 3.799548e+00 4.656098e+00 -9.400727e+00 9.448659e+00 -1.031017e+01 3.614142e+00 1.752330e+00 -2.243589e+00 6.280638e+01 -4.472581e-03 2.428076e-03 -1.022662e-03 -3.253910e-03 -8.251246e-03 -5.047427e-03 1.686518e-03 -7.282153e-04 -1.031863e-04 3.270702e-03 2.662666e-03 5.160747e-04 -5.391038e-03 -1.978145e-05 -2.747295e-04 -6.987809e-05 4.029032e-04 3.154170e-04 -3.642716e-05 -4.427782e-04 -1.630777e-04 2.784751e-04 -1.175406e-04 -2.934814e-05 2.062868e-04 3.158318e-05
<VARIANCE> 39
 8.587336e+01 3.013922e+01 6.257986e+01 4.131761e+01 3.344382e+01 4.448858e+01 4.210953e+01 3.326575e+01 5.976048e+01 2.890527e+01 1.964552e+01 1.819000e+01 1.011458e+02 1.951631e+00 1.781293e+00 3.005976e+00 2.399995e+00 1.794489e+00 2.959843e+00 2.025479e+00 2.122406e+00 2.165017e+00 1.987307e+00 1.489065e+00 1.583649e+00 1.368679e+00 2.576893e-01 3.116311e-01 4.752323e-01 4.235088e-01 3.006557e-01 5.272753e-01 3.584104e-01 3.910992e-01 4.067889e-01 3.759337e-01 2.880602e-01 3.076725e-01 2.128754e-01
<GCONST> 1.150945e+02
<TRANSP> 5
 0.000000e+00 1.000000e+00 0.000000e+00 0.000000e+00 0.000000e+00
 0.000000e+00 7.152243e-01 2.847757e-01 0.000000e+00 0.000000e+00
 0.000000e+00 0.000000e+00 7.152231e-01 2.847769e-01 0.000000e+00
 0.000000e+00 0.000000e+00 0.000000e+00 8.499953e-01 1.500047e-01
 0.000000e+00 0.000000e+00 0.000000e+00 0.000000e+00 0.000000e+00
<ENDHMM>
~h "x"
<BEGINHMM>
<NUMSTATES> 5
<STATE> 2
<MEAN> 39
 1.144790e+00 -1.457504e+01 1.376930e+01 -8.903641e+00 3.965523e+00 4.372814e+00 -1.015572e+01 8.749371e+00 -1.152975e+01 3.755423e+00 1.659815e+00 -2.315453e+00 6.510062e+01 2.678433e-02 2.168040e-03 -2.803750e-04 -8.336218e-03 2.325947e-03 -1.999757e-03 6.014662e-04 -1.255437e-02 -2.267067e-02 1.491063e-03 -4.804738e-03 3.480496e-03 2.571531e-02 2.142881e-04 2.061249e-04 3.977099e-04 3.839358e-04 6.378298e-04 -9.452473e-04 -5.408617e-04 6.906596e-04 1.452771e-05 9.052402e-05 3.316282e-04 -3.977499e-04 4.283441e-04
<VARIANCE> 39
 9.035172e+01 4.093126e+01 7.437695e+01 4.923088e+01 3.929099e+01 5.251967e+01 4.678268e+01 3.785108e+01 6.181849e+01 3.206261e+01 2.389051e+01 2.182967e+01 1.082498e+02 2.757865e+00 2.517258e+00 3.880373e+00 2.828713e+00 2.579642e+00 3.823545e+00 2.643051e+00 2.536415e+00 2.626276e+00 2.387614e+00 1.823235e+00 1.628634e+00 1.959281e+00 3.847740e-01 4.474707e-01 6.198553e-01 4.786726e-01 4.398396e-01 6.994906e-01 4.745238e-01 4.636336e-01 4.812151e-01 4.598595e-01 3.493389e-01 3.111623e-01 3.033356e-01
<GCONST> 1.232772e+02
<STATE> 3
<MEAN> 39
 1.246153e+00 -1.456086e+01 1.376348e+01 -8.936899e+00 3.977931e+00 4.362908e+00 -1.015364e+01 8.710963e+00 -1.160629e+01 3.757402e+00 1.649785e+00 -2.301618e+00 6.519685e+01 2.717279e-02 1.981384e-03 1.495441e-03 -7.211144e-03 3.737992e-03 -4.982946e-03 -9.347491e-04 -1.061641e-02 -2.227528e-02 2.821084e-03 -3.462568e-03 2.670303e-03 2.748865e-02 -9.405036e-05 -9.676848e-05 5.298189e-04 4.219748e-04 3.444478e-04 -8.529722e-04 -4.512166e-04 7.191940e-04 3.617456e-04 2.640196e-04 3.312052e-04 -4.303337e-04 2.929153e-04
<VARIANCE> 39
 9.044804e+01 4.119180e+01 7.501579e+01 4.913949e+01 3.977536e+01 5.279841e+01 4.704745e+01 3.835443e+01 6.186847e+01 3.208381e+01 2.382899e+01 2.188591e+01 1.082481e+02 2.797573e+00 2.540311e+00 3.946692e+00 2.840264e+00 2.603457e+00 3.845858e+00 2.680694e+00 2.556893e+00 2.633572e+00 2.390472e+00 1.809605e+00 1.630496e+00 1.974262e+00 3.908999e-01 4.511454e-01 6.291676e-01 4.811821e-01 4.439248e-01 7.028718e-01 4.822030e-01 4.665216e-01 4.828385e-01 4.593876e-01 3.463381e-01 3.114589e-01 3.055788e-01
<GCONST> 1.234985e+02
<STATE> 4
<MEAN> 39
 8.630752e-01 -1.448258e+01 1.359169e+01 -8.928156e+00 3.818998e+00 4.516604e+00 -1.002244e+01 8.827232e+00 -1.120623e+01 3.834421e+00 1.870632e+00 -2.199873e+00 6.473839e+01 2.983823e-02 -1.846377e-03 1.172328e-03 -1.114300e-02 3.064730e-03 -6.601044e-03 -3.007314e-03 -9.929927e-03 -2.311921e-02 3.849531e-03 1.952149e-03 4.228699e-03 3.513267e-02 -5.357901e-04 -4.034035e-04 3.090502e-04 7.963196e-05 4.757278e-05 -4.071992e-04 -3.219156e-04 4.459344e-04 3.905102e-04 2.640170e-04 4.310593e-04 -1.602750e-04 -1.142698e-05
<VARIANCE> 39
 8.896712e+01 4.038739e+01 7.076923e+01 4.759605e+01 3.738451e+01 5.110093e+01 4.686871e+01 3.705009e+01 6.038506e+01 3.043486e+01 2.273663e+01 2.119589e+01 1.118342e+02 2.634203e+00 2.442260e+00 3.831034e+00 2.711344e+00 2.426212e+00 3.641591e+00 2.645535e+00 2.422492e+00 2.502259e+00 2.285288e+00 1.707761e+00 1.565724e+00 1.888507e+00 3.683879e-01 4.311598e-01 6.126452e-01 4.620665e-01 4.160566e-01 6.583835e-01 4.751080e-01 4.414130e-01 4.592429e-01 4.362578e-01 3.271279e-01 2.984262e-01 2.880364e-01
<GCONST> 1.218757e+02
<TRANSP> 5
 0.000000e+00 1.000000e+00 0.000000e+00 0.000000e+00 0.000000e+00
 0.000000e+00 7.152305e-01 2.847696e-01 0.000000e+00 0.000000e+00
 0.000000e+00 0.000000e+00 7.152311e-01 2.847689e-01 0.000000e+00
 0.000000e+00 0.000000e+00 0.000000e+00 8.535528e-01 1.464472e-01
 0.000000e+00 0.000000e+00 0.000000e+00 0.000000e+00 0.000000e+00
<ENDHMM>
~h "z"
<BEGINHMM>
<NUMSTATES> 5
<STATE> 2
<MEAN> 39
 9.246857e-01 -1.382402e+01 1.344206e+01 -7.670579e+00 4.542364e+00 4.981547e+00 -9.902270e+00 8.732769e+00 -1.073392e+01 3.748453e+00 1.914408e+00 -2.519297e+00 6.377655e+01 4.326241e-03 -3.182252e-03 1.088305e-02 2.040659e-03 1.502998e-02 1.706017e-02 -7.059672e-03 -1.241453e-02 -9.402580e-03 -2.344230e-03 -7.325474e-03 -6.216743e-03 6.284968e-03 -8.155410e-04 -6.199224e-04 1.968229e-03 4.480102e-04 2.398961e-04 -8.581578e-04 -1.714152e-03 -2.412090e-03 -4.196536e-04 9.746862e-04 -1.243355e-03 -9.127934e-04 5.190937e-04
<VARIANCE> 39
 8.590228e+01 2.997659e+01 6.785831e+01 4.756607e+01 4.089708e+01 4.644354e+01 4.745396e+01 3.662265e+01 5.902779e+01 2.780527e+01 1.897376e+01 2.149031e+01 9.960912e+01 2.074266e+00 1.851363e+00 3.659631e+00 2.724489e+00 1.962139e+00 3.578542e+00 2.395635e+00 2.373705e+00 2.161258e+00 2.213964e+00 1.499295e+00 1.856892e+00 1.385683e+00 2.957179e-01 3.216452e-01 5.900324e-01 4.651122e-01 3.175775e-01 6.309887e-01 4.066965e-01 4.377527e-01 4.133604e-01 4.231010e-01 2.829559e-01 3.548961e-01 2.152000e-01
<GCONST> 1.183259e+02
<STATE> 3
<MEAN> 39
 9.181110e-01 -1.383202e+01 1.348353e+01 -7.651376e+00 4.582813e+00 5.016897e+00 -9.929678e+00 8.691786e+00 -1.075369e+01 3.744379e+00 1.883414e+00 -2.543029e+00 6.377950e+01 7.626261e-04 -4.213976e-03 1.688403e-02 4.756595e-03 1.471848e-02 1.185015e-02 -1.222889e-02 -1.855108e-02 -1.129745e-02 1.307562e-03 -9.069857e-03 -7.533721e-03 6.712092e-03 -1.566711e-03 -2.277780e-04 2.484517e-03 1.580927e-03 -2.177872e-04 -2.001168e-03 -1.559207e-03 -1.829962e-03 -5.956404e-05 1.625534e-03 -4.879217e-04 -5.903082e-04 -1.610854e-04
<VARIANCE> 39
 8.586226e+01 2.978964e+01 6.837193e+01 4.763912e+01 4.091703e+01 4.636218e+01 4.726025e+01 3.686988e+01 5.881014e+01 2.775109e+01 1.883185e+01 2.142309e+01 9.927431e+01 2.085163e+00 1.855510e+00 3.660908e+00 2.734140e+00 1.962937e+00 3.568877e+00 2.412471e+00 2.375030e+00 2.164012e+00 2.222714e+00 1.494578e+00 1.850240e+00 1.393876e+00 2.979808e-01 3.227281e-01 5.893739e-01 4.655116e-01 3.182408e-01 6.284015e-01 4.109640e-01 4.371700e-01 4.128799e-01 4.244847e-01 2.824943e-01 3.539902e-01 2.156199e-01
<GCONST> 1.183486e+02
<STATE> 4
<MEAN> 39
 4.910510e-01 -1.379581e+01 1.349696e+01 -7.479143e+00 4.531965e+00 5.144814e+00 -9.802789e+00 8.819643e+00 -1.043486e+01 3.726709e+00 1.889837e+00 -2.467985e+00 6.332289e+01 -8.867469e-03 -3.923625e-03 2.214757e-02 7.557295e-03 1.029749e-02 7.446664e-03 -1.035821e-02 -1.441566e-02 -5.468216e-03 4.825048e-03 -5.349300e-03 -3.398173e-03 3.855074e-04 -1.618227e-03 -4.533272e-04 2.210504e-03 5.464751e-04 -5.059297e-04 -6.239954e-04 -4.000624e-04 -4.878571e-04 1.980739e-04 1.057114e-03 5.314150e-04 3.762341e-04 -1.328438e-04
<VARIANCE> 39
 8.418438e+01 2.884593e+01 6.616193e+01 4.539884e+01 3.902220e+01 4.456415e+01 4.558407e+01 3.575223e+01 5.768762e+01 2.650964e+01 1.809023e+01 2.067308e+01 9.954647e+01 1.992971e+00 1.761199e+00 3.538368e+00 2.573158e+00 1.872189e+00 3.379641e+00 2.318241e+00 2.267946e+00 2.067914e+00 2.117887e+00 1.450594e+00 1.761293e+00 1.307264e+00 2.848336e-01 3.077518e-01 5.690464e-01 4.313100e-01 3.056755e-01 5.916455e-01 3.985567e-01 4.156592e-01 3.939255e-01 4.037400e-01 2.762563e-01 3.374706e-01 2.015314e-01
<GCONST> 1.166863e+02
<TRANSP> 5
 0.000000e+00 1.000000e+00 0.000000e+00 0.000000e+00 0.000000e+00
 0.000000e+00 6.896178e-01 3.103822e-01 0.000000e+00 0.000000e+00
 0.000000e+00 0.000000e+00 6.896184e-01 3.103816e-01 0.000000e+00
 0.000000e+00 0.000000e+00 0.000000e+00 8.183177e-01 1.816824e-01
 0.000000e+00 0.000000e+00 0.000000e+00 0.000000e+00 0.000000e+00
<ENDHMM>
~h "aa"
<BEGINHMM>
<NUMSTATES> 5
<STATE> 2
<MEAN> 39
 3.579350e-02 -1.372068e+01 1.256837e+01 -8.792445e+00 3.557391e+00 4.886289e+00 -8.603154e+00 9.736375e+00 -9.978790e+00 4.093038e+00 1.962805e+00 -1.699749e+00 6.295662e+01 2.749466e-03 -9.270412e-03 1.050942e-02 -1.269403e-03 7.903035e-04 -2.737036e-03 -1.652060e-03 -1.846382e-03 -1.037655e-02 -2.289295e-03 -2.712305e-03 8.205245e-06 1.518869e-02 -7.181365e-04 -6.625839e-04 8.284161e-04 6.493502e-04 2.094391e-04 4.884109e-04 -3.162023e-04 5.026579e-06 5.331212e-04 -3.129783e-04 -5.614224e-05 -2.045293e-04 4.470892e-05
<VARIANCE> 39
 8.659147e+01 2.944976e+01 6.518953e+01 4.254218e+01 3.312525e+01 4.339921e+01 3.570536e+01 3.301490e+01 5.717355e+01 2.603779e+01 1.862446e+01 1.871647e+01 1.034807e+02 2.074769e+00 1.931918e+00 3.348588e+00 2.380455e+00 1.942852e+00 3.144655e+00 1.986452e+00 2.167660e+00 2.238519e+00 1.975524e+00 1.493787e+00 1.688036e+00 1.509525e+00 2.805630e-01 3.455909e-01 5.163128e-01 4.238965e-01 3.350029e-01 5.787840e-01 3.565038e-01 4.063171e-01 4.297753e-01 3.812832e-01 2.843594e-01 3.309839e-01 2.414337e-01
<GCONST> 1.161299e+02
<STATE> 3
<MEAN> 39
 4.190677e-02 -1.375566e+01 1.260671e+01 -8.796384e+00 3.557250e+00 4.877470e+00 -8.604293e+00 9.735551e+00 -1.001306e+01 4.085209e+00 1.956094e+00 -1.698861e+00 6.300986e+01 -7.967759e-05 -1.099618e-02 1.320152e-02 1.196985e-03 1.357865e-03 -1.340765e-03 -2.298776e-03 -1.503041e-03 -8.206485e-03 -2.955101e-03 -2.994455e-03 -1.187721e-03 1.444516e-02 -8.399222e-04 -6.287490e-04 7.360679e-04 5.797030e-04 4.220397e-05 3.352408e-04 -2.226417e-04 1.492392e-04 7.430965e-04 -1.025016e-04 -1.615829e-05 -3.846203e-04 -1.561330e-04
<VARIANCE> 39
 8.672829e+01 2.992676e+01 6.574201e+01 4.267675e+01 3.321406e+01 4.368894e+01 3.584554e+01 3.330040e+01 5.724372e+01 2.632851e+01 1.867048e+01 1.875244e+01 1.036865e+02 2.100410e+00 1.953242e+00 3.385372e+00 2.384662e+00 1.957047e+00 3.162446e+00 1.992868e+00 2.192939e+00 2.248205e+00 1.975341e+00 1.490460e+00 1.698051e+00 1.520893e+00 2.824020e-01 3.491534e-01 5.209848e-01 4.259297e-01 3.382360e-01 5.836667e-01 3.578821e-01 4.116411e-01 4.309373e-01 3.802736e-01 2.838590e-01 3.335563e-01 2.434479e-01
<GCONST> 1.163586e+02
<STATE> 4
<MEAN> 39
 -5.209302e-01 -1.374386e+01 1.258633e+01 -8.751326e+00 3.420662e+00 5.100076e+00 -8.459390e+00 9.960179e+00 -9.528724e+00 4.149315e+00 2.058211e+00 -1.632426e+00 6.243930e+01 -7.238958e-03 -9.621264e-03 1.413876e-02 4.265994e-03 3.484398e-04 6.653274e-04 -8.047563e-04 4.948702e-04 -2.055235e-03 -1.110319e-03 -1.547196e-03 -2.032436e-03 6.567002e-03 -8.538298e-04 -1.419190e-04 5.058526e-04 3.874651e-04 -1.187629e-04 1.436805e-04 -2.775445e-04 5.916922e-05 7.034426e-04 1.330175e-04 1.027837e-05 -3.356951e-04 -6.123654e-04
<VARIANCE> 39
 8.346190e+01 2.990253e+01 6.172130e+01 4.079318e+01 3.035461e+01 4.140424e+01 3.509357e+01 3.177410e+01 5.513511e+01 2.484239e+01 1.775630e+01 1.778448e+01 1.026893e+02 1.952871e+00 1.866367e+00 3.152253e+00 2.256993e+00 1.825889e+00 2.955626e+00 1.908775e+00 2.103637e+00 2.158868e+00 1.860417e+00 1.416329e+00 1.626028e+00 1.435965e+00 2.588698e-01 3.297158e-01 4.847928e-01 4.056092e-01 3.182381e-01 5.448955e-01 3.391267e-01 3.938429e-01 4.114918e-01 3.572846e-01 2.700105e-01 3.198162e-01 2.276586e-01
<GCONST> 1.143115e+02
<TRANSP> 5
 0.000000e+00 1.000000e+00 0.000000e+00 0.000000e+00 0.000000e+00
 0.000000e+00 7.140030e-01 2.859969e-01 0.000000e+00 0.000000e+00
 0.000000e+00 0.000000e+00 7.140021e-01 2.859980e-01 0.000000e+00
 0.000000e+00 0.000000e+00 0.000000e+00 8.530776e-01 1.469224e-01
 0.000000e+00 0.000000e+00 0.000000e+00 0.000000e+00 0.000000e+00
<ENDHMM>
~h "aw"
<BEGINHMM>
<NUMSTATES> 5
<STATE> 2
<MEAN> 39
 -7.474797e-01 -1.372438e+01 1.363240e+01 -7.800015e+00 3.957401e+00 4.912278e+00 -9.313604e+00 9.542570e+00 -9.857509e+00 3.919184e+00 1.996032e+00 -2.240039e+00 6.241040e+01 -1.802149e-04 -4.002908e-04 -4.533151e-04 -6.255359e-04 3.060046e-04 -9.756409e-05 3.545313e-04 3.676544e-04 -3.322966e-04 2.823267e-04 3.441859e-04 -7.776468e-06 1.221478e-04 -1.140098e-05 1.280875e-04 8.513568e-05 5.610451e-05 1.307168e-04 1.258145e-04 -3.556004e-04 -3.413941e-04 -2.462322e-04 -2.982411e-04 -2.002541e-04 1.479088e-04 -5.553468e-05
<VARIANCE> 39
 7.885750e+01 3.150516e+01 5.932858e+01 4.002160e+01 3.388152e+01 4.450462e+01 4.196474e+01 3.377337e+01 5.805833e+01 2.700758e+01 1.807174e+01 1.807939e+01 1.000320e+02 2.049164e+00 1.868461e+00 3.042747e+00 2.325078e+00 1.845033e+00 2.917301e+00 2.107786e+00 2.084596e+00 2.106791e+00 1.946175e+00 1.426612e+00 1.517214e+00 1.393703e+00 2.791751e-01 3.309114e-01 4.813313e-01 4.079526e-01 3.174572e-01 5.210913e-01 3.729059e-01 3.905098e-01 3.965955e-01 3.683704e-01 2.743881e-01 2.959611e-01 2.159844e-01
<GCONST> 1.148699e+02
<STATE> 3
<MEAN> 39
 -7.474797e-01 -1.372438e+01 1.363240e+01 -7.800015e+00 3.957401e+00 4.912278e+00 -9.313604e+00 9.542570e+00 -9.857509e+00 3.919184e+00 1.996032e+00 -2.240039e+00 6.241040e+01 -1.802149e-04 -4.002908e-04 -4.533151e-04 -6.255359e-04 3.060046e-04 -9.756409e-05 3.545313e-04 3.676544e-04 -3.322966e-04 2.823267e-04 3.441859e-04 -7.776468e-06 1.221478e-04 -1.140098e-05 1.280875e-04 8.513568e-05 5.610451e-05 1.307168e-04 1.258145e-04 -3.556004e-04 -3.413941e-04 -2.462322e-04 -2.982411e-04 -2.002541e-04 1.479088e-04 -5.553468e-05
<VARIANCE> 39
 7.885750e+01 3.150516e+01 5.932858e+01 4.002160e+01 3.388152e+01 4.450462e+01 4.196474e+01 3.377337e+01 5.805833e+01 2.700758e+01 1.807174e+01 1.807939e+01 1.000320e+02 2.049164e+00 1.868461e+00 3.042747e+00 2.325078e+00 1.845033e+00 2.917301e+00 2.107786e+00 2.084596e+00 2.106791e+00 1.946175e+00 1.426612e+00 1.517214e+00 1.393703e+00 2.791751e-01 3.309114e-01 4.813313e-01 4.079526e-01 3.174572e-01 5.210913e-01 3.729059e-01 3.905098e-01 3.965955e-01 3.683704e-01 2.743881e-01 2.959611e-01 2.159844e-01
<GCONST> 1.148699e+02
<STATE> 4
<MEAN> 39
 -7.474797e-01 -1.372438e+01 1.363240e+01 -7.800015e+00 3.957401e+00 4.912278e+00 -9.313604e+00 9.542570e+00 -9.857509e+00 3.919184e+00 1.996032e+00 -2.240039e+00 6.241040e+01 -1.802149e-04 -4.002908e-04 -4.533151e-04 -6.255359e-04 3.060046e-04 -9.756409e-05 3.545313e-04 3.676544e-04 -3.322966e-04 2.823267e-04 3.441859e-04 -7.776468e-06 1.221478e-04 -1.140098e-05 1.280875e-04 8.513568e-05 5.610451e-05 1.307168e-04 1.258145e-04 -3.556004e-04 -3.413941e-04 -2.462322e-04 -2.982411e-04 -2.002541e-04 1.479088e-04 -5.553468e-05
<VARIANCE> 39
 7.885750e+01 3.150516e+01 5.932858e+01 4.002160e+01 3.388152e+01 4.450462e+01 4.196474e+01 3.377337e+01 5.805833e+01 2.700758e+01 1.807174e+01 1.807939e+01 1.000320e+02 2.049164e+00 1.868461e+00 3.042747e+00 2.325078e+00 1.845033e+00 2.917301e+00 2.107786e+00 2.084596e+00 2.106791e+00 1.946175e+00 1.426612e+00 1.517214e+00 1.393703e+00 2.791751e-01 3.309114e-01 4.813313e-01 4.079526e-01 3.174572e-01 5.210913e-01 3.729059e-01 3.905098e-01 3.965955e-01 3.683704e-01 2.743881e-01 2.959611e-01 2.159844e-01
<GCONST> 1.148699e+02
<TRANSP> 5
 0.000000e+00 1.000000e+00 0.000000e+00 0.000000e+00 0.000000e+00
 0.000000e+00 6.000000e-01 4.000000e-01 0.000000e+00 0.000000e+00
 0.000000e+00 0.000000e+00 6.000000e-01 4.000000e-01 0.000000e+00
 0.000000e+00 0.000000e+00 0.000000e+00 7.000000e-01 3.000000e-01
 0.000000e+00 0.000000e+00 0.000000e+00 0.000000e+00 0.000000e+00
<ENDHMM>
~h "ch"
<BEGINHMM>
<NUMSTATES> 5
<STATE> 2
<MEAN> 39
 -3.178152e-02 -1.479057e+01 1.420584e+01 -7.705279e+00 3.931031e+00 4.624410e+00 -1.001817e+01 8.904140e+00 -1.093826e+01 3.112317e+00 1.898106e+00 -2.464988e+00 6.417750e+01 -1.949007e-02 -1.475161e-02 1.513324e-02 -7.380692e-03 -1.504040e-02 -5.927487e-03 1.684101e-02 8.166667e-03 5.151303e-04 5.740561e-03 -8.756028e-03 9.010097e-04 1.031428e-03 -3.225962e-04 4.357232e-05 6.131607e-04 3.984107e-04 -5.702556e-04 2.798835e-04 4.091416e-04 2.091117e-04 2.198284e-04 -4.736366e-04 1.287519e-05 4.580655e-04 -3.092541e-04
<VARIANCE> 39
 8.937269e+01 4.308369e+01 6.194446e+01 3.917660e+01 3.389598e+01 4.790536e+01 4.605793e+01 3.729091e+01 6.025532e+01 3.460357e+01 2.026476e+01 2.164338e+01 1.123682e+02 2.280599e+00 2.461144e+00 3.058311e+00 2.634637e+00 2.073410e+00 3.123296e+00 2.265170e+00 2.510399e+00 2.403696e+00 2.180878e+00 1.697689e+00 1.758061e+00 1.534866e+00 3.031937e-01 4.199680e-01 4.720992e-01 4.769871e-01 3.531995e-01 5.399219e-01 3.899843e-01 4.654393e-01 4.616336e-01 4.007868e-01 3.273250e-01 3.385809e-01 2.479016e-01
<GCONST> 1.194160e+02
<STATE> 3
<MEAN> 39
 -8.411516e-02 -1.484194e+01 1.425377e+01 -7.726222e+00 3.880218e+00 4.600198e+00 -9.968869e+00 8.929502e+00 -1.094467e+01 3.119489e+00 1.872140e+00 -2.465470e+00 6.419429e+01 -2.015601e-02 -1.468222e-02 1.640189e-02 -5.662854e-03 -1.523266e-02 -4.868496e-03 1.747508e-02 8.279805e-03 1.000282e-03 4.325380e-03 -7.748586e-03 2.721032e-03 1.310233e-04 -2.305606e-04 5.937438e-05 3.904292e-04 5.341796e-04 2.920563e-05 4.991391e-04 1.716660e-04 -4.777342e-05 2.343016e-04 -2.157884e-04 3.649482e-04 5.260520e-04 -3.177879e-04
<VARIANCE> 39
 8.927115e+01 4.402467e+01 6.255215e+01 3.919199e+01 3.379093e+01 4.812455e+01 4.586942e+01 3.733232e+01 6.050136e+01 3.458924e+01 2.025364e+01 2.152948e+01 1.123263e+02 2.323930e+00 2.503553e+00 3.072824e+00 2.631856e+00 2.072416e+00 3.126160e+00 2.247374e+00 2.507541e+00 2.421896e+00 2.173486e+00 1.688709e+00 1.744621e+00 1.537340e+00 3.084238e-01 4.258066e-01 4.748977e-01 4.752496e-01 3.520487e-01 5.395705e-01 3.871195e-01 4.653165e-01 4.642154e-01 3.988981e-01 3.259327e-01 3.357933e-01 2.482872e-01
<GCONST> 1.194778e+02
<STATE> 4
<MEAN> 39
 -6.690314e-01 -1.476880e+01 1.420479e+01 -7.636363e+00 3.617455e+00 4.713917e+00 -9.716709e+00 9.110168e+00 -1.049110e+01 3.187757e+00 1.946857e+00 -2.337353e+00 6.352334e+01 -1.491509e-02 -1.390445e-02 1.490634e-02 -2.839560e-03 -8.960672e-03 -4.554263e-03 1.204505e-02 6.388619e-03 -2.634461e-03 3.142242e-03 -3.040435e-03 4.489888e-03 3.488072e-03 -7.100408e-05 7.199489e-05 1.984979e-04 4.845509e-04 5.434958e-04 4.099655e-04 -1.706459e-04 -8.816800e-05 1.395853e-04 2.859159e-04 6.012700e-04 5.516601e-04 -2.105205e-04
<VARIANCE> 39
 8.514335e+01 4.327582e+01 5.913792e+01 3.683636e+01 3.117341e+01 4.570974e+01 4.262800e+01 3.508855e+01 5.884241e+01 3.318642e+01 1.955794e+01 2.007715e+01 1.107931e+02 2.198720e+00 2.412795e+00 2.886747e+00 2.485966e+00 1.955556e+00 2.929137e+00 2.095945e+00 2.376949e+00 2.331350e+00 2.066722e+00 1.619207e+00 1.643001e+00 1.452731e+00 2.907051e-01 4.077061e-01 4.514982e-01 4.483057e-01 3.324575e-01 5.054390e-01 3.641520e-01 4.405613e-01 4.494144e-01 3.809939e-01 3.135281e-01 3.157760e-01 2.348716e-01
<GCONST> 1.174507e+02
<TRANSP> 5
 0.000000e+00 1.000000e+00 0.000000e+00 0.000000e+00 0.000000e+00
 0.000000e+00 7.178175e-01 2.821825e-01 0.000000e+00 0.000000e+00
 0.000000e+00 0.000000e+00 7.178174e-01 2.821826e-01 0.000000e+00
 0.000000e+00 0.000000e+00 0.000000e+00 8.514919e-01 1.485081e-01
 0.000000e+00 0.000000e+00 0.000000e+00 0.000000e+00 0.000000e+00
<ENDHMM>
~h "dj"
<BEGINHMM>
<NUMSTATES> 5
<STATE> 2
<MEAN> 39
 1.346179e-01 -1.409117e+01 1.394805e+01 -7.735743e+00 4.884879e+00 4.568641e+00 -1.025626e+01 9.028027e+00 -1.048920e+01 4.158804e+00 2.001187e+00 -2.308998e+00 6.369012e+01 3.434272e-02 -4.252762e-03 -1.459231e-03 -3.603588e-03 2.170231e-03 -1.453898e-02 -9.932443e-03 -3.984806e-03 -3.135078e-02 -1.930803e-02 3.585825e-03 -6.681709e-04 3.265863e-02 7.945205e-04 4.668318e-04 -9.512817e-04 8.082748e-04 6.389908e-04 -1.861315e-04 -2.174866e-04 -6.417914e-04 -9.206096e-04 -8.992504e-04 -4.528156e-04 5.092297e-04 1.183696e-05
<VARIANCE> 39
 7.908849e+01 3.227526e+01 6.360716e+01 4.511828e+01 3.562946e+01 4.571460e+01 4.574902e+01 3.286086e+01 5.737066e+01 3.285938e+01 1.894196e+01 1.687737e+01 1.074722e+02 2.238963e+00 2.058985e+00 3.240812e+00 2.593759e+00 1.910705e+00 3.195328e+00 2.557340e+00 1.949240e+00 2.344795e+00 2.369694e+00 1.481679e+00 1.496114e+00 1.886052e+00 3.243756e-01 3.834390e-01 5.324290e-01 4.697179e-01 3.341378e-01 5.702949e-01 4.376053e-01 3.846201e-01 4.476506e-01 4.417344e-01 2.815389e-01 2.952053e-01 2.829039e-01
<GCONST> 1.181186e+02
<STATE> 3
<MEAN> 39
 2.540461e-01 -1.409200e+01 1.395125e+01 -7.732100e+00 4.899899e+00 4.534351e+00 -1.029623e+01 9.015303e+00 -1.058796e+01 4.084589e+00 2.015356e+00 -2.314493e+00 6.379143e+01 3.658210e-02 -2.437708e-03 -3.830588e-03 2.535591e-04 4.827808e-03 -1.514500e-02 -1.111660e-02 -6.134294e-03 -3.433637e-02 -2.263153e-02 1.708628e-03 8.063266e-04 3.220942e-02 5.965108e-04 4.319988e-04 -8.649332e-04 8.869321e-04 8.113385e-04 -4.512071e-05 -2.934966e-04 -4.401449e-04 -5.176874e-04 -7.469820e-04 -5.274041e-04 5.752456e-04 -9.075488e-05
<VARIANCE> 39
 7.935604e+01 3.208718e+01 6.336405e+01 4.452913e+01 3.611372e+01 4.597942e+01 4.610114e+01 3.327703e+01 5.839233e+01 3.328273e+01 1.922301e+01 1.699123e+01 1.083137e+02 2.247608e+00 2.072875e+00 3.271348e+00 2.607252e+00 1.931421e+00 3.226356e+00 2.574432e+00 1.971445e+00 2.362483e+00 2.400363e+00 1.500867e+00 1.502776e+00 1.931970e+00 3.272918e-01 3.879465e-01 5.418556e-01 4.758573e-01 3.358122e-01 5.768557e-01 4.407711e-01 3.913147e-01 4.511950e-01 4.472353e-01 2.843627e-01 2.969182e-01 2.903365e-01
<GCONST> 1.184778e+02
<STATE> 4
<MEAN> 39
 3.634557e-01 -1.409207e+01 1.407274e+01 -7.531075e+00 5.096483e+00 4.612154e+00 -1.041563e+01 9.047125e+00 -1.045143e+01 4.083536e+00 1.982027e+00 -2.285439e+00 6.385143e+01 2.584778e-02 6.608235e-03 -2.842207e-03 8.246711e-03 5.054366e-03 -5.830389e-03 -7.696962e-03 -2.463521e-03 -2.192746e-02 -2.230981e-02 2.075745e-03 1.438425e-03 1.435525e-02 2.127420e-04 2.942718e-04 -4.512418e-04 8.257359e-04 6.249695e-04 -4.799786e-05 -1.816974e-04 -8.665753e-05 -4.697696e-05 -5.154871e-04 -4.283456e-04 4.703288e-04 -1.618096e-04
<VARIANCE> 39
 7.820342e+01 3.291154e+01 6.278139e+01 4.497109e+01 3.634786e+01 4.587715e+01 4.739578e+01 3.287428e+01 5.799022e+01 3.259921e+01 1.899187e+01 1.666192e+01 1.074189e+02 2.099253e+00 2.030591e+00 3.169942e+00 2.570670e+00 1.916759e+00 3.110827e+00 2.463243e+00 1.965830e+00 2.274443e+00 2.355224e+00 1.487604e+00 1.420642e+00 1.868356e+00 3.044975e-01 3.833054e-01 5.287961e-01 4.719263e-01 3.266930e-01 5.585065e-01 4.167598e-01 3.894648e-01 4.275278e-01 4.375466e-01 2.846771e-01 2.801380e-01 2.794796e-01
<GCONST> 1.176516e+02
<TRANSP> 5
 0.000000e+00 1.000000e+00 0.000000e+00 0.000000e+00 0.000000e+00
 0.000000e+00 7.357069e-01 2.642931e-01 0.000000e+00 0.000000e+00
 0.000000e+00 0.000000e+00 7.357075e-01 2.642925e-01 0.000000e+00
 0.000000e+00 0.000000e+00 0.000000e+00 8.766152e-01 1.233848e-01
 0.000000e+00 0.000000e+00 0.000000e+00 0.000000e+00 0.000000e+00
<ENDHMM>
~h "ee"
<BEGINHMM>
<NUMSTATES> 5
<STATE> 2
<MEAN> 39
 2.182115e+00 -1.414317e+01 1.270942e+01 -8.960886e+00 4.072694e+00 3.510278e+00 -1.000918e+01 9.004202e+00 -1.179639e+01 3.877988e+00 1.688026e+00 -2.238916e+00 6.542133e+01 1.105721e-02 -1.275345e-03 -2.891313e-03 -1.044607e-02 -9.495041e-03 1.479470e-02 9.794605e-03 9.358371e-03 1.324976e-02 -9.617841e-03 8.487634e-03 1.173252e-02 1.396285e-02 -2.022778e-03 -1.464144e-03 1.037622e-03 8.310527e-04 2.217820e-04 6.793319e-04 1.177414e-04 -9.799014e-04 -1.190203e-03 5.889438e-04 1.691755e-03 3.954159e-04 -4.265060e-04
<VARIANCE> 39
 9.097384e+01 3.551350e+01 7.408789e+01 4.838331e+01 3.902074e+01 6.075348e+01 5.051228e+01 4.591858e+01 6.635390e+01 4.016639e+01 2.180357e+01 2.334602e+01 1.037452e+02 2.648061e+00 2.375567e+00 3.983530e+00 2.850816e+00 2.294584e+00 4.026683e+00 2.533396e+00 2.720510e+00 2.735805e+00 2.422637e+00 1.716683e+00 1.872660e+00 1.851576e+00 3.647347e-01 4.177442e-01 6.109391e-01 5.004662e-01 3.931273e-01 7.125697e-01 4.470609e-01 4.988479e-01 4.952584e-01 4.476221e-01 3.248562e-01 3.627744e-01 2.785122e-01
<GCONST> 1.235598e+02
<STATE> 3
<MEAN> 39
