~o
<STREAMINFO> 1 39
<VECSIZE> 39<NULLD><MFCC_D_A_0><DIAGC>
~h "proto"
<BEGINHMM>
<NUMSTATES> 5
<STATE> 2
<MEAN> 39
 -7.474797e-01 -1.372438e+01 1.363240e+01 -7.800015e+00 3.957401e+00 4.912278e+00 -9.313604e+00 9.542570e+00 -9.857509e+00 3.919184e+00 1.996032e+00 -2.240039e+00 6.241040e+01 -1.802149e-04 -4.002908e-04 -4.533151e-04 -6.255359e-04 3.060046e-04 -9.756409e-05 3.545313e-04 3.676544e-04 -3.322966e-04 2.823267e-04 3.441859e-04 -7.776468e-06 1.221478e-04 -1.140098e-05 1.280875e-04 8.513568e-05 5.610451e-05 1.307168e-04 1.258145e-04 -3.556004e-04 -3.413941e-04 -2.462322e-04 -2.982411e-04 -2.002541e-04 1.479088e-04 -5.553468e-05
<VARIANCE> 39
 7.885750e+01 3.150516e+01 5.932857e+01 4.002160e+01 3.388152e+01 4.450462e+01 4.196474e+01 3.377337e+01 5.805833e+01 2.700758e+01 1.807174e+01 1.807939e+01 1.000320e+02 2.049164e+00 1.868461e+00 3.042747e+00 2.325078e+00 1.845033e+00 2.917301e+00 2.107786e+00 2.084596e+00 2.106791e+00 1.946175e+00 1.426612e+00 1.517214e+00 1.393703e+00 2.791751e-01 3.309114e-01 4.813313e-01 4.079526e-01 3.174572e-01 5.210913e-01 3.729059e-01 3.905098e-01 3.965955e-01 3.683704e-01 2.743881e-01 2.959611e-01 2.159844e-01
<GCONST> 1.148699e+02
<STATE> 3
<MEAN> 39
 -7.474797e-01 -1.372438e+01 1.363240e+01 -7.800015e+00 3.957401e+00 4.912278e+00 -9.313604e+00 9.542570e+00 -9.857509e+00 3.919184e+00 1.996032e+00 -2.240039e+00 6.241040e+01 -1.802149e-04 -4.002908e-04 -4.533151e-04 -6.255359e-04 3.060046e-04 -9.756409e-05 3.545313e-04 3.676544e-04 -3.322966e-04 2.823267e-04 3.441859e-04 -7.776468e-06 1.221478e-04 -1.140098e-05 1.280875e-04 8.513568e-05 5.610451e-05 1.307168e-04 1.258145e-04 -3.556004e-04 -3.413941e-04 -2.462322e-04 -2.982411e-04 -2.002541e-04 1.479088e-04 -5.553468e-05
<VARIANCE> 39
 7.885750e+01 3.150516e+01 5.932857e+01 4.002160e+01 3.388152e+01 4.450462e+01 4.196474e+01 3.377337e+01 5.805833e+01 2.700758e+01 1.807174e+01 1.807939e+01 1.000320e+02 2.049164e+00 1.868461e+00 3.042747e+00 2.325078e+00 1.845033e+00 2.917301e+00 2.107786e+00 2.084596e+00 2.106791e+00 1.946175e+00 1.426612e+00 1.517214e+00 1.393703e+00 2.791751e-01 3.309114e-01 4.813313e-01 4.079526e-01 3.174572e-01 5.210913e-01 3.729059e-01 3.905098e-01 3.965955e-01 3.683704e-01 2.743881e-01 2.959611e-01 2.159844e-01
<GCONST> 1.148699e+02
<STATE> 4
<MEAN> 39
 -7.474797e-01 -1.372438e+01 1.363240e+01 -7.800015e+00 3.957401e+00 4.912278e+00 -9.313604e+00 9.542570e+00 -9.857509e+00 3.919184e+00 1.996032e+00 -2.240039e+00 6.241040e+01 -1.802149e-04 -4.002908e-04 -4.533151e-04 -6.255359e-04 3.060046e-04 -9.756409e-05 3.545313e-04 3.676544e-04 -3.322966e-04 2.823267e-04 3.441859e-04 -7.776468e-06 1.221478e-04 -1.140098e-05 1.280875e-04 8.513568e-05 5.610451e-05 1.307168e-04 1.258145e-04 -3.556004e-04 -3.413941e-04 -2.462322e-04 -2.982411e-04 -2.002541e-04 1.479088e-04 -5.553468e-05
<VARIANCE> 39
 7.885750e+01 3.150516e+01 5.932857e+01 4.002160e+01 3.388152e+01 4.450462e+01 4.196474e+01 3.377337e+01 5.805833e+01 2.700758e+01 1.807174e+01 1.807939e+01 1.000320e+02 2.049164e+00 1.868461e+00 3.042747e+00 2.325078e+00 1.845033e+00 2.917301e+00 2.107786e+00 2.084596e+00 2.106791e+00 1.946175e+00 1.426612e+00 1.517214e+00 1.393703e+00 2.791751e-01 3.309114e-01 4.813313e-01 4.079526e-01 3.174572e-01 5.210913e-01 3.729059e-01 3.905098e-01 3.965955e-01 3.683704e-01 2.743881e-01 2.959611e-01 2.159844e-01
<GCONST> 1.148699e+02
<TRANSP> 5
 0.000000e+00 1.000000e+00 0.000000e+00 0.000000e+00 0.000000e+00
 0.000000e+00 6.000000e-01 4.000000e-01 0.000000e+00 0.000000e+00
 0.000000e+00 0.000000e+00 6.000000e-01 4.000000e-01 0.000000e+00
 0.000000e+00 0.000000e+00 0.000000e+00 7.000000e-01 3.000000e-01
 0.000000e+00 0.000000e+00 0.000000e+00 0.000000e+00 0.000000e+00
<ENDHMM>
