~o
<STREAMINFO> 1 39
<VECSIZE> 39<NULLD><MFCC_D_A_0><DIAGC>
~s "silst"
<MEAN> 39
 -5.039290e+00 -1.329028e+01 1.339736e+01 -9.074648e+00 1.928052e+00 6.856516e+00 -7.346569e+00 1.053845e+01 -7.725396e+00 5.651872e+00 3.107202e+00 -1.218844e+00 5.735582e+01 -1.499669e-01 7.496402e-02 6.458343e-03 1.391359e-01 3.835727e-02 6.612143e-02 8.323850e-02 2.145358e-02 3.338047e-02 -8.290667e-02 -1.643035e-02 -2.257176e-02 -1.738019e-01 7.706089e-02 6.206898e-02 -9.602938e-02 1.275347e-01 1.706853e-02 4.708451e-02 2.284623e-02 -5.468926e-02 8.280899e-02 -7.541500e-02 -7.281047e-03 -2.880541e-02 -2.631745e-02
<VARIANCE> 39
 1.814078e+01 1.610078e+01 2.415241e+01 2.124923e+01 1.712805e+01 2.771297e+01 1.775166e+01 2.629213e+01 2.394827e+01 1.742905e+01 1.388780e+01 1.158456e+01 1.553685e+01 7.531791e-01 1.365715e+00 2.137020e+00 2.028986e+00 1.344741e+00 2.130611e+00 1.516980e+00 1.822889e+00 2.204428e+00 1.724096e+00 1.197748e+00 1.094169e+00 8.179867e-01 1.076878e-01 2.350976e-01 3.985895e-01 3.669446e-01 2.640269e-01 4.042449e-01 2.956435e-01 3.491589e-01 4.306481e-01 3.346614e-01 2.317123e-01 2.147257e-01 1.319351e-01
<GCONST> 9.766080e+01
~h "a"
<BEGINHMM>
<NUMSTATES> 5
<STATE> 2
<MEAN> 39
 8.002555e+00 -1.623217e+01 8.649943e+00 -1.324242e+01 1.863985e+00 9.467737e-01 -9.311448e+00 8.515273e+00 -1.455500e+01 4.415307e+00 1.215572e+00 -2.047842e-01 7.139705e+01 2.109646e+00 -5.774493e-01 -1.694056e+00 -5.237702e-01 2.593853e-02 -1.811305e+00 1.836095e-01 3.164022e-01 -1.057369e+00 4.889942e-01 1.966840e-01 3.688517e-01 2.068662e+00 -1.826501e-01 1.756118e-01 1.189342e-01 3.123736e-01 2.598606e-01 2.087605e-01 9.958642e-03 -1.069765e-01 8.359813e-02 5.585407e-03 -6.813109e-03 -1.269197e-01 -2.604558e-01
<VARIANCE> 39
 6.915623e+01 2.734722e+01 7.579278e+01 5.074380e+01 4.218459e+01 6.767753e+01 4.810396e+01 4.733651e+01 5.274365e+01 3.396812e+01 2.512267e+01 2.167951e+01 7.569346e+01 4.494664e+00 2.932271e+00 6.369020e+00 4.346388e+00 3.180987e+00 5.577306e+00 3.929869e+00 3.861599e+00 3.179635e+00 3.361752e+00 2.677282e+00 2.007935e+00 4.353510e+00 1.061375e+00 6.433137e-01 1.451586e+00 8.521769e-01 5.730577e-01 1.325864e+00 6.489272e-01 6.233155e-01 6.192590e-01 5.767869e-01 5.275312e-01 4.499882e-01 7.981719e-01
<GCONST> 1.342576e+02
<STATE> 3
<MEAN> 39
 1.441601e+01 -1.773138e+01 2.886033e+00 -1.413622e+01 3.482763e+00 -5.244832e+00 -9.733227e+00 9.087324e+00 -1.852006e+01 5.901711e+00 3.088396e+00 1.310558e+00 7.791159e+01 -3.964431e-01 2.751713e-01 8.083690e-01 3.446223e-01 2.335494e-01 9.320025e-01 4.391393e-01 -2.829422e-01 8.246305e-02 1.633864e-01 -5.956101e-02 -1.433134e-01 -4.923840e-01 -6.747679e-01 3.149861e-01 9.042425e-01 1.896407e-01 2.413671e-02 1.006907e+00 -6.018506e-02 -2.359037e-01 4.417986e-01 -3.226147e-01 -3.170774e-01 -2.806842e-01 -6.936828e-01
<VARIANCE> 39
 8.361343e+00 1.431864e+01 3.937192e+01 2.483165e+01 4.266277e+01 3.147679e+01 4.329187e+01 5.568078e+01 5.442940e+01 4.841750e+01 3.127165e+01 2.492754e+01 1.681275e+01 1.241333e+00 1.804156e+00 5.624968e+00 2.141823e+00 2.540318e+00 4.294788e+00 3.166200e+00 2.354290e+00 2.846401e+00 3.261249e+00 2.136240e+00 2.018979e+00 1.812672e+00 3.516933e-01 3.207305e-01 7.607492e-01 4.566726e-01 4.703830e-01 6.240822e-01 4.740730e-01 5.734146e-01 6.028321e-01 6.690664e-01 3.909343e-01 5.110849e-01 2.372590e-01
<GCONST> 1.179489e+02
<STATE> 4
<MEAN> 39
 1.093553e+01 -1.425961e+01 7.447856e+00 -1.374768e+01 2.349937e+00 1.687301e+00 -7.559833e+00 9.037064e+00 -1.509734e+01 4.371565e+00 2.458657e+00 7.800586e-02 7.280761e+01 -1.616767e+00 9.564791e-01 1.708769e+00 8.315614e-01 1.392319e-01 2.110421e+00 -4.575006e-02 -5.504777e-01 1.111075e+00 -6.494482e-01 -5.454418e-01 -7.689427e-01 -1.900108e+00 -2.635360e-01 -1.911204e-01 6.236719e-02 7.551555e-02 5.726264e-02 -1.523794e-01 -3.001845e-01 -8.174073e-03 5.906936e-02 -8.584202e-02 -7.059053e-02 -5.186987e-02 -6.140833e-02
<VARIANCE> 39
 2.005680e+01 2.061279e+01 5.745096e+01 3.233405e+01 4.747299e+01 4.428052e+01 4.735102e+01 6.026318e+01 5.199168e+01 5.122575e+01 2.884562e+01 2.515312e+01 3.428225e+01 2.483461e+00 2.459674e+00 6.141164e+00 3.028050e+00 3.886730e+00 5.028932e+00 3.062446e+00 3.776744e+00 3.598853e+00 3.929773e+00 2.165959e+00 3.605590e+00 2.685002e+00 2.854384e-01 3.095322e-01 8.208817e-01 3.968599e-01 4.596880e-01 6.228076e-01 4.825941e-01 4.887477e-01 5.417244e-01 6.050039e-01 3.319406e-01 4.280200e-01 2.231054e-01
<GCONST> 1.238801e+02
<TRANSP> 5
 0.000000e+00 1.000000e+00 0.000000e+00 0.000000e+00 0.000000e+00
 0.000000e+00 5.286821e-01 4.713179e-01 0.000000e+00 0.000000e+00
 0.000000e+00 0.000000e+00 6.059908e-01 3.940092e-01 0.000000e+00
 0.000000e+00 0.000000e+00 0.000000e+00 3.720366e-01 6.279634e-01
 0.000000e+00 0.000000e+00 0.000000e+00 0.000000e+00 0.000000e+00
<ENDHMM>
~h "b"
<BEGINHMM>
<NUMSTATES> 5
<STATE> 2
<MEAN> 39
 8.559881e+00 -2.849479e+00 1.601598e+01 -3.129131e+00 7.035484e+00 7.673961e+00 -8.915277e+00 7.729402e+00 -1.086168e+01 -9.613554e-01 -1.722018e+00 -4.530297e+00 6.314191e+01 -3.084077e-01 -3.999743e-01 8.503405e-01 -1.900719e-01 -1.345545e-01 7.398211e-01 8.409292e-02 -4.601503e-01 -2.589815e-01 2.960359e-01 -1.129470e-01 -1.801183e-01 1.317540e-01 2.964041e-01 -1.050268e+00 -5.085961e-01 -4.486282e-01 -3.576072e-02 -8.707681e-01 -4.733903e-01 1.484846e-02 -6.866302e-01 -7.709567e-02 8.626294e-02 5.971232e-02 9.518029e-01
<VARIANCE> 39
 1.968704e+01 1.843021e+01 2.199853e+01 1.525905e+01 1.622419e+01 1.252784e+01 1.348272e+01 2.320666e+01 1.650360e+01 2.250534e+01 1.586123e+01 1.279855e+01 1.163630e+01 1.081589e+00 5.649205e+00 2.155042e+00 2.590615e+00 2.032320e+00 2.694403e+00 1.421125e+00 1.833335e+00 2.817118e+00 1.828684e+00 1.216057e+00 1.150545e+00 3.204363e+00 1.794887e-01 5.949224e-01 4.417198e-01 4.743455e-01 4.509488e-01 5.389939e-01 4.076768e-01 3.514107e-01 5.224674e-01 4.417033e-01 3.220466e-01 3.048349e-01 3.539472e-01
<GCONST> 1.054762e+02
<STATE> 3
<MEAN> 39
 9.270529e+00 -1.044203e+01 1.609443e+01 -7.724882e+00 5.400441e+00 8.200354e+00 -8.431950e+00 7.152984e+00 -1.503437e+01 -1.325437e+00 -2.918289e+00 -4.417439e+00 6.870051e+01 9.379050e-01 -3.031384e+00 -1.377713e+00 -8.646272e-01 2.589603e-01 -2.080907e+00 -1.610553e+00 -4.585345e-01 -2.253218e+00 -3.632896e-01 1.824468e-01 -1.967619e-01 2.805942e+00 3.700452e-01 5.138736e-02 -5.763931e-01 6.013927e-01 4.461096e-01 -1.228892e+00 -8.041922e-01 6.929880e-02 -1.907594e-01 -1.031455e-01 3.143398e-01 -5.829963e-02 2.935065e-01
<VARIANCE> 39
 1.180973e+01 3.678534e+01 3.302407e+01 2.742084e+01 1.945885e+01 2.553093e+01 1.689050e+01 3.429092e+01 2.639202e+01 3.223049e+01 1.389375e+01 1.242702e+01 2.068833e+01 1.020517e+00 3.413249e+00 2.873482e+00 2.549176e+00 4.359861e+00 3.121316e+00 2.019128e+00 2.612585e+00 4.503973e+00 3.622878e+00 2.665294e+00 1.760987e+00 1.798782e+00 1.247486e-01 7.466367e-01 5.742157e-01 6.150703e-01 4.284752e-01 4.798370e-01 4.081431e-01 4.130099e-01 5.272607e-01 6.272595e-01 4.088987e-01 2.912280e-01 3.167681e-01
<GCONST> 1.133344e+02
<STATE> 4
<MEAN> 39
 1.188609e+01 -1.296946e+01 1.201918e+01 -7.668845e+00 6.697833e+00 3.091476e+00 -1.239660e+01 6.016511e+00 -1.840181e+01 -3.435399e+00 -2.644784e+00 -4.345727e+00 7.288519e+01 1.172291e+00 -2.121020e+00 -1.668638e+00 4.222533e-01 9.856893e-01 -3.371797e+00 -2.542080e+00 -2.988593e-01 -1.921257e+00 -2.319611e-01 7.539619e-01 -2.394392e-01 2.384083e+00 -1.086175e-01 5.862033e-01 1.937665e-01 6.789371e-01 2.210798e-01 -3.429775e-01 -1.419038e-01 1.896791e-01 4.252983e-01 1.994219e-01 2.108102e-01 -5.340881e-02 -4.360773e-01
<VARIANCE> 39
 1.222531e+01 2.092121e+01 3.765987e+01 3.213557e+01 4.939865e+01 4.056005e+01 2.052087e+01 4.678002e+01 4.340783e+01 3.777411e+01 2.387542e+01 1.358168e+01 1.722039e+01 1.151887e+00 3.560373e+00 3.683999e+00 4.249496e+00 4.659410e+00 3.203791e+00 2.897837e+00 2.629224e+00 3.315898e+00 3.622134e+00 3.438898e+00 2.150666e+00 1.640444e+00 1.414481e-01 4.900395e-01 6.179034e-01 3.859534e-01 4.319396e-01 7.972363e-01 3.715763e-01 3.896484e-01 7.997501e-01 6.997275e-01 3.684235e-01 2.645484e-01 2.814683e-01
<GCONST> 1.174195e+02
<TRANSP> 5
 0.000000e+00 1.000000e+00 0.000000e+00 0.000000e+00 0.000000e+00
 0.000000e+00 7.235367e-01 2.764634e-01 0.000000e+00 0.000000e+00
 0.000000e+00 0.000000e+00 7.807305e-02 9.219269e-01 0.000000e+00
 0.000000e+00 0.000000e+00 0.000000e+00 1.535564e-01 8.464436e-01
 0.000000e+00 0.000000e+00 0.000000e+00 0.000000e+00 0.000000e+00
<ENDHMM>
~h "c"
<BEGINHMM>
<NUMSTATES> 5
<STATE> 2
<MEAN> 39
 -5.936634e+00 -1.753040e+01 2.905109e+01 -1.653383e+01 6.909010e-01 7.407568e+00 -6.467656e+00 4.922458e+00 -1.782862e+01 6.982968e+00 -2.894238e+00 -2.680938e+00 6.955920e+01 -3.727628e+00 -2.097240e+00 2.874882e+00 -2.811172e+00 -7.139781e-01 5.831258e-01 3.876757e-01 -2.073043e-01 -3.837823e-01 1.550926e+00 -1.844674e-01 1.014737e-01 8.673256e-01 4.215892e-01 -2.871004e-01 -4.544415e-01 1.111837e-01 1.462534e-01 -2.998551e-01 -2.123193e-01 2.546614e-01 -9.302554e-02 2.174972e-02 3.993053e-01 -5.216056e-02 5.309544e-01
<VARIANCE> 39
 4.670435e+01 3.031903e+01 7.536729e+01 4.855354e+01 3.913087e+01 3.162362e+01 3.330000e+01 3.347023e+01 4.251759e+01 2.855998e+01 1.846573e+01 1.663598e+01 3.635998e+01 3.643009e+00 3.371205e+00 7.521628e+00 4.174994e+00 2.421282e+00 2.776343e+00 2.424520e+00 3.410796e+00 3.561800e+00 2.656388e+00 1.786746e+00 1.549663e+00 3.521132e+00 7.034532e-01 7.764133e-01 1.467975e+00 1.114106e+00 4.226483e-01 5.932658e-01 4.918129e-01 4.794830e-01 6.113861e-01 4.646417e-01 3.186911e-01 3.505048e-01 5.220612e-01
<GCONST> 1.251539e+02
<STATE> 3
<MEAN> 39
 -1.331566e+01 -2.585812e+01 3.459554e+01 -2.154640e+01 3.271960e-01 9.774073e+00 -6.020655e+00 5.853658e+00 -1.832028e+01 1.171608e+01 8.005989e-01 -2.395871e+00 7.564081e+01 1.369048e+00 1.211489e-02 -9.738759e-01 1.148188e+00 2.630345e-01 2.650346e-01 -1.916306e-01 -2.567777e-01 -4.243724e-03 -2.914686e-01 9.097160e-01 -4.024959e-02 2.648352e-01 1.118980e+00 7.002320e-01 -9.046093e-01 6.942856e-01 2.177566e-01 -2.490943e-01 -2.050541e-01 -1.805618e-01 -9.080717e-02 -4.690495e-01 -8.509000e-02 -9.580784e-02 -3.360842e-01
<VARIANCE> 39
 2.557767e+01 2.060403e+01 2.503487e+01 3.917913e+01 3.114008e+01 3.123447e+01 4.161707e+01 2.828375e+01 4.312008e+01 2.261227e+01 3.355983e+01 1.697159e+01 1.476229e+01 7.349197e+00 4.255575e+00 5.615162e+00 4.588353e+00 1.887035e+00 2.118105e+00 2.588950e+00 2.677028e+00 2.528664e+00 2.516983e+00 1.704977e+00 1.210159e+00 1.248358e+00 5.674562e-01 5.665072e-01 9.608091e-01 8.603574e-01 4.088382e-01 4.008822e-01 5.007611e-01 4.507223e-01 5.442271e-01 3.850803e-01 3.868164e-01 2.388575e-01 1.597416e-01
<GCONST> 1.171124e+02
<STATE> 4
<MEAN> 39
 4.252984e+00 -1.861501e+01 2.105421e+01 -1.254182e+01 3.765590e+00 7.974312e+00 -1.047999e+01 3.968708e-01 -2.125969e+01 7.097565e+00 3.475507e+00 -3.647847e+00 7.488999e+01 4.013632e+00 1.833389e+00 -4.144545e+00 2.015007e+00 1.652665e+00 -1.924618e+00 -1.502200e+00 -8.676956e-02 -9.685990e-01 -1.012609e+00 -1.601651e-01 -4.287032e-01 -6.947388e-01 -9.320995e-01 -3.268832e-01 4.617307e-01 -2.681683e-01 2.833478e-02 -1.545653e-01 6.249592e-02 4.761028e-01 3.481996e-01 2.361820e-01 -2.195773e-01 1.123876e-01 -1.338879e-01
<VARIANCE> 39
 6.448656e+01 2.533165e+01 5.943170e+01 2.840516e+01 3.046378e+01 4.485492e+01 5.346264e+01 4.588095e+01 3.126680e+01 2.407085e+01 1.853946e+01 1.264931e+01 2.893086e+01 4.846856e+00 3.721074e+00 5.551732e+00 3.356996e+00 2.543451e+00 3.849682e+00 3.164522e+00 3.270433e+00 4.557531e+00 2.664598e+00 2.401910e+00 1.331026e+00 1.611805e+00 7.853081e-01 5.792525e-01 9.340811e-01 4.928322e-01 5.368578e-01 7.041250e-01 5.754629e-01 5.497941e-01 5.181726e-01 3.683223e-01 2.561522e-01 2.639653e-01 2.184898e-01
<GCONST> 1.219922e+02
<TRANSP> 5
 0.000000e+00 1.000000e+00 0.000000e+00 0.000000e+00 0.000000e+00
 0.000000e+00 7.353275e-01 2.646725e-01 0.000000e+00 0.000000e+00
 0.000000e+00 0.000000e+00 8.263692e-01 1.736308e-01 0.000000e+00
 0.000000e+00 0.000000e+00 0.000000e+00 5.094830e-01 4.905170e-01
 0.000000e+00 0.000000e+00 0.000000e+00 0.000000e+00 0.000000e+00
<ENDHMM>
~h "d"
<BEGINHMM>
<NUMSTATES> 5
<STATE> 2
<MEAN> 39
 6.936347e+00 -1.068766e+01 1.405782e+01 -3.326187e+00 9.090592e+00 6.604568e+00 -1.357517e+01 4.204461e+00 -1.310830e+01 1.206747e-01 4.328344e-01 -2.067509e+00 6.637867e+01 3.216754e-01 -6.440894e-01 7.723282e-02 -2.564149e-01 1.965742e-01 -1.219520e-01 -5.650926e-01 -4.478235e-01 -6.251257e-01 8.276346e-02 1.782163e-01 2.133313e-01 6.871458e-01 2.315003e-01 -4.763819e-01 -2.903847e-01 -3.737541e-01 -1.618865e-02 -8.249366e-01 -3.788989e-01 1.409438e-01 -4.898545e-01 2.547271e-01 2.633251e-01 -7.610858e-02 6.418924e-01
<VARIANCE> 39
 4.291027e+01 6.082556e+01 5.075922e+01 4.071682e+01 3.521740e+01 3.812761e+01 4.050914e+01 4.185299e+01 3.274431e+01 2.779518e+01 2.462478e+01 1.829679e+01 4.340080e+01 2.194846e+00 7.041643e+00 5.013154e+00 3.818836e+00 3.392201e+00 7.751179e+00 5.088672e+00 4.422649e+00 4.664475e+00 2.458249e+00 2.568145e+00 1.903845e+00 5.095355e+00 2.631601e-01 1.298248e+00 7.441487e-01 6.725762e-01 6.981097e-01 1.258798e+00 1.051679e+00 9.313271e-01 8.391278e-01 6.352122e-01 5.442442e-01 4.862044e-01 7.360829e-01
<GCONST> 1.320574e+02
<STATE> 3
<MEAN> 39
 1.172855e+01 -1.472476e+01 9.591095e+00 -6.972138e+00 1.117485e+01 7.508990e-01 -1.927465e+01 2.745880e+00 -1.865071e+01 6.905198e-01 2.651924e+00 -4.935263e-01 7.357024e+01 2.457750e-01 -7.465503e-01 -5.147108e-01 -9.965788e-01 -6.386767e-03 -1.297125e+00 -6.019278e-01 2.742580e-01 -8.054224e-01 8.341891e-01 7.563252e-01 3.424016e-02 1.168352e+00 -8.597536e-02 1.852304e-02 1.131788e-01 1.500896e-02 -2.083588e-01 7.582652e-03 4.893831e-01 2.597131e-01 8.890565e-02 1.536367e-01 -1.245100e-01 -2.339126e-01 -8.475371e-03
<VARIANCE> 39
 1.441735e+01 4.365889e+01 5.065132e+01 4.219004e+01 4.002783e+01 7.043171e+01 3.854050e+01 3.653600e+01 3.895753e+01 3.323072e+01 3.200772e+01 2.515005e+01 3.874443e+01 1.374309e+00 3.090620e+00 5.304257e+00 3.158566e+00 2.680683e+00 7.570028e+00 3.691029e+00 3.882321e+00 3.736130e+00 3.536095e+00 3.407403e+00 2.874539e+00 2.574690e+00 2.325588e-01 9.462360e-01 6.071500e-01 4.918666e-01 6.167839e-01 1.627863e+00 1.069689e+00 7.329250e-01 1.074588e+00 5.732841e-01 4.379083e-01 4.785324e-01 6.732317e-01
<GCONST> 1.288388e+02
<STATE> 4
<MEAN> 39
 1.019260e+01 -1.458048e+01 1.205584e+01 -6.567746e+00 9.878083e+00 1.232813e+00 -1.740226e+01 3.547985e+00 -1.819569e+01 1.247058e+00 2.227992e+00 -1.651818e+00 7.340429e+01 9.822973e-02 -7.733953e-01 9.852973e-02 -5.857870e-01 -1.819425e-01 -1.038276e+00 2.165057e-01 5.860247e-01 -7.821618e-01 6.945961e-01 8.699467e-02 -4.185989e-01 8.803701e-01 -2.949760e-04 8.557194e-02 8.387537e-02 2.012479e-01 -1.009363e-01 9.045178e-02 3.544120e-01 1.209129e-01 1.280151e-01 -1.294079e-01 -1.783098e-01 -1.129504e-01 -1.133072e-01
<VARIANCE> 39
 2.194946e+01 4.595195e+01 8.450372e+01 4.336639e+01 4.065752e+01 6.294977e+01 4.209842e+01 4.116010e+01 3.949054e+01 3.181017e+01 3.857825e+01 2.570623e+01 4.173446e+01 1.654821e+00 4.286077e+00 5.096109e+00 3.866177e+00 2.952002e+00 6.836965e+00 4.638906e+00 4.471103e+00 4.765497e+00 3.827074e+00 2.766737e+00 3.779089e+00 2.574960e+00 2.249694e-01 9.439164e-01 9.377357e-01 4.198375e-01 5.829063e-01 1.412406e+00 8.419154e-01 6.098386e-01 8.121627e-01 4.386899e-01 5.399668e-01 3.489213e-01 6.969841e-01
<GCONST> 1.306400e+02
<TRANSP> 5
 0.000000e+00 1.000000e+00 0.000000e+00 0.000000e+00 0.000000e+00
 0.000000e+00 6.342391e-01 3.657608e-01 0.000000e+00 0.000000e+00
 0.000000e+00 0.000000e+00 2.897594e-01 7.102406e-01 0.000000e+00
 0.000000e+00 0.000000e+00 0.000000e+00 9.843287e-02 9.015672e-01
 0.000000e+00 0.000000e+00 0.000000e+00 0.000000e+00 0.000000e+00
<ENDHMM>
~h "e"
<BEGINHMM>
<NUMSTATES> 5
<STATE> 2
<MEAN> 39
 1.236189e+01 -1.923112e+01 8.895192e+00 -8.197718e+00 9.895554e+00 -3.511847e+00 -1.829608e+01 4.436704e+00 -2.085719e+01 4.833480e+00 5.637548e+00 -5.852761e-01 7.751910e+01 2.281355e-01 4.325882e-01 -3.791366e-01 -5.485946e-02 1.051333e-01 1.539784e-01 4.633651e-01 4.868206e-03 -2.575153e-01 -1.129295e-02 1.868908e-01 2.158531e-01 -2.973188e-01 -5.613710e-01 2.884739e-01 6.620641e-01 1.056328e-01 -2.247240e-01 8.271471e-01 5.031000e-01 -2.443250e-02 4.765680e-01 -1.688556e-01 -4.533150e-01 -1.574458e-01 -5.377650e-01
<VARIANCE> 39
 1.424851e+01 1.688224e+01 5.236005e+01 4.034731e+01 3.116315e+01 4.234964e+01 4.617665e+01 3.999689e+01 3.703027e+01 4.577516e+01 2.395185e+01 3.055599e+01 2.240219e+01 1.995814e+00 1.899809e+00 5.576788e+00 2.672189e+00 2.473963e+00 4.909591e+00 3.463758e+00 3.097118e+00 3.056635e+00 3.958040e+00 2.483889e+00 2.276497e+00 1.868816e+00 4.117500e-01 4.118823e-01 8.057436e-01 5.474701e-01 4.862503e-01 6.538584e-01 5.107622e-01 5.580847e-01 5.753061e-01 6.636234e-01 4.695329e-01 5.260456e-01 2.253225e-01
<GCONST> 1.215722e+02
<STATE> 3
<MEAN> 39
 1.140651e+01 -1.693291e+01 1.073542e+01 -7.635795e+00 9.662937e+00 -6.375383e-01 -1.585388e+01 4.344893e+00 -2.051961e+01 3.662333e+00 4.336146e+00 -1.173460e+00 7.515926e+01 -8.421122e-01 1.274760e+00 1.114938e+00 3.685328e-01 -3.665611e-01 2.143441e+00 1.293210e+00 -2.599074e-01 9.964567e-01 -5.128087e-01 -1.010777e+00 -2.779427e-01 -1.578907e+00 -4.809198e-01 8.156418e-03 4.857780e-01 1.868284e-02 -2.071288e-01 4.008621e-01 9.362777e-02 -1.496251e-02 4.032064e-01 -3.440462e-02 -2.804321e-01 -1.479301e-01 -2.541204e-01
<VARIANCE> 39
 1.727179e+01 2.034156e+01 5.226036e+01 4.839151e+01 3.333350e+01 4.338801e+01 4.884935e+01 4.798663e+01 4.043781e+01 6.180172e+01 2.412954e+01 3.644838e+01 2.550867e+01 1.722165e+00 2.427123e+00 5.538703e+00 2.895437e+00 2.722093e+00 4.851313e+00 3.409375e+00 3.193824e+00 2.918322e+00 3.600709e+00 2.265217e+00 2.985419e+00 2.229513e+00 3.489967e-01 3.526921e-01 8.811411e-01 5.007468e-01 4.104529e-01 5.548788e-01 4.704154e-01 6.334178e-01 5.441629e-01 7.225474e-01 3.430638e-01 6.478807e-01 2.360904e-01
<GCONST> 1.230077e+02
<STATE> 4
<MEAN> 39
 8.946595e+00 -1.471801e+01 1.324959e+01 -6.815383e+00 8.515847e+00 3.885608e+00 -1.387736e+01 3.834241e+00 -1.727468e+01 3.243810e+00 2.672554e+00 -1.800594e+00 7.176933e+01 -1.195826e+00 9.013649e-01 1.198933e+00 1.871769e-01 -5.795189e-01 1.802282e+00 8.788021e-01 -1.653700e-01 1.125263e+00 -4.503377e-01 -9.804076e-01 -3.775237e-01 -1.526187e+00 -1.482718e-01 -3.282790e-01 9.803495e-03 -2.008273e-01 -1.048905e-01 -3.602860e-01 -2.144863e-01 1.261571e-01 -7.715516e-02 7.742557e-02 5.341168e-02 -4.818846e-02 2.100985e-01
<VARIANCE> 39
 2.560586e+01 3.030007e+01 5.907934e+01 4.980170e+01 3.576721e+01 4.819075e+01 4.520953e+01 4.885846e+01 4.156535e+01 6.064114e+01 2.450697e+01 3.092829e+01 3.549089e+01 2.919383e+00 3.342758e+00 6.501966e+00 3.077375e+00 3.091379e+00 5.044939e+00 3.189965e+00 3.384189e+00 3.347365e+00 3.102267e+00 2.189645e+00 3.839367e+00 2.807718e+00 3.202519e-01 4.879585e-01 8.964886e-01 5.048937e-01 3.892899e-01 6.679797e-01 5.096079e-01 6.083611e-01 5.331187e-01 7.710721e-01 3.624541e-01 4.207461e-01 2.826029e-01
<GCONST> 1.262047e+02
<TRANSP> 5
 0.000000e+00 1.000000e+00 0.000000e+00 0.000000e+00 0.000000e+00
 0.000000e+00 5.269059e-01 4.730941e-01 0.000000e+00 0.000000e+00
 0.000000e+00 0.000000e+00 9.249875e-02 9.075013e-01 0.000000e+00
 0.000000e+00 0.000000e+00 0.000000e+00 1.918424e-01 8.081576e-01
 0.000000e+00 0.000000e+00 0.000000e+00 0.000000e+00 0.000000e+00
<ENDHMM>
~h "f"
<BEGINHMM>
<NUMSTATES> 5
<STATE> 2
<MEAN> 39
 7.151455e+00 -1.375887e+01 1.464700e+01 -1.279687e+01 6.209119e+00 -1.260797e-01 -1.113381e+01 1.198056e+01 -1.627402e+01 3.794879e+00 1.138373e+00 -3.116819e+00 7.147681e+01 -1.247336e+00 1.639024e-03 1.775078e+00 -4.814419e-01 -3.325485e-01 5.220534e-01 6.793641e-01 4.410712e-01 1.546594e-02 8.785307e-01 -1.826834e-02 -1.882365e-02 -3.846422e-01 -5.770712e-02 -3.287936e-01 5.862114e-02 8.307765e-02 1.091423e-02 -1.823177e-01 -1.264424e-01 -2.020746e-01 -3.284753e-01 -1.127895e-01 -4.685720e-02 -1.543077e-01 2.415895e-01
<VARIANCE> 39
 4.389077e+01 2.596494e+01 6.358055e+01 4.582415e+01 6.907276e+01 1.067018e+02 2.917743e+01 3.686000e+01 4.094312e+01 2.332566e+01 2.076761e+01 1.588923e+01 4.786702e+01 4.764431e+00 2.281180e+00 9.347270e+00 2.959034e+00 2.412271e+00 5.788740e+00 2.392254e+00 3.716127e+00 2.376476e+00 2.466613e+00 3.145671e+00 1.579839e+00 7.889119e-01 4.057120e-01 6.586545e-01 1.087070e+00 2.189435e-01 3.041587e-01 3.997493e-01 3.611860e-01 5.557867e-01 3.713652e-01 2.705113e-01 4.975614e-01 3.908336e-01 1.732795e-01
<GCONST> 1.206133e+02
<STATE> 3
<MEAN> 39
 5.186222e+00 -1.446846e+01 1.906149e+01 -1.257881e+01 7.297671e+00 2.591134e+00 -1.071590e+01 1.116863e+01 -1.649984e+01 4.983964e+00 -3.901985e-01 -3.053936e+00 7.097485e+01 -1.455044e+00 -6.461011e-01 2.009753e+00 -4.439161e-01 -9.150357e-02 5.112311e-01 6.292245e-01 -1.181363e-01 -5.259672e-01 7.273169e-01 -2.080286e-01 -1.924571e-01 -7.097111e-02 7.006180e-02 -3.265607e-01 -3.725834e-01 -2.846244e-02 -3.419378e-02 -8.875696e-02 -2.729919e-01 -3.427089e-01 -1.732446e-01 -3.133028e-01 8.126409e-02 -6.550035e-02 2.665523e-01
<VARIANCE> 39
 4.785069e+01 3.191656e+01 5.734800e+01 4.581706e+01 5.978725e+01 1.222527e+02 2.197515e+01 4.788288e+01 3.577795e+01 2.846654e+01 2.303429e+01 2.078159e+01 3.941039e+01 5.852767e+00 4.509759e+00 7.885128e+00 2.732239e+00 2.512242e+00 3.528688e+00 2.361496e+00 2.316429e+00 1.877487e+00 2.147382e+00 1.052921e+00 2.413683e+00 7.011226e-01 6.082145e-01 7.541847e-01 1.742527e+00 3.904074e-01 3.421944e-01 1.279994e+00 3.485885e-01 7.926701e-01 4.562626e-01 4.397691e-01 6.149348e-01 3.080682e-01 2.767839e-01
<GCONST> 1.238748e+02
<STATE> 4
<MEAN> 39
 -7.246187e-01 -1.973456e+01 2.150467e+01 -1.858837e+01 6.660522e+00 4.794834e+00 -9.186399e+00 1.074824e+01 -1.826179e+01 6.319714e+00 -1.708153e+00 -1.073888e+00 7.104020e+01 -2.674195e-03 -4.316908e-01 -1.502935e-01 -1.637096e-01 -1.746726e-01 -1.518406e-01 -3.742258e-01 -4.822505e-01 -6.257898e-01 -1.708790e-01 1.435735e-01 -2.160680e-01 2.271890e-01 4.512290e-01 2.812141e-01 -4.255440e-01 3.367629e-01 4.070510e-02 -3.616724e-02 -2.397233e-01 -1.961384e-01 5.823309e-02 -2.499035e-01 1.352886e-01 -1.352846e-01 4.524789e-02
<VARIANCE> 39
 5.462697e+01 5.645794e+01 4.291256e+01 5.088924e+01 3.620641e+01 5.788712e+01 1.825831e+01 3.257337e+01 2.070876e+01 2.192097e+01 2.147594e+01 1.904183e+01 2.329925e+01 6.590142e+00 6.394108e+00 5.455164e+00 3.858264e+00 2.026049e+00 1.925460e+00 1.584631e+00 1.889827e+00 1.945288e+00 2.037245e+00 1.501443e+00 1.668736e+00 1.443647e+00 5.541547e-01 6.923669e-01 9.223201e-01 6.149787e-01 3.600830e-01 8.636368e-01 3.682514e-01 6.043029e-01 4.350705e-01 3.813190e-01 3.086587e-01 2.893114e-01 2.068186e-01
<GCONST> 1.186406e+02
<TRANSP> 5
 0.000000e+00 1.000000e+00 0.000000e+00 0.000000e+00 0.000000e+00
 0.000000e+00 2.071332e-01 7.928669e-01 0.000000e+00 0.000000e+00
 0.000000e+00 0.000000e+00 1.361991e-02 9.863801e-01 0.000000e+00
 0.000000e+00 0.000000e+00 0.000000e+00 6.669477e-01 3.330523e-01
 0.000000e+00 0.000000e+00 0.000000e+00 0.000000e+00 0.000000e+00
<ENDHMM>
~h "g"
<BEGINHMM>
<NUMSTATES> 5
<STATE> 2
<MEAN> 39
 4.412669e+00 -1.139245e+01 1.579380e+01 -4.851134e+00 7.707973e+00 6.017136e+00 -1.239498e+01 6.960963e+00 -1.274312e+01 2.452774e+00 -2.165954e-01 -6.613833e+00 6.461842e+01 1.400156e+00 -6.632741e-01 1.861208e-01 4.251792e-01 1.281216e+00 -3.461168e-01 -1.806324e+00 -1.057908e+00 -1.249511e+00 -2.293205e-01 -1.573717e-01 -5.692271e-01 1.533004e+00 1.138530e-01 8.577398e-03 -1.530212e-01 1.963496e-01 2.010163e-01 -2.124207e-01 -4.184719e-01 -1.827524e-01 4.288835e-02 1.187301e-02 1.806775e-01 1.385425e-01 9.997156e-02
<VARIANCE> 39
 4.594608e+01 4.855161e+01 3.158570e+01 4.961497e+01 4.233810e+01 4.842433e+01 6.528175e+01 2.601538e+01 3.939511e+01 3.147917e+01 1.701036e+01 2.344781e+01 5.365003e+01 2.778419e+00 5.807051e+00 2.380040e+00 4.790483e+00 2.958140e+00 7.549510e+00 6.366927e+00 4.157951e+00 4.143171e+00 2.507613e+00 1.766210e+00 2.040875e+00 3.325559e+00 4.432257e-01 1.323445e+00 4.530365e-01 7.723904e-01 6.437911e-01 7.427073e-01 1.158696e+00 6.197898e-01 9.235899e-01 4.455658e-01 3.229125e-01 4.877167e-01 7.898391e-01
<GCONST> 1.296984e+02
<STATE> 3
<MEAN> 39
 1.029165e+01 -1.395644e+01 1.584176e+01 -1.244817e-01 1.614663e+01 -1.250350e+00 -2.698463e+01 3.252756e+00 -1.551644e+01 2.959386e+00 1.280639e+00 -1.065323e+01 7.208702e+01 3.266850e-01 6.069217e-01 -4.800024e-01 -4.128477e-02 1.450246e-01 2.272150e-01 -4.472883e-02 -6.487352e-01 -2.980726e-01 -2.339420e-01 4.055240e-01 7.408319e-01 -5.856922e-02 -1.527606e-01 7.512666e-02 -5.158706e-03 -2.469320e-01 -4.510306e-01 1.484301e-01 7.237848e-01 1.880271e-01 1.240332e-01 1.060207e-01 1.833202e-02 4.026185e-01 -1.632337e-01
<VARIANCE> 39
 4.998836e+00 2.582819e+01 3.475328e+01 4.261465e+01 4.783558e+01 6.520930e+01 9.244801e+01 3.616224e+01 2.752045e+01 3.087163e+01 1.841916e+01 3.217765e+01 1.705769e+01 8.567297e-01 2.481113e+00 3.512138e+00 3.789973e+00 2.983820e+00 7.066781e+00 6.109917e+00 2.750211e+00 2.851708e+00 4.077397e+00 1.646726e+00 3.777447e+00 1.559788e+00 1.259673e-01 6.430299e-01 5.267954e-01 4.089902e-01 4.128320e-01 9.048725e-01 7.836016e-01 6.558769e-01 6.461380e-01 8.505269e-01 2.485573e-01 5.360109e-01 2.873050e-01
<GCONST> 1.203429e+02
<STATE> 4
<MEAN> 39
 1.181511e+01 -1.219898e+01 1.180540e+01 -4.583515e+00 9.632265e+00 -3.869805e-01 -1.877501e+01 2.313805e+00 -1.817518e+01 2.560052e+00 4.203259e+00 -3.385195e+00 7.180193e+01 3.747132e-02 2.393520e-01 -2.376976e-01 -5.629081e-01 -1.002852e+00 -4.394323e-02 1.204875e+00 2.159684e-01 1.505124e-01 6.942258e-02 3.004370e-01 1.285789e+00 1.603950e-02 -9.316814e-02 -3.959915e-01 7.704873e-02 -1.689732e-01 -8.716337e-02 -1.000392e-01 1.022800e-01 1.524231e-01 -8.991403e-02 1.472642e-01 -1.274823e-01 -3.025195e-01 2.166596e-01
<VARIANCE> 39
 1.095106e+01 3.442023e+01 3.098899e+01 5.487491e+01 3.406105e+01 8.438419e+01 7.981496e+01 3.513969e+01 2.307675e+01 5.224487e+01 5.332026e+01 2.998069e+01 3.149563e+01 7.626281e-01 2.897011e+00 4.231822e+00 2.794553e+00 3.120993e+00 3.801201e+00 4.008180e+00 1.186686e+00 3.484177e+00 1.150693e+00 1.646495e+00 2.270477e+00 1.534556e+00 9.413766e-02 8.290314e-01 4.420778e-01 4.491263e-01 3.283834e-01 9.998019e-01 6.521120e-01 2.919070e-01 4.314814e-01 6.302912e-01 2.893156e-01 3.746189e-01 4.164020e-01
<GCONST> 1.179633e+02
<TRANSP> 5
 0.000000e+00 1.000000e+00 0.000000e+00 0.000000e+00 0.000000e+00
 0.000000e+00 6.107439e-01 3.892561e-01 0.000000e+00 0.000000e+00
 0.000000e+00 0.000000e+00 6.181061e-01 3.818939e-01 0.000000e+00
 0.000000e+00 0.000000e+00 0.000000e+00 3.460580e-01 6.539420e-01
 0.000000e+00 0.000000e+00 0.000000e+00 0.000000e+00 0.000000e+00
<ENDHMM>
~h "h"
<BEGINHMM>
<NUMSTATES> 5
<STATE> 2
<MEAN> 39
 9.413512e+00 -1.208137e+01 1.563107e+01 -1.302777e+01 3.122137e+00 4.032789e+00 -6.189360e+00 1.147572e+01 -1.500794e+01 6.269992e+00 1.016122e+00 -2.773223e+00 7.077599e+01 3.625283e-01 -2.678220e-01 -1.765759e-01 -1.216093e+00 -6.831247e-01 -3.139537e-01 5.066856e-01 5.115733e-01 -2.094875e-01 7.931838e-01 1.091386e-02 -1.333183e-01 3.807312e-01 3.349963e-01 -9.324078e-02 -4.813071e-01 2.640573e-01 2.601496e-01 -7.279786e-01 -6.102891e-01 -2.248343e-01 -2.776966e-01 -1.122847e-01 6.717053e-02 -4.081497e-02 2.560183e-01
<VARIANCE> 39
 1.451289e+01 3.063473e+01 4.135636e+01 4.765773e+01 7.098033e+01 5.047983e+01 4.698637e+01 7.150613e+01 3.786487e+01 5.685044e+01 1.769912e+01 1.873374e+01 2.768373e+01 1.424574e+00 3.774690e+00 3.263667e+00 2.165537e+00 3.616435e+00 4.357185e+00 3.721101e+00 4.102517e+00 5.834967e+00 2.493192e+00 1.783247e+00 1.711582e+00 2.343707e+00 1.994595e-01 6.140476e-01 5.263888e-01 5.030168e-01 3.851543e-01 6.029884e-01 5.407426e-01 3.785451e-01 7.403682e-01 6.184672e-01 4.270479e-01 2.312354e-01 2.664224e-01
<GCONST> 1.213352e+02
<STATE> 3
<MEAN> 39
 1.070425e+01 -1.270338e+01 1.392758e+01 -1.268276e+01 4.753557e+00 6.518307e-01 -7.697416e+00 1.125475e+01 -1.795458e+01 8.079346e+00 3.107517e+00 -3.225976e+00 7.243778e+01 1.026005e-01 4.392617e-02 -1.225098e-01 -4.897317e-01 -4.621739e-01 -6.805412e-01 3.297727e-01 4.528766e-01 8.520859e-02 1.162064e+00 4.131879e-01 -3.970734e-01 1.763567e-01 -1.425266e-02 -7.361899e-02 -1.452421e-01 9.673652e-02 -4.023147e-02 1.158037e-01 -2.860191e-01 -2.765874e-01 2.995704e-01 -3.299254e-01 -1.682172e-01 2.555987e-02 4.524401e-03
<VARIANCE> 39
 8.218407e+00 1.691079e+01 4.031522e+01 4.465697e+01 1.178069e+02 3.868127e+01 7.638923e+01 9.369792e+01 7.167722e+01 5.962466e+01 1.458602e+01 2.446339e+01 1.737399e+01 2.026722e+00 2.077980e+00 4.607119e+00 1.369566e+00 2.954103e+00 3.897839e+00 3.731064e+00 2.685375e+00 5.443642e+00 4.919683e+00 3.268418e+00 1.271061e+00 8.936875e-01 4.057755e-01 4.245053e-01 1.063175e+00 4.476282e-01 8.694647e-01 1.258172e+00 1.286519e+00 6.173043e-01 1.124421e+00 5.493725e-01 3.174783e-01 3.355372e-01 2.488509e-01
<GCONST> 1.243736e+02
<STATE> 4
<MEAN> 39
 6.714787e+00 -1.612269e+01 1.741566e+01 -1.622410e+01 9.813751e-01 3.031416e+00 -4.631006e+00 1.062531e+01 -1.734192e+01 1.114720e+01 2.743699e+00 -3.760536e+00 7.220101e+01 4.041710e-01 1.132077e-01 -6.958504e-01 -5.900134e-01 -8.922498e-01 -5.329562e-01 -3.009482e-01 1.803324e-02 6.720260e-01 -2.915699e-01 -4.051832e-01 2.047682e-02 1.347193e-01 3.251017e-01 1.450979e-01 -4.684649e-01 4.019677e-01 4.316584e-01 -1.937222e-01 -5.299799e-01 -3.053900e-01 -1.770878e-01 -5.240223e-01 -3.842475e-02 1.286447e-01 8.384725e-02
<VARIANCE> 39
 6.245611e+01 4.833887e+01 6.933916e+01 3.477584e+01 6.307840e+01 5.162093e+01 4.094457e+01 7.104085e+01 6.472092e+01 6.317634e+01 2.096025e+01 1.883952e+01 1.164739e+01 4.405104e+00 2.980536e+00 6.069770e+00 2.422066e+00 3.378286e+00 3.712020e+00 3.767904e+00 2.098293e+00 2.959800e+00 2.888233e+00 1.688330e+00 9.878010e-01 6.001519e-01 3.841478e-01 4.873121e-01 6.823932e-01 3.049588e-01 5.680112e-01 5.971856e-01 4.667991e-01 3.832393e-01 7.045131e-01 5.303590e-01 4.422489e-01 2.707909e-01 1.467562e-01
<GCONST> 1.212242e+02
<TRANSP> 5
 0.000000e+00 1.000000e+00 0.000000e+00 0.000000e+00 0.000000e+00
 0.000000e+00 1.831308e-01 8.168693e-01 0.000000e+00 0.000000e+00
 0.000000e+00 0.000000e+00 2.397982e-01 7.602019e-01 0.000000e+00
 0.000000e+00 0.000000e+00 0.000000e+00 4.120183e-01 5.879817e-01
 0.000000e+00 0.000000e+00 0.000000e+00 0.000000e+00 0.000000e+00
<ENDHMM>
~h "i"
<BEGINHMM>
<NUMSTATES> 5
<STATE> 2
<MEAN> 39
 1.103698e+01 -1.854174e+01 1.296182e+01 -2.283397e+00 1.428706e+01 -2.572787e+00 -2.365469e+01 2.260851e+00 -2.108026e+01 1.557318e+00 3.553123e+00 -6.027618e+00 7.607835e+01 2.735240e-01 1.419197e-03 -1.267236e-01 8.472661e-01 8.283368e-01 -6.624957e-01 -9.511871e-01 -2.105699e-01 -2.164234e-01 2.489457e-01 3.976315e-01 -5.117207e-01 1.438950e-01 -4.770664e-01 2.748305e-01 4.254566e-01 -2.660275e-01 -5.133179e-01 6.519079e-01 8.319578e-01 2.011263e-01 4.574389e-01 4.765281e-02 -2.771343e-01 1.913764e-01 -4.934233e-01
<VARIANCE> 39
 1.265202e+01 1.888329e+01 4.504076e+01 5.157375e+01 3.088386e+01 4.449059e+01 4.218076e+01 3.248618e+01 3.676877e+01 4.743938e+01 1.915476e+01 2.706214e+01 1.998336e+01 2.237415e+00 2.089627e+00 4.542878e+00 3.496134e+00 2.755805e+00 3.900542e+00 4.318964e+00 2.833662e+00 3.256649e+00 3.249654e+00 1.773061e+00 2.137737e+00 1.615421e+00 4.075173e-01 4.551233e-01 7.508564e-01 7.434581e-01 5.398332e-01 7.464988e-01 7.499059e-01 4.936137e-01 6.263161e-01 5.676436e-01 4.087577e-01 4.393285e-01 2.582508e-01
<GCONST> 1.211445e+02
<STATE> 3
<MEAN> 39
 9.996233e+00 -1.714901e+01 1.468285e+01 -1.998079e+00 1.399782e+01 -8.140696e-01 -2.128955e+01 2.635422e+00 -2.079750e+01 3.290056e+00 3.778426e+00 -6.304393e+00 7.408603e+01 -1.122470e+00 1.343280e+00 1.281986e+00 -3.174709e-01 -1.108552e+00 2.059610e+00 1.900305e+00 -1.340599e-01 1.264665e+00 4.015915e-01 -5.797759e-01 5.322900e-01 -1.677046e+00 -4.890454e-01 8.383635e-02 2.246211e-01 -4.103822e-01 -5.851423e-01 3.932148e-01 5.428336e-01 1.321361e-01 4.700571e-01 -6.143902e-02 -3.060638e-01 2.689222e-01 -3.220697e-01
<VARIANCE> 39
 1.268091e+01 1.781087e+01 5.472025e+01 4.630824e+01 2.695336e+01 4.620329e+01 3.703396e+01 4.701768e+01 3.345322e+01 5.662111e+01 2.084020e+01 3.586059e+01 1.882563e+01 1.621153e+00 2.355917e+00 4.848908e+00 3.357883e+00 2.044984e+00 3.504430e+00 2.812405e+00 2.771953e+00 3.282458e+00 3.711785e+00 1.693637e+00 1.998565e+00 2.004555e+00 3.331579e-01 3.953362e-01 8.250968e-01 5.887710e-01 3.680934e-01 6.010738e-01 6.159908e-01 5.735186e-01 5.368370e-01 5.811921e-01 3.110726e-01 5.463765e-01 2.086403e-01
<GCONST> 1.193883e+02
<STATE> 4
<MEAN> 39
 6.049989e+00 -1.320741e+01 1.708092e+01 -2.693719e+00 9.488034e+00 3.798280e+00 -1.668856e+01 2.630775e+00 -1.506054e+01 3.893058e+00 2.138499e+00 -4.607675e+00 6.829677e+01 -1.553044e+00 5.689075e-01 6.940818e-01 -9.253830e-01 -1.594197e+00 1.350925e+00 1.730602e+00 2.770387e-01 1.235810e+00 -1.641214e-01 -7.374884e-01 5.377614e-01 -1.435129e+00 -7.414547e-02 -5.225532e-01 -1.042765e-01 -3.579019e-01 -1.193401e-02 -3.425524e-01 -1.066647e-01 2.238409e-01 -3.269885e-01 -4.989323e-02 -1.879583e-02 -6.977961e-02 4.025030e-01
<VARIANCE> 39
 2.557280e+01 3.093836e+01 6.516731e+01 4.659995e+01 3.282744e+01 4.468385e+01 3.558361e+01 4.513316e+01 4.425987e+01 6.150043e+01 1.944231e+01 2.356100e+01 4.100291e+01 2.391994e+00 3.606039e+00 5.908836e+00 3.898218e+00 2.686091e+00 3.552363e+00 3.026543e+00 2.891556e+00 3.563422e+00 3.599893e+00 1.912687e+00 2.615947e+00 2.360454e+00 2.744384e-01 5.803435e-01 6.709856e-01 7.156800e-01 4.214648e-01 5.825905e-01 5.379676e-01 5.974314e-01 6.520115e-01 6.174244e-01 3.035427e-01 3.696381e-01 3.499154e-01
<GCONST> 1.242712e+02
<TRANSP> 5
 0.000000e+00 1.000000e+00 0.000000e+00 0.000000e+00 0.000000e+00
 0.000000e+00 6.335290e-01 3.664710e-01 0.000000e+00 0.000000e+00
 0.000000e+00 0.000000e+00 3.841229e-01 6.158771e-01 0.000000e+00
 0.000000e+00 0.000000e+00 0.000000e+00 3.923927e-01 6.076074e-01
 0.000000e+00 0.000000e+00 0.000000e+00 0.000000e+00 0.000000e+00
<ENDHMM>
~h "j"
<BEGINHMM>
<NUMSTATES> 5
<STATE> 2
<MEAN> 39
 1.040277e+01 -1.703044e+01 1.093274e+01 -2.905822e+00 1.233319e+01 -3.392590e+00 -2.023109e+01 4.548537e+00 -1.995745e+01 9.768372e-01 3.371005e+00 -3.801937e+00 7.433823e+01 4.523907e-01 -7.267527e-01 -1.811360e-01 1.196074e+00 1.002600e+00 -1.367732e+00 -1.801666e+00 -6.940240e-01 -4.971296e-01 4.030288e-01 6.527244e-01 -4.636099e-01 9.084933e-01 -1.695337e-01 4.047671e-02 2.148978e-01 -1.631530e-01 -2.890551e-01 1.151557e-01 2.517946e-01 1.702103e-01 2.490367e-01 8.117928e-02 -1.790882e-01 -6.036334e-02 -1.332113e-01
<VARIANCE> 39
 3.303128e+01 2.038662e+01 5.588590e+01 6.023835e+01 4.008929e+01 4.580992e+01 5.003392e+01 4.131678e+01 4.685952e+01 4.672277e+01 1.984425e+01 2.890001e+01 5.248505e+01 2.092037e+00 1.545629e+00 2.840669e+00 3.149608e+00 2.251310e+00 3.376155e+00 3.157925e+00 2.788852e+00 2.846434e+00 2.918093e+00 1.693389e+00 1.778057e+00 1.799469e+00 2.509654e-01 2.928642e-01 5.228664e-01 5.736822e-01 3.447082e-01 5.680516e-01 5.409944e-01 4.295599e-01 4.523968e-01 5.264095e-01 2.747821e-01 3.011368e-01 1.847233e-01
<GCONST> 1.183195e+02
<STATE> 3
<MEAN> 39
 1.092334e+01 -1.930709e+01 1.135307e+01 -9.399555e-01 1.310339e+01 -7.188020e+00 -2.454278e+01 3.146933e+00 -1.976348e+01 3.077941e+00 4.536915e+00 -5.475802e+00 7.689697e+01 -1.138398e-01 -6.754196e-02 3.800121e-01 2.545632e-01 -6.363980e-03 -7.746528e-02 -1.051606e-01 -7.464908e-02 1.022073e-01 1.814764e-01 -5.480415e-02 -1.839432e-01 -3.560511e-02 -9.908708e-02 2.382902e-01 1.658996e-01 -2.403176e-01 -1.717263e-01 5.338432e-01 6.182016e-01 9.093638e-02 -8.480685e-03 -1.216561e-01 -1.759379e-01 1.631864e-01 -2.216920e-01
<VARIANCE> 39
 1.641636e+01 1.489263e+01 4.790326e+01 4.639311e+01 3.438455e+01 3.264085e+01 3.854102e+01 5.175823e+01 4.081527e+01 4.019982e+01 2.268733e+01 3.170240e+01 2.950547e+01 5.332829e-01 1.242885e+00 2.483285e+00 2.859305e+00 1.464848e+00 2.451317e+00 2.517742e+00 2.108698e+00 1.554986e+00 2.575881e+00 1.278115e+00 1.782731e+00 6.935700e-01 1.844382e-01 2.104598e-01 4.597973e-01 3.381196e-01 3.168208e-01 4.129958e-01 4.298572e-01 4.880466e-01 4.035435e-01 4.210242e-01 2.693882e-01 2.907228e-01 1.260868e-01
<GCONST> 1.081159e+02
<STATE> 4
<MEAN> 39
 1.007892e+01 -1.829019e+01 1.184506e+01 -2.005522e+00 1.203126e+01 -4.696208e+00 -2.175233e+01 4.100133e+00 -1.903079e+01 2.696780e+00 3.887292e+00 -4.827877e+00 7.560950e+01 -2.032869e-01 2.800745e-01 7.666054e-01 1.544209e-01 -4.054911e-02 6.666884e-01 7.825627e-01 8.243925e-02 -1.470969e-01 -3.107476e-02 -2.801345e-01 -4.823969e-02 -3.010357e-01 -1.801175e-01 2.289595e-01 3.038537e-01 -1.098802e-01 -1.680065e-01 5.338617e-01 5.359590e-01 8.413021e-02 9.374483e-02 -1.359119e-01 -2.035965e-01 1.617052e-01 -2.886213e-01
<VARIANCE> 39
 2.819825e+01 2.080696e+01 5.029551e+01 5.145105e+01 4.119467e+01 3.965632e+01 5.750256e+01 4.813162e+01 5.173952e+01 4.593743e+01 2.398435e+01 3.541953e+01 4.905723e+01 1.443940e+00 1.549147e+00 3.986142e+00 4.186668e+00 1.767658e+00 3.372919e+00 3.321264e+00 3.047581e+00 2.569773e+00 3.488755e+00 1.418813e+00 2.040418e+00 1.161698e+00 2.672494e-01 3.139530e-01 4.303417e-01 4.818788e-01 4.105611e-01 5.870635e-01 6.321083e-01 4.530415e-01 4.701398e-01 5.085548e-01 3.281235e-01 3.479663e-01 2.656250e-01
<GCONST> 1.191207e+02
<TRANSP> 5
 0.000000e+00 1.000000e+00 0.000000e+00 0.000000e+00 0.000000e+00
 0.000000e+00 5.234678e-01 4.765322e-01 0.000000e+00 0.000000e+00
 0.000000e+00 0.000000e+00 5.105965e-01 4.894035e-01 0.000000e+00
 0.000000e+00 0.000000e+00 0.000000e+00 1.031438e-01 8.968562e-01
 0.000000e+00 0.000000e+00 0.000000e+00 0.000000e+00 0.000000e+00
<ENDHMM>
~h "k"
<BEGINHMM>
<NUMSTATES> 5
<STATE> 2
<MEAN> 39
 -7.266204e-01 -1.187043e+01 1.429372e+01 -8.776645e+00 2.841487e+00 6.310042e+00 -9.862413e+00 6.380351e+00 -1.311035e+01 1.936935e+00 1.882518e+00 -1.737526e+00 6.039647e+01 -5.878440e-01 -7.523839e-01 -5.485266e-01 -1.597029e+00 -1.126420e+00 3.430434e-01 2.767277e-01 2.646535e-01 3.082789e-01 7.966641e-02 -2.109348e-01 -2.256577e-01 -2.965536e-01 5.341721e-01 -8.046667e-01 1.491581e-01 -7.281086e-01 -6.972917e-03 -2.699917e-01 -1.683293e-02 1.049145e-01 -6.493386e-01 4.051481e-01 2.167139e-02 -2.865961e-01 1.236574e+00
<VARIANCE> 39
 2.096792e+01 2.601790e+01 2.650274e+01 3.557764e+01 2.853776e+01 3.395597e+01 3.432058e+01 3.409029e+01 3.365636e+01 2.448859e+01 1.907269e+01 1.965471e+01 1.489225e+01 2.404215e+00 6.148237e+00 2.892653e+00 8.563230e+00 3.044576e+00 3.954372e+00 4.465678e+00 3.677830e+00 5.621842e+00 3.640305e+00 2.139372e+00 2.434381e+00 6.058868e+00 2.718653e-01 7.192910e-01 5.659419e-01 1.064754e+00 5.089712e-01 6.522699e-01 9.053642e-01 6.327661e-01 7.087124e-01 6.176350e-01 4.647860e-01 4.342047e-01 4.706152e-01
<GCONST> 1.247928e+02
<STATE> 3
<MEAN> 39
 1.023432e+00 -2.144427e+01 1.422081e+01 -2.244417e+01 -2.132907e+00 7.469607e+00 -6.831791e+00 8.418104e+00 -1.802894e+01 5.829148e+00 1.110011e+00 -4.696529e+00 6.910929e+01 1.655207e+00 -6.602757e-01 1.000229e+00 -8.995863e-01 2.520088e-01 -8.143201e-01 -8.482862e-01 -2.121569e-02 -1.285795e+00 2.187047e-01 -4.482979e-01 -7.362781e-01 2.549453e+00 5.881630e-01 1.095495e+00 -9.532805e-03 1.917560e+00 9.636556e-01 -7.741842e-01 -8.260571e-01 -2.570933e-01 1.637058e-01 -5.021717e-01 7.996122e-02 6.841508e-02 -1.746941e-01
<VARIANCE> 39
 1.842327e+01 4.149250e+01 3.912398e+01 5.590275e+01 6.139320e+01 4.464816e+01 5.313665e+01 5.648016e+01 6.066388e+01 3.689195e+01 2.596893e+01 2.882024e+01 2.365012e+01 3.435674e+00 6.404243e+00 3.681807e+00 1.290035e+01 5.766631e+00 4.662901e+00 6.516091e+00 4.271857e+00 4.388118e+00 4.507186e+00 3.022286e+00 3.253354e+00 3.311797e+00 3.495578e-01 6.576225e-01 9.790625e-01 1.191858e+00 7.725233e-01 9.371991e-01 9.402326e-01 8.468103e-01 1.087656e+00 7.318158e-01 5.193566e-01 5.109347e-01 5.139980e-01
<GCONST> 1.353748e+02
<STATE> 4
<MEAN> 39
 7.281874e+00 -1.544255e+01 1.777592e+01 -1.194406e+01 4.174351e+00 2.603260e+00 -1.393860e+01 6.056887e+00 -1.847708e+01 3.257122e+00 5.514122e-01 -6.478762e+00 7.257553e+01 2.432719e+00 1.436718e+00 -9.401897e-01 3.232095e+00 1.824146e+00 -2.581169e+00 -1.974748e+00 -2.404739e-01 -3.819551e-01 -9.164087e-01 3.222077e-01 -2.349329e-01 1.154448e+00 -2.482250e-01 3.463063e-03 -7.956033e-01 9.425713e-02 -8.460665e-02 -7.232980e-02 3.334645e-01 1.362645e-01 2.925757e-01 3.550699e-02 2.633830e-01 3.367656e-01 -4.496040e-01
<VARIANCE> 39
 2.934642e+01 4.369793e+01 3.793507e+01 5.537210e+01 5.691359e+01 4.453086e+01 5.095269e+01 5.661051e+01 4.059407e+01 3.327371e+01 3.892956e+01 3.056487e+01 3.276978e+01 3.101109e+00 3.213696e+00 4.578580e+00 5.583728e+00 4.497859e+00 5.794877e+00 5.087959e+00 3.052762e+00 3.793717e+00 3.383111e+00 3.718004e+00 2.587327e+00 1.890623e+00 3.356612e-01 5.975063e-01 6.905895e-01 1.244211e+00 6.196960e-01 6.916795e-01 7.897270e-01 5.679867e-01 6.652324e-01 4.849175e-01 5.777152e-01 4.161460e-01 3.436309e-01
<GCONST> 1.300325e+02
<TRANSP> 5
 0.000000e+00 1.000000e+00 0.000000e+00 0.000000e+00 0.000000e+00
 0.000000e+00 7.310970e-01 2.689030e-01 0.000000e+00 0.000000e+00
 0.000000e+00 0.000000e+00 6.059108e-01 3.940893e-01 0.000000e+00
 0.000000e+00 0.000000e+00 0.000000e+00 3.467139e-01 6.532861e-01
 0.000000e+00 0.000000e+00 0.000000e+00 0.000000e+00 0.000000e+00
<ENDHMM>
~h "l"
<BEGINHMM>
<NUMSTATES> 5
<STATE> 2
<MEAN> 39
 1.174818e+01 -1.497790e+01 1.144551e+01 -9.898190e+00 3.785056e+00 -1.139278e+00 -1.347538e+01 1.000610e+01 -1.442439e+01 -2.287031e+00 -3.047681e+00 -3.569133e+00 7.454889e+01 1.421997e+00 5.460525e-01 -1.858927e+00 8.069046e-01 3.492944e-01 -1.293689e+00 -7.398230e-01 3.749345e-02 1.733078e-01 -1.133896e+00 -6.189750e-01 -5.224779e-01 4.895121e-01 -2.111906e-01 -7.069992e-02 -3.512364e-02 -5.839247e-02 6.678133e-02 -1.415433e-01 -1.952982e-03 1.414673e-02 -1.559153e-01 2.452347e-01 3.539815e-01 7.983786e-02 -6.604275e-02
<VARIANCE> 39
 2.922036e+01 3.345828e+01 1.048622e+02 4.662569e+01 4.820393e+01 7.356886e+01 3.860715e+01 4.569375e+01 5.404967e+01 4.793182e+01 3.869633e+01 2.976158e+01 2.304928e+01 3.643341e+00 3.165092e+00 6.272653e+00 3.885644e+00 3.965727e+00 5.383194e+00 4.279544e+00 4.398775e+00 4.831816e+00 4.028783e+00 3.450356e+00 2.867402e+00 1.604880e+00 5.312143e-01 5.077841e-01 1.172881e+00 6.911612e-01 5.967199e-01 7.951028e-01 6.640225e-01 6.029887e-01 6.874287e-01 8.131148e-01 7.336026e-01 5.507994e-01 2.123612e-01
<GCONST> 1.319025e+02
<STATE> 3
<MEAN> 39
 1.516900e+01 -1.273545e+01 3.897241e+00 -7.614172e+00 5.010518e+00 -5.549961e+00 -1.569833e+01 1.035844e+01 -1.195259e+01 -4.424977e+00 -5.524727e+00 -5.102037e+00 7.436485e+01 2.521887e-01 -1.612464e-01 -5.781735e-01 2.838875e-02 -2.814214e-01 -1.157946e+00 5.393298e-03 4.299324e-01 -6.073888e-01 -3.308915e-01 6.800269e-01 5.577847e-01 3.521414e-01 -3.477299e-01 -2.755798e-01 6.692728e-01 -4.463331e-01 -1.967089e-01 1.955487e-01 1.842028e-01 1.105638e-02 -4.320262e-01 5.649487e-01 5.664144e-01 1.884022e-01 6.396979e-02
<VARIANCE> 39
 6.797702e+00 1.770170e+01 4.180515e+01 2.671438e+01 3.538271e+01 5.120897e+01 3.608784e+01 4.424038e+01 6.845699e+01 5.475249e+01 3.074225e+01 3.860654e+01 1.661275e+01 6.702526e-01 1.490867e+00 4.540009e+00 2.576434e+00 3.557945e+00 3.848696e+00 3.018312e+00 3.244306e+00 5.177924e+00 3.437035e+00 4.132495e+00 3.976388e+00 7.244205e-01 1.719463e-01 2.240843e-01 5.826386e-01 4.797540e-01 4.597124e-01 7.083741e-01 7.288436e-01 5.631691e-01 7.143311e-01 9.085457e-01 5.465339e-01 6.643510e-01 1.174110e-01
<GCONST> 1.190638e+02
<STATE> 4
<MEAN> 39
 1.476745e+01 -1.454768e+01 3.557594e+00 -1.181033e+01 4.968969e-01 -9.232297e+00 -1.167481e+01 1.379844e+01 -1.487771e+01 -5.411915e-01 -1.940712e-02 -1.215424e+00 7.639846e+01 -2.723464e-01 -1.769425e-01 5.317903e-01 -5.085101e-01 -8.463801e-02 1.034944e-01 9.789658e-02 -2.915138e-01 -7.215216e-01 8.616002e-01 7.226552e-01 1.263421e-02 1.894278e-01 -1.252841e-01 4.464022e-02 2.587857e-01 6.336031e-02 1.929747e-01 3.691277e-01 -5.382420e-02 -1.990601e-01 1.039276e-01 1.031385e-01 -1.392825e-01 -1.454381e-01 -1.540142e-01
<VARIANCE> 39
 5.039859e+00 1.494519e+01 3.386752e+01 3.514300e+01 4.439342e+01 4.050977e+01 3.539159e+01 6.517692e+01 6.818190e+01 5.363058e+01 2.703850e+01 2.340010e+01 1.747516e+01 4.598657e-01 1.196514e+00 2.442072e+00 2.242086e+00 2.169509e+00 2.695765e+00 3.067877e+00 2.252741e+00 3.077847e+00 3.001803e+00 2.265701e+00 1.774644e+00 6.212117e-01 1.115218e-01 1.845219e-01 3.884893e-01 4.498909e-01 3.413264e-01 4.822801e-01 3.954383e-01 3.958311e-01 5.004383e-01 5.578517e-01 3.525580e-01 3.669396e-01 1.023241e-01
<GCONST> 1.088881e+02
<TRANSP> 5
 0.000000e+00 1.000000e+00 0.000000e+00 0.000000e+00 0.000000e+00
 0.000000e+00 3.509689e-01 6.490312e-01 0.000000e+00 0.000000e+00
 0.000000e+00 0.000000e+00 5.775487e-01 4.224513e-01 0.000000e+00
 0.000000e+00 0.000000e+00 0.000000e+00 7.341802e-01 2.658198e-01
 0.000000e+00 0.000000e+00 0.000000e+00 0.000000e+00 0.000000e+00
<ENDHMM>
~h "m"
<BEGINHMM>
<NUMSTATES> 5
<STATE> 2
<MEAN> 39
 1.167462e+01 -9.464203e+00 9.565386e+00 -5.698118e+00 1.271935e+01 9.308670e+00 -1.115888e+01 5.396753e+00 -1.426054e+01 2.293245e+00 -1.888823e+00 -9.301752e+00 6.837837e+01 -2.939214e-02 1.829831e-01 3.111082e-01 1.425193e-01 3.594027e-01 6.812076e-01 3.082808e-02 -3.478152e-01 -1.492000e-02 5.464652e-01 -1.803614e-01 -8.183352e-01 -2.246810e-01 -1.264471e-02 -3.550439e-01 9.441972e-03 -3.798278e-01 -6.256584e-01 -8.806322e-01 -1.082283e-01 5.139144e-01 5.616616e-02 -1.147052e-01 3.246977e-01 8.404611e-01 3.565414e-01
<VARIANCE> 39
 1.883242e+01 1.063690e+01 2.021980e+01 1.759790e+01 2.380702e+01 1.911395e+01 2.173901e+01 2.888651e+01 2.903055e+01 2.361626e+01 1.428838e+01 2.506796e+01 1.630633e+01 9.329857e-01 9.399698e-01 1.900042e+00 1.924121e+00 3.572448e+00 3.109947e+00 1.281966e+00 2.391063e+00 1.948107e+00 1.959369e+00 1.191473e+00 4.194522e+00 8.072615e-01 1.358199e-01 2.277097e-01 2.961652e-01 3.359528e-01 4.926172e-01 4.296662e-01 3.274499e-01 3.558334e-01 3.520825e-01 4.272635e-01 2.370262e-01 6.084464e-01 1.172627e-01
<GCONST> 1.025845e+02
<STATE> 3
<MEAN> 39
 1.001722e+01 -1.053657e+01 1.041139e+01 -9.041444e+00 7.897740e+00 6.653318e+00 -1.039056e+01 8.349514e+00 -1.261212e+01 3.357890e+00 5.792466e-01 -4.833374e+00 6.793181e+01 -2.599478e-01 -2.673054e-01 5.163597e-02 -7.529982e-01 -1.492797e+00 -1.201590e+00 2.563241e-01 9.591461e-01 3.301685e-01 -1.509160e-01 4.991318e-01 1.302769e+00 8.296286e-02 -5.407698e-02 -1.561536e-01 -7.350039e-02 5.189709e-02 -7.051648e-02 -3.692296e-01 -6.076376e-02 2.066848e-01 -2.162611e-02 -2.015433e-01 3.172772e-02 1.908011e-01 1.104547e-01
<VARIANCE> 39
 3.287619e+01 1.698891e+01 3.149919e+01 3.017188e+01 5.047508e+01 3.996087e+01 3.242585e+01 4.359771e+01 3.470596e+01 2.670097e+01 2.147230e+01 4.156059e+01 2.680652e+01 1.234242e+00 1.291638e+00 2.192775e+00 2.303988e+00 3.299646e+00 3.612873e+00 1.609381e+00 2.435969e+00 1.673488e+00 1.992173e+00 1.494981e+00 3.685494e+00 1.366140e+00 1.229563e-01 2.643313e-01 4.140050e-01 4.312736e-01 6.232449e-01 7.153451e-01 3.459148e-01 5.396051e-01 3.527735e-01 4.013205e-01 3.365135e-01 6.974991e-01 1.429788e-01
<GCONST> 1.128052e+02
<STATE> 4
<MEAN> 39
 -1.427206e-02 -1.130522e+01 1.167699e+01 -7.533567e+00 4.399540e+00 7.201653e+00 -7.466305e+00 1.009795e+01 -8.597041e+00 3.699129e+00 1.918110e+00 -3.067703e+00 6.001278e+01 -7.808337e-02 -1.397894e-01 6.932400e-02 -1.219017e-01 -3.018856e-01 -4.963497e-01 3.782477e-03 4.134015e-01 7.755284e-02 -1.066257e-01 1.570887e-01 4.269915e-01 1.123751e-01 2.872096e-02 -5.032248e-02 -1.058468e-02 -3.291935e-04 4.999615e-03 -1.078791e-01 -2.755595e-02 5.243450e-02 -2.454981e-02 -8.296256e-03 1.197709e-02 3.062314e-03 7.990278e-02
<VARIANCE> 39
 7.485919e+01 7.949629e+00 1.422223e+01 1.324058e+01 2.788872e+01 1.828867e+01 1.857747e+01 2.466427e+01 3.080366e+01 1.499156e+01 1.373521e+01 1.875018e+01 5.468215e+01 4.607063e-01 7.036080e-01 9.358661e-01 1.196970e+00 1.886216e+00 2.475371e+00 1.083704e+00 1.923121e+00 1.227519e+00 1.222850e+00 1.147637e+00 2.091465e+00 5.360395e-01 6.847629e-02 1.134827e-01 1.501535e-01 1.638794e-01 2.336716e-01 2.573009e-01 2.099875e-01 2.793647e-01 2.484735e-01 2.400912e-01 1.817440e-01 2.254859e-01 4.977554e-02
<GCONST> 9.005073e+01
<TRANSP> 5
 0.000000e+00 1.000000e+00 0.000000e+00 0.000000e+00 0.000000e+00
 0.000000e+00 6.746170e-01 3.253830e-01 0.000000e+00 0.000000e+00
 0.000000e+00 0.000000e+00 4.029235e-01 5.970765e-01 0.000000e+00
 0.000000e+00 0.000000e+00 0.000000e+00 7.252409e-01 2.747591e-01
 0.000000e+00 0.000000e+00 0.000000e+00 0.000000e+00 0.000000e+00
<ENDHMM>
~h "n"
<BEGINHMM>
<NUMSTATES> 5
<STATE> 2
<MEAN> 39
 1.108889e+01 -1.068596e+01 1.042276e+01 -4.293863e+00 1.392222e+01 1.019907e+01 -1.276013e+01 3.039020e-01 -1.680232e+01 2.781857e+00 -1.856203e+00 -6.955262e+00 6.908907e+01 5.479096e-01 -3.187069e-01 -4.744009e-01 -2.081514e-01 2.119072e-01 -3.503864e-01 -7.570485e-02 2.672209e-01 -2.993062e-01 -1.553378e-01 -5.015380e-02 2.597930e-01 6.464487e-01 -4.281374e-02 -5.251912e-01 -9.662550e-02 -7.120863e-01 -6.853585e-01 -1.029492e+00 -1.144963e-02 1.044969e+00 1.385008e-01 -1.165801e-01 5.088913e-01 9.333578e-01 4.983710e-01
<VARIANCE> 39
 1.875189e+01 1.309472e+01 2.899662e+01 2.882426e+01 2.659368e+01 2.538146e+01 2.757395e+01 4.292160e+01 2.732952e+01 2.448860e+01 1.821205e+01 2.437160e+01 2.209723e+01 1.908114e+00 2.211811e+00 2.727310e+00 4.050244e+00 3.954461e+00 5.348899e+00 2.663269e+00 7.162754e+00 2.692554e+00 2.201675e+00 2.319981e+00 5.220900e+00 2.022289e+00 2.723894e-01 3.123848e-01 4.743147e-01 5.188905e-01 5.318811e-01 6.805398e-01 5.470648e-01 8.411983e-01 5.444067e-01 5.232509e-01 3.959000e-01 6.800924e-01 2.114270e-01
<GCONST> 1.182375e+02
<STATE> 3
<MEAN> 39
 1.306244e+01 -1.526066e+01 7.652850e+00 -1.016743e+01 9.542001e+00 1.787762e+00 -1.266490e+01 9.432233e+00 -1.664086e+01 -1.241529e-01 9.645514e-01 9.759780e-01 7.482443e+01 2.475600e-01 -1.161378e+00 -7.813467e-01 -1.791833e+00 -1.640705e+00 -2.923352e+00 1.722905e-01 2.810709e+00 8.945991e-02 -3.455589e-01 1.539971e+00 2.564123e+00 1.435637e+00 -2.416007e-01 1.461109e-01 3.291461e-01 1.933812e-01 -2.730124e-02 1.986522e-01 5.165463e-02 -3.923898e-01 -3.128822e-02 2.931080e-01 3.196946e-02 -3.872791e-01 -2.247199e-01
<VARIANCE> 39
 1.045641e+01 1.720028e+01 4.555529e+01 5.230462e+01 3.530573e+01 4.709322e+01 3.416883e+01 4.674531e+01 3.857478e+01 3.822840e+01 2.827589e+01 3.695081e+01 2.196206e+01 7.905709e-01 1.720345e+00 3.211178e+00 3.210732e+00 2.788129e+00 4.137215e+00 3.225382e+00 3.944282e+00 3.094352e+00 3.428083e+00 2.568681e+00 3.267895e+00 1.174261e+00 1.806447e-01 3.685046e-01 4.433785e-01 6.193671e-01 4.294099e-01 7.137620e-01 4.859904e-01 7.376200e-01 5.543157e-01 4.962754e-01 4.679565e-01 6.771445e-01 2.017978e-01
<GCONST> 1.188030e+02
<STATE> 4
<MEAN> 39
 1.289567e+01 -1.636961e+01 6.009183e+00 -1.175368e+01 7.525992e+00 -1.830311e+00 -1.198788e+01 1.187697e+01 -1.581065e+01 1.244407e+00 3.639349e+00 3.564639e+00 7.605228e+01 -2.236261e-01 -3.111558e-01 1.915696e-01 -4.117655e-01 -7.698120e-01 -8.230477e-01 1.520366e-01 4.360663e-01 1.289193e-02 4.849114e-01 6.958472e-01 2.652352e-01 2.695940e-01 -2.108686e-01 2.586224e-01 4.479731e-01 3.628533e-01 2.343934e-01 7.332845e-01 7.372104e-02 -6.166055e-01 -5.464001e-03 1.805503e-01 -4.063138e-01 -7.218662e-01 -4.167657e-01
<VARIANCE> 39
 1.179860e+01 2.021518e+01 5.478836e+01 4.506329e+01 4.546287e+01 4.215013e+01 3.862175e+01 4.471803e+01 3.501282e+01 4.184854e+01 2.320534e+01 3.107663e+01 2.461586e+01 9.157036e-01 1.356691e+00 2.501925e+00 2.374415e+00 1.788758e+00 2.655491e+00 2.723949e+00 2.699003e+00 2.485595e+00 2.603841e+00 1.771997e+00 2.245763e+00 8.091125e-01 1.477548e-01 3.470845e-01 4.227112e-01 4.964602e-01 3.315231e-01 6.733242e-01 3.636408e-01 5.880481e-01 3.904956e-01 4.880601e-01 4.287124e-01 5.802148e-01 1.876632e-01
<GCONST> 1.133423e+02
<TRANSP> 5
 0.000000e+00 1.000000e+00 0.000000e+00 0.000000e+00 0.000000e+00
 0.000000e+00 6.578709e-01 3.421291e-01 0.000000e+00 0.000000e+00
 0.000000e+00 0.000000e+00 3.678947e-01 6.321053e-01 0.000000e+00
 0.000000e+00 0.000000e+00 0.000000e+00 4.010898e-01 5.989102e-01
 0.000000e+00 0.000000e+00 0.000000e+00 0.000000e+00 0.000000e+00
<ENDHMM>
~h "o"
<BEGINHMM>
<NUMSTATES> 5
<STATE> 2
<MEAN> 39
 1.134741e+01 -1.290615e+01 1.079775e+01 -1.305705e+01 -6.874880e-01 -5.023428e+00 -1.062252e+01 1.350532e+01 -1.459639e+01 2.900625e-01 -6.240815e-01 -3.352596e+00 7.279910e+01 1.052190e+00 -1.575251e-01 -3.011125e-01 6.858001e-03 -5.059507e-01 -2.008579e+00 7.250761e-02 9.654192e-01 -9.510295e-01 -5.991114e-01 -1.300299e-01 -2.908302e-02 1.140821e+00 -1.444356e-01 8.467977e-02 5.074985e-02 2.613476e-01 3.483436e-01 4.323543e-01 1.477968e-01 -1.713895e-01 -5.482776e-02 -6.021104e-02 -7.042050e-02 -1.122329e-01 -1.739670e-01
<VARIANCE> 39
 3.938501e+01 3.632072e+01 4.429249e+01 2.856359e+01 5.758245e+01 7.903269e+01 3.860006e+01 5.959876e+01 4.467320e+01 3.645555e+01 2.635781e+01 2.611479e+01 3.044555e+01 3.100508e+00 2.991036e+00 3.889255e+00 2.931703e+00 3.761414e+00 5.852067e+00 3.411186e+00 3.715959e+00 3.642688e+00 3.132058e+00 1.799950e+00 2.335548e+00 3.073104e+00 6.091446e-01 6.457607e-01 8.020884e-01 5.030812e-01 6.400976e-01 1.167097e+00 6.139587e-01 6.140501e-01 5.514929e-01 6.183268e-01 4.066861e-01 4.774695e-01 3.579619e-01
<GCONST> 1.280311e+02
<STATE> 3
<MEAN> 39
 1.321026e+01 -1.455704e+01 1.013343e+01 -1.138365e+01 4.395729e-01 -7.668587e+00 -9.725492e+00 1.390992e+01 -1.977800e+01 -2.361014e+00 -1.628000e+00 -3.735285e+00 7.545316e+01 3.243140e-01 5.563582e-01 6.182611e-02 6.125050e-01 4.711863e-01 2.980733e-01 2.919812e-01 -8.457964e-02 -9.828458e-02 -3.486528e-01 -2.559747e-01 -2.014410e-01 -1.859839e-02 -6.724009e-01 1.508121e-01 4.655944e-01 -3.843278e-03 2.387684e-01 1.150868e+00 -4.565056e-03 -5.041710e-01 6.201128e-01 3.523027e-01 -2.021303e-03 4.710710e-02 -6.079590e-01
<VARIANCE> 39
 1.694170e+01 3.135508e+01 4.133298e+01 2.545690e+01 4.886028e+01 5.231693e+01 2.932390e+01 5.432919e+01 4.833678e+01 3.580012e+01 2.353899e+01 3.090886e+01 1.342024e+01 4.132668e+00 2.996766e+00 6.735745e+00 2.292877e+00 3.799673e+00 7.583454e+00 3.875590e+00 3.428420e+00 4.800900e+00 3.232109e+00 1.980434e+00 2.056847e+00 2.757764e+00 4.970993e-01 7.450565e-01 1.073725e+00 5.534423e-01 5.988036e-01 1.005483e+00 4.444745e-01 7.003164e-01 6.375117e-01 6.581065e-01 3.852447e-01 5.549589e-01 2.684601e-01
<GCONST> 1.262211e+02
<STATE> 4
<MEAN> 39
 1.096739e+01 -1.034684e+01 1.177556e+01 -1.133566e+01 4.338428e-01 -1.886586e+00 -8.605982e+00 1.279157e+01 -1.463830e+01 -7.141460e-01 -1.558332e+00 -4.235271e+00 7.092705e+01 -1.503254e+00 3.040423e-01 1.379145e+00 2.824127e-01 6.447573e-01 2.538598e+00 2.454077e-01 -1.190442e+00 7.790589e-01 6.679208e-01 -7.710374e-02 -4.708796e-02 -1.227307e+00 -2.960447e-01 -3.845427e-01 7.183097e-02 -1.705774e-01 1.343427e-01 6.241633e-02 -2.145675e-01 -2.209306e-01 -8.818103e-02 2.022899e-01 4.805170e-02 8.341116e-02 6.473587e-02
<VARIANCE> 39
 1.983868e+01 2.531226e+01 3.978515e+01 3.305335e+01 5.330787e+01 5.217361e+01 3.706112e+01 4.284080e+01 5.683722e+01 3.498242e+01 2.055392e+01 2.032393e+01 3.238886e+01 2.895949e+00 2.858044e+00 6.216880e+00 2.432249e+00 3.741574e+00 5.057655e+00 3.165182e+00 3.220239e+00 3.084925e+00 2.567966e+00 2.056554e+00 2.904336e+00 2.209741e+00 3.351269e-01 4.055449e-01 5.727760e-01 3.945926e-01 4.691154e-01 8.332332e-01 4.682766e-01 5.174910e-01 5.995567e-01 4.200231e-01 3.282622e-01 3.233308e-01 2.698814e-01
<GCONST> 1.214560e+02
<TRANSP> 5
 0.000000e+00 1.000000e+00 0.000000e+00 0.000000e+00 0.000000e+00
 0.000000e+00 4.666725e-01 5.333275e-01 0.000000e+00 0.000000e+00
 0.000000e+00 0.000000e+00 5.592046e-01 4.407954e-01 0.000000e+00
 0.000000e+00 0.000000e+00 0.000000e+00 3.854745e-01 6.145255e-01
 0.000000e+00 0.000000e+00 0.000000e+00 0.000000e+00 0.000000e+00
<ENDHMM>
~h "p"
<BEGINHMM>
<NUMSTATES> 5
<STATE> 2
<MEAN> 39
 2.765731e+00 -8.124484e+00 1.368246e+01 -5.902555e+00 4.020895e+00 4.762280e+00 -1.016938e+01 7.081104e+00 -1.190676e+01 -1.862313e-02 7.180385e-01 -1.125645e+00 6.067075e+01 -1.770677e+00 4.036252e-01 5.518848e-01 -3.967686e-02 -6.514581e-01 6.110687e-01 -3.661380e-02 -3.705065e-02 1.047845e+00 6.259576e-02 -1.756059e-01 -1.091829e-01 -1.903672e+00 1.567101e-01 -8.262680e-01 -2.743958e-02 -3.708168e-01 -2.482919e-02 -3.230462e-01 -1.643763e-01 -2.089576e-03 -3.656919e-01 3.555743e-01 1.500011e-01 -8.317228e-02 8.450628e-01
<VARIANCE> 39
 3.415985e+01 1.242118e+01 3.331425e+01 3.556789e+01 4.000156e+01 2.818066e+01 3.229833e+01 3.872346e+01 3.011569e+01 2.231084e+01 1.912235e+01 1.820282e+01 1.713188e+01 1.292585e+00 1.657552e+00 2.711664e+00 1.752765e+00 1.473188e+00 2.588364e+00 2.023636e+00 1.832052e+00 1.734865e+00 1.647529e+00 1.311523e+00 1.418872e+00 1.684542e+00 2.627669e-01 3.951336e-01 4.563818e-01 4.241243e-01 2.654325e-01 5.656213e-01 4.481817e-01 3.953149e-01 3.669197e-01 4.115586e-01 2.953590e-01 3.010001e-01 2.392284e-01
<GCONST> 1.080549e+02
<STATE> 3
<MEAN> 39
 -1.266837e+00 -8.759600e+00 1.525869e+01 -5.019528e+00 4.157856e+00 5.920070e+00 -1.016723e+01 7.232744e+00 -1.031812e+01 7.140999e-01 -2.225152e-01 -2.788385e+00 5.789485e+01 -6.577637e-01 -1.758348e+00 3.040667e-01 -1.447191e+00 -8.810402e-01 3.386382e-01 4.100257e-01 7.276769e-02 -1.483831e-01 9.497222e-01 2.429169e-01 1.385754e-01 7.125289e-01 9.957026e-01 -8.530949e-01 9.394730e-02 -5.685192e-01 1.471497e-01 -1.921737e-01 -4.903476e-02 -5.087861e-03 -7.813738e-01 3.048680e-01 2.269031e-01 2.087829e-01 1.612448e+00
<VARIANCE> 39
 1.946739e+01 1.032642e+01 1.993208e+01 2.277723e+01 2.169027e+01 1.654002e+01 2.433585e+01 2.700073e+01 2.650342e+01 1.672076e+01 1.577065e+01 1.504538e+01 1.215431e+01 2.223815e+00 2.834311e+00 2.629201e+00 2.809827e+00 1.913951e+00 1.833474e+00 2.068381e+00 2.103292e+00 2.153791e+00 2.121441e+00 1.466642e+00 1.459305e+00 2.596935e+00 3.852004e-01 4.444433e-01 5.151389e-01 4.373219e-01 3.754906e-01 5.157132e-01 4.982977e-01 4.613952e-01 4.445289e-01 3.341511e-01 3.868037e-01 3.635310e-01 1.743697e-01
<GCONST> 1.073488e+02
<STATE> 4
<MEAN> 39
 -9.560885e-01 -1.393935e+01 1.543690e+01 -9.695669e+00 1.790186e+00 7.179492e+00 -8.468294e+00 7.464100e+00 -1.117038e+01 4.081231e+00 1.617934e+00 -1.654869e+00 6.185861e+01 2.438510e+00 -2.390331e+00 6.332402e-01 -1.909191e+00 -5.967347e-02 -3.259889e-01 -3.788634e-01 -3.346872e-01 -2.124695e+00 7.887793e-01 1.180571e-01 1.188262e-01 4.220602e+00 9.601730e-01 2.376789e-01 -4.869072e-01 2.331629e-01 3.260311e-01 -7.719555e-01 -3.711484e-01 9.691198e-03 -3.778048e-01 -3.224392e-01 -7.755757e-02 -1.687263e-01 7.929089e-01
<VARIANCE> 39
 2.189992e+01 2.963830e+01 2.053761e+01 2.495476e+01 2.177832e+01 1.670847e+01 1.692963e+01 2.267443e+01 3.088511e+01 1.810280e+01 1.244874e+01 1.194236e+01 4.379255e+01 5.978297e+00 3.276155e+00 4.640668e+00 3.495287e+00 3.391432e+00 3.866526e+00 3.597681e+00 4.390393e+00 3.896076e+00 2.893688e+00 2.529251e+00 2.307652e+00 2.374642e+00 7.057341e-01 7.068779e-01 9.769350e-01 5.873483e-01 5.395371e-01 6.218858e-01 5.717241e-01 6.034541e-01 6.441205e-01 4.168373e-01 3.543109e-01 3.650362e-01 6.886077e-01
<GCONST> 1.203521e+02
<TRANSP> 5
 0.000000e+00 1.000000e+00 0.000000e+00 0.000000e+00 0.000000e+00
 0.000000e+00 5.340277e-01 4.659723e-01 0.000000e+00 0.000000e+00
 0.000000e+00 0.000000e+00 3.824299e-01 6.175701e-01 0.000000e+00
 0.000000e+00 0.000000e+00 0.000000e+00 4.250010e-01 5.749990e-01
 0.000000e+00 0.000000e+00 0.000000e+00 0.000000e+00 0.000000e+00
<ENDHMM>
~h "r"
<BEGINHMM>
<NUMSTATES> 5
<STATE> 2
<MEAN> 39
 9.082917e+00 -1.746787e+01 1.368665e+01 -1.492515e+01 2.944853e+00 3.662053e+00 -1.202329e+01 5.802122e+00 -1.832629e+01 4.253043e+00 9.940363e-01 -2.118291e+00 7.433760e+01 2.575842e+00 -1.039763e-01 -1.688091e+00 -6.435229e-01 1.080609e+00 -3.175394e-01 -1.485386e+00 -1.470110e+00 -1.130595e+00 -1.521284e-01 -3.325864e-01 6.884307e-02 2.169203e+00 -1.239245e-01 6.326368e-01 -6.963899e-01 4.662401e-01 5.297057e-01 9.233984e-02 -2.740549e-01 -6.710046e-02 5.486555e-01 -4.640399e-01 -1.557859e-01 -1.368705e-02 -6.609403e-01
<VARIANCE> 39
 3.855771e+01 2.945405e+01 5.708997e+01 2.968554e+01 3.364986e+01 4.918698e+01 3.792328e+01 4.178709e+01 3.259030e+01 3.605656e+01 2.291528e+01 2.154148e+01 3.008557e+01 4.760952e+00 3.525343e+00 5.575698e+00 4.522366e+00 2.705976e+00 5.864043e+00 3.541493e+00 3.797688e+00 5.346283e+00 3.912649e+00 2.538445e+00 2.752011e+00 5.715198e+00 7.329733e-01 6.166464e-01 9.625328e-01 8.081605e-01 4.825613e-01 1.006187e+00 5.953436e-01 6.830322e-01 6.961913e-01 6.630486e-01 5.049726e-01 3.724990e-01 4.987720e-01
<GCONST> 1.299339e+02
<STATE> 3
<MEAN> 39
 1.436057e+01 -1.559527e+01 6.959964e+00 -1.435133e+01 6.688513e+00 5.695139e-01 -1.607862e+01 3.294131e+00 -2.046312e+01 2.905906e+00 2.111728e-01 -2.786991e+00 7.678458e+01 6.170944e-01 1.057927e+00 -2.509677e+00 1.997532e-01 1.997103e+00 1.057367e+00 -1.667788e+00 -1.415848e+00 1.191011e+00 -1.208687e+00 -8.235340e-01 2.946030e-01 -3.798707e-01 -6.384284e-01 1.164594e-01 3.076179e-01 1.488155e-01 1.150511e-01 1.473481e-01 1.076281e-01 5.411853e-01 5.755420e-01 -2.096307e-01 -8.095330e-02 7.284473e-02 -5.646503e-01
<VARIANCE> 39
 7.713250e+00 1.848133e+01 3.450238e+01 3.230752e+01 3.123796e+01 3.962538e+01 3.398016e+01 4.206378e+01 3.267448e+01 4.323232e+01 3.044242e+01 2.588853e+01 1.702752e+01 1.814973e+00 1.766885e+00 4.214794e+00 2.720251e+00 2.165982e+00 8.032146e+00 3.329345e+00 4.586348e+00 3.481359e+00 3.373045e+00 2.695394e+00 2.175436e+00 1.477889e+00 4.624281e-01 3.798767e-01 6.233265e-01 4.604022e-01 4.101399e-01 1.147562e+00 5.398022e-01 8.061521e-01 7.175246e-01 6.067769e-01 4.253001e-01 4.144746e-01 3.326966e-01
<GCONST> 1.203654e+02
<STATE> 4
<MEAN> 39
 1.381333e+01 -1.238796e+01 2.300142e+00 -1.506382e+01 1.082598e+01 4.769451e+00 -1.934137e+01 2.477523e+00 -1.442208e+01 -1.581338e+00 -2.231169e+00 -1.499953e+00 7.463317e+01 4.336496e-02 1.547134e-01 -6.442342e-01 2.005113e-01 8.269026e-01 -1.143902e+00 -4.812440e-01 1.406293e+00 4.231494e-01 -4.670545e-01 3.823118e-02 3.433532e-01 -1.081925e-01 -1.831224e-01 -3.501751e-01 7.734972e-01 1.896944e-01 -6.811790e-01 -7.620495e-01 7.186799e-01 7.204941e-01 -5.375753e-01 4.332584e-01 4.103607e-01 -9.274203e-02 1.194618e-01
<VARIANCE> 39
 1.093781e+01 2.189678e+01 4.350578e+01 3.510577e+01 2.536499e+01 5.996786e+01 4.414540e+01 4.317217e+01 2.976674e+01 3.918038e+01 3.259192e+01 2.884136e+01 1.968679e+01 8.698468e-01 1.976720e+00 4.175061e+00 2.587772e+00 3.736990e+00 8.238247e+00 5.101454e+00 5.271498e+00 3.679531e+00 3.228768e+00 2.618569e+00 2.149106e+00 1.269632e+00 2.020719e-01 3.240777e-01 5.958971e-01 5.307309e-01 4.369220e-01 1.414315e+00 7.882967e-01 9.389513e-01 6.721578e-01 5.660930e-01 4.180847e-01 4.157261e-01 2.151876e-01
<GCONST> 1.214248e+02
<TRANSP> 5
 0.000000e+00 1.000000e+00 0.000000e+00 0.000000e+00 0.000000e+00
 0.000000e+00 3.678666e-01 6.321334e-01 0.000000e+00 0.000000e+00
 0.000000e+00 0.000000e+00 3.513529e-01 6.486471e-01 0.000000e+00
 0.000000e+00 0.000000e+00 0.000000e+00 6.391894e-01 3.608106e-01
 0.000000e+00 0.000000e+00 0.000000e+00 0.000000e+00 0.000000e+00
<ENDHMM>
~h "s"
<BEGINHMM>
<NUMSTATES> 5
<STATE> 2
<MEAN> 39
 -8.741196e+00 -2.306157e+01 3.362027e+01 -1.800365e+01 2.407357e+00 1.063605e+01 -4.674923e+00 6.298460e+00 -1.935280e+01 9.341098e+00 1.100411e+00 -1.962560e+00 7.636901e+01 -2.663416e+00 -1.201144e+00 1.926076e+00 -1.478205e+00 -1.698626e-01 9.282930e-01 6.115995e-01 3.188074e-01 1.741976e-01 9.793950e-01 -6.911129e-03 3.304651e-01 1.133119e-01 6.513935e-01 2.378083e-01 -8.238226e-01 3.197801e-01 1.559027e-01 -4.446263e-01 -2.832506e-01 2.311705e-03 -3.931047e-02 -1.736417e-01 3.507517e-02 -1.008516e-01 -1.113552e-01
<VARIANCE> 39
 5.633907e+01 2.956345e+01 5.162331e+01 3.855265e+01 2.571848e+01 3.815514e+01 2.988871e+01 3.901870e+01 4.987322e+01 3.501479e+01 2.667462e+01 2.140483e+01 2.113164e+01 4.763271e+00 3.398059e+00 8.358809e+00 3.328926e+00 2.541076e+00 3.572422e+00 2.523138e+00 2.895038e+00 2.768541e+00 2.372263e+00 2.056335e+00 1.864945e+00 7.912577e-01 6.035277e-01 5.628487e-01 9.225739e-01 6.001964e-01 4.888707e-01 5.837750e-01 3.953192e-01 5.077936e-01 5.238544e-01 4.637809e-01 3.745250e-01 3.321063e-01 1.302041e-01
<GCONST> 1.207332e+02
<STATE> 3
<MEAN> 39
 -1.178267e+01 -2.518139e+01 3.334239e+01 -2.007722e+01 2.127270e+00 1.116456e+01 -4.486709e+00 6.614769e+00 -1.855250e+01 1.144899e+01 1.694008e+00 -1.510533e+00 7.497761e+01 2.346533e+00 1.095967e+00 -1.834940e+00 1.542557e+00 1.872277e-01 -5.041963e-01 -5.992055e-01 -5.357399e-01 -8.784980e-02 -1.238004e+00 -8.053302e-02 -2.495106e-01 -5.831864e-01 1.062173e+00 6.371622e-01 -8.407607e-01 6.417279e-01 2.098350e-01 -3.185037e-01 -3.951203e-01 -1.233860e-01 -6.361981e-02 -5.572966e-01 -1.199053e-01 -1.742657e-01 -1.872590e-01
<VARIANCE> 39
 2.629046e+01 2.763206e+01 3.641069e+01 2.968435e+01 2.550564e+01 3.353145e+01 2.684070e+01 2.872217e+01 4.280059e+01 3.234050e+01 2.746831e+01 2.150934e+01 2.552730e+01 5.844123e+00 3.451784e+00 4.397229e+00 3.780459e+00 2.599260e+00 2.223882e+00 2.599362e+00 2.729822e+00 3.320908e+00 2.675952e+00 2.430741e+00 1.908641e+00 1.867153e+00 4.757701e-01 6.353862e-01 6.657826e-01 6.650361e-01 5.210642e-01 5.285613e-01 4.144713e-01 4.763608e-01 5.223228e-01 4.880501e-01 4.802510e-01 3.723255e-01 3.006763e-01
<GCONST> 1.201639e+02
<STATE> 4
<MEAN> 39
 2.798955e+00 -1.740247e+01 2.287459e+01 -1.278072e+01 3.934424e+00 7.841930e+00 -8.487627e+00 3.497652e+00 -2.030301e+01 4.468511e+00 7.348983e-04 -3.937291e+00 7.395582e+01 3.981875e+00 2.179137e+00 -3.964932e+00 2.280185e+00 1.159045e+00 -1.801602e+00 -1.813924e+00 9.430403e-02 5.839990e-02 -1.680421e+00 -4.690903e-01 -7.268230e-01 -9.604159e-01 -7.053967e-01 -3.354381e-01 1.681949e-01 -2.673536e-01 6.088124e-02 -1.449654e-01 3.308142e-02 5.016021e-01 3.449020e-01 3.631463e-01 1.166186e-01 1.499140e-01 -4.783762e-02
<VARIANCE> 39
 7.301667e+01 2.405955e+01 8.225906e+01 3.992392e+01 3.447951e+01 4.884595e+01 4.267868e+01 5.632996e+01 3.547801e+01 4.157744e+01 2.496159e+01 2.371070e+01 3.886779e+01 4.999411e+00 3.651576e+00 5.294605e+00 5.071813e+00 3.730793e+00 5.008860e+00 3.460438e+00 3.881916e+00 4.703298e+00 3.773696e+00 3.315214e+00 2.792182e+00 3.070519e+00 8.011277e-01 4.617455e-01 9.397952e-01 5.195308e-01 4.970377e-01 7.028551e-01 5.120475e-01 6.529135e-01 5.752776e-01 5.301204e-01 4.225606e-01 5.287980e-01 2.756928e-01
<GCONST> 1.299097e+02
<TRANSP> 5
 0.000000e+00 1.000000e+00 0.000000e+00 0.000000e+00 0.000000e+00
 0.000000e+00 8.330426e-01 1.669574e-01 0.000000e+00 0.000000e+00
 0.000000e+00 0.000000e+00 7.196215e-01 2.803785e-01 0.000000e+00
 0.000000e+00 0.000000e+00 0.000000e+00 4.245254e-01 5.754746e-01
 0.000000e+00 0.000000e+00 0.000000e+00 0.000000e+00 0.000000e+00
<ENDHMM>
~h "t"
<BEGINHMM>
<NUMSTATES> 5
<STATE> 2
<MEAN> 39
 3.380774e-01 -1.551887e+01 2.113414e+01 -1.070644e+01 2.689865e+00 7.377770e+00 -9.170967e+00 6.070003e+00 -1.492864e+01 4.117462e+00 -9.204214e-01 -2.114812e+00 6.682124e+01 -1.423143e-01 4.138105e-01 -2.381042e-01 -5.822573e-02 -3.198036e-01 1.787720e-01 1.959303e-01 1.125766e-01 2.797271e-01 -1.438630e-01 4.533036e-02 1.253132e-01 -6.248722e-01 2.623754e-01 -1.805242e-01 -4.265414e-01 3.260506e-02 1.305959e-01 -3.729827e-01 -1.596950e-01 6.109864e-02 -9.368009e-02 1.689065e-02 1.206920e-01 -1.656086e-02 3.026067e-01
<VARIANCE> 39
 4.664173e+01 5.562693e+01 6.600834e+01 6.646264e+01 3.628715e+01 3.228078e+01 3.480330e+01 3.725420e+01 4.711073e+01 3.528608e+01 2.040002e+01 1.735301e+01 5.289922e+01 6.128879e+00 7.139661e+00 8.120234e+00 7.783367e+00 3.307239e+00 4.156443e+00 3.183374e+00 2.814761e+00 4.153612e+00 3.924760e+00 2.087270e+00 1.560110e+00 7.280971e+00 6.920499e-01 1.624896e+00 1.360647e+00 1.497578e+00 6.459635e-01 7.799124e-01 5.731402e-01 5.631980e-01 6.511360e-01 7.761235e-01 4.576106e-01 3.825351e-01 9.830650e-01
<GCONST> 1.346783e+02
<STATE> 3
<MEAN> 39
 1.832610e+00 -1.190753e+01 1.735090e+01 -7.329267e+00 3.652261e+00 6.101917e+00 -9.613760e+00 5.830055e+00 -1.437174e+01 1.645035e+00 -2.914179e-01 -1.694242e+00 6.389448e+01 -2.406443e-01 -3.145076e-01 -1.010400e+00 -1.067030e-01 -4.615130e-01 -3.762721e-01 -4.388871e-03 3.186872e-01 4.512850e-01 -8.023033e-02 2.311426e-01 -6.512851e-02 -4.399566e-01 1.992859e-01 -9.574896e-01 1.509436e-01 -6.117207e-01 -3.474969e-02 -2.297568e-01 -1.566384e-01 -8.063819e-02 -4.421932e-01 4.089969e-01 -3.604981e-03 -9.469859e-02 1.025759e+00
<VARIANCE> 39
 4.324396e+01 3.547173e+01 5.825619e+01 4.285740e+01 3.291276e+01 3.490746e+01 3.814375e+01 3.621046e+01 4.593139e+01 3.304789e+01 2.048248e+01 1.911965e+01 5.066648e+01 4.928874e+00 5.384185e+00 7.186773e+00 4.984364e+00 3.297831e+00 3.454707e+00 2.924953e+00 2.847683e+00 2.671925e+00 2.709510e+00 1.937249e+00 2.029007e+00 3.433031e+00 6.441408e-01 9.385630e-01 1.075478e+00 8.393369e-01 6.101671e-01 7.435809e-01 6.147674e-01 5.622957e-01 6.161204e-01 6.455871e-01 3.986462e-01 4.026812e-01 9.100585e-01
<GCONST> 1.290216e+02
<STATE> 4
<MEAN> 39
 -9.742792e-01 -1.244490e+01 1.557110e+01 -7.767175e+00 2.123647e+00 6.533638e+00 -7.854118e+00 7.769235e+00 -1.117819e+01 2.805181e+00 8.771167e-01 -1.843018e+00 6.136492e+01 1.307986e-01 -1.506821e+00 -1.404231e-01 -9.286221e-01 -4.250607e-01 -3.227888e-01 -1.391115e-01 -3.318818e-03 -4.403279e-01 4.730065e-01 1.814484e-02 -1.750103e-01 1.063436e+00 3.800536e-01 -3.861692e-01 2.613234e-01 -3.408958e-01 5.254332e-02 -1.158660e-01 -1.934127e-01 -1.856073e-01 -4.801848e-01 7.925560e-02 -1.337877e-01 -1.740554e-02 7.705072e-01
<VARIANCE> 39
 4.138535e+01 2.607903e+01 4.388135e+01 2.741184e+01 2.449076e+01 2.790201e+01 2.429583e+01 3.106155e+01 4.844276e+01 2.170740e+01 1.703843e+01 1.492659e+01 5.857825e+01 3.068786e+00 5.749049e+00 4.517398e+00 4.922194e+00 3.142242e+00 2.720551e+00 2.239710e+00 2.840803e+00 3.035026e+00 2.463004e+00 1.769306e+00 1.789031e+00 3.841763e+00 6.602286e-01 5.597386e-01 8.569515e-01 5.757074e-01 4.776528e-01 5.785252e-01 4.694194e-01 3.929576e-01 5.307314e-01 4.215853e-01 3.381802e-01 2.625566e-01 6.228642e-01
<GCONST> 1.208815e+02
<TRANSP> 5
 0.000000e+00 1.000000e+00 0.000000e+00 0.000000e+00 0.000000e+00
 0.000000e+00 5.492661e-01 4.507338e-01 0.000000e+00 0.000000e+00
 0.000000e+00 0.000000e+00 2.142183e-01 7.857817e-01 0.000000e+00
 0.000000e+00 0.000000e+00 0.000000e+00 4.218936e-01 5.781064e-01
 0.000000e+00 0.000000e+00 0.000000e+00 0.000000e+00 0.000000e+00
<ENDHMM>
~h "u"
<BEGINHMM>
<NUMSTATES> 5
<STATE> 2
<MEAN> 39
 1.053627e+01 -9.752149e+00 1.333787e+01 -1.103845e+01 3.526452e+00 -4.134197e+00 -1.290396e+01 1.353779e+01 -1.820540e+01 -2.699701e+00 -1.588929e+00 -7.170613e+00 7.020625e+01 5.362108e-01 1.103337e+00 3.473414e-01 3.524724e-01 -3.561530e-01 -1.171442e+00 6.735792e-02 8.513851e-01 4.129998e-01 2.612383e-01 -8.289587e-02 -4.326179e-01 -1.485117e-01 -2.669729e-01 -1.405914e-01 2.089001e-01 6.966746e-02 6.335439e-02 5.220199e-01 1.626572e-01 -3.023401e-01 1.495266e-01 1.818439e-01 2.085562e-01 2.597499e-01 -3.847379e-02
<VARIANCE> 39
 2.760745e+01 3.523031e+01 2.872871e+01 2.181914e+01 3.968741e+01 4.419613e+01 3.270361e+01 3.402222e+01 5.017131e+01 4.845403e+01 3.323376e+01 3.352325e+01 2.202685e+01 2.078407e+00 2.722177e+00 2.824802e+00 1.940584e+00 3.465186e+00 4.405698e+00 2.697315e+00 3.557691e+00 3.136731e+00 2.675277e+00 2.063192e+00 2.799860e+00 1.279717e+00 4.839974e-01 7.005399e-01 5.276777e-01 4.192485e-01 4.208605e-01 1.023116e+00 5.708506e-01 7.817448e-01 5.316087e-01 4.868222e-01 5.572120e-01 5.178145e-01 2.928274e-01
<GCONST> 1.218729e+02
<STATE> 3
<MEAN> 39
 1.101193e+01 -5.388203e+00 1.665072e+01 -9.710445e+00 1.308241e+00 -6.656967e+00 -1.202319e+01 1.497657e+01 -1.611036e+01 -1.312331e+00 -6.034439e-01 -6.890537e+00 6.927237e+01 -1.113003e-02 2.595195e-01 4.519769e-01 4.633126e-01 3.654623e-01 8.191013e-01 2.684958e-01 -1.626106e-01 3.927089e-01 -1.241735e-01 -1.270947e-01 2.862833e-01 -8.657539e-02 -5.374623e-01 -6.703799e-01 -4.962820e-02 -1.377818e-01 3.250733e-01 9.712500e-01 1.073483e-01 -4.214397e-01 8.288258e-03 6.237265e-02 -1.605753e-02 1.724670e-01 -8.960474e-02
<VARIANCE> 39
 1.507323e+01 3.023953e+01 2.535995e+01 1.973689e+01 3.762882e+01 5.639423e+01 3.333036e+01 5.089303e+01 3.884364e+01 3.876035e+01 3.035797e+01 3.302605e+01 2.251873e+01 3.355538e+00 3.674006e+00 2.770010e+00 2.225481e+00 3.276114e+00 9.049320e+00 3.389078e+00 4.361711e+00 3.188126e+00 3.212745e+00 2.580272e+00 2.015755e+00 2.453773e+00 3.333508e-01 4.223998e-01 5.105789e-01 3.762040e-01 4.714740e-01 9.150043e-01 4.752710e-01 6.725065e-01 4.334920e-01 5.014929e-01 4.155377e-01 4.499726e-01 2.169860e-01
<GCONST> 1.214172e+02
<STATE> 4
<MEAN> 39
 7.900423e+00 -7.799895e+00 1.561355e+01 -9.643470e+00 3.025658e+00 1.052939e+00 -1.049392e+01 1.160355e+01 -1.433291e+01 -8.531026e-02 -1.265044e+00 -5.843863e+00 6.678936e+01 -1.409381e+00 -1.171755e+00 1.528093e-01 7.152952e-03 6.055847e-01 2.070596e+00 3.644542e-01 -9.162542e-01 2.669490e-01 7.677063e-02 -8.361015e-02 3.673761e-01 -5.108388e-01 -1.702265e-01 -4.242674e-01 -6.408452e-02 -1.164670e-01 4.937398e-02 -1.273333e-01 -1.835824e-01 -8.754203e-02 -1.028938e-01 7.240843e-02 1.376330e-01 8.702465e-02 1.822221e-01
<VARIANCE> 39
 2.896324e+01 3.118627e+01 3.256732e+01 2.923746e+01 4.931196e+01 4.148859e+01 3.532715e+01 3.987077e+01 4.558598e+01 4.396418e+01 2.705429e+01 2.196611e+01 4.314234e+01 2.495740e+00 3.238600e+00 4.579576e+00 2.672467e+00 3.463802e+00 5.679388e+00 3.143070e+00 3.661191e+00 2.939618e+00 2.835406e+00 2.143120e+00 2.129222e+00 1.625074e+00 4.049521e-01 4.740162e-01 4.589852e-01 4.776787e-01 5.011778e-01 6.734004e-01 4.935999e-01 5.395561e-01 4.880230e-01 6.273131e-01 3.432267e-01 3.880536e-01 1.625515e-01
<GCONST> 1.215175e+02
<TRANSP> 5
 0.000000e+00 1.000000e+00 0.000000e+00 0.000000e+00 0.000000e+00
 0.000000e+00 5.010943e-01 4.989058e-01 0.000000e+00 0.000000e+00
 0.000000e+00 0.000000e+00 5.440352e-01 4.559648e-01 0.000000e+00
 0.000000e+00 0.000000e+00 0.000000e+00 3.128746e-01 6.871254e-01
 0.000000e+00 0.000000e+00 0.000000e+00 0.000000e+00 0.000000e+00
<ENDHMM>
~h "v"
<BEGINHMM>
<NUMSTATES> 5
<STATE> 2
<MEAN> 39
 9.398846e+00 -1.184135e+01 1.337553e+01 -1.139925e+01 6.808849e+00 3.356333e+00 -1.042863e+01 1.047554e+01 -1.593530e+01 -1.505136e-01 -2.415399e+00 -3.889357e+00 7.076134e+01 1.363843e-01 -3.887206e-02 1.313124e-01 7.548855e-02 6.744490e-01 2.518244e-01 -1.605585e-01 2.937840e-01 2.977563e-03 -2.523708e-01 -4.868964e-01 3.607222e-03 -6.063899e-02 1.134424e-01 -3.542452e-01 -2.508492e-01 5.288842e-02 -9.416307e-02 -4.863577e-01 -3.218473e-01 -3.254304e-01 -3.470753e-01 1.803932e-01 3.728011e-01 9.011721e-02 3.854599e-01
<VARIANCE> 39
 3.207721e+01 2.248842e+01 5.506484e+01 4.354364e+01 4.102825e+01 5.151672e+01 3.391647e+01 3.673590e+01 3.698340e+01 2.838109e+01 1.985538e+01 1.229373e+01 3.608167e+01 1.940804e+00 1.532601e+00 4.264149e+00 2.209638e+00 2.993445e+00 4.043471e+00 1.977394e+00 1.847393e+00 2.336287e+00 1.652098e+00 1.186650e+00 1.182853e+00 1.091298e+00 3.547331e-01 4.105772e-01 6.450767e-01 4.632502e-01 3.510184e-01 6.780542e-01 4.184903e-01 3.995823e-01 3.887620e-01 4.614194e-01 3.197245e-01 2.404839e-01 1.521612e-01
<GCONST> 1.132385e+02
<STATE> 3
<MEAN> 39
 9.466574e+00 -1.224312e+01 1.434588e+01 -1.170298e+01 7.838488e+00 3.750405e+00 -1.104950e+01 1.042119e+01 -1.719054e+01 -3.920144e-01 -2.889723e+00 -3.825421e+00 7.115314e+01 6.902761e-01 -5.857737e-01 -7.910536e-01 2.893267e-01 3.467759e-01 -7.806571e-01 -9.276748e-01 -7.011956e-01 -7.525184e-01 -1.210186e-01 4.320405e-01 2.069249e-01 8.406947e-01 1.889818e-01 -2.313898e-01 -4.360751e-01 2.495839e-01 -1.771276e-01 -6.038011e-01 -3.480067e-01 -4.009680e-01 -1.975839e-01 2.055248e-01 4.904955e-01 5.931569e-02 3.218819e-01
<VARIANCE> 39
 2.422875e+01 2.132193e+01 6.114030e+01 5.175526e+01 4.008636e+01 5.348718e+01 3.150261e+01 3.360756e+01 3.293583e+01 2.792855e+01 2.068918e+01 1.410112e+01 3.086368e+01 1.845727e+00 1.694041e+00 3.199202e+00 2.491870e+00 3.450011e+00 2.798544e+00 1.987212e+00 2.257650e+00 2.410004e+00 1.452559e+00 1.468643e+00 1.245180e+00 1.169561e+00 3.723008e-01 3.147265e-01 7.124051e-01 5.539093e-01 2.995037e-01 6.686286e-01 4.221834e-01 4.189855e-01 2.990941e-01 4.659023e-01 3.325687e-01 2.503641e-01 1.553499e-01
<GCONST> 1.128138e+02
<STATE> 4
<MEAN> 39
 1.206273e+01 -1.455346e+01 1.023275e+01 -1.072546e+01 7.554127e+00 -1.905342e-01 -1.350945e+01 8.108243e+00 -1.955593e+01 -2.426603e-01 -3.708338e-01 -2.699089e+00 7.403513e+01 7.886953e-01 -8.343167e-01 -1.269795e+00 7.097856e-01 1.442613e-01 -1.751646e+00 -1.308252e+00 -1.138238e+00 -7.604683e-01 6.982512e-01 1.236216e+00 2.633931e-01 1.125157e+00 -1.371851e-01 1.240667e-02 1.077527e-01 1.832983e-01 -1.297901e-02 -8.950192e-02 -2.638408e-02 3.111739e-02 2.271467e-01 1.926644e-01 4.635032e-02 -1.115880e-01 -5.693362e-02
<VARIANCE> 39
 1.618482e+01 1.524448e+01 5.692868e+01 4.448774e+01 5.502155e+01 6.296425e+01 3.370258e+01 4.259568e+01 3.660609e+01 2.644755e+01 1.786166e+01 1.735173e+01 1.781813e+01 1.202723e+00 1.407831e+00 3.007166e+00 3.015660e+00 3.135072e+00 2.853777e+00 3.022218e+00 2.829708e+00 2.269171e+00 2.332881e+00 2.131276e+00 1.722828e+00 1.001575e+00 2.083317e-01 2.458485e-01 4.686610e-01 4.371943e-01 3.351012e-01 6.962577e-01 2.868164e-01 3.782772e-01 4.027806e-01 3.839755e-01 2.326579e-01 2.625689e-01 1.198120e-01
<GCONST> 1.109547e+02
<TRANSP> 5
 0.000000e+00 1.000000e+00 0.000000e+00 0.000000e+00 0.000000e+00
 0.000000e+00 2.488840e-01 7.511159e-01 0.000000e+00 0.000000e+00
 0.000000e+00 0.000000e+00 3.167316e-01 6.832684e-01 0.000000e+00
 0.000000e+00 0.000000e+00 0.000000e+00 3.380933e-01 6.619067e-01
 0.000000e+00 0.000000e+00 0.000000e+00 0.000000e+00 0.000000e+00
<ENDHMM>
~h "x"
<BEGINHMM>
<NUMSTATES> 5
<STATE> 2
<MEAN> 39
 2.131924e+00 -2.066370e+01 1.669544e+01 -1.865734e+01 -1.931230e+00 8.494753e+00 -4.200545e+00 1.143376e+01 -1.646657e+01 5.490460e+00 3.522776e+00 -4.250345e+00 6.963312e+01 -8.625403e-01 -1.067154e+00 -1.964981e-01 -1.419458e+00 -1.168230e+00 7.838976e-01 9.102908e-01 1.004560e-01 -4.155259e-01 -5.669580e-01 -3.461491e-01 1.400404e-01 -1.619433e-01 4.329910e-01 3.139563e-01 -1.484863e-01 4.021837e-01 3.028122e-01 -5.152450e-01 -4.214920e-01 -1.585952e-01 -1.259398e-01 -3.312638e-02 -6.139972e-02 -1.812711e-01 2.125469e-01
<VARIANCE> 39
 1.322111e+01 3.826915e+01 3.756290e+01 5.668965e+01 5.890945e+01 3.882403e+01 5.655962e+01 4.974708e+01 3.822565e+01 2.334264e+01 2.129445e+01 2.247090e+01 1.851356e+01 1.863217e+00 2.646712e+00 2.297608e+00 4.216808e+00 2.990517e+00 2.776492e+00 2.797638e+00 2.935100e+00 2.590886e+00 2.737346e+00 1.854352e+00 2.150153e+00 1.198951e+00 1.890987e-01 4.607557e-01 4.932134e-01 4.964731e-01 4.031513e-01 5.434940e-01 4.348255e-01 5.522255e-01 6.102322e-01 5.517426e-01 3.057858e-01 3.448945e-01 1.390582e-01
<GCONST> 1.166367e+02
<STATE> 3
<MEAN> 39
 -4.873327e-01 -2.372550e+01 2.128200e+01 -1.538467e+01 2.477221e+00 8.892895e+00 -7.633106e+00 7.380017e+00 -1.871613e+01 6.038131e+00 1.034905e+00 -4.587997e+00 7.124747e+01 9.339278e-01 1.178685e+00 -6.056758e-01 -1.040515e-02 3.158124e-02 -4.619913e-01 2.671790e-01 -1.631384e-01 -3.164548e-01 -1.123966e-01 -2.046295e-01 -4.239782e-02 7.384536e-02 6.827199e-01 7.679775e-01 -3.590901e-01 5.626230e-01 3.584352e-01 -5.685142e-01 -3.917206e-01 1.632854e-02 1.108812e-01 -1.452490e-02 7.573553e-02 -1.394280e-01 1.840153e-02
<VARIANCE> 39
 2.421101e+01 2.635445e+01 5.887442e+01 5.820107e+01 5.347416e+01 3.593728e+01 5.442980e+01 4.828948e+01 4.209498e+01 3.910608e+01 3.342632e+01 1.996843e+01 1.512877e+01 4.342340e+00 5.353027e+00 3.214046e+00 4.447477e+00 4.222265e+00 4.692820e+00 3.372876e+00 3.566693e+00 2.868942e+00 4.125715e+00 2.205135e+00 2.257158e+00 1.716200e+00 4.257050e-01 6.312853e-01 7.225175e-01 6.396118e-01 6.393054e-01 6.111815e-01 5.887781e-01 5.527676e-01 7.214189e-01 7.453685e-01 4.853655e-01 3.963784e-01 3.448105e-01
<GCONST> 1.267507e+02
<STATE> 4
<MEAN> 39
 5.158657e+00 -1.762434e+01 1.676675e+01 -1.567867e+01 9.999413e-01 5.471561e+00 -6.040412e+00 7.876940e+00 -1.897303e+01 6.519001e+00 1.129977e+00 -5.048822e+00 7.105402e+01 1.706182e+00 1.904005e+00 -1.351643e+00 8.807551e-01 5.315782e-01 -1.497034e+00 -5.626477e-01 -2.303801e-01 5.770827e-02 -1.605516e-01 -3.849443e-01 -1.126221e-01 2.110841e-01 -4.476797e-02 -1.788429e-01 -2.313354e-01 1.726935e-01 2.250009e-01 -4.919534e-02 -2.945198e-01 1.611843e-02 2.625624e-01 -4.505556e-03 1.935714e-02 6.972499e-02 8.420460e-02
<VARIANCE> 39
 4.294709e+01 3.720134e+01 6.767389e+01 4.470632e+01 5.580895e+01 3.684906e+01 3.660256e+01 4.132290e+01 3.202617e+01 5.663876e+01 3.231913e+01 2.453115e+01 1.869174e+01 4.627668e+00 3.622800e+00 3.102556e+00 3.765759e+00 3.626027e+00 7.298351e+00 4.271899e+00 3.205559e+00 3.269286e+00 3.501565e+00 1.913025e+00 2.184789e+00 3.077835e+00 3.770378e-01 7.592150e-01 6.834607e-01 4.899864e-01 5.072545e-01 5.252199e-01 4.869626e-01 5.953181e-01 5.207884e-01 6.116991e-01 3.889316e-01 3.452514e-01 2.473929e-01
<GCONST> 1.258337e+02
<TRANSP> 5
 0.000000e+00 1.000000e+00 0.000000e+00 0.000000e+00 0.000000e+00
 0.000000e+00 7.548636e-01 2.451364e-01 0.000000e+00 0.000000e+00
 0.000000e+00 0.000000e+00 5.372525e-01 4.627475e-01 0.000000e+00
 0.000000e+00 0.000000e+00 0.000000e+00 2.580117e-01 7.419883e-01
 0.000000e+00 0.000000e+00 0.000000e+00 0.000000e+00 0.000000e+00
<ENDHMM>
~h "z"
<BEGINHMM>
<NUMSTATES> 5
<STATE> 2
<MEAN> 39
 5.543440e-01 -1.702685e+01 3.326302e+01 -1.811217e+01 4.580552e+00 1.498340e+01 -8.186697e+00 6.871621e-01 -2.219442e+01 5.765369e+00 -4.490471e+00 -3.900614e+00 7.550976e+01 -5.005571e-01 -1.823465e-01 7.837623e-01 -7.509946e-01 4.666902e-03 8.246951e-01 3.000470e-01 -1.564192e-01 -1.064351e-01 8.026616e-02 -2.470556e-01 3.207648e-01 7.001381e-02 7.932699e-01 1.411981e-01 -1.471419e+00 6.817860e-01 1.621587e-01 -8.509559e-01 -3.779670e-01 8.716521e-02 1.091041e-01 -2.245205e-01 2.855084e-01 -1.177829e-01 -5.161469e-02
<VARIANCE> 39
 2.864018e+01 1.592282e+01 5.144234e+01 3.968019e+01 3.723660e+01 3.667029e+01 4.602751e+01 5.303735e+01 3.634518e+01 2.557090e+01 2.771090e+01 1.931636e+01 2.418552e+01 5.992445e+00 1.840973e+00 1.532156e+01 4.600482e+00 2.138932e+00 4.990011e+00 2.768536e+00 2.898607e+00 2.081024e+00 2.145619e+00 1.692038e+00 1.570402e+00 1.125340e+00 4.817207e-01 3.095736e-01 1.130966e+00 5.642463e-01 3.387848e-01 5.461743e-01 3.980117e-01 5.851235e-01 4.252471e-01 4.026292e-01 3.485768e-01 3.341782e-01 1.576802e-01
<GCONST> 1.191832e+02
<STATE> 3
<MEAN> 39
 5.964668e+00 -1.593921e+01 2.356317e+01 -1.443230e+01 6.050042e+00 1.358950e+01 -1.070252e+01 -2.092867e+00 -2.064257e+01 3.998749e+00 -4.476635e+00 -4.451024e+00 7.454902e+01 2.744115e+00 5.129124e-01 -5.327297e+00 2.182252e+00 4.315580e-01 -2.141133e+00 -9.414473e-01 -4.865254e-03 2.878060e-01 -8.454916e-01 1.110897e+00 -4.524582e-01 -4.274757e-02 -4.433091e-02 -1.152579e-01 -1.313263e-01 -3.285733e-02 -1.262479e-02 -5.363505e-01 6.597122e-02 5.191064e-01 -6.293973e-02 1.754765e-01 4.079235e-01 1.768958e-01 1.341975e-01
<VARIANCE> 39
 2.652994e+01 2.319211e+01 4.558125e+01 2.892577e+01 3.414691e+01 2.469442e+01 2.609760e+01 4.624916e+01 2.801213e+01 2.668861e+01 2.241476e+01 1.039783e+01 3.436775e+01 1.834932e+00 1.253914e+00 6.256297e+00 2.826856e+00 2.231498e+00 5.082663e+00 2.173519e+00 3.074287e+00 2.667125e+00 1.780229e+00 1.714315e+00 1.714183e+00 1.114634e+00 3.198020e-01 3.544735e-01 8.903772e-01 6.315188e-01 4.076823e-01 5.177928e-01 2.805319e-01 5.452967e-01 2.756487e-01 4.982968e-01 2.983828e-01 3.293337e-01 2.163645e-01
<GCONST> 1.134782e+02
<STATE> 4
<MEAN> 39
 1.026237e+01 -1.593510e+01 1.377043e+01 -1.213671e+01 5.499220e+00 6.069469e+00 -1.110424e+01 1.866998e+00 -2.107537e+01 2.978190e+00 -5.191299e-01 -3.633253e+00 7.530290e+01 1.709231e+00 5.345369e-02 -3.800397e+00 1.125058e+00 3.690323e-01 -2.504143e+00 -4.442357e-01 8.641168e-01 9.175615e-02 -7.843532e-02 1.533105e+00 4.290446e-01 2.235357e-01 -5.781978e-01 -2.169626e-01 1.064585e+00 -5.209770e-01 -1.102402e-01 4.041954e-01 1.720822e-01 1.859612e-01 1.161604e-01 1.699304e-01 -1.295833e-01 2.486915e-01 7.483914e-02
<VARIANCE> 39
 3.260897e+01 1.847415e+01 6.432012e+01 2.199990e+01 3.105496e+01 4.809589e+01 2.410869e+01 5.056689e+01 3.390881e+01 2.663569e+01 2.692658e+01 2.135716e+01 3.959446e+01 1.483263e+00 1.471294e+00 7.081948e+00 2.968675e+00 1.935877e+00 5.207751e+00 2.031870e+00 3.424681e+00 3.061450e+00 2.561274e+00 2.118977e+00 2.373578e+00 1.019785e+00 2.665444e-01 2.492657e-01 5.936399e-01 4.576867e-01 4.175172e-01 6.295481e-01 3.868678e-01 4.576575e-01 4.198202e-01 3.900349e-01 4.000500e-01 3.531929e-01 1.798705e-01
<GCONST> 1.157942e+02
<TRANSP> 5
 0.000000e+00 1.000000e+00 0.000000e+00 0.000000e+00 0.000000e+00
 0.000000e+00 8.047658e-01 1.952343e-01 0.000000e+00 0.000000e+00
 0.000000e+00 0.000000e+00 3.148474e-01 6.851526e-01 0.000000e+00
 0.000000e+00 0.000000e+00 0.000000e+00 3.328288e-01 6.671712e-01
 0.000000e+00 0.000000e+00 0.000000e+00 0.000000e+00 0.000000e+00
<ENDHMM>
~h "aa"
<BEGINHMM>
<NUMSTATES> 5
<STATE> 2
<MEAN> 39
 1.461271e+01 -1.720813e+01 -8.919134e-01 -1.798701e+01 -2.573610e-01 -3.150893e+00 -6.008611e+00 1.472843e+01 -1.141657e+01 1.681939e+00 9.201344e-01 3.242783e+00 7.893889e+01 -1.581349e-02 -9.728179e-02 -2.167505e-01 -2.750452e-01 -2.809666e-01 6.507111e-02 5.775030e-01 3.701455e-01 3.459912e-01 1.115922e-01 -3.053930e-01 1.153511e-01 4.870698e-03 -2.768128e-02 9.385101e-02 2.735580e-01 1.949309e-01 2.429532e-01 9.670996e-02 -2.417985e-01 -2.597001e-01 -2.233020e-01 5.287512e-02 1.641941e-02 -1.621881e-01 -1.378790e-01
<VARIANCE> 39
 5.308267e+00 1.233579e+01 2.506380e+01 1.835586e+01 2.457151e+01 3.135673e+01 2.376887e+01 4.224146e+01 4.049189e+01 5.277129e+01 2.771256e+01 1.965955e+01 1.854350e+01 3.043092e-01 7.428149e-01 1.242090e+00 1.037708e+00 1.213312e+00 1.064456e+00 1.662824e+00 1.405763e+00 1.764489e+00 1.617712e+00 1.186788e+00 9.299673e-01 2.160580e-01 7.598232e-02 1.392652e-01 2.390601e-01 1.849456e-01 1.878688e-01 2.584569e-01 2.060073e-01 2.371058e-01 2.958407e-01 3.167479e-01 2.478263e-01 2.070713e-01 3.888418e-02
<GCONST> 8.962782e+01
<STATE> 3
<MEAN> 39
 1.502352e+01 -1.791209e+01 6.758175e-01 -1.725969e+01 3.904460e-01 -4.200773e+00 -6.138854e+00 1.399564e+01 -1.413896e+01 3.136631e+00 1.338338e+00 3.343815e+00 7.901344e+01 -1.268010e-01 4.939700e-01 1.449371e+00 9.169130e-01 8.784696e-01 5.312993e-01 -6.278132e-01 -1.155113e+00 -1.003013e+00 7.285929e-01 2.806958e-01 -8.767841e-01 -8.724018e-01 -4.085694e-01 3.280536e-01 6.776223e-01 3.962561e-01 2.392743e-01 8.031629e-01 -6.616797e-02 -4.111628e-01 1.743790e-01 -1.181479e-01 -2.114626e-01 -3.990112e-01 -4.322991e-01
<VARIANCE> 39
 6.505412e+00 1.401080e+01 2.334784e+01 1.666030e+01 2.575476e+01 2.790998e+01 2.484369e+01 4.244108e+01 3.797429e+01 5.466043e+01 2.064104e+01 2.090922e+01 2.080297e+01 6.727907e-01 1.368934e+00 2.642435e+00 1.983939e+00 1.969919e+00 2.210353e+00 2.222101e+00 2.062232e+00 2.454841e+00 3.678136e+00 2.070311e+00 1.809507e+00 7.215966e-01 1.761698e-01 1.722016e-01 5.101909e-01 3.136380e-01 3.888343e-01 3.502749e-01 3.269539e-01 3.893474e-01 4.950308e-01 5.140253e-01 2.636510e-01 3.702425e-01 8.411552e-02
<GCONST> 1.046413e+02
<STATE> 4
<MEAN> 39
 1.292570e+01 -1.443006e+01 4.859033e+00 -1.452132e+01 1.811633e+00 -3.444223e-01 -6.935275e+00 1.000244e+01 -1.438601e+01 5.269993e+00 1.701573e+00 3.201700e-01 7.453452e+01 -1.574137e+00 1.134136e+00 2.833266e+00 1.422285e+00 9.772612e-01 2.738708e+00 -2.955789e-01 -1.302456e+00 3.314344e-01 -1.713672e-01 -6.461056e-01 -1.382184e+00 -1.907633e+00 -4.551553e-01 -2.008833e-01 3.527294e-01 -5.592876e-02 -3.353390e-02 3.308606e-01 4.378325e-02 2.000061e-01 3.236874e-01 -2.491812e-01 -1.786708e-01 8.063343e-02 -9.100956e-02
<VARIANCE> 39
 1.516967e+01 2.025089e+01 3.210237e+01 2.225016e+01 3.488352e+01 4.797180e+01 4.204656e+01 2.928926e+01 5.442509e+01 4.579076e+01 2.420639e+01 2.393721e+01 3.588948e+01 1.497448e+00 1.354063e+00 5.862175e+00 2.821597e+00 3.359058e+00 3.565179e+00 2.527747e+00 3.338149e+00 3.329531e+00 4.734210e+00 1.773728e+00 3.095020e+00 1.162640e+00 3.437360e-01 2.722403e-01 7.960884e-01 2.828777e-01 3.043273e-01 6.710314e-01 3.988315e-01 3.317156e-01 6.420082e-01 4.955155e-01 4.166220e-01 3.284681e-01 1.776696e-01
<GCONST> 1.166845e+02
<TRANSP> 5
 0.000000e+00 1.000000e+00 0.000000e+00 0.000000e+00 0.000000e+00
 0.000000e+00 8.580060e-01 1.419940e-01 0.000000e+00 0.000000e+00
 0.000000e+00 0.000000e+00 5.548624e-01 4.451376e-01 0.000000e+00
 0.000000e+00 0.000000e+00 0.000000e+00 3.843580e-01 6.156420e-01
 0.000000e+00 0.000000e+00 0.000000e+00 0.000000e+00 0.000000e+00
<ENDHMM>
~h "aw"
<BEGINHMM>
<NUMSTATES> 5
<STATE> 2
<MEAN> 39
 -7.474797e-01 -1.372438e+01 1.363240e+01 -7.800015e+00 3.957401e+00 4.912278e+00 -9.313604e+00 9.542570e+00 -9.857509e+00 3.919184e+00 1.996032e+00 -2.240039e+00 6.241040e+01 -1.802149e-04 -4.002908e-04 -4.533151e-04 -6.255359e-04 3.060046e-04 -9.756409e-05 3.545313e-04 3.676544e-04 -3.322966e-04 2.823267e-04 3.441859e-04 -7.776468e-06 1.221478e-04 -1.140098e-05 1.280875e-04 8.513568e-05 5.610451e-05 1.307168e-04 1.258145e-04 -3.556004e-04 -3.413941e-04 -2.462322e-04 -2.982411e-04 -2.002541e-04 1.479088e-04 -5.553468e-05
<VARIANCE> 39
 7.885750e+01 3.150516e+01 5.932858e+01 4.002160e+01 3.388152e+01 4.450462e+01 4.196474e+01 3.377337e+01 5.805833e+01 2.700758e+01 1.807174e+01 1.807939e+01 1.000320e+02 2.049164e+00 1.868461e+00 3.042747e+00 2.325078e+00 1.845033e+00 2.917301e+00 2.107786e+00 2.084596e+00 2.106791e+00 1.946175e+00 1.426612e+00 1.517214e+00 1.393703e+00 2.791751e-01 3.309114e-01 4.813313e-01 4.079526e-01 3.174572e-01 5.210913e-01 3.729059e-01 3.905098e-01 3.965955e-01 3.683704e-01 2.743881e-01 2.959611e-01 2.159844e-01
<GCONST> 1.148699e+02
<STATE> 3
<MEAN> 39
 -7.474797e-01 -1.372438e+01 1.363240e+01 -7.800015e+00 3.957401e+00 4.912278e+00 -9.313604e+00 9.542570e+00 -9.857509e+00 3.919184e+00 1.996032e+00 -2.240039e+00 6.241040e+01 -1.802149e-04 -4.002908e-04 -4.533151e-04 -6.255359e-04 3.060046e-04 -9.756409e-05 3.545313e-04 3.676544e-04 -3.322966e-04 2.823267e-04 3.441859e-04 -7.776468e-06 1.221478e-04 -1.140098e-05 1.280875e-04 8.513568e-05 5.610451e-05 1.307168e-04 1.258145e-04 -3.556004e-04 -3.413941e-04 -2.462322e-04 -2.982411e-04 -2.002541e-04 1.479088e-04 -5.553468e-05
<VARIANCE> 39
 7.885750e+01 3.150516e+01 5.932858e+01 4.002160e+01 3.388152e+01 4.450462e+01 4.196474e+01 3.377337e+01 5.805833e+01 2.700758e+01 1.807174e+01 1.807939e+01 1.000320e+02 2.049164e+00 1.868461e+00 3.042747e+00 2.325078e+00 1.845033e+00 2.917301e+00 2.107786e+00 2.084596e+00 2.106791e+00 1.946175e+00 1.426612e+00 1.517214e+00 1.393703e+00 2.791751e-01 3.309114e-01 4.813313e-01 4.079526e-01 3.174572e-01 5.210913e-01 3.729059e-01 3.905098e-01 3.965955e-01 3.683704e-01 2.743881e-01 2.959611e-01 2.159844e-01
<GCONST> 1.148699e+02
<STATE> 4
<MEAN> 39
 -7.474797e-01 -1.372438e+01 1.363240e+01 -7.800015e+00 3.957401e+00 4.912278e+00 -9.313604e+00 9.542570e+00 -9.857509e+00 3.919184e+00 1.996032e+00 -2.240039e+00 6.241040e+01 -1.802149e-04 -4.002908e-04 -4.533151e-04 -6.255359e-04 3.060046e-04 -9.756409e-05 3.545313e-04 3.676544e-04 -3.322966e-04 2.823267e-04 3.441859e-04 -7.776468e-06 1.221478e-04 -1.140098e-05 1.280875e-04 8.513568e-05 5.610451e-05 1.307168e-04 1.258145e-04 -3.556004e-04 -3.413941e-04 -2.462322e-04 -2.982411e-04 -2.002541e-04 1.479088e-04 -5.553468e-05
<VARIANCE> 39
 7.885750e+01 3.150516e+01 5.932858e+01 4.002160e+01 3.388152e+01 4.450462e+01 4.196474e+01 3.377337e+01 5.805833e+01 2.700758e+01 1.807174e+01 1.807939e+01 1.000320e+02 2.049164e+00 1.868461e+00 3.042747e+00 2.325078e+00 1.845033e+00 2.917301e+00 2.107786e+00 2.084596e+00 2.106791e+00 1.946175e+00 1.426612e+00 1.517214e+00 1.393703e+00 2.791751e-01 3.309114e-01 4.813313e-01 4.079526e-01 3.174572e-01 5.210913e-01 3.729059e-01 3.905098e-01 3.965955e-01 3.683704e-01 2.743881e-01 2.959611e-01 2.159844e-01
<GCONST> 1.148699e+02
<TRANSP> 5
 0.000000e+00 1.000000e+00 0.000000e+00 0.000000e+00 0.000000e+00
 0.000000e+00 6.000000e-01 4.000000e-01 0.000000e+00 0.000000e+00
 0.000000e+00 0.000000e+00 6.000000e-01 4.000000e-01 0.000000e+00
 0.000000e+00 0.000000e+00 0.000000e+00 7.000000e-01 3.000000e-01
 0.000000e+00 0.000000e+00 0.000000e+00 0.000000e+00 0.000000e+00
<ENDHMM>
~h "ch"
<BEGINHMM>
<NUMSTATES> 5
<STATE> 2
<MEAN> 39
 -3.032946e+00 -2.174140e+01 2.147124e+01 -3.498052e+00 2.862252e+00 5.805809e+00 -1.183661e+01 8.381268e+00 -1.186776e+01 -5.581519e-01 1.264279e+00 -1.098379e+00 6.601862e+01 -2.140719e+00 -3.434867e+00 7.068831e-01 -1.347179e+00 -1.172876e+00 1.349920e-01 8.849138e-02 1.067240e+00 9.510514e-01 -6.581895e-01 -6.403459e-01 6.023742e-01 1.055960e+00 -5.694251e-03 -5.614029e-01 6.030586e-02 -3.705088e-01 1.775320e-01 -3.474932e-01 -3.623157e-01 -1.058583e-01 -2.531379e-01 3.701459e-01 3.752770e-02 -1.588697e-01 7.410918e-01
<VARIANCE> 39
 2.895125e+01 7.482458e+01 5.422507e+01 2.374007e+01 2.788601e+01 2.019829e+01 2.868997e+01 3.644478e+01 3.295602e+01 2.525237e+01 1.857100e+01 1.426801e+01 4.307682e+01 3.679314e+00 6.894333e+00 5.975862e+00 3.685573e+00 3.042714e+00 2.585609e+00 3.267424e+00 2.368400e+00 2.805117e+00 2.304806e+00 1.518139e+00 1.060440e+00 4.782991e+00 3.631035e-01 1.473302e+00 1.160112e+00 4.296897e-01 5.784100e-01 5.446690e-01 5.338985e-01 5.683463e-01 4.933906e-01 4.985862e-01 3.817761e-01 2.300562e-01 5.573947e-01
<GCONST> 1.221246e+02
<STATE> 3
<MEAN> 39
 -9.361810e+00 -3.543125e+01 2.605354e+01 -1.037734e+01 2.403743e+00 4.952337e+00 -1.555025e+01 8.993954e+00 -1.027584e+01 2.314359e+00 1.919111e-01 -5.524863e-01 7.600279e+01 3.604369e-01 8.187281e-02 7.489544e-03 -3.611621e-01 2.099906e-01 3.420047e-02 -3.478384e-01 -6.305091e-01 2.105105e-02 7.415766e-01 2.397891e-01 -8.990814e-02 5.945507e-01 9.932269e-01 1.216130e+00 -4.911538e-01 5.764457e-01 2.355258e-01 -1.677686e-03 1.167873e-01 -2.463522e-01 -2.331499e-01 -1.158404e-01 1.221402e-01 -1.340482e-01 -4.519958e-01
<VARIANCE> 39
 1.051393e+01 1.223640e+01 2.153822e+01 2.679729e+01 2.575629e+01 2.443351e+01 3.278823e+01 3.082483e+01 2.607799e+01 2.336248e+01 1.618761e+01 1.527533e+01 1.485768e+01 4.592054e+00 6.100072e+00 2.926946e+00 3.399252e+00 2.627117e+00 1.872154e+00 2.978430e+00 3.104305e+00 2.634084e+00 2.696512e+00 1.938665e+00 1.250544e+00 2.047118e+00 3.117333e-01 3.398167e-01 5.380858e-01 5.375415e-01 5.405550e-01 3.799599e-01 5.058207e-01 5.853931e-01 4.907196e-01 4.848779e-01 3.556158e-01 2.509603e-01 1.934491e-01
<GCONST> 1.121064e+02
<STATE> 4
<MEAN> 39
 3.080878e+00 -2.387645e+01 2.180142e+01 -5.568152e+00 6.226924e+00 5.110044e+00 -1.654891e+01 3.814481e+00 -1.255654e+01 4.533885e+00 2.418100e+00 -2.845158e+00 7.523083e+01 4.353422e+00 3.487089e+00 -3.019633e+00 1.606404e+00 1.670339e+00 -1.405984e+00 -6.689463e-01 -5.198005e-01 -1.559894e+00 -3.282664e-01 6.163968e-01 -7.014847e-01 -1.470141e-01 -2.829430e-01 -5.197902e-01 -5.321615e-01 -2.295844e-01 4.977351e-02 -6.760774e-01 -2.509687e-01 5.526668e-01 -1.254526e-01 -3.192124e-01 -1.502707e-02 1.604615e-01 1.885173e-01
<VARIANCE> 39
 4.809795e+01 3.347617e+01 5.624254e+01 3.007667e+01 2.377505e+01 2.779512e+01 4.413034e+01 2.786120e+01 3.217666e+01 3.421669e+01 2.518443e+01 1.712551e+01 2.490250e+01 2.125201e+00 2.833780e+00 4.015411e+00 2.461170e+00 3.062289e+00 3.576544e+00 3.728784e+00 3.310476e+00 4.202849e+00 3.047317e+00 2.188273e+00 1.788040e+00 1.533678e+00 7.653558e-01 5.765908e-01 7.030212e-01 4.248967e-01 4.572638e-01 4.466991e-01 5.306703e-01 4.910548e-01 6.080518e-01 4.110587e-01 3.259877e-01 3.506889e-01 1.836805e-01
<GCONST> 1.195139e+02
<TRANSP> 5
 0.000000e+00 1.000000e+00 0.000000e+00 0.000000e+00 0.000000e+00
 0.000000e+00 7.292349e-01 2.707651e-01 0.000000e+00 0.000000e+00
 0.000000e+00 0.000000e+00 8.266161e-01 1.733840e-01 0.000000e+00
 0.000000e+00 0.000000e+00 0.000000e+00 6.133222e-01 3.866778e-01
 0.000000e+00 0.000000e+00 0.000000e+00 0.000000e+00 0.000000e+00
<ENDHMM>
~h "dj"
<BEGINHMM>
<NUMSTATES> 5
<STATE> 2
<MEAN> 39
 8.283093e+00 -1.301203e+01 1.816953e+01 6.041591e-02 1.226837e+01 -1.315859e+00 -1.372401e+01 9.429037e+00 -1.811580e+01 4.846323e-01 -1.258866e+00 -3.874522e+00 7.000278e+01 -5.011968e-01 -7.554836e-01 1.317500e+00 4.139719e-01 4.640308e-01 6.071820e-01 -5.296887e-01 -4.476453e-02 6.347594e-01 3.221118e-01 -6.293585e-01 -5.348529e-02 8.456634e-03 9.755079e-02 -4.723571e-01 1.837020e-02 -1.080900e-01 -5.181501e-02 -2.485643e-01 -4.270037e-01 -3.361995e-01 -1.892456e-01 1.977593e-01 -6.478356e-03 -1.421486e-01 3.807743e-01
<VARIANCE> 39
 1.513841e+01 3.182647e+01 6.342776e+01 3.531556e+01 2.824085e+01 5.622197e+01 3.976630e+01 5.471122e+01 5.489830e+01 4.408709e+01 1.571885e+01 1.851540e+01 2.291911e+01 5.433668e-01 5.465562e+00 2.183700e+00 5.401199e+00 4.996268e+00 2.688698e+00 4.998238e+00 3.727637e+00 6.454747e+00 3.760094e+00 1.876364e+00 1.565790e+00 3.349127e+00 1.784791e-01 8.350525e-01 4.735612e-01 7.581068e-01 5.837107e-01 5.993053e-01 1.009173e+00 1.059432e+00 1.535888e+00 6.282322e-01 2.903986e-01 2.708967e-01 6.072984e-01
<GCONST> 1.247872e+02
<STATE> 3
<MEAN> 39
 8.369451e+00 -1.844466e+01 2.030454e+01 -8.005614e-02 1.423916e+01 -1.224361e-01 -1.908702e+01 5.505892e+00 -1.755072e+01 1.786261e+00 -3.366313e+00 -4.268776e+00 7.326653e+01 3.972611e-01 -1.144845e+00 2.386205e-01 8.600157e-01 9.773422e-01 -8.518736e-01 -2.375313e+00 -1.132278e+00 -7.264366e-01 1.918931e-01 1.886382e-01 -5.373765e-01 8.921151e-01 1.443338e-01 5.542530e-01 -5.873141e-01 2.378715e-01 -2.767276e-01 -3.883851e-01 2.147405e-02 3.842050e-03 5.907603e-02 -2.215363e-01 4.939926e-01 1.155990e-01 -1.326269e-01
<VARIANCE> 39
 1.973015e+01 1.559614e+01 9.302311e+01 2.850200e+01 4.363143e+01 3.947916e+01 5.318578e+01 3.417291e+01 3.204393e+01 3.441560e+01 1.615456e+01 2.369069e+01 1.398132e+01 9.512691e-01 2.102248e+00 3.346313e+00 4.228087e+00 3.360113e+00 4.244011e+00 2.715196e+00 2.881633e+00 8.202652e+00 3.067693e+00 2.398355e+00 1.252348e+00 1.989357e+00 1.633492e-01 4.701622e-01 6.804109e-01 6.590471e-01 6.470733e-01 5.578181e-01 1.040456e+00 4.836858e-01 7.840168e-01 8.307140e-01 6.456892e-01 3.341757e-01 3.289106e-01
<GCONST> 1.207584e+02
<STATE> 4
<MEAN> 39
 1.049217e+01 -1.821405e+01 1.506255e+01 -9.293188e-02 1.485005e+01 -3.129463e+00 -2.204649e+01 2.691633e+00 -2.175220e+01 1.172476e+00 1.149989e+00 -4.221384e+00 7.532984e+01 -5.949837e-02 1.371317e-01 -6.090581e-02 9.416801e-04 -2.637114e-01 -9.849474e-02 -1.548594e-01 3.653216e-03 -1.583901e-01 -3.241261e-01 7.520890e-01 -1.060608e-03 1.876794e-01 -6.183555e-02 3.301392e-01 -6.678508e-04 -2.217475e-01 -3.882092e-01 2.774538e-01 5.979237e-01 2.306794e-01 2.605022e-01 -1.517964e-01 -3.899274e-02 1.695250e-01 -2.630724e-01
<VARIANCE> 39
 1.739864e+01 1.228992e+01 1.045112e+02 3.578749e+01 2.885233e+01 2.425724e+01 3.242117e+01 3.170345e+01 4.627742e+01 3.895761e+01 2.843202e+01 1.894661e+01 1.582490e+01 5.422028e-01 8.087519e-01 2.733278e+00 3.345509e+00 1.682297e+00 2.256628e+00 2.780480e+00 2.683581e+00 2.148151e+00 1.359854e+00 2.138154e+00 2.043100e+00 6.699439e-01 9.230199e-02 2.326146e-01 4.011405e-01 3.986705e-01 3.794825e-01 3.793581e-01 5.804907e-01 2.142733e-01 5.187750e-01 4.518349e-01 3.053053e-01 2.552612e-01 1.858534e-01
<GCONST> 1.067995e+02
<TRANSP> 5
 0.000000e+00 1.000000e+00 0.000000e+00 0.000000e+00 0.000000e+00
 0.000000e+00 6.169226e-01 3.830774e-01 0.000000e+00 0.000000e+00
 0.000000e+00 0.000000e+00 4.065355e-01 5.934646e-01 0.000000e+00
 0.000000e+00 0.000000e+00 0.000000e+00 5.107211e-01 4.892789e-01
 0.000000e+00 0.000000e+00 0.000000e+00 0.000000e+00 0.000000e+00
<ENDHMM>
~h "ee"
<BEGINHMM>
<NUMSTATES> 5
<STATE> 2
<MEAN> 39
