~o
<STREAMINFO> 1 39
<VECSIZE> 39<NULLD><MFCC_D_A_0><DIAGC>
~s "silst"
<MEAN> 39
 -4.815593e+00 -1.356611e+01 1.393584e+01 -9.266512e+00 2.113396e+00 6.659890e+00 -7.719548e+00 1.035862e+01 -8.333342e+00 5.821963e+00 3.034890e+00 -1.340809e+00 5.796168e+01 -1.387312e-01 5.624651e-02 4.253985e-02 6.798713e-02 3.263180e-02 2.628286e-02 7.136319e-02 4.852363e-02 -2.082347e-02 -4.679942e-02 -2.466027e-02 -3.239246e-03 -1.285195e-01 7.974467e-02 7.490651e-02 -1.317335e-01 1.493526e-01 1.266838e-02 6.708132e-02 3.630464e-02 -6.620869e-02 1.184596e-01 -8.737443e-02 -7.317610e-03 -3.015277e-02 -4.719731e-02
<VARIANCE> 39
 2.426367e+01 1.864993e+01 2.759240e+01 2.369858e+01 1.952597e+01 3.266167e+01 2.102831e+01 2.975202e+01 2.682319e+01 1.910545e+01 1.498866e+01 1.181196e+01 2.036943e+01 8.908728e-01 1.634240e+00 2.557267e+00 2.415761e+00 1.448378e+00 2.457435e+00 1.700389e+00 2.006735e+00 2.495664e+00 1.878804e+00 1.296705e+00 1.149765e+00 1.057614e+00 1.312665e-01 2.871753e-01 4.724457e-01 4.285074e-01 2.838206e-01 4.728218e-01 3.310111e-01 3.849115e-01 4.764559e-01 3.624273e-01 2.476583e-01 2.292046e-01 1.682251e-01
<GCONST> 1.029436e+02
~h "a"
<BEGINHMM>
<NUMSTATES> 5
<STATE> 2
<MEAN> 39
 8.209956e+00 -1.643274e+01 9.424179e+00 -1.253141e+01 2.725419e+00 1.211136e+00 -1.011562e+01 7.630634e+00 -1.485015e+01 4.519902e+00 1.062969e+00 -6.627371e-01 7.191936e+01 1.823637e+00 -6.449178e-01 -1.501524e+00 -5.078020e-01 2.774149e-02 -1.653308e+00 4.907874e-02 2.514608e-01 -9.457629e-01 4.604312e-01 2.565855e-01 4.025253e-01 1.909697e+00 -1.765520e-01 1.666424e-01 1.186764e-01 2.228575e-01 1.582173e-01 1.834450e-01 5.863931e-02 -3.742133e-02 6.413592e-02 -7.747535e-03 2.939507e-02 -6.524312e-02 -2.539484e-01
<VARIANCE> 39
 6.471442e+01 3.026077e+01 9.222728e+01 5.510707e+01 4.315798e+01 6.973619e+01 4.986834e+01 4.826477e+01 5.214005e+01 3.407148e+01 2.472859e+01 2.232388e+01 6.666440e+01 4.912335e+00 3.386365e+00 7.657650e+00 4.557153e+00 3.550771e+00 5.969552e+00 4.006562e+00 4.053098e+00 3.523360e+00 3.436494e+00 2.698760e+00 2.090411e+00 4.153309e+00 1.066216e+00 6.836340e-01 1.581737e+00 8.916715e-01 6.297123e-01 1.421381e+00 6.910745e-01 6.738071e-01 6.858962e-01 6.359665e-01 5.095599e-01 4.346392e-01 7.809010e-01
<GCONST> 1.360031e+02
<STATE> 3
<MEAN> 39
 1.353726e+01 -1.771273e+01 4.390322e+00 -1.414953e+01 3.914171e+00 -4.062014e+00 -9.651830e+00 8.901527e+00 -1.871538e+01 6.179336e+00 3.178364e+00 9.568202e-01 7.747484e+01 -5.545405e-01 3.432434e-01 9.698980e-01 2.420821e-01 6.804397e-02 1.082058e+00 4.825944e-01 -1.599928e-01 2.414860e-01 4.310056e-02 -5.086794e-02 -6.737186e-02 -6.498462e-01 -6.153272e-01 2.923639e-01 7.622188e-01 2.036314e-01 -8.178950e-03 8.860736e-01 -9.549317e-02 -2.372232e-01 4.339876e-01 -3.539932e-01 -3.114209e-01 -2.643422e-01 -6.478941e-01
<VARIANCE> 39
 1.634750e+01 1.642770e+01 5.429385e+01 2.835578e+01 4.320628e+01 4.167159e+01 4.556902e+01 5.576712e+01 5.463731e+01 5.145184e+01 3.165740e+01 2.689927e+01 2.271269e+01 1.706107e+00 2.054054e+00 6.049005e+00 2.349321e+00 2.804197e+00 5.016092e+00 3.315549e+00 2.697567e+00 3.065010e+00 3.543034e+00 2.229529e+00 2.238126e+00 2.198156e+00 3.774412e-01 3.642901e-01 9.501495e-01 4.740857e-01 5.033027e-01 8.360745e-01 5.319253e-01 6.337866e-01 6.594484e-01 7.535819e-01 4.120767e-01 5.601883e-01 2.791106e-01
<GCONST> 1.231039e+02
<STATE> 4
<MEAN> 39
 1.043152e+01 -1.450654e+01 7.458776e+00 -1.399912e+01 1.991669e+00 1.653739e+00 -7.968334e+00 8.944527e+00 -1.471422e+01 4.284102e+00 2.686810e+00 6.405649e-01 7.262679e+01 -1.392710e+00 7.586237e-01 1.389785e+00 7.841482e-01 7.200229e-02 1.769100e+00 -4.933490e-02 -5.590602e-01 9.018558e-01 -5.684056e-01 -4.490890e-01 -6.744319e-01 -1.640636e+00 -2.059896e-01 -1.451289e-01 8.874442e-02 1.258115e-01 1.392224e-01 -9.751707e-02 -2.180236e-01 -2.775688e-02 -1.037056e-02 -5.899735e-02 -1.203637e-01 -1.319850e-01 -5.978837e-02
<VARIANCE> 39
 2.852339e+01 2.420444e+01 6.677937e+01 3.143744e+01 4.768947e+01 4.483626e+01 4.844471e+01 5.182801e+01 4.821948e+01 5.022658e+01 2.797737e+01 2.254625e+01 4.270143e+01 2.691134e+00 2.430399e+00 5.990644e+00 2.842268e+00 3.684862e+00 4.934131e+00 2.994048e+00 3.658045e+00 3.458790e+00 3.982282e+00 1.974344e+00 2.942961e+00 2.587291e+00 3.047488e-01 3.338136e-01 8.310021e-01 3.820840e-01 4.471512e-01 6.502662e-01 4.618326e-01 4.996576e-01 5.197470e-01 5.462983e-01 3.508169e-01 3.713725e-01 2.388214e-01
<GCONST> 1.238299e+02
<TRANSP> 5
 0.000000e+00 1.000000e+00 0.000000e+00 0.000000e+00 0.000000e+00
 0.000000e+00 6.035228e-01 3.964772e-01 0.000000e+00 0.000000e+00
 0.000000e+00 0.000000e+00 5.603972e-01 4.396028e-01 0.000000e+00
 0.000000e+00 0.000000e+00 0.000000e+00 3.584333e-01 6.415667e-01
 0.000000e+00 0.000000e+00 0.000000e+00 0.000000e+00 0.000000e+00
<ENDHMM>
~h "b"
<BEGINHMM>
<NUMSTATES> 5
<STATE> 2
<MEAN> 39
 6.779721e+00 -6.167453e+00 1.714280e+01 -4.251937e+00 5.715568e+00 7.234305e+00 -8.765261e+00 7.331221e+00 -1.226287e+01 -3.152272e-01 -1.458772e+00 -4.333773e+00 6.421643e+01 -3.035122e-02 -1.087132e+00 3.671363e-01 -3.793913e-01 1.237725e-01 4.352783e-01 -2.251824e-02 -3.929040e-01 -8.156668e-01 -1.732941e-02 -2.928460e-01 -1.657831e-01 7.535991e-01 4.032926e-01 -9.219272e-01 -5.937434e-01 -3.540642e-01 1.024504e-01 -9.274980e-01 -6.011809e-01 -2.161811e-02 -6.954410e-01 -1.058631e-01 1.083180e-01 1.521932e-02 9.549832e-01
<VARIANCE> 39
 3.987088e+01 6.674021e+01 3.336015e+01 2.648972e+01 2.384184e+01 2.228610e+01 2.102708e+01 2.894676e+01 2.140574e+01 2.794639e+01 1.796142e+01 1.347173e+01 2.192763e+01 2.503325e+00 7.123257e+00 3.293171e+00 3.696524e+00 2.725011e+00 3.918734e+00 2.096269e+00 2.753814e+00 4.732550e+00 2.983920e+00 1.578069e+00 1.375780e+00 4.674784e+00 2.978891e-01 1.157987e+00 5.782645e-01 7.710587e-01 5.813069e-01 6.580818e-01 4.597321e-01 4.707493e-01 6.742142e-01 5.569306e-01 4.264652e-01 3.271561e-01 5.580093e-01
<GCONST> 1.205757e+02
<STATE> 3
<MEAN> 39
 8.641093e+00 -1.175703e+01 1.677408e+01 -6.718468e+00 6.926491e+00 5.658341e+00 -9.926486e+00 8.009276e+00 -1.614210e+01 -1.497867e+00 -1.972901e+00 -3.231169e+00 6.980810e+01 8.683783e-01 -1.602583e+00 -9.386426e-01 -3.349665e-01 5.527553e-01 -1.140654e+00 -1.222816e+00 -5.568957e-01 -1.383927e+00 -2.754141e-01 2.890913e-02 -1.653150e-01 1.766139e+00 1.950409e-01 -3.177131e-02 -4.153602e-01 2.807973e-01 2.139841e-01 -6.916209e-01 -4.998146e-01 -1.459344e-03 -2.204526e-02 6.218491e-02 2.482591e-01 -5.808939e-02 1.545143e-01
<VARIANCE> 39
 2.669917e+01 6.680348e+01 5.291907e+01 3.953340e+01 2.925454e+01 4.557242e+01 3.033188e+01 4.394569e+01 3.688417e+01 3.272769e+01 1.866507e+01 2.084645e+01 3.688519e+01 2.868693e+00 8.011415e+00 4.723262e+00 3.221792e+00 3.919238e+00 5.436734e+00 3.214860e+00 2.875522e+00 5.448345e+00 3.585619e+00 2.879008e+00 2.397238e+00 3.899625e+00 4.130906e-01 1.190529e+00 9.388698e-01 8.996032e-01 6.336349e-01 1.135583e+00 6.589985e-01 5.709170e-01 8.302084e-01 8.444000e-01 4.626638e-01 4.173888e-01 7.339747e-01
<GCONST> 1.307785e+02
<STATE> 4
<MEAN> 39
 1.030366e+01 -1.059060e+01 1.450181e+01 -4.002471e+00 9.444164e+00 3.420614e+00 -1.281181e+01 6.902137e+00 -1.574984e+01 -1.163323e+00 -1.677161e+00 -4.197821e+00 7.003582e+01 6.709508e-01 -1.274992e+00 -9.334456e-01 2.132203e-01 5.787687e-01 -1.726134e+00 -1.458110e+00 -2.341755e-01 -9.307032e-01 -5.403420e-03 4.496584e-01 -1.580928e-01 1.355401e+00 -8.244675e-02 2.939115e-02 1.016373e-01 2.315290e-01 -1.189690e-03 -3.343140e-01 -7.450423e-02 1.935271e-01 1.358964e-01 9.307992e-02 1.330817e-01 1.803012e-03 -4.435572e-02
<VARIANCE> 39
 1.765398e+01 6.254355e+01 4.516363e+01 4.968110e+01 4.032880e+01 4.972962e+01 3.478637e+01 3.714277e+01 5.151136e+01 2.936286e+01 2.404082e+01 1.570530e+01 3.936589e+01 1.530553e+00 5.446594e+00 4.034516e+00 3.670367e+00 3.910576e+00 5.541519e+00 4.521119e+00 2.142922e+00 3.893319e+00 2.973855e+00 2.833683e+00 1.916012e+00 3.280315e+00 2.874125e-01 9.271713e-01 6.986595e-01 6.420785e-01 5.388399e-01 1.108843e+00 7.394071e-01 3.993799e-01 9.514030e-01 5.802254e-01 3.844566e-01 3.269484e-01 6.192595e-01
<GCONST> 1.265813e+02
<TRANSP> 5
 0.000000e+00 1.000000e+00 0.000000e+00 0.000000e+00 0.000000e+00
 0.000000e+00 5.149990e-01 4.850011e-01 0.000000e+00 0.000000e+00
 0.000000e+00 0.000000e+00 2.638648e-01 7.361351e-01 0.000000e+00
 0.000000e+00 0.000000e+00 0.000000e+00 5.446745e-01 4.553255e-01
 0.000000e+00 0.000000e+00 0.000000e+00 0.000000e+00 0.000000e+00
<ENDHMM>
~h "c"
<BEGINHMM>
<NUMSTATES> 5
<STATE> 2
<MEAN> 39
 -5.240160e+00 -1.769445e+01 2.865986e+01 -1.628905e+01 1.165951e+00 7.215193e+00 -6.422474e+00 5.039299e+00 -1.811121e+01 6.986593e+00 -2.755575e+00 -2.688636e+00 7.015218e+01 -3.636818e+00 -1.905723e+00 2.894620e+00 -2.682397e+00 -7.117813e-01 8.288705e-01 5.216299e-01 -2.437410e-01 -2.699619e-01 1.512636e+00 -2.035943e-01 1.673044e-01 6.955318e-01 3.286300e-01 -2.530137e-01 -4.119135e-01 5.863148e-02 9.499604e-02 -2.960235e-01 -2.408444e-01 2.276004e-01 -6.544534e-02 6.640862e-03 3.709960e-01 -3.015382e-02 4.804018e-01
<VARIANCE> 39
 6.114273e+01 3.193537e+01 8.229485e+01 4.978901e+01 3.927044e+01 3.306385e+01 3.571516e+01 3.639245e+01 4.282286e+01 3.048200e+01 1.834035e+01 1.714042e+01 3.738565e+01 3.725265e+00 3.507083e+00 8.129773e+00 4.274954e+00 2.447174e+00 3.190713e+00 2.668863e+00 3.463004e+00 3.722528e+00 2.731093e+00 1.968921e+00 1.653553e+00 3.729463e+00 8.424578e-01 8.093193e-01 1.494295e+00 1.152291e+00 4.234538e-01 5.736370e-01 4.775614e-01 4.667884e-01 6.043627e-01 5.068049e-01 3.159536e-01 3.483939e-01 5.520530e-01
<GCONST> 1.269306e+02
<STATE> 3
<MEAN> 39
 -1.180213e+01 -2.495480e+01 3.376639e+01 -2.084416e+01 8.222889e-01 1.031044e+01 -6.721460e+00 4.830234e+00 -1.825990e+01 1.131821e+01 8.986081e-01 -2.597406e+00 7.587859e+01 1.911901e+00 3.144645e-01 -1.368744e+00 1.345989e+00 4.348916e-01 2.213163e-03 -4.147192e-01 -3.988339e-01 -2.373800e-01 -4.653248e-01 7.769504e-01 -1.438534e-01 2.137059e-01 9.832011e-01 5.986974e-01 -8.411018e-01 6.128389e-01 2.522381e-01 -3.247233e-01 -2.055393e-01 -1.021437e-01 -1.018076e-01 -3.953457e-01 -1.151786e-01 -9.195926e-02 -3.114104e-01
<VARIANCE> 39
 4.639506e+01 2.617663e+01 3.362450e+01 4.560223e+01 3.085098e+01 3.041198e+01 4.369927e+01 3.257451e+01 4.049001e+01 2.515126e+01 3.335297e+01 1.645376e+01 1.499492e+01 8.810820e+00 4.692951e+00 7.050768e+00 4.757955e+00 2.361138e+00 2.674987e+00 3.195435e+00 2.840842e+00 2.925138e+00 2.590379e+00 1.951988e+00 1.307573e+00 1.167651e+00 7.874074e-01 6.789408e-01 9.771631e-01 9.891923e-01 4.249240e-01 4.386669e-01 5.054961e-01 5.284473e-01 5.357801e-01 4.458933e-01 3.967535e-01 2.382507e-01 1.781902e-01
<GCONST> 1.213862e+02
<STATE> 4
<MEAN> 39
 6.139034e+00 -1.872854e+01 1.846992e+01 -1.176105e+01 5.242282e+00 5.438709e+00 -1.149060e+01 1.195364e+00 -2.229322e+01 7.443664e+00 3.362783e+00 -3.161296e+00 7.454973e+01 2.788551e+00 1.459223e+00 -3.379325e+00 1.804532e+00 1.354084e+00 -1.767162e+00 -1.044822e+00 4.780828e-01 -2.781677e-01 -8.443787e-01 -9.975799e-02 -1.152386e-01 -8.392659e-01 -1.084824e+00 -2.328896e-01 7.036037e-01 -2.444216e-01 -2.172973e-01 2.320745e-01 2.507962e-01 3.355747e-01 5.496040e-01 1.485591e-01 -1.295903e-01 1.173857e-01 -2.122099e-01
<VARIANCE> 39
 7.756635e+01 2.718189e+01 6.727485e+01 3.205680e+01 3.303072e+01 5.117941e+01 5.437645e+01 4.842768e+01 3.502364e+01 2.652821e+01 1.927350e+01 1.674425e+01 2.748251e+01 4.259122e+00 3.187487e+00 5.225543e+00 3.139031e+00 2.337993e+00 3.658165e+00 2.629409e+00 2.802708e+00 4.455539e+00 2.480894e+00 1.995484e+00 1.526895e+00 1.667807e+00 7.823709e-01 6.108978e-01 8.668664e-01 4.155028e-01 4.604382e-01 7.099361e-01 5.682065e-01 5.555510e-01 5.274253e-01 4.150190e-01 2.626555e-01 3.192939e-01 2.095798e-01
<GCONST> 1.222273e+02
<TRANSP> 5
 0.000000e+00 1.000000e+00 0.000000e+00 0.000000e+00 0.000000e+00
 0.000000e+00 7.702810e-01 2.297190e-01 0.000000e+00 0.000000e+00
 0.000000e+00 0.000000e+00 8.329663e-01 1.670337e-01 0.000000e+00
 0.000000e+00 0.000000e+00 0.000000e+00 4.878690e-01 5.121310e-01
 0.000000e+00 0.000000e+00 0.000000e+00 0.000000e+00 0.000000e+00
<ENDHMM>
~h "d"
<BEGINHMM>
<NUMSTATES> 5
<STATE> 2
<MEAN> 39
 9.338013e+00 -1.123872e+01 1.245908e+01 -4.120846e+00 9.744075e+00 4.188710e+00 -1.546240e+01 3.568843e+00 -1.529706e+01 -5.756665e-01 3.629940e-01 -2.379406e+00 6.914545e+01 3.749565e-01 -4.625542e-01 -3.482380e-02 -2.895434e-01 4.281246e-01 -2.534716e-01 -8.038020e-01 -4.076391e-01 -7.403358e-01 1.013105e-01 3.538364e-01 2.345184e-01 6.676155e-01 1.009794e-01 -3.565972e-01 -2.678505e-01 -3.468369e-01 -8.772554e-02 -6.008459e-01 -1.194274e-01 2.166324e-01 -3.090366e-01 2.556424e-01 2.652329e-01 3.328029e-02 4.309305e-01
<VARIANCE> 39
 2.961848e+01 5.179485e+01 5.157444e+01 4.297298e+01 3.652844e+01 5.710018e+01 4.245428e+01 4.157415e+01 3.644057e+01 2.893538e+01 2.490165e+01 2.293134e+01 4.852905e+01 2.025805e+00 6.402403e+00 5.396878e+00 4.042940e+00 3.484951e+00 9.751716e+00 4.424339e+00 3.840417e+00 4.952512e+00 3.511443e+00 3.391916e+00 2.208800e+00 5.166511e+00 2.984056e-01 1.255356e+00 7.776256e-01 6.778758e-01 6.066625e-01 1.564824e+00 1.019163e+00 7.731208e-01 9.445041e-01 7.456353e-01 5.420531e-01 4.890181e-01 8.495067e-01
<GCONST> 1.337876e+02
<STATE> 3
<MEAN> 39
 1.165619e+01 -1.467235e+01 8.816673e+00 -7.108933e+00 1.108889e+01 -4.967945e-01 -1.905514e+01 2.724314e+00 -1.910109e+01 2.181268e+00 3.813345e+00 -6.691734e-01 7.392019e+01 -4.767510e-02 -3.047780e-01 -1.768874e-01 -6.902236e-01 -1.293077e-01 -3.525009e-01 4.636128e-02 4.069495e-01 -5.099465e-02 5.791578e-01 4.820640e-01 2.627590e-01 4.175186e-01 -1.241854e-01 1.839785e-02 1.993265e-01 9.378568e-02 -2.289310e-01 1.839323e-01 5.186296e-01 2.408991e-01 1.932625e-01 -7.483335e-02 -2.592399e-01 -1.443809e-01 -1.093976e-01
<VARIANCE> 39
 1.541754e+01 4.325631e+01 5.191288e+01 3.898778e+01 3.776375e+01 7.664668e+01 3.631142e+01 3.682877e+01 4.371516e+01 4.574173e+01 3.500702e+01 2.796763e+01 4.678233e+01 1.097108e+00 2.818265e+00 4.250484e+00 2.846418e+00 2.416537e+00 5.680103e+00 2.847724e+00 2.784387e+00 3.125619e+00 3.562191e+00 2.586290e+00 2.435715e+00 2.296034e+00 2.033884e-01 8.239735e-01 6.804978e-01 5.217413e-01 5.196315e-01 1.480133e+00 8.169158e-01 5.785128e-01 1.022459e+00 7.210593e-01 4.631906e-01 4.649720e-01 6.363972e-01
<GCONST> 1.265619e+02
<STATE> 4
<MEAN> 39
 1.006875e+01 -1.399497e+01 1.147036e+01 -7.256596e+00 9.574824e+00 1.588127e+00 -1.724962e+01 4.534825e+00 -1.718460e+01 1.729160e+00 3.110015e+00 -9.580383e-01 7.240734e+01 -1.146121e-01 -3.876144e-01 3.458408e-01 -3.686101e-01 -1.921409e-01 -2.543995e-01 6.149632e-01 7.981889e-01 -8.679743e-02 2.243197e-01 -1.763863e-01 -8.339673e-02 3.425641e-01 3.739465e-03 -4.536614e-02 1.149538e-01 8.917782e-02 -1.179615e-01 4.113311e-02 2.910449e-01 2.603425e-02 -1.176615e-02 -8.837423e-02 -2.356341e-01 -1.549660e-01 5.855495e-03
<VARIANCE> 39
 2.726616e+01 5.407018e+01 6.363636e+01 4.490918e+01 4.054027e+01 6.288001e+01 4.366640e+01 3.968586e+01 4.557561e+01 3.196593e+01 4.279994e+01 2.627589e+01 5.536125e+01 1.429560e+00 4.165426e+00 4.475176e+00 3.205977e+00 2.426423e+00 5.882641e+00 3.593656e+00 3.378787e+00 4.005416e+00 3.569438e+00 2.012121e+00 3.045721e+00 2.413979e+00 2.396980e-01 7.001630e-01 7.619241e-01 4.419355e-01 4.732687e-01 1.226232e+00 7.234635e-01 6.120161e-01 7.814612e-01 5.181755e-01 5.038740e-01 4.250082e-01 5.461654e-01
<GCONST> 1.282302e+02
<TRANSP> 5
 0.000000e+00 1.000000e+00 0.000000e+00 0.000000e+00 0.000000e+00
 0.000000e+00 6.247422e-01 3.752578e-01 0.000000e+00 0.000000e+00
 0.000000e+00 0.000000e+00 3.336422e-01 6.663577e-01 0.000000e+00
 0.000000e+00 0.000000e+00 0.000000e+00 1.711549e-01 8.288451e-01
 0.000000e+00 0.000000e+00 0.000000e+00 0.000000e+00 0.000000e+00
<ENDHMM>
~h "e"
<BEGINHMM>
<NUMSTATES> 5
<STATE> 2
<MEAN> 39
 1.141423e+01 -1.838168e+01 9.588234e+00 -7.521652e+00 9.736091e+00 -2.302061e+00 -1.771521e+01 4.584594e+00 -1.972025e+01 4.013454e+00 4.988090e+00 -8.368121e-01 7.623837e+01 1.367075e-01 3.970647e-01 -1.870850e-01 6.919988e-02 7.856234e-02 2.382722e-01 4.170666e-01 -1.674656e-03 -1.168543e-01 -3.212732e-02 3.020222e-02 7.275761e-02 -3.219440e-01 -4.358608e-01 1.960167e-01 5.516724e-01 2.226155e-02 -1.764796e-01 6.654555e-01 3.853758e-01 -3.931822e-02 3.578031e-01 -5.140890e-02 -3.711793e-01 -1.675993e-01 -3.985984e-01
<VARIANCE> 39
 2.491967e+01 2.339207e+01 6.066237e+01 4.634824e+01 3.389810e+01 5.039302e+01 5.185564e+01 4.287730e+01 4.160217e+01 4.838279e+01 2.509777e+01 3.290530e+01 3.788895e+01 2.037144e+00 2.201737e+00 5.304285e+00 2.787648e+00 2.543607e+00 5.047031e+00 3.535417e+00 3.175909e+00 3.044547e+00 4.028892e+00 2.452430e+00 2.373683e+00 2.281235e+00 4.336223e-01 4.097463e-01 7.864000e-01 5.329008e-01 4.801749e-01 7.191271e-01 5.843905e-01 6.016051e-01 5.568218e-01 6.716918e-01 4.345850e-01 5.331185e-01 2.906444e-01
<GCONST> 1.249659e+02
<STATE> 3
<MEAN> 39
 1.029618e+01 -1.628736e+01 1.143752e+01 -7.319921e+00 9.138251e+00 5.000332e-01 -1.535844e+01 4.802898e+00 -1.890119e+01 3.559368e+00 3.716617e+00 -1.619547e+00 7.362982e+01 -6.901482e-01 9.831915e-01 1.009402e+00 2.834612e-01 -2.594928e-01 1.713399e+00 9.567623e-01 -2.607464e-01 7.820079e-01 -2.367837e-01 -8.794367e-01 -4.135310e-01 -1.273802e+00 -3.421597e-01 -2.984979e-02 3.417145e-01 -6.497364e-02 -1.607554e-01 2.424766e-01 5.543733e-02 -1.187589e-02 2.242624e-01 -1.359845e-03 -1.844962e-01 -9.441054e-02 -1.361369e-01
<VARIANCE> 39
 2.929924e+01 2.755080e+01 5.820692e+01 5.377900e+01 3.655588e+01 5.314989e+01 5.321396e+01 4.723450e+01 4.452161e+01 5.684139e+01 2.544534e+01 3.610047e+01 4.159050e+01 1.982221e+00 2.870964e+00 4.553996e+00 3.046798e+00 2.729363e+00 4.952092e+00 3.395236e+00 3.376831e+00 3.041124e+00 3.559262e+00 2.154209e+00 3.070253e+00 2.704503e+00 3.503062e-01 3.941037e-01 9.138920e-01 5.008448e-01 4.160090e-01 7.146864e-01 5.369208e-01 5.822634e-01 5.556853e-01 6.935157e-01 3.730152e-01 5.520050e-01 2.958597e-01
<GCONST> 1.259971e+02
<STATE> 4
<MEAN> 39
 8.176661e+00 -1.443357e+01 1.322534e+01 -7.050731e+00 7.952464e+00 3.533695e+00 -1.323746e+01 4.754394e+00 -1.680842e+01 3.470825e+00 2.357484e+00 -2.513715e+00 7.085384e+01 -8.660156e-01 6.088937e-01 9.696229e-01 6.397647e-02 -3.884563e-01 1.301456e+00 5.918414e-01 -1.497034e-01 7.157177e-01 -1.970446e-01 -7.610165e-01 -4.136471e-01 -1.076513e+00 -1.261790e-01 -3.061877e-01 4.982110e-02 -1.821163e-01 -1.163363e-01 -2.384557e-01 -1.319542e-01 1.132194e-01 -6.628389e-02 6.810515e-03 5.748452e-02 4.593538e-02 1.958967e-01
<VARIANCE> 39
 4.066900e+01 3.459613e+01 5.890411e+01 5.204117e+01 4.573759e+01 5.327590e+01 4.793506e+01 5.157054e+01 4.526286e+01 4.971912e+01 2.515573e+01 2.946732e+01 4.721003e+01 2.827191e+00 3.230497e+00 5.237922e+00 3.129444e+00 3.090444e+00 5.080399e+00 3.341345e+00 3.292266e+00 2.996112e+00 2.961709e+00 2.009421e+00 3.409855e+00 3.099994e+00 3.730130e-01 4.541141e-01 8.199662e-01 5.306792e-01 4.318279e-01 7.535523e-01 4.899841e-01 5.849266e-01 5.394374e-01 6.671897e-01 3.537276e-01 4.184621e-01 3.314885e-01
<GCONST> 1.271303e+02
<TRANSP> 5
 0.000000e+00 1.000000e+00 0.000000e+00 0.000000e+00 0.000000e+00
 0.000000e+00 4.751157e-01 5.248843e-01 0.000000e+00 0.000000e+00
 0.000000e+00 0.000000e+00 1.197988e-01 8.802012e-01 0.000000e+00
 0.000000e+00 0.000000e+00 0.000000e+00 1.891713e-01 8.108287e-01
 0.000000e+00 0.000000e+00 0.000000e+00 0.000000e+00 0.000000e+00
<ENDHMM>
~h "f"
<BEGINHMM>
<NUMSTATES> 5
<STATE> 2
<MEAN> 39
 6.113850e+00 -1.505913e+01 1.389897e+01 -1.183566e+01 5.223162e+00 -1.794524e+00 -1.204032e+01 1.090710e+01 -1.651902e+01 3.319283e+00 1.716448e+00 -2.616188e+00 7.073432e+01 -1.492782e-01 2.311334e-01 1.239642e-01 -9.194538e-03 -1.798553e-01 8.374460e-02 3.944006e-01 8.059038e-02 -2.230264e-01 3.831756e-01 -9.116831e-02 -3.277635e-01 -2.489449e-01 -6.631116e-02 -1.548462e-01 3.937604e-01 -5.017617e-03 1.432863e-01 1.350406e-01 -6.308106e-02 -7.539424e-02 -1.844108e-01 4.547489e-02 -1.117393e-01 -1.220783e-01 2.626881e-01
<VARIANCE> 39
 7.466154e+01 3.489589e+01 5.449253e+01 4.585379e+01 5.895836e+01 1.025380e+02 2.456112e+01 5.110479e+01 4.062746e+01 2.502872e+01 2.209815e+01 2.098027e+01 5.250312e+01 1.854658e+00 2.203738e+00 4.097596e+00 2.443997e+00 1.607871e+00 4.332930e+00 1.383890e+00 3.308397e+00 2.361397e+00 1.359921e+00 2.779605e+00 1.422094e+00 9.051507e-01 4.570446e-01 4.986334e-01 5.450575e-01 2.899544e-01 2.967501e-01 2.962186e-01 2.681136e-01 4.376315e-01 3.706497e-01 3.115345e-01 4.336787e-01 3.070141e-01 3.455193e-01
<GCONST> 1.167127e+02
<STATE> 3
<MEAN> 39
 5.830491e+00 -1.589524e+01 1.536761e+01 -1.202280e+01 6.551685e+00 2.868728e-01 -1.116780e+01 1.039472e+01 -1.816648e+01 3.917633e+00 3.364781e-01 -3.519759e+00 7.099500e+01 -2.863179e-01 -7.553105e-02 7.721106e-01 -8.335954e-02 2.344719e-01 3.015928e-01 3.317531e-01 1.908693e-02 -6.590748e-01 3.957078e-01 -1.887160e-01 -4.013525e-01 7.642814e-02 -1.095411e-01 -1.644697e-01 4.093472e-01 -9.854687e-02 4.102213e-02 2.844034e-01 -1.082849e-01 -2.001228e-01 -4.388061e-02 -9.577503e-02 4.115843e-02 2.634329e-02 2.608522e-01
<VARIANCE> 39
 7.227531e+01 4.647905e+01 6.130064e+01 5.937474e+01 7.563578e+01 1.203007e+02 2.609567e+01 5.471065e+01 4.713612e+01 2.955868e+01 2.772990e+01 1.659389e+01 4.168842e+01 3.495897e+00 3.005701e+00 4.323260e+00 3.019104e+00 1.699966e+00 3.935458e+00 1.583230e+00 2.900511e+00 1.582879e+00 1.348479e+00 1.916009e+00 2.122143e+00 1.348949e+00 5.427523e-01 6.264712e-01 6.687493e-01 4.338623e-01 3.514743e-01 7.974674e-01 2.775025e-01 7.684335e-01 5.682330e-01 4.553282e-01 4.575768e-01 1.962267e-01 3.568881e-01
<GCONST> 1.223576e+02
<STATE> 4
<MEAN> 39
 3.285486e+00 -1.794572e+01 1.676188e+01 -1.380415e+01 6.811877e+00 1.377037e+00 -1.085030e+01 1.015917e+01 -1.858165e+01 5.424988e+00 -1.092971e+00 -3.146915e+00 7.019849e+01 1.078744e-01 -1.989789e-01 3.911151e-01 -3.408185e-01 1.203073e-01 4.021590e-01 -1.303165e-01 -2.079140e-01 -5.494978e-01 4.617604e-02 1.766893e-01 -2.718868e-01 3.498204e-01 7.425072e-02 1.690058e-01 5.173860e-02 1.383734e-01 5.347683e-03 1.827705e-01 -1.157744e-01 -2.211497e-01 1.534552e-01 -1.223470e-01 9.928447e-02 -4.050829e-02 2.246583e-02
<VARIANCE> 39
 6.552215e+01 7.892648e+01 5.210170e+01 1.088199e+02 5.796174e+01 1.011834e+02 2.906141e+01 5.211630e+01 2.557528e+01 2.250404e+01 2.218365e+01 1.912410e+01 3.002467e+01 4.699765e+00 6.386168e+00 3.992601e+00 3.377807e+00 1.482709e+00 2.153435e+00 1.408560e+00 2.165202e+00 1.959816e+00 1.453726e+00 1.698788e+00 1.583306e+00 1.428957e+00 5.505725e-01 9.448694e-01 8.158355e-01 8.053423e-01 2.853597e-01 1.021811e+00 3.294925e-01 7.922209e-01 4.258533e-01 3.866178e-01 4.076414e-01 2.563235e-01 1.865374e-01
<GCONST> 1.219601e+02
<TRANSP> 5
 0.000000e+00 1.000000e+00 0.000000e+00 0.000000e+00 0.000000e+00
 0.000000e+00 2.075269e-01 7.924731e-01 0.000000e+00 0.000000e+00
 0.000000e+00 0.000000e+00 2.866264e-02 9.713374e-01 0.000000e+00
 0.000000e+00 0.000000e+00 0.000000e+00 4.925429e-01 5.074571e-01
 0.000000e+00 0.000000e+00 0.000000e+00 0.000000e+00 0.000000e+00
<ENDHMM>
~h "g"
<BEGINHMM>
<NUMSTATES> 5
<STATE> 2
<MEAN> 39
 5.538476e+00 -1.238185e+01 1.609646e+01 -3.212920e+00 8.739474e+00 5.236058e+00 -1.344891e+01 5.882679e+00 -1.374005e+01 3.098508e+00 4.453256e-01 -6.824114e+00 6.609680e+01 1.061252e+00 -6.434553e-01 1.994406e-01 6.123917e-01 1.090754e+00 -6.956041e-01 -1.517138e+00 -6.415604e-01 -8.847238e-01 -1.286108e-01 -1.314847e-01 -4.862303e-01 1.344296e+00 5.657499e-02 3.443706e-02 -9.699860e-02 8.614421e-02 1.422084e-01 -1.609004e-01 -3.746881e-01 -1.283610e-01 7.382638e-02 -8.403709e-03 1.381736e-01 7.525661e-02 7.103649e-02
<VARIANCE> 39
 3.803708e+01 4.785416e+01 3.441033e+01 6.558828e+01 4.566557e+01 6.336045e+01 6.773067e+01 3.431618e+01 3.917973e+01 2.983410e+01 1.783099e+01 2.193479e+01 5.030822e+01 2.832054e+00 6.439994e+00 2.410139e+00 4.613854e+00 3.572094e+00 7.200320e+00 7.874153e+00 4.554184e+00 4.370354e+00 2.183323e+00 1.890918e+00 2.318698e+00 3.677499e+00 4.438950e-01 1.526231e+00 5.406337e-01 1.028319e+00 9.388149e-01 9.776033e-01 1.522647e+00 8.730922e-01 1.044556e+00 4.497844e-01 3.675156e-01 5.508635e-01 8.849459e-01
<GCONST> 1.335008e+02
<STATE> 3
<MEAN> 39
 1.003562e+01 -1.350270e+01 1.631772e+01 8.107928e-02 1.525818e+01 -1.638531e+00 -2.589744e+01 3.077382e+00 -1.555402e+01 3.470317e+00 1.096613e+00 -1.033100e+01 7.159919e+01 2.210527e-01 3.817064e-01 -4.176835e-01 -4.771768e-01 -1.074442e-01 2.801483e-01 1.570930e-01 -4.740318e-01 -2.606026e-01 -5.261035e-02 3.564159e-01 7.787727e-01 -5.769069e-03 -9.346770e-02 -8.453501e-02 -8.553024e-02 -2.614396e-01 -3.197425e-01 1.980754e-01 4.901040e-01 9.344357e-02 6.430918e-02 7.775497e-02 6.295931e-02 3.216562e-01 -6.569690e-02
<VARIANCE> 39
 6.768433e+00 3.222303e+01 3.132824e+01 3.936900e+01 4.531522e+01 6.121052e+01 9.182777e+01 3.215313e+01 2.789801e+01 3.279796e+01 1.825950e+01 3.639841e+01 1.951952e+01 9.393994e-01 3.113788e+00 3.336429e+00 3.310169e+00 3.369553e+00 5.989985e+00 6.409684e+00 2.301236e+00 3.071972e+00 4.189601e+00 1.413744e+00 3.958263e+00 1.762665e+00 1.172211e-01 7.553697e-01 5.485358e-01 4.106006e-01 4.598781e-01 8.316199e-01 9.369659e-01 4.954363e-01 6.316659e-01 7.586994e-01 2.221112e-01 6.179107e-01 3.428212e-01
<GCONST> 1.209672e+02
<STATE> 4
<MEAN> 39
 1.167525e+01 -1.330220e+01 1.160513e+01 -6.266508e+00 8.722790e+00 -7.823928e-01 -1.795597e+01 3.066606e+00 -1.848193e+01 2.934404e+00 4.104558e+00 -2.937145e+00 7.263107e+01 1.133928e-01 -1.924399e-01 -5.746940e-01 -8.805789e-01 -7.625206e-01 7.432464e-02 6.873918e-01 1.231980e-01 7.805222e-02 -1.425485e-02 4.856644e-01 1.180469e+00 2.595375e-01 -4.828129e-02 -2.520790e-01 -5.085487e-02 -4.175632e-03 -4.148365e-02 4.349993e-02 1.465455e-01 9.850979e-02 -4.666261e-02 5.707756e-03 -5.488899e-02 -2.210882e-01 8.746409e-02
<VARIANCE> 39
 1.523744e+01 3.890769e+01 3.341710e+01 4.156815e+01 3.834140e+01 7.469218e+01 7.278001e+01 4.094712e+01 2.870422e+01 5.578570e+01 5.194941e+01 2.428457e+01 3.428306e+01 1.056683e+00 4.357063e+00 5.728770e+00 3.250485e+00 2.990738e+00 4.863368e+00 3.661888e+00 1.209836e+00 3.516255e+00 1.485018e+00 1.981339e+00 2.191678e+00 2.511475e+00 1.094422e-01 8.492214e-01 4.026371e-01 3.188401e-01 3.086683e-01 6.333948e-01 7.279815e-01 2.048781e-01 4.945946e-01 5.773399e-01 3.057176e-01 2.925493e-01 3.918352e-01
<GCONST> 1.194026e+02
<TRANSP> 5
 0.000000e+00 1.000000e+00 0.000000e+00 0.000000e+00 0.000000e+00
 0.000000e+00 6.236847e-01 3.763153e-01 0.000000e+00 0.000000e+00
 0.000000e+00 0.000000e+00 6.964812e-01 3.035188e-01 0.000000e+00
 0.000000e+00 0.000000e+00 0.000000e+00 3.121922e-01 6.878077e-01
 0.000000e+00 0.000000e+00 0.000000e+00 0.000000e+00 0.000000e+00
<ENDHMM>
~h "h"
<BEGINHMM>
<NUMSTATES> 5
<STATE> 2
<MEAN> 39
 8.079762e+00 -1.427880e+01 1.559859e+01 -8.895580e+00 4.596081e+00 5.147199e+00 -8.576850e+00 7.079556e+00 -1.607471e+01 3.684397e+00 -1.203412e-01 -2.621443e+00 6.996193e+01 1.330445e+00 -4.942394e-01 -2.417893e-01 -9.388865e-01 -1.984024e-01 -6.138513e-01 -3.042740e-01 3.847954e-02 -9.402220e-01 6.965024e-02 -2.745562e-01 -2.485218e-01 1.430417e+00 1.837681e-01 3.339162e-01 -3.927273e-01 1.112490e-01 1.751255e-01 -4.536560e-01 -3.005387e-01 4.788380e-03 -7.157588e-02 -9.450859e-02 1.593205e-01 -7.211580e-02 -3.952149e-02
<VARIANCE> 39
 2.915370e+01 6.279731e+01 4.702393e+01 5.776406e+01 6.455354e+01 5.071160e+01 4.037973e+01 5.817582e+01 4.088302e+01 4.718426e+01 1.907463e+01 1.627323e+01 3.320740e+01 4.557827e+00 8.540693e+00 3.900363e+00 3.989647e+00 4.515820e+00 4.791297e+00 4.337288e+00 3.704042e+00 6.447842e+00 3.608863e+00 1.661104e+00 1.733948e+00 5.535514e+00 6.706973e-01 1.562921e+00 6.600475e-01 6.505986e-01 4.844983e-01 9.160432e-01 6.617524e-01 4.557847e-01 1.244310e+00 7.362201e-01 3.602459e-01 2.443289e-01 8.056448e-01
<GCONST> 1.323882e+02
<STATE> 3
<MEAN> 39
 1.161476e+01 -1.471435e+01 1.224801e+01 -9.161210e+00 7.993509e+00 7.754642e-01 -1.298239e+01 6.385871e+00 -1.928435e+01 5.012877e+00 1.988155e+00 -3.451959e+00 7.368365e+01 1.997484e-01 4.074844e-02 -1.290788e-01 -6.533614e-01 -5.575698e-01 -8.900250e-01 3.403294e-01 4.132380e-01 -2.577026e-01 1.138659e+00 4.495627e-01 -4.666058e-01 5.179804e-01 -3.373147e-01 3.628029e-02 2.674180e-01 -1.023990e-01 -2.214472e-01 2.947705e-01 1.632006e-01 2.860196e-02 3.890782e-01 5.139779e-02 -3.241909e-02 5.234009e-03 -1.997633e-01
<VARIANCE> 39
 9.976314e+00 2.068758e+01 3.797790e+01 5.234372e+01 9.426460e+01 4.904042e+01 8.835234e+01 8.460942e+01 5.093086e+01 6.544427e+01 2.299141e+01 2.206348e+01 2.368932e+01 2.553090e+00 2.876139e+00 5.887488e+00 3.320089e+00 2.938798e+00 5.272628e+00 4.378294e+00 3.326360e+00 4.374074e+00 5.795805e+00 3.085843e+00 1.746718e+00 1.708169e+00 5.159495e-01 5.379783e-01 1.106634e+00 6.391616e-01 6.736659e-01 1.331818e+00 1.163277e+00 7.104715e-01 9.548771e-01 7.911072e-01 4.703163e-01 3.915119e-01 3.477101e-01
<GCONST> 1.303481e+02
<STATE> 4
<MEAN> 39
 4.536738e+00 -1.874914e+01 1.834436e+01 -1.396272e+01 3.974824e+00 5.013216e+00 -9.235063e+00 5.501077e+00 -1.880656e+01 9.329160e+00 3.948814e+00 -3.163933e+00 7.410667e+01 1.213036e-01 1.722218e-01 -2.892585e-01 -5.092783e-01 -7.617917e-01 -2.414548e-01 2.908722e-01 4.362645e-01 4.185244e-01 -2.427497e-01 -1.812052e-01 -2.195127e-03 -5.771992e-02 2.122341e-01 1.269545e-01 -3.426653e-01 2.149166e-01 2.195874e-01 -1.706162e-01 -2.300680e-01 -7.456044e-02 -4.388591e-02 -2.756294e-01 -2.168297e-02 1.056965e-01 -1.984769e-03
<VARIANCE> 39
 8.678166e+01 4.929590e+01 1.134836e+02 3.004801e+01 5.303263e+01 5.826473e+01 4.933017e+01 5.745533e+01 4.943407e+01 6.328624e+01 2.603669e+01 2.262940e+01 2.428199e+01 7.428904e+00 4.586937e+00 1.094975e+01 2.767611e+00 3.750345e+00 5.889122e+00 3.884316e+00 2.557010e+00 4.357261e+00 4.576802e+00 2.504660e+00 1.835002e+00 1.470480e+00 7.868769e-01 7.567539e-01 1.426171e+00 3.580933e-01 7.331532e-01 8.857692e-01 5.740088e-01 5.043622e-01 8.491236e-01 9.029578e-01 5.669917e-01 4.243176e-01 2.732675e-01
<GCONST> 1.331602e+02
<TRANSP> 5
 0.000000e+00 1.000000e+00 0.000000e+00 0.000000e+00 0.000000e+00
 0.000000e+00 4.560230e-01 5.439770e-01 0.000000e+00 0.000000e+00
 0.000000e+00 0.000000e+00 4.252350e-01 5.747650e-01 0.000000e+00
 0.000000e+00 0.000000e+00 0.000000e+00 6.807334e-01 3.192666e-01
 0.000000e+00 0.000000e+00 0.000000e+00 0.000000e+00 0.000000e+00
<ENDHMM>
~h "i"
<BEGINHMM>
<NUMSTATES> 5
<STATE> 2
<MEAN> 39
 1.046255e+01 -1.825731e+01 1.359338e+01 -2.278402e+00 1.382644e+01 -1.684120e+00 -2.288360e+01 2.183198e+00 -2.057894e+01 1.914399e+00 3.398809e+00 -6.032638e+00 7.534628e+01 2.892633e-01 2.573640e-02 -1.121857e-01 7.057495e-01 7.876555e-01 -4.663090e-01 -8.054773e-01 -2.322545e-01 -2.651450e-01 1.864665e-01 3.124821e-01 -4.269805e-01 1.434844e-01 -4.289584e-01 2.319864e-01 3.480873e-01 -2.643851e-01 -4.544640e-01 5.542088e-01 7.057921e-01 1.695319e-01 4.040429e-01 5.442274e-02 -2.362664e-01 1.864811e-01 -4.312381e-01
<VARIANCE> 39
 1.774257e+01 2.245199e+01 5.072342e+01 5.569376e+01 3.589312e+01 4.903995e+01 4.929000e+01 3.638008e+01 3.925144e+01 4.503914e+01 1.878961e+01 2.745340e+01 2.525651e+01 2.633582e+00 2.574701e+00 4.922511e+00 3.819382e+00 3.060060e+00 4.285206e+00 4.579095e+00 2.833285e+00 3.421033e+00 3.180664e+00 1.872257e+00 2.097276e+00 2.192563e+00 4.566012e-01 5.275716e-01 7.952743e-01 7.932217e-01 6.017504e-01 7.741097e-01 8.422307e-01 4.907554e-01 6.476254e-01 5.349884e-01 4.060549e-01 4.293643e-01 3.185537e-01
<GCONST> 1.245703e+02
<STATE> 3
<MEAN> 39
 9.396408e+00 -1.673646e+01 1.498262e+01 -2.809881e+00 1.299594e+01 2.369431e-01 -2.018977e+01 2.518318e+00 -2.021595e+01 3.464138e+00 3.434597e+00 -5.837563e+00 7.340496e+01 -1.155351e+00 1.189800e+00 1.120539e+00 -3.888104e-01 -1.121496e+00 1.920922e+00 1.782257e+00 1.946952e-02 1.318974e+00 2.603029e-01 -5.875505e-01 5.334997e-01 -1.670159e+00 -4.195291e-01 2.080378e-02 1.303667e-01 -3.333987e-01 -5.215325e-01 2.131302e-01 4.120360e-01 1.551235e-01 3.972691e-01 -8.987536e-02 -2.480156e-01 2.099090e-01 -2.451009e-01
<VARIANCE> 39
 1.690116e+01 2.251919e+01 5.916629e+01 4.524039e+01 3.212720e+01 4.770134e+01 4.219524e+01 4.847969e+01 4.012423e+01 5.879509e+01 2.100511e+01 3.520918e+01 2.505309e+01 1.669277e+00 2.614495e+00 5.035630e+00 3.509300e+00 2.392456e+00 3.585164e+00 3.308328e+00 2.888289e+00 3.570380e+00 3.772871e+00 1.727257e+00 2.095569e+00 2.193336e+00 3.386523e-01 4.683506e-01 8.815091e-01 5.856761e-01 3.948365e-01 6.788322e-01 6.545325e-01 5.805254e-01 6.111261e-01 6.179844e-01 3.567132e-01 5.689809e-01 2.810889e-01
<GCONST> 1.228621e+02
<STATE> 4
<MEAN> 39
 6.134765e+00 -1.345168e+01 1.644199e+01 -3.748479e+00 8.872558e+00 4.048460e+00 -1.606652e+01 3.061753e+00 -1.531739e+01 3.048056e+00 2.044384e+00 -4.202899e+00 6.845872e+01 -1.459305e+00 5.032434e-01 6.744716e-01 -8.478309e-01 -1.507197e+00 1.196404e+00 1.651753e+00 3.451951e-01 1.159510e+00 -1.295788e-01 -7.399769e-01 4.941563e-01 -1.292030e+00 -3.982244e-02 -4.658824e-01 -6.424775e-02 -2.877786e-01 1.560578e-02 -3.483406e-01 -1.189668e-01 1.743892e-01 -3.184474e-01 -1.272168e-03 -1.408247e-02 -5.530074e-02 4.079798e-01
<VARIANCE> 39
 3.052726e+01 3.595494e+01 6.566012e+01 4.844983e+01 3.984180e+01 4.527293e+01 3.904375e+01 4.746397e+01 4.847748e+01 5.940596e+01 2.040257e+01 2.495521e+01 4.491247e+01 2.420963e+00 3.698860e+00 5.800714e+00 3.768108e+00 2.600530e+00 3.709602e+00 3.085096e+00 2.977523e+00 3.456003e+00 3.522724e+00 1.966241e+00 2.638723e+00 2.815037e+00 3.022206e-01 5.959972e-01 6.541087e-01 7.127246e-01 4.859795e-01 6.213716e-01 6.014829e-01 5.928091e-01 6.436512e-01 6.366333e-01 3.154530e-01 3.933570e-01 3.944173e-01
<GCONST> 1.260949e+02
<TRANSP> 5
 0.000000e+00 1.000000e+00 0.000000e+00 0.000000e+00 0.000000e+00
 0.000000e+00 6.672240e-01 3.327759e-01 0.000000e+00 0.000000e+00
 0.000000e+00 0.000000e+00 3.786446e-01 6.213554e-01 0.000000e+00
 0.000000e+00 0.000000e+00 0.000000e+00 3.273368e-01 6.726632e-01
 0.000000e+00 0.000000e+00 0.000000e+00 0.000000e+00 0.000000e+00
<ENDHMM>
~h "j"
<BEGINHMM>
<NUMSTATES> 5
<STATE> 2
<MEAN> 39
 1.101253e+01 -1.738445e+01 9.533141e+00 -4.300889e+00 1.236330e+01 -4.019627e+00 -2.071213e+01 4.457680e+00 -2.011813e+01 1.467815e+00 3.826596e+00 -3.416984e+00 7.532334e+01 1.096686e-01 -4.839976e-01 -1.942832e-01 8.141423e-01 5.518601e-01 -9.380870e-01 -1.200862e+00 -6.056685e-01 -2.415563e-01 5.093843e-01 6.688007e-01 -2.427053e-01 4.567111e-01 -1.467255e-01 6.122289e-02 2.584951e-01 -8.425947e-02 -2.571486e-01 1.334213e-01 2.434299e-01 1.161499e-01 2.170102e-01 3.920631e-02 -1.776997e-01 -3.447413e-02 -1.174448e-01
<VARIANCE> 39
 2.855250e+01 2.112182e+01 5.093728e+01 5.051141e+01 4.509038e+01 5.308578e+01 5.215897e+01 4.727132e+01 4.959997e+01 4.929466e+01 2.233838e+01 3.111292e+01 4.585903e+01 1.457026e+00 1.608070e+00 2.643793e+00 2.522587e+00 2.346045e+00 3.381277e+00 3.379161e+00 2.610497e+00 2.318393e+00 2.625887e+00 1.601052e+00 1.925347e+00 1.313829e+00 1.994416e-01 2.452660e-01 4.658335e-01 4.359277e-01 3.354675e-01 5.357730e-01 4.698310e-01 4.254661e-01 4.627876e-01 4.595749e-01 2.961525e-01 3.243181e-01 1.445975e-01
<GCONST> 1.161335e+02
<STATE> 3
<MEAN> 39
 1.019545e+01 -1.790945e+01 1.084367e+01 -2.786482e+00 1.165321e+01 -5.110712e+00 -2.205830e+01 3.328102e+00 -1.934239e+01 3.086042e+00 4.645827e+00 -4.374162e+00 7.542727e+01 -1.804473e-01 -5.962601e-02 4.237301e-01 3.359721e-01 -2.475701e-03 -1.037893e-01 -2.012838e-01 -1.712236e-01 1.341186e-01 1.710772e-01 9.012950e-03 -1.474298e-01 -4.200289e-02 -8.188827e-02 1.475949e-01 2.123892e-01 -1.398256e-01 -1.122376e-01 3.710594e-01 4.395025e-01 1.434133e-01 2.259309e-02 -1.186265e-01 -2.006002e-01 6.691642e-02 -1.647177e-01
<VARIANCE> 39
 2.981005e+01 2.228894e+01 5.174692e+01 4.981360e+01 4.109322e+01 5.045227e+01 5.839493e+01 5.637261e+01 5.241328e+01 4.342195e+01 2.518979e+01 3.181644e+01 5.076554e+01 8.243538e-01 1.498693e+00 2.414617e+00 2.710528e+00 1.865301e+00 3.271067e+00 3.403865e+00 2.235486e+00 1.777362e+00 2.768373e+00 1.281705e+00 1.864388e+00 9.990595e-01 2.000110e-01 2.506112e-01 4.166294e-01 4.009886e-01 3.312588e-01 4.936682e-01 5.934682e-01 4.980075e-01 5.037704e-01 4.780478e-01 2.953785e-01 2.878573e-01 1.707912e-01
<GCONST> 1.150342e+02
<STATE> 4
<MEAN> 39
 5.518676e+00 -1.600067e+01 1.099078e+01 -4.939327e+00 7.666758e+00 -5.468459e-01 -1.636998e+01 5.787439e+00 -1.509939e+01 2.523890e+00 3.518220e+00 -3.069908e+00 6.912543e+01 -2.114542e-01 4.188075e-02 5.680025e-01 2.629951e-01 7.822907e-02 1.263093e-01 1.442521e-01 1.215640e-01 -1.382201e-02 3.934268e-02 -1.320443e-01 -2.243568e-01 -1.524659e-01 -3.091566e-02 9.545212e-02 1.607883e-01 -1.571356e-02 -4.567851e-02 2.528441e-01 2.797130e-01 7.340942e-02 -1.410816e-02 -1.155859e-01 -1.332940e-01 5.330806e-02 -9.595583e-02
<VARIANCE> 39
 7.400375e+01 2.782004e+01 4.223953e+01 4.118111e+01 5.459494e+01 6.315769e+01 8.422250e+01 4.162218e+01 6.720735e+01 3.825922e+01 2.188944e+01 2.683319e+01 1.148741e+02 8.675503e-01 1.020755e+00 2.305948e+00 2.743126e+00 1.334723e+00 2.440648e+00 2.461184e+00 2.196602e+00 2.150224e+00 2.262237e+00 1.230717e+00 1.663580e+00 7.453406e-01 2.113907e-01 2.443103e-01 3.228227e-01 2.996973e-01 3.229035e-01 4.566804e-01 5.348991e-01 3.778755e-01 3.537970e-01 3.919886e-01 2.813845e-01 2.485191e-01 2.062809e-01
<GCONST> 1.136176e+02
<TRANSP> 5
 0.000000e+00 1.000000e+00 0.000000e+00 0.000000e+00 0.000000e+00
 0.000000e+00 4.828218e-01 5.171782e-01 0.000000e+00 0.000000e+00
 0.000000e+00 0.000000e+00 3.374675e-01 6.625325e-01 0.000000e+00
 0.000000e+00 0.000000e+00 0.000000e+00 3.825160e-01 6.174840e-01
 0.000000e+00 0.000000e+00 0.000000e+00 0.000000e+00 0.000000e+00
<ENDHMM>
~h "k"
<BEGINHMM>
<NUMSTATES> 5
<STATE> 2
<MEAN> 39
 -6.523851e-01 -1.227294e+01 1.432500e+01 -8.851954e+00 3.051195e+00 6.515806e+00 -9.663625e+00 6.494855e+00 -1.332468e+01 2.003034e+00 2.056118e+00 -1.535536e+00 6.082903e+01 -5.434870e-01 -6.186296e-01 -5.823736e-01 -1.530160e+00 -1.137511e+00 3.067300e-01 2.930205e-01 2.873711e-01 3.097737e-01 2.297441e-02 -2.143470e-01 -1.562588e-01 -4.011242e-01 5.004938e-01 -8.107343e-01 1.722929e-01 -7.376363e-01 -1.013276e-02 -2.783859e-01 -6.281245e-02 8.044966e-02 -6.523266e-01 4.043030e-01 8.988453e-03 -3.087532e-01 1.221727e+00
<VARIANCE> 39
 2.408556e+01 2.752395e+01 2.786703e+01 3.874327e+01 3.039514e+01 3.656190e+01 3.765023e+01 3.375696e+01 3.464310e+01 2.556220e+01 1.943559e+01 1.942533e+01 1.898253e+01 2.468853e+00 6.637129e+00 3.060436e+00 8.699840e+00 3.000462e+00 3.838323e+00 4.491923e+00 3.671340e+00 5.530275e+00 3.758751e+00 2.264360e+00 2.497408e+00 6.754657e+00 3.004213e-01 7.419629e-01 6.056056e-01 1.118942e+00 5.069298e-01 6.843913e-01 9.527687e-01 6.476671e-01 7.446530e-01 6.527014e-01 4.707986e-01 4.369662e-01 5.371073e-01
<GCONST> 1.266287e+02
<STATE> 3
<MEAN> 39
 1.802545e+00 -2.036505e+01 1.517836e+01 -2.055575e+01 -5.541648e-01 6.623574e+00 -8.210023e+00 7.974938e+00 -1.819666e+01 5.519794e+00 1.137411e+00 -4.795826e+00 6.967858e+01 1.542426e+00 -4.673181e-01 8.304180e-01 -5.842803e-01 3.166526e-01 -8.426235e-01 -8.727536e-01 -9.767355e-02 -1.125148e+00 1.395861e-01 -3.543800e-01 -6.156933e-01 2.264464e+00 4.933533e-01 9.284901e-01 -1.121018e-01 1.642106e+00 8.031414e-01 -6.713189e-01 -6.684035e-01 -1.679573e-01 1.983346e-01 -4.401977e-01 9.196360e-02 7.995050e-02 -1.879586e-01
<VARIANCE> 39
 2.373403e+01 5.417334e+01 4.239000e+01 8.071439e+01 7.461720e+01 5.584389e+01 6.271709e+01 5.900064e+01 5.690404e+01 3.582942e+01 2.655281e+01 2.883531e+01 3.012003e+01 3.872366e+00 7.047876e+00 3.794270e+00 1.396028e+01 5.648736e+00 5.859758e+00 7.141643e+00 4.273279e+00 5.084055e+00 4.306948e+00 3.117150e+00 3.218341e+00 4.462014e+00 4.505637e-01 1.012263e+00 1.044440e+00 1.757571e+00 8.595588e-01 1.068191e+00 1.095543e+00 9.094790e-01 1.101068e+00 7.263761e-01 5.590928e-01 4.864399e-01 6.449132e-01
<GCONST> 1.400424e+02
<STATE> 4
<MEAN> 39
 7.285515e+00 -1.507243e+01 1.668568e+01 -1.177209e+01 3.898270e+00 2.335073e+00 -1.370921e+01 6.178162e+00 -1.787662e+01 2.920287e+00 7.859715e-01 -5.558147e+00 7.217455e+01 2.257009e+00 1.264151e+00 -1.155110e+00 2.947045e+00 1.581337e+00 -2.422477e+00 -1.711014e+00 -8.223772e-02 -1.543118e-01 -8.739085e-01 3.274845e-01 -1.378198e-01 1.022173e+00 -2.425927e-01 -6.517643e-02 -6.575180e-01 -1.153598e-02 -8.871603e-02 -2.043954e-02 3.103687e-01 1.163979e-01 2.487659e-01 9.634615e-02 1.949334e-01 2.798038e-01 -3.843714e-01
<VARIANCE> 39
 3.726924e+01 4.195986e+01 4.757248e+01 4.955502e+01 5.513319e+01 4.568915e+01 5.200283e+01 5.653986e+01 4.379826e+01 3.039286e+01 3.791641e+01 3.451359e+01 3.888290e+01 3.537629e+00 3.208143e+00 5.129496e+00 5.893370e+00 4.905669e+00 5.719291e+00 4.719031e+00 3.101505e+00 4.032492e+00 3.613223e+00 3.541046e+00 2.647798e+00 2.140194e+00 4.229796e-01 5.134848e-01 8.105804e-01 1.116162e+00 6.598188e-01 7.158644e-01 8.086677e-01 5.381045e-01 7.081164e-01 5.176995e-01 5.802236e-01 4.490772e-01 3.852918e-01
<GCONST> 1.316687e+02
<TRANSP> 5
 0.000000e+00 1.000000e+00 0.000000e+00 0.000000e+00 0.000000e+00
 0.000000e+00 7.216934e-01 2.783065e-01 0.000000e+00 0.000000e+00
 0.000000e+00 0.000000e+00 6.591098e-01 3.408902e-01 0.000000e+00
 0.000000e+00 0.000000e+00 0.000000e+00 2.938696e-01 7.061304e-01
 0.000000e+00 0.000000e+00 0.000000e+00 0.000000e+00 0.000000e+00
<ENDHMM>
~h "l"
<BEGINHMM>
<NUMSTATES> 5
<STATE> 2
<MEAN> 39
 9.916535e+00 -1.569143e+01 1.375597e+01 -9.989970e+00 3.709723e+00 1.203874e+00 -1.229966e+01 9.070048e+00 -1.471598e+01 -9.693274e-01 -2.817899e+00 -3.385201e+00 7.359029e+01 1.498126e+00 2.975689e-01 -1.666013e+00 6.630346e-01 4.279305e-01 -1.170061e+00 -7.940319e-01 -8.869782e-02 -2.272769e-01 -1.094313e+00 -4.693955e-01 -2.913312e-01 7.349193e-01 -8.744620e-02 2.161790e-02 -2.285788e-01 5.238897e-02 1.226648e-01 -2.903070e-01 -9.822770e-02 4.697123e-02 -1.370623e-01 1.045041e-01 3.417554e-01 5.699283e-02 -5.377265e-02
<VARIANCE> 39
 4.228950e+01 4.291136e+01 1.047350e+02 4.948343e+01 5.136608e+01 7.562238e+01 4.690814e+01 4.386503e+01 4.682730e+01 5.161856e+01 4.123946e+01 2.734488e+01 3.063347e+01 4.809162e+00 4.440899e+00 7.548856e+00 4.254674e+00 4.102043e+00 6.069844e+00 4.307250e+00 4.517222e+00 4.713480e+00 4.216076e+00 3.552444e+00 2.802025e+00 2.598378e+00 7.936672e-01 7.762977e-01 1.343464e+00 7.621542e-01 6.922401e-01 9.656264e-01 7.563419e-01 7.204673e-01 7.688336e-01 8.832793e-01 7.768046e-01 5.230830e-01 3.631212e-01
<GCONST> 1.370532e+02
<STATE> 3
<MEAN> 39
 1.450207e+01 -1.326981e+01 5.400050e+00 -7.510524e+00 6.281556e+00 -4.213576e+00 -1.555193e+01 9.852460e+00 -1.382898e+01 -3.990047e+00 -4.162946e+00 -4.786326e+00 7.450894e+01 2.970661e-01 -1.403290e-01 -7.433308e-01 -1.511990e-02 -2.433680e-01 -1.167274e+00 -1.090032e-01 4.243941e-01 -4.378169e-01 -2.667673e-01 6.101442e-01 4.553726e-01 3.711810e-01 -3.075101e-01 -1.882356e-01 5.453956e-01 -3.025942e-01 -1.735121e-01 1.618357e-01 1.743435e-01 2.140246e-02 -2.171477e-01 4.821981e-01 3.662022e-01 8.615091e-02 -6.891451e-04
<VARIANCE> 39
 8.589805e+00 1.901874e+01 4.439810e+01 3.135280e+01 4.331639e+01 5.564663e+01 3.847077e+01 4.400872e+01 6.687286e+01 5.436966e+01 3.670799e+01 4.059264e+01 2.014991e+01 8.126466e-01 1.560849e+00 4.710585e+00 3.002678e+00 4.086700e+00 4.469682e+00 3.582835e+00 3.768133e+00 5.228146e+00 3.957611e+00 4.382120e+00 3.978477e+00 8.493792e-01 2.054072e-01 2.548651e-01 6.962758e-01 5.957468e-01 5.740721e-01 8.070284e-01 7.573986e-01 6.416820e-01 7.919226e-01 9.080164e-01 6.515704e-01 7.013382e-01 1.483158e-01
<GCONST> 1.235197e+02
<STATE> 4
<MEAN> 39
 1.471957e+01 -1.442785e+01 3.783003e+00 -1.147842e+01 4.924690e-01 -9.218136e+00 -1.180371e+01 1.390751e+01 -1.454428e+01 -7.275493e-01 -2.033509e-01 -1.450138e+00 7.610904e+01 -2.192574e-01 -4.606463e-02 4.184636e-01 -2.970117e-01 -6.711611e-02 5.366524e-02 1.061021e-01 -2.069505e-01 -4.963946e-01 6.445571e-01 5.255641e-01 -2.871289e-02 5.883549e-02 -1.275100e-01 4.396733e-02 2.790864e-01 4.805147e-02 1.771989e-01 3.575268e-01 -4.269355e-02 -1.815805e-01 5.683875e-02 9.179452e-02 -1.166394e-01 -1.251880e-01 -1.389933e-01
<VARIANCE> 39
 5.850980e+00 1.664909e+01 3.538374e+01 3.379951e+01 4.322006e+01 4.053398e+01 3.504137e+01 5.988688e+01 6.747289e+01 5.128909e+01 2.902727e+01 2.479764e+01 1.966449e+01 4.787219e-01 1.215677e+00 2.474371e+00 2.273115e+00 2.227043e+00 2.707305e+00 2.863639e+00 2.237496e+00 3.191980e+00 2.971532e+00 2.183429e+00 1.892331e+00 7.180973e-01 1.043647e-01 1.994425e-01 4.012064e-01 4.607056e-01 3.522640e-01 4.806707e-01 4.064843e-01 3.764400e-01 5.238662e-01 5.529909e-01 3.771755e-01 3.574601e-01 1.338193e-01
<GCONST> 1.098770e+02
<TRANSP> 5
 0.000000e+00 1.000000e+00 0.000000e+00 0.000000e+00 0.000000e+00
 0.000000e+00 4.690313e-01 5.309687e-01 0.000000e+00 0.000000e+00
 0.000000e+00 0.000000e+00 6.415516e-01 3.584484e-01 0.000000e+00
 0.000000e+00 0.000000e+00 0.000000e+00 7.832361e-01 2.167639e-01
 0.000000e+00 0.000000e+00 0.000000e+00 0.000000e+00 0.000000e+00
<ENDHMM>
~h "m"
<BEGINHMM>
<NUMSTATES> 5
<STATE> 2
<MEAN> 39
 1.103475e+01 -9.769998e+00 9.389416e+00 -6.296517e+00 1.184640e+01 8.879990e+00 -1.119249e+01 5.919276e+00 -1.355699e+01 2.382569e+00 -1.544371e+00 -8.502439e+00 6.795292e+01 -1.148205e-01 1.580523e-01 3.292946e-01 5.642803e-02 2.697900e-01 6.130023e-01 8.333855e-02 -1.820741e-01 2.088228e-02 5.154928e-01 -1.021855e-01 -6.931036e-01 -2.706747e-01 -9.497215e-03 -2.997127e-01 2.723404e-03 -3.458340e-01 -5.950714e-01 -8.029212e-01 -3.176484e-02 4.736162e-01 1.728773e-02 -1.113034e-01 2.972391e-01 7.667040e-01 3.228601e-01
<VARIANCE> 39
 2.669353e+01 1.220230e+01 2.218699e+01 2.167336e+01 3.169851e+01 2.218721e+01 2.283215e+01 2.993399e+01 2.863090e+01 2.390058e+01 1.554014e+01 3.038305e+01 2.095401e+01 8.768072e-01 1.058659e+00 2.042628e+00 2.286551e+00 3.999354e+00 3.686313e+00 1.399687e+00 2.694717e+00 1.954780e+00 1.987794e+00 1.283491e+00 4.522976e+00 8.078662e-01 1.371377e-01 2.566980e-01 3.249740e-01 3.593909e-01 5.072702e-01 5.410179e-01 2.986534e-01 3.775762e-01 3.406474e-01 4.354102e-01 2.450370e-01 7.389161e-01 1.331737e-01
<GCONST> 1.062348e+02
<STATE> 3
<MEAN> 39
 9.247540e+00 -1.060422e+01 9.706450e+00 -9.549911e+00 6.523276e+00 5.214935e+00 -1.015611e+01 9.130619e+00 -1.205975e+01 3.428611e+00 9.990349e-01 -3.757572e+00 6.718054e+01 -3.677224e-01 -1.656342e-01 -5.274266e-04 -4.790109e-01 -1.050934e+00 -7.393149e-01 2.161742e-01 5.145794e-01 2.031852e-01 -1.145547e-01 3.545007e-01 7.449971e-01 -9.126091e-02 -3.292198e-02 -1.317008e-01 -2.532346e-02 8.255643e-02 -2.015064e-02 -2.507058e-01 -5.647389e-02 1.087872e-01 -4.258350e-02 -1.674670e-01 -7.212556e-04 1.256194e-01 1.013903e-01
<VARIANCE> 39
 4.242761e+01 1.917865e+01 3.617521e+01 3.082205e+01 5.278499e+01 4.920710e+01 3.215884e+01 4.279526e+01 3.161953e+01 2.506807e+01 2.172639e+01 4.498415e+01 3.263727e+01 1.064574e+00 1.014759e+00 1.871094e+00 2.063467e+00 2.961108e+00 3.516426e+00 1.366966e+00 2.333446e+00 1.669282e+00 1.673219e+00 1.463941e+00 3.272355e+00 1.082389e+00 1.049043e-01 2.216920e-01 3.730675e-01 4.097781e-01 5.921554e-01 7.270972e-01 3.044863e-01 5.262734e-01 3.366554e-01 3.597514e-01 3.264662e-01 7.223409e-01 1.220479e-01
<GCONST> 1.111624e+02
<STATE> 4
<MEAN> 39
 -2.031659e+00 -1.159431e+01 1.176830e+01 -7.298574e+00 3.719193e+00 7.338004e+00 -7.325848e+00 1.012805e+01 -7.668686e+00 4.040907e+00 2.335147e+00 -2.660739e+00 5.832255e+01 -9.036305e-02 -5.416945e-02 8.439683e-02 -8.776113e-03 -1.078463e-01 -2.167631e-01 2.367402e-02 2.038178e-01 2.501952e-02 -6.466826e-02 4.706515e-02 1.840003e-01 2.474707e-02 4.121665e-02 -3.261486e-02 5.780267e-03 -1.764804e-02 -1.418311e-02 -8.686870e-02 -2.169421e-02 4.922451e-02 -1.477371e-02 -3.229160e-03 5.561296e-03 3.035235e-02 7.080318e-02
<VARIANCE> 39
 5.835457e+01 7.926542e+00 1.146754e+01 1.125138e+01 2.330335e+01 1.513555e+01 1.568023e+01 2.162347e+01 2.682606e+01 1.307190e+01 1.193246e+01 1.650071e+01 4.130075e+01 3.277647e-01 5.261634e-01 7.121709e-01 8.296886e-01 1.261216e+00 1.564176e+00 9.572499e-01 1.426709e+00 1.217414e+00 1.067085e+00 9.540924e-01 1.437127e+00 3.428537e-01 5.288061e-02 9.568766e-02 1.241952e-01 1.462067e-01 2.066630e-01 2.359500e-01 1.916904e-01 2.632222e-01 2.373276e-01 2.114284e-01 1.643750e-01 2.117071e-01 4.201023e-02
<GCONST> 8.262078e+01
<TRANSP> 5
 0.000000e+00 1.000000e+00 0.000000e+00 0.000000e+00 0.000000e+00
 0.000000e+00 6.097926e-01 3.902074e-01 0.000000e+00 0.000000e+00
 0.000000e+00 0.000000e+00 4.694747e-01 5.305254e-01 0.000000e+00
 0.000000e+00 0.000000e+00 0.000000e+00 7.991122e-01 2.008878e-01
 0.000000e+00 0.000000e+00 0.000000e+00 0.000000e+00 0.000000e+00
<ENDHMM>
~h "n"
<BEGINHMM>
<NUMSTATES> 5
<STATE> 2
<MEAN> 39
 1.137488e+01 -1.118423e+01 9.942177e+00 -4.839571e+00 1.365037e+01 9.397901e+00 -1.294020e+01 1.149223e+00 -1.640822e+01 2.506593e+00 -1.898472e+00 -6.465390e+00 6.972799e+01 4.077955e-01 -2.611858e-01 -4.719357e-01 -2.448094e-01 2.027360e-01 -2.932889e-01 -1.116640e-02 2.877954e-01 -2.475080e-01 -1.529332e-01 -9.770842e-03 3.074034e-01 5.056788e-01 -1.060631e-02 -4.338175e-01 -9.460407e-02 -6.384647e-01 -6.437101e-01 -9.536247e-01 -5.431597e-03 9.442334e-01 9.415187e-02 -1.224499e-01 4.780190e-01 8.513582e-01 4.450496e-01
<VARIANCE> 39
 1.725891e+01 1.555517e+01 2.870641e+01 3.443922e+01 2.936561e+01 3.418945e+01 3.096147e+01 4.882451e+01 2.987708e+01 2.648193e+01 1.983030e+01 2.832433e+01 2.301453e+01 1.388167e+00 2.228570e+00 2.599210e+00 4.188940e+00 3.934518e+00 6.043546e+00 2.748986e+00 7.690254e+00 2.596972e+00 2.439844e+00 2.486302e+00 6.021431e+00 2.004597e+00 2.196465e-01 3.635721e-01 4.445634e-01 5.663107e-01 5.077518e-01 7.784580e-01 5.206732e-01 9.785225e-01 5.570889e-01 5.103971e-01 4.217317e-01 8.284503e-01 2.336012e-01
<GCONST> 1.202517e+02
<STATE> 3
<MEAN> 39
 1.288865e+01 -1.518459e+01 7.277828e+00 -1.045447e+01 9.732882e+00 8.256661e-01 -1.301312e+01 1.003972e+01 -1.660527e+01 1.176830e-01 1.594786e+00 1.668358e+00 7.471460e+01 1.796875e-01 -8.261013e-01 -5.859258e-01 -1.454284e+00 -1.450031e+00 -2.424152e+00 2.317459e-01 2.266695e+00 -1.693078e-03 -2.708018e-01 1.378499e+00 2.129253e+00 1.090951e+00 -2.130188e-01 1.597018e-01 3.550484e-01 2.892250e-01 -2.883727e-02 3.396269e-01 1.095867e-01 -4.749998e-01 -2.130363e-02 2.478711e-01 -9.536115e-02 -5.361851e-01 -2.428764e-01
<VARIANCE> 39
 1.482554e+01 1.957611e+01 4.047799e+01 4.381960e+01 3.812867e+01 5.048920e+01 3.545586e+01 5.039535e+01 3.996702e+01 4.038496e+01 2.753674e+01 4.046549e+01 2.835494e+01 7.015685e-01 1.993222e+00 3.053043e+00 3.263030e+00 2.585327e+00 4.969810e+00 3.149211e+00 4.781301e+00 2.928156e+00 3.255019e+00 2.497678e+00 3.873224e+00 1.365881e+00 1.588184e-01 4.234788e-01 3.804629e-01 5.923472e-01 4.296929e-01 8.906888e-01 5.033997e-01 8.298170e-01 5.371492e-01 5.570918e-01 5.087429e-01 7.859485e-01 2.543343e-01
<GCONST> 1.208470e+02
<STATE> 4
<MEAN> 39
 1.251279e+01 -1.589899e+01 6.317512e+00 -1.135955e+01 7.592253e+00 -1.058353e+00 -1.186429e+01 1.099650e+01 -1.555127e+01 1.903285e+00 3.455123e+00 3.063018e+00 7.515959e+01 -1.958708e-01 -2.841710e-01 2.943743e-01 -2.753736e-01 -7.705094e-01 -5.744935e-01 2.395653e-01 3.905655e-01 -4.166065e-03 2.938468e-01 5.137870e-01 1.327193e-01 1.755429e-01 -1.987645e-01 1.715799e-01 4.341470e-01 3.227509e-01 2.080151e-01 5.892568e-01 4.778745e-02 -4.759451e-01 -1.418250e-02 1.361703e-01 -3.606305e-01 -6.182190e-01 -3.264509e-01
<VARIANCE> 39
 1.804777e+01 2.267435e+01 5.498844e+01 3.994071e+01 4.370249e+01 4.570583e+01 3.698895e+01 4.706678e+01 3.684705e+01 4.249799e+01 2.202917e+01 3.306339e+01 3.344153e+01 9.514067e-01 1.943876e+00 2.512072e+00 2.617557e+00 1.929269e+00 2.972926e+00 2.633448e+00 3.203756e+00 2.614366e+00 2.567338e+00 1.909446e+00 2.822210e+00 1.123482e+00 1.719606e-01 3.624556e-01 3.967214e-01 4.484781e-01 3.472648e-01 7.534380e-01 3.522619e-01 6.197855e-01 4.160771e-01 4.835431e-01 4.021515e-01 5.888804e-01 2.177432e-01
<GCONST> 1.160541e+02
<TRANSP> 5
 0.000000e+00 1.000000e+00 0.000000e+00 0.000000e+00 0.000000e+00
 0.000000e+00 6.512095e-01 3.487905e-01 0.000000e+00 0.000000e+00
 0.000000e+00 0.000000e+00 3.864051e-01 6.135949e-01 0.000000e+00
 0.000000e+00 0.000000e+00 0.000000e+00 3.348523e-01 6.651477e-01
 0.000000e+00 0.000000e+00 0.000000e+00 0.000000e+00 0.000000e+00
<ENDHMM>
~h "o"
<BEGINHMM>
<NUMSTATES> 5
<STATE> 2
<MEAN> 39
 1.182033e+01 -1.212308e+01 9.928809e+00 -1.270286e+01 1.581370e+00 -3.183353e+00 -1.162920e+01 1.203008e+01 -1.446193e+01 1.848036e-01 -1.219090e+00 -3.900445e+00 7.259227e+01 8.000746e-01 -2.077617e-01 -3.388257e-01 -7.568562e-02 -3.136950e-01 -1.831012e+00 -1.040054e-01 9.165800e-01 -7.488186e-01 -5.064203e-01 -1.792578e-01 -1.076127e-02 9.708783e-01 -1.608804e-01 -2.244971e-02 1.623329e-01 2.184377e-01 1.405334e-01 2.189311e-01 2.074675e-01 -5.513766e-02 -1.130632e-01 6.238625e-04 9.575751e-03 -4.943088e-02 -1.078875e-01
<VARIANCE> 39
 3.624216e+01 2.610490e+01 4.761459e+01 3.470699e+01 7.328656e+01 9.463719e+01 4.798496e+01 6.731924e+01 4.214943e+01 3.505072e+01 2.857621e+01 2.892139e+01 3.269594e+01 2.626392e+00 2.987719e+00 3.514829e+00 2.802738e+00 4.258748e+00 8.129713e+00 3.691224e+00 4.512545e+00 3.677185e+00 3.050506e+00 2.083673e+00 2.483425e+00 2.582915e+00 4.923670e-01 4.717326e-01 7.248883e-01 4.850412e-01 7.462786e-01 1.591913e+00 7.357415e-01 7.855873e-01 6.178840e-01 5.952020e-01 4.487039e-01 4.972515e-01 3.619400e-01
<GCONST> 1.296843e+02
<STATE> 3
<MEAN> 39
 1.227062e+01 -1.454175e+01 1.039065e+01 -1.177908e+01 9.247575e-01 -6.135322e+00 -9.958453e+00 1.314857e+01 -1.876068e+01 -1.594552e+00 -1.702441e+00 -3.399452e+00 7.469763e+01 1.436850e-01 4.845305e-01 2.660568e-01 4.648679e-01 2.037161e-01 3.718680e-01 4.694115e-01 -4.900220e-02 -3.744727e-02 -1.587766e-01 -1.584842e-01 -1.292780e-01 -1.111627e-01 -5.190164e-01 1.567024e-01 3.529830e-01 3.508827e-02 1.971810e-01 9.399621e-01 -1.332916e-02 -4.247268e-01 4.945977e-01 2.330017e-01 1.568916e-02 4.210088e-02 -5.058880e-01
<VARIANCE> 39
 2.753369e+01 3.707341e+01 5.009426e+01 2.786561e+01 5.288622e+01 6.337590e+01 3.425286e+01 5.557755e+01 5.192984e+01 4.144061e+01 2.626318e+01 3.016377e+01 2.102341e+01 4.190742e+00 3.407887e+00 6.864883e+00 2.503992e+00 3.961232e+00 7.793030e+00 3.757851e+00 3.633309e+00 4.665471e+00 3.101656e+00 2.188322e+00 2.098055e+00 3.354675e+00 6.781944e-01 8.297211e-01 1.274196e+00 5.652031e-01 6.417994e-01 1.309061e+00 4.930104e-01 7.301435e-01 7.183604e-01 6.995645e-01 4.102570e-01 5.248137e-01 3.699659e-01
<GCONST> 1.305466e+02
<STATE> 4
<MEAN> 39
 1.029011e+01 -9.993073e+00 1.182047e+01 -1.142019e+01 5.950568e-01 -1.088833e+00 -8.715983e+00 1.239184e+01 -1.402543e+01 -1.076977e-01 -1.216113e+00 -4.154788e+00 6.996494e+01 -1.337649e+00 9.492399e-02 1.199868e+00 2.899640e-01 5.202506e-01 2.097182e+00 1.634762e-01 -1.020858e+00 5.949020e-01 5.189569e-01 8.323327e-03 1.824692e-02 -1.041862e+00 -1.898567e-01 -3.916048e-01 4.173490e-02 -1.493885e-01 1.348058e-01 3.955531e-04 -2.104049e-01 -1.932607e-01 -1.491756e-01 1.455902e-01 2.116091e-02 8.072041e-02 1.464312e-01
<VARIANCE> 39
 2.734214e+01 2.791908e+01 4.005965e+01 3.293334e+01 5.004872e+01 5.728812e+01 3.622442e+01 4.427623e+01 5.485813e+01 3.479593e+01 2.039164e+01 1.928754e+01 3.924006e+01 2.956828e+00 2.905109e+00 6.155792e+00 2.333867e+00 3.577446e+00 5.397956e+00 3.080399e+00 3.097794e+00 3.152276e+00 2.710053e+00 1.952000e+00 2.679050e+00 2.492514e+00 3.908671e-01 4.004912e-01 5.755059e-01 3.865696e-01 4.302810e-01 8.187292e-01 4.532000e-01 4.982285e-01 5.957389e-01 4.195034e-01 3.070439e-01 3.156977e-01 3.050003e-01
<GCONST> 1.219875e+02
<TRANSP> 5
 0.000000e+00 1.000000e+00 0.000000e+00 0.000000e+00 0.000000e+00
 0.000000e+00 5.550505e-01 4.449495e-01 0.000000e+00 0.000000e+00
 0.000000e+00 0.000000e+00 5.836794e-01 4.163207e-01 0.000000e+00
 0.000000e+00 0.000000e+00 0.000000e+00 4.086571e-01 5.913429e-01
 0.000000e+00 0.000000e+00 0.000000e+00 0.000000e+00 0.000000e+00
<ENDHMM>
~h "p"
<BEGINHMM>
<NUMSTATES> 5
<STATE> 2
<MEAN> 39
 3.258758e+00 -8.032134e+00 1.393709e+01 -5.646678e+00 4.263820e+00 4.476822e+00 -9.955205e+00 7.846929e+00 -1.173503e+01 -8.940237e-03 4.746804e-01 -1.828807e+00 6.121378e+01 -1.680355e+00 5.775586e-01 6.140155e-01 4.212192e-02 -6.133084e-01 8.566314e-01 1.586691e-01 7.770232e-03 1.157300e+00 1.564790e-02 -2.087172e-01 -7.231728e-02 -1.970093e+00 1.153420e-01 -8.408044e-01 3.475104e-03 -4.123761e-01 -4.407801e-02 -2.760000e-01 -1.714586e-01 -3.780448e-02 -3.632443e-01 3.584919e-01 1.383086e-01 -6.283371e-02 8.302210e-01
<VARIANCE> 39
 4.179412e+01 1.400220e+01 3.499464e+01 3.678241e+01 3.833709e+01 3.802045e+01 3.122588e+01 3.673900e+01 3.035146e+01 2.112861e+01 1.863477e+01 1.772018e+01 2.164084e+01 1.463131e+00 1.746421e+00 2.904679e+00 2.110324e+00 1.683924e+00 2.913382e+00 2.159370e+00 1.989035e+00 1.698637e+00 1.577359e+00 1.279965e+00 1.557961e+00 1.863770e+00 3.697300e-01 3.795637e-01 4.411500e-01 4.371283e-01 2.584678e-01 6.403257e-01 4.411956e-01 4.251491e-01 4.088444e-01 4.183597e-01 3.273770e-01 3.088286e-01 2.950082e-01
<GCONST> 1.106143e+02
<STATE> 3
<MEAN> 39
 -4.507736e-01 -8.318502e+00 1.535395e+01 -4.983150e+00 4.360719e+00 6.119521e+00 -1.004129e+01 7.243457e+00 -1.053278e+01 5.218341e-01 -2.728131e-01 -2.850615e+00 5.835111e+01 -8.067496e-01 -1.650620e+00 3.716277e-01 -1.440967e+00 -8.944486e-01 3.354849e-01 3.484934e-01 8.240124e-02 -1.200813e-01 8.992072e-01 1.819201e-01 1.605202e-01 4.722239e-01 9.143442e-01 -9.295105e-01 -2.524695e-04 -5.800979e-01 1.082706e-01 -3.125205e-01 -1.099200e-01 -3.799111e-03 -7.584209e-01 3.214480e-01 2.397001e-01 1.971306e-01 1.566319e+00
<VARIANCE> 39
 2.219564e+01 1.127300e+01 2.181867e+01 2.694617e+01 2.444125e+01 1.865534e+01 2.504666e+01 2.953920e+01 2.677662e+01 1.788284e+01 1.519650e+01 1.502610e+01 1.301123e+01 2.726305e+00 2.931407e+00 2.700097e+00 2.822189e+00 1.935130e+00 2.121605e+00 2.294846e+00 2.265487e+00 2.194702e+00 2.145202e+00 1.534232e+00 1.523306e+00 3.334774e+00 4.433118e-01 4.910953e-01 5.400398e-01 4.585520e-01 3.565654e-01 5.321575e-01 5.026098e-01 4.517923e-01 4.388516e-01 3.544701e-01 3.542579e-01 3.689069e-01 2.084829e-01
<GCONST> 1.097172e+02
<STATE> 4
<MEAN> 39
 -1.410604e+00 -1.250903e+01 1.464728e+01 -8.871977e+00 1.709671e+00 6.632511e+00 -8.393486e+00 8.001590e+00 -1.018281e+01 3.476732e+00 1.514901e+00 -1.836255e+00 6.020246e+01 1.889723e+00 -2.211375e+00 5.380325e-01 -1.755569e+00 -1.701294e-01 -2.486561e-01 -3.801231e-01 -3.839113e-01 -1.826769e+00 7.822322e-01 1.979367e-01 1.843344e-01 3.481498e+00 9.505236e-01 4.735307e-02 -3.383797e-01 8.064520e-02 2.997818e-01 -6.050985e-01 -3.246877e-01 -2.878233e-02 -4.424584e-01 -1.941092e-01 -4.874341e-02 -1.211654e-01 9.324163e-01
<VARIANCE> 39
 2.253133e+01 2.376366e+01 1.939793e+01 2.162278e+01 1.970384e+01 1.565680e+01 1.543902e+01 2.098531e+01 2.745689e+01 1.723800e+01 1.284260e+01 1.170864e+01 3.522513e+01 6.405504e+00 3.188010e+00 4.042317e+00 3.394450e+00 2.799062e+00 3.286965e+00 3.092611e+00 3.819925e+00 4.358719e+00 2.547260e+00 2.233311e+00 1.992056e+00 4.365134e+00 6.204253e-01 6.025368e-01 9.172742e-01 5.278676e-01 4.954083e-01 6.030852e-01 4.850249e-01 5.010656e-01 5.770454e-01 4.036541e-01 3.572213e-01 3.243985e-01 5.585524e-01
<GCONST> 1.174172e+02
<TRANSP> 5
 0.000000e+00 1.000000e+00 0.000000e+00 0.000000e+00 0.000000e+00
 0.000000e+00 4.236540e-01 5.763460e-01 0.000000e+00 0.000000e+00
 0.000000e+00 0.000000e+00 3.639250e-01 6.360750e-01 0.000000e+00
 0.000000e+00 0.000000e+00 0.000000e+00 4.410677e-01 5.589322e-01
 0.000000e+00 0.000000e+00 0.000000e+00 0.000000e+00 0.000000e+00
<ENDHMM>
~h "r"
<BEGINHMM>
<NUMSTATES> 5
<STATE> 2
<MEAN> 39
 8.721127e+00 -1.664874e+01 1.315985e+01 -1.501058e+01 3.801470e+00 3.848181e+00 -1.186187e+01 6.414112e+00 -1.761205e+01 4.006732e+00 9.158767e-01 -1.607000e+00 7.369472e+01 2.131951e+00 -3.375846e-01 -1.447469e+00 -8.107334e-01 4.567815e-01 -4.892568e-01 -1.013244e+00 -1.202203e+00 -1.075594e+00 -7.042807e-02 -2.068276e-01 2.072072e-01 2.043405e+00 -5.404717e-02 5.262859e-01 -6.209507e-01 4.199867e-01 4.248158e-01 2.231587e-02 -2.630546e-01 -1.178264e-01 4.253995e-01 -3.765951e-01 -1.625075e-01 -8.449630e-02 -5.095215e-01
<VARIANCE> 39
 4.478590e+01 3.195757e+01 6.925852e+01 3.156526e+01 3.439432e+01 4.789698e+01 3.800132e+01 4.016768e+01 3.518456e+01 3.745727e+01 2.402139e+01 2.474323e+01 3.419068e+01 6.099162e+00 3.372778e+00 5.930201e+00 4.221526e+00 3.501651e+00 5.761961e+00 3.808177e+00 4.202046e+00 5.422018e+00 3.364470e+00 2.290660e+00 2.749133e+00 6.022152e+00 7.585156e-01 6.350804e-01 9.751662e-01 7.320390e-01 4.978765e-01 9.959966e-01 5.273695e-01 6.281905e-01 8.048092e-01 6.716405e-01 4.750204e-01 3.923675e-01 5.769089e-01
<GCONST> 1.313161e+02
<STATE> 3
<MEAN> 39
 1.357947e+01 -1.500772e+01 6.638101e+00 -1.439954e+01 6.074482e+00 9.590903e-01 -1.524957e+01 3.877220e+00 -1.913592e+01 2.342456e+00 2.889377e-01 -1.918323e+00 7.588737e+01 5.154132e-01 8.533890e-01 -2.119576e+00 2.178242e-01 1.452595e+00 7.903390e-01 -1.226630e+00 -1.239954e+00 9.696904e-01 -9.846317e-01 -6.858143e-01 1.473394e-01 -2.899458e-01 -5.369225e-01 1.158372e-01 2.926862e-01 1.682322e-01 1.877246e-01 1.077686e-01 5.146466e-02 4.959145e-01 4.499121e-01 -1.270486e-01 -5.990463e-02 -2.711362e-02 -5.005736e-01
<VARIANCE> 39
 1.714286e+01 2.532278e+01 5.103596e+01 2.889312e+01 3.190854e+01 4.673225e+01 3.481310e+01 4.764854e+01 3.776133e+01 4.444655e+01 2.574450e+01 2.673947e+01 2.406025e+01 2.016649e+00 2.064400e+00 5.007223e+00 2.606965e+00 3.088251e+00 7.227432e+00 3.913339e+00 4.768134e+00 3.246023e+00 3.310457e+00 2.631695e+00 1.794455e+00 1.680087e+00 5.266911e-01 4.234727e-01 6.927353e-01 4.414408e-01 4.304935e-01 1.302712e+00 5.601854e-01 8.447013e-01 8.868514e-01 6.087738e-01 3.972233e-01 3.400970e-01 4.358171e-01
<GCONST> 1.239205e+02
<STATE> 4
<MEAN> 39
 1.275950e+01 -1.243975e+01 3.937346e+00 -1.395625e+01 9.109838e+00 4.175083e+00 -1.707561e+01 2.919779e+00 -1.495495e+01 -2.127894e-01 -1.334005e+00 -1.299883e+00 7.355582e+01 -2.476560e-02 3.938203e-01 -6.740329e-01 1.905802e-01 9.464860e-01 -2.746083e-01 -6.613815e-01 7.095669e-01 7.417079e-01 -5.503105e-01 -1.974001e-01 1.158525e-01 -3.541553e-01 -1.688446e-01 -3.005887e-01 6.363076e-01 8.464684e-02 -3.619274e-01 -6.041906e-01 4.152573e-01 6.936415e-01 -3.539987e-01 3.305269e-01 2.825365e-01 -4.588788e-02 8.407873e-02
<VARIANCE> 39
 1.998473e+01 2.986404e+01 6.525159e+01 3.828307e+01 3.154047e+01 6.605855e+01 4.136386e+01 5.477673e+01 3.252967e+01 4.719201e+01 3.234943e+01 2.902123e+01 2.819146e+01 1.044677e+00 2.168649e+00 3.953856e+00 2.330815e+00 3.620014e+00 7.587295e+00 4.467432e+00 5.520930e+00 3.195626e+00 3.412582e+00 2.202136e+00 1.949461e+00 1.212106e+00 2.617746e-01 3.960127e-01 6.892202e-01 4.704053e-01 5.468654e-01 1.367848e+00 7.483139e-01 1.048488e+00 6.174099e-01 5.221466e-01 3.973195e-01 3.401220e-01 2.586475e-01
<GCONST> 1.239636e+02
<TRANSP> 5
 0.000000e+00 1.000000e+00 0.000000e+00 0.000000e+00 0.000000e+00
 0.000000e+00 4.204308e-01 5.795692e-01 0.000000e+00 0.000000e+00
 0.000000e+00 0.000000e+00 2.780871e-01 7.219129e-01 0.000000e+00
 0.000000e+00 0.000000e+00 0.000000e+00 3.886081e-01 6.113918e-01
 0.000000e+00 0.000000e+00 0.000000e+00 0.000000e+00 0.000000e+00
<ENDHMM>
~h "s"
<BEGINHMM>
<NUMSTATES> 5
<STATE> 2
<MEAN> 39
 -7.715926e+00 -2.282379e+01 3.260210e+01 -1.737982e+01 2.550647e+00 1.021226e+01 -4.947312e+00 6.341618e+00 -1.934723e+01 9.074735e+00 1.270913e+00 -1.976098e+00 7.614625e+01 -2.560050e+00 -1.203572e+00 1.971362e+00 -1.408322e+00 -2.401521e-01 9.834059e-01 6.130282e-01 2.304033e-01 1.549194e-01 9.113026e-01 1.369696e-02 3.310474e-01 1.395549e-01 5.676385e-01 2.151796e-01 -7.387103e-01 2.773701e-01 1.377904e-01 -4.113438e-01 -2.672755e-01 3.265016e-03 -3.573271e-02 -1.764071e-01 1.871635e-02 -9.225678e-02 -9.397002e-02
<VARIANCE> 39
 7.054475e+01 3.223989e+01 6.347446e+01 4.568681e+01 2.556173e+01 4.294257e+01 3.314408e+01 4.209646e+01 4.959694e+01 3.825744e+01 2.697606e+01 2.117343e+01 2.196818e+01 5.222132e+00 3.381734e+00 8.732304e+00 3.425846e+00 2.527926e+00 3.996844e+00 2.561527e+00 3.041084e+00 3.018451e+00 2.469384e+00 2.121088e+00 1.876763e+00 8.430150e-01 7.584947e-01 5.859747e-01 1.038502e+00 6.207959e-01 4.584928e-01 6.089604e-01 3.997040e-01 5.572456e-01 5.320426e-01 4.819490e-01 3.940304e-01 3.431404e-01 1.413808e-01
<GCONST> 1.231156e+02
<STATE> 3
<MEAN> 39
 -9.815723e+00 -2.385520e+01 3.219672e+01 -1.912781e+01 2.256493e+00 1.084311e+01 -5.123039e+00 6.196217e+00 -1.858855e+01 1.031580e+01 1.388539e+00 -1.719898e+00 7.469281e+01 2.745742e+00 1.276515e+00 -2.176048e+00 1.554402e+00 3.063595e-01 -6.943591e-01 -8.075947e-01 -5.864668e-01 -2.508088e-01 -1.341948e+00 -1.510497e-01 -3.777051e-01 -4.932379e-01 8.594453e-01 5.089554e-01 -7.658722e-01 5.226551e-01 2.318082e-01 -3.031413e-01 -3.300610e-01 -2.754416e-02 -1.595275e-02 -4.149344e-01 -9.998055e-02 -1.412964e-01 -1.464506e-01
<VARIANCE> 39
 4.606444e+01 3.685618e+01 4.798391e+01 3.501425e+01 2.546660e+01 3.326756e+01 2.728860e+01 3.274700e+01 4.532100e+01 3.699854e+01 2.680600e+01 2.107869e+01 3.045253e+01 6.756729e+00 3.923843e+00 5.435758e+00 4.215751e+00 2.685841e+00 2.859253e+00 2.887477e+00 2.830780e+00 3.714944e+00 2.976853e+00 2.586621e+00 2.163157e+00 2.222357e+00 6.739060e-01 7.725675e-01 7.497213e-01 7.909343e-01 4.833163e-01 5.455542e-01 4.362901e-01 5.631109e-01 5.621405e-01 5.831551e-01 4.690385e-01 3.898603e-01 3.785330e-01
<GCONST> 1.250306e+02
<STATE> 4
<MEAN> 39
 3.508291e+00 -1.762247e+01 2.121300e+01 -1.305314e+01 4.315238e+00 6.749364e+00 -8.924813e+00 4.170703e+00 -2.066140e+01 4.666545e+00 2.739275e-01 -3.912985e+00 7.376932e+01 3.204121e+00 1.870349e+00 -3.631658e+00 2.077591e+00 1.048104e+00 -1.617680e+00 -1.393195e+00 3.587397e-01 3.859622e-01 -1.326201e+00 -3.253024e-01 -5.126491e-01 -9.924931e-01 -7.968047e-01 -2.745976e-01 3.471555e-01 -1.845034e-01 -3.326485e-02 3.366130e-03 1.006658e-01 4.097020e-01 4.429515e-01 3.351369e-01 1.199120e-01 1.868659e-01 -1.229311e-01
<VARIANCE> 39
 9.414451e+01 3.103426e+01 9.597704e+01 4.074619e+01 3.593420e+01 6.017430e+01 4.315771e+01 5.363241e+01 3.752118e+01 4.376886e+01 2.628156e+01 2.486916e+01 3.857528e+01 4.501834e+00 3.534225e+00 5.357404e+00 4.776112e+00 3.482375e+00 5.058060e+00 3.747532e+00 3.799386e+00 4.174813e+00 3.563536e+00 2.935577e+00 2.589224e+00 3.188777e+00 9.651209e-01 5.272382e-01 9.622872e-01 6.288805e-01 4.710568e-01 7.257927e-01 5.105508e-01 6.315618e-01 6.251091e-01 6.470846e-01 4.692755e-01 5.490141e-01 2.850285e-01
<GCONST> 1.314155e+02
<TRANSP> 5
 0.000000e+00 1.000000e+00 0.000000e+00 0.000000e+00 0.000000e+00
 0.000000e+00 8.434924e-01 1.565076e-01 0.000000e+00 0.000000e+00
 0.000000e+00 0.000000e+00 7.370707e-01 2.629293e-01 0.000000e+00
 0.000000e+00 0.000000e+00 0.000000e+00 2.838991e-01 7.161009e-01
 0.000000e+00 0.000000e+00 0.000000e+00 0.000000e+00 0.000000e+00
<ENDHMM>
~h "t"
<BEGINHMM>
<NUMSTATES> 5
<STATE> 2
<MEAN> 39
 1.537010e+00 -1.460394e+01 2.014028e+01 -1.049532e+01 3.318747e+00 7.183125e+00 -9.158010e+00 6.245825e+00 -1.518309e+01 3.739336e+00 -4.935460e-01 -1.915432e+00 6.701908e+01 -4.013923e-01 7.412485e-01 -2.701026e-01 2.851030e-01 -1.823204e-01 3.641621e-01 2.702773e-01 2.326316e-01 6.322597e-01 -2.856548e-01 6.250910e-02 1.532358e-01 -1.156538e+00 9.228849e-02 -2.393111e-01 -3.368759e-01 1.390095e-02 7.775134e-02 -3.351027e-01 -1.292617e-01 8.806373e-02 2.958975e-03 1.216946e-01 1.313824e-01 -5.005652e-02 2.062386e-01
<VARIANCE> 39
 5.653328e+01 5.146134e+01 8.004886e+01 6.478639e+01 4.007603e+01 4.506389e+01 3.749731e+01 4.179187e+01 4.742414e+01 3.914706e+01 2.309868e+01 2.054342e+01 4.995531e+01 4.904757e+00 5.299174e+00 8.050295e+00 5.751888e+00 2.937731e+00 4.530540e+00 2.888254e+00 2.658702e+00 3.412489e+00 3.604130e+00 1.974125e+00 1.658545e+00 5.532836e+00 6.557384e-01 1.265497e+00 1.278851e+00 1.208100e+00 5.590038e-01 8.316733e-01 5.040433e-01 5.008736e-01 5.820075e-01 7.118230e-01 4.089150e-01 3.920639e-01 7.440804e-01
<GCONST> 1.328873e+02
<STATE> 3
<MEAN> 39
 2.452499e+00 -1.220848e+01 1.720644e+01 -8.107794e+00 3.739742e+00 5.684488e+00 -9.856322e+00 6.431887e+00 -1.437338e+01 1.984971e+00 -2.555924e-01 -1.821916e+00 6.465848e+01 -5.132253e-01 7.187058e-02 -6.428509e-01 6.814455e-02 -3.043682e-01 -1.166946e-01 7.704248e-03 2.462418e-01 6.469730e-01 2.059273e-02 1.413324e-01 -7.835120e-02 -8.487018e-01 1.116669e-01 -8.127508e-01 7.783487e-02 -4.749756e-01 -2.377126e-02 -2.153331e-01 -9.841026e-02 -6.534356e-02 -3.508159e-01 3.593138e-01 2.773276e-02 -8.637012e-02 8.344901e-01
<VARIANCE> 39
 5.421868e+01 3.937561e+01 7.288692e+01 5.017225e+01 3.795500e+01 4.360886e+01 4.061110e+01 4.080953e+01 4.824846e+01 3.620325e+01 2.333055e+01 2.161287e+01 5.099115e+01 3.320617e+00 3.733937e+00 5.956757e+00 3.673465e+00 2.705343e+00 3.142117e+00 2.789210e+00 2.491496e+00 2.352027e+00 2.621967e+00 1.834525e+00 1.775050e+00 2.778091e+00 5.922037e-01 9.302654e-01 1.063765e+00 8.337618e-01 5.562932e-01 7.401037e-01 5.983912e-01 4.896876e-01 5.230898e-01 6.132854e-01 3.959586e-01 3.840955e-01 8.694904e-01
<GCONST> 1.277050e+02
<STATE> 4
<MEAN> 39
 -2.983588e+00 -1.171117e+01 1.356324e+01 -7.799551e+00 2.245662e+00 7.131942e+00 -7.005370e+00 9.740092e+00 -8.285945e+00 3.704272e+00 2.177234e+00 -1.335640e+00 5.827945e+01 -1.711480e-01 -4.832309e-01 -7.723484e-02 -2.075762e-01 -1.466359e-01 -6.529817e-02 4.390383e-02 2.233251e-02 -7.647602e-03 1.883861e-01 1.606349e-02 -9.567175e-02 1.518807e-01 1.529391e-01 -2.687910e-01 1.152919e-01 -1.903740e-01 -1.641879e-02 -4.742143e-02 -6.240992e-02 -9.191025e-02 -2.343755e-01 5.577660e-02 -5.696943e-02 -9.059649e-03 3.952602e-01
<VARIANCE> 39
 3.108811e+01 1.530178e+01 3.395443e+01 2.150073e+01 2.035169e+01 2.138829e+01 1.984738e+01 2.695670e+01 4.064323e+01 1.828554e+01 1.454329e+01 1.293635e+01 3.891724e+01 1.158126e+00 2.646808e+00 2.178953e+00 2.396232e+00 1.597556e+00 1.471170e+00 1.389662e+00 1.520557e+00 1.558696e+00 1.677849e+00 1.225641e+00 1.213964e+00 1.522320e+00 2.630898e-01 3.731962e-01 4.434712e-01 3.601196e-01 2.739939e-01 3.584535e-01 3.111039e-01 2.958166e-01 3.498886e-01 3.012004e-01 2.454539e-01 2.249534e-01 4.728773e-01
<GCONST> 1.037004e+02
<TRANSP> 5
 0.000000e+00 1.000000e+00 0.000000e+00 0.000000e+00 0.000000e+00
 0.000000e+00 4.038128e-01 5.961872e-01 0.000000e+00 0.000000e+00
 0.000000e+00 0.000000e+00 1.186077e-01 8.813924e-01 0.000000e+00
 0.000000e+00 0.000000e+00 0.000000e+00 6.961951e-01 3.038049e-01
 0.000000e+00 0.000000e+00 0.000000e+00 0.000000e+00 0.000000e+00
<ENDHMM>
~h "u"
<BEGINHMM>
<NUMSTATES> 5
<STATE> 2
<MEAN> 39
 9.870668e+00 -9.330733e+00 1.390457e+01 -1.043205e+01 3.069350e+00 -3.294269e+00 -1.224339e+01 1.267386e+01 -1.680918e+01 -1.210868e+00 -8.224033e-01 -6.277781e+00 6.932601e+01 1.780400e-01 9.295233e-01 4.173793e-01 2.701396e-01 -5.362862e-01 -5.613992e-01 2.070385e-01 4.917485e-01 6.349015e-01 3.685784e-01 4.897208e-04 -2.670733e-01 -3.222654e-01 -2.531615e-01 -1.643852e-01 1.983585e-01 -1.563256e-02 5.587082e-02 4.385102e-01 1.618700e-01 -1.748698e-01 1.635214e-02 9.776436e-02 1.214660e-01 1.705679e-01 -2.488871e-02
<VARIANCE> 39
 3.156361e+01 4.091942e+01 3.029110e+01 3.025373e+01 4.360514e+01 5.936908e+01 3.393577e+01 3.648208e+01 4.769321e+01 4.598387e+01 3.025035e+01 3.289746e+01 2.535970e+01 2.202888e+00 2.668244e+00 2.954098e+00 1.937826e+00 2.730421e+00 4.723484e+00 2.304305e+00 3.156787e+00 2.988342e+00 2.803593e+00 1.709126e+00 2.659421e+00 1.607253e+00 4.645969e-01 7.261081e-01 5.599183e-01 4.442053e-01 4.217202e-01 1.050548e+00 5.928473e-01 6.880764e-01 4.903094e-01 4.916419e-01 5.081102e-01 4.792099e-01 3.319047e-01
<GCONST> 1.225150e+02
<STATE> 3
<MEAN> 39
 9.296152e+00 -6.486642e+00 1.634925e+01 -1.006603e+01 1.171027e+00 -3.613965e+00 -1.029751e+01 1.366462e+01 -1.559673e+01 4.738297e-01 -4.040788e-01 -6.817448e+00 6.785530e+01 -1.672591e-01 2.699684e-01 4.845518e-01 3.385922e-01 4.496514e-02 5.634554e-01 3.599240e-01 5.759415e-02 3.840331e-01 1.859156e-02 -7.303394e-02 4.497093e-02 -2.370584e-01 -3.274470e-01 -5.835637e-01 -9.353446e-02 -1.219309e-01 2.727089e-01 5.700709e-01 -1.498373e-03 -2.339361e-01 -8.608390e-02 -1.165456e-01 -3.180015e-02 1.522816e-01 6.088366e-02
<VARIANCE> 39
 2.659327e+01 3.564665e+01 2.478166e+01 3.029351e+01 3.850812e+01 7.308781e+01 3.262977e+01 4.531741e+01 4.018060e+01 3.624899e+01 2.623304e+01 3.371981e+01 2.740086e+01 3.942449e+00 4.360617e+00 2.503309e+00 2.375244e+00 3.164520e+00 9.104844e+00 3.237535e+00 3.734242e+00 2.843185e+00 2.739077e+00 2.003619e+00 2.283495e+00 2.192624e+00 4.195740e-01 5.632910e-01 5.564882e-01 4.166839e-01 4.908007e-01 1.308236e+00 4.859679e-01 5.742106e-01 4.596599e-01 4.729520e-01 3.528953e-01 4.631909e-01 2.989024e-01
<GCONST> 1.234438e+02
<STATE> 4
<MEAN> 39
 5.733716e+00 -9.653289e+00 1.478257e+01 -1.127692e+01 4.051660e-01 1.794993e+00 -9.372331e+00 1.128771e+01 -1.328322e+01 1.585631e+00 -9.440906e-02 -5.740522e+00 6.545187e+01 -8.503230e-01 -9.307287e-01 -3.393416e-02 -9.235562e-02 2.607470e-01 1.057135e+00 1.513566e-01 -3.785735e-01 6.041457e-02 -2.432266e-01 -1.309234e-01 1.748858e-01 -1.999001e-01 4.740542e-02 -2.411560e-01 -3.274713e-02 -7.081261e-03 1.796139e-01 -1.241742e-01 -1.303605e-01 -3.336618e-02 -2.000357e-01 -5.398780e-02 4.151756e-02 7.661956e-02 2.554085e-01
<VARIANCE> 39
 3.609700e+01 3.905734e+01 2.880173e+01 4.547332e+01 5.595161e+01 4.267251e+01 3.208072e+01 3.294658e+01 4.457272e+01 3.201040e+01 2.234980e+01 2.226147e+01 4.037202e+01 2.589784e+00 3.596873e+00 3.433690e+00 2.760338e+00 3.449458e+00 5.071454e+00 2.689488e+00 3.352902e+00 2.924210e+00 2.326856e+00 1.839661e+00 1.775169e+00 1.544149e+00 3.686322e-01 5.367286e-01 4.628601e-01 4.192524e-01 4.436274e-01 5.676315e-01 4.621814e-01 4.813489e-01 4.669077e-01 4.099112e-01 2.831519e-01 3.367656e-01 1.750574e-01
<GCONST> 1.192073e+02
<TRANSP> 5
 0.000000e+00 1.000000e+00 0.000000e+00 0.000000e+00 0.000000e+00
 0.000000e+00 4.306998e-01 5.693002e-01 0.000000e+00 0.000000e+00
 0.000000e+00 0.000000e+00 4.871878e-01 5.128122e-01 0.000000e+00
 0.000000e+00 0.000000e+00 0.000000e+00 4.119863e-01 5.880137e-01
 0.000000e+00 0.000000e+00 0.000000e+00 0.000000e+00 0.000000e+00
<ENDHMM>
~h "v"
<BEGINHMM>
<NUMSTATES> 5
<STATE> 2
<MEAN> 39
 9.391265e+00 -1.257967e+01 1.329800e+01 -1.203060e+01 6.180449e+00 2.815026e+00 -1.052693e+01 1.062386e+01 -1.608788e+01 -7.492220e-02 -2.301188e+00 -3.595803e+00 7.147132e+01 5.290743e-02 -1.868539e-01 7.147434e-02 1.118570e-01 6.417413e-01 2.334627e-01 -2.962792e-01 1.837523e-01 8.314082e-02 -2.357572e-01 -3.742474e-01 3.287667e-02 2.309939e-02 8.553696e-02 -2.989897e-01 -1.847485e-01 6.400590e-02 -5.546194e-02 -4.201544e-01 -2.878501e-01 -3.402313e-01 -3.540588e-01 1.909960e-01 3.668938e-01 7.728509e-02 3.251050e-01
<VARIANCE> 39
 4.526974e+01 2.025696e+01 7.807077e+01 4.176476e+01 4.130558e+01 5.759674e+01 4.002676e+01 4.053206e+01 3.632305e+01 3.792717e+01 2.221634e+01 1.550333e+01 3.547545e+01 1.448757e+00 1.542835e+00 3.911884e+00 2.246290e+00 3.126285e+00 4.084246e+00 1.971424e+00 1.966459e+00 2.304490e+00 1.616297e+00 1.355168e+00 1.198439e+00 1.076338e+00 3.943280e-01 3.378676e-01 7.632393e-01 4.720343e-01 3.638340e-01 7.618076e-01 3.926621e-01 3.988385e-01 3.804649e-01 4.617563e-01 3.019921e-01 2.403993e-01 1.548974e-01
<GCONST> 1.147455e+02
<STATE> 3
<MEAN> 39
 9.216861e+00 -1.289808e+01 1.412004e+01 -1.198473e+01 7.141426e+00 3.238491e+00 -1.108023e+01 1.032294e+01 -1.681194e+01 -1.415308e-01 -2.511022e+00 -3.437419e+00 7.166581e+01 5.019442e-01 -5.314445e-01 -6.027921e-01 2.868583e-01 3.897228e-01 -6.374322e-01 -8.672073e-01 -6.444951e-01 -6.243868e-01 -6.515843e-02 4.182222e-01 1.910498e-01 7.282723e-01 1.989635e-01 -1.681554e-01 -3.679754e-01 1.928841e-01 -1.321376e-01 -5.200979e-01 -2.727509e-01 -3.738553e-01 -2.696326e-01 1.931520e-01 4.341770e-01 3.572245e-02 2.903778e-01
<VARIANCE> 39
 3.940960e+01 2.242964e+01 8.128904e+01 4.906971e+01 3.936754e+01 5.937394e+01 3.910035e+01 3.819219e+01 3.796436e+01 3.740374e+01 2.326464e+01 1.601781e+01 3.325455e+01 1.813213e+00 1.638331e+00 3.321301e+00 2.415944e+00 3.634671e+00 2.833805e+00 2.091126e+00 2.164149e+00 2.536406e+00 1.538489e+00 1.657231e+00 1.303874e+00 1.105192e+00 3.370326e-01 2.740341e-01 7.102011e-01 5.090358e-01 2.838567e-01 7.723865e-01 3.767540e-01 4.338286e-01 3.234933e-01 4.568593e-01 3.167542e-01 2.239827e-01 1.581953e-01
<GCONST> 1.146168e+02
<STATE> 4
<MEAN> 39
 1.123355e+01 -1.457192e+01 1.106645e+01 -1.093246e+01 7.087644e+00 5.979711e-01 -1.296749e+01 8.389948e+00 -1.902875e+01 -9.715538e-02 -3.682068e-01 -2.788204e+00 7.387146e+01 7.660214e-01 -7.402004e-01 -1.080419e+00 5.233134e-01 1.921792e-01 -1.428166e+00 -1.193730e+00 -1.178229e+00 -8.670175e-01 5.849102e-01 1.039212e+00 2.576658e-01 1.068447e+00 -6.543089e-02 2.226273e-02 2.739656e-02 1.648867e-01 -3.223448e-02 -1.181023e-01 -2.245373e-02 -4.181104e-02 1.303664e-01 1.825792e-01 8.025650e-02 -8.080242e-02 -4.905915e-02
<VARIANCE> 39
 2.863693e+01 2.254663e+01 7.986003e+01 4.749573e+01 5.186499e+01 7.321477e+01 4.204171e+01 4.192633e+01 3.986284e+01 3.482295e+01 1.936925e+01 1.791163e+01 2.481712e+01 1.624296e+00 1.516730e+00 3.183672e+00 2.783801e+00 3.156168e+00 3.171782e+00 2.710518e+00 2.766932e+00 2.387295e+00 2.298700e+00 2.112126e+00 1.690760e+00 1.157032e+00 2.355061e-01 2.851211e-01 4.965765e-01 4.138603e-01 3.509636e-01 7.058135e-01 2.861821e-01 3.581294e-01 3.866418e-01 3.858721e-01 2.456545e-01 2.599829e-01 1.357583e-01
<GCONST> 1.143177e+02
<TRANSP> 5
 0.000000e+00 1.000000e+00 0.000000e+00 0.000000e+00 0.000000e+00
 0.000000e+00 1.594599e-01 8.405401e-01 0.000000e+00 0.000000e+00
 0.000000e+00 0.000000e+00 2.335076e-01 7.664924e-01 0.000000e+00
 0.000000e+00 0.000000e+00 0.000000e+00 3.350706e-01 6.649293e-01
 0.000000e+00 0.000000e+00 0.000000e+00 0.000000e+00 0.000000e+00
<ENDHMM>
~h "x"
<BEGINHMM>
<NUMSTATES> 5
<STATE> 2
<MEAN> 39
 2.899065e+00 -1.877076e+01 1.787237e+01 -1.458294e+01 3.513729e-01 7.481055e+00 -5.739001e+00 1.041187e+01 -1.693030e+01 4.192347e+00 2.610302e+00 -4.259095e+00 6.936437e+01 -4.987293e-01 -9.692785e-01 1.648736e-01 -1.476890e+00 -1.037251e+00 6.005759e-01 7.972155e-01 -3.131792e-02 -6.855135e-01 -2.013635e-01 -3.267061e-01 7.937491e-02 2.491514e-01 3.520905e-01 1.200698e-01 -1.796388e-01 1.979175e-01 2.507570e-01 -5.025867e-01 -4.070116e-01 -1.302761e-01 -1.603238e-01 -4.068051e-03 -3.066768e-02 -8.070794e-02 2.677273e-01
<VARIANCE> 39
 2.295513e+01 7.066920e+01 3.673790e+01 9.706023e+01 6.363263e+01 5.496967e+01 7.971711e+01 4.655173e+01 4.393977e+01 2.794752e+01 2.297747e+01 2.018142e+01 3.002552e+01 3.122042e+00 5.382205e+00 2.691677e+00 5.046761e+00 3.531164e+00 5.115314e+00 3.966282e+00 3.706379e+00 4.050273e+00 2.800527e+00 1.842148e+00 2.299440e+00 2.867389e+00 3.853192e-01 9.583815e-01 5.082952e-01 6.996665e-01 5.370727e-01 8.275204e-01 6.806642e-01 6.429166e-01 9.009874e-01 6.762679e-01 3.342389e-01 3.712607e-01 3.818986e-01
<GCONST> 1.290070e+02
<STATE> 3
<MEAN> 39
 8.262250e-01 -2.276781e+01 2.129891e+01 -1.517967e+01 2.678328e+00 8.136259e+00 -8.631956e+00 6.588046e+00 -1.934552e+01 5.728715e+00 1.412777e+00 -3.633362e+00 7.268541e+01 9.272282e-01 7.524318e-01 -9.311229e-01 -2.357725e-01 7.824206e-02 -5.495660e-01 -1.374866e-01 -1.029083e-01 -1.025068e-01 -1.528057e-01 -9.798709e-02 1.492860e-01 2.596857e-01 3.818311e-01 5.051939e-01 -3.781569e-01 3.753756e-01 1.788099e-01 -3.973882e-01 -1.488605e-01 5.063992e-02 1.288698e-01 -3.387977e-02 8.628101e-02 -3.399226e-02 -7.227239e-02
<VARIANCE> 39
 5.659283e+01 3.012847e+01 7.412075e+01 5.346948e+01 5.417698e+01 4.075809e+01 6.184975e+01 4.157191e+01 3.985965e+01 4.388799e+01 2.973857e+01 2.311869e+01 2.014406e+01 7.212481e+00 5.049970e+00 7.264678e+00 4.836461e+00 5.633406e+00 5.590674e+00 5.227185e+00 3.009242e+00 3.372543e+00 4.466738e+00 2.711135e+00 2.055623e+00 1.889360e+00 9.579464e-01 8.960932e-01 1.129976e+00 8.588591e-01 9.673457e-01 8.257389e-01 7.480204e-01 5.149113e-01 7.010062e-01 7.533134e-01 5.385138e-01 4.191258e-01 3.417290e-01
<GCONST> 1.338225e+02
<STATE> 4
<MEAN> 39
 8.556021e+00 -1.771345e+01 1.194073e+01 -1.488323e+01 1.329504e+00 1.803894e+00 -7.555475e+00 9.007535e+00 -1.906001e+01 3.844104e+00 1.220885e+00 -2.655758e+00 7.309743e+01 7.998590e-01 1.126755e+00 -1.110000e+00 2.952029e-01 1.908295e-02 -1.064902e+00 2.488900e-01 3.130457e-01 3.014419e-01 -2.713756e-02 -2.260504e-01 1.918544e-01 2.043867e-02 -2.601366e-01 -7.472853e-02 2.085570e-01 1.092396e-01 3.916644e-02 2.649539e-01 5.211558e-02 -4.018154e-02 1.898378e-01 9.925333e-02 -4.702184e-03 -3.025925e-02 -1.113396e-01
<VARIANCE> 39
 4.784694e+01 3.327155e+01 7.006465e+01 5.591838e+01 5.564574e+01 6.485609e+01 6.785540e+01 4.352866e+01 2.511875e+01 8.559826e+01 3.172045e+01 2.961125e+01 2.263636e+01 3.503929e+00 2.876793e+00 4.340755e+00 3.235099e+00 3.494179e+00 6.002892e+00 4.114146e+00 3.590404e+00 2.651494e+00 3.238502e+00 1.777509e+00 1.875909e+00 2.453727e+00 3.929532e-01 6.745948e-01 7.331493e-01 5.701005e-01 5.711671e-01 6.318086e-01 7.598251e-01 4.989563e-01 4.801524e-01 5.667006e-01 3.594862e-01 3.579068e-01 2.550015e-01
<GCONST> 1.271762e+02
<TRANSP> 5
 0.000000e+00 1.000000e+00 0.000000e+00 0.000000e+00 0.000000e+00
 0.000000e+00 6.165504e-01 3.834496e-01 0.000000e+00 0.000000e+00
 0.000000e+00 0.000000e+00 6.788157e-01 3.211843e-01 0.000000e+00
 0.000000e+00 0.000000e+00 0.000000e+00 4.726957e-01 5.273043e-01
 0.000000e+00 0.000000e+00 0.000000e+00 0.000000e+00 0.000000e+00
<ENDHMM>
~h "z"
<BEGINHMM>
<NUMSTATES> 5
<STATE> 2
<MEAN> 39
 2.136439e+00 -1.681267e+01 3.102245e+01 -1.758234e+01 4.547658e+00 1.387118e+01 -8.582756e+00 4.042515e-01 -2.223487e+01 5.340578e+00 -4.544778e+00 -4.116621e+00 7.589024e+01 -3.962557e-01 -1.316228e-01 5.639153e-01 -5.859534e-01 1.111504e-01 8.064955e-01 1.553974e-01 -2.107699e-01 -8.172726e-02 7.460629e-03 -2.549892e-01 2.010567e-01 -1.812925e-03 6.221759e-01 1.111826e-01 -1.227094e+00 5.252553e-01 1.277672e-01 -7.317629e-01 -3.077931e-01 1.428214e-01 1.159048e-01 -1.870326e-01 2.776677e-01 -5.878268e-02 -3.390737e-02
<VARIANCE> 39
 3.625553e+01 1.708501e+01 8.254750e+01 4.321244e+01 3.668291e+01 4.897457e+01 4.421364e+01 4.957779e+01 3.465656e+01 2.685175e+01 2.753408e+01 2.016682e+01 2.331017e+01 6.393285e+00 1.764197e+00 1.866892e+01 5.353251e+00 2.412006e+00 6.876517e+00 2.867665e+00 3.006240e+00 2.117492e+00 2.276185e+00 2.257417e+00 1.729714e+00 9.791865e-01 6.469491e-01 3.145126e-01 1.579404e+00 6.882378e-01 3.485953e-01 7.311470e-01 4.260870e-01 5.891105e-01 4.130248e-01 4.298091e-01 3.855608e-01 3.485545e-01 1.500136e-01
<GCONST> 1.227892e+02
<STATE> 3
<MEAN> 39
 7.377214e+00 -1.531979e+01 1.998240e+01 -1.277126e+01 8.284063e+00 1.289977e+01 -1.133436e+01 -1.452714e+00 -2.023055e+01 3.532771e+00 -4.487372e+00 -5.408044e+00 7.388508e+01 2.083824e+00 2.167957e-01 -4.189905e+00 1.172929e+00 -1.678203e-02 -1.861589e+00 -3.659535e-01 6.328790e-01 3.016661e-01 -6.080940e-01 8.958029e-01 -3.436889e-02 1.214742e-01 -1.430791e-01 -1.856444e-01 1.992341e-01 -3.057693e-01 -2.957679e-01 -4.604858e-01 1.703691e-01 5.463333e-01 -1.571636e-02 1.832655e-01 3.683559e-01 3.473433e-01 2.098064e-01
<VARIANCE> 39
 3.966908e+01 1.896477e+01 9.824734e+01 3.942056e+01 3.848543e+01 3.588741e+01 2.935219e+01 4.599684e+01 2.643871e+01 3.470033e+01 2.462419e+01 1.812245e+01 3.153924e+01 2.298518e+00 1.618815e+00 9.038586e+00 4.990417e+00 2.431586e+00 5.522824e+00 2.393367e+00 3.519379e+00 2.480841e+00 2.138944e+00 2.031412e+00 2.543382e+00 1.076255e+00 4.242936e-01 3.023750e-01 1.218805e+00 1.263123e+00 5.691608e-01 5.524841e-01 3.270163e-01 6.277739e-01 3.721645e-01 4.535699e-01 3.461807e-01 5.441152e-01 1.914670e-01
<GCONST> 1.211468e+02
<STATE> 4
<MEAN> 39
 1.019735e+01 -1.604496e+01 1.215470e+01 -1.256662e+01 5.687955e+00 5.232997e+00 -1.008453e+01 3.960205e+00 -2.018464e+01 2.636053e+00 -2.957744e-01 -2.017802e+00 7.505515e+01 1.229303e+00 -1.428453e-01 -2.736713e+00 3.964654e-01 -9.118125e-02 -2.118784e+00 -2.008747e-01 1.039392e+00 1.532166e-01 3.806552e-02 1.374853e+00 7.444140e-01 3.298378e-01 -4.172063e-01 -8.867483e-02 8.947622e-01 -2.750554e-01 -7.846113e-02 3.925344e-01 8.741279e-02 -2.757784e-02 9.016717e-02 1.487651e-01 -7.462139e-02 9.446152e-02 7.899741e-03
<VARIANCE> 39
 4.041699e+01 1.930126e+01 1.000886e+02 2.035818e+01 2.415525e+01 5.591304e+01 2.698129e+01 6.283379e+01 3.875655e+01 2.577519e+01 2.325808e+01 3.161031e+01 3.589233e+01 1.718513e+00 1.697641e+00 9.194226e+00 3.978059e+00 2.366791e+00 5.170574e+00 2.108839e+00 4.313651e+00 2.446998e+00 2.213384e+00 2.130021e+00 2.825104e+00 1.130349e+00 2.869969e-01 3.219347e-01 7.681787e-01 4.223808e-01 3.681605e-01 7.335752e-01 3.060141e-01 4.487729e-01 4.474993e-01 3.548040e-01 4.243058e-01 4.060159e-01 1.760779e-01
<GCONST> 1.185391e+02
<TRANSP> 5
 0.000000e+00 1.000000e+00 0.000000e+00 0.000000e+00 0.000000e+00
 0.000000e+00 8.182930e-01 1.817071e-01 0.000000e+00 0.000000e+00
 0.000000e+00 0.000000e+00 3.768607e-01 6.231393e-01 0.000000e+00
 0.000000e+00 0.000000e+00 0.000000e+00 3.098033e-01 6.901967e-01
 0.000000e+00 0.000000e+00 0.000000e+00 0.000000e+00 0.000000e+00
<ENDHMM>
~h "aa"
<BEGINHMM>
<NUMSTATES> 5
<STATE> 2
<MEAN> 39
 1.462390e+01 -1.705792e+01 -9.015388e-01 -1.801478e+01 -1.266643e-01 -3.135531e+00 -6.047375e+00 1.481255e+01 -1.137570e+01 1.634801e+00 7.969961e-01 3.220013e+00 7.881976e+01 5.994814e-03 -1.160861e-01 -1.947069e-01 -3.012929e-01 -2.625609e-01 3.406031e-02 5.483608e-01 3.871421e-01 3.071727e-01 1.287497e-01 -2.802030e-01 1.481766e-01 7.151257e-03 -3.485535e-02 9.592107e-02 2.749849e-01 2.011476e-01 2.257961e-01 1.131946e-01 -2.158116e-01 -2.661800e-01 -2.171298e-01 5.309244e-02 1.809280e-02 -1.644295e-01 -1.406445e-01
<VARIANCE> 39
 5.490388e+00 1.264119e+01 2.488045e+01 1.801780e+01 2.508551e+01 3.206761e+01 2.420368e+01 4.083895e+01 4.017017e+01 5.321549e+01 2.699112e+01 1.993803e+01 1.868057e+01 3.027539e-01 7.287252e-01 1.322413e+00 1.096531e+00 1.188778e+00 1.118231e+00 1.569026e+00 1.430382e+00 1.772657e+00 1.591771e+00 1.170574e+00 9.850720e-01 2.416216e-01 7.453149e-02 1.385010e-01 2.404905e-01 1.837862e-01 1.841941e-01 2.585211e-01 2.090695e-01 2.387835e-01 2.930045e-01 3.161414e-01 2.417509e-01 2.130333e-01 4.155995e-02
<GCONST> 8.994456e+01
<STATE> 3
<MEAN> 39
 1.464412e+01 -1.778860e+01 1.379462e+00 -1.761982e+01 2.059284e-01 -3.730766e+00 -5.255602e+00 1.464904e+01 -1.414108e+01 3.422251e+00 1.037876e+00 3.147019e+00 7.835435e+01 -2.619019e-01 5.339237e-01 1.327996e+00 8.419411e-01 6.865315e-01 6.913922e-01 -4.406366e-01 -1.072555e+00 -8.420713e-01 5.748270e-01 2.710162e-01 -8.417869e-01 -9.202532e-01 -3.620002e-01 3.052438e-01 5.585633e-01 4.088039e-01 2.422631e-01 7.368855e-01 -1.228503e-01 -4.341778e-01 1.649428e-01 -1.271598e-01 -1.387536e-01 -3.979349e-01 -4.117907e-01
<VARIANCE> 39
 1.013847e+01 1.476216e+01 2.772832e+01 1.770849e+01 2.891363e+01 3.308910e+01 3.030539e+01 3.827435e+01 4.054970e+01 5.625406e+01 1.915661e+01 2.326270e+01 2.338499e+01 8.339669e-01 1.445363e+00 2.558267e+00 2.216463e+00 2.231562e+00 2.439751e+00 2.327915e+00 2.155319e+00 2.478787e+00 3.587349e+00 2.010299e+00 1.879811e+00 7.795429e-01 1.555963e-01 1.894259e-01 5.294898e-01 3.443459e-01 4.165205e-01 3.947883e-01 3.283829e-01 3.737407e-01 5.397844e-01 5.678270e-01 2.572061e-01 4.049838e-01 1.012509e-01
<GCONST> 1.074172e+02
<STATE> 4
<MEAN> 39
 1.176013e+01 -1.374594e+01 4.640840e+00 -1.436476e+01 1.349567e+00 1.140401e+00 -6.587854e+00 1.063166e+01 -1.236294e+01 4.229096e+00 1.642719e+00 3.318292e-01 7.265966e+01 -1.187541e+00 9.645591e-01 1.968311e+00 1.553295e+00 1.109657e+00 2.063413e+00 -5.424719e-01 -1.426019e+00 2.801741e-02 -8.327061e-02 -3.870981e-01 -1.428372e+00 -1.711720e+00 -2.937357e-01 -1.423851e-01 3.027993e-01 -5.781159e-03 6.278244e-02 1.676115e-01 -5.758965e-03 1.359534e-01 1.130080e-01 -1.745965e-01 -1.878270e-01 2.879463e-02 -2.105869e-02
<VARIANCE> 39
 2.982652e+01 2.313144e+01 3.439716e+01 2.338955e+01 3.500176e+01 5.462662e+01 3.445998e+01 2.475504e+01 4.616278e+01 3.340186e+01 2.209151e+01 2.243442e+01 5.418520e+01 1.165936e+00 1.392302e+00 4.202747e+00 2.387713e+00 2.937359e+00 3.832688e+00 2.228153e+00 3.209818e+00 3.202438e+00 4.454084e+00 2.066421e+00 3.034865e+00 1.098753e+00 3.142612e-01 2.629165e-01 7.686381e-01 2.716731e-01 2.593278e-01 7.236331e-01 3.417613e-01 3.198996e-01 5.239844e-01 3.714953e-01 3.760301e-01 2.918116e-01 1.945802e-01
<GCONST> 1.150853e+02
<TRANSP> 5
 0.000000e+00 1.000000e+00 0.000000e+00 0.000000e+00 0.000000e+00
 0.000000e+00 8.600040e-01 1.399961e-01 0.000000e+00 0.000000e+00
 0.000000e+00 0.000000e+00 5.325400e-01 4.674600e-01 0.000000e+00
 0.000000e+00 0.000000e+00 0.000000e+00 3.894707e-01 6.105293e-01
 0.000000e+00 0.000000e+00 0.000000e+00 0.000000e+00 0.000000e+00
<ENDHMM>
~h "aw"
<BEGINHMM>
<NUMSTATES> 5
<STATE> 2
<MEAN> 39
 -7.474797e-01 -1.372438e+01 1.363240e+01 -7.800015e+00 3.957401e+00 4.912278e+00 -9.313604e+00 9.542570e+00 -9.857509e+00 3.919184e+00 1.996032e+00 -2.240039e+00 6.241040e+01 -1.802149e-04 -4.002908e-04 -4.533151e-04 -6.255359e-04 3.060046e-04 -9.756409e-05 3.545313e-04 3.676544e-04 -3.322966e-04 2.823267e-04 3.441859e-04 -7.776468e-06 1.221478e-04 -1.140098e-05 1.280875e-04 8.513568e-05 5.610451e-05 1.307168e-04 1.258145e-04 -3.556004e-04 -3.413941e-04 -2.462322e-04 -2.982411e-04 -2.002541e-04 1.479088e-04 -5.553468e-05
<VARIANCE> 39
 7.885750e+01 3.150516e+01 5.932858e+01 4.002160e+01 3.388152e+01 4.450462e+01 4.196474e+01 3.377337e+01 5.805833e+01 2.700758e+01 1.807174e+01 1.807939e+01 1.000320e+02 2.049164e+00 1.868461e+00 3.042747e+00 2.325078e+00 1.845033e+00 2.917301e+00 2.107786e+00 2.084596e+00 2.106791e+00 1.946175e+00 1.426612e+00 1.517214e+00 1.393703e+00 2.791751e-01 3.309114e-01 4.813313e-01 4.079526e-01 3.174572e-01 5.210913e-01 3.729059e-01 3.905098e-01 3.965955e-01 3.683704e-01 2.743881e-01 2.959611e-01 2.159844e-01
<GCONST> 1.148699e+02
<STATE> 3
<MEAN> 39
 -7.474797e-01 -1.372438e+01 1.363240e+01 -7.800015e+00 3.957401e+00 4.912278e+00 -9.313604e+00 9.542570e+00 -9.857509e+00 3.919184e+00 1.996032e+00 -2.240039e+00 6.241040e+01 -1.802149e-04 -4.002908e-04 -4.533151e-04 -6.255359e-04 3.060046e-04 -9.756409e-05 3.545313e-04 3.676544e-04 -3.322966e-04 2.823267e-04 3.441859e-04 -7.776468e-06 1.221478e-04 -1.140098e-05 1.280875e-04 8.513568e-05 5.610451e-05 1.307168e-04 1.258145e-04 -3.556004e-04 -3.413941e-04 -2.462322e-04 -2.982411e-04 -2.002541e-04 1.479088e-04 -5.553468e-05
<VARIANCE> 39
 7.885750e+01 3.150516e+01 5.932858e+01 4.002160e+01 3.388152e+01 4.450462e+01 4.196474e+01 3.377337e+01 5.805833e+01 2.700758e+01 1.807174e+01 1.807939e+01 1.000320e+02 2.049164e+00 1.868461e+00 3.042747e+00 2.325078e+00 1.845033e+00 2.917301e+00 2.107786e+00 2.084596e+00 2.106791e+00 1.946175e+00 1.426612e+00 1.517214e+00 1.393703e+00 2.791751e-01 3.309114e-01 4.813313e-01 4.079526e-01 3.174572e-01 5.210913e-01 3.729059e-01 3.905098e-01 3.965955e-01 3.683704e-01 2.743881e-01 2.959611e-01 2.159844e-01
<GCONST> 1.148699e+02
<STATE> 4
<MEAN> 39
 -7.474797e-01 -1.372438e+01 1.363240e+01 -7.800015e+00 3.957401e+00 4.912278e+00 -9.313604e+00 9.542570e+00 -9.857509e+00 3.919184e+00 1.996032e+00 -2.240039e+00 6.241040e+01 -1.802149e-04 -4.002908e-04 -4.533151e-04 -6.255359e-04 3.060046e-04 -9.756409e-05 3.545313e-04 3.676544e-04 -3.322966e-04 2.823267e-04 3.441859e-04 -7.776468e-06 1.221478e-04 -1.140098e-05 1.280875e-04 8.513568e-05 5.610451e-05 1.307168e-04 1.258145e-04 -3.556004e-04 -3.413941e-04 -2.462322e-04 -2.982411e-04 -2.002541e-04 1.479088e-04 -5.553468e-05
<VARIANCE> 39
 7.885750e+01 3.150516e+01 5.932858e+01 4.002160e+01 3.388152e+01 4.450462e+01 4.196474e+01 3.377337e+01 5.805833e+01 2.700758e+01 1.807174e+01 1.807939e+01 1.000320e+02 2.049164e+00 1.868461e+00 3.042747e+00 2.325078e+00 1.845033e+00 2.917301e+00 2.107786e+00 2.084596e+00 2.106791e+00 1.946175e+00 1.426612e+00 1.517214e+00 1.393703e+00 2.791751e-01 3.309114e-01 4.813313e-01 4.079526e-01 3.174572e-01 5.210913e-01 3.729059e-01 3.905098e-01 3.965955e-01 3.683704e-01 2.743881e-01 2.959611e-01 2.159844e-01
<GCONST> 1.148699e+02
<TRANSP> 5
 0.000000e+00 1.000000e+00 0.000000e+00 0.000000e+00 0.000000e+00
 0.000000e+00 6.000000e-01 4.000000e-01 0.000000e+00 0.000000e+00
 0.000000e+00 0.000000e+00 6.000000e-01 4.000000e-01 0.000000e+00
 0.000000e+00 0.000000e+00 0.000000e+00 7.000000e-01 3.000000e-01
 0.000000e+00 0.000000e+00 0.000000e+00 0.000000e+00 0.000000e+00
<ENDHMM>
~h "ch"
<BEGINHMM>
<NUMSTATES> 5
<STATE> 2
<MEAN> 39
 -2.764129e+00 -2.168533e+01 2.155918e+01 -3.228627e+00 3.147236e+00 5.916468e+00 -1.226083e+01 7.893937e+00 -1.181629e+01 -1.085795e-01 1.461339e+00 -1.274872e+00 6.618326e+01 -1.932355e+00 -3.194109e+00 6.860288e-01 -1.247123e+00 -1.100506e+00 2.156641e-01 1.117988e-01 9.627416e-01 8.636522e-01 -6.845686e-01 -5.704370e-01 5.940112e-01 1.021646e+00 -1.054269e-02 -5.289111e-01 3.239506e-02 -3.907326e-01 1.461410e-01 -3.109940e-01 -3.390900e-01 -1.095678e-01 -2.280928e-01 3.395703e-01 2.385684e-02 -1.444059e-01 6.970553e-01
<VARIANCE> 39
 3.397661e+01 7.440338e+01 5.413750e+01 2.679795e+01 2.964878e+01 1.994472e+01 3.293360e+01 3.892964e+01 3.445831e+01 2.638201e+01 1.779403e+01 1.421300e+01 4.299266e+01 4.484664e+00 7.424642e+00 6.288858e+00 3.985073e+00 3.289747e+00 2.738833e+00 3.322143e+00 2.484224e+00 3.173097e+00 2.389540e+00 1.485459e+00 1.149646e+00 4.849474e+00 4.155889e-01 1.537573e+00 1.246207e+00 4.596961e-01 5.888990e-01 5.683067e-01 5.628414e-01 5.725144e-01 5.334066e-01 5.011066e-01 3.760127e-01 2.482688e-01 6.431224e-01
<GCONST> 1.242487e+02
<STATE> 3
<MEAN> 39
 -9.080094e+00 -3.511095e+01 2.604357e+01 -1.044619e+01 2.524175e+00 4.981561e+00 -1.541583e+01 9.047214e+00 -1.046744e+01 2.186982e+00 1.526145e-01 -4.481814e-01 7.607594e+01 4.568703e-01 9.976714e-02 6.539434e-03 -3.926890e-01 2.402605e-01 2.547653e-02 -4.162312e-01 -7.048880e-01 5.832389e-04 7.627477e-01 2.231579e-01 -1.114177e-01 6.618968e-01 9.912158e-01 1.195777e+00 -5.018489e-01 5.803272e-01 2.438700e-01 1.671356e-02 9.743670e-02 -2.580545e-01 -2.206906e-01 -1.215874e-01 1.302095e-01 -1.394449e-01 -4.381318e-01
<VARIANCE> 39
 1.165022e+01 1.492253e+01 2.321837e+01 2.783073e+01 2.757462e+01 2.346314e+01 3.379243e+01 2.959197e+01 2.672797e+01 2.408195e+01 1.689427e+01 1.570246e+01 1.541759e+01 4.760284e+00 6.143235e+00 2.995075e+00 3.331313e+00 2.737069e+00 1.990183e+00 3.137977e+00 3.044346e+00 2.757605e+00 2.661069e+00 1.958681e+00 1.268203e+00 2.047659e+00 3.291668e-01 3.720388e-01 5.467359e-01 5.478449e-01 5.531272e-01 3.863940e-01 5.344930e-01 5.914911e-01 5.070499e-01 5.027061e-01 3.632212e-01 2.545204e-01 2.024934e-01
<GCONST> 1.133725e+02
<STATE> 4
<MEAN> 39
 3.560216e+00 -2.409722e+01 2.135253e+01 -5.709743e+00 6.551925e+00 4.876762e+00 -1.710630e+01 3.451018e+00 -1.289118e+01 4.841525e+00 2.728697e+00 -2.873202e+00 7.555673e+01 4.165078e+00 3.246886e+00 -3.017627e+00 1.506574e+00 1.647473e+00 -1.397753e+00 -6.859341e-01 -4.868922e-01 -1.543607e+00 -2.857129e-01 6.389142e-01 -6.422677e-01 -7.690119e-02 -3.315216e-01 -4.621838e-01 -4.707357e-01 -1.967390e-01 1.831720e-02 -6.363673e-01 -1.708308e-01 5.837077e-01 -9.642828e-02 -3.263047e-01 -3.568788e-02 1.631735e-01 1.328123e-01
<VARIANCE> 39
 4.923156e+01 3.738522e+01 5.805109e+01 2.807716e+01 2.386668e+01 2.874678e+01 4.403809e+01 2.723313e+01 3.320115e+01 3.280531e+01 2.359768e+01 1.773813e+01 2.400215e+01 2.597042e+00 3.170320e+00 3.874338e+00 2.493769e+00 2.993605e+00 3.476856e+00 3.827670e+00 3.338962e+00 4.206858e+00 2.891765e+00 2.141640e+00 1.808626e+00 1.420011e+00 8.148090e-01 6.471983e-01 7.788321e-01 4.170623e-01 4.604947e-01 4.613221e-01 5.425150e-01 4.685969e-01 6.445884e-01 3.917651e-01 3.181810e-01 3.642161e-01 2.142835e-01
<GCONST> 1.201354e+02
<TRANSP> 5
 0.000000e+00 1.000000e+00 0.000000e+00 0.000000e+00 0.000000e+00
 0.000000e+00 7.447007e-01 2.552993e-01 0.000000e+00 0.000000e+00
 0.000000e+00 0.000000e+00 8.213302e-01 1.786699e-01 0.000000e+00
 0.000000e+00 0.000000e+00 0.000000e+00 6.223005e-01 3.776995e-01
 0.000000e+00 0.000000e+00 0.000000e+00 0.000000e+00 0.000000e+00
<ENDHMM>
~h "dj"
<BEGINHMM>
<NUMSTATES> 5
<STATE> 2
<MEAN> 39
 9.168080e+00 -1.452821e+01 1.495840e+01 -3.596534e+00 9.586996e+00 7.337952e-03 -1.355886e+01 7.304039e+00 -1.798612e+01 8.862460e-01 -7.523840e-01 -3.357218e+00 7.186002e+01 -1.521213e-01 -1.208494e+00 1.137394e+00 7.805141e-01 1.220070e+00 9.375887e-01 -9.752179e-01 3.317325e-02 1.904684e-01 -5.357786e-01 -3.226200e-01 4.562655e-02 3.066271e-01 8.665198e-02 -2.734103e-01 4.116069e-02 3.204705e-01 2.908555e-01 -1.882386e-01 -5.525559e-01 -2.383722e-01 -1.169969e-02 1.767320e-01 5.034483e-02 -8.237550e-02 1.153790e-01
<VARIANCE> 39
 2.661369e+01 2.726071e+01 8.157812e+01 4.364783e+01 4.686663e+01 5.670863e+01 5.220823e+01 5.883836e+01 4.539766e+01 6.596290e+01 2.190642e+01 3.525055e+01 2.895931e+01 9.310722e-01 3.876118e+00 2.786262e+00 4.680511e+00 5.426442e+00 4.019980e+00 5.728248e+00 2.358092e+00 3.189936e+00 5.038887e+00 2.288057e+00 1.597102e+00 4.435258e+00 2.789513e-01 6.455849e-01 5.107650e-01 5.226035e-01 7.097062e-01 7.170715e-01 6.900250e-01 9.299198e-01 9.596899e-01 6.651871e-01 3.177775e-01 3.918428e-01 5.122707e-01
<GCONST> 1.281215e+02
<STATE> 3
<MEAN> 39
 9.274589e+00 -1.836395e+01 1.806278e+01 -2.534085e+00 1.249191e+01 1.446499e+00 -1.835950e+01 4.934497e+00 -1.768953e+01 2.586554e-01 -6.888668e-01 -2.028801e+00 7.393880e+01 5.371368e-01 -7.335548e-01 4.585949e-02 1.751225e+00 1.709559e+00 -7.876045e-01 -1.834157e+00 -4.778918e-01 -4.036167e-01 -1.799187e-04 1.780966e-01 -2.040395e-01 4.904037e-01 -1.174393e-02 4.863222e-01 -5.266476e-01 2.910271e-01 -2.264585e-01 -5.533902e-01 -5.314027e-02 -4.735728e-02 1.197514e-01 3.516335e-02 2.440415e-01 -1.052629e-01 -2.675981e-01
<VARIANCE> 39
 2.500136e+01 2.437382e+01 7.855521e+01 7.183297e+01 5.357834e+01 5.634775e+01 5.767341e+01 3.788476e+01 3.982951e+01 3.233635e+01 2.489369e+01 3.636324e+01 1.624313e+01 2.550767e+00 1.999232e+00 4.605564e+00 2.740456e+00 4.124724e+00 6.048802e+00 3.331743e+00 3.354298e+00 7.839942e+00 3.374736e+00 2.019696e+00 1.720480e+00 3.013857e+00 3.359919e-01 4.828970e-01 6.023721e-01 8.762358e-01 8.997101e-01 8.715937e-01 7.715996e-01 5.107200e-01 8.408637e-01 8.360958e-01 4.758257e-01 3.519905e-01 4.744200e-01
<GCONST> 1.280891e+02
<STATE> 4
<MEAN> 39
 1.132128e+01 -1.752574e+01 1.168707e+01 -1.950024e+00 1.320788e+01 -2.353216e+00 -2.126644e+01 2.924539e+00 -2.136254e+01 -9.619028e-01 3.430715e+00 -2.758743e+00 7.598572e+01 -2.284759e-01 4.294480e-01 1.548675e-01 2.574426e-01 -2.135363e-01 -8.883455e-02 9.530459e-02 3.531877e-01 4.784935e-01 2.518312e-02 2.911286e-01 -1.829241e-01 -2.923036e-01 -7.152428e-02 2.752788e-01 2.242977e-01 -2.487759e-01 -3.124331e-01 2.391917e-01 3.517233e-01 1.935895e-01 2.881196e-01 2.485482e-02 -1.790574e-01 3.838561e-02 -2.750712e-01
<VARIANCE> 39
 1.363552e+01 1.360713e+01 7.770859e+01 5.247314e+01 4.462570e+01 2.021639e+01 4.232909e+01 3.492718e+01 4.048216e+01 4.391539e+01 4.030825e+01 2.277538e+01 1.747228e+01 4.057530e-01 1.168250e+00 2.217567e+00 3.503912e+00 2.212660e+00 2.284728e+00 2.951868e+00 2.542402e+00 3.381537e+00 2.165813e+00 2.268932e+00 1.992528e+00 1.140072e+00 9.383602e-02 1.991285e-01 4.058868e-01 3.751329e-01 4.453647e-01 4.409169e-01 5.258917e-01 2.503446e-01 5.182274e-01 5.928857e-01 3.046869e-01 2.448907e-01 1.809710e-01
<GCONST> 1.100516e+02
<TRANSP> 5
 0.000000e+00 1.000000e+00 0.000000e+00 0.000000e+00 0.000000e+00
 0.000000e+00 2.987405e-01 7.012595e-01 0.000000e+00 0.000000e+00
 0.000000e+00 0.000000e+00 3.578724e-01 6.421276e-01 0.000000e+00
 0.000000e+00 0.000000e+00 0.000000e+00 6.094033e-01 3.905967e-01
 0.000000e+00 0.000000e+00 0.000000e+00 0.000000e+00 0.000000e+00
<ENDHMM>
~h "ee"
<BEGINHMM>
<NUMSTATES> 5
<STATE> 2
<MEAN> 39
