~o
<STREAMINFO> 1 39
<VECSIZE> 39<NULLD><MFCC_D_A_0><DIAGC>
~s "silst"
<MEAN> 39
 -5.416126e+00 -1.348213e+01 1.357813e+01 -9.458880e+00 1.913020e+00 7.084541e+00 -7.305239e+00 1.061242e+01 -7.889043e+00 5.784609e+00 3.238902e+00 -1.065998e+00 5.719640e+01 -1.694037e-01 7.486715e-02 6.431752e-03 1.898428e-01 5.170351e-02 7.550468e-02 7.689365e-02 3.003680e-03 5.629486e-02 -9.022716e-02 -1.553521e-02 -4.046056e-02 -1.987479e-01 7.299008e-02 7.837170e-02 -1.026847e-01 1.470276e-01 1.299227e-02 5.517417e-02 2.802379e-02 -5.201121e-02 1.151771e-01 -8.372855e-02 -1.047538e-02 -3.439409e-02 -4.559517e-02
<VARIANCE> 39
 1.311280e+01 1.495742e+01 2.440227e+01 1.948362e+01 1.597931e+01 2.358388e+01 1.656851e+01 2.603875e+01 2.149548e+01 1.774881e+01 1.413464e+01 1.143003e+01 7.222012e+00 6.863922e-01 1.418549e+00 2.282319e+00 2.106928e+00 1.324567e+00 2.172536e+00 1.496586e+00 1.895195e+00 2.360644e+00 1.763463e+00 1.248086e+00 1.066767e+00 7.560701e-01 9.905878e-02 2.465162e-01 4.383456e-01 3.811455e-01 2.656541e-01 4.254114e-01 2.976383e-01 3.663678e-01 4.557847e-01 3.485219e-01 2.470518e-01 2.147921e-01 1.276608e-01
<GCONST> 9.646907e+01
~h "a"
<BEGINHMM>
<NUMSTATES> 5
<STATE> 2
<MEAN> 39
 8.583771e+00 -1.604762e+01 7.121672e+00 -1.420095e+01 1.510810e+00 3.394381e-01 -8.985263e+00 9.152185e+00 -1.434173e+01 4.323287e+00 1.590417e+00 7.560626e-01 7.170374e+01 2.045517e+00 -2.887394e-01 -1.941435e+00 -4.045504e-01 -2.666175e-02 -1.906276e+00 4.112376e-01 5.539092e-01 -8.747404e-01 4.405940e-01 3.120277e-01 4.421877e-01 1.791334e+00 -2.693780e-01 1.209375e-01 2.339438e-01 3.488664e-01 2.599159e-01 2.920981e-01 4.517215e-02 -1.122292e-01 1.110445e-01 4.455044e-02 -5.892879e-02 -2.032242e-01 -2.919194e-01
<VARIANCE> 39
 6.751811e+01 2.304644e+01 5.812154e+01 3.338757e+01 3.966331e+01 5.963231e+01 4.653003e+01 5.111387e+01 5.729955e+01 3.401176e+01 2.626356e+01 1.933403e+01 8.359757e+01 4.687828e+00 2.480141e+00 5.769698e+00 3.782179e+00 3.009686e+00 5.562001e+00 3.722751e+00 3.708495e+00 3.185957e+00 3.159508e+00 2.548245e+00 2.020139e+00 4.028161e+00 1.013706e+00 5.887463e-01 1.258842e+00 8.016638e-01 5.911294e-01 1.225267e+00 6.708097e-01 6.669065e-01 6.286281e-01 5.604283e-01 5.157586e-01 4.793799e-01 8.566195e-01
<GCONST> 1.324625e+02
<STATE> 3
<MEAN> 39
 1.480629e+01 -1.767418e+01 2.054353e+00 -1.432308e+01 3.398903e+00 -5.483673e+00 -9.909639e+00 9.649213e+00 -1.774414e+01 5.147421e+00 3.034008e+00 1.843485e+00 7.816568e+01 -2.833515e-01 1.862011e-01 6.004094e-01 4.483643e-01 3.382444e-01 6.982377e-01 3.111413e-01 -3.323640e-01 7.242086e-04 2.489114e-01 -6.023066e-02 -2.103374e-01 -3.657627e-01 -6.334252e-01 2.945960e-01 9.281845e-01 2.142958e-01 7.122216e-02 9.944766e-01 -6.212403e-02 -2.853312e-01 3.604371e-01 -2.365146e-01 -3.289287e-01 -3.482493e-01 -6.592101e-01
<VARIANCE> 39
 5.142775e+00 1.363502e+01 3.589919e+01 2.185248e+01 4.107539e+01 2.844327e+01 4.056739e+01 5.876633e+01 5.738423e+01 4.693378e+01 2.901050e+01 2.231919e+01 1.371782e+01 9.337856e-01 1.623712e+00 5.077504e+00 2.023573e+00 2.475056e+00 3.696983e+00 3.184083e+00 2.383092e+00 2.693937e+00 3.125102e+00 2.050221e+00 2.014070e+00 1.416739e+00 3.543566e-01 3.014269e-01 6.746107e-01 4.490362e-01 4.475163e-01 6.148218e-01 4.321060e-01 5.580747e-01 6.183008e-01 6.298881e-01 3.785643e-01 4.844427e-01 2.298118e-01
<GCONST> 1.150524e+02
<STATE> 4
<MEAN> 39
 1.118830e+01 -1.424596e+01 7.503786e+00 -1.325625e+01 3.061788e+00 1.231112e+00 -7.908208e+00 8.441702e+00 -1.604406e+01 4.789211e+00 2.476525e+00 -7.888459e-02 7.309314e+01 -1.812418e+00 1.092614e+00 1.992381e+00 8.530480e-01 4.449432e-02 2.411478e+00 4.756175e-02 -5.544418e-01 1.219907e+00 -7.465498e-01 -5.669825e-01 -7.988279e-01 -2.183566e+00 -3.168166e-01 -1.989814e-01 4.492714e-02 2.589603e-02 -2.479787e-02 -1.340775e-01 -3.242376e-01 2.776104e-02 1.526040e-01 -1.771954e-01 -6.249277e-02 6.473168e-03 -9.823251e-02
<VARIANCE> 39
 1.622169e+01 2.032609e+01 5.464014e+01 3.270251e+01 4.974842e+01 4.582967e+01 5.181311e+01 6.413790e+01 5.458945e+01 5.320198e+01 3.004661e+01 2.314353e+01 3.175283e+01 2.176968e+00 2.395207e+00 5.898191e+00 3.178717e+00 3.807797e+00 4.710723e+00 3.388748e+00 3.666620e+00 3.480590e+00 3.935611e+00 2.224720e+00 3.417855e+00 2.402505e+00 3.027498e-01 3.438588e-01 8.646497e-01 4.273411e-01 4.212860e-01 6.087967e-01 5.159343e-01 4.932050e-01 5.601381e-01 6.559941e-01 3.369034e-01 4.052292e-01 2.545367e-01
<GCONST> 1.239442e+02
<TRANSP> 5
 0.000000e+00 1.000000e+00 0.000000e+00 0.000000e+00 0.000000e+00
 0.000000e+00 4.927122e-01 5.072877e-01 0.000000e+00 0.000000e+00
 0.000000e+00 0.000000e+00 6.322374e-01 3.677627e-01 0.000000e+00
 0.000000e+00 0.000000e+00 0.000000e+00 3.912762e-01 6.087238e-01
 0.000000e+00 0.000000e+00 0.000000e+00 0.000000e+00 0.000000e+00
<ENDHMM>
~h "b"
<BEGINHMM>
<NUMSTATES> 5
<STATE> 2
<MEAN> 39
 8.676581e+00 -2.345560e+00 1.583921e+01 -2.572657e+00 7.557965e+00 7.487541e+00 -9.099107e+00 8.028965e+00 -1.055670e+01 -1.049330e+00 -1.662761e+00 -4.355114e+00 6.280635e+01 -3.751573e-01 -8.870228e-02 1.051478e+00 -4.624382e-02 -3.030309e-02 9.516544e-01 9.905625e-02 -5.169940e-01 -7.814825e-02 3.969721e-01 -1.528928e-01 -2.483376e-01 -1.017378e-01 2.476288e-01 -1.102689e+00 -4.415053e-01 -5.171682e-01 -8.305910e-02 -8.202323e-01 -4.280336e-01 2.203760e-02 -6.999104e-01 -5.825618e-02 6.311065e-02 3.878843e-02 9.565889e-01
<VARIANCE> 39
 1.827051e+01 1.077062e+01 1.991481e+01 1.193417e+01 1.383309e+01 1.142129e+01 1.377733e+01 2.185197e+01 1.637532e+01 2.132402e+01 1.503013e+01 1.318420e+01 1.091725e+01 1.099122e+00 4.659791e+00 1.829553e+00 2.382668e+00 1.976757e+00 2.528089e+00 1.375530e+00 1.707506e+00 2.395864e+00 1.558441e+00 1.159875e+00 1.150482e+00 2.648277e+00 1.600020e-01 4.532832e-01 3.810640e-01 4.217516e-01 4.239475e-01 4.646079e-01 3.765358e-01 3.414117e-01 5.211500e-01 4.047809e-01 3.112260e-01 3.173469e-01 3.177055e-01
<GCONST> 1.017377e+02
<STATE> 3
<MEAN> 39
 8.482704e+00 -8.582804e+00 1.706854e+01 -6.220503e+00 5.737476e+00 8.833598e+00 -8.186759e+00 7.042374e+00 -1.355317e+01 -7.331035e-01 -2.723215e+00 -4.784281e+00 6.702319e+01 9.256942e-01 -3.344295e+00 -1.305535e+00 -1.159546e+00 4.177324e-02 -1.868215e+00 -1.465898e+00 -3.820897e-01 -2.157507e+00 -4.226968e-01 -1.686641e-02 -1.620880e-01 2.964164e+00 4.851136e-01 -1.596168e-01 -7.526732e-01 5.036045e-01 4.616823e-01 -1.354664e+00 -8.652818e-01 3.914073e-02 -4.144254e-01 -2.410841e-01 3.408002e-01 -4.510087e-03 5.034209e-01
<VARIANCE> 39
 1.043210e+01 3.546977e+01 2.836437e+01 2.010811e+01 1.753826e+01 2.307177e+01 1.388390e+01 3.033216e+01 2.142275e+01 2.766406e+01 1.297036e+01 1.210371e+01 1.745720e+01 9.250249e-01 2.781576e+00 2.519223e+00 3.017554e+00 4.812662e+00 2.628555e+00 2.136009e+00 2.342386e+00 3.814987e+00 3.163697e+00 2.488231e+00 1.817991e+00 1.349223e+00 1.249883e-01 6.160198e-01 5.944783e-01 5.337242e-01 3.715538e-01 4.064325e-01 3.689787e-01 3.498534e-01 5.431342e-01 5.924653e-01 3.806621e-01 2.945241e-01 2.450724e-01
<GCONST> 1.093264e+02
<STATE> 4
<MEAN> 39
 1.197021e+01 -1.404368e+01 1.222381e+01 -8.008986e+00 7.138350e+00 3.549550e+00 -1.292486e+01 5.473782e+00 -1.943538e+01 -3.497255e+00 -2.799485e+00 -4.513443e+00 7.341119e+01 1.237805e+00 -2.363978e+00 -1.779778e+00 3.807729e-01 1.104734e+00 -3.533243e+00 -2.685199e+00 -3.978513e-01 -2.320371e+00 -3.291573e-01 9.271156e-01 -2.738706e-01 2.624062e+00 -1.209928e-01 6.916996e-01 1.933754e-01 7.696537e-01 2.605620e-01 -3.751281e-01 -2.112390e-01 1.374946e-01 4.657134e-01 2.315469e-01 2.859810e-01 -5.671260e-02 -4.848928e-01
<VARIANCE> 39
 1.025545e+01 1.703851e+01 3.625702e+01 2.879240e+01 4.938612e+01 3.974682e+01 2.225780e+01 4.680237e+01 4.073054e+01 3.370834e+01 2.509689e+01 1.429430e+01 1.131374e+01 1.101921e+00 2.961855e+00 3.465157e+00 4.659584e+00 4.665878e+00 2.509988e+00 2.655150e+00 2.774471e+00 3.876493e+00 4.023959e+00 3.423082e+00 2.197890e+00 1.175880e+00 1.301356e-01 4.435560e-01 5.643260e-01 3.667850e-01 4.835297e-01 7.735790e-01 4.579045e-01 4.302846e-01 7.280995e-01 6.446928e-01 3.733333e-01 2.961933e-01 2.176298e-01
<GCONST> 1.156865e+02
<TRANSP> 5
 0.000000e+00 1.000000e+00 0.000000e+00 0.000000e+00 0.000000e+00
 0.000000e+00 7.306878e-01 2.693122e-01 0.000000e+00 0.000000e+00
 0.000000e+00 0.000000e+00 1.689362e-01 8.310639e-01 0.000000e+00
 0.000000e+00 0.000000e+00 0.000000e+00 2.439993e-01 7.560007e-01
 0.000000e+00 0.000000e+00 0.000000e+00 0.000000e+00 0.000000e+00
<ENDHMM>
~h "c"
<BEGINHMM>
<NUMSTATES> 5
<STATE> 2
<MEAN> 39
 -5.849736e+00 -1.717957e+01 2.850453e+01 -1.611379e+01 4.330995e-01 7.469023e+00 -6.297535e+00 5.135956e+00 -1.722686e+01 6.682425e+00 -2.799990e+00 -2.500910e+00 6.912646e+01 -3.648644e+00 -2.148689e+00 2.787542e+00 -2.778905e+00 -7.386029e-01 4.540008e-01 3.541579e-01 -2.994343e-01 -5.152887e-01 1.526731e+00 -2.502773e-01 9.454103e-03 9.317961e-01 3.861211e-01 -3.419061e-01 -3.803883e-01 3.130201e-02 1.631993e-01 -3.184839e-01 -2.205889e-01 2.417877e-01 -1.545621e-01 8.045853e-02 3.883758e-01 -6.579284e-02 5.802855e-01
<VARIANCE> 39
 3.975677e+01 3.142319e+01 8.337852e+01 5.067865e+01 3.444354e+01 3.168690e+01 3.136617e+01 3.262930e+01 4.380727e+01 2.753275e+01 1.934670e+01 1.585535e+01 4.135705e+01 4.009007e+00 3.710716e+00 7.400023e+00 4.729931e+00 2.406006e+00 2.514921e+00 2.394147e+00 3.425018e+00 3.840454e+00 2.717809e+00 1.693095e+00 1.387847e+00 3.529763e+00 6.574478e-01 8.382252e-01 1.561216e+00 1.192890e+00 4.082878e-01 5.751989e-01 4.948935e-01 4.690638e-01 6.569107e-01 4.510879e-01 3.168658e-01 3.369336e-01 5.371508e-01
<GCONST> 1.252883e+02
<STATE> 3
<MEAN> 39
 -1.419877e+01 -2.621384e+01 3.460400e+01 -2.213581e+01 -2.201876e-01 9.250001e+00 -5.775055e+00 6.354647e+00 -1.856040e+01 1.179124e+01 7.194992e-01 -2.526714e+00 7.526246e+01 9.512740e-01 -2.471948e-01 -5.653148e-01 9.943666e-01 2.362126e-01 3.846051e-01 -1.482100e-01 -1.420415e-01 1.160016e-01 -1.327537e-01 9.595549e-01 1.897367e-02 3.791434e-01 1.175351e+00 7.384588e-01 -8.795000e-01 8.115861e-01 2.099550e-01 -1.841843e-01 -1.880519e-01 -2.191597e-01 -5.823151e-02 -5.248227e-01 -4.004733e-02 -8.651387e-02 -3.391126e-01
<VARIANCE> 39
 1.685404e+01 1.857646e+01 2.277653e+01 3.103978e+01 3.011705e+01 3.056584e+01 4.076995e+01 2.673638e+01 4.362149e+01 2.268985e+01 3.388614e+01 1.745663e+01 1.561183e+01 6.344804e+00 3.580099e+00 4.845880e+00 4.715727e+00 1.870440e+00 1.982484e+00 2.335098e+00 2.459099e+00 2.416054e+00 2.568607e+00 1.673108e+00 1.185648e+00 1.309728e+00 5.353387e-01 5.119602e-01 9.373987e-01 7.436418e-01 4.030043e-01 3.934840e-01 4.791472e-01 4.318314e-01 5.478297e-01 3.649703e-01 3.968827e-01 2.510275e-01 1.625142e-01
<GCONST> 1.151174e+02
<STATE> 4
<MEAN> 39
 1.358464e+00 -1.912796e+01 2.454319e+01 -1.354604e+01 2.040211e+00 1.008841e+01 -8.519226e+00 7.907425e-01 -2.014334e+01 7.133182e+00 3.443347e+00 -3.572518e+00 7.458456e+01 4.625007e+00 2.338182e+00 -4.364223e+00 2.136622e+00 1.526239e+00 -1.527050e+00 -1.451123e+00 -6.010590e-01 -1.043711e+00 -1.198431e+00 -1.081774e-01 -6.048883e-01 -7.275278e-01 -5.405809e-01 -2.692622e-01 -9.640662e-03 -3.043709e-01 1.761051e-01 -4.443802e-01 -1.531568e-01 4.670212e-01 1.428144e-01 2.493897e-01 -2.941241e-01 5.034577e-02 -1.066782e-01
<VARIANCE> 39
 6.163997e+01 2.586871e+01 6.552138e+01 2.563956e+01 2.981809e+01 3.409934e+01 4.290294e+01 4.256081e+01 2.960907e+01 2.775056e+01 1.925336e+01 1.089641e+01 3.264323e+01 4.357276e+00 3.025649e+00 5.258216e+00 3.569758e+00 3.020901e+00 3.777926e+00 3.362262e+00 3.093152e+00 4.203619e+00 2.697129e+00 2.458382e+00 1.319907e+00 1.555985e+00 9.059798e-01 6.015031e-01 1.104082e+00 4.578387e-01 5.402111e-01 5.459948e-01 4.876137e-01 5.059299e-01 4.894388e-01 3.681290e-01 2.475129e-01 2.206135e-01 2.195189e-01
<GCONST> 1.207429e+02
<TRANSP> 5
 0.000000e+00 1.000000e+00 0.000000e+00 0.000000e+00 0.000000e+00
 0.000000e+00 7.277982e-01 2.722018e-01 0.000000e+00 0.000000e+00
 0.000000e+00 0.000000e+00 8.181866e-01 1.818134e-01 0.000000e+00
 0.000000e+00 0.000000e+00 0.000000e+00 5.416040e-01 4.583960e-01
 0.000000e+00 0.000000e+00 0.000000e+00 0.000000e+00 0.000000e+00
<ENDHMM>
~h "d"
<BEGINHMM>
<NUMSTATES> 5
<STATE> 2
<MEAN> 39
 7.333553e+00 -7.750963e+00 1.496793e+01 -2.074271e+00 9.521180e+00 7.331256e+00 -1.261398e+01 4.544467e+00 -1.257076e+01 -4.713807e-01 3.401042e-01 -1.417560e+00 6.491357e+01 -7.718702e-02 -3.714794e-01 6.501248e-01 -2.594643e-01 -1.428991e-01 5.766556e-01 1.852210e-01 -3.740609e-01 -3.027969e-01 2.023519e-01 -2.161138e-01 -5.557301e-02 1.885025e-01 3.015200e-01 -9.655129e-01 -3.014012e-01 -4.869810e-01 3.498534e-02 -9.176298e-01 -5.878825e-01 -4.536603e-02 -7.588277e-01 3.007505e-01 1.993580e-01 -2.404962e-01 1.019819e+00
<VARIANCE> 39
 3.071344e+01 4.199818e+01 4.706314e+01 3.452986e+01 3.010938e+01 2.940975e+01 3.333773e+01 4.127920e+01 2.665717e+01 2.153629e+01 2.433121e+01 1.963558e+01 2.564482e+01 1.815040e+00 6.779413e+00 4.427518e+00 3.953712e+00 3.228327e+00 5.543906e+00 3.729746e+00 3.632152e+00 4.094995e+00 2.005465e+00 2.008260e+00 2.121817e+00 4.375002e+00 2.689943e-01 8.860062e-01 8.560237e-01 6.140643e-01 6.722819e-01 1.088679e+00 9.159949e-01 8.559768e-01 6.817471e-01 5.649541e-01 5.234761e-01 5.567922e-01 5.087512e-01
<GCONST> 1.264114e+02
<STATE> 3
<MEAN> 39
 9.693921e+00 -1.518642e+01 1.333423e+01 -5.923049e+00 9.974649e+00 5.325540e+00 -1.600987e+01 3.296853e+00 -1.639855e+01 -5.411780e-01 -7.209229e-01 -2.430628e+00 7.186786e+01 6.603820e-01 -1.910340e+00 -6.249623e-01 -1.102417e+00 3.729675e-01 -2.020131e+00 -1.531828e+00 -2.586706e-01 -1.864720e+00 5.334921e-01 4.587145e-01 -1.955801e-01 2.148304e+00 2.416622e-01 1.182092e-01 -3.389098e-01 1.435969e-02 6.527501e-02 -8.106073e-01 -1.377045e-01 2.811659e-01 -2.912736e-01 1.764548e-01 3.201719e-01 -3.138135e-02 2.493334e-01
<VARIANCE> 39
 1.435161e+01 4.721235e+01 5.543267e+01 4.009918e+01 4.021554e+01 4.942567e+01 4.191558e+01 3.156792e+01 2.998659e+01 2.619473e+01 2.480934e+01 2.047803e+01 2.674163e+01 1.719164e+00 4.132026e+00 5.602565e+00 3.816817e+00 2.867339e+00 7.660655e+00 4.609690e+00 4.649933e+00 3.543453e+00 2.949414e+00 3.592658e+00 3.949469e+00 3.107758e+00 1.646981e-01 9.168302e-01 6.545452e-01 6.072557e-01 8.810216e-01 1.213425e+00 1.224373e+00 8.308222e-01 7.704102e-01 7.504475e-01 4.817387e-01 4.288563e-01 4.374653e-01
<GCONST> 1.284978e+02
<STATE> 4
<MEAN> 39
 1.083321e+01 -1.578968e+01 1.217111e+01 -6.650442e+00 1.047409e+01 1.437388e+00 -1.761972e+01 2.397255e+00 -1.978621e+01 8.044903e-01 8.679234e-01 -2.483068e+00 7.422057e+01 6.936147e-01 -1.057795e+00 -7.782347e-01 -6.878612e-01 2.847055e-01 -2.225886e+00 -8.927135e-01 3.650313e-01 -1.603522e+00 7.149547e-01 7.537080e-01 -3.285004e-01 1.632003e+00 -6.146108e-02 4.453806e-01 -4.595720e-02 1.811338e-01 -1.450804e-01 8.391936e-02 4.289012e-01 3.523305e-01 3.992127e-01 -6.349631e-02 3.441944e-02 5.629308e-02 -3.309078e-01
<VARIANCE> 39
 1.852082e+01 3.783331e+01 8.109130e+01 4.636846e+01 3.822633e+01 6.522450e+01 4.673904e+01 3.624372e+01 3.676273e+01 3.298001e+01 3.991764e+01 2.869189e+01 2.783310e+01 1.618126e+00 3.299202e+00 5.009221e+00 3.941869e+00 3.672796e+00 6.416338e+00 5.932617e+00 5.584217e+00 3.635045e+00 4.605252e+00 3.226633e+00 3.645458e+00 1.723868e+00 2.100986e-01 7.562085e-01 8.435163e-01 6.372152e-01 6.346776e-01 1.330098e+00 9.241166e-01 6.342338e-01 7.688465e-01 5.407721e-01 5.681975e-01 4.472337e-01 4.933082e-01
<GCONST> 1.302148e+02
<TRANSP> 5
 0.000000e+00 1.000000e+00 0.000000e+00 0.000000e+00 0.000000e+00
 0.000000e+00 5.807407e-01 4.192593e-01 0.000000e+00 0.000000e+00
 0.000000e+00 0.000000e+00 1.670475e-01 8.329525e-01 0.000000e+00
 0.000000e+00 0.000000e+00 0.000000e+00 7.837378e-02 9.216262e-01
 0.000000e+00 0.000000e+00 0.000000e+00 0.000000e+00 0.000000e+00
<ENDHMM>
~h "e"
<BEGINHMM>
<NUMSTATES> 5
<STATE> 2
<MEAN> 39
 1.284116e+01 -1.950335e+01 8.445412e+00 -8.248169e+00 1.016120e+01 -4.065733e+00 -1.878489e+01 4.218570e+00 -2.136571e+01 5.019863e+00 5.914105e+00 -6.427892e-01 7.826354e+01 3.185054e-01 3.388712e-01 -6.578216e-01 -8.963720e-02 1.556133e-01 -1.695125e-01 3.875458e-01 1.463007e-01 -3.512463e-01 1.230284e-01 3.511017e-01 2.659590e-01 -2.507420e-01 -6.416097e-01 2.465049e-01 7.431175e-01 7.038537e-02 -2.752990e-01 8.725001e-01 5.622101e-01 2.069411e-02 5.237562e-01 -1.839380e-01 -4.805086e-01 -1.375724e-01 -5.562584e-01
<VARIANCE> 39
 6.549181e+00 1.335374e+01 4.532277e+01 3.777148e+01 2.931916e+01 3.543098e+01 4.242648e+01 4.014448e+01 3.273061e+01 4.507862e+01 2.280209e+01 2.891730e+01 1.494655e+01 1.756817e+00 1.520586e+00 5.843134e+00 2.524157e+00 2.268758e+00 4.473324e+00 2.943086e+00 2.924479e+00 2.602584e+00 3.772202e+00 2.342037e+00 2.137033e+00 1.077488e+00 4.228831e-01 3.996197e-01 7.328303e-01 4.994217e-01 4.319963e-01 5.609381e-01 4.706531e-01 5.685353e-01 5.511281e-01 6.403641e-01 4.282683e-01 5.019480e-01 1.812732e-01
<GCONST> 1.167799e+02
<STATE> 3
<MEAN> 39
 1.223715e+01 -1.782415e+01 1.020955e+01 -7.834000e+00 1.007528e+01 -1.771042e+00 -1.641836e+01 4.558365e+00 -2.152837e+01 3.676447e+00 4.532389e+00 -1.070782e+00 7.633619e+01 -8.129533e-01 1.368771e+00 9.605324e-01 3.938473e-01 -4.133216e-01 2.078129e+00 1.437748e+00 -2.023539e-01 9.883629e-01 -5.825400e-01 -9.388089e-01 -2.403877e-01 -1.593432e+00 -5.821722e-01 1.098690e-01 5.971712e-01 6.552070e-02 -2.284079e-01 5.802835e-01 1.436572e-01 -6.667422e-02 5.452793e-01 -5.518031e-02 -3.354285e-01 -1.814164e-01 -3.716382e-01
<VARIANCE> 39
 9.397609e+00 1.602448e+01 5.148181e+01 4.720290e+01 3.170042e+01 3.974599e+01 4.710809e+01 4.845253e+01 3.633708e+01 6.045547e+01 2.490437e+01 3.795367e+01 1.600114e+01 1.665450e+00 1.755842e+00 6.439742e+00 2.713386e+00 2.692463e+00 4.812458e+00 3.260272e+00 3.195788e+00 2.580637e+00 3.741207e+00 2.370698e+00 2.781294e+00 1.668979e+00 3.198068e-01 3.164987e-01 7.902566e-01 5.046997e-01 4.012640e-01 4.685166e-01 4.243172e-01 6.484032e-01 5.227882e-01 6.738364e-01 3.459381e-01 6.766294e-01 1.742716e-01
<GCONST> 1.197688e+02
<STATE> 4
<MEAN> 39
 8.921635e+00 -1.498885e+01 1.230390e+01 -7.622634e+00 7.764333e+00 3.422599e+00 -1.343069e+01 3.883177e+00 -1.727459e+01 4.391812e+00 3.626059e+00 -1.195009e+00 7.169927e+01 -1.417104e+00 1.092807e+00 1.169550e+00 2.709071e-01 -6.764101e-01 1.950646e+00 9.458823e-01 -1.777494e-01 1.355732e+00 -5.736364e-01 -9.947039e-01 -3.741831e-01 -1.866341e+00 -1.754007e-01 -2.904649e-01 4.505242e-02 -1.440807e-01 -6.647494e-02 -3.105504e-01 -2.322082e-01 1.021234e-01 -2.172196e-02 2.279387e-02 -1.489471e-02 -5.977175e-02 1.576720e-01
<VARIANCE> 39
 2.017612e+01 2.069453e+01 5.691321e+01 4.856032e+01 4.099051e+01 4.879984e+01 4.122374e+01 4.977329e+01 4.076775e+01 6.771670e+01 2.649235e+01 3.154461e+01 3.464155e+01 2.292919e+00 2.299530e+00 6.300251e+00 2.835125e+00 3.081331e+00 4.602854e+00 2.781598e+00 3.186863e+00 2.904020e+00 3.021433e+00 2.174511e+00 3.666700e+00 1.938187e+00 2.246436e-01 2.918775e-01 7.684370e-01 4.470083e-01 4.077385e-01 5.927649e-01 4.415289e-01 5.484508e-01 4.447602e-01 7.255487e-01 3.766462e-01 4.184282e-01 2.137506e-01
<GCONST> 1.221958e+02
<TRANSP> 5
 0.000000e+00 1.000000e+00 0.000000e+00 0.000000e+00 0.000000e+00
 0.000000e+00 5.418795e-01 4.581206e-01 0.000000e+00 0.000000e+00
 0.000000e+00 0.000000e+00 1.228101e-01 8.771899e-01 0.000000e+00
 0.000000e+00 0.000000e+00 0.000000e+00 2.823556e-01 7.176444e-01
 0.000000e+00 0.000000e+00 0.000000e+00 0.000000e+00 0.000000e+00
<ENDHMM>
~h "f"
<BEGINHMM>
<NUMSTATES> 5
<STATE> 2
<MEAN> 39
 7.136955e+00 -1.285090e+01 1.804346e+01 -1.245065e+01 7.919772e+00 4.266965e+00 -1.113953e+01 1.044151e+01 -1.629725e+01 3.645761e+00 3.327006e-01 -3.963455e+00 7.129810e+01 -2.950121e+00 -9.026515e-01 3.935490e+00 -1.554010e+00 3.580118e-01 2.798262e+00 1.436130e+00 7.237071e-01 5.255323e-01 1.401091e+00 -1.754161e-01 5.758104e-01 -7.249956e-01 -3.899444e-01 -8.738703e-01 -3.720499e-01 -1.706359e-01 -6.027035e-02 -4.949065e-01 -2.645056e-01 -2.944157e-01 -2.310432e-01 -3.012798e-02 -1.093371e-01 2.060869e-01 4.031231e-01
<VARIANCE> 39
 2.772524e+01 2.135835e+01 3.931577e+01 5.392039e+01 5.099954e+01 3.642612e+01 2.886563e+01 3.032148e+01 3.328388e+01 2.465281e+01 2.133137e+01 1.868350e+01 4.799113e+01 4.501623e+00 3.743427e+00 1.106729e+01 4.602514e+00 5.373151e+00 9.549889e+00 2.272918e+00 4.218490e+00 1.996146e+00 2.989329e+00 2.602569e+00 2.508893e+00 9.327422e-01 4.680045e-01 7.422960e-01 1.069510e+00 3.687292e-01 4.194276e-01 5.533938e-01 4.398721e-01 6.148223e-01 3.705010e-01 3.032053e-01 4.966209e-01 3.941630e-01 1.638421e-01
<GCONST> 1.227550e+02
<STATE> 3
<MEAN> 39
 2.013369e+00 -1.465266e+01 2.373628e+01 -1.375285e+01 8.569737e+00 8.653998e+00 -7.805873e+00 1.140075e+01 -1.563500e+01 5.874221e+00 -3.352423e-01 -2.399282e+00 7.003822e+01 -2.732686e+00 -2.103195e+00 2.107220e+00 -1.712334e+00 3.585976e-01 1.211738e+00 3.989713e-01 -1.771647e-01 -3.333961e-01 9.334489e-01 -4.711356e-01 5.182002e-01 2.410124e-01 2.959683e-01 -5.584777e-01 -1.160576e+00 1.309969e-01 -1.701736e-01 -1.036148e+00 -7.126698e-01 -4.445601e-01 -4.257814e-01 -4.037768e-01 9.412750e-02 -1.376500e-02 4.642325e-01
<VARIANCE> 39
 1.943482e+01 2.282652e+01 3.208792e+01 3.050020e+01 2.395763e+01 2.145848e+01 1.537151e+01 3.174588e+01 2.459866e+01 2.077992e+01 2.442664e+01 3.245161e+01 4.257387e+01 6.320287e+00 6.485121e+00 8.635767e+00 3.590507e+00 4.608825e+00 7.284198e+00 3.122218e+00 3.062774e+00 1.829954e+00 2.627746e+00 1.536221e+00 2.410781e+00 1.406238e+00 3.810896e-01 6.573867e-01 1.271525e+00 4.654164e-01 2.886426e-01 8.579352e-01 3.138107e-01 6.009797e-01 3.259510e-01 3.569085e-01 5.660430e-01 6.701239e-01 2.200656e-01
<GCONST> 1.202868e+02
<STATE> 4
<MEAN> 39
 -2.642293e+00 -2.171426e+01 2.250283e+01 -2.010789e+01 6.326194e+00 5.665721e+00 -9.846964e+00 9.897979e+00 -1.834588e+01 6.894282e+00 -9.718037e-01 -5.123012e-01 7.156841e+01 9.839833e-02 -3.588406e-01 -7.368533e-01 1.740709e-01 -3.485237e-01 -2.704030e-01 -3.587244e-01 -6.034476e-01 -4.349162e-01 -3.254099e-01 2.606607e-01 -1.286034e-01 1.335668e-01 6.242202e-01 4.910051e-01 -6.016657e-01 5.779846e-01 -9.021182e-02 -2.304927e-01 -1.333374e-01 -1.902563e-01 4.293345e-02 -2.343898e-01 1.679614e-01 -2.669723e-01 -4.187033e-02
<VARIANCE> 39
 3.492987e+01 4.276857e+01 4.195643e+01 2.783313e+01 2.608646e+01 1.769420e+01 1.831023e+01 2.026016e+01 1.953424e+01 1.887006e+01 2.012955e+01 1.665436e+01 1.973057e+01 6.990077e+00 7.138147e+00 4.019966e+00 3.871906e+00 2.148160e+00 2.670126e+00 2.051050e+00 2.309139e+00 2.635072e+00 1.957214e+00 1.265032e+00 2.330254e+00 2.046705e+00 3.821656e-01 7.595433e-01 9.204763e-01 4.737546e-01 3.614112e-01 7.562915e-01 4.639407e-01 4.505652e-01 5.148436e-01 3.413524e-01 2.634206e-01 3.799848e-01 3.630212e-01
<GCONST> 1.162186e+02
<TRANSP> 5
 0.000000e+00 1.000000e+00 0.000000e+00 0.000000e+00 0.000000e+00
 0.000000e+00 1.256852e-01 8.743149e-01 0.000000e+00 0.000000e+00
 0.000000e+00 0.000000e+00 1.171476e-01 8.828525e-01 0.000000e+00
 0.000000e+00 0.000000e+00 0.000000e+00 7.544810e-01 2.455190e-01
 0.000000e+00 0.000000e+00 0.000000e+00 0.000000e+00 0.000000e+00
<ENDHMM>
~h "g"
<BEGINHMM>
<NUMSTATES> 5
<STATE> 2
<MEAN> 39
 2.197907e+00 -1.087816e+01 1.592169e+01 -5.317946e+00 6.715539e+00 7.061365e+00 -1.051531e+01 7.669711e+00 -1.190931e+01 2.871279e+00 3.309054e-01 -6.194981e+00 6.247651e+01 1.372255e+00 -3.825739e-01 4.436341e-01 3.093364e-01 1.169776e+00 4.615440e-03 -1.493654e+00 -1.262227e+00 -1.465327e+00 -3.176737e-01 -2.372285e-01 -5.766298e-01 1.398176e+00 2.947178e-01 -1.829758e-02 -1.517705e-01 1.878465e-01 2.371209e-01 -2.675802e-01 -5.925795e-01 -2.845335e-01 -4.728588e-02 -9.349952e-02 6.777193e-02 1.271710e-01 2.458461e-01
<VARIANCE> 39
 4.893093e+01 4.098087e+01 2.739000e+01 3.889721e+01 3.533549e+01 3.604170e+01 5.960598e+01 2.718900e+01 4.182444e+01 3.019069e+01 1.577349e+01 2.702708e+01 5.538107e+01 2.657007e+00 5.505879e+00 2.228790e+00 4.490315e+00 2.661140e+00 6.599303e+00 5.829108e+00 3.382571e+00 3.790545e+00 2.430296e+00 1.646326e+00 1.642691e+00 3.283009e+00 3.546719e-01 1.199902e+00 3.822632e-01 7.242631e-01 5.229409e-01 5.997597e-01 9.147699e-01 6.138529e-01 7.245165e-01 5.140584e-01 2.907591e-01 5.168968e-01 6.765113e-01
<GCONST> 1.260914e+02
<STATE> 3
<MEAN> 39
 1.049094e+01 -1.412230e+01 1.540032e+01 -8.221149e-01 1.652780e+01 -4.008419e-01 -2.624446e+01 2.888108e+00 -1.660476e+01 2.860411e+00 9.450791e-01 -1.030121e+01 7.231072e+01 6.811076e-01 5.898798e-01 -7.484623e-01 1.013268e-01 2.910618e-01 -6.902668e-02 -4.832556e-01 -5.633152e-01 -2.509713e-01 -6.645091e-01 3.255014e-01 9.099005e-01 2.129987e-01 -2.729140e-01 1.413464e-01 -5.329240e-02 -1.547644e-01 -5.627728e-01 5.118543e-02 8.181034e-01 3.058957e-01 3.723205e-01 1.502879e-01 8.687162e-02 4.887766e-01 -2.876255e-01
<VARIANCE> 39
 5.352224e+00 2.555861e+01 3.201711e+01 4.255753e+01 5.346205e+01 5.940135e+01 8.361684e+01 3.500557e+01 2.180079e+01 2.828118e+01 1.945706e+01 2.826146e+01 1.637585e+01 1.057866e+00 2.813155e+00 3.718832e+00 4.340528e+00 3.256857e+00 8.171803e+00 6.948267e+00 3.013844e+00 1.839054e+00 3.202176e+00 1.901100e+00 2.930177e+00 2.117909e+00 2.024330e-01 5.482059e-01 5.394874e-01 4.711065e-01 4.705216e-01 8.574887e-01 8.305470e-01 6.532817e-01 6.109508e-01 5.943284e-01 2.162243e-01 4.497488e-01 3.431263e-01
<GCONST> 1.203231e+02
<STATE> 4
<MEAN> 39
 1.176558e+01 -1.207901e+01 1.231485e+01 -3.952829e+00 9.850277e+00 2.071458e-01 -1.931698e+01 1.445750e+00 -1.847075e+01 2.428772e+00 3.768307e+00 -3.922835e+00 7.116379e+01 -6.772414e-03 5.530298e-01 -1.675785e-01 -5.711385e-01 -1.140558e+00 4.536921e-02 1.316068e+00 2.402376e-01 4.385673e-01 -5.207178e-02 2.848975e-01 1.622212e+00 -1.946788e-01 -1.874353e-01 -4.084707e-01 1.236571e-01 -1.844223e-01 -2.255778e-01 -1.374783e-01 2.567037e-01 2.177225e-01 -1.947432e-02 2.279908e-01 -1.639172e-02 -2.010684e-01 2.090526e-01
<VARIANCE> 39
 1.083671e+01 2.837972e+01 2.855788e+01 5.120828e+01 3.293276e+01 8.562228e+01 7.639637e+01 3.208187e+01 2.487705e+01 5.277719e+01 5.405102e+01 2.607890e+01 2.338878e+01 9.875203e-01 3.048400e+00 4.354260e+00 3.066977e+00 3.190108e+00 3.818864e+00 4.712524e+00 1.244443e+00 2.517354e+00 1.380855e+00 1.283979e+00 2.504985e+00 1.574338e+00 1.085773e-01 7.353191e-01 5.233549e-01 4.714802e-01 3.664618e-01 1.104521e+00 6.847242e-01 3.842204e-01 4.350812e-01 5.849630e-01 2.715347e-01 3.080930e-01 3.347454e-01
<GCONST> 1.177458e+02
<TRANSP> 5
 0.000000e+00 1.000000e+00 0.000000e+00 0.000000e+00 0.000000e+00
 0.000000e+00 6.534048e-01 3.465951e-01 0.000000e+00 0.000000e+00
 0.000000e+00 0.000000e+00 5.603401e-01 4.396599e-01 0.000000e+00
 0.000000e+00 0.000000e+00 0.000000e+00 3.520572e-01 6.479427e-01
 0.000000e+00 0.000000e+00 0.000000e+00 0.000000e+00 0.000000e+00
<ENDHMM>
~h "h"
<BEGINHMM>
<NUMSTATES> 5
<STATE> 2
<MEAN> 39
 8.785289e+00 -1.117935e+01 1.522972e+01 -1.544881e+01 4.054053e-01 3.510922e-01 -4.166526e+00 1.560653e+01 -1.421399e+01 8.076572e+00 2.968511e+00 -1.673677e+00 7.083678e+01 -1.629460e-01 5.775396e-01 5.647296e-01 -1.198050e+00 -1.322160e+00 3.274842e-01 1.602654e+00 1.280676e+00 5.745724e-01 6.310808e-01 -3.641259e-01 -3.743738e-01 -3.632939e-01 3.372556e-01 -2.015183e-01 -4.596803e-01 2.587543e-01 2.220842e-01 -4.194607e-01 -7.274220e-01 -3.288688e-01 -1.322879e-02 -2.747434e-01 -1.811665e-01 -1.606544e-01 1.900495e-01
<VARIANCE> 39
 1.725990e+01 1.455804e+01 3.152635e+01 1.798711e+01 5.726595e+01 5.751887e+01 3.667162e+01 5.970323e+01 5.958501e+01 4.346976e+01 1.990806e+01 2.292391e+01 2.957639e+01 1.349835e+00 1.457295e+00 3.457242e+00 1.234766e+00 2.560343e+00 3.680207e+00 2.737980e+00 2.375070e+00 2.827939e+00 4.376061e+00 2.262474e+00 1.739361e+00 7.767637e-01 1.401351e-01 1.686678e-01 4.462159e-01 3.678882e-01 3.439561e-01 5.179206e-01 4.204875e-01 3.291806e-01 5.965092e-01 4.744467e-01 3.926754e-01 1.946290e-01 6.073408e-02
<GCONST> 1.106920e+02
<STATE> 3
<MEAN> 39
 9.701831e+00 -1.111350e+01 1.668467e+01 -1.628753e+01 -5.568410e-01 -8.213760e-01 -4.264213e+00 1.644413e+01 -1.467383e+01 9.462863e+00 2.881116e+00 -3.496763e+00 7.192150e+01 2.915004e-01 1.831026e-01 -6.124481e-04 -4.073253e-01 -3.899432e-01 -3.958097e-01 1.602435e-01 4.286582e-01 7.880431e-01 8.564297e-01 -3.835040e-01 -5.603549e-01 1.150423e-01 3.581319e-01 -2.032995e-01 -7.232200e-01 3.646989e-01 4.472105e-01 -2.336321e-01 -8.744471e-01 -6.132614e-01 -8.541431e-02 -5.936071e-01 -1.902160e-01 1.547121e-02 2.174282e-01
<VARIANCE> 39
 6.850194e+00 1.810305e+01 2.923124e+01 3.254586e+01 6.569217e+01 5.844146e+01 4.290167e+01 8.285551e+01 3.787967e+01 5.261694e+01 1.736681e+01 2.253686e+01 1.422267e+01 1.200843e+00 1.376362e+00 3.399266e+00 7.018808e-01 2.525990e+00 2.051908e+00 1.422884e+00 1.599481e+00 3.440659e+00 3.525462e+00 1.655486e+00 1.273360e+00 6.798803e-01 1.280707e-01 1.877645e-01 5.767406e-01 2.759700e-01 4.471081e-01 5.828910e-01 4.968106e-01 4.155865e-01 5.415479e-01 5.394876e-01 3.073291e-01 2.817314e-01 7.527666e-02
<GCONST> 1.079503e+02
<STATE> 4
<MEAN> 39
 1.173192e+01 -1.052912e+01 1.254863e+01 -1.721265e+01 -1.281632e+00 -2.328326e+00 -4.650793e+00 1.557272e+01 -1.333809e+01 1.028015e+01 1.192536e+00 -3.202793e+00 7.182941e+01 8.609592e-01 1.153335e-02 -1.728354e+00 2.166006e-01 2.976410e-01 -7.279499e-01 -1.301874e+00 -8.233987e-01 2.938959e-01 -8.140128e-01 -3.914793e-01 -9.373476e-02 3.751818e-01 9.730148e-02 -2.031919e-01 -3.923353e-01 3.547532e-01 4.179800e-01 -4.407041e-02 -4.559024e-01 -3.939318e-01 -2.220737e-01 -4.567133e-01 2.828738e-02 1.637790e-01 1.579547e-01
<VARIANCE> 39
 8.228745e+00 2.225215e+01 4.930676e+01 2.039686e+01 3.756793e+01 3.563245e+01 3.533443e+01 6.842622e+01 4.494626e+01 5.470804e+01 1.500965e+01 2.036048e+01 1.215305e+01 4.054863e-01 6.905776e-01 1.918098e+00 1.203564e+00 1.820978e+00 1.365439e+00 1.923797e+00 1.398238e+00 3.079345e+00 1.623633e+00 1.072101e+00 9.909923e-01 2.904173e-01 1.309721e-01 2.371066e-01 4.405270e-01 1.585829e-01 3.241563e-01 3.155189e-01 4.304937e-01 3.890316e-01 6.226014e-01 4.079355e-01 1.806970e-01 2.658245e-01 4.230207e-02
<GCONST> 9.894621e+01
<TRANSP> 5
 0.000000e+00 1.000000e+00 0.000000e+00 0.000000e+00 0.000000e+00
 0.000000e+00 3.514151e-01 6.485848e-01 0.000000e+00 0.000000e+00
 0.000000e+00 0.000000e+00 1.965004e-01 8.034997e-01 0.000000e+00
 0.000000e+00 0.000000e+00 0.000000e+00 5.572929e-01 4.427071e-01
 0.000000e+00 0.000000e+00 0.000000e+00 0.000000e+00 0.000000e+00
<ENDHMM>
~h "i"
<BEGINHMM>
<NUMSTATES> 5
<STATE> 2
<MEAN> 39
 1.148991e+01 -1.879193e+01 1.228005e+01 -2.350657e+00 1.445426e+01 -3.319552e+00 -2.408384e+01 2.287853e+00 -2.129342e+01 1.854422e+00 3.891433e+00 -5.961678e+00 7.659975e+01 1.878144e-01 -3.266677e-02 -2.291380e-01 9.119535e-01 8.169505e-01 -8.338320e-01 -9.342009e-01 -7.870645e-02 -1.730592e-01 3.101579e-01 4.519626e-01 -5.171165e-01 1.996780e-02 -5.272162e-01 2.697488e-01 5.300941e-01 -2.809623e-01 -5.467633e-01 7.466954e-01 9.205740e-01 1.998705e-01 4.759912e-01 5.046539e-02 -3.482440e-01 1.798320e-01 -5.185590e-01
<VARIANCE> 39
 8.977287e+00 1.302853e+01 4.128356e+01 4.937068e+01 2.554007e+01 3.611569e+01 3.569115e+01 3.378071e+01 3.783417e+01 5.001550e+01 1.816321e+01 2.756222e+01 1.481305e+01 1.865165e+00 1.900605e+00 4.469414e+00 3.387953e+00 2.413877e+00 3.880147e+00 3.684060e+00 2.665618e+00 2.898931e+00 3.239799e+00 1.697312e+00 2.195724e+00 1.013771e+00 4.125909e-01 4.198002e-01 6.992250e-01 6.881458e-01 4.611142e-01 6.577155e-01 5.876731e-01 5.071072e-01 6.380450e-01 5.788280e-01 4.003015e-01 4.468668e-01 2.308957e-01
<GCONST> 1.174398e+02
<STATE> 3
<MEAN> 39
 1.034022e+01 -1.779174e+01 1.420519e+01 -1.716447e+00 1.440237e+01 -1.619743e+00 -2.184980e+01 2.976039e+00 -2.130504e+01 2.763954e+00 3.897062e+00 -6.404630e+00 7.473131e+01 -1.025784e+00 1.288609e+00 1.260942e+00 -1.814633e-01 -9.338421e-01 1.970568e+00 1.842278e+00 -1.729434e-01 1.092229e+00 4.276507e-01 -5.694896e-01 4.171939e-01 -1.583062e+00 -5.249353e-01 1.779298e-01 3.293312e-01 -4.189318e-01 -6.349443e-01 5.291619e-01 6.560733e-01 1.075754e-01 5.535564e-01 -2.122406e-02 -3.628595e-01 2.972712e-01 -4.037693e-01
<VARIANCE> 39
 1.175167e+01 1.573191e+01 5.050938e+01 4.706264e+01 2.753917e+01 4.496976e+01 3.744628e+01 4.953174e+01 3.232573e+01 5.413106e+01 2.147236e+01 3.552778e+01 1.647066e+01 1.560240e+00 2.224187e+00 4.866400e+00 3.302793e+00 1.947782e+00 3.643192e+00 2.786641e+00 2.833399e+00 3.311886e+00 3.802343e+00 1.637965e+00 1.893250e+00 1.921145e+00 3.184359e-01 3.916066e-01 7.485468e-01 5.992267e-01 3.752975e-01 5.627769e-01 6.140795e-01 5.523877e-01 5.406746e-01 5.696419e-01 3.007814e-01 5.637963e-01 1.961030e-01
<GCONST> 1.184878e+02
<STATE> 4
<MEAN> 39
 5.635202e+00 -1.373730e+01 1.648659e+01 -2.908235e+00 9.172640e+00 3.081497e+00 -1.733151e+01 3.000471e+00 -1.415759e+01 4.712486e+00 2.466932e+00 -4.809997e+00 6.787083e+01 -1.561699e+00 7.787402e-01 6.138111e-01 -8.269097e-01 -1.595440e+00 1.490557e+00 1.879926e+00 2.629715e-01 1.360473e+00 -2.631193e-01 -7.438769e-01 6.727738e-01 -1.640110e+00 -1.018797e-01 -4.268900e-01 -1.093043e-01 -3.108578e-01 -4.756340e-02 -2.638052e-01 -1.812706e-02 2.172397e-01 -2.648434e-01 -1.039977e-01 -2.323851e-02 -3.072089e-02 3.127598e-01
<VARIANCE> 39
 2.401382e+01 2.385261e+01 6.369932e+01 4.301309e+01 3.484307e+01 4.503955e+01 3.419313e+01 4.307290e+01 5.613905e+01 6.376939e+01 2.002005e+01 2.452234e+01 4.201254e+01 2.068801e+00 2.838899e+00 5.530919e+00 3.305800e+00 2.612661e+00 3.310295e+00 2.787683e+00 2.768878e+00 3.503678e+00 3.606046e+00 1.829463e+00 2.519447e+00 1.914088e+00 2.205357e-01 4.820324e-01 6.746168e-01 6.598243e-01 4.440051e-01 5.616530e-01 4.878227e-01 5.630184e-01 6.474416e-01 5.877411e-01 2.821281e-01 3.796040e-01 2.696048e-01
<GCONST> 1.220624e+02
<TRANSP> 5
 0.000000e+00 1.000000e+00 0.000000e+00 0.000000e+00 0.000000e+00
 0.000000e+00 5.985973e-01 4.014027e-01 0.000000e+00 0.000000e+00
 0.000000e+00 0.000000e+00 3.739600e-01 6.260400e-01 0.000000e+00
 0.000000e+00 0.000000e+00 0.000000e+00 4.650712e-01 5.349288e-01
 0.000000e+00 0.000000e+00 0.000000e+00 0.000000e+00 0.000000e+00
<ENDHMM>
~h "j"
<BEGINHMM>
<NUMSTATES> 5
<STATE> 2
<MEAN> 39
 6.469789e+00 -1.566583e+01 1.524684e+01 2.266185e-01 1.078756e+01 -1.345030e+00 -1.766014e+01 5.908183e+00 -1.678865e+01 1.185499e+00 2.545099e+00 -4.517242e+00 7.021635e+01 1.101755e+00 -7.698032e-01 8.961415e-02 1.399345e+00 1.351637e+00 -1.572337e+00 -2.119096e+00 -6.468309e-01 -8.919696e-01 -1.974748e-01 2.111954e-01 -4.776358e-01 1.511654e+00 -6.952244e-02 -6.230113e-02 -1.963040e-03 -2.168851e-01 -1.354779e-01 9.128571e-03 1.071303e-01 1.282638e-01 1.520995e-01 1.065276e-01 -9.458618e-02 -4.414012e-03 -1.465031e-02
<VARIANCE> 39
 5.339262e+01 2.147620e+01 6.839423e+01 7.480393e+01 4.071368e+01 4.917733e+01 6.994927e+01 3.872672e+01 5.477977e+01 3.954158e+01 1.763681e+01 2.091094e+01 8.245913e+01 2.815130e+00 1.989082e+00 3.803946e+00 4.426403e+00 2.154554e+00 3.505512e+00 3.605179e+00 2.599032e+00 3.603865e+00 3.283770e+00 1.920725e+00 1.577245e+00 2.358905e+00 4.121778e-01 3.637846e-01 6.964069e-01 8.251349e-01 4.572974e-01 5.777885e-01 7.211394e-01 4.381002e-01 5.743787e-01 6.143745e-01 2.929016e-01 2.470417e-01 3.147144e-01
<GCONST> 1.242563e+02
<STATE> 3
<MEAN> 39
 1.140519e+01 -1.966371e+01 1.149694e+01 -7.175955e-01 1.394057e+01 -7.672282e+00 -2.493233e+01 3.226016e+00 -2.056568e+01 2.312144e+00 3.894730e+00 -5.456435e+00 7.781665e+01 -4.848371e-02 -3.070891e-01 1.716156e-01 2.318542e-01 9.484266e-02 -3.981297e-01 -3.434102e-01 -1.210191e-01 -9.973923e-03 4.266143e-01 1.383106e-01 -2.470632e-01 1.872295e-01 -1.056020e-01 1.989090e-01 1.438099e-01 -2.320035e-01 -2.268000e-01 4.626463e-01 5.840558e-01 1.461687e-01 3.102482e-02 -9.390590e-02 -1.261903e-01 1.497966e-01 -2.293263e-01
<VARIANCE> 39
 8.280523e+00 1.245083e+01 5.211437e+01 4.742860e+01 3.198468e+01 2.475383e+01 2.868794e+01 4.047878e+01 3.337470e+01 4.459558e+01 2.495958e+01 3.063154e+01 1.405415e+01 4.969479e-01 8.499689e-01 2.589756e+00 2.719785e+00 1.312438e+00 1.861241e+00 1.815666e+00 1.958785e+00 1.472949e+00 2.611368e+00 1.310840e+00 1.544082e+00 6.116781e-01 1.421012e-01 1.782499e-01 4.152842e-01 3.172924e-01 2.660429e-01 4.185761e-01 4.017003e-01 3.732815e-01 3.218627e-01 4.033643e-01 2.511669e-01 2.551898e-01 1.066976e-01
<GCONST> 1.024359e+02
<STATE> 4
<MEAN> 39
 1.119779e+01 -1.971460e+01 1.267719e+01 -7.296699e-01 1.390759e+01 -6.535822e+00 -2.394283e+01 4.570215e+00 -1.977525e+01 2.532943e+00 3.607777e+00 -5.516376e+00 7.714096e+01 -2.763433e-01 5.113129e-01 4.727084e-01 -2.352312e-01 -2.233249e-01 1.201707e+00 1.318373e+00 2.969507e-02 -6.604109e-02 1.344366e-01 -1.493025e-01 2.469625e-01 -6.062045e-01 -2.980968e-01 3.995635e-01 3.344017e-01 -2.254098e-01 -3.212854e-01 8.096686e-01 7.359267e-01 -3.850014e-02 1.608872e-01 -1.087505e-01 -2.091951e-01 1.993375e-01 -4.557747e-01
<VARIANCE> 39
 1.003707e+01 1.646119e+01 4.973154e+01 6.088212e+01 3.329926e+01 2.871137e+01 3.685739e+01 4.650344e+01 3.469349e+01 4.373467e+01 2.451863e+01 3.687615e+01 1.982003e+01 1.388821e+00 2.128644e+00 4.645224e+00 3.908516e+00 1.963388e+00 3.616479e+00 2.901852e+00 3.832554e+00 2.522965e+00 4.143557e+00 1.900888e+00 2.143579e+00 1.209105e+00 2.434190e-01 3.147166e-01 5.302116e-01 5.719006e-01 4.066567e-01 5.426401e-01 5.075333e-01 5.397464e-01 4.993419e-01 5.836418e-01 3.075890e-01 3.941348e-01 2.283613e-01
<GCONST> 1.171335e+02
<TRANSP> 5
 0.000000e+00 1.000000e+00 0.000000e+00 0.000000e+00 0.000000e+00
 0.000000e+00 5.270608e-01 4.729392e-01 0.000000e+00 0.000000e+00
 0.000000e+00 0.000000e+00 6.625389e-01 3.374611e-01 0.000000e+00
 0.000000e+00 0.000000e+00 0.000000e+00 1.808935e-01 8.191065e-01
 0.000000e+00 0.000000e+00 0.000000e+00 0.000000e+00 0.000000e+00
<ENDHMM>
~h "k"
<BEGINHMM>
<NUMSTATES> 5
<STATE> 2
<MEAN> 39
 -8.401143e-01 -1.159680e+01 1.416658e+01 -8.712051e+00 2.547089e+00 5.843764e+00 -1.018388e+01 6.341961e+00 -1.308198e+01 1.820300e+00 1.924183e+00 -1.907495e+00 6.004005e+01 -5.986882e-01 -8.264033e-01 -4.980728e-01 -1.596586e+00 -1.097157e+00 3.380760e-01 2.534699e-01 1.902586e-01 2.280491e-01 1.399950e-01 -1.839872e-01 -2.326660e-01 -2.157395e-01 5.606863e-01 -7.978492e-01 1.584917e-01 -7.211438e-01 2.629292e-02 -2.409621e-01 3.072095e-02 1.302713e-01 -6.523235e-01 4.320186e-01 3.696259e-02 -2.654250e-01 1.254846e+00
<VARIANCE> 39
 1.988741e+01 2.061675e+01 2.513207e+01 3.364897e+01 2.669467e+01 2.903533e+01 3.159870e+01 3.393173e+01 3.120804e+01 2.408138e+01 1.979759e+01 1.890130e+01 1.301316e+01 2.302077e+00 5.417472e+00 2.725456e+00 8.256859e+00 3.017398e+00 3.670724e+00 4.375069e+00 3.544351e+00 5.238986e+00 3.613207e+00 2.071806e+00 2.302252e+00 5.476473e+00 2.438751e-01 6.107786e-01 5.120278e-01 9.785383e-01 4.931864e-01 6.061775e-01 8.519610e-01 5.951411e-01 6.216195e-01 6.046053e-01 4.504714e-01 4.045667e-01 3.693945e-01
<GCONST> 1.220048e+02
<STATE> 3
<MEAN> 39
 8.090582e-01 -2.158897e+01 1.379246e+01 -2.248486e+01 -2.408724e+00 7.510705e+00 -6.413522e+00 8.777715e+00 -1.774028e+01 5.800604e+00 1.166939e+00 -4.716401e+00 6.882864e+01 1.624377e+00 -8.842728e-01 1.009561e+00 -1.286030e+00 8.206897e-02 -6.823801e-01 -6.378903e-01 1.017341e-01 -1.304986e+00 3.552783e-01 -4.919368e-01 -7.293025e-01 2.646385e+00 6.004477e-01 1.097321e+00 1.004318e-01 1.900717e+00 9.714996e-01 -7.568421e-01 -8.903621e-01 -3.145877e-01 1.320405e-01 -4.920020e-01 5.380488e-02 3.911745e-02 -1.267539e-01
<VARIANCE> 39
 1.944851e+01 3.854761e+01 4.025718e+01 5.929330e+01 6.110540e+01 4.335189e+01 5.174618e+01 5.265826e+01 6.547557e+01 3.989581e+01 2.721793e+01 2.753765e+01 2.338744e+01 3.327278e+00 6.353668e+00 3.776911e+00 1.148636e+01 5.387809e+00 4.364671e+00 6.121462e+00 4.212058e+00 4.435440e+00 4.490036e+00 3.049191e+00 3.297673e+00 3.205874e+00 3.598630e-01 5.970218e-01 8.749123e-01 1.238457e+00 7.640626e-01 9.783624e-01 9.144219e-01 7.570554e-01 1.088494e+00 7.545743e-01 4.871876e-01 4.890653e-01 5.012987e-01
<GCONST> 1.347615e+02
<STATE> 4
<MEAN> 39
 6.402200e+00 -1.680141e+01 1.805119e+01 -1.386919e+01 3.777865e+00 3.818869e+00 -1.359003e+01 5.372348e+00 -1.895321e+01 4.319954e+00 7.502940e-01 -6.518717e+00 7.276720e+01 2.602759e+00 1.572925e+00 -5.548534e-01 3.395417e+00 1.962656e+00 -2.691732e+00 -2.201195e+00 -3.531970e-01 -5.899933e-01 -8.801758e-01 3.665243e-01 -3.448538e-01 1.381895e+00 -1.704356e-01 1.850831e-01 -8.988531e-01 3.747548e-01 5.864831e-02 -2.080164e-01 2.412256e-01 1.524011e-01 3.099701e-01 -9.387871e-02 3.025919e-01 3.662623e-01 -5.110756e-01
<VARIANCE> 39
 2.639872e+01 4.330028e+01 3.186518e+01 5.806354e+01 5.719556e+01 4.372850e+01 4.833414e+01 5.412987e+01 3.545078e+01 3.347051e+01 3.547326e+01 3.250566e+01 2.735493e+01 2.678066e+00 2.776961e+00 4.716333e+00 5.551091e+00 4.155509e+00 5.801017e+00 4.840181e+00 3.008405e+00 3.640014e+00 3.310613e+00 3.293663e+00 2.796249e+00 1.690943e+00 3.738657e-01 7.977431e-01 5.643865e-01 1.475661e+00 7.024465e-01 7.207467e-01 8.064305e-01 5.929865e-01 6.495739e-01 5.501925e-01 5.505559e-01 4.404587e-01 3.386971e-01
<GCONST> 1.294012e+02
<TRANSP> 5
 0.000000e+00 1.000000e+00 0.000000e+00 0.000000e+00 0.000000e+00
 0.000000e+00 7.375031e-01 2.624969e-01 0.000000e+00 0.000000e+00
 0.000000e+00 0.000000e+00 5.804483e-01 4.195518e-01 0.000000e+00
 0.000000e+00 0.000000e+00 0.000000e+00 3.524579e-01 6.475421e-01
 0.000000e+00 0.000000e+00 0.000000e+00 0.000000e+00 0.000000e+00
<ENDHMM>
~h "l"
<BEGINHMM>
<NUMSTATES> 5
<STATE> 2
<MEAN> 39
 1.405890e+01 -1.436725e+01 6.766473e+00 -9.355355e+00 2.991719e+00 -3.667217e+00 -1.397499e+01 1.024292e+01 -1.300766e+01 -3.406927e+00 -4.054340e+00 -3.852696e+00 7.533121e+01 1.164002e+00 8.328394e-01 -2.093867e+00 1.191952e+00 2.582748e-01 -1.397731e+00 -5.886594e-01 -2.493759e-02 5.523666e-01 -1.156136e+00 -6.663613e-01 -5.696133e-01 6.158723e-02 -3.696088e-01 -2.069886e-01 3.346761e-01 -1.894420e-01 2.499320e-02 1.100489e-02 9.477504e-02 6.622604e-03 -3.282942e-01 3.915331e-01 4.545629e-01 1.463418e-01 -2.950123e-02
<VARIANCE> 39
 1.227445e+01 1.801201e+01 7.081537e+01 3.231987e+01 3.849433e+01 5.983381e+01 3.592886e+01 4.902027e+01 5.874549e+01 4.729307e+01 3.367126e+01 3.362078e+01 1.518067e+01 2.186816e+00 1.719782e+00 4.071574e+00 3.040663e+00 3.611080e+00 4.498230e+00 4.302203e+00 4.188759e+00 4.953649e+00 3.674220e+00 3.267100e+00 3.155973e+00 1.026890e+00 3.205980e-01 3.469951e-01 8.035653e-01 6.183238e-01 4.787018e-01 6.911942e-01 6.104116e-01 4.884347e-01 5.581320e-01 6.874449e-01 5.634103e-01 6.183231e-01 1.449633e-01
<GCONST> 1.233346e+02
<STATE> 3
<MEAN> 39
 1.574287e+01 -1.238174e+01 2.430353e+00 -7.586321e+00 3.913691e+00 -7.482412e+00 -1.567957e+01 1.147600e+01 -1.036309e+01 -4.291622e+00 -5.938962e+00 -5.338688e+00 7.434837e+01 4.192575e-02 -1.460245e-01 -5.449808e-02 5.698841e-02 -2.567078e-01 -8.892342e-01 1.820476e-01 3.330920e-01 -7.811623e-01 -1.913286e-01 6.105726e-01 4.071371e-01 2.525936e-01 -3.262036e-01 -3.044320e-01 7.302498e-01 -5.586926e-01 -2.194785e-01 2.642281e-01 2.301057e-01 -1.581660e-02 -6.082436e-01 5.635738e-01 6.356933e-01 2.562375e-01 1.226896e-01
<VARIANCE> 39
 6.044602e+00 1.555899e+01 3.811654e+01 2.406576e+01 3.332787e+01 5.221800e+01 3.019818e+01 4.393240e+01 5.850998e+01 5.284878e+01 2.679460e+01 3.371412e+01 1.440269e+01 5.373449e-01 1.310404e+00 3.419718e+00 1.958122e+00 2.296359e+00 2.994901e+00 2.368759e+00 2.613298e+00 4.171171e+00 2.993639e+00 3.214197e+00 3.368110e+00 5.838943e-01 1.350076e-01 1.943608e-01 5.132785e-01 3.709748e-01 3.804908e-01 6.522859e-01 6.553946e-01 4.986055e-01 5.570592e-01 8.511454e-01 4.378757e-01 4.916270e-01 1.047487e-01
<GCONST> 1.125261e+02
<STATE> 4
<MEAN> 39
 1.458696e+01 -1.496096e+01 4.298305e+00 -1.152892e+01 5.118204e-01 -8.752777e+00 -1.156626e+01 1.266498e+01 -1.648250e+01 -1.051217e+00 -1.358728e-01 -1.447623e+00 7.666113e+01 -4.290078e-01 -3.724767e-01 9.202146e-01 -8.955938e-01 -6.049813e-02 4.155461e-01 2.081290e-01 -4.787703e-01 -1.263034e+00 1.318024e+00 1.108895e+00 1.141089e-01 3.138281e-01 -1.607308e-01 4.997876e-02 2.507051e-01 1.024104e-01 2.804932e-01 3.499753e-01 -1.533477e-01 -1.844678e-01 2.183428e-01 1.377923e-01 -1.632907e-01 -1.772643e-01 -1.851291e-01
<VARIANCE> 39
 5.190703e+00 1.389511e+01 3.618735e+01 4.097976e+01 4.788334e+01 4.445895e+01 3.122826e+01 5.523049e+01 6.445741e+01 5.762896e+01 2.355182e+01 2.358161e+01 1.683317e+01 5.593585e-01 1.344391e+00 2.880287e+00 2.379696e+00 2.454078e+00 3.473703e+00 3.450787e+00 2.264681e+00 3.175808e+00 3.369705e+00 2.688148e+00 1.922783e+00 7.421271e-01 1.402078e-01 1.970670e-01 4.440335e-01 4.563702e-01 3.167490e-01 5.074784e-01 3.706189e-01 4.092956e-01 5.019379e-01 6.761162e-01 3.431657e-01 4.206805e-01 1.031047e-01
<GCONST> 1.111032e+02
<TRANSP> 5
 0.000000e+00 1.000000e+00 0.000000e+00 0.000000e+00 0.000000e+00
 0.000000e+00 2.394066e-01 7.605935e-01 0.000000e+00 0.000000e+00
 0.000000e+00 0.000000e+00 5.537480e-01 4.462520e-01 0.000000e+00
 0.000000e+00 0.000000e+00 0.000000e+00 6.108255e-01 3.891745e-01
 0.000000e+00 0.000000e+00 0.000000e+00 0.000000e+00 0.000000e+00
<ENDHMM>
~h "m"
<BEGINHMM>
<NUMSTATES> 5
<STATE> 2
<MEAN> 39
 1.208933e+01 -9.381833e+00 9.749882e+00 -5.564789e+00 1.304710e+01 9.146820e+00 -1.164158e+01 5.172782e+00 -1.455997e+01 2.371791e+00 -1.770405e+00 -9.336477e+00 6.877232e+01 -5.388180e-02 2.189114e-01 3.359279e-01 2.072600e-01 3.910210e-01 7.225146e-01 5.881703e-03 -4.257871e-01 -6.782340e-02 4.886267e-01 -2.166249e-01 -8.741550e-01 -2.672294e-01 -1.801879e-02 -3.642486e-01 3.621957e-02 -3.711508e-01 -6.241741e-01 -9.057059e-01 -1.092753e-01 5.442498e-01 5.745181e-02 -1.386197e-01 3.046469e-01 8.320264e-01 3.727595e-01
<VARIANCE> 39
 1.251099e+01 9.770991e+00 1.929997e+01 1.685540e+01 2.133384e+01 1.711719e+01 2.195795e+01 2.911473e+01 3.064246e+01 2.290985e+01 1.460548e+01 2.419157e+01 1.341073e+01 7.180644e-01 8.290039e-01 1.796495e+00 1.679564e+00 2.909860e+00 2.695940e+00 1.199130e+00 2.008287e+00 1.701609e+00 1.912390e+00 1.088683e+00 3.633190e+00 6.422350e-01 1.277642e-01 2.144184e-01 2.883109e-01 3.273152e-01 5.006595e-01 4.105788e-01 3.339790e-01 3.629338e-01 3.457382e-01 3.995593e-01 2.567245e-01 5.971722e-01 9.591664e-02
<GCONST> 9.943353e+01
<STATE> 3
<MEAN> 39
 1.041500e+01 -9.761810e+00 1.082772e+01 -6.844292e+00 1.124095e+01 8.967588e+00 -1.076408e+01 6.491734e+00 -1.374432e+01 2.738812e+00 -8.594409e-01 -7.002385e+00 6.789774e+01 3.235989e-01 -3.035117e-01 6.366132e-02 -8.425479e-01 -1.328821e+00 -1.475314e+00 8.135888e-02 1.046199e+00 2.012278e-01 -1.134836e-01 4.691192e-01 1.440816e+00 6.935951e-01 -5.707033e-02 -2.582318e-01 -1.260083e-01 -1.833882e-01 -3.872007e-01 -6.712411e-01 -6.596038e-02 4.304219e-01 8.215338e-02 -1.803961e-01 2.162190e-01 4.871224e-01 2.013572e-01
<VARIANCE> 39
 2.749198e+01 1.276023e+01 3.105779e+01 2.174184e+01 3.376996e+01 2.417039e+01 3.389114e+01 3.825967e+01 3.144591e+01 2.270586e+01 1.900812e+01 2.973148e+01 2.415948e+01 2.366688e+00 1.634293e+00 3.347146e+00 2.419583e+00 4.957161e+00 3.533939e+00 2.135807e+00 2.861783e+00 2.249902e+00 2.055087e+00 1.449132e+00 3.673164e+00 1.360857e+00 2.705399e-01 3.124333e-01 4.632198e-01 3.955657e-01 5.611075e-01 5.335859e-01 3.966498e-01 4.714496e-01 4.105858e-01 4.558344e-01 2.691704e-01 5.535762e-01 1.654575e-01
<GCONST> 1.132178e+02
<STATE> 4
<MEAN> 39
 1.115008e+01 -1.026486e+01 1.097725e+01 -9.260262e+00 6.718729e+00 4.522786e+00 -9.220838e+00 1.092955e+01 -1.260167e+01 2.393512e+00 3.919133e-01 -3.935073e+00 6.947814e+01 -2.337615e-02 -5.839342e-01 -1.188002e-01 -8.834577e-01 -1.567302e+00 -2.160632e+00 -1.167504e-01 1.492974e+00 3.544680e-01 -3.018627e-01 7.409752e-01 1.710396e+00 6.255667e-01 -6.338229e-02 -1.797189e-01 -9.493242e-02 1.164751e-01 1.688394e-01 -1.394650e-01 -8.298848e-02 6.487752e-02 -9.327114e-02 -7.563681e-02 -3.040090e-02 -1.624371e-01 6.861117e-02
<VARIANCE> 39
 2.164077e+01 1.249164e+01 3.052016e+01 2.473856e+01 4.224363e+01 4.723274e+01 3.510983e+01 3.849893e+01 3.264185e+01 2.255790e+01 1.828492e+01 2.896816e+01 2.746711e+01 1.538926e+00 1.555519e+00 2.285056e+00 2.868542e+00 3.869050e+00 4.816111e+00 2.627654e+00 3.223598e+00 1.857591e+00 1.980847e+00 1.624825e+00 3.633755e+00 1.349195e+00 1.095826e-01 2.227006e-01 3.656057e-01 3.243562e-01 3.901094e-01 4.686516e-01 4.053683e-01 3.816654e-01 3.399309e-01 4.112973e-01 2.366989e-01 4.158502e-01 8.850272e-02
<GCONST> 1.099697e+02
<TRANSP> 5
 0.000000e+00 1.000000e+00 0.000000e+00 0.000000e+00 0.000000e+00
 0.000000e+00 6.909846e-01 3.090154e-01 0.000000e+00 0.000000e+00
 0.000000e+00 0.000000e+00 4.193125e-01 5.806875e-01 0.000000e+00
 0.000000e+00 0.000000e+00 0.000000e+00 3.919522e-01 6.080478e-01
 0.000000e+00 0.000000e+00 0.000000e+00 0.000000e+00 0.000000e+00
<ENDHMM>
~h "n"
<BEGINHMM>
<NUMSTATES> 5
<STATE> 2
<MEAN> 39
 1.078731e+01 -1.065620e+01 1.041622e+01 -3.985011e+00 1.410740e+01 1.043835e+01 -1.266762e+01 1.210523e-01 -1.675342e+01 2.940664e+00 -1.775226e+00 -7.035875e+00 6.877346e+01 6.073602e-01 -2.198140e-01 -4.599001e-01 -6.217996e-02 3.285079e-01 -2.638956e-01 -1.297859e-01 1.362276e-01 -3.249087e-01 -1.426070e-01 -1.138466e-01 1.347001e-01 6.023762e-01 -4.068947e-02 -5.500148e-01 -5.854855e-02 -7.532606e-01 -6.945503e-01 -1.030579e+00 -9.080791e-03 1.064965e+00 1.250862e-01 -1.038377e-01 4.947748e-01 9.420125e-01 5.228604e-01
<VARIANCE> 39
 2.212556e+01 1.211754e+01 2.887029e+01 2.624953e+01 2.713122e+01 2.410706e+01 2.745005e+01 4.167476e+01 2.735221e+01 2.442018e+01 1.828659e+01 2.307336e+01 2.402891e+01 2.113742e+00 2.209050e+00 2.767623e+00 3.909106e+00 3.626569e+00 4.874267e+00 2.624244e+00 6.734914e+00 2.667005e+00 2.044656e+00 2.114652e+00 4.740394e+00 2.006167e+00 3.002114e-01 3.024885e-01 4.562486e-01 5.318692e-01 5.547240e-01 6.820433e-01 5.479066e-01 8.636782e-01 5.463290e-01 4.883834e-01 4.008651e-01 7.038628e-01 2.017517e-01
<GCONST> 1.177945e+02
<STATE> 3
<MEAN> 39
 1.295904e+01 -1.502665e+01 7.983126e+00 -9.522100e+00 9.767907e+00 3.288014e+00 -1.245518e+01 8.261062e+00 -1.624593e+01 1.531891e-01 1.026321e-01 -2.422628e-01 7.437933e+01 3.068050e-01 -1.265270e+00 -8.361908e-01 -1.951467e+00 -1.720245e+00 -3.033167e+00 1.384951e-01 3.036662e+00 2.582200e-01 -4.756565e-01 1.476234e+00 2.785279e+00 1.537741e+00 -2.479428e-01 6.924047e-02 2.886776e-01 4.645957e-02 -9.980273e-02 -4.244922e-02 3.124220e-02 -1.497315e-01 -3.969694e-02 2.418990e-01 1.673232e-01 -1.329740e-01 -1.354341e-01
<VARIANCE> 39
 9.693656e+00 1.654899e+01 4.717039e+01 5.136008e+01 3.122027e+01 4.608086e+01 3.284426e+01 4.851569e+01 4.024359e+01 3.718915e+01 2.769958e+01 3.636327e+01 2.111239e+01 9.384652e-01 1.677651e+00 3.391963e+00 3.253688e+00 2.934797e+00 3.954998e+00 3.178673e+00 3.877937e+00 2.738816e+00 3.250934e+00 2.642612e+00 3.246097e+00 1.168215e+00 2.109122e-01 3.478939e-01 4.811879e-01 6.193523e-01 4.331213e-01 5.958581e-01 4.690866e-01 6.993273e-01 5.898595e-01 4.825124e-01 4.408076e-01 6.354529e-01 1.865498e-01
<GCONST> 1.182781e+02
<STATE> 4
<MEAN> 39
 1.305864e+01 -1.646189e+01 5.916317e+00 -1.228336e+01 7.167565e+00 -1.658937e+00 -1.155576e+01 1.278912e+01 -1.533117e+01 6.997948e-01 3.145852e+00 3.744235e+00 7.605009e+01 -2.224835e-01 -3.333655e-01 5.788432e-02 -6.231976e-01 -8.948058e-01 -1.164123e+00 1.447908e-01 7.793173e-01 3.232653e-02 3.765014e-01 8.486124e-01 5.488451e-01 3.890636e-01 -2.169276e-01 2.711994e-01 4.099144e-01 3.955525e-01 2.374740e-01 7.301634e-01 6.699207e-02 -6.742836e-01 -3.662382e-02 1.978213e-01 -3.501012e-01 -7.478594e-01 -4.106684e-01
<VARIANCE> 39
 1.133071e+01 1.907826e+01 5.381110e+01 4.479309e+01 4.501591e+01 4.139701e+01 4.108511e+01 4.617811e+01 3.319430e+01 4.260498e+01 2.381785e+01 3.021046e+01 2.491114e+01 1.011745e+00 1.227509e+00 2.676149e+00 2.299758e+00 1.829257e+00 2.903662e+00 2.688113e+00 2.691472e+00 2.585564e+00 2.628944e+00 1.899551e+00 2.295573e+00 8.801574e-01 1.364834e-01 3.487757e-01 3.990586e-01 5.117542e-01 3.471386e-01 5.745391e-01 3.598747e-01 5.895494e-01 3.280877e-01 5.071177e-01 4.150038e-01 6.180477e-01 1.695980e-01
<GCONST> 1.131871e+02
<TRANSP> 5
 0.000000e+00 1.000000e+00 0.000000e+00 0.000000e+00 0.000000e+00
 0.000000e+00 6.489579e-01 3.510421e-01 0.000000e+00 0.000000e+00
 0.000000e+00 0.000000e+00 3.224908e-01 6.775092e-01 0.000000e+00
 0.000000e+00 0.000000e+00 0.000000e+00 4.449040e-01 5.550960e-01
 0.000000e+00 0.000000e+00 0.000000e+00 0.000000e+00 0.000000e+00
<ENDHMM>
~h "o"
<BEGINHMM>
<NUMSTATES> 5
<STATE> 2
<MEAN> 39
 1.167724e+01 -1.383406e+01 1.171725e+01 -1.317541e+01 -1.145052e+00 -5.113256e+00 -1.012902e+01 1.303614e+01 -1.608548e+01 2.560264e-01 -6.646578e-01 -2.956146e+00 7.376513e+01 1.555773e+00 5.067684e-01 -7.403166e-01 4.132166e-01 -3.060932e-01 -2.386814e+00 -1.167550e-02 1.070757e+00 -9.693080e-01 -9.170631e-01 -1.506830e-01 -1.688313e-01 1.077084e+00 -3.142149e-01 1.703605e-01 -6.935299e-02 3.318034e-01 4.573482e-01 5.099747e-01 1.062265e-01 -1.595289e-01 1.918610e-01 -1.415854e-02 -8.728787e-02 -1.427677e-01 -4.052497e-01
<VARIANCE> 39
 2.783214e+01 4.063064e+01 5.120446e+01 2.475122e+01 4.867789e+01 6.178216e+01 3.418200e+01 5.506638e+01 5.648770e+01 3.323325e+01 2.674476e+01 2.613889e+01 2.381175e+01 4.362223e+00 2.797110e+00 4.607941e+00 2.819510e+00 3.937238e+00 4.718339e+00 3.731127e+00 3.514576e+00 3.499185e+00 3.530557e+00 2.120758e+00 2.360825e+00 2.588178e+00 5.222040e-01 8.353777e-01 9.638006e-01 5.253999e-01 5.707136e-01 1.087020e+00 5.538084e-01 6.021714e-01 6.854646e-01 5.379964e-01 4.319965e-01 5.089038e-01 4.349656e-01
<GCONST> 1.278659e+02
<STATE> 3
<MEAN> 39
 1.429550e+01 -1.340404e+01 9.103210e+00 -1.140161e+01 -1.375961e-01 -9.930872e+00 -1.025343e+01 1.529909e+01 -1.914089e+01 -2.692840e+00 -1.324201e+00 -4.121970e+00 7.581372e+01 -4.437402e-02 3.390415e-01 1.116606e-01 5.458242e-01 5.472831e-01 4.509691e-01 2.311416e-01 -6.074741e-02 3.043501e-02 -2.000863e-01 -2.362500e-01 -2.041291e-01 -2.258990e-01 -7.219390e-01 -3.537415e-02 6.271184e-01 -1.028585e-01 2.297274e-01 1.310913e+00 4.297004e-02 -5.873214e-01 5.127266e-01 4.275849e-01 -3.890467e-02 4.668604e-02 -5.116416e-01
<VARIANCE> 39
 4.900039e+00 1.815465e+01 2.323430e+01 2.317043e+01 4.783774e+01 4.492099e+01 2.751959e+01 5.027209e+01 4.863397e+01 3.322994e+01 2.379406e+01 3.174622e+01 1.259290e+01 2.032901e+00 2.407194e+00 5.741594e+00 1.999995e+00 3.596804e+00 6.381649e+00 3.698590e+00 3.192316e+00 4.121870e+00 2.613698e+00 1.777339e+00 1.996704e+00 1.414756e+00 3.792781e-01 4.006625e-01 6.640638e-01 4.245389e-01 5.156484e-01 6.921782e-01 3.952542e-01 5.704001e-01 6.629928e-01 5.471278e-01 3.821760e-01 5.218078e-01 2.103921e-01
<GCONST> 1.176734e+02
<STATE> 4
<MEAN> 39
 1.078061e+01 -1.061465e+01 1.160614e+01 -1.181130e+01 -1.730150e-01 -2.525743e+00 -8.652378e+00 1.293742e+01 -1.463637e+01 -5.843142e-01 -1.526232e+00 -4.120471e+00 7.085088e+01 -1.650273e+00 4.003532e-01 1.377750e+00 2.830275e-01 7.457760e-01 2.729294e+00 2.045339e-01 -1.213766e+00 9.267949e-01 6.144153e-01 -1.465919e-01 -1.468869e-02 -1.424930e+00 -3.492953e-01 -3.370562e-01 1.028575e-01 -1.436826e-01 1.103209e-01 1.265499e-01 -1.656494e-01 -2.009404e-01 -1.889503e-02 1.909912e-01 6.158837e-02 8.828151e-02 7.754609e-03
<VARIANCE> 39
 2.125243e+01 2.350644e+01 3.701290e+01 3.358988e+01 5.904789e+01 4.897212e+01 4.141162e+01 4.041045e+01 6.135881e+01 3.627460e+01 2.207362e+01 2.220734e+01 3.569962e+01 2.476218e+00 2.516440e+00 6.147745e+00 2.477289e+00 3.846120e+00 4.430242e+00 3.293978e+00 3.216728e+00 2.930823e+00 2.472145e+00 2.094085e+00 2.951603e+00 1.943260e+00 3.079917e-01 3.884773e-01 5.461630e-01 4.007321e-01 5.319519e-01 7.598524e-01 5.223005e-01 4.716961e-01 6.113939e-01 4.358628e-01 3.368994e-01 3.442090e-01 2.421108e-01
<GCONST> 1.212570e+02
<TRANSP> 5
 0.000000e+00 1.000000e+00 0.000000e+00 0.000000e+00 0.000000e+00
 0.000000e+00 3.777237e-01 6.222763e-01 0.000000e+00 0.000000e+00
 0.000000e+00 0.000000e+00 5.802938e-01 4.197061e-01 0.000000e+00
 0.000000e+00 0.000000e+00 0.000000e+00 3.911775e-01 6.088225e-01
 0.000000e+00 0.000000e+00 0.000000e+00 0.000000e+00 0.000000e+00
<ENDHMM>
~h "p"
<BEGINHMM>
<NUMSTATES> 5
<STATE> 2
<MEAN> 39
 2.477388e+00 -7.985466e+00 1.383458e+01 -5.786699e+00 4.051083e+00 5.091516e+00 -1.001251e+01 7.403249e+00 -1.148892e+01 -1.882693e-01 1.958068e-01 -1.550214e+00 6.027930e+01 -1.786651e+00 1.711106e-01 4.223616e-01 -1.179259e-01 -6.731099e-01 3.629561e-01 -1.208860e-01 -5.449057e-02 9.218671e-01 9.388239e-02 -8.949901e-02 -3.594279e-02 -1.764034e+00 2.235743e-01 -8.224939e-01 -3.186774e-02 -3.942545e-01 -1.391912e-02 -2.956462e-01 -1.127161e-01 -1.026952e-02 -3.934025e-01 3.981864e-01 1.955309e-01 -5.309798e-02 9.006389e-01
<VARIANCE> 39
 2.860099e+01 1.134862e+01 3.289630e+01 3.640590e+01 3.921932e+01 2.563018e+01 3.053534e+01 3.475468e+01 2.983427e+01 2.171356e+01 2.010707e+01 2.049546e+01 1.418381e+01 1.276993e+00 1.692577e+00 2.570336e+00 1.700777e+00 1.473106e+00 2.121237e+00 1.859408e+00 1.633525e+00 1.746423e+00 1.798505e+00 1.392245e+00 1.324088e+00 1.593769e+00 2.401152e-01 4.453286e-01 4.759780e-01 4.113398e-01 2.863007e-01 5.563698e-01 4.576465e-01 3.835261e-01 3.835923e-01 3.865357e-01 3.111859e-01 3.017707e-01 2.470324e-01
<GCONST> 1.071777e+02
<STATE> 3
<MEAN> 39
 -2.062407e+00 -8.979573e+00 1.505985e+01 -5.353234e+00 3.765719e+00 5.959940e+00 -9.792591e+00 7.644480e+00 -9.703524e+00 1.213385e+00 1.810702e-01 -2.639670e+00 5.739490e+01 -2.386812e-01 -2.030702e+00 4.526280e-01 -1.642794e+00 -7.106749e-01 4.148263e-01 4.493141e-01 2.627196e-02 -5.335336e-01 1.096871e+00 3.436709e-01 2.620620e-01 1.340039e+00 1.089686e+00 -7.063666e-01 1.002869e-01 -5.097883e-01 1.852443e-01 -2.078936e-01 -9.422924e-02 -1.034780e-02 -7.786371e-01 2.072350e-01 1.273492e-01 1.732446e-01 1.594441e+00
<VARIANCE> 39
 1.612441e+01 9.003074e+00 1.818407e+01 1.938480e+01 2.023800e+01 1.520092e+01 2.243983e+01 2.435828e+01 2.570069e+01 1.511841e+01 1.522782e+01 1.391655e+01 1.094522e+01 2.579479e+00 3.142600e+00 2.819372e+00 2.903343e+00 2.217922e+00 2.157879e+00 2.145905e+00 2.316703e+00 2.629393e+00 2.279109e+00 1.676923e+00 1.647166e+00 2.881147e+00 4.064694e-01 4.172348e-01 5.100653e-01 4.125969e-01 3.877283e-01 4.778056e-01 4.787354e-01 4.769635e-01 4.395038e-01 3.354826e-01 3.832240e-01 3.452251e-01 1.856024e-01
<GCONST> 1.073766e+02
<STATE> 4
<MEAN> 39
 2.879225e-01 -1.606183e+01 1.641743e+01 -1.155715e+01 1.974799e+00 7.813377e+00 -8.276962e+00 7.353837e+00 -1.278413e+01 5.154490e+00 1.731232e+00 -1.197341e+00 6.457883e+01 2.703508e+00 -2.142297e+00 4.344904e-01 -1.649561e+00 8.265551e-02 -6.423699e-01 -4.982738e-01 -2.902620e-01 -2.125443e+00 6.279634e-01 7.709043e-02 8.290695e-03 4.332375e+00 7.309855e-01 5.137442e-01 -6.291755e-01 4.861293e-01 3.075823e-01 -8.776314e-01 -4.203864e-01 3.773838e-02 -1.163788e-01 -4.517550e-01 -9.466272e-02 -2.389650e-01 3.927559e-01
<VARIANCE> 39
 2.290091e+01 3.135598e+01 2.317888e+01 2.741477e+01 2.384419e+01 1.797082e+01 1.820184e+01 2.509280e+01 3.263768e+01 1.691809e+01 1.315502e+01 1.301983e+01 4.656008e+01 6.681348e+00 4.144448e+00 5.583067e+00 3.729858e+00 3.710825e+00 3.905023e+00 3.950794e+00 4.486426e+00 4.230553e+00 2.924224e+00 2.562949e+00 2.637589e+00 2.543350e+00 7.634240e-01 8.190998e-01 1.078178e+00 5.822342e-01 5.538529e-01 7.119918e-01 6.518647e-01 6.230959e-01 7.147123e-01 4.813791e-01 3.658403e-01 3.716768e-01 7.649069e-01
<GCONST> 1.233591e+02
<TRANSP> 5
 0.000000e+00 1.000000e+00 0.000000e+00 0.000000e+00 0.000000e+00
 0.000000e+00 5.652903e-01 4.347097e-01 0.000000e+00 0.000000e+00
 0.000000e+00 0.000000e+00 4.429738e-01 5.570262e-01 0.000000e+00
 0.000000e+00 0.000000e+00 0.000000e+00 4.555922e-01 5.444078e-01
 0.000000e+00 0.000000e+00 0.000000e+00 0.000000e+00 0.000000e+00
<ENDHMM>
~h "r"
<BEGINHMM>
<NUMSTATES> 5
<STATE> 2
<MEAN> 39
 1.083616e+01 -1.668051e+01 1.237759e+01 -1.418502e+01 4.033084e+00 2.632915e+00 -1.303931e+01 5.124101e+00 -1.903774e+01 3.783890e+00 9.359593e-01 -2.153267e+00 7.542259e+01 2.310856e+00 2.944827e-01 -2.282238e+00 -2.363074e-01 1.369052e+00 -3.147225e-01 -1.733709e+00 -1.425476e+00 -5.454037e-01 -5.642176e-01 -4.108859e-01 2.595970e-01 1.525279e+00 -3.579119e-01 5.292615e-01 -5.565946e-01 3.824679e-01 4.875032e-01 2.254439e-01 -1.882327e-01 6.356922e-02 6.806459e-01 -4.330899e-01 -1.614863e-01 1.668624e-02 -7.871882e-01
<VARIANCE> 39
 2.633701e+01 2.518576e+01 5.464165e+01 3.485836e+01 3.350543e+01 4.394188e+01 3.629711e+01 4.625402e+01 3.249795e+01 3.834235e+01 2.305146e+01 2.150217e+01 2.655812e+01 4.594763e+00 2.570165e+00 4.585592e+00 4.693503e+00 2.604738e+00 6.916498e+00 3.270398e+00 3.751808e+00 5.353289e+00 4.459741e+00 2.914401e+00 2.817789e+00 5.295499e+00 5.924361e-01 4.817631e-01 9.370043e-01 7.587868e-01 4.246796e-01 9.876060e-01 5.615016e-01 8.051487e-01 6.323911e-01 6.227314e-01 4.598862e-01 3.597597e-01 4.736356e-01
<GCONST> 1.282056e+02
<STATE> 3
<MEAN> 39
 1.455711e+01 -1.540339e+01 6.203958e+00 -1.470103e+01 7.710107e+00 1.378688e+00 -1.732423e+01 2.836528e+00 -1.938158e+01 2.312206e+00 -6.428834e-01 -2.411114e+00 7.667937e+01 4.097283e-01 1.065486e+00 -2.426270e+00 2.188754e-01 2.093362e+00 1.296413e+00 -1.685964e+00 -1.316644e+00 1.456896e+00 -1.399921e+00 -8.840981e-01 4.347717e-01 -5.658764e-01 -5.554228e-01 5.558753e-02 3.942252e-01 1.344381e-01 1.216319e-02 -8.485889e-02 2.373049e-01 6.965860e-01 3.423890e-01 -9.945339e-02 6.767876e-02 3.752737e-02 -4.196241e-01
<VARIANCE> 39
 6.560135e+00 1.857774e+01 3.013573e+01 4.013319e+01 3.032907e+01 4.287106e+01 3.532391e+01 3.601084e+01 3.232962e+01 4.263015e+01 3.151834e+01 2.342954e+01 1.615547e+01 1.454713e+00 1.570639e+00 4.147028e+00 3.309890e+00 1.827387e+00 7.716373e+00 3.069063e+00 4.570125e+00 3.299828e+00 3.512751e+00 2.216619e+00 2.165082e+00 1.383698e+00 4.437142e-01 3.639461e-01 6.009770e-01 4.937909e-01 4.085714e-01 1.132762e+00 5.363151e-01 7.308139e-01 7.201314e-01 5.974535e-01 4.599942e-01 3.726794e-01 3.275487e-01
<GCONST> 1.191200e+02
<STATE> 4
<MEAN> 39
 1.380355e+01 -1.255930e+01 2.002284e+00 -1.482406e+01 1.143770e+01 4.141041e+00 -1.980162e+01 3.158176e+00 -1.466773e+01 -2.005944e+00 -1.831836e+00 -9.889062e-01 7.471522e+01 8.000439e-02 -3.788176e-02 -5.599231e-01 1.869522e-01 6.076160e-01 -1.597548e+00 -2.597299e-01 1.685496e+00 2.709030e-03 -3.195696e-01 3.116517e-01 3.365114e-01 6.143343e-02 -1.997155e-01 -3.509586e-01 8.433303e-01 1.858461e-01 -7.731505e-01 -6.657857e-01 8.192298e-01 6.155537e-01 -5.426571e-01 4.879338e-01 3.868382e-01 -1.507121e-01 1.156982e-01
<VARIANCE> 39
 1.081293e+01 2.041230e+01 3.992585e+01 3.964442e+01 2.694841e+01 6.423854e+01 4.434805e+01 4.580233e+01 3.230688e+01 3.988681e+01 3.138632e+01 2.748032e+01 1.950327e+01 8.595796e-01 1.962117e+00 4.153209e+00 2.623843e+00 3.710903e+00 7.813238e+00 4.859936e+00 4.971653e+00 3.847923e+00 3.051667e+00 2.640527e+00 2.014559e+00 1.222753e+00 1.988045e-01 3.013154e-01 5.447425e-01 5.606726e-01 4.009543e-01 1.443510e+00 7.032447e-01 9.761645e-01 6.807154e-01 5.953969e-01 4.104903e-01 4.217071e-01 1.980712e-01
<GCONST> 1.210043e+02
<TRANSP> 5
 0.000000e+00 1.000000e+00 0.000000e+00 0.000000e+00 0.000000e+00
 0.000000e+00 3.021663e-01 6.978337e-01 0.000000e+00 0.000000e+00
 0.000000e+00 0.000000e+00 2.849296e-01 7.150704e-01 0.000000e+00
 0.000000e+00 0.000000e+00 0.000000e+00 6.388125e-01 3.611875e-01
 0.000000e+00 0.000000e+00 0.000000e+00 0.000000e+00 0.000000e+00
<ENDHMM>
~h "s"
<BEGINHMM>
<NUMSTATES> 5
<STATE> 2
<MEAN> 39
 -8.286996e+00 -2.279704e+01 3.384264e+01 -1.751946e+01 2.452570e+00 1.093196e+01 -4.711507e+00 6.249732e+00 -1.928216e+01 8.895082e+00 1.255750e+00 -1.730572e+00 7.643150e+01 -2.971427e+00 -1.316202e+00 2.253682e+00 -1.688893e+00 -1.874154e-01 9.558587e-01 5.978966e-01 3.846720e-01 1.620460e-01 1.072376e+00 -4.686510e-02 3.028798e-01 1.749701e-01 6.551395e-01 2.510113e-01 -9.436848e-01 2.694388e-01 1.831914e-01 -5.034214e-01 -3.240956e-01 2.288656e-02 -3.528100e-02 -1.157389e-01 3.017857e-02 -1.378411e-01 -1.443831e-01
<VARIANCE> 39
 4.582772e+01 2.693556e+01 5.077151e+01 3.426712e+01 2.629725e+01 3.646570e+01 3.010052e+01 3.963128e+01 5.426943e+01 3.163070e+01 2.626917e+01 2.104493e+01 2.462357e+01 4.478101e+00 3.542609e+00 7.980886e+00 3.165607e+00 2.708139e+00 3.264975e+00 2.495399e+00 3.019048e+00 2.772189e+00 2.327614e+00 2.081263e+00 1.888602e+00 7.891877e-01 5.422653e-01 5.595459e-01 9.303331e-01 5.695868e-01 5.052505e-01 5.893372e-01 3.912775e-01 5.202202e-01 5.620284e-01 4.581831e-01 3.794521e-01 3.220970e-01 1.221913e-01
<GCONST> 1.201710e+02
<STATE> 3
<MEAN> 39
 -1.331220e+01 -2.578142e+01 3.402262e+01 -2.129058e+01 1.942679e+00 1.109971e+01 -4.575673e+00 6.770794e+00 -1.863022e+01 1.202577e+01 1.645054e+00 -1.662730e+00 7.522059e+01 1.340796e+00 6.217703e-01 -1.233064e+00 1.082338e+00 1.021603e-01 -2.710128e-01 -3.003938e-01 -3.147435e-01 1.109473e-01 -7.278296e-01 -2.067528e-02 -8.673230e-02 -5.269665e-01 1.103312e+00 6.167010e-01 -7.472978e-01 7.160980e-01 1.455695e-01 -2.430037e-01 -3.074649e-01 -1.722545e-01 -6.840602e-02 -5.893658e-01 -8.344378e-02 -1.367144e-01 -1.738100e-01
<VARIANCE> 39
 1.778226e+01 2.300130e+01 2.928300e+01 2.614283e+01 2.466301e+01 3.417646e+01 2.497955e+01 2.600972e+01 4.413136e+01 2.689447e+01 2.790089e+01 2.029699e+01 2.271860e+01 5.047894e+00 3.049603e+00 3.420763e+00 3.731270e+00 2.046729e+00 1.864625e+00 2.147321e+00 2.357189e+00 2.912546e+00 2.577782e+00 2.252225e+00 1.601703e+00 1.497824e+00 4.270256e-01 5.695521e-01 6.693587e-01 5.507459e-01 4.693300e-01 4.572215e-01 4.182592e-01 4.090530e-01 4.811093e-01 4.093799e-01 4.569115e-01 3.460556e-01 2.592012e-01
<GCONST> 1.154952e+02
<STATE> 4
<MEAN> 39
 -1.894264e-01 -1.839263e+01 2.567631e+01 -1.336630e+01 3.586048e+00 9.470616e+00 -7.298543e+00 3.546548e+00 -1.989273e+01 5.109677e+00 3.264355e-01 -3.297269e+00 7.405889e+01 4.350508e+00 2.315514e+00 -4.075660e+00 2.334409e+00 1.109481e+00 -1.494933e+00 -1.887727e+00 -3.003019e-01 -1.117639e-01 -1.853513e+00 -3.999717e-01 -7.674819e-01 -1.011341e+00 -3.366934e-01 -2.370338e-01 -1.424816e-01 -2.203018e-01 1.554626e-01 -3.159554e-01 -1.609747e-01 4.586144e-01 1.963080e-01 2.448937e-01 4.394375e-02 2.495471e-02 1.168105e-02
<VARIANCE> 39
 6.527752e+01 2.788367e+01 7.544556e+01 3.969613e+01 3.044591e+01 3.737609e+01 4.175542e+01 5.375727e+01 3.558379e+01 3.687441e+01 2.463229e+01 2.330895e+01 4.014697e+01 4.652471e+00 3.505481e+00 4.809840e+00 5.171828e+00 3.813600e+00 4.832077e+00 3.419986e+00 3.928656e+00 4.868858e+00 3.714415e+00 3.094652e+00 2.638195e+00 3.104921e+00 9.107487e-01 5.360557e-01 1.024026e+00 5.959136e-01 5.239994e-01 6.779420e-01 5.283809e-01 7.202249e-01 5.945033e-01 5.856706e-01 3.883528e-01 5.146986e-01 2.794337e-01
<GCONST> 1.296599e+02
<TRANSP> 5
 0.000000e+00 1.000000e+00 0.000000e+00 0.000000e+00 0.000000e+00
 0.000000e+00 7.972041e-01 2.027959e-01 0.000000e+00 0.000000e+00
 0.000000e+00 0.000000e+00 7.543556e-01 2.456445e-01 0.000000e+00
 0.000000e+00 0.000000e+00 0.000000e+00 4.775658e-01 5.224342e-01
 0.000000e+00 0.000000e+00 0.000000e+00 0.000000e+00 0.000000e+00
<ENDHMM>
~h "t"
<BEGINHMM>
<NUMSTATES> 5
<STATE> 2
<MEAN> 39
 -8.913208e-01 -1.540824e+01 2.205575e+01 -1.077533e+01 2.636826e+00 8.509876e+00 -8.593141e+00 6.381096e+00 -1.389567e+01 4.680735e+00 -6.795469e-01 -1.537386e+00 6.587038e+01 -3.731429e-01 6.327378e-01 -2.630203e-01 2.054361e-01 -3.624257e-01 4.260391e-01 2.666887e-01 7.766411e-02 5.293599e-01 -2.897265e-01 6.722887e-02 1.532940e-02 -1.098331e+00 2.607366e-01 -2.211364e-01 -4.850896e-01 4.074641e-03 8.944064e-02 -3.938469e-01 -1.421744e-01 3.761513e-02 -1.279998e-01 1.615666e-02 7.698497e-02 -1.067416e-01 3.007996e-01
<VARIANCE> 39
 4.329820e+01 5.179108e+01 6.684962e+01 6.080200e+01 3.652364e+01 3.247488e+01 3.124578e+01 3.828648e+01 4.882352e+01 3.319931e+01 2.152725e+01 1.702643e+01 5.291558e+01 5.499846e+00 5.195663e+00 7.619497e+00 6.784171e+00 3.324908e+00 3.644375e+00 3.087379e+00 2.585911e+00 3.257582e+00 3.276631e+00 1.860301e+00 1.575977e+00 5.319075e+00 5.038463e-01 1.295562e+00 1.139920e+00 1.251140e+00 6.444956e-01 8.340830e-01 5.248384e-01 5.296412e-01 5.540430e-01 6.380925e-01 4.279646e-01 3.840749e-01 7.654475e-01
<GCONST> 1.310309e+02
<STATE> 3
<MEAN> 39
 4.809324e-01 -1.092933e+01 1.707876e+01 -6.286408e+00 3.698414e+00 6.712028e+00 -9.622744e+00 5.535727e+00 -1.315555e+01 1.221128e+00 2.335268e-01 -1.414979e+00 6.186390e+01 -3.557498e-01 -1.654903e-01 -1.034690e+00 1.366283e-02 -4.716783e-01 -3.839921e-01 7.255316e-02 3.289210e-01 5.004309e-01 -9.711529e-02 1.934780e-01 -2.094439e-01 -6.802958e-01 2.179350e-01 -1.118303e+00 3.004766e-01 -7.519836e-01 -9.265242e-02 -2.024878e-01 -1.047065e-01 -4.913736e-02 -5.148740e-01 5.106673e-01 -9.512746e-02 -1.181732e-01 1.206552e+00
<VARIANCE> 39
 3.289392e+01 2.816127e+01 5.123881e+01 3.893365e+01 3.155543e+01 2.657477e+01 3.763337e+01 3.629539e+01 3.891803e+01 2.713934e+01 1.832465e+01 1.642978e+01 3.861628e+01 4.870133e+00 5.313646e+00 6.287106e+00 4.637164e+00 3.199280e+00 3.052126e+00 2.817882e+00 2.545360e+00 2.421309e+00 2.649797e+00 1.787027e+00 1.938175e+00 3.067107e+00 4.572326e-01 8.523697e-01 9.569771e-01 7.866251e-01 5.536270e-01 6.487868e-01 5.939905e-01 5.384380e-01 5.309912e-01 5.383116e-01 3.743915e-01 3.381092e-01 7.689474e-01
<GCONST> 1.245063e+02
<STATE> 4
<MEAN> 39
 -1.217738e+00 -1.821044e+01 1.876608e+01 -1.163333e+01 6.973871e-01 7.167907e+00 -8.547514e+00 5.970170e+00 -1.420436e+01 4.704133e+00 -2.966645e-01 -2.390310e+00 6.587299e+01 1.349476e+00 -2.013826e+00 3.262671e-01 -1.592465e+00 -2.871376e-01 -4.271314e-01 -5.298353e-01 -5.272906e-01 -1.572902e+00 4.875188e-01 -2.365046e-01 -1.213281e-01 2.803237e+00 7.519028e-01 3.864040e-01 -2.874372e-01 3.572105e-01 4.337911e-01 -4.392472e-01 -3.188348e-01 -3.431404e-02 -3.255296e-01 -2.925271e-01 9.378486e-02 7.923649e-02 4.372585e-01
<VARIANCE> 39
 3.261002e+01 5.385906e+01 4.569004e+01 5.632677e+01 3.094941e+01 2.561976e+01 3.139129e+01 3.202999e+01 4.595916e+01 2.701127e+01 1.814632e+01 1.423791e+01 6.035625e+01 5.438988e+00 7.990459e+00 6.505780e+00 7.403856e+00 4.890587e+00 3.321058e+00 3.604862e+00 3.665487e+00 3.823458e+00 4.055034e+00 2.477896e+00 1.999418e+00 4.135077e+00 7.828841e-01 1.464966e+00 1.506341e+00 1.382335e+00 6.929684e-01 6.747319e-01 6.016381e-01 6.001987e-01 7.421076e-01 7.524453e-01 5.632501e-01 3.354461e-01 1.050396e+00
<GCONST> 1.330370e+02
<TRANSP> 5
 0.000000e+00 1.000000e+00 0.000000e+00 0.000000e+00 0.000000e+00
 0.000000e+00 4.704879e-01 5.295121e-01 0.000000e+00 0.000000e+00
 0.000000e+00 0.000000e+00 3.477954e-01 6.522047e-01 0.000000e+00
 0.000000e+00 0.000000e+00 0.000000e+00 5.845556e-01 4.154444e-01
 0.000000e+00 0.000000e+00 0.000000e+00 0.000000e+00 0.000000e+00
<ENDHMM>
~h "u"
<BEGINHMM>
<NUMSTATES> 5
<STATE> 2
<MEAN> 39
 1.000995e+01 -1.028512e+01 1.373041e+01 -1.157933e+01 4.318775e+00 -3.365143e+00 -1.220696e+01 1.368128e+01 -1.990819e+01 -3.809521e+00 -2.696971e+00 -7.284040e+00 7.031560e+01 1.024486e+00 1.373038e+00 1.787613e-01 4.221859e-01 -3.462767e-01 -1.815162e+00 -5.448892e-02 1.347921e+00 9.044328e-02 -1.239543e-01 -9.333536e-02 -6.326909e-01 8.476031e-02 -2.597984e-01 -2.066958e-01 1.761143e-01 1.958205e-01 1.072890e-01 3.367867e-01 -5.457674e-02 -3.336798e-01 2.545263e-01 2.826783e-01 3.650918e-01 2.961408e-01 1.896847e-02
<VARIANCE> 39
 2.892919e+01 2.467233e+01 3.190224e+01 2.136689e+01 3.506884e+01 3.931564e+01 3.197040e+01 3.711011e+01 5.971631e+01 4.993649e+01 3.085278e+01 3.045405e+01 2.878597e+01 2.640089e+00 3.276242e+00 3.461114e+00 2.286284e+00 4.273896e+00 4.836225e+00 3.834532e+00 3.968664e+00 3.869655e+00 3.020759e+00 2.460091e+00 2.889876e+00 1.278110e+00 4.842211e-01 6.176406e-01 5.464018e-01 5.275168e-01 4.852557e-01 8.574696e-01 6.592897e-01 8.099451e-01 5.530463e-01 5.697707e-01 4.908634e-01 5.480428e-01 3.425952e-01
<GCONST> 1.244339e+02
<STATE> 3
<MEAN> 39
 1.235139e+01 -5.917550e+00 1.542315e+01 -1.025997e+01 1.201704e+00 -8.609394e+00 -1.278777e+01 1.632112e+01 -1.687275e+01 -2.668872e+00 -1.207146e-01 -7.162656e+00 7.073201e+01 -5.592189e-02 2.630585e-02 2.148711e-01 6.371909e-01 4.604852e-01 8.055724e-01 1.201907e-01 -2.005524e-01 5.669081e-01 -1.231690e-01 1.885719e-02 3.639949e-01 -1.001574e-01 -6.058753e-01 -5.723802e-01 6.519258e-02 -2.980688e-02 3.755599e-01 1.201110e+00 1.374187e-01 -6.209166e-01 1.826105e-01 2.561184e-01 -1.021270e-01 1.486947e-01 -2.117827e-01
<VARIANCE> 39
 5.574024e+00 2.698833e+01 2.636811e+01 1.752311e+01 3.826657e+01 4.218998e+01 3.068199e+01 5.040644e+01 3.153001e+01 4.350281e+01 2.697639e+01 2.886832e+01 1.544611e+01 1.974982e+00 2.793991e+00 2.723566e+00 2.117606e+00 3.720631e+00 6.420919e+00 3.318029e+00 3.249115e+00 2.856569e+00 3.276506e+00 2.570196e+00 1.618949e+00 1.892018e+00 2.661388e-01 4.332737e-01 4.544373e-01 3.742550e-01 3.842703e-01 6.025257e-01 4.586381e-01 7.013007e-01 4.770653e-01 6.138723e-01 3.950342e-01 4.028389e-01 1.673244e-01
<GCONST> 1.161042e+02
<STATE> 4
<MEAN> 39
 8.432004e+00 -7.997996e+00 1.558978e+01 -8.495538e+00 4.249247e+00 9.733353e-01 -1.102462e+01 1.172156e+01 -1.473467e+01 -1.557155e+00 -1.550465e+00 -5.753144e+00 6.739857e+01 -1.753247e+00 -1.094689e+00 4.658299e-01 4.856146e-01 9.954787e-01 2.592368e+00 2.586829e-01 -1.637569e+00 6.376606e-01 7.919378e-01 -4.382363e-03 4.069928e-01 -7.588041e-01 -3.131655e-01 -4.320310e-01 4.951880e-02 -2.335719e-01 -9.505522e-02 -1.513067e-01 -1.103226e-01 -5.701173e-02 -8.980000e-02 2.280908e-01 1.630044e-01 6.034787e-02 1.380628e-01
<VARIANCE> 39
 2.624027e+01 3.299799e+01 4.080527e+01 2.698032e+01 5.865421e+01 3.505754e+01 3.967570e+01 4.336273e+01 4.939312e+01 4.721972e+01 2.926651e+01 2.016390e+01 4.612723e+01 2.301365e+00 3.545348e+00 5.265709e+00 2.981176e+00 2.816561e+00 5.214251e+00 3.695717e+00 3.449836e+00 3.686905e+00 3.174971e+00 2.334663e+00 2.279608e+00 1.776634e+00 3.965569e-01 4.704844e-01 6.244358e-01 4.173257e-01 5.083687e-01 5.428564e-01 4.189929e-01 5.642686e-01 5.435985e-01 7.299314e-01 4.304766e-01 3.906838e-01 1.970470e-01
<GCONST> 1.231973e+02
<TRANSP> 5
 0.000000e+00 1.000000e+00 0.000000e+00 0.000000e+00 0.000000e+00
 0.000000e+00 4.868226e-01 5.131773e-01 0.000000e+00 0.000000e+00
 0.000000e+00 0.000000e+00 6.155000e-01 3.845000e-01 0.000000e+00
 0.000000e+00 0.000000e+00 0.000000e+00 3.820944e-01 6.179056e-01
 0.000000e+00 0.000000e+00 0.000000e+00 0.000000e+00 0.000000e+00
<ENDHMM>
~h "v"
<BEGINHMM>
<NUMSTATES> 5
<STATE> 2
<MEAN> 39
 6.865822e+00 -1.017907e+01 1.422261e+01 -9.383013e+00 6.559738e+00 5.270757e+00 -9.772251e+00 9.654516e+00 -1.458716e+01 -1.396035e-01 -1.562619e+00 -3.929832e+00 6.713368e+01 5.514660e-01 3.113634e-01 1.761860e-01 1.912807e-01 7.691196e-01 3.671865e-01 -4.094493e-02 1.800945e-01 -2.149774e-01 -3.585720e-01 -5.217574e-01 -5.991836e-02 1.344382e-01 1.059099e-01 -3.676516e-01 -1.970916e-01 -3.369196e-02 -1.033797e-01 -3.791071e-01 -2.538302e-01 -2.528383e-01 -2.567462e-01 1.633794e-01 2.569308e-01 8.078361e-02 3.716344e-01
<VARIANCE> 39
 4.649763e+01 2.917384e+01 4.257534e+01 4.373275e+01 3.755079e+01 4.389122e+01 3.097976e+01 3.038027e+01 3.927329e+01 2.146394e+01 1.778731e+01 1.076719e+01 6.138777e+01 3.352009e+00 1.843820e+00 3.825111e+00 2.334241e+00 2.453270e+00 3.282413e+00 2.014325e+00 2.176866e+00 2.793106e+00 1.876597e+00 1.219301e+00 1.169977e+00 1.398157e+00 3.595186e-01 4.564487e-01 4.727091e-01 4.468875e-01 3.443411e-01 5.181308e-01 3.797919e-01 4.347652e-01 4.373446e-01 3.904505e-01 3.026314e-01 2.416787e-01 1.722698e-01
<GCONST> 1.136765e+02
<STATE> 3
<MEAN> 39
 9.929317e+00 -1.262117e+01 1.467553e+01 -1.210665e+01 8.452948e+00 4.231936e+00 -1.149006e+01 1.031668e+01 -1.794492e+01 -8.694106e-01 -3.172879e+00 -3.979268e+00 7.180492e+01 7.372889e-01 -8.177164e-01 -9.265743e-01 2.389199e-01 1.214904e-01 -1.076360e+00 -1.121935e+00 -7.360920e-01 -6.733112e-01 -5.048699e-02 5.162529e-01 2.422465e-01 1.005303e+00 1.480896e-01 -2.018353e-01 -4.855820e-01 3.372472e-01 -2.651642e-01 -7.556860e-01 -3.585680e-01 -3.989938e-01 -1.007879e-01 2.521738e-01 5.647696e-01 4.713234e-02 2.999747e-01
<VARIANCE> 39
 1.510433e+01 1.606869e+01 5.462173e+01 4.718598e+01 3.990683e+01 5.213679e+01 2.907131e+01 3.155287e+01 2.447186e+01 2.281088e+01 1.946126e+01 1.333370e+01 1.884826e+01 1.866823e+00 2.110226e+00 4.027034e+00 3.541371e+00 3.797862e+00 2.926395e+00 2.378625e+00 2.462369e+00 2.394825e+00 1.803418e+00 1.435926e+00 1.213578e+00 1.500786e+00 4.328750e-01 3.591999e-01 8.028919e-01 5.545492e-01 3.328831e-01 6.581619e-01 4.208191e-01 4.575517e-01 2.902707e-01 4.282377e-01 3.574584e-01 3.052831e-01 1.673057e-01
<GCONST> 1.130099e+02
<STATE> 4
<MEAN> 39
 1.248093e+01 -1.461221e+01 9.884274e+00 -1.058832e+01 7.362895e+00 -7.518481e-01 -1.387626e+01 8.080494e+00 -1.969404e+01 -4.333430e-01 -4.037786e-01 -3.075732e+00 7.443405e+01 8.169114e-01 -7.646037e-01 -1.485840e+00 8.837098e-01 5.589741e-02 -2.054451e+00 -1.292553e+00 -1.064943e+00 -5.634297e-01 7.572718e-01 1.289767e+00 1.940643e-01 1.127776e+00 -2.045959e-01 -2.351800e-02 1.815698e-01 1.493260e-01 3.117011e-02 -1.891120e-02 2.804155e-02 6.368846e-02 2.324340e-01 2.001539e-01 2.820961e-02 -9.194739e-02 -5.149263e-02
<VARIANCE> 39
 1.135864e+01 1.312295e+01 4.824600e+01 4.774121e+01 5.727837e+01 5.425643e+01 3.321533e+01 4.417472e+01 3.777625e+01 2.617261e+01 1.774227e+01 1.516228e+01 1.609940e+01 1.129599e+00 1.481168e+00 3.672646e+00 3.042163e+00 3.415770e+00 2.773005e+00 3.389682e+00 2.903852e+00 2.343031e+00 2.333293e+00 2.354003e+00 1.963568e+00 8.036721e-01 2.099851e-01 2.370358e-01 4.964842e-01 4.434018e-01 3.109540e-01 6.915093e-01 3.011254e-01 4.153766e-01 4.428075e-01 4.178768e-01 2.341718e-01 2.200776e-01 1.231187e-01
<GCONST> 1.106239e+02
<TRANSP> 5
 0.000000e+00 1.000000e+00 0.000000e+00 0.000000e+00 0.000000e+00
 0.000000e+00 4.606622e-01 5.393378e-01 0.000000e+00 0.000000e+00
 0.000000e+00 0.000000e+00 3.492869e-01 6.507131e-01 0.000000e+00
 0.000000e+00 0.000000e+00 0.000000e+00 2.930687e-01 7.069313e-01
 0.000000e+00 0.000000e+00 0.000000e+00 0.000000e+00 0.000000e+00
<ENDHMM>
~h "x"
<BEGINHMM>
<NUMSTATES> 5
<STATE> 2
<MEAN> 39
 1.979531e+00 -2.145527e+01 1.687725e+01 -1.881666e+01 -9.990183e-01 9.654247e+00 -4.384029e+00 1.071445e+01 -1.728904e+01 5.192673e+00 4.027327e+00 -3.527212e+00 7.008488e+01 -9.142782e-01 -1.102412e+00 -3.912129e-01 -1.459197e+00 -1.255473e+00 8.438708e-01 1.000005e+00 1.670677e-01 -2.869283e-01 -5.856295e-01 -3.257541e-01 1.477797e-01 -2.793124e-01 4.156915e-01 3.295519e-01 -1.758858e-01 4.183964e-01 2.665123e-01 -5.464002e-01 -4.068763e-01 -1.315860e-01 -8.007578e-02 1.020595e-03 -5.980553e-02 -1.856558e-01 1.709753e-01
<VARIANCE> 39
 1.061551e+01 2.826879e+01 3.676286e+01 4.950802e+01 5.903580e+01 3.539888e+01 5.404310e+01 5.236947e+01 3.539363e+01 2.374092e+01 2.222623e+01 2.497058e+01 1.940971e+01 1.593404e+00 2.083812e+00 2.060930e+00 4.115450e+00 3.269639e+00 2.631812e+00 2.518163e+00 2.658919e+00 2.556609e+00 3.120134e+00 1.986399e+00 2.368642e+00 1.008428e+00 1.473011e-01 2.788802e-01 4.636548e-01 4.369284e-01 4.702564e-01 4.604667e-01 3.749422e-01 5.042145e-01 5.426068e-01 5.667935e-01 3.276524e-01 3.978948e-01 9.039687e-02
<GCONST> 1.139201e+02
<STATE> 3
<MEAN> 39
 -1.536054e+00 -2.465883e+01 2.091373e+01 -1.431186e+01 2.285112e+00 8.921793e+00 -7.886237e+00 7.617867e+00 -1.781164e+01 5.857893e+00 3.052198e-01 -5.578640e+00 7.016214e+01 5.934281e-01 1.079898e+00 -4.176934e-01 -3.435173e-02 -1.310950e-01 -3.988156e-02 4.923901e-01 -1.837653e-01 -9.447587e-02 -1.543899e-01 -2.922615e-01 8.654626e-02 -1.210494e-01 6.892679e-01 8.674101e-01 -1.586561e-01 5.812476e-01 4.267950e-01 -5.037194e-01 -3.741840e-01 3.172215e-02 1.073907e-01 -1.572756e-02 7.245100e-02 -8.791460e-02 4.533906e-02
<VARIANCE> 39
 1.815034e+01 2.100264e+01 5.577844e+01 7.532959e+01 5.374301e+01 3.808120e+01 4.808253e+01 4.876321e+01 4.289068e+01 3.205314e+01 3.598074e+01 1.536192e+01 1.475714e+01 3.160389e+00 4.411555e+00 2.739086e+00 3.388241e+00 3.476063e+00 3.635161e+00 2.836447e+00 3.180872e+00 2.765876e+00 3.283482e+00 1.797726e+00 2.023871e+00 1.357964e+00 4.357197e-01 4.564501e-01 6.133034e-01 5.520829e-01 5.790238e-01 7.147439e-01 6.612424e-01 5.937302e-01 7.433172e-01 7.026056e-01 4.765543e-01 3.184390e-01 3.191381e-01
<GCONST> 1.227908e+02
<STATE> 4
<MEAN> 39
 4.278425e+00 -1.686039e+01 1.763877e+01 -1.542895e+01 5.824426e-01 7.583657e+00 -4.276900e+00 8.718643e+00 -1.839006e+01 5.468446e+00 1.273509e+00 -4.985163e+00 7.024483e+01 2.129716e+00 2.612149e+00 -9.653605e-01 9.782283e-01 5.947800e-01 -2.349709e+00 -1.023553e+00 3.181909e-02 3.957973e-02 6.285718e-02 -3.302960e-01 -2.407609e-01 3.437068e-01 1.106490e-01 -2.354213e-01 -3.885921e-01 8.872853e-02 2.389495e-01 -3.846027e-01 -5.258077e-01 5.543260e-03 1.396466e-01 4.162094e-02 1.267156e-01 8.213127e-02 2.006517e-01
<VARIANCE> 39
 3.661699e+01 3.394315e+01 6.442926e+01 4.388390e+01 4.467283e+01 4.292906e+01 2.818374e+01 3.778927e+01 3.526260e+01 4.937740e+01 2.522857e+01 2.255876e+01 2.772450e+01 4.538260e+00 2.992454e+00 2.404358e+00 3.160400e+00 3.621786e+00 5.346757e+00 4.145541e+00 4.238814e+00 3.611290e+00 3.687556e+00 2.486960e+00 2.490393e+00 3.245156e+00 3.557820e-01 6.420847e-01 6.644298e-01 4.118668e-01 6.227792e-01 5.629544e-01 3.689939e-01 5.517577e-01 4.856478e-01 5.667874e-01 3.134638e-01 3.369942e-01 2.455667e-01
<GCONST> 1.241099e+02
<TRANSP> 5
 0.000000e+00 1.000000e+00 0.000000e+00 0.000000e+00 0.000000e+00
 0.000000e+00 7.503272e-01 2.496728e-01 0.000000e+00 0.000000e+00
 0.000000e+00 0.000000e+00 5.713157e-01 4.286843e-01 0.000000e+00
 0.000000e+00 0.000000e+00 0.000000e+00 3.515807e-01 6.484193e-01
 0.000000e+00 0.000000e+00 0.000000e+00 0.000000e+00 0.000000e+00
<ENDHMM>
~h "z"
<BEGINHMM>
<NUMSTATES> 5
<STATE> 2
<MEAN> 39
 -5.442454e-01 -1.661638e+01 3.321382e+01 -1.791253e+01 4.608708e+00 1.525474e+01 -8.482381e+00 6.224965e-01 -2.119815e+01 6.197893e+00 -4.011229e+00 -3.797221e+00 7.427323e+01 -7.118514e-01 -2.588605e-01 1.389193e+00 -1.028280e+00 -9.355487e-02 1.071558e+00 4.371639e-01 -1.669218e-01 -2.693666e-01 1.638308e-01 -3.536198e-01 3.370848e-01 1.909634e-01 8.278967e-01 1.159948e-01 -1.452626e+00 6.976271e-01 1.589272e-01 -8.334854e-01 -3.799355e-01 6.622462e-02 9.796041e-02 -2.442660e-01 2.318458e-01 -1.467785e-01 -3.377842e-02
<VARIANCE> 39
 2.810108e+01 1.822876e+01 6.129008e+01 4.284012e+01 3.815005e+01 3.661670e+01 4.429632e+01 5.029589e+01 4.830259e+01 2.320854e+01 2.931166e+01 1.964262e+01 3.901132e+01 5.089272e+00 2.019620e+00 1.189656e+01 4.050701e+00 1.983658e+00 4.064538e+00 2.581501e+00 3.155344e+00 2.482792e+00 1.823516e+00 1.795479e+00 1.539953e+00 1.724889e+00 4.722384e-01 4.007785e-01 1.279821e+00 6.310375e-01 3.592895e-01 6.031782e-01 4.438507e-01 6.374199e-01 4.951977e-01 3.552979e-01 3.735775e-01 3.422484e-01 2.085264e-01
<GCONST> 1.212116e+02
<STATE> 3
<MEAN> 39
 4.397493e+00 -1.719802e+01 2.757254e+01 -1.686705e+01 4.663415e+00 1.459249e+01 -1.027174e+01 -1.771148e+00 -2.162549e+01 4.197838e+00 -5.017354e+00 -3.918739e+00 7.587678e+01 2.990044e+00 4.661329e-01 -5.429053e+00 2.278008e+00 4.519461e-01 -2.292832e+00 -1.060828e+00 -3.731323e-01 1.627827e-01 -8.972012e-01 9.616995e-01 -3.831380e-01 6.131157e-04 2.290754e-01 1.211966e-01 -8.263922e-01 4.227146e-01 2.296060e-01 -7.148761e-01 -7.894137e-02 3.753655e-01 4.111130e-02 1.467787e-01 5.200441e-01 7.159425e-03 -6.972781e-02
<VARIANCE> 39
 2.129757e+01 1.841564e+01 3.178467e+01 2.843164e+01 3.138311e+01 2.218116e+01 2.610427e+01 3.405521e+01 2.173738e+01 2.388692e+01 2.571920e+01 9.509063e+00 2.022544e+01 1.684038e+00 1.787536e+00 4.372664e+00 2.537271e+00 2.451667e+00 4.520306e+00 1.836931e+00 3.096991e+00 2.706870e+00 1.802628e+00 1.449294e+00 1.635684e+00 1.276109e+00 3.603264e-01 3.228875e-01 7.321147e-01 4.214213e-01 3.433027e-01 5.164604e-01 2.753154e-01 4.375390e-01 3.264746e-01 4.987881e-01 3.042242e-01 2.507914e-01 2.069582e-01
<GCONST> 1.097574e+02
<STATE> 4
<MEAN> 39
 1.029292e+01 -1.615056e+01 1.534518e+01 -1.228175e+01 5.699596e+00 7.334990e+00 -1.149728e+01 -2.891825e-01 -2.208691e+01 3.553869e+00 -1.396136e+00 -4.407843e+00 7.590263e+01 2.168751e+00 2.605881e-01 -4.763890e+00 1.749201e+00 7.545734e-01 -2.780118e+00 -5.816059e-01 9.000241e-01 1.400444e-02 -1.669206e-01 1.691051e+00 2.092603e-01 -2.466841e-02 -6.305497e-01 -2.071846e-01 1.021434e+00 -5.078172e-01 -9.584831e-02 3.381162e-01 1.413015e-01 3.133222e-01 2.212740e-01 2.039019e-01 -3.857495e-03 3.375657e-01 6.207320e-02
<VARIANCE> 39
 2.402789e+01 1.693347e+01 6.427826e+01 2.500299e+01 3.828497e+01 4.858459e+01 2.728258e+01 4.125882e+01 1.962160e+01 2.539015e+01 2.457583e+01 1.610732e+01 2.430087e+01 1.332686e+00 1.768491e+00 3.897644e+00 2.649590e+00 2.210953e+00 4.658626e+00 2.116585e+00 2.907493e+00 2.741291e+00 2.787929e+00 2.033708e+00 2.455495e+00 1.013956e+00 3.016501e-01 2.538103e-01 5.944514e-01 4.174883e-01 4.182616e-01 6.787012e-01 3.056848e-01 5.168341e-01 3.198960e-01 4.084882e-01 3.664218e-01 2.750746e-01 1.700598e-01
<GCONST> 1.128330e+02
<TRANSP> 5
 0.000000e+00 1.000000e+00 0.000000e+00 0.000000e+00 0.000000e+00
 0.000000e+00 7.883472e-01 2.116528e-01 0.000000e+00 0.000000e+00
 0.000000e+00 0.000000e+00 4.016021e-01 5.983979e-01 0.000000e+00
 0.000000e+00 0.000000e+00 0.000000e+00 3.087316e-01 6.912684e-01
 0.000000e+00 0.000000e+00 0.000000e+00 0.000000e+00 0.000000e+00
<ENDHMM>
~h "aa"
<BEGINHMM>
<NUMSTATES> 5
<STATE> 2
<MEAN> 39
 1.461389e+01 -1.728810e+01 -9.377601e-01 -1.793814e+01 -2.412477e-01 -3.313233e+00 -5.955925e+00 1.477390e+01 -1.156362e+01 1.754031e+00 9.461786e-01 3.065030e+00 7.910863e+01 -2.358116e-02 -9.387279e-02 -2.742698e-01 -2.800261e-01 -3.068489e-01 8.076919e-02 6.247236e-01 4.024903e-01 4.032715e-01 1.049071e-01 -3.362737e-01 1.201194e-01 1.287210e-02 -3.465439e-02 8.475297e-02 2.939784e-01 1.787420e-01 2.347204e-01 1.236466e-01 -2.394067e-01 -2.599518e-01 -2.069322e-01 5.438628e-02 2.453065e-03 -1.600247e-01 -1.423179e-01
<VARIANCE> 39
 5.192425e+00 1.247372e+01 2.594254e+01 1.963967e+01 2.563005e+01 3.158266e+01 2.593052e+01 4.286277e+01 4.358563e+01 5.181634e+01 2.895145e+01 1.989434e+01 1.805274e+01 3.169349e-01 7.476064e-01 1.307598e+00 9.962177e-01 1.263348e+00 1.066703e+00 1.784348e+00 1.399695e+00 1.771976e+00 1.634510e+00 1.200923e+00 9.407042e-01 2.154261e-01 8.762089e-02 1.474275e-01 2.517382e-01 1.960078e-01 1.953487e-01 2.846541e-01 2.178682e-01 2.433970e-01 3.158591e-01 3.261828e-01 2.662933e-01 2.096579e-01 3.921598e-02
<GCONST> 9.087006e+01
<STATE> 3
<MEAN> 39
 1.504415e+01 -1.794791e+01 1.689027e-01 -1.707574e+01 6.603367e-01 -4.088049e+00 -6.488338e+00 1.395716e+01 -1.377943e+01 2.871834e+00 1.400789e+00 3.487662e+00 7.916901e+01 -5.060523e-02 4.575340e-01 1.333353e+00 9.840780e-01 9.694200e-01 4.274321e-01 -7.375015e-01 -1.212014e+00 -1.049966e+00 8.240264e-01 3.812968e-01 -9.011077e-01 -8.216391e-01 -3.740210e-01 3.304240e-01 7.077887e-01 3.933914e-01 2.754332e-01 7.904242e-01 -4.771230e-02 -4.297140e-01 1.057486e-01 -9.800667e-02 -2.438655e-01 -4.267958e-01 -4.207660e-01
<VARIANCE> 39
 5.344848e+00 1.412031e+01 2.270864e+01 1.680420e+01 2.683761e+01 2.879778e+01 2.263191e+01 4.376353e+01 3.452374e+01 5.478000e+01 2.259219e+01 1.981436e+01 1.960444e+01 5.756561e-01 1.289716e+00 2.278330e+00 1.922340e+00 1.939362e+00 1.912226e+00 2.080499e+00 1.943022e+00 2.362840e+00 3.747136e+00 2.000313e+00 2.016746e+00 6.198463e-01 1.613279e-01 1.733135e-01 4.960195e-01 2.921307e-01 3.577192e-01 3.440191e-01 3.156604e-01 3.865256e-01 4.181758e-01 4.947886e-01 2.833577e-01 3.410136e-01 8.722688e-02
<GCONST> 1.030434e+02
<STATE> 4
<MEAN> 39
 1.294879e+01 -1.483492e+01 5.259815e+00 -1.452729e+01 1.735589e+00 -7.630368e-01 -6.801283e+00 9.799221e+00 -1.508596e+01 5.765058e+00 1.749946e+00 1.252308e-01 7.507605e+01 -1.736799e+00 1.154331e+00 3.290014e+00 1.209193e+00 8.915856e-01 3.025145e+00 -1.595872e-01 -1.184261e+00 4.804437e-01 -1.816772e-01 -6.839896e-01 -1.213324e+00 -1.996934e+00 -5.053627e-01 -2.147208e-01 3.623263e-01 -9.289155e-02 -7.011373e-02 3.539763e-01 3.669867e-02 2.306173e-01 3.808748e-01 -2.938888e-01 -1.803017e-01 1.326538e-01 -9.922557e-02
<VARIANCE> 39
 1.401809e+01 1.931477e+01 3.662870e+01 2.568954e+01 3.646515e+01 5.063400e+01 4.800346e+01 3.473446e+01 5.266195e+01 4.942673e+01 2.665883e+01 2.372564e+01 3.362629e+01 1.806649e+00 1.620795e+00 6.532841e+00 3.061297e+00 3.146534e+00 3.615413e+00 2.489661e+00 3.368914e+00 3.478276e+00 4.466159e+00 1.905601e+00 2.827006e+00 1.228396e+00 3.354837e-01 3.200978e-01 8.619758e-01 2.889132e-01 3.360968e-01 7.084096e-01 4.406650e-01 3.539892e-01 6.651370e-01 5.941923e-01 4.331966e-01 3.435880e-01 1.958086e-01
<GCONST> 1.187775e+02
<TRANSP> 5
 0.000000e+00 1.000000e+00 0.000000e+00 0.000000e+00 0.000000e+00
 0.000000e+00 8.614802e-01 1.385197e-01 0.000000e+00 0.000000e+00
 0.000000e+00 0.000000e+00 5.545148e-01 4.454853e-01 0.000000e+00
 0.000000e+00 0.000000e+00 0.000000e+00 4.826874e-01 5.173126e-01
 0.000000e+00 0.000000e+00 0.000000e+00 0.000000e+00 0.000000e+00
<ENDHMM>
~h "aw"
<BEGINHMM>
<NUMSTATES> 5
<STATE> 2
<MEAN> 39
 -7.474797e-01 -1.372438e+01 1.363240e+01 -7.800015e+00 3.957401e+00 4.912278e+00 -9.313604e+00 9.542570e+00 -9.857509e+00 3.919184e+00 1.996032e+00 -2.240039e+00 6.241040e+01 -1.802149e-04 -4.002908e-04 -4.533151e-04 -6.255359e-04 3.060046e-04 -9.756409e-05 3.545313e-04 3.676544e-04 -3.322966e-04 2.823267e-04 3.441859e-04 -7.776468e-06 1.221478e-04 -1.140098e-05 1.280875e-04 8.513568e-05 5.610451e-05 1.307168e-04 1.258145e-04 -3.556004e-04 -3.413941e-04 -2.462322e-04 -2.982411e-04 -2.002541e-04 1.479088e-04 -5.553468e-05
<VARIANCE> 39
 7.885750e+01 3.150516e+01 5.932858e+01 4.002160e+01 3.388152e+01 4.450462e+01 4.196474e+01 3.377337e+01 5.805833e+01 2.700758e+01 1.807174e+01 1.807939e+01 1.000320e+02 2.049164e+00 1.868461e+00 3.042747e+00 2.325078e+00 1.845033e+00 2.917301e+00 2.107786e+00 2.084596e+00 2.106791e+00 1.946175e+00 1.426612e+00 1.517214e+00 1.393703e+00 2.791751e-01 3.309114e-01 4.813313e-01 4.079526e-01 3.174572e-01 5.210913e-01 3.729059e-01 3.905098e-01 3.965955e-01 3.683704e-01 2.743881e-01 2.959611e-01 2.159844e-01
<GCONST> 1.148699e+02
<STATE> 3
<MEAN> 39
 -7.474797e-01 -1.372438e+01 1.363240e+01 -7.800015e+00 3.957401e+00 4.912278e+00 -9.313604e+00 9.542570e+00 -9.857509e+00 3.919184e+00 1.996032e+00 -2.240039e+00 6.241040e+01 -1.802149e-04 -4.002908e-04 -4.533151e-04 -6.255359e-04 3.060046e-04 -9.756409e-05 3.545313e-04 3.676544e-04 -3.322966e-04 2.823267e-04 3.441859e-04 -7.776468e-06 1.221478e-04 -1.140098e-05 1.280875e-04 8.513568e-05 5.610451e-05 1.307168e-04 1.258145e-04 -3.556004e-04 -3.413941e-04 -2.462322e-04 -2.982411e-04 -2.002541e-04 1.479088e-04 -5.553468e-05
<VARIANCE> 39
 7.885750e+01 3.150516e+01 5.932858e+01 4.002160e+01 3.388152e+01 4.450462e+01 4.196474e+01 3.377337e+01 5.805833e+01 2.700758e+01 1.807174e+01 1.807939e+01 1.000320e+02 2.049164e+00 1.868461e+00 3.042747e+00 2.325078e+00 1.845033e+00 2.917301e+00 2.107786e+00 2.084596e+00 2.106791e+00 1.946175e+00 1.426612e+00 1.517214e+00 1.393703e+00 2.791751e-01 3.309114e-01 4.813313e-01 4.079526e-01 3.174572e-01 5.210913e-01 3.729059e-01 3.905098e-01 3.965955e-01 3.683704e-01 2.743881e-01 2.959611e-01 2.159844e-01
<GCONST> 1.148699e+02
<STATE> 4
<MEAN> 39
 -7.474797e-01 -1.372438e+01 1.363240e+01 -7.800015e+00 3.957401e+00 4.912278e+00 -9.313604e+00 9.542570e+00 -9.857509e+00 3.919184e+00 1.996032e+00 -2.240039e+00 6.241040e+01 -1.802149e-04 -4.002908e-04 -4.533151e-04 -6.255359e-04 3.060046e-04 -9.756409e-05 3.545313e-04 3.676544e-04 -3.322966e-04 2.823267e-04 3.441859e-04 -7.776468e-06 1.221478e-04 -1.140098e-05 1.280875e-04 8.513568e-05 5.610451e-05 1.307168e-04 1.258145e-04 -3.556004e-04 -3.413941e-04 -2.462322e-04 -2.982411e-04 -2.002541e-04 1.479088e-04 -5.553468e-05
<VARIANCE> 39
 7.885750e+01 3.150516e+01 5.932858e+01 4.002160e+01 3.388152e+01 4.450462e+01 4.196474e+01 3.377337e+01 5.805833e+01 2.700758e+01 1.807174e+01 1.807939e+01 1.000320e+02 2.049164e+00 1.868461e+00 3.042747e+00 2.325078e+00 1.845033e+00 2.917301e+00 2.107786e+00 2.084596e+00 2.106791e+00 1.946175e+00 1.426612e+00 1.517214e+00 1.393703e+00 2.791751e-01 3.309114e-01 4.813313e-01 4.079526e-01 3.174572e-01 5.210913e-01 3.729059e-01 3.905098e-01 3.965955e-01 3.683704e-01 2.743881e-01 2.959611e-01 2.159844e-01
<GCONST> 1.148699e+02
<TRANSP> 5
 0.000000e+00 1.000000e+00 0.000000e+00 0.000000e+00 0.000000e+00
 0.000000e+00 6.000000e-01 4.000000e-01 0.000000e+00 0.000000e+00
 0.000000e+00 0.000000e+00 6.000000e-01 4.000000e-01 0.000000e+00
 0.000000e+00 0.000000e+00 0.000000e+00 7.000000e-01 3.000000e-01
 0.000000e+00 0.000000e+00 0.000000e+00 0.000000e+00 0.000000e+00
<ENDHMM>
~h "ch"
<BEGINHMM>
<NUMSTATES> 5
<STATE> 2
<MEAN> 39
 -2.829698e+00 -2.178088e+01 2.136413e+01 -3.426448e+00 2.982415e+00 5.844629e+00 -1.190516e+01 8.406661e+00 -1.197412e+01 -9.549733e-01 1.114509e+00 -1.112215e+00 6.625754e+01 -2.267716e+00 -3.565033e+00 8.181782e-01 -1.492425e+00 -1.196901e+00 1.283588e-01 8.170115e-02 1.113544e+00 9.181648e-01 -5.720639e-01 -6.690573e-01 5.622551e-01 1.108423e+00 -5.540750e-03 -5.788525e-01 8.701973e-02 -3.557578e-01 1.890415e-01 -3.581886e-01 -3.840590e-01 -1.133548e-01 -2.367801e-01 3.821081e-01 2.589083e-02 -1.579316e-01 7.608439e-01
<VARIANCE> 39
 2.848093e+01 7.478402e+01 5.271581e+01 2.286723e+01 2.914448e+01 2.040443e+01 2.934700e+01 3.639079e+01 3.305931e+01 2.212469e+01 1.823892e+01 1.428876e+01 4.464462e+01 3.448835e+00 6.181322e+00 5.865810e+00 3.395236e+00 3.011797e+00 2.559296e+00 3.320883e+00 2.387813e+00 2.789811e+00 2.282578e+00 1.482810e+00 1.069532e+00 4.452360e+00 3.641437e-01 1.410074e+00 1.042003e+00 4.575270e-01 5.881518e-01 5.593076e-01 5.306588e-01 5.885240e-01 4.886849e-01 5.053169e-01 3.907384e-01 2.236328e-01 5.221485e-01
<GCONST> 1.215550e+02
<STATE> 3
<MEAN> 39
 -9.340036e+00 -3.561259e+01 2.584777e+01 -1.044789e+01 2.549252e+00 4.969460e+00 -1.581609e+01 8.834475e+00 -1.024275e+01 2.357638e+00 1.489289e-01 -4.937174e-01 7.603198e+01 3.115059e-01 6.653519e-02 -4.336166e-03 -3.038542e-01 1.819827e-01 4.213054e-02 -2.993994e-01 -5.925803e-01 6.170714e-02 6.979147e-01 2.621002e-01 -4.689521e-02 5.555962e-01 9.883643e-01 1.258910e+00 -4.756390e-01 5.822598e-01 2.160403e-01 -1.665547e-02 1.474788e-01 -2.095810e-01 -2.300815e-01 -1.260788e-01 1.147540e-01 -1.445548e-01 -4.811008e-01
<VARIANCE> 39
 1.040649e+01 1.105295e+01 2.147457e+01 2.579636e+01 2.444987e+01 2.538140e+01 3.158152e+01 3.113515e+01 2.626064e+01 2.294254e+01 1.574596e+01 1.539015e+01 1.487985e+01 4.354386e+00 6.143391e+00 2.987428e+00 3.351722e+00 2.601907e+00 1.877302e+00 2.985215e+00 3.158511e+00 2.593608e+00 2.787700e+00 1.986198e+00 1.252480e+00 2.163733e+00 3.248586e-01 3.058721e-01 5.509185e-01 5.125241e-01 5.310117e-01 3.812381e-01 4.874066e-01 5.608277e-01 5.073399e-01 4.826823e-01 3.547756e-01 2.584748e-01 1.778179e-01
<GCONST> 1.117431e+02
<STATE> 4
<MEAN> 39
 2.287432e+00 -2.400199e+01 2.225508e+01 -5.872276e+00 5.819710e+00 5.297399e+00 -1.584613e+01 4.378520e+00 -1.227025e+01 4.119510e+00 1.996759e+00 -2.526987e+00 7.490901e+01 4.386917e+00 3.749923e+00 -2.885428e+00 1.645975e+00 1.627856e+00 -1.330433e+00 -5.134372e-01 -4.714303e-01 -1.508278e+00 -2.750760e-01 4.704631e-01 -8.804296e-01 -3.038320e-01 -1.842267e-01 -4.957730e-01 -5.833739e-01 -2.230508e-01 9.575848e-02 -6.892416e-01 -2.974425e-01 4.829121e-01 -2.049606e-01 -2.866361e-01 1.681575e-02 1.239268e-01 2.272679e-01
<VARIANCE> 39
 4.548414e+01 3.247771e+01 5.608707e+01 3.216710e+01 2.384546e+01 2.556215e+01 4.622374e+01 3.142772e+01 3.239184e+01 3.552821e+01 2.771618e+01 1.694055e+01 2.608379e+01 2.292253e+00 2.390589e+00 4.044394e+00 2.590254e+00 3.021690e+00 3.467472e+00 3.712964e+00 2.957144e+00 4.479067e+00 3.171885e+00 2.332021e+00 1.638295e+00 1.608117e+00 7.254444e-01 5.220943e-01 6.823574e-01 4.208491e-01 4.716419e-01 4.536057e-01 5.270690e-01 5.880727e-01 5.790561e-01 4.198722e-01 3.528798e-01 3.530114e-01 1.496494e-01
<GCONST> 1.195643e+02
<TRANSP> 5
 0.000000e+00 1.000000e+00 0.000000e+00 0.000000e+00 0.000000e+00
 0.000000e+00 7.242240e-01 2.757760e-01 0.000000e+00 0.000000e+00
 0.000000e+00 0.000000e+00 8.220404e-01 1.779596e-01 0.000000e+00
 0.000000e+00 0.000000e+00 0.000000e+00 6.009078e-01 3.990922e-01
 0.000000e+00 0.000000e+00 0.000000e+00 0.000000e+00 0.000000e+00
<ENDHMM>
~h "dj"
<BEGINHMM>
<NUMSTATES> 5
<STATE> 2
<MEAN> 39
 7.469088e+00 -1.158301e+01 1.999480e+01 3.336943e+00 1.242977e+01 3.119198e-01 -1.499682e+01 6.273374e+00 -1.518709e+01 2.174377e+00 7.594123e-01 -1.190317e+00 6.840331e+01 -9.382755e-01 -1.823083e-01 1.918533e+00 -4.676841e-01 -6.302674e-01 6.783929e-01 6.036195e-01 3.050677e-01 1.768462e-01 7.389239e-01 -3.478185e-01 -1.670531e-01 -3.410549e-01 1.121981e-01 -7.463492e-01 6.468485e-02 -3.307568e-01 -5.259612e-02 -3.112830e-01 -2.841437e-01 5.571483e-02 -5.221010e-01 -1.219306e-01 -1.552456e-01 -3.687405e-01 6.155770e-01
<VARIANCE> 39
 1.315304e+01 4.391870e+01 5.220288e+01 3.366787e+01 2.728781e+01 3.677761e+01 3.296309e+01 2.903200e+01 3.981019e+01 1.964735e+01 1.297670e+01 9.864428e+00 2.325341e+01 4.801389e-01 9.104885e+00 2.644976e+00 5.209646e+00 2.815477e+00 2.578555e+00 3.645871e+00 3.854514e+00 6.109531e+00 2.637764e+00 1.546448e+00 1.412156e+00 4.213829e+00 1.306316e-01 1.556595e+00 6.398482e-01 9.562950e-01 7.643349e-01 4.716329e-01 1.130755e+00 7.938870e-01 1.162494e+00 3.828573e-01 2.711081e-01 2.161806e-01 6.868800e-01
<GCONST> 1.204320e+02
<STATE> 3
<MEAN> 39
 5.186733e+00 -1.883909e+01 2.704003e+01 8.798007e-01 1.158426e+01 4.840114e-01 -1.696801e+01 6.788816e+00 -1.770216e+01 3.304869e+00 -2.296239e+00 -4.265351e+00 7.258995e+01 5.001094e-01 -1.251083e+00 8.237164e-02 9.894068e-01 9.570595e-01 -1.255805e+00 -2.229256e+00 -9.079457e-01 -7.836050e-01 -3.398640e-01 -5.846945e-01 -9.371550e-01 1.098880e+00 4.146967e-01 7.308301e-01 -1.073201e+00 3.520533e-01 4.955750e-03 -4.493579e-01 -1.652008e-01 -1.301094e-01 1.649764e-01 -3.888133e-01 4.100316e-01 2.253055e-01 -2.038793e-01
<VARIANCE> 39
 1.829786e+01 1.515632e+01 8.256868e+01 4.449203e+01 3.891457e+01 3.555712e+01 4.054422e+01 3.123810e+01 2.253965e+01 2.220211e+01 1.994885e+01 1.807341e+01 1.564046e+01 9.588401e-01 2.686571e+00 4.005658e+00 6.700418e+00 3.207357e+00 3.261573e+00 2.758590e+00 1.532601e+00 4.988773e+00 1.887056e+00 1.644615e+00 6.415755e-01 1.940743e+00 1.361015e-01 5.118436e-01 4.596739e-01 1.065130e+00 7.204058e-01 5.056486e-01 1.127387e+00 5.097275e-01 5.541601e-01 5.796384e-01 5.957738e-01 2.781937e-01 2.896302e-01
<GCONST> 1.166110e+02
<STATE> 4
<MEAN> 39
 8.949685e+00 -1.919223e+01 1.931050e+01 1.948550e+00 1.493032e+01 -3.867325e+00 -2.164774e+01 4.191330e+00 -2.104529e+01 2.013628e+00 -3.596064e-01 -5.320871e+00 7.492380e+01 2.229933e-01 6.302357e-02 -6.831869e-01 -2.165599e-01 -2.371508e-01 -2.455255e-01 -2.353432e-01 -1.314021e-01 -2.944929e-01 -1.785141e-01 8.290272e-01 -4.973860e-02 2.722232e-01 -1.300996e-01 2.299504e-01 1.059485e-02 -3.401351e-01 -3.737084e-01 3.564753e-01 5.542651e-01 2.369879e-01 2.352884e-01 -6.383734e-02 7.976858e-02 3.047511e-01 -2.057152e-01
<VARIANCE> 39
 2.257899e+01 1.200607e+01 1.318572e+02 3.686772e+01 3.157371e+01 3.223676e+01 2.387591e+01 3.410556e+01 3.793723e+01 3.001055e+01 2.464033e+01 1.205018e+01 1.738465e+01 7.235699e-01 6.763080e-01 3.182594e+00 2.516725e+00 1.563977e+00 1.998677e+00 2.109139e+00 1.555686e+00 1.340554e+00 1.432676e+00 2.115885e+00 1.526485e+00 4.208550e-01 9.308389e-02 1.697683e-01 4.210175e-01 4.012761e-01 3.908936e-01 4.152979e-01 6.363943e-01 2.110159e-01 3.449140e-01 2.931124e-01 3.009353e-01 1.705347e-01 1.492756e-01
<GCONST> 1.027216e+02
<TRANSP> 5
 0.000000e+00 1.000000e+00 0.000000e+00 0.000000e+00 0.000000e+00
 0.000000e+00 7.294829e-01 2.705171e-01 0.000000e+00 0.000000e+00
 0.000000e+00 0.000000e+00 5.491532e-01 4.508468e-01 0.000000e+00
 0.000000e+00 0.000000e+00 0.000000e+00 6.278335e-01 3.721664e-01
 0.000000e+00 0.000000e+00 0.000000e+00 0.000000e+00 0.000000e+00
<ENDHMM>
~h "ee"
<BEGINHMM>
<NUMSTATES> 5
<STATE> 2
<MEAN> 39
